{"version": 2, "timestamp": "20250906_214159", "params": {"time_scale": 10.0, "fps": 60.0, "paused": true, "use_spatial": true, "substrate_shape": "rectangular", "world_w": 5000.0, "world_h": 5000.0, "substrate_radius": 5000.0, "max_deaths_per_step": 5, "retina_skip": 2, "retina_vision_mode": "fullbody", "simple_render": false, "reuse_spatial_grid": true, "food_target": 200, "food_min_r": 8.0, "food_max_r": 10.0, "food_replenish_interval": 0.1, "bacteria_count": 100, "bacteria_min_r": 6.0, "bacteria_max_r": 12.0, "bacteria_min_limit": 20, "bacteria_max_limit": 400, "bacteria_initial_energy": 100.0, "bacteria_death_energy": 0.0, "bacteria_split_energy": 200.0, "bacteria_metab_v0_cost": 3.0, "bacteria_metab_vmax_cost": 6.0, "bacteria_energy_cap": 200.0, "bacteria_body_size": 9.0, "bacteria_max_speed": 300.0, "bacteria_max_turn": 3.141592653589793, "bacteria_vision_radius": 180.0, "bacteria_vision_mode": "frontal", "bacteria_retina_count": 18, "bacteria_retina_fov_degrees": 180.0, "bacteria_show_vision": true, "bacteria_retina_see_food": true, "bacteria_retina_see_bacteria": false, "bacteria_retina_see_predators": true, "bacteria_hidden_layers": 3, "bacteria_neurons_layer_1": 32, "bacteria_neurons_layer_2": 16, "bacteria_neurons_layer_3": 8, "bacteria_neurons_layer_4": 20, "bacteria_neurons_layer_5": 0, "bacteria_mutation_rate": 0.1, "bacteria_mutation_strength": 0.1, "bacteria_structural_jitter": 0, "predators_enabled": true, "predator_count": 1, "predator_min_r": 10.0, "predator_max_r": 18.0, "predator_min_limit": 1, "predator_max_limit": 100, "predator_initial_energy": 100.0, "predator_death_energy": 100.0, "predator_split_energy": 400.0, "predator_metab_v0_cost": 10.0, "predator_metab_vmax_cost": 15.0, "predator_energy_cap": 400.0, "predator_body_size": 30.0, "predator_max_speed": 300.0, "predator_max_turn": 3.141592653589793, "predator_vision_radius": 500.0, "predator_vision_mode": "frontal", "predator_retina_count": 18, "predator_retina_fov_degrees": 120.0, "predator_show_vision": false, "predator_retina_see_food": false, "predator_retina_see_bacteria": true, "predator_retina_see_predators": false, "predator_hidden_layers": 3, "predator_neurons_layer_1": 32, "predator_neurons_layer_2": 16, "predator_neurons_layer_3": 8, "predator_neurons_layer_4": 0, "predator_neurons_layer_5": 0, "predator_mutation_rate": 0.1, "predator_mutation_strength": 0.1, "predator_structural_jitter": 0, "agents_inertia": 1.0, "show_selected_details": true, "substrate_bg_color": [18, 7, 53], "food_color": [50, 100, 0], "bacteria_color": [173, 115, 0], "predator_color": [154, 0, 0], "disable_brain_activations": false, "auto_export_substrate": true, "auto_export_interval_minutes": 10.0}, "ui_params": {"time_scale": 10.0, "fps": 60, "paused": true, "use_spatial": true, "retina_skip": 2, "retina_vision_mode": "fullbody", "simple_render": false, "reuse_spatial_grid": true, "agents_inertia": 1.0, "show_selected_details": true, "enable_brain_activations": true, "auto_export_substrate": true, "auto_export_interval_minutes": 10.0, "food_target": 200, "food_min_r": 8.0, "food_max_r": 10.0, "food_replenish_interval": 0.1, "world_w": 5000.0, "world_h": 5000.0, "substrate_shape": "rectangular", "substrate_radius": 5000.0, "bacteria_count": 100, "bacteria_min_limit": 20, "bacteria_max_limit": 400, "bacteria_initial_energy": 100.0, "bacteria_death_energy": 0.0, "bacteria_split_energy": 200.0, "bacteria_metab_v0_cost": 3.0, "bacteria_metab_vmax_cost": 6.0, "bacteria_energy_cap": 200.0, "bacteria_body_size": 9.0, "bacteria_vision_radius": 180.0, "bacteria_retina_count": 18, "bacteria_retina_fov_degrees": 180.0, "bacteria_max_speed": 300.0, "bacteria_max_turn_deg": 180.0, "bacteria_hidden_layers": 3, "bacteria_neurons_layer_1": 32, "bacteria_neurons_layer_2": 16, "bacteria_neurons_layer_3": 8, "bacteria_neurons_layer_4": 20, "bacteria_neurons_layer_5": 0, "bacteria_mutation_rate": 0.1, "bacteria_mutation_strength": 0.1, "bacteria_show_vision": true, "bacteria_retina_see_food": true, "bacteria_retina_see_bacteria": false, "bacteria_retina_see_predators": true, "predators_enabled": true, "predator_count": 1, "predator_min_limit": 1, "predator_max_limit": 100, "predator_initial_energy": 100.0, "predator_death_energy": 100.0, "predator_split_energy": 400.0, "predator_metab_v0_cost": 10.0, "predator_metab_vmax_cost": 15.0, "predator_energy_cap": 400.0, "predator_body_size": 30.0, "predator_vision_radius": 500.0, "predator_retina_count": 18, "predator_retina_fov_degrees": 120.0, "predator_max_speed": 300.0, "predator_max_turn_deg": 180.0, "predator_hidden_layers": 3, "predator_neurons_layer_1": 32, "predator_neurons_layer_2": 16, "predator_neurons_layer_3": 8, "predator_neurons_layer_4": 0, "predator_neurons_layer_5": 0, "predator_mutation_rate": 0.1, "predator_mutation_strength": 0.1, "predator_retina_see_food": false, "predator_retina_see_bacteria": true, "predator_retina_see_predators": false, "predator_show_vision": false, "test_param_1": 1, "test_param_2": 2, "test_param_3": 3.0, "test_param_4": 4, "test_param_5": 5, "test_param_6": 6.0, "test_param_7": 7, "test_param_8": 8, "test_param_9": 9.0, "test_param_10": 10, "test_param_11": 11, "test_param_12": 12.0, "test_param_13": 13, "test_param_14": 14, "test_param_15": 15.0, "test_param_16": 16, "test_param_17": 17, "test_param_18": 18.0, "test_param_19": 19, "test_param_20": 20, "test_param_21": 21.0, "test_param_22": 22, "test_param_23": 23, "test_param_24": 24.0, "test_param_25": 25, "test_param_26": 26, "test_param_27": 27.0, "test_param_28": 28, "test_param_29": 29, "test_param_30": 30.0}, "world": {"width": 5000.0, "height": 5000.0, "shape": "rectangular", "radius": 5000.0}, "camera": {"x": -1461.7877719835808, "y": -4260.428434328687, "zoom": 0.07400249944258584}, "simulation": {"total_simulation_time": 850178.8396005717}, "food": {"count": 199, "target": 200}, "agents": [{"type": "bacteria", "x": 1533.8016997470338, "y": 1305.1979748117897, "r": 9.0, "angle": 1.6472413109662025, "vx": -22.911033753449015, "vy": 299.122135562487, "energy": 85.59521222968291, "age": 65.47874999999998, "brain_sizes": [18, 32, 16, 8, 2], "brain_version": 32129, "brain_weights": [[[-6.1229729652404785, 4.00607442855835, 5.976069450378418, -0.6376698613166809, -2.6351170539855957, 9.26632308959961, 6.778177261352539, -3.447439670562744, -0.19450584053993225, 6.828091144561768, -4.28224515914917, -6.132339954376221, 4.511470317840576, -5.956344127655029, -8.645299911499023, -9.388714790344238, -1.0473952293395996, -4.372622966766357], [-2.377717971801758, 2.3370800018310547, -5.512982368469238, 13.015043258666992, -15.611830711364746, -3.011829137802124, 2.4744222164154053, 0.1909218430519104, -9.161393165588379, 7.100873947143555, -0.8247901201248169, -5.1386871337890625, 0.8263721466064453, -2.2502264976501465, -2.8876795768737793, 8.305197715759277, -3.2881104946136475, 7.579094409942627], [3.2631564140319824, -3.247716188430786, 10.658044815063477, -1.968818187713623, -1.8412302732467651, -8.66418743133545, 8.655953407287598, -1.4580516815185547, -1.986235499382019, 2.0618205070495605, -0.020075947046279907, -4.896800994873047, 1.606624960899353, 4.764894008636475, -9.561640739440918, -0.34620267152786255, -7.275986194610596, -3.3255083560943604], [1.7197622060775757, -8.801950454711914, -6.737982273101807, 9.872478485107422, -5.472369194030762, 2.564683198928833, -2.6580448150634766, -9.682065963745117, -2.1398749351501465, 6.039707183837891, -5.6828131675720215, 6.10267972946167, -0.4203546941280365, -4.6596503257751465, -4.60678768157959, -11.479230880737305, -1.608170509338379, 0.8508610725402832], [-0.9176576733589172, -5.170230388641357, 1.5406991243362427, -9.680802345275879, -17.359447479248047, -1.5572419166564941, 3.229100465774536, -2.942751884460449, -15.396422386169434, -0.814827561378479, 3.6313223838806152, 4.7990288734436035, 6.531008720397949, -5.365316867828369, -0.8553431034088135, 9.998493194580078, 7.721398830413818, -8.292786598205566], [13.226449012756348, 2.382413625717163, 9.650381088256836, 6.896895885467529, -5.179596900939941, -3.4508259296417236, 9.199036598205566, -7.305610179901123, -6.335208892822266, 3.8221826553344727, -4.961888790130615, 2.3904998302459717, 7.174469470977783, -3.7200937271118164, 2.923069477081299, -9.16553020477295, -1.098672866821289, -3.9077751636505127], [-4.746798038482666, 12.29049015045166, -5.114439964294434, 8.388691902160645, -10.765338897705078, -2.7858917713165283, -3.914790630340576, -0.7222027778625488, 7.705301761627197, 4.2006025314331055, 12.013260841369629, -4.4533185958862305, -4.7799153327941895, 1.8079301118850708, 2.123727798461914, 0.20916230976581573, -1.008547067642212, -5.314054012298584], [-4.815049171447754, 7.696741104125977, 5.871795654296875, 13.665271759033203, -1.8781073093414307, 2.6771278381347656, 11.320420265197754, 1.5986368656158447, 5.143677711486816, 8.140909194946289, -12.576708793640137, 0.4801816940307617, -1.9560492038726807, 4.4779133796691895, 4.894659042358398, -8.1619873046875, -1.8644884824752808, -1.1472358703613281], [-1.3742855787277222, 0.254786878824234, -4.554906845092773, 2.3421382904052734, 0.4155142903327942, 8.440092086791992, -0.5555384755134583, -2.128962516784668, -1.7414844036102295, -3.2801144123077393, -0.8854814171791077, 0.6736496090888977, 10.321893692016602, 10.387646675109863, -7.731437683105469, 3.645118236541748, 3.076423406600952, 6.915870189666748], [0.4655788540840149, -8.784284591674805, 10.74405288696289, 1.4819809198379517, 0.14835837483406067, -1.512230634689331, 2.6535775661468506, 2.241800308227539, 9.943628311157227, 2.323160171508789, 0.5887757539749146, 4.785690784454346, -0.6931444406509399, -0.8646223545074463, 0.7354846000671387, 9.15253734588623, -0.9019471406936646, 1.602553367614746], [9.705623626708984, 6.862983226776123, 3.0153660774230957, 2.8610243797302246, 6.271784782409668, 0.6559979915618896, 6.526315689086914, 0.45630550384521484, -1.323546051979065, -2.6455914974212646, 1.5528178215026855, -5.457870960235596, -0.6861242651939392, -2.98006534576416, -5.474062442779541, 7.2074689865112305, 6.330432415008545, 1.6114507913589478], [-4.39692497253418, 1.0248608589172363, 2.4681432247161865, 1.3527019023895264, -1.827755331993103, -0.9057253003120422, -9.664505004882812, -1.445363998413086, 0.9192006587982178, -6.455813407897949, 0.18671274185180664, 7.589468002319336, 0.14132651686668396, -0.2441507875919342, 0.4517064094543457, -4.492764949798584, 2.9850785732269287, 4.468748092651367], [0.8594144582748413, 0.17315220832824707, -1.9895063638687134, -0.7709856033325195, -5.396268844604492, 0.0948108658194542, -6.141042709350586, 1.1109435558319092, -3.722893714904785, -1.2722868919372559, -4.648016929626465, 3.1680963039398193, 8.02556037902832, 0.2523386478424072, -5.021567344665527, -0.0764714777469635, 0.09438307583332062, -0.17090007662773132], [7.970302104949951, 1.5431098937988281, -6.015969276428223, -10.44479751586914, 1.400999903678894, 2.6914680004119873, -2.077655792236328, 1.759448766708374, -7.031677722930908, -10.770041465759277, -3.603924512863159, -3.9343695640563965, -7.408393383026123, -2.329583168029785, 7.205440521240234, 13.121533393859863, 2.8778316974639893, -1.4243334531784058], [-4.566311836242676, -3.32768177986145, 6.539923667907715, 3.3321683406829834, 7.51940393447876, -0.9020771384239197, -1.4941341876983643, -0.04734853655099869, -0.6249503493309021, -13.935912132263184, 1.1318883895874023, -3.3777451515197754, -2.3342771530151367, 7.67830228805542, 1.7978595495224, -1.8712172508239746, 4.820738792419434, -10.161539077758789], [-14.031489372253418, -7.601891040802002, 2.1574413776397705, 6.397931098937988, 2.497744083404541, 0.7899377942085266, 2.374131202697754, -5.523393630981445, 6.613230228424072, -4.210329055786133, -4.209836959838867, -3.5695910453796387, -6.555732250213623, -3.2441184520721436, -14.866050720214844, -11.73960018157959, -0.24812982976436615, -2.00510573387146], [0.7951189875602722, 0.3558751940727234, 13.5969820022583, -0.4877154231071472, -2.554746150970459, -1.3074301481246948, 4.082073211669922, -0.5716437697410583, -6.055692195892334, -5.336219310760498, 4.767007350921631, -4.732429027557373, -0.11498881876468658, -8.856748580932617, 5.49690055847168, 2.0766589641571045, -2.865487813949585, -0.006244157440960407], [6.04067850112915, -7.14387321472168, -2.671424627304077, -12.191584587097168, -4.300269603729248, -6.171990394592285, -3.5111565589904785, 0.41956740617752075, -10.196478843688965, 9.407285690307617, -6.640570640563965, 5.203027725219727, 4.833118915557861, -3.0849740505218506, -1.5949620008468628, -13.10863208770752, -7.331857681274414, -6.217629432678223], [12.747042655944824, 9.619144439697266, 1.5807204246520996, -7.130677223205566, 6.081158638000488, -1.7191311120986938, 1.6048136949539185, -2.9990439414978027, 3.17189359664917, 1.371587872505188, -1.8116819858551025, -13.093310356140137, -2.678900957107544, -8.762894630432129, -9.627644538879395, -0.9304149150848389, -5.237231254577637, -1.3285936117172241], [-4.689041614532471, 4.624322891235352, -1.3707760572433472, -1.2620395421981812, 4.457613468170166, 6.723132610321045, 8.58473014831543, 3.8945109844207764, 0.22651639580726624, -0.7319600582122803, -16.912961959838867, 9.300089836120605, 4.419229507446289, -2.6859705448150635, 0.01798734813928604, 9.640538215637207, -1.6531641483306885, 12.988837242126465], [7.782841682434082, 4.599472999572754, 3.548835277557373, -1.5051392316818237, -3.721503973007202, -10.235261917114258, -0.22352927923202515, -0.4888528883457184, 7.7245402336120605, -6.765833377838135, -6.060815334320068, 0.9832726120948792, -12.88451099395752, -3.164757251739502, 10.971721649169922, 4.104381561279297, 0.30938538908958435, -8.300247192382812], [5.4701762199401855, 3.1006572246551514, -10.730935096740723, 1.3811715841293335, 4.782646656036377, -10.494780540466309, -4.9664177894592285, -3.629709005355835, 2.1399238109588623, 7.396336078643799, 4.969450950622559, -0.3880866467952728, 2.2436530590057373, 3.292447566986084, 2.8829686641693115, -0.3522033095359802, 1.0278732776641846, 0.6972665190696716], [-6.073847770690918, -1.0595697164535522, 2.974820375442505, -5.275156497955322, 1.6024692058563232, 13.2774076461792, -6.933929443359375, 4.21846866607666, -0.3508731424808502, 8.263971328735352, -3.784528970718384, -6.377049446105957, 4.556479454040527, 1.9444329738616943, -0.8002405762672424, -0.03670738637447357, 6.91903018951416, -1.0712525844573975], [-3.3664772510528564, -5.5392961502075195, 1.7475721836090088, 2.625110149383545, -9.989699363708496, -3.6090738773345947, -9.007290840148926, -0.04174252599477768, 5.452226638793945, -0.8040571808815002, -4.378689289093018, 0.6573084592819214, 4.74503755569458, 5.139468669891357, 4.803812503814697, -6.2356276512146, 0.0819089338183403, 15.441364288330078], [-0.10953225940465927, -3.2217020988464355, -3.6058356761932373, 5.7244038581848145, -10.22128963470459, -0.9229204058647156, 1.758943796157837, -1.9506709575653076, 0.9861936569213867, 5.572842597961426, -9.781825065612793, 0.07866816222667694, -2.905510187149048, 6.051684856414795, -0.7351456880569458, 0.7614269256591797, 2.71683406829834, -1.1146727800369263], [0.19984214007854462, -0.13974368572235107, 0.5740256309509277, -7.328227519989014, 5.123796463012695, 4.063677787780762, 4.855464458465576, 14.00949764251709, 0.21011602878570557, 1.28982675075531, 0.34512609243392944, -5.504217147827148, -1.6042020320892334, 3.116816997528076, 7.149573802947998, 10.36594295501709, -0.29555419087409973, 0.9954817891120911], [2.569695472717285, 6.31972074508667, -0.8767122626304626, -2.4617605209350586, -2.200993776321411, 5.000129222869873, -10.416099548339844, -1.6908384561538696, 1.3992388248443604, -0.7899248600006104, -0.5317860841751099, -5.187451362609863, -12.474824905395508, -4.5820393562316895, -1.198622703552246, -4.723250389099121, -2.721409797668457, -10.345176696777344], [2.0095906257629395, 0.3854081928730011, 4.685252666473389, -7.393718719482422, 2.511207342147827, 12.419721603393555, 6.7960944175720215, -3.989631175994873, -5.759110450744629, -3.9339444637298584, -1.417130470275879, 6.396381378173828, 0.5340993404388428, 7.663079261779785, -3.3565752506256104, -8.39392375946045, -10.375219345092773, -7.479334831237793], [-0.5442187786102295, -3.2299013137817383, -0.09104569256305695, -1.2395012378692627, -0.997661828994751, 2.6408355236053467, 12.765412330627441, 0.6401984095573425, 2.710904121398926, 5.585597991943359, -2.2213165760040283, -9.904581069946289, 2.4669065475463867, -3.1917412281036377, -5.342008590698242, -3.838059663772583, 10.567309379577637, -1.6296151876449585], [1.6717473268508911, 3.3286168575286865, -9.492828369140625, -5.471814155578613, -1.908301591873169, 6.216314315795898, 1.632043480873108, 7.419168949127197, 3.6682424545288086, -6.720962047576904, 5.607975959777832, -2.5695443153381348, 0.5429666042327881, 2.6645090579986572, 2.523630142211914, 7.569293975830078, 10.921177864074707, -3.860046863555908], [5.459885597229004, 8.47046184539795, 4.365295886993408, -7.81002950668335, 5.78090763092041, 2.7727692127227783, -6.7077484130859375, -3.2876272201538086, 2.5240001678466797, -0.8077597618103027, 3.126821994781494, -0.8504300117492676, 15.244890213012695, 2.780726432800293, -1.909423589706421, 3.1293745040893555, 7.761454105377197, -2.221290349960327], [-3.57279372215271, -9.084487915039062, -1.2211123704910278, 2.483083486557007, -6.149702072143555, 2.114250421524048, -1.711342453956604, -11.066076278686523, -5.655762195587158, 0.16508722305297852, 4.562003135681152, -1.1072639226913452, -0.7473307847976685, -0.13631021976470947, -1.4360146522521973, -3.5683395862579346, 1.1904507875442505, -3.656963586807251]], [[-4.106892108917236, 6.4090189933776855, -1.041368007659912, -2.351264715194702, -9.298540115356445, -12.288183212280273, -6.337185859680176, 9.600382804870605, 1.0944433212280273, 14.392789840698242, 8.51815414428711, -1.7782219648361206, 4.051043510437012, 0.5333535671234131, -3.4901602268218994, -3.7156877517700195, 1.3917337656021118, -0.9614604711532593, 1.646644115447998, -9.713831901550293, -9.807781219482422, 3.743208885192871, -0.5224903225898743, -0.178876593708992, 4.068346977233887, 5.36879301071167, 3.5852444171905518, -0.7568797469139099, -2.5176944732666016, -5.2764434814453125, 8.68524169921875, 4.817991256713867], [0.19420018792152405, 0.7006139755249023, 4.409780979156494, 1.9047867059707642, -4.289855480194092, 5.124174118041992, -0.6976015567779541, 7.038466930389404, -0.9087036848068237, 3.328742027282715, 11.88505744934082, -5.220371723175049, -12.502269744873047, -0.3936811685562134, 5.085235118865967, 2.8842434883117676, -4.075713634490967, 4.155184745788574, 10.083250045776367, 1.6658340692520142, 9.723440170288086, 2.0675010681152344, 3.3750388622283936, -7.145363807678223, 0.6296419501304626, -3.314964532852173, 3.26275372505188, 3.5963759422302246, 1.1409075260162354, 1.3076541423797607, 3.470496654510498, 1.4027339220046997], [8.62877368927002, -8.58591365814209, 1.891268014907837, 0.9051775336265564, 5.244622230529785, 7.489606857299805, 1.9198575019836426, 10.098949432373047, 8.209277153015137, 10.40903091430664, -2.6281027793884277, -4.9915337562561035, -2.097858428955078, -1.68466055393219, 4.603931903839111, 6.094120979309082, -0.49434202909469604, 0.938990592956543, 4.916042804718018, 3.752274513244629, -4.854259490966797, 0.9473512768745422, -14.912468910217285, 7.38394021987915, -13.423516273498535, 0.159159854054451, 4.582346439361572, 0.31792959570884705, -4.008633136749268, 10.553569793701172, 10.100785255432129, -0.23346590995788574], [-19.005130767822266, -7.662414073944092, -0.24812546372413635, 2.7882378101348877, 2.3682122230529785, -4.996282577514648, 4.4716339111328125, -5.288918972015381, 1.5887373685836792, 4.696462154388428, -2.8249082565307617, 5.933070659637451, 1.3836030960083008, 0.49540042877197266, -1.7312555313110352, 7.00656270980835, -0.36696574091911316, 3.210841178894043, 6.425158500671387, -7.006495475769043, 5.982266902923584, -1.0065799951553345, -2.7665581703186035, -2.8267369270324707, 7.658902168273926, 1.7096951007843018, -0.4103963077068329, 0.05982544645667076, 7.712632179260254, 7.1609673500061035, -5.994327068328857, 0.953545093536377], [-2.7622015476226807, -1.943334937095642, 2.628601551055908, 2.5992839336395264, 4.683230876922607, 2.4679932594299316, -4.647484302520752, 9.293787956237793, 4.126178741455078, -7.4610748291015625, -11.225617408752441, 4.655242443084717, -0.1012367233633995, 3.803053379058838, 2.4438581466674805, 10.649856567382812, -3.943777322769165, -9.876413345336914, -5.269765853881836, 6.365242958068848, 7.1633195877075195, 1.9701683521270752, 8.023319244384766, 1.7025177478790283, 4.876454830169678, 8.744512557983398, -1.4706218242645264, 0.18551042675971985, -6.912439823150635, -6.364798069000244, 6.9322943687438965, -3.4055731296539307], [3.7808279991149902, 0.4759694039821625, -2.9918406009674072, -7.727726459503174, 11.537951469421387, -0.8853882551193237, -2.627983331680298, -1.2826626300811768, 6.611937046051025, 1.2688473463058472, 2.0451300144195557, -4.876674175262451, -7.807589054107666, -2.062309741973877, -1.4856196641921997, 9.924614906311035, -12.221502304077148, 5.8847455978393555, -1.6898614168167114, 1.0877646207809448, -8.922810554504395, 0.7872219085693359, 0.5418514013290405, 3.8766894340515137, 7.2154083251953125, -8.2867431640625, 2.588237762451172, 3.5788960456848145, -10.237082481384277, 2.957096576690674, 6.12023401260376, -6.119272708892822], [4.084176540374756, 1.6463754177093506, -0.48205938935279846, 2.2798285484313965, 12.748320579528809, -4.428728103637695, 3.245652914047241, -1.583278775215149, -2.857727289199829, -1.6717990636825562, 1.1540759801864624, 6.156575679779053, 8.283080101013184, -0.8405110239982605, 4.823362827301025, -6.747133731842041, -4.879032611846924, 3.8085291385650635, -2.7980222702026367, 8.151141166687012, 10.869519233703613, -0.1368870735168457, 2.0006356239318848, -3.9870941638946533, 0.06409044563770294, -6.616543292999268, -6.132320404052734, 5.687504768371582, -2.104090929031372, -11.165236473083496, 2.053872585296631, -0.6445800065994263], [8.496015548706055, -1.7102638483047485, 3.6877729892730713, -0.4295305013656616, -1.1231971979141235, -0.37485548853874207, -3.0917375087738037, -6.576251983642578, 0.26662933826446533, -1.1091198921203613, -4.610898017883301, -0.9253274202346802, 3.584998846054077, -14.042015075683594, -2.6452348232269287, -1.5614910125732422, -3.6890487670898438, -0.2157404124736786, 7.692604064941406, -12.260589599609375, -1.5394539833068848, -7.036080837249756, 1.3992842435836792, -7.160882472991943, -10.407212257385254, -3.58353328704834, 2.5357303619384766, -1.495336890220642, -7.1410956382751465, 7.715704917907715, -0.15470898151397705, 3.3913049697875977], [5.803893089294434, -8.744009971618652, 1.7827562093734741, 6.508530616760254, 9.459938049316406, -7.589500904083252, 8.100682258605957, 7.213646411895752, -3.323503255844116, -6.01549768447876, 8.141146659851074, -18.37838363647461, 4.148568153381348, -2.020014524459839, -0.7354254126548767, -3.1562182903289795, -6.051877498626709, 3.8310937881469727, 4.525519847869873, -1.0167895555496216, -3.291537046432495, -10.646968841552734, 4.642341136932373, 4.467258453369141, 5.836971282958984, -10.81198787689209, -10.135782241821289, -0.5233291983604431, -6.247722625732422, 9.324424743652344, -3.4399139881134033, 2.890814781188965], [-0.664453387260437, 2.54657244682312, 10.401589393615723, -3.5649163722991943, 1.7792398929595947, 1.806066870689392, -6.792893886566162, 3.0891916751861572, 0.6943725347518921, 0.6321387887001038, -5.9276533126831055, 10.15792465209961, -9.820106506347656, -7.7292561531066895, 10.173264503479004, -1.481217622756958, 9.155755043029785, 1.0270800590515137, 2.224893093109131, 6.1402130126953125, -3.533496618270874, 6.691919326782227, -5.865793228149414, -6.33229398727417, -6.406994342803955, -4.938552379608154, 0.4188522696495056, 9.256552696228027, -5.032136917114258, 5.034789085388184, 9.865635871887207, 6.443835735321045], [0.4651077091693878, -1.2931532859802246, 10.158906936645508, 0.46783584356307983, 4.063445568084717, -2.8187782764434814, 1.2142691612243652, -7.046858310699463, 0.7835452556610107, -0.4920271933078766, -7.174832344055176, -3.181335926055908, 7.265941619873047, -9.654927253723145, 4.464917182922363, 14.566646575927734, -5.299896717071533, 5.213447570800781, -4.592343807220459, -0.28362545371055603, -6.936675548553467, -3.624965190887451, 0.05358193814754486, -0.6689362525939941, 0.07643622159957886, -3.8827784061431885, 5.319920539855957, -1.2718548774719238, 4.217437744140625, -7.507929801940918, -0.7518541812896729, 6.648956298828125], [-2.597208023071289, -1.097697138786316, 2.8328516483306885, 3.72444486618042, 8.872082710266113, -3.6426846981048584, -2.2303366661071777, -3.041527032852173, -6.810510158538818, 4.575294017791748, -4.957945823669434, 1.745239019393921, -0.9858148097991943, 7.643521308898926, -3.0995655059814453, 6.332968235015869, -1.250408411026001, 0.04961007833480835, -1.777002215385437, -2.2819972038269043, -2.012364387512207, 3.8416385650634766, 1.2383266687393188, 0.2639754116535187, -4.339203834533691, 4.516898155212402, 3.264543294906616, 7.313676357269287, -11.94410228729248, -8.236652374267578, 10.26719856262207, 8.135153770446777], [-4.840872764587402, -8.180974006652832, -5.042449951171875, 3.5720055103302, -4.955596923828125, 14.153512001037598, 4.057587623596191, 2.82165265083313, -1.7008204460144043, -5.257971286773682, 6.587179183959961, -0.2612580955028534, -8.019237518310547, 7.995326519012451, 1.9307581186294556, 4.766386032104492, -0.18592767417430878, -1.6481547355651855, -0.9456914663314819, -3.947453498840332, -1.634384036064148, -3.154486656188965, 4.7240891456604, 1.5289840698242188, -6.124279499053955, 2.402798891067505, 5.818798542022705, -0.26069849729537964, -3.2241358757019043, -3.1407418251037598, -4.552892684936523, 2.2185556888580322], [-0.27482885122299194, -2.141392230987549, -9.02392864227295, 0.5482831597328186, 0.24904265999794006, -2.728519916534424, 14.104569435119629, -2.776644468307495, 1.4728660583496094, -6.644085884094238, -8.07156753540039, -6.6782917976379395, -2.5489046573638916, 1.302873134613037, 4.188063144683838, 7.799716472625732, 7.536123275756836, 2.366711139678955, 3.5814132690429688, -0.16524118185043335, -2.249295234680176, -8.643990516662598, 2.0297272205352783, 0.7777965068817139, 0.6048005819320679, 0.42143064737319946, -6.70251989364624, -3.228930950164795, 6.56734561920166, -7.9450812339782715, -9.065025329589844, -3.0358777046203613], [-4.346151351928711, -7.580560207366943, -2.0540595054626465, -3.5974504947662354, -3.6514627933502197, 4.379726886749268, 7.031846523284912, -0.9594188928604126, 3.8302509784698486, -1.703140139579773, 1.5911890268325806, -0.30088043212890625, 2.2833099365234375, -1.67357337474823, -5.120774269104004, 2.3992433547973633, -0.44626957178115845, -6.510223865509033, 1.9298073053359985, -11.77656078338623, 6.6603169441223145, 0.8421154618263245, -5.9204421043396, -8.302957534790039, -0.9005791544914246, -0.9963610172271729, -1.0463368892669678, 14.826847076416016, -1.8684277534484863, -8.936610221862793, -1.6192086935043335, -4.099005222320557], [9.088142395019531, -4.916563034057617, -2.6998465061187744, 6.31967830657959, -3.6611013412475586, -12.980451583862305, 3.8855276107788086, -6.99294376373291, -2.879600763320923, -9.662797927856445, -0.13843296468257904, -4.432048797607422, 4.712337493896484, 3.688713550567627, -0.2418908029794693, 2.819697141647339, 4.124808311462402, 1.589959740638733, 1.3169103860855103, 5.9540324211120605, -4.530434608459473, 8.431023597717285, -5.539853572845459, -2.9878828525543213, -1.6560600996017456, -8.36563777923584, 0.6689406037330627, 1.5921236276626587, -1.9943984746932983, -2.9226465225219727, -0.36349523067474365, 2.8648531436920166]], [[-5.589132308959961, 1.519153356552124, -4.629732131958008, -10.556207656860352, -0.671455979347229, -1.7160738706588745, 5.425877094268799, -0.0077199265360832214, 0.6810926198959351, -0.030291318893432617, 8.548144340515137, 3.4922099113464355, 7.31058406829834, -9.282073020935059, -9.045966148376465, 1.5846680402755737], [4.945204257965088, -5.159347057342529, -10.024242401123047, 3.5148091316223145, 5.848813533782959, -0.9754541516304016, -3.8069815635681152, 3.2190191745758057, -4.009533882141113, 6.687119007110596, -0.7314211130142212, 8.393237113952637, 5.391636848449707, 3.3291444778442383, -8.724885940551758, 3.1543822288513184], [0.17417174577713013, -1.0682218074798584, -4.256625652313232, -4.727110385894775, -3.2452445030212402, 0.7158002853393555, -11.340059280395508, -10.44432258605957, -6.127452850341797, -2.3427693843841553, 3.7467989921569824, -0.8847160339355469, 6.959131240844727, 1.7023566961288452, -1.479718804359436, -8.299383163452148], [3.282487630844116, 5.471482276916504, 3.0209882259368896, -1.3175324201583862, -0.5047675967216492, 1.732316017150879, -3.4609975814819336, -1.8381538391113281, -4.435730457305908, 2.1280341148376465, 4.422749996185303, -11.566057205200195, -7.946108341217041, 0.3843299448490143, 1.0155504941940308, 12.2810640335083], [3.1549253463745117, 6.988365173339844, 3.4744644165039062, -5.794516086578369, -6.654467582702637, -0.5542986392974854, -15.90941333770752, 1.6200649738311768, -8.84193229675293, 7.730181694030762, -3.474684238433838, -5.486690044403076, -0.4551418721675873, 6.720613956451416, 4.1077728271484375, -0.22489508986473083], [-5.209273338317871, -4.460484981536865, 0.2671124041080475, -7.432454586029053, 3.475370168685913, -1.7961269617080688, -17.404708862304688, 6.835471153259277, -2.901956796646118, -4.863037586212158, 2.420236349105835, 0.47113654017448425, -4.042623519897461, 4.246030807495117, -4.622122287750244, -7.15060567855835], [5.994436264038086, 0.2709043323993683, 5.538755893707275, 1.7029151916503906, -7.423739433288574, -5.836908340454102, 0.19683122634887695, 4.19202995300293, -2.4294307231903076, -5.959024429321289, -5.328841686248779, 2.184138059616089, -0.8293976187705994, -5.420559406280518, -4.723004341125488, 10.062800407409668], [7.7819085121154785, -0.5686253905296326, 1.2745575904846191, 16.838743209838867, 2.046388626098633, -7.042255878448486, 1.6151307821273804, 0.41367727518081665, -0.4605434834957123, -6.946279048919678, 1.5451323986053467, 3.3545026779174805, 6.5864338874816895, 3.5682055950164795, -13.862791061401367, -9.102758407592773]], [[-4.428878307342529, 3.9575719833374023, -0.6736502647399902, 5.477658748626709, -1.8398973941802979, 10.285894393920898, -0.7424942851066589, -2.825730800628662], [-9.022893905639648, 2.3830513954162598, 0.2843934893608093, -3.091554880142212, -7.979874610900879, -0.5634338855743408, -2.579133987426758, 3.0933308601379395]]], "brain_biases": [[-0.29589203000068665, -4.626806259155273, 0.4949395954608917, -3.7371745109558105, -2.166212320327759, -8.436406135559082, -0.13879546523094177, 10.773096084594727, 0.4604068100452423, 0.1286879926919937, -1.0466933250427246, -11.542238235473633, -3.017352342605591, -8.653079986572266, 1.9926190376281738, 7.722153186798096, -5.601907730102539, -3.159757375717163, -3.500035047531128, 2.1703383922576904, 0.22282519936561584, -8.539998054504395, 7.792998790740967, 9.019065856933594, 4.178754806518555, 3.781017303466797, -8.331620216369629, -3.9259519577026367, 0.5436034202575684, 0.7474295496940613, 6.0066609382629395, 12.968528747558594], [-6.345428466796875, 0.559138298034668, 6.124166965484619, 1.1032838821411133, 6.698856353759766, -0.43730419874191284, -1.4244312047958374, -4.597648620605469, 7.137421131134033, 0.6139737367630005, -14.088177680969238, -15.399152755737305, 2.6751089096069336, -1.860975742340088, 5.884522438049316, -4.557712554931641], [4.617607593536377, -1.052781581878662, 4.100548267364502, -1.817170262336731, 1.6743398904800415, -2.416578531265259, -2.9247264862060547, 0.6914793252944946], [0.43053576350212097, -0.6950384378433228]], "sensor_retina_count": 18, "sensor_vision_radius": 180.0, "sensor_fov_degrees": 180.0, "sensor_skip": 2, "sensor_see_food": true, "sensor_see_bacteria": false, "sensor_see_predators": true, "locomotion_max_speed": 300.0, "locomotion_max_turn": 3.141592653589793, "energy_death_energy": 0.0, "energy_split_energy": 200.0, "energy_v0_cost": 3.0, "energy_vmax_cost": 6.0, "energy_vmax_ref": 300.0, "energy_energy_cap": 200.0, "energy_loss_idle": 3.0, "energy_loss_move": 6.0, "last_brain_output": [12.068673133850098, 0.2670689821243286], "last_brain_activations": [[-0.2875487804412842, -0.9998084902763367, 0.45812809467315674, -0.9988657236099243, -0.9740692973136902, -0.9999998807907104, -0.13791102170944214, 1.0, 0.43041568994522095, 0.12798228859901428, -0.7805174589157104, -1.0, -0.9952230453491211, -0.9999998807907104, 0.9635023474693298, 0.9999996423721313, -0.9999727606773376, -0.9964048862457275, -0.9981780648231506, 0.9742796421051025, 0.21920914947986603, -0.9999998807907104, 0.9999997019767761, 0.9999999403953552, 0.9995308518409729, 0.9989609122276306, -0.9999998807907104, -0.9992222785949707, 0.4957107901573181, 0.6336129307746887, 0.9999878406524658, 1.0], [0.9999496936798096, 0.999998927116394, 1.0, 0.992965579032898, 1.0, 1.0, -1.0, -1.0, 1.0, -0.9815783500671387, 1.0, -1.0, -0.9999995231628418, 1.0, -1.0, -1.0], [-1.0, -1.0, 1.0, 1.0, 0.9999662041664124, 1.0, -1.0, 1.0], [12.068673133850098, 0.2670692205429077]]}, {"type": "bacteria", "x": 860.7097208877776, "y": 2380.3642625267794, "r": 9.0, "angle": 0.8636258075529412, "vx": 194.90434051848166, "vy": 228.05946155757678, "energy": 37.475642038571515, "age": 57.47500000000014, "brain_sizes": [18, 32, 16, 8, 2], "brain_version": 32122, "brain_weights": [[[-5.892130374908447, 4.126863956451416, 5.854989528656006, -0.7584239840507507, -2.469874382019043, 9.33675765991211, 6.682048320770264, -3.2505061626434326, -0.12321607023477554, 6.640507221221924, -4.426765441894531, -6.310947418212891, 4.469581127166748, -6.054832935333252, -8.704386711120605, -9.531734466552734, -1.2442247867584229, -4.3633222579956055], [-2.754258632659912, 2.444744110107422, -5.549663543701172, 13.130570411682129, -15.458230972290039, -3.081221342086792, 2.053584098815918, 0.1909218430519104, -9.109829902648926, 7.605498790740967, -0.6507872939109802, -5.355127811431885, 0.7471609711647034, -2.05612850189209, -2.967719078063965, 8.205620765686035, -2.8847885131835938, 7.622013092041016], [3.3395299911499023, -2.990006923675537, 10.520039558410645, -1.7237075567245483, -1.7292972803115845, -8.751570701599121, 8.615428924560547, -1.3758454322814941, -1.8766021728515625, 1.9010634422302246, 0.11003361642360687, -4.786509037017822, 1.9705225229263306, 4.655876636505127, -9.786962509155273, -0.08614899218082428, -7.161358833312988, -3.244227647781372], [1.6096746921539307, -8.747614860534668, -6.606661796569824, 9.890203475952148, -5.33172607421875, 2.681361436843872, -2.7357537746429443, -9.514235496520996, -1.620590090751648, 5.903871536254883, -5.762965202331543, 6.154050350189209, -0.5368794798851013, -4.795886516571045, -4.402374267578125, -11.911873817443848, -1.8977463245391846, 1.0993884801864624], [-1.3342920541763306, -5.499057769775391, 1.2160133123397827, -9.867243766784668, -17.531734466552734, -1.1979349851608276, 3.758329391479492, -2.9507675170898438, -15.230213165283203, -0.6929744482040405, 3.3192522525787354, 4.7090911865234375, 6.492064952850342, -5.321212291717529, -0.6018344163894653, 9.908540725708008, 7.869161605834961, -8.37374496459961], [13.377534866333008, 2.4163951873779297, 9.631080627441406, 6.7872843742370605, -5.579720497131348, -3.5703799724578857, 9.34482479095459, -7.406670093536377, -6.56597900390625, 4.008350372314453, -5.084600925445557, 2.241020441055298, 6.9851861000061035, -3.860328197479248, 2.8561623096466064, -9.211633682250977, -1.1533074378967285, -4.005594253540039], [-4.729717254638672, 12.31191635131836, -5.440098762512207, 9.125370025634766, -10.798463821411133, -2.9008231163024902, -4.021850109100342, -0.8826355934143066, 7.64858865737915, 4.181840896606445, 12.057815551757812, -3.8637325763702393, -4.951361656188965, 1.7929296493530273, 2.430960178375244, -0.054237741976976395, -0.9010800123214722, -5.332319259643555], [-4.810554504394531, 7.678144931793213, 6.065738677978516, 13.499539375305176, -2.3428776264190674, 2.3074331283569336, 11.372577667236328, 1.3708600997924805, 4.824920654296875, 8.032163619995117, -12.40575885772705, 0.5138846039772034, -2.0061564445495605, 3.878152847290039, 5.163793087005615, -8.258432388305664, -1.532833218574524, -1.011531949043274], [-1.0758527517318726, 0.2904047667980194, -4.567883014678955, 2.115149736404419, 0.5294153690338135, 8.650872230529785, -0.629703164100647, -2.170506477355957, -1.872338891029358, -3.2181854248046875, -0.5623469352722168, 0.6065793037414551, 10.359515190124512, 10.411355018615723, -7.756842613220215, 3.612616539001465, 2.9416189193725586, 6.691330432891846], [0.4601392447948456, -8.682879447937012, 10.906026840209961, 1.3967938423156738, 0.2517326772212982, -1.6005860567092896, 2.625251531600952, 2.1063411235809326, 10.181910514831543, 2.442784547805786, 0.5907928943634033, 4.218836784362793, -0.7282848954200745, -0.8636836409568787, 0.5016389489173889, 9.150839805603027, -0.9996742606163025, 1.382171869277954], [9.813603401184082, 6.358814716339111, 2.5870258808135986, 2.970958709716797, 6.3805036544799805, 0.7909980416297913, 6.586535930633545, 0.5180726051330566, -1.0477795600891113, -2.7754621505737305, 1.4796745777130127, -5.597838401794434, -0.8006020188331604, -2.9390957355499268, -5.58335542678833, 7.335111618041992, 6.161860942840576, 1.9201579093933105], [-4.459853649139404, 1.0025215148925781, 2.374086380004883, 1.388814091682434, -1.7277140617370605, -0.9663985371589661, -9.518050193786621, -1.572201132774353, 1.0819281339645386, -6.839414596557617, 0.5395563840866089, 6.784112930297852, 0.29982516169548035, -0.699882447719574, 0.5501397252082825, -4.1887617111206055, 3.1802456378936768, 4.814889907836914], [0.9247512817382812, 0.08990588784217834, -1.5433202981948853, -0.6813536882400513, -5.748650074005127, 0.5465376377105713, -6.425011157989502, 0.7131208181381226, -3.901185989379883, -1.304832935333252, -4.487333297729492, 3.5037007331848145, 8.099569320678711, 0.09041215479373932, -5.1520161628723145, 0.1005297601222992, 0.02390897087752819, -0.298591285943985], [7.944559097290039, 1.7219911813735962, -5.784824848175049, -10.602112770080566, 1.5341064929962158, 2.7403533458709717, -2.0016212463378906, 1.8588624000549316, -7.401882171630859, -10.710204124450684, -3.5311295986175537, -4.126011371612549, -7.647435188293457, -2.1099812984466553, 7.620851993560791, 12.792661666870117, 2.8480224609375, -1.062684416770935], [-4.483010768890381, -3.288097858428955, 6.429651737213135, 3.3216991424560547, 7.262848377227783, -1.5724807977676392, -1.504480242729187, 0.29989415407180786, -1.0293585062026978, -13.618400573730469, 0.8266525864601135, -3.1396584510803223, -2.5229318141937256, 7.798859119415283, 1.7471805810928345, -2.1801774501800537, 4.7534098625183105, -10.615818977355957], [-14.212750434875488, -7.315815448760986, 2.005192279815674, 6.437107086181641, 2.5834524631500244, 1.0254440307617188, 2.565697431564331, -5.5873026847839355, 6.654757499694824, -4.617401599884033, -4.475645065307617, -3.8712494373321533, -6.575531005859375, -3.1428966522216797, -15.113845825195312, -11.88037395477295, -0.4035210609436035, -1.9973564147949219], [0.9365389347076416, 0.009474188089370728, 13.613747596740723, -1.2216014862060547, -2.434035301208496, -1.5089402198791504, 4.054776668548584, -0.563224732875824, -5.714040756225586, -5.253578186035156, 4.538257598876953, -4.586287021636963, -0.27564868330955505, -8.888528823852539, 5.300260066986084, 2.0835788249969482, -2.882185935974121, -0.10593143850564957], [6.103914260864258, -6.900960445404053, -2.778900146484375, -12.231575965881348, -4.233046054840088, -5.998880386352539, -3.7474358081817627, 0.6857606768608093, -10.411258697509766, 9.226614952087402, -6.2313923835754395, 5.092386245727539, 4.95412540435791, -3.2340149879455566, -1.529770851135254, -13.215062141418457, -7.156149864196777, -5.927175521850586], [12.7528076171875, 9.545038223266602, 1.6283745765686035, -7.076488018035889, 5.991165637969971, -1.7896679639816284, 1.8638488054275513, -3.1885387897491455, 3.3831100463867188, 0.9051677584648132, -2.0999433994293213, -13.051498413085938, -2.762281894683838, -8.833822250366211, -9.957917213439941, -1.1222801208496094, -4.996869087219238, -1.5253503322601318], [-4.929959297180176, 4.6066179275512695, -1.8994014263153076, -1.1793286800384521, 4.695126533508301, 6.699524402618408, 8.463817596435547, 3.5880208015441895, -0.16388337314128876, -0.4510962665081024, -16.833452224731445, 9.376724243164062, 4.597480297088623, -2.804018020629883, -0.3077189326286316, 9.797523498535156, -1.4559226036071777, 12.679162979125977], [7.075304985046387, 4.578212738037109, 3.0120747089385986, -1.6120364665985107, -4.0140252113342285, -10.388895988464355, -0.3635755181312561, -0.309262752532959, 7.525562763214111, -7.137200832366943, -5.967823505401611, 0.7363271117210388, -13.185994148254395, -3.174326181411743, 10.83501148223877, 4.3403520584106445, 0.46693527698516846, -8.443422317504883], [5.378634452819824, 3.03682279586792, -10.891485214233398, 0.5871448516845703, 4.913439750671387, -10.332460403442383, -4.8767547607421875, -3.7161595821380615, 2.4920272827148438, 7.422130107879639, 4.999282360076904, -0.9135196805000305, 2.391444444656372, 2.8760437965393066, 2.83778977394104, -0.38963764905929565, 0.9916499853134155, 0.5964296460151672], [-5.868400573730469, -1.2742408514022827, 3.216620922088623, -5.184331893920898, 1.5942033529281616, 13.183448791503906, -6.829589366912842, 4.368065357208252, -0.4419569671154022, 8.62392520904541, -3.8380417823791504, -6.526503562927246, 5.090310096740723, 2.1340131759643555, -0.9635177254676819, 0.0007571019232273102, 6.750670909881592, -0.863620936870575], [-3.5680439472198486, -5.2820563316345215, 1.4398019313812256, 2.6360082626342773, -10.357394218444824, -3.4549288749694824, -9.439159393310547, 0.22035150229930878, 5.411454200744629, -0.7651305198669434, -4.40668249130249, 0.5803672671318054, 4.516554355621338, 5.020230770111084, 4.652797222137451, -6.172752857208252, 0.12699715793132782, 15.866034507751465], [-0.09237487614154816, -3.369245767593384, -3.493568181991577, 5.981746196746826, -10.612174034118652, -0.8561919927597046, 1.6466379165649414, -1.48916494846344, 1.3504023551940918, 5.750977993011475, -10.119475364685059, -0.16857066750526428, -2.93874192237854, 6.402644157409668, -0.9001989364624023, 0.8607698678970337, 2.8680145740509033, -0.8586036562919617], [-0.06625153869390488, 0.05868134647607803, 0.6259939670562744, -7.687904357910156, 4.838361740112305, 3.7280468940734863, 5.113542079925537, 14.128199577331543, 0.2182287722826004, 1.0480875968933105, 0.31038331985473633, -5.5908684730529785, -1.3140672445297241, 3.4083409309387207, 6.7185378074646, 10.819150924682617, -0.19799146056175232, 1.0602909326553345], [2.655805826187134, 6.436099529266357, -0.6670076847076416, -2.626532793045044, -1.9706979990005493, 4.083117961883545, -10.553467750549316, -1.5231064558029175, 1.1990761756896973, -1.0253968238830566, -0.6734279990196228, -4.902587413787842, -12.514795303344727, -4.610892295837402, -1.2945901155471802, -4.719696044921875, -2.8289687633514404, -10.057282447814941], [1.8287708759307861, 0.16595932841300964, 4.713008403778076, -7.707987308502197, 2.7073464393615723, 12.470677375793457, 6.6172709465026855, -3.926379680633545, -5.699011325836182, -3.7164995670318604, -1.3665790557861328, 6.930450916290283, 0.5212768912315369, 7.9564948081970215, -3.3194375038146973, -8.384256362915039, -10.055107116699219, -7.471615791320801], [-0.6213523149490356, -3.660099983215332, -0.22784516215324402, -1.654821753501892, -1.0984795093536377, 3.014446258544922, 12.554023742675781, 0.6877807974815369, 2.7469513416290283, 5.952800750732422, -2.1038663387298584, -9.900436401367188, 2.7837324142456055, -3.5230553150177, -5.665626049041748, -4.076274394989014, 10.41549015045166, -1.9199206829071045], [1.7594714164733887, 3.3867239952087402, -9.562074661254883, -5.029587268829346, -1.75890052318573, 5.922098159790039, 1.5386972427368164, 7.197194576263428, 3.585930824279785, -6.78192138671875, 5.330990791320801, -2.4806485176086426, 0.010221179574728012, 2.6366500854492188, 2.5619263648986816, 7.442203521728516, 10.9242525100708, -3.810692071914673], [5.3745832443237305, 8.335014343261719, 4.1570634841918945, -7.81002950668335, 5.678618431091309, 2.6602885723114014, -6.8822174072265625, -3.09968638420105, 2.646260976791382, -0.5222752094268799, 2.7099692821502686, -0.7161513566970825, 14.957958221435547, 3.271634578704834, -1.5048625469207764, 3.1340882778167725, 7.606635570526123, -2.235886812210083], [-3.896700382232666, -8.928945541381836, -1.4090087413787842, 2.635014772415161, -6.164499282836914, 1.9738848209381104, -2.059567451477051, -11.415650367736816, -5.828577518463135, 0.3026808500289917, 4.500390529632568, -1.1187025308609009, -0.8833757638931274, -0.23065370321273804, -1.6137572526931763, -3.625816583633423, 1.3826048374176025, -3.707507610321045]], [[-4.191189765930176, 6.324863433837891, -1.0374635457992554, -2.1416993141174316, -8.999195098876953, -11.82223892211914, -6.086447238922119, 9.35800838470459, 1.104786992073059, 14.493334770202637, 8.39801025390625, -2.251375198364258, 4.120258331298828, 0.4289546608924866, -3.312474489212036, -3.695362091064453, 1.1616191864013672, -0.945792019367218, 1.430655837059021, -9.602863311767578, -10.005993843078613, 4.081416606903076, -0.15261292457580566, 0.34705883264541626, 3.926300287246704, 5.2470550537109375, 3.714320421218872, -0.5683220028877258, -2.252769947052002, -5.336793899536133, 8.750940322875977, 4.809452533721924], [0.39952531456947327, 0.3545100688934326, 4.610660076141357, 1.9659388065338135, -4.202316761016846, 4.673967361450195, -0.7740829586982727, 7.362654209136963, -0.9167465567588806, 3.3191540241241455, 11.84455680847168, -5.571620941162109, -12.51175308227539, -0.4776979386806488, 5.2064127922058105, 3.063816547393799, -4.125198841094971, 4.490166664123535, 10.251243591308594, 1.7092891931533813, 9.797121047973633, 2.307297706604004, 3.530752420425415, -7.2419939041137695, 0.684809684753418, -3.404726505279541, 3.265038251876831, 3.62878155708313, 1.147949457168579, 0.9339682459831238, 3.514927387237549, 1.4476121664047241], [8.369418144226074, -8.084311485290527, 2.150668144226074, 0.7945924997329712, 5.244622230529785, 7.522188663482666, 1.7743319272994995, 10.42262077331543, 8.275228500366211, 10.781423568725586, -2.615738868713379, -5.47515344619751, -2.3958098888397217, -1.6526676416397095, 4.547430038452148, 6.052734375, -0.6839590668678284, 0.7528131008148193, 4.799846172332764, 3.600902557373047, -4.319213390350342, 0.7698023319244385, -14.4793119430542, 7.367522716522217, -13.524683952331543, 0.4944138824939728, 4.48835563659668, 0.5145853757858276, -4.115719795227051, 10.43324089050293, 10.050287246704102, -0.2184828519821167], [-19.02263832092285, -7.945189476013184, -0.013333261013031006, 2.733185291290283, 2.726287364959717, -4.940783977508545, 4.31062650680542, -5.424705505371094, 1.093017816543579, 4.65405797958374, -3.0938379764556885, 6.233921527862549, 1.535788893699646, 0.3542637526988983, -1.4913277626037598, 6.774921894073486, -0.5366764068603516, 3.4999492168426514, 6.214664936065674, -7.337987422943115, 5.91068696975708, -0.7122605443000793, -3.159879684448242, -2.9635417461395264, 7.688918113708496, 1.4742627143859863, -0.6340364217758179, -0.018372241407632828, 7.496713638305664, 7.480594635009766, -5.999401569366455, 1.086247444152832], [-3.102834939956665, -1.8921396732330322, 2.8697426319122314, 2.5459842681884766, 4.169637680053711, 2.3198771476745605, -4.4688286781311035, 9.219026565551758, 3.964310884475708, -7.6911091804504395, -11.418401718139648, 4.723093032836914, 0.02312314510345459, 3.976384401321411, 2.1941940784454346, 10.660961151123047, -3.863821029663086, -9.782791137695312, -5.240884780883789, 5.8211750984191895, 7.195370197296143, 1.9874217510223389, 8.525771141052246, 1.5233944654464722, 4.851388931274414, 8.756853103637695, -1.6088253259658813, -0.03153296560049057, -6.885697364807129, -6.6734161376953125, 6.9179582595825195, -3.730877161026001], [3.674408197402954, 0.42919600009918213, -3.1680591106414795, -7.957989692687988, 11.358884811401367, -0.878499448299408, -2.398144483566284, -1.020867109298706, 6.790292263031006, 1.1071314811706543, 2.178525924682617, -4.5429463386535645, -7.697249889373779, -1.9084421396255493, -1.6869863271713257, 10.039133071899414, -12.633393287658691, 6.267804145812988, -1.5340951681137085, 1.0179123878479004, -9.114774703979492, 0.4123508930206299, 0.5418514013290405, 3.7449936866760254, 7.426581859588623, -8.263333320617676, 2.661510705947876, 3.6624512672424316, -10.345050811767578, 3.18789005279541, 6.018087863922119, -6.1407623291015625], [4.163047790527344, 1.7009847164154053, -0.30501788854599, 2.260761260986328, 13.316754341125488, -4.627416133880615, 3.370138168334961, -1.540808081626892, -2.851116895675659, -1.921025037765503, 1.4191009998321533, 6.307925224304199, 8.249134063720703, -1.2139818668365479, 4.935755252838135, -6.393524169921875, -4.7215752601623535, 4.017587184906006, -3.051755428314209, 8.342609405517578, 11.036947250366211, 0.17524540424346924, 1.875747561454773, -4.080380439758301, 0.8040971159934998, -6.5236310958862305, -5.855510234832764, 5.772163391113281, -1.440190315246582, -11.32776927947998, 2.4045050144195557, -0.7464804649353027], [8.294599533081055, -1.841542363166809, 3.945713996887207, -0.4184924364089966, -1.1445530652999878, -0.4597263038158417, -2.8627281188964844, -6.628012657165527, 0.3745155334472656, -0.951758623123169, -4.617374420166016, -0.7384830713272095, 3.734647750854492, -13.990397453308105, -2.7430357933044434, -1.4143136739730835, -3.8996622562408447, -0.1690569818019867, 8.048979759216309, -12.258451461791992, -1.5571368932724, -7.372457027435303, 1.698468565940857, -6.705752849578857, -10.7235689163208, -3.7179508209228516, 2.7488198280334473, -1.53397798538208, -7.302828788757324, 7.621326923370361, -0.29012277722358704, 3.238039255142212], [5.376894474029541, -8.773590087890625, 1.677290678024292, 6.4793596267700195, 9.116201400756836, -7.30717134475708, 8.209391593933105, 7.111376762390137, -2.8090078830718994, -5.96254825592041, 8.171209335327148, -18.059162139892578, 3.94195556640625, -1.7981762886047363, -0.8237944841384888, -3.2025861740112305, -5.906360626220703, 4.216977596282959, 4.6047444343566895, -0.775473952293396, -3.5393569469451904, -10.82846450805664, 5.04849910736084, 4.136427879333496, 5.41121768951416, -10.631869316101074, -10.359848022460938, -0.5545434951782227, -5.805481910705566, 9.300492286682129, -3.4260501861572266, 2.6628670692443848], [-0.8586131930351257, 2.759664297103882, 10.14764404296875, -3.674765110015869, 1.594240665435791, 1.6999248266220093, -6.987579822540283, 3.133708953857422, 0.646681547164917, 0.5359001755714417, -6.028275012969971, 10.12331485748291, -10.176557540893555, -7.779927730560303, 10.002969741821289, -1.7479802370071411, 9.074973106384277, 1.0037351846694946, 2.238767623901367, 6.482251167297363, -3.2505013942718506, 6.156545639038086, -5.816212177276611, -6.298480987548828, -6.406994342803955, -4.810295581817627, 0.15527960658073425, 9.55186939239502, -5.008265018463135, 4.931670665740967, 10.148605346679688, 6.822690486907959], [0.37294089794158936, -1.413288950920105, 10.082635879516602, 0.8420448303222656, 4.028857707977295, -2.7979044914245605, 1.1746315956115723, -6.896075248718262, 1.0556503534317017, -0.3278271555900574, -7.144744396209717, -3.1296896934509277, 7.084176540374756, -9.211715698242188, 4.6940507888793945, 14.570003509521484, -5.318765163421631, 4.724595546722412, -4.610093116760254, 0.0022216811776161194, -6.785262107849121, -3.6644723415374756, 0.42711561918258667, -1.0348800420761108, -0.26906394958496094, -3.8968982696533203, 5.556496620178223, -1.170062780380249, 4.1312079429626465, -7.507929801940918, -0.3614712357521057, 6.734160423278809], [-2.335878610610962, -0.852004885673523, 2.843148946762085, 3.7708513736724854, 9.489777565002441, -3.8899025917053223, -2.146800994873047, -3.129645347595215, -6.827382564544678, 4.424458980560303, -5.0975189208984375, 1.968148112297058, -0.8568918108940125, 7.602224349975586, -3.0546820163726807, 6.289286136627197, -1.0398821830749512, -0.36739829182624817, -1.7998676300048828, -1.8873517513275146, -1.938751220703125, 3.8073346614837646, 1.030609369277954, 0.14894817769527435, -4.458761692047119, 4.198463439941406, 3.2628445625305176, 7.282910346984863, -12.393492698669434, -8.14450454711914, 10.15050983428955, 8.14923095703125], [-4.797025203704834, -8.208951950073242, -5.120070457458496, 3.462918281555176, -5.122307300567627, 14.384635925292969, 4.175596237182617, 2.9502127170562744, -2.0223119258880615, -5.389492034912109, 6.701231479644775, -0.11784730851650238, -7.894594669342041, 8.24071216583252, 1.6845370531082153, 5.190017223358154, -0.17738530039787292, -1.7965013980865479, -0.9627529978752136, -4.104027271270752, -1.6590070724487305, -3.20705246925354, 4.855930328369141, 1.4431524276733398, -5.459244728088379, 2.3601338863372803, 6.177746772766113, -0.29569801688194275, -2.947899580001831, -3.6182961463928223, -4.502657890319824, 2.0243515968322754], [-0.4980255961418152, -1.8220274448394775, -9.064638137817383, 0.8072009086608887, 0.36608752608299255, -2.464479923248291, 14.088238716125488, -3.024852752685547, 1.9059967994689941, -6.872478008270264, -7.826348781585693, -6.796916961669922, -2.600475788116455, 1.4280328750610352, 4.2410101890563965, 7.449097156524658, 7.8371405601501465, 2.4015586376190186, 3.5563697814941406, -0.023093368858098984, -2.1248865127563477, -8.435894966125488, 1.8283510208129883, 0.8038967251777649, 0.009528540074825287, 0.7567449808120728, -6.727409839630127, -3.454691171646118, 6.48539924621582, -7.858965873718262, -8.881251335144043, -3.0732693672180176], [-4.106468200683594, -7.358302116394043, -1.9112238883972168, -3.8496129512786865, -3.6514627933502197, 4.076411724090576, 7.317718029022217, -0.9534487724304199, 3.7224695682525635, -1.4317476749420166, 1.574947714805603, -0.12471862137317657, 2.3458001613616943, -1.4825222492218018, -5.226353645324707, 2.5225133895874023, -0.22671033442020416, -6.7209601402282715, 1.8369777202606201, -11.888298034667969, 7.070831298828125, 0.7613568902015686, -5.754877090454102, -7.970393657684326, -0.6277946829795837, -1.0920205116271973, -1.2384361028671265, 14.796719551086426, -2.229128837585449, -9.122664451599121, -1.6994271278381348, -4.0011796951293945], [9.062464714050293, -5.053677082061768, -2.861210346221924, 6.1872429847717285, -3.546529531478882, -12.715245246887207, 3.7991185188293457, -7.134467601776123, -2.84686017036438, -9.598004341125488, 0.16907715797424316, -4.594997406005859, 4.7285990715026855, 3.5472922325134277, -0.5840194225311279, 2.8018980026245117, 4.154098033905029, 1.589959740638733, 1.5014692544937134, 5.910762310028076, -4.519933223724365, 8.300446510314941, -5.3648529052734375, -3.432739734649658, -1.5226672887802124, -8.416955947875977, 0.6553145051002502, 1.760527491569519, -2.3141250610351562, -2.9831435680389404, -0.297871857881546, 2.9581947326660156]], [[-5.6785502433776855, 1.270935297012329, -4.540356636047363, -10.299784660339355, -0.2728259861469269, -1.2959657907485962, 5.336907863616943, 0.1352049708366394, 0.702911376953125, -0.05730460584163666, 8.475728034973145, 3.5007543563842773, 7.193931579589844, -9.320137977600098, -9.230085372924805, 1.6986709833145142], [5.591398239135742, -5.462993144989014, -9.977140426635742, 3.940932273864746, 5.729340076446533, -0.9664958119392395, -3.796689510345459, 3.251842498779297, -4.013645648956299, 6.761327743530273, -0.8169044256210327, 8.330592155456543, 5.380207061767578, 3.5227279663085938, -8.602890968322754, 3.3764421939849854], [0.017387259751558304, -1.0548839569091797, -4.375041484832764, -4.834477424621582, -3.310145616531372, 0.6443318128585815, -11.07950496673584, -10.772241592407227, -5.8582072257995605, -2.2230114936828613, 3.459711790084839, -0.9189919233322144, 7.274495601654053, 1.8742679357528687, -1.571618676185608, -8.30373477935791], [2.9772701263427734, 5.556530475616455, 2.985297918319702, -1.5431973934173584, -0.5099031329154968, 1.4378042221069336, -3.4067296981811523, -1.5049651861190796, -4.300932884216309, 2.2903759479522705, 4.5233683586120605, -11.200778007507324, -7.913815975189209, 0.533371090888977, 1.0428351163864136, 12.138582229614258], [3.1108429431915283, 6.706925868988037, 3.55484938621521, -5.777441024780273, -7.065956115722656, -0.11361603438854218, -16.002792358398438, 1.5400599241256714, -8.832032203674316, 7.872861385345459, -3.1683783531188965, -5.506411075592041, -0.5146525502204895, 6.755601406097412, 4.26715087890625, -0.3209154009819031], [-5.3784050941467285, -4.755231857299805, 0.7243390083312988, -7.6715240478515625, 3.696565866470337, -1.8445687294006348, -17.250959396362305, 7.214086532592773, -3.0532050132751465, -4.8513102531433105, 2.7647910118103027, 0.6606799364089966, -3.743053674697876, 4.1643829345703125, -4.489807605743408, -7.442277431488037], [5.58050537109375, 0.39763396978378296, 5.512444496154785, 1.7404682636260986, -7.487860202789307, -6.3501410484313965, 0.29949191212654114, 4.1425981521606445, -2.2354209423065186, -5.370957851409912, -5.430215835571289, 2.184138059616089, -0.8306746482849121, -5.510871410369873, -4.824133396148682, 10.135965347290039], [7.935728549957275, -0.6650757193565369, 1.073509693145752, 16.71035385131836, 1.9068058729171753, -7.007245063781738, 1.8421143293380737, -0.005293101072311401, -0.4149121940135956, -6.7341132164001465, 1.4782963991165161, 3.0643253326416016, 6.585885524749756, 3.719693422317505, -13.792305946350098, -8.523087501525879]], [[-4.278477191925049, 3.6243669986724854, -0.5376006960868835, 5.628277778625488, -2.0410702228546143, 10.404991149902344, -0.5774433612823486, -2.952468156814575], [-8.929317474365234, 2.415916919708252, 0.004066850990056992, -2.9206018447875977, -7.736667633056641, -0.7494096159934998, -2.6342527866363525, 2.986186981201172]]], "brain_biases": [[-0.4740237593650818, -4.648242950439453, 0.5661801695823669, -3.5298616886138916, -2.3954010009765625, -8.200054168701172, -0.19605739414691925, 10.343012809753418, 0.29080361127853394, 0.04061759263277054, -0.9801007509231567, -11.453739166259766, -3.2722551822662354, -8.663748741149902, 2.1060712337493896, 7.8272385597229, -5.764162063598633, -3.359727144241333, -3.2948684692382812, 2.076353073120117, 0.16452373564243317, -8.579012870788574, 7.990146160125732, 8.951238632202148, 4.287013053894043, 3.756758451461792, -8.258673667907715, -3.841517686843872, 0.5448811650276184, 0.8687867522239685, 5.873855113983154, 12.766090393066406], [-6.0167236328125, 0.26378577947616577, 6.430515766143799, 1.5838534832000732, 6.969992160797119, -0.841719925403595, -1.3700497150421143, -4.446277618408203, 7.125158786773682, 0.7006823420524597, -14.142643928527832, -15.365927696228027, 2.791674852371216, -1.7785509824752808, 5.811547756195068, -4.64296293258667], [4.3743977546691895, -0.7292560338973999, 4.151669502258301, -1.9620517492294312, 1.8374744653701782, -2.585124969482422, -3.0567710399627686, 0.7898351550102234], [0.20139233767986298, -0.815534770488739]], "sensor_retina_count": 18, "sensor_vision_radius": 180.0, "sensor_fov_degrees": 180.0, "sensor_skip": 2, "sensor_see_food": true, "sensor_see_bacteria": false, "sensor_see_predators": true, "locomotion_max_speed": 300.0, "locomotion_max_turn": 3.141592653589793, "energy_death_energy": 0.0, "energy_split_energy": 200.0, "energy_v0_cost": 3.0, "energy_vmax_cost": 6.0, "energy_vmax_ref": 300.0, "energy_energy_cap": 200.0, "energy_loss_idle": 3.0, "energy_loss_move": 6.0, "last_brain_output": [11.935153007507324, -0.08424657583236694], "last_brain_activations": [[-0.4414446949958801, -0.9998165369033813, 0.5125485062599182, -0.9982834458351135, -0.9835252165794373, -0.9999998211860657, -0.19358336925506592, 1.0, 0.28287428617477417, 0.040595270693302155, -0.7531095147132874, -1.0, -0.9971281886100769, -0.9999999403953552, 0.9708033204078674, 0.9999997019767761, -0.9999803304672241, -0.9975885152816772, -0.9972549676895142, 0.9690430760383606, 0.1630551964044571, -0.9999998807907104, 0.9999997615814209, 0.9999999403953552, 0.9996222257614136, 0.9989092946052551, -0.9999998211860657, -0.9990792870521545, 0.49667394161224365, 0.7007572054862976, 0.9999842047691345, 1.0], [0.9999866485595703, 0.9999997615814209, 1.0, 0.9996853470802307, 1.0, 1.0, -1.0, -1.0, 1.0, 0.8087352514266968, 1.0, -1.0, -0.9999969601631165, 1.0, -1.0, -1.0], [-1.0, -0.9999755024909973, 1.0, 1.0, 1.0, 0.9999988675117493, -1.0, 1.0], [11.935153007507324, -0.08424681425094604]]}, {"type": "bacteria", "x": 4946.570283134797, "y": 3091.013259119054, "r": 9.0, "angle": -1.6350279763269613, "vx": -19.256247025066173, "vy": -299.38134883555455, "energy": 86.53198079717956, "age": 50.77875000000028, "brain_sizes": [18, 32, 16, 8, 2], "brain_version": 32124, "brain_weights": [[[-6.138965129852295, 4.169461727142334, 6.01163387298584, -0.5064272284507751, -2.474684476852417, 8.994471549987793, 6.522939682006836, -3.161820888519287, -0.4885264039039612, 6.387158393859863, -4.471603870391846, -6.388052940368652, 4.547440528869629, -6.014632225036621, -8.669089317321777, -9.269046783447266, -0.9332906603813171, -4.430572986602783], [-2.2361068725585938, 2.415238380432129, -5.322142601013184, 13.001413345336914, -15.123953819274902, -3.4584290981292725, 1.9857242107391357, -0.04111015051603317, -9.128442764282227, 7.625428199768066, -0.2639431059360504, -5.691730499267578, 0.6331719756126404, -2.309854745864868, -3.005734443664551, 8.394408226013184, -3.2304797172546387, 7.573967933654785], [3.4000113010406494, -3.320786714553833, 10.316823959350586, -1.684683084487915, -1.4988508224487305, -8.736161231994629, 8.19848346710205, -1.4064909219741821, -2.120136022567749, 2.140099048614502, -0.04926132410764694, -4.91895055770874, 1.9293341636657715, 4.596427917480469, -9.308002471923828, -0.30054450035095215, -7.012579441070557, -3.2895596027374268], [2.161900281906128, -8.678956985473633, -6.382401943206787, 9.975799560546875, -5.275602340698242, 2.441988706588745, -2.6228888034820557, -10.065611839294434, -1.5573736429214478, 6.205338954925537, -5.563652038574219, 6.252119064331055, -0.3549257814884186, -4.903379917144775, -4.838002681732178, -11.771300315856934, -2.0724854469299316, 1.2098634243011475], [-1.3459625244140625, -5.351309299468994, 1.0696709156036377, -9.515300750732422, -17.559635162353516, -1.6163241863250732, 3.6276204586029053, -2.9212334156036377, -15.599163055419922, -0.43299007415771484, 3.2659075260162354, 4.315091609954834, 6.3261823654174805, -5.3890252113342285, -0.44228529930114746, 10.148079872131348, 8.067270278930664, -8.349666595458984], [13.263266563415527, 2.5875840187072754, 10.007668495178223, 7.161904811859131, -5.572603225708008, -3.3749823570251465, 9.385540008544922, -7.573556423187256, -6.625290870666504, 3.6019186973571777, -5.077620029449463, 2.6589503288269043, 6.931448936462402, -4.158651828765869, 2.4620275497436523, -9.417438507080078, -1.103447675704956, -3.89280104637146], [-4.509045600891113, 12.449649810791016, -5.054714202880859, 8.720938682556152, -10.870390892028809, -2.669548273086548, -3.9058837890625, -1.152388572692871, 7.771658897399902, 4.523410797119141, 11.859642028808594, -4.1852569580078125, -4.865461349487305, 1.8795182704925537, 2.2201671600341797, 0.0009785667061805725, -0.9540789723396301, -5.250601768493652], [-4.560917854309082, 8.067774772644043, 6.203955173492432, 13.920520782470703, -1.9589850902557373, 2.719008445739746, 10.999396324157715, 1.2742364406585693, 4.695707321166992, 7.742806434631348, -12.74998950958252, 0.6640316843986511, -1.9297034740447998, 4.321202278137207, 4.941282272338867, -8.349510192871094, -1.6258103847503662, -1.0295054912567139], [-1.0001188516616821, -0.11623691022396088, -4.026768684387207, 2.1025197505950928, 0.7118552327156067, 8.496164321899414, -0.41406726837158203, -2.2476072311401367, -1.9689983129501343, -3.698652505874634, -0.6521633863449097, 0.39550545811653137, 10.389154434204102, 10.457287788391113, -7.816318511962891, 3.8080804347991943, 2.790536880493164, 6.574889659881592], [0.6896220445632935, -8.522913932800293, 10.627758979797363, 0.8967045545578003, -0.2644716501235962, -1.6435015201568604, 2.234025478363037, 2.123349905014038, 10.003060340881348, 1.7088922262191772, 0.4454509913921356, 4.4910712242126465, -0.6912330389022827, -0.7689443230628967, 0.5733653903007507, 9.302474975585938, -0.6157845258712769, 1.1043062210083008], [9.816946029663086, 5.714938163757324, 2.7805063724517822, 3.0110831260681152, 5.726652145385742, 0.5184340476989746, 6.580258369445801, 0.2871410548686981, -1.5234365463256836, -2.7883923053741455, 1.168984055519104, -5.165436744689941, -0.8513441681861877, -3.428549289703369, -5.473673343658447, 7.168699264526367, 6.433551788330078, 1.482255220413208], [-4.365146636962891, 1.1578197479248047, 2.389634847640991, 1.9558258056640625, -1.0359351634979248, -0.9535101652145386, -10.471792221069336, -1.3864238262176514, 0.9422286748886108, -6.076982498168945, 0.42693984508514404, 7.32067346572876, 0.1352270543575287, -0.7879211902618408, 0.3612635135650635, -4.32863712310791, 3.218329668045044, 4.701702117919922], [0.5137224197387695, 0.15686427056789398, -2.084815263748169, -0.8588674664497375, -4.9609904289245605, 0.04778323322534561, -6.486259937286377, 0.7939600944519043, -4.029826641082764, -1.5156739950180054, -4.8228678703308105, 2.687418222427368, 8.120182991027832, -0.37935131788253784, -5.444614410400391, 0.20232538878917694, -0.02865915186703205, -0.6891969442367554], [7.647796630859375, 1.6050539016723633, -5.517787456512451, -10.184239387512207, 1.1127744913101196, 2.496392011642456, -1.7262742519378662, 2.006692409515381, -7.203363418579102, -10.575485229492188, -3.0214006900787354, -3.8681142330169678, -7.490241527557373, -2.3519835472106934, 7.538768291473389, 12.821385383605957, 3.077552318572998, -1.3389874696731567], [-4.319480895996094, -3.16241455078125, 6.520543575286865, 3.530259609222412, 7.962142467498779, -1.4662508964538574, -1.4207758903503418, 0.41437384486198425, -1.0305354595184326, -14.24048900604248, 0.6086801886558533, -2.9736669063568115, -2.524606943130493, 8.195533752441406, 1.4771389961242676, -2.0555169582366943, 4.524710655212402, -10.12125015258789], [-14.150360107421875, -8.116151809692383, 2.2533352375030518, 6.2557783126831055, 2.7437264919281006, 0.9835838675498962, 2.7031078338623047, -5.835362434387207, 6.738951683044434, -4.593900680541992, -4.346724987030029, -3.9628794193267822, -6.616469383239746, -3.611966133117676, -15.108853340148926, -11.749692916870117, -0.38398295640945435, -2.0449116230010986], [0.5330989360809326, 0.20654813945293427, 13.934476852416992, -0.9705495834350586, -2.363304615020752, -1.4149284362792969, 4.133280277252197, -0.5881195664405823, -5.666901588439941, -5.526052951812744, 4.9402031898498535, -4.5278754234313965, -0.5929348468780518, -9.082504272460938, 5.420734882354736, 1.6868782043457031, -2.9053969383239746, 0.03187129646539688], [6.060749530792236, -7.126605987548828, -3.158418893814087, -12.037850379943848, -4.432383060455322, -6.226303577423096, -4.355899810791016, 0.3648829162120819, -10.190990447998047, 8.584651947021484, -6.237435340881348, 5.13947868347168, 4.965908527374268, -3.300922393798828, -1.3260951042175293, -12.906420707702637, -7.306033134460449, -5.936651229858398], [12.495244026184082, 9.806504249572754, 1.2989561557769775, -6.971704006195068, 6.065133094787598, -1.8316049575805664, 1.9325928688049316, -3.134683847427368, 3.271394729614258, 0.6064585447311401, -2.0252881050109863, -13.168060302734375, -3.0581631660461426, -8.413928985595703, -9.633378982543945, -1.0387516021728516, -5.115980625152588, -1.5274654626846313], [-4.823036193847656, 4.149238586425781, -2.4733684062957764, -1.080153226852417, 4.570272445678711, 6.7394280433654785, 8.545830726623535, 3.668466806411743, 0.0678512379527092, -0.43064597249031067, -17.248022079467773, 9.560394287109375, 4.805612564086914, -2.5111935138702393, -0.260089635848999, 9.807296752929688, -1.2405452728271484, 12.658559799194336], [7.19423246383667, 4.495061874389648, 3.4393887519836426, -1.3086541891098022, -3.4010274410247803, -10.408635139465332, -0.6267725229263306, -0.576569676399231, 7.62516975402832, -6.797037124633789, -5.5058088302612305, 0.8763733506202698, -13.181303977966309, -3.0426642894744873, 10.592473983764648, 4.115278720855713, 0.19583344459533691, -8.44089412689209], [5.445521354675293, 3.2457802295684814, -11.35322380065918, 0.9362796545028687, 4.803661823272705, -10.511679649353027, -5.372213363647461, -3.6945090293884277, 2.4166173934936523, 7.599592208862305, 4.74895715713501, -0.7087928652763367, 1.9972344636917114, 3.154284954071045, 2.6636555194854736, -0.414673388004303, 1.1894580125808716, 0.4178047180175781], [-5.922786712646484, -1.406253457069397, 2.659006118774414, -5.2748613357543945, 1.5475348234176636, 12.78420639038086, -6.723958492279053, 4.390415191650391, -0.8757117390632629, 8.913374900817871, -3.700226306915283, -6.362127780914307, 5.052280902862549, 1.923537254333496, -0.45087528228759766, 0.16035853326320648, 6.341557502746582, -0.9540460705757141], [-2.852534294128418, -5.5693793296813965, 1.509722352027893, 2.3704993724823, -9.902061462402344, -3.387181043624878, -8.86658763885498, 0.25873038172721863, 5.004988670349121, -0.9334118366241455, -4.717637538909912, 0.6289008855819702, 5.0059404373168945, 4.917302131652832, 4.535404205322266, -6.186981201171875, 0.05287981778383255, 15.736210823059082], [0.11185497790575027, -3.301917314529419, -3.4123992919921875, 5.760668754577637, -10.444563865661621, -0.6773114204406738, 1.8790276050567627, -1.7767746448516846, 1.2813423871994019, 5.413051605224609, -9.913317680358887, 0.09048102796077728, -2.7923035621643066, 6.527944087982178, -1.171066164970398, 0.7778419256210327, 2.70963454246521, -1.218848466873169], [-0.28779366612434387, 0.5057392716407776, 0.47559109330177307, -7.529878616333008, 4.895931243896484, 3.532291889190674, 4.881370544433594, 14.173243522644043, 0.5640062689781189, 1.0912114381790161, 0.34034043550491333, -5.535044193267822, -1.3781282901763916, 3.4066786766052246, 6.756342887878418, 11.184972763061523, 0.4356123208999634, 1.0298247337341309], [2.6403982639312744, 6.013364315032959, -1.238324761390686, -2.4062318801879883, -2.0046613216400146, 4.464081287384033, -10.417760848999023, -1.4988468885421753, 1.1632734537124634, -0.8955233097076416, 0.025192677974700928, -4.961967468261719, -12.367408752441406, -4.827366828918457, -1.4718186855316162, -4.761443614959717, -3.1045308113098145, -10.310344696044922], [2.1464967727661133, -0.3465689718723297, 4.754514694213867, -7.367462635040283, 3.019233226776123, 12.689881324768066, 6.619213104248047, -3.9935247898101807, -5.369660377502441, -3.4096968173980713, -1.254450798034668, 6.573204040527344, 0.6587202548980713, 7.174561977386475, -3.258953094482422, -8.18207836151123, -9.903596878051758, -7.201488018035889], [-0.36593422293663025, -3.675079345703125, -0.350267231464386, -1.1825319528579712, -1.078415870666504, 2.8799664974212646, 12.859048843383789, 0.9975602030754089, 2.3179335594177246, 5.978765964508057, -2.1327292919158936, -9.630460739135742, 2.710141897201538, -3.4491569995880127, -5.343311786651611, -3.8422048091888428, 10.642060279846191, -2.0657761096954346], [1.9527932405471802, 2.89585280418396, -9.578254699707031, -5.507032871246338, -1.9129962921142578, 6.2328619956970215, 1.9177625179290771, 7.332543849945068, 3.582641363143921, -6.673123359680176, 5.123892307281494, -2.5505499839782715, -0.008808720856904984, 1.9335570335388184, 2.8368051052093506, 7.525016784667969, 10.85848617553711, -4.2173333168029785], [5.675614833831787, 8.094078063964844, 4.189056873321533, -7.87675142288208, 5.673266410827637, 2.6242170333862305, -7.10250997543335, -3.2660069465637207, 2.7019736766815186, -1.1551055908203125, 2.8338584899902344, -0.6498215794563293, 14.66937255859375, 3.032014846801758, -2.045623779296875, 3.0401055812835693, 7.761454105377197, -2.0654711723327637], [-3.8844056129455566, -8.63164234161377, -1.248502492904663, 2.7798705101013184, -6.202976703643799, 1.5398063659667969, -1.666571855545044, -11.139297485351562, -5.781335830688477, 0.29117369651794434, 4.38911771774292, -1.003283977508545, -0.5876424312591553, 0.004728265106678009, -1.3541772365570068, -3.5399324893951416, 0.7181054353713989, -3.83113431930542]], [[-4.013513565063477, 6.347586154937744, -1.347659945487976, -1.7581764459609985, -9.065431594848633, -12.217216491699219, -6.2700958251953125, 9.173372268676758, 1.0662896633148193, 14.081361770629883, 8.50411605834961, -2.3853020668029785, 3.966296434402466, 0.4539484977722168, -3.1684813499450684, -3.873312473297119, 1.4461302757263184, -1.1089125871658325, 1.4561703205108643, -9.46308708190918, -10.248409271240234, 4.555962085723877, -0.6188408136367798, -0.06907530874013901, 3.8179385662078857, 5.579320430755615, 3.2162234783172607, -0.3862672746181488, -2.0398471355438232, -5.60795259475708, 8.738404273986816, 4.936619758605957], [0.5136721730232239, 0.5232341289520264, 4.181893825531006, 1.6556133031845093, -4.459475517272949, 4.712282180786133, -0.8264764547348022, 7.056685924530029, -0.7075394988059998, 3.4837820529937744, 11.988800048828125, -5.558957576751709, -12.408050537109375, -0.6690107583999634, 5.450883865356445, 2.8289742469787598, -4.302560329437256, 4.566421031951904, 10.271895408630371, 1.5543471574783325, 9.04293155670166, 2.214290142059326, 3.2671191692352295, -7.28959321975708, 0.6301530599594116, -3.0756678581237793, 3.6463027000427246, 3.8669514656066895, 0.9937463998794556, 1.0543352365493774, 3.68027400970459, 1.3902374505996704], [8.017413139343262, -8.402356147766113, 2.1554698944091797, 0.9747043251991272, 4.659059524536133, 7.658928871154785, 2.224351167678833, 10.474074363708496, 8.338400840759277, 10.476381301879883, -2.992157220840454, -5.1409993171691895, -2.512856960296631, -1.1483255624771118, 4.423731803894043, 6.006049156188965, -0.7348626255989075, 0.923542320728302, 4.855884552001953, 3.608943462371826, -4.586601734161377, 0.8196041584014893, -14.287108421325684, 7.380375385284424, -13.354890823364258, 0.4727000594139099, 4.381845474243164, 0.6145659685134888, -4.309834003448486, 10.727500915527344, 10.404304504394531, -0.18074989318847656], [-18.838802337646484, -7.489322185516357, -0.14624668657779694, 2.921833038330078, 2.2613964080810547, -5.100066661834717, 4.452610015869141, -5.137378215789795, 1.2187588214874268, 5.129673480987549, -2.848479747772217, 6.359611511230469, 1.4702482223510742, 0.3239309787750244, -1.6993696689605713, 6.907427787780762, -0.8441035747528076, 3.5681583881378174, 6.139510154724121, -6.961315155029297, 5.948278903961182, -0.7075381278991699, -3.33113169670105, -2.629808187484741, 7.885289669036865, 1.659915804862976, -0.017780635505914688, -0.08011224865913391, 7.347093105316162, 7.320013999938965, -5.904963493347168, 1.2371225357055664], [-2.881462574005127, -1.964226484298706, 2.8176395893096924, 2.3750619888305664, 4.661901950836182, 2.2919936180114746, -4.613148212432861, 9.494513511657715, 3.993103265762329, -7.4346513748168945, -11.68808650970459, 5.049469947814941, -0.1958228051662445, 3.941438674926758, 2.30631947517395, 10.468536376953125, -2.899036407470703, -9.625101089477539, -5.534660816192627, 6.16130256652832, 6.924971103668213, 1.6713883876800537, 7.916462421417236, 1.7351181507110596, 5.236855983734131, 9.00705623626709, -1.6935137510299683, 0.40011659264564514, -6.681615829467773, -6.658794403076172, 6.770140647888184, -3.3592369556427], [3.5466113090515137, 0.44679516553878784, -2.961315631866455, -7.733218193054199, 11.417034149169922, -0.6807265877723694, -2.752504587173462, -1.071266770362854, 6.934274196624756, 1.3605692386627197, 2.0818943977355957, -4.614384651184082, -7.470715522766113, -1.7645517587661743, -1.6957759857177734, 10.093270301818848, -12.887289047241211, 6.106955528259277, -1.216970682144165, 0.8356558680534363, -9.101814270019531, 0.6625867486000061, 0.8282512426376343, 3.77776837348938, 7.511072635650635, -8.308088302612305, 2.6552364826202393, 3.9694559574127197, -10.419775009155273, 3.5391125679016113, 5.944244861602783, -5.885720729827881], [4.440968036651611, 1.862504243850708, -0.38268736004829407, 2.247964859008789, 12.935465812683105, -4.375304222106934, 3.328815221786499, -1.647170066833496, -3.264287233352661, -1.6897249221801758, 1.2208725214004517, 6.163321495056152, 8.434651374816895, -0.7349625825881958, 5.418122291564941, -6.980939865112305, -4.579206943511963, 3.5011932849884033, -2.632829189300537, 8.458989143371582, 10.942001342773438, 0.24166356027126312, 1.9405021667480469, -3.8093490600585938, 0.6515533924102783, -7.295173168182373, -6.062411308288574, 5.895112037658691, -1.2782037258148193, -11.032647132873535, 1.9924196004867554, -0.8011486530303955], [8.58769702911377, -1.8040841817855835, 3.985102891921997, -0.13942191004753113, -1.4499260187149048, -0.2097906470298767, -2.9060628414154053, -6.925142288208008, 0.2718665301799774, -1.2350294589996338, -4.818739414215088, -0.7712426781654358, 3.521782875061035, -14.152624130249023, -2.6846182346343994, -1.4668962955474854, -4.837099552154541, -0.40392178297042847, 7.988979339599609, -12.053915977478027, -1.7619808912277222, -7.211540699005127, 1.7008601427078247, -6.840156555175781, -10.335370063781738, -3.9467828273773193, 2.4434971809387207, -1.7489399909973145, -7.03043270111084, 7.686464309692383, -0.6694958806037903, 3.2183103561401367], [5.741570472717285, -8.038500785827637, 2.105870008468628, 6.474999904632568, 10.027907371520996, -7.3482561111450195, 8.339001655578613, 7.088713645935059, -3.243323564529419, -5.944862365722656, 8.397799491882324, -17.969921112060547, 4.03038215637207, -1.7270469665527344, -0.28544628620147705, -3.0386288166046143, -6.267943859100342, 3.661527633666992, 4.5444865226745605, -1.1076592206954956, -3.4037060737609863, -11.177536010742188, 4.558401584625244, 4.019716739654541, 5.7232770919799805, -10.997840881347656, -10.25403881072998, -0.5461552143096924, -5.781371593475342, 9.406225204467773, -3.077993869781494, 3.156881809234619], [-0.09944775700569153, 2.71759295463562, 10.51650619506836, -4.059436798095703, 1.68253755569458, 1.7867074012756348, -7.217523574829102, 2.9861273765563965, 0.4741784632205963, 0.8162089586257935, -7.131251335144043, 10.108509063720703, -9.782830238342285, -7.93470573425293, 10.241222381591797, -1.5281481742858887, 8.857744216918945, 1.1724159717559814, 2.0809895992279053, 6.948975563049316, -3.331000328063965, 6.883764266967773, -6.166749954223633, -6.198899269104004, -6.468764781951904, -4.488722324371338, -0.06603257358074188, 8.998891830444336, -4.98423433303833, 5.189944267272949, 9.880680084228516, 6.026546478271484], [0.4691661596298218, -1.4738099575042725, 10.179201126098633, 1.1390094757080078, 4.0090250968933105, -2.8679051399230957, 1.3897173404693604, -6.896963119506836, 0.8277454972267151, -0.39632782340049744, -6.495073318481445, -3.0562877655029297, 6.85469388961792, -9.328086853027344, 4.830260276794434, 14.946646690368652, -4.558447360992432, 4.731854438781738, -4.431178569793701, 0.1764867901802063, -6.6735053062438965, -3.8674099445343018, 0.5639930367469788, -1.5364186763763428, -0.3794878423213959, -4.2778706550598145, 5.415581226348877, -1.035702109336853, 4.013559818267822, -7.650069236755371, -0.6197396516799927, 6.504621505737305], [-2.53305721282959, -1.184631586074829, 2.91351580619812, 3.744904041290283, 8.798792839050293, -3.949610948562622, -2.14233136177063, -3.122177839279175, -6.956413745880127, 3.9734373092651367, -4.736719131469727, 1.8522511720657349, -0.9169877767562866, 7.410693168640137, -2.5054092407226562, 6.9698967933654785, -1.0316879749298096, 0.16466835141181946, -2.0406174659729004, -2.4161324501037598, -1.8234854936599731, 4.109885215759277, 1.3820034265518188, -0.13642668724060059, -4.014346122741699, 4.321174144744873, 3.6282691955566406, 7.428086757659912, -12.55776309967041, -8.14955997467041, 10.152348518371582, 8.238677978515625], [-4.938163757324219, -8.289280891418457, -4.951472759246826, 3.7497828006744385, -4.8997883796691895, 13.944472312927246, 3.920654773712158, 3.2900421619415283, -1.6142406463623047, -5.8325982093811035, 6.704722881317139, -0.018802959471940994, -8.188202857971191, 8.121133804321289, 1.6291542053222656, 5.094351768493652, -0.3611450493335724, -1.599483847618103, -0.7526310682296753, -3.5615572929382324, -2.0760295391082764, -2.8702356815338135, 4.99141263961792, 1.316028118133545, -5.989616394042969, 2.3682966232299805, 5.95595121383667, -0.05238311365246773, -2.968430280685425, -3.347475528717041, -3.9228549003601074, 2.1351616382598877], [-0.23948873579502106, -2.083286762237549, -8.830459594726562, 1.1306462287902832, 0.34295791387557983, -2.549123764038086, 13.994891166687012, -2.221156120300293, 1.90503990650177, -6.840871334075928, -8.095954895019531, -6.374692440032959, -2.177863359451294, 1.0719785690307617, 4.51468563079834, 6.966746807098389, 7.406488418579102, 2.432903528213501, 3.728543758392334, -0.05555835738778114, -2.3498525619506836, -8.418750762939453, 1.8272590637207031, 0.328514039516449, 0.3168584704399109, 0.8020292520523071, -6.545074939727783, -3.6170241832733154, 6.612292289733887, -7.970926761627197, -8.44410514831543, -3.197094202041626], [-4.279546737670898, -7.526918411254883, -1.973252296447754, -3.609445810317993, -3.3949832916259766, 3.659783124923706, 7.305263042449951, -0.9553235769271851, 4.328090190887451, -1.1858489513397217, 1.4448661804199219, -0.2693805992603302, 2.5633504390716553, -1.8208962678909302, -4.938586711883545, 2.5759849548339844, -0.17887701094150543, -6.5236616134643555, 1.6791123151779175, -11.717989921569824, 6.873138427734375, 0.6922303438186646, -5.566167831420898, -8.315346717834473, -1.0517040491104126, -1.219144582748413, -1.3412808179855347, 14.94694995880127, -2.5540099143981934, -9.01999568939209, -1.620380163192749, -4.354956150054932], [9.144659996032715, -5.234673976898193, -2.467158555984497, 5.719371795654297, -3.7820746898651123, -12.66907787322998, 3.9166908264160156, -7.159811496734619, -3.1337523460388184, -9.641267776489258, 0.2716856896877289, -4.351826190948486, 4.692964553833008, 3.5651819705963135, -0.14160597324371338, 2.7859811782836914, 4.32861852645874, 1.7725502252578735, 1.287739634513855, 5.617819786071777, -4.24196720123291, 8.308201789855957, -5.584574222564697, -3.4188148975372314, -1.7287037372589111, -8.343038558959961, 0.8856307864189148, 2.0028131008148193, -1.7954875230789185, -3.083667755126953, -0.1282329261302948, 2.7273666858673096]], [[-5.402246475219727, 1.0896357297897339, -4.898072242736816, -10.608695030212402, -0.15980619192123413, -1.229127287864685, 5.372966289520264, 0.0894838199019432, 0.6665964126586914, 0.0661054402589798, 8.535270690917969, 3.550424337387085, 7.213665008544922, -9.39348316192627, -9.005098342895508, 1.8455363512039185], [5.72401237487793, -5.7693562507629395, -10.007491111755371, 3.4754388332366943, 5.8542351722717285, -0.759800374507904, -3.8181822299957275, 3.16922926902771, -4.069093704223633, 6.508471488952637, -0.44255349040031433, 8.014674186706543, 5.449986457824707, 3.583998441696167, -8.783331871032715, 3.212569236755371], [0.4224095344543457, -1.2786322832107544, -3.902062177658081, -4.397397994995117, -3.473668336868286, 0.7010220289230347, -11.477429389953613, -10.27686595916748, -5.767059803009033, -1.8346304893493652, 3.591214895248413, -0.783659815788269, 7.503971576690674, 1.9890490770339966, -1.473685383796692, -8.200961112976074], [3.418513774871826, 5.343418598175049, 3.126704692840576, -1.6139854192733765, -0.503990888595581, 1.6255419254302979, -3.485408306121826, -1.4491311311721802, -3.998643159866333, 2.0474119186401367, 4.502206325531006, -11.471595764160156, -7.978309631347656, 0.6944261193275452, 0.6617342829704285, 12.266984939575195], [2.802731513977051, 6.934082984924316, 3.610438108444214, -5.845442295074463, -6.503612041473389, -0.5816074013710022, -16.003114700317383, 1.5677908658981323, -8.868731498718262, 8.061071395874023, -3.347892999649048, -5.52484655380249, -0.35399720072746277, 6.662297248840332, 4.354426383972168, -0.30389901995658875], [-5.17468786239624, -4.787806510925293, 0.47974419593811035, -7.591006755828857, 4.061008453369141, -1.603003740310669, -17.094091415405273, 7.188852787017822, -2.7799999713897705, -5.111639499664307, 2.2207133769989014, 0.6477255821228027, -4.162201881408691, 3.991382360458374, -4.720785140991211, -7.19003438949585], [5.952374458312988, 0.34122416377067566, 5.11883020401001, 1.6510158777236938, -7.219760894775391, -6.154583930969238, 0.3863377273082733, 3.989375352859497, -2.551348924636841, -5.727840900421143, -5.112625598907471, 2.109485387802124, -0.8198689222335815, -5.620034694671631, -4.797935485839844, 10.012036323547363], [7.705382823944092, -0.5889097452163696, 1.0229253768920898, 16.569210052490234, 2.019899368286133, -7.0226545333862305, 1.5772651433944702, 0.1120743378996849, -0.47701290249824524, -6.415440559387207, 1.294426679611206, 3.0293562412261963, 6.892695903778076, 3.572474956512451, -13.750986099243164, -8.94261646270752]], [[-4.062320709228516, 4.000734806060791, -0.3142387866973877, 5.462890148162842, -1.9650921821594238, 10.977712631225586, -0.5131289958953857, -2.5309576988220215], [-8.626628875732422, 2.308912992477417, 0.18756942451000214, -3.2840850353240967, -8.168376922607422, -0.8628205060958862, -2.8525631427764893, 3.274698495864868]]], "brain_biases": [[-0.3615395426750183, -4.627094745635986, 0.7475377321243286, -3.892066478729248, -2.2974212169647217, -8.400983810424805, -0.004900235682725906, 10.198101043701172, 0.43488800525665283, -0.14170338213443756, -0.628248393535614, -11.196364402770996, -3.3024587631225586, -8.835525512695312, 1.8046960830688477, 7.351862907409668, -5.481658458709717, -3.327399492263794, -3.3216404914855957, 1.9418667554855347, -0.43974584341049194, -8.313066482543945, 7.784580707550049, 8.889432907104492, 4.042708396911621, 3.981882095336914, -8.047887802124023, -3.9287571907043457, 0.3481101393699646, 0.6768855452537537, 6.1995849609375, 12.7742338180542], [-5.996119976043701, 0.7474269866943359, 6.363281726837158, 1.325386643409729, 7.2268757820129395, -0.21359796822071075, -1.5587687492370605, -4.453296184539795, 7.517245292663574, 0.8119320273399353, -14.12746524810791, -15.421239852905273, 2.751404285430908, -1.4985511302947998, 6.070528984069824, -4.726190567016602], [4.626471042633057, -0.7654222846031189, 3.8970420360565186, -1.8699654340744019, 1.6724073886871338, -2.77677321434021, -2.981564998626709, 0.780990481376648], [0.16143661737442017, -0.5815303921699524]], "sensor_retina_count": 18, "sensor_vision_radius": 180.0, "sensor_fov_degrees": 180.0, "sensor_skip": 2, "sensor_see_food": true, "sensor_see_bacteria": false, "sensor_see_predators": true, "locomotion_max_speed": 300.0, "locomotion_max_turn": 3.141592653589793, "energy_death_energy": 0.0, "energy_split_energy": 200.0, "energy_v0_cost": 3.0, "energy_vmax_cost": 6.0, "energy_vmax_ref": 300.0, "energy_energy_cap": 200.0, "energy_loss_idle": 3.0, "energy_loss_move": 6.0, "last_brain_output": [17.415176391601562, -6.8021368980407715], "last_brain_activations": [[-0.34656938910484314, -0.9998086094856262, 0.6336777210235596, -0.999167799949646, -0.9799944758415222, -0.9999998807907104, -0.0049001965671777725, 1.0, 0.4093981981277466, -0.14076247811317444, -0.55684494972229, -1.0, -0.9972962737083435, -0.9999999403953552, 0.9472901225090027, 0.9999991655349731, -0.9999653697013855, -0.9974277019500732, -0.9973978996276855, 0.9596817493438721, -0.4134337306022644, -0.9999998211860657, 0.9999996423721313, 0.9999999403953552, 0.9993842244148254, 0.9993045926094055, -0.9999997615814209, -0.9992266297340393, 0.33469846844673157, 0.5894909501075745, 0.999991774559021, 1.0], [0.9999999403953552, 0.9993146657943726, 1.0, -0.9942291975021362, 1.0, 1.0, -1.0, -1.0, 1.0, 0.982244610786438, 1.0, -1.0, -0.9498103857040405, 1.0, -1.0, -1.0], [-0.9995996356010437, -1.0, 1.0, 1.0, 1.0, 1.0, -1.0, -0.9954254031181335], [17.415176391601562, -6.80213737487793]]}, {"type": "bacteria", "x": 763.9193026680676, "y": 1829.53385157846, "r": 9.0, "angle": -2.042786918177716, "vx": -136.39708797686384, "vy": -267.1976372414463, "energy": 97.64944830516741, "age": 50.670000000000286, "brain_sizes": [18, 32, 16, 8, 2], "brain_version": 32124, "brain_weights": [[[-6.1449408531188965, 4.218692779541016, 5.2589616775512695, -0.5568023920059204, -2.6162142753601074, 9.278753280639648, 6.686462879180908, -3.1737349033355713, -0.9572542309761047, 6.681806564331055, -4.119494915008545, -6.493629455566406, 4.459936141967773, -6.072417736053467, -8.740214347839355, -9.38247013092041, -1.4062782526016235, -4.007871627807617], [-2.628282308578491, 2.8204073905944824, -5.250792980194092, 13.010686874389648, -15.273216247558594, -3.536085367202759, 1.899815320968628, 0.029224293306469917, -8.778366088867188, 7.820246696472168, -0.510235071182251, -5.71795654296875, 0.7261123657226562, -1.9998157024383545, -3.0271222591400146, 8.49587631225586, -3.4256625175476074, 7.526015281677246], [3.2192111015319824, -3.187126874923706, 10.309773445129395, -1.8886486291885376, -1.871673583984375, -8.494542121887207, 8.12381362915039, -1.5106512308120728, -1.8703447580337524, 2.47644305229187, 0.30604520440101624, -4.594915390014648, 2.5836057662963867, 4.523138046264648, -9.370488166809082, -0.4232417643070221, -7.1527791023254395, -3.327958106994629], [1.888812780380249, -8.843058586120605, -6.225088596343994, 9.863069534301758, -5.480783939361572, 2.684272527694702, -2.7790088653564453, -10.063321113586426, -2.047510862350464, 6.064233303070068, -5.645476818084717, 6.2630438804626465, -0.369985967874527, -4.8415937423706055, -4.51541805267334, -11.505446434020996, -1.8322703838348389, 1.1883302927017212], [-1.3175030946731567, -5.626744270324707, 1.3156142234802246, -9.865958213806152, -17.532825469970703, -1.8195772171020508, 4.064512729644775, -2.892369270324707, -15.258939743041992, -0.7606250047683716, 3.1961240768432617, 5.0268025398254395, 6.161360740661621, -5.265412330627441, -0.6174425482749939, 9.9839506149292, 8.061720848083496, -8.161900520324707], [13.358529090881348, 2.391350746154785, 10.072591781616211, 7.121920108795166, -5.542538642883301, -3.342050075531006, 9.58009147644043, -7.421814441680908, -6.315675735473633, 3.468094825744629, -5.100666522979736, 2.316967248916626, 6.756128311157227, -4.317227840423584, 2.4855542182922363, -9.175890922546387, -1.2398357391357422, -4.15787935256958], [-4.705872058868408, 12.39785099029541, -5.0968098640441895, 8.728425025939941, -10.667662620544434, -2.8240890502929688, -3.8483757972717285, -1.166595220565796, 7.810101509094238, 4.617705821990967, 12.079643249511719, -3.8670156002044678, -4.595510005950928, 1.5973365306854248, 2.192811965942383, -0.08561864495277405, -0.7929463982582092, -5.293086051940918], [-4.6744160652160645, 7.779996871948242, 6.061277389526367, 13.670660018920898, -2.1057887077331543, 2.4839394092559814, 10.891828536987305, 1.0297298431396484, 4.960799694061279, 7.788565158843994, -12.309812545776367, 0.6395388841629028, -1.9184247255325317, 4.073795795440674, 4.981465816497803, -8.346061706542969, -1.256646990776062, -0.9547252655029297], [-1.1443519592285156, 0.15015476942062378, -4.518836498260498, 2.1528284549713135, 0.8894442915916443, 8.736255645751953, -0.5847439765930176, -2.45161509513855, -1.8473427295684814, -3.362412452697754, -0.6698511242866516, 0.5226539373397827, 10.197769165039062, 10.383575439453125, -8.18080997467041, 3.907625675201416, 2.4427263736724854, 6.5883684158325195], [0.44864708185195923, -8.770021438598633, 10.63022518157959, 1.6387089490890503, -0.16930633783340454, -1.6010476350784302, 2.137117624282837, 2.270247220993042, 10.12759780883789, 1.9111465215682983, 0.9610354900360107, 4.724319934844971, -0.8948339819908142, -1.1755149364471436, 0.7219613790512085, 9.002936363220215, -0.7908828258514404, 1.517807960510254], [9.39685344696045, 5.973923683166504, 2.764582872390747, 3.1969707012176514, 5.953975677490234, 0.49366384744644165, 7.000917911529541, 0.7358299493789673, -1.1250308752059937, -3.1784143447875977, 1.3600043058395386, -5.355257034301758, -0.7821624279022217, -2.9199509620666504, -5.480429649353027, 7.034911632537842, 6.318772315979004, 1.3941484689712524], [-4.498671054840088, 1.5398564338684082, 2.615863084793091, 1.306788682937622, -1.5774434804916382, -0.9268302321434021, -9.910245895385742, -1.3627281188964844, 0.9228397607803345, -6.533410549163818, 0.1793869435787201, 7.279191017150879, 0.08414627611637115, -0.8470567464828491, 0.4449785351753235, -4.101682186126709, 3.666924476623535, 4.336533546447754], [0.6329360604286194, 0.32521820068359375, -2.009106397628784, -0.9157862067222595, -5.102662086486816, 0.3174326717853546, -6.584416389465332, 0.9951995015144348, -3.8287272453308105, -1.326444387435913, -4.288473606109619, 2.954580545425415, 8.155210494995117, 0.11564625799655914, -5.266824245452881, -0.08583162724971771, 0.3405725955963135, -0.2612181007862091], [7.602842330932617, 1.6629319190979004, -5.805328369140625, -10.048247337341309, 0.9947304129600525, 2.7388527393341064, -1.8735355138778687, 2.348132371902466, -7.259457111358643, -10.541640281677246, -3.1788623332977295, -3.543945789337158, -7.334605693817139, -2.632857084274292, 7.403972148895264, 12.935090065002441, 3.1360864639282227, -1.381542444229126], [-4.416220664978027, -3.3136255741119385, 6.109698295593262, 3.715034008026123, 7.743081092834473, -1.3532214164733887, -1.333158016204834, 0.2522798776626587, -1.0836478471755981, -13.900623321533203, 0.7534672021865845, -2.851210355758667, -2.3910746574401855, 8.034945487976074, 1.9365055561065674, -2.3300487995147705, 4.604287624359131, -10.251701354980469], [-14.051983833312988, -7.533163547515869, 2.223017692565918, 6.508744239807129, 2.6990902423858643, 1.0423779487609863, 2.569655656814575, -5.736945152282715, 6.801388263702393, -4.464748382568359, -4.18708610534668, -4.0257697105407715, -6.670202255249023, -3.3808977603912354, -15.039916038513184, -11.88114070892334, -0.5452191233634949, -1.9485846757888794], [0.5453870892524719, 0.5914116501808167, 13.670676231384277, -1.0417777299880981, -2.197183132171631, -1.4150739908218384, 3.959564685821533, -0.6464293599128723, -5.355819225311279, -5.346712112426758, 4.819234848022461, -4.658600330352783, -0.2452024519443512, -8.771147727966309, 5.7930803298950195, 2.23647141456604, -2.8600029945373535, -0.011322971433401108], [6.030012130737305, -7.1767191886901855, -3.2193689346313477, -12.100587844848633, -4.367998123168945, -6.092036724090576, -3.661621332168579, 0.18014837801456451, -10.34780502319336, 8.847393989562988, -5.999926567077637, 5.5693464279174805, 4.965071201324463, -3.209392786026001, -1.7270987033843994, -13.418431282043457, -7.267187118530273, -6.253380298614502], [12.999370574951172, 9.941374778747559, 1.669243335723877, -7.271299362182617, 6.124848365783691, -1.7734992504119873, 1.4910506010055542, -3.134222984313965, 3.326841354370117, 1.2858606576919556, -1.902377963066101, -12.849710464477539, -2.7994327545166016, -8.735669136047363, -9.675209999084473, -0.8165343403816223, -5.278571605682373, -1.8158190250396729], [-4.935548782348633, 4.076906204223633, -2.3883004188537598, -1.3069850206375122, 4.975650787353516, 6.7087249755859375, 8.881707191467285, 3.753091812133789, 0.009549438953399658, -0.28461870551109314, -17.0499324798584, 9.046919822692871, 4.784571647644043, -2.854893922805786, -0.21689757704734802, 9.980670928955078, -1.0100167989730835, 12.732500076293945], [7.438131809234619, 3.9694244861602783, 3.315629005432129, -1.5279288291931152, -3.6224544048309326, -10.774114608764648, -1.0838639736175537, -0.5770600438117981, 7.787425518035889, -6.994173526763916, -5.564377307891846, 0.7972195744514465, -13.419961929321289, -3.107574462890625, 10.873120307922363, 4.106902599334717, 0.2758162021636963, -8.770944595336914], [5.504663467407227, 2.9982450008392334, -10.88810920715332, 1.3062036037445068, 4.890224456787109, -10.602523803710938, -5.089943885803223, -3.727381706237793, 2.370148181915283, 7.264678478240967, 4.767672061920166, -0.688872218132019, 1.8464624881744385, 3.243016481399536, 2.761296033859253, -0.5220342874526978, 0.9592509269714355, 0.35484933853149414], [-5.6702961921691895, -1.3106108903884888, 2.676147699356079, -5.430670261383057, 1.4697147607803345, 12.915792465209961, -6.865567207336426, 4.456598281860352, -0.6933739185333252, 9.20667552947998, -3.919780731201172, -6.574865341186523, 5.010799407958984, 2.3278045654296875, -0.4303309917449951, -0.17252802848815918, 6.654325008392334, -1.3205827474594116], [-3.408308982849121, -5.57347297668457, 1.5170432329177856, 2.69008469581604, -10.262629508972168, -3.2967324256896973, -9.20840835571289, -0.04321996867656708, 5.299807548522949, -0.779475212097168, -4.450311660766602, 0.7912425398826599, 4.949892044067383, 5.093465805053711, 4.639102458953857, -6.144166946411133, -0.0875198170542717, 15.61113452911377], [-0.01109224185347557, -3.3062679767608643, -3.9333078861236572, 5.907645225524902, -10.650376319885254, -0.766631007194519, 1.703598976135254, -1.7713199853897095, 0.6082670092582703, 5.30234432220459, -9.880910873413086, 0.1779349446296692, -3.0339584350585938, 6.406761646270752, -1.037638783454895, 1.3879417181015015, 2.9422807693481445, -0.9673572182655334], [0.15445838868618011, 0.3602394461631775, 0.8132738471031189, -7.604830265045166, 4.731269836425781, 3.4301819801330566, 4.881062984466553, 13.696023941040039, -0.12414790689945221, 1.1037275791168213, 0.5853089094161987, -5.430729389190674, -1.2837458848953247, 3.454728126525879, 7.124354362487793, 10.45985221862793, -0.3204708993434906, 0.8739408254623413], [2.462228775024414, 6.252737045288086, -1.1116784811019897, -2.7101612091064453, -1.9450364112854004, 4.346060752868652, -10.440773963928223, -1.7116094827651978, 0.9578482508659363, -1.3750991821289062, -0.5490683913230896, -4.9072585105896, -12.207472801208496, -4.452901840209961, -1.348305583000183, -4.685253620147705, -2.86543607711792, -10.275412559509277], [2.0811524391174316, 0.08008712530136108, 4.52509880065918, -7.472682952880859, 3.0091516971588135, 12.479757308959961, 6.523214817047119, -4.253210544586182, -5.310766696929932, -3.6161460876464844, -1.2752082347869873, 6.619568347930908, 0.603518009185791, 7.713977336883545, -3.6321654319763184, -8.143108367919922, -10.083931922912598, -7.032806396484375], [-0.09187810122966766, -3.642889976501465, -0.35664641857147217, -0.7569361925125122, -1.3907495737075806, 3.172091007232666, 12.650701522827148, 1.352114200592041, 2.502845048904419, 5.807480812072754, -1.824903964996338, -9.93692398071289, 2.8223423957824707, -3.186770439147949, -5.597104072570801, -4.410039901733398, 10.49480152130127, -1.719919204711914], [1.678112268447876, 2.8622965812683105, -9.65493392944336, -5.032146453857422, -2.1146597862243652, 6.173367977142334, 1.7973723411560059, 