{"version": 2, "timestamp": "20250905_230425", "params": {"time_scale": 1.0, "fps": 60.0, "paused": true, "use_spatial": true, "substrate_shape": "rectangular", "world_w": 5000.0, "world_h": 5000.0, "substrate_radius": 5000.0, "max_deaths_per_step": 5, "retina_skip": 2, "retina_vision_mode": "single", "simple_render": false, "reuse_spatial_grid": true, "food_target": 200, "food_min_r": 8.0, "food_max_r": 10.0, "food_replenish_interval": 0.1, "bacteria_count": 100, "bacteria_min_r": 6.0, "bacteria_max_r": 12.0, "bacteria_min_limit": 20, "bacteria_max_limit": 300, "bacteria_initial_energy": 100.0, "bacteria_death_energy": 0.0, "bacteria_split_energy": 200.0, "bacteria_metab_v0_cost": 3.0, "bacteria_metab_vmax_cost": 6.0, "bacteria_energy_cap": 200.0, "bacteria_body_size": 9.0, "bacteria_max_speed": 300.0, "bacteria_max_turn": 3.141592653589793, "bacteria_vision_radius": 300.0, "bacteria_vision_mode": "frontal", "bacteria_retina_count": 18, "bacteria_retina_fov_degrees": 180.0, "bacteria_show_vision": true, "bacteria_retina_see_food": true, "bacteria_retina_see_bacteria": false, "bacteria_retina_see_predators": true, "bacteria_hidden_layers": 3, "bacteria_neurons_layer_1": 32, "bacteria_neurons_layer_2": 16, "bacteria_neurons_layer_3": 8, "bacteria_neurons_layer_4": 20, "bacteria_neurons_layer_5": 0, "bacteria_mutation_rate": 0.1, "bacteria_mutation_strength": 0.1, "bacteria_structural_jitter": 0, "predators_enabled": true, "predator_count": 1, "predator_min_r": 10.0, "predator_max_r": 18.0, "predator_min_limit": 1, "predator_max_limit": 100, "predator_initial_energy": 100.0, "predator_death_energy": 100.0, "predator_split_energy": 400.0, "predator_metab_v0_cost": 10.0, "predator_metab_vmax_cost": 15.0, "predator_energy_cap": 400.0, "predator_body_size": 30.0, "predator_max_speed": 300.0, "predator_max_turn": 3.141592653589793, "predator_vision_radius": 500.0, "predator_vision_mode": "frontal", "predator_retina_count": 18, "predator_retina_fov_degrees": 120.0, "predator_show_vision": false, "predator_retina_see_food": false, "predator_retina_see_bacteria": true, "predator_retina_see_predators": false, "predator_hidden_layers": 3, "predator_neurons_layer_1": 32, "predator_neurons_layer_2": 16, "predator_neurons_layer_3": 8, "predator_neurons_layer_4": 0, "predator_neurons_layer_5": 0, "predator_mutation_rate": 0.1, "predator_mutation_strength": 0.1, "predator_structural_jitter": 0, "agents_inertia": 1.0, "show_selected_details": true, "substrate_bg_color": [18, 7, 53], "food_color": [50, 100, 0], "bacteria_color": [173, 115, 0], "predator_color": [154, 0, 0], "disable_brain_activations": false, "auto_export_substrate": false, "auto_export_interval_minutes": 10.0}, "ui_params": {"time_scale": 1.0, "fps": 60, "paused": true, "use_spatial": true, "retina_skip": 2, "retina_vision_mode": "single", "simple_render": false, "reuse_spatial_grid": true, "agents_inertia": 1.0, "show_selected_details": true, "enable_brain_activations": true, "auto_export_substrate": false, "auto_export_interval_minutes": 10.0, "food_target": 200, "food_min_r": 8.0, "food_max_r": 10.0, "food_replenish_interval": 0.1, "world_w": 5000.0, "world_h": 5000.0, "substrate_shape": "rectangular", "substrate_radius": 5000.0, "bacteria_count": 100, "bacteria_min_limit": 20, "bacteria_max_limit": 300, "bacteria_initial_energy": 100.0, "bacteria_death_energy": 0.0, "bacteria_split_energy": 200.0, "bacteria_metab_v0_cost": 3.0, "bacteria_metab_vmax_cost": 6.0, "bacteria_energy_cap": 200.0, "bacteria_body_size": 9.0, "bacteria_vision_radius": 300.0, "bacteria_retina_count": 18, "bacteria_retina_fov_degrees": 180.0, "bacteria_max_speed": 300.0, "bacteria_max_turn_deg": 180.0, "bacteria_hidden_layers": 3, "bacteria_neurons_layer_1": 32, "bacteria_neurons_layer_2": 16, "bacteria_neurons_layer_3": 8, "bacteria_neurons_layer_4": 20, "bacteria_neurons_layer_5": 0, "bacteria_mutation_rate": 0.1, "bacteria_mutation_strength": 0.1, "bacteria_show_vision": true, "bacteria_retina_see_food": true, "bacteria_retina_see_bacteria": false, "bacteria_retina_see_predators": true, "predators_enabled": true, "predator_count": 1, "predator_min_limit": 1, "predator_max_limit": 100, "predator_initial_energy": 100.0, "predator_death_energy": 100.0, "predator_split_energy": 400.0, "predator_metab_v0_cost": 10.0, "predator_metab_vmax_cost": 15.0, "predator_energy_cap": 400.0, "predator_body_size": 30.0, "predator_vision_radius": 500.0, "predator_retina_count": 18, "predator_retina_fov_degrees": 120.0, "predator_max_speed": 300.0, "predator_max_turn_deg": 180.0, "predator_hidden_layers": 3, "predator_neurons_layer_1": 32, "predator_neurons_layer_2": 16, "predator_neurons_layer_3": 8, "predator_neurons_layer_4": 0, "predator_neurons_layer_5": 0, "predator_mutation_rate": 0.1, "predator_mutation_strength": 0.1, "predator_retina_see_food": false, "predator_retina_see_bacteria": true, "predator_retina_see_predators": false, "predator_show_vision": false, "test_param_1": 1, "test_param_2": 2, "test_param_3": 3.0, "test_param_4": 4, "test_param_5": 5, "test_param_6": 6.0, "test_param_7": 7, "test_param_8": 8, "test_param_9": 9.0, "test_param_10": 10, "test_param_11": 11, "test_param_12": 12.0, "test_param_13": 13, "test_param_14": 14, "test_param_15": 15.0, "test_param_16": 16, "test_param_17": 17, "test_param_18": 18.0, "test_param_19": 19, "test_param_20": 20, "test_param_21": 21.0, "test_param_22": 22, "test_param_23": 23, "test_param_24": 24.0, "test_param_25": 25, "test_param_26": 26, "test_param_27": 27.0, "test_param_28": 28, "test_param_29": 29, "test_param_30": 30.0}, "world": {"width": 5000.0, "height": 5000.0, "shape": "rectangular", "radius": 5000.0}, "camera": {"x": -810.8969120101706, "y": -871.8572829633758, "zoom": 0.11918176537727532}, "simulation": {"total_simulation_time": 51787.629600005675}, "food": {"count": 199, "target": 200}, "agents": [{"type": "bacteria", "x": 4882.2851841428865, "y": 4924.982695538785, "r": 9.0, "angle": 1.9518042086980545, "vx": -111.17117414940076, "vy": 277.5242331320311, "energy": 81.96456110022181, "age": 62.051666666664275, "brain_sizes": [18, 32, 16, 8, 2], "brain_version": 2919, "brain_weights": [[[2.5342423915863037, -0.4167746901512146, 4.246701717376709, -1.1752533912658691, -0.08120870590209961, 2.957124710083008, -0.6728408932685852, -2.063905954360962, -0.03489845246076584, 2.97157883644104, -0.730999231338501, -0.8377078175544739, -2.3975555896759033, 0.6405428051948547, -0.26437342166900635, -3.50382661819458, 1.5062392950057983, 1.1561903953552246], [3.5925405025482178, -1.1215472221374512, -3.4248788356781006, -1.1526579856872559, -2.193659543991089, 1.8139292001724243, -0.47352921962738037, -2.1552319526672363, -1.2846952676773071, 1.0010039806365967, 0.07188146561384201, -0.615515410900116, 0.009326677769422531, 2.0137288570404053, -0.8185588717460632, -0.7889871597290039, 0.7875073552131653, 1.2967039346694946], [3.026113748550415, -1.4941099882125854, 1.4983458518981934, 1.155632495880127, 1.5406169891357422, -0.11359032988548279, -0.2912600040435791, 1.0400381088256836, 0.25370603799819946, 2.854326009750366, -1.7403980493545532, 2.2265543937683105, -1.0690524578094482, 0.7993481159210205, 0.1127004623413086, 1.8778748512268066, 2.201183319091797, -0.20332299172878265], [-0.0310039222240448, -2.6844775676727295, -3.2834205627441406, 4.673445224761963, -0.5886813998222351, 1.0633208751678467, 2.0836706161499023, 0.10786532610654831, 1.6832644939422607, -3.068974494934082, 1.8642349243164062, 0.9895135760307312, -2.5706326961517334, 2.577881336212158, -1.7732328176498413, 1.0844489336013794, 4.909129619598389, -1.6951584815979004], [-1.7130587100982666, 1.161578893661499, -2.6458566188812256, -2.1081082820892334, -2.8227455615997314, -0.8971874713897705, -0.47081875801086426, -0.5378251671791077, -1.049241542816162, 3.625770330429077, -0.07950552552938461, 0.44126710295677185, 0.8134037256240845, 0.4335804879665375, 0.6228231191635132, 5.208748817443848, 1.8328604698181152, -2.530012369155884], [1.7780532836914062, -1.2917203903198242, 1.571613073348999, -0.1919579952955246, 3.3328237533569336, 4.0453314781188965, -0.10775710642337799, 0.08418883383274078, 0.14896413683891296, 2.166233777999878, -0.00490126758813858, 4.234513282775879, -2.959857702255249, -2.73837947845459, -1.786681890487671, -0.045022882521152496, 1.4398294687271118, 1.8229917287826538], [-2.2828829288482666, -1.3800392150878906, 1.5627516508102417, 0.013313375413417816, -3.9015893936157227, 0.31861773133277893, -2.6153299808502197, 1.637697696685791, 1.9452604055404663, 1.9258309602737427, -0.8737916946411133, 1.2275192737579346, -4.0400800704956055, 0.33275195956230164, 2.4594266414642334, -0.4553513526916504, -0.4994881749153137, -1.1744575500488281], [-1.4892302751541138, 3.50287127494812, 0.8795599937438965, 0.9630078673362732, 1.1283609867095947, -1.4248474836349487, -0.7291243672370911, -0.4596549868583679, 3.6906771659851074, -1.8937495946884155, -1.3106226921081543, -0.09509997814893723, -3.847904682159424, 0.3284090757369995, -3.0508780479431152, -1.5167663097381592, 0.44775068759918213, 0.5870888233184814], [1.2640342712402344, 0.6984129548072815, -3.363280773162842, 2.163492441177368, 1.4573560953140259, 0.9370341897010803, 1.5628268718719482, 3.1159446239471436, -0.4768950045108795, 0.41209104657173157, -0.10356488823890686, -4.140902519226074, -0.8471472263336182, 1.971226692199707, -2.9969334602355957, 0.5365626811981201, 1.8397306203842163, -0.9974203109741211], [0.929431140422821, -2.779604911804199, 1.802661418914795, 0.23552671074867249, 2.3092665672302246, 2.0720510482788086, -2.232424020767212, -0.9578841924667358, 2.9101345539093018, 0.2550385296344757, 0.49461647868156433, 0.5169098973274231, -0.6905127763748169, -3.5277702808380127, -0.13450169563293457, -2.1229348182678223, -3.0584287643432617, 1.465959072113037], [0.5854547023773193, -0.2800571918487549, -0.03539207577705383, 1.0138413906097412, -2.722597599029541, -0.2085963487625122, 0.24515782296657562, -0.891007125377655, 0.812446117401123, 0.2972010374069214, -1.023850679397583, 1.3950830698013306, -1.8466696739196777, 0.03731444105505943, -1.7289589643478394, -1.676301121711731, -2.19197940826416, 2.087090015411377], [-0.026031605899333954, -2.226318359375, -2.075479030609131, 0.29901695251464844, 1.577237606048584, -0.8068152666091919, -1.7565809488296509, -1.9874464273452759, 0.3554074168205261, -0.17880985140800476, 1.8159584999084473, 2.1944124698638916, -1.1238081455230713, -1.6805577278137207, -1.9221422672271729, 0.15518049895763397, 0.3034111261367798, -1.8058773279190063], [3.6137216091156006, 1.1475942134857178, 1.8601746559143066, -2.554884195327759, 0.5031057000160217, 1.2364294528961182, 0.29151827096939087, -1.4564651250839233, 0.020086348056793213, -0.08807818591594696, -1.030511736869812, 2.327467441558838, 2.4424331188201904, -0.173789381980896, -1.278316855430603, 3.642981767654419, -2.2141594886779785, 2.286151647567749], [-1.5922490358352661, -1.2141051292419434, 1.4693914651870728, -0.002893000841140747, 1.6925945281982422, 1.1178025007247925, -0.8884352445602417, 0.20950400829315186, 0.08589258044958115, -1.7197179794311523, -1.8483220338821411, -0.9852911233901978, 1.5711232423782349, -1.99337637424469, -0.8534069657325745, 1.227298378944397, 1.0267494916915894, -0.06585818529129028], [-2.419450521469116, -1.1073616743087769, 0.30231374502182007, 2.169111967086792, 1.8715450763702393, 1.7006815671920776, 0.6519795060157776, -0.21789398789405823, -1.7050423622131348, -0.14968842267990112, -1.2270063161849976, -2.9421753883361816, 2.635218620300293, 2.4799935817718506, 1.0075974464416504, 4.836948394775391, 0.19273003935813904, -0.962755024433136], [3.2265119552612305, 0.12171591818332672, 0.9143476486206055, 0.733973503112793, 2.4590017795562744, 0.8166062831878662, 0.377392053604126, 0.5095305442810059, 0.664654552936554, 0.3132507801055908, -0.2346295565366745, -0.23957037925720215, -1.0551069974899292, -2.401961088180542, 0.9240112900733948, -1.300737738609314, -1.686885118484497, -0.2401413917541504], [-1.5457485914230347, -0.6804044246673584, 3.055088758468628, -2.5585885047912598, 0.8357614278793335, 0.041213974356651306, 1.320845603942871, 1.3376984596252441, 0.012971099466085434, -0.8665058016777039, 2.0485081672668457, -0.019977375864982605, 0.023178651928901672, -0.747687578201294, 1.6003130674362183, 0.2511932849884033, 0.2138211578130722, 0.9280410408973694], [-3.1482813358306885, -1.095096468925476, -2.364131450653076, -2.3384268283843994, 0.4179854393005371, -1.603367567062378, -0.5672929883003235, 1.1107152700424194, 0.132227823138237, 0.7710745334625244, -4.277578353881836, 1.132897138595581, 3.50829815864563, -0.8967370986938477, 0.20110931992530823, -1.8556902408599854, 0.7001974582672119, -0.8240624666213989], [-0.3357257843017578, 0.8353615999221802, 0.7130566239356995, -1.9916564226150513, -1.428971529006958, -2.625091075897217, -1.9422111511230469, 1.914316177368164, 0.5449020862579346, 0.22944766283035278, -0.924884021282196, -0.23375019431114197, 0.9748591780662537, 1.044871211051941, 0.3626812696456909, -2.6540658473968506, -1.1979148387908936, 0.1414712369441986], [-5.165951251983643, -0.29369014501571655, -1.7318811416625977, 2.5789589881896973, 1.0938084125518799, -1.0350329875946045, -0.5202006101608276, -1.1946361064910889, -3.3673365116119385, -1.8058234453201294, -1.4072996377944946, -1.2230464220046997, 2.884542465209961, 0.5787198543548584, 0.9054818749427795, -1.6084030866622925, -0.0662795826792717, 6.0710344314575195], [1.9409762620925903, 0.6132419109344482, 0.6302462220191956, 1.009132742881775, -1.3755441904067993, -1.6296370029449463, 2.0864176750183105, 4.399438858032227, 1.538339614868164, -1.043784260749817, -2.2510783672332764, 3.1822731494903564, 1.5732903480529785, 0.3498349189758301, -1.079028606414795, 1.9619687795639038, -0.2856461703777313, -1.0141499042510986], [-0.2978491187095642, -0.14600597321987152, -1.6280879974365234, 0.26112812757492065, -1.9123053550720215, -4.4966959953308105, 0.2953329086303711, -3.070208787918091, -0.892378032207489, 0.11595885455608368, 2.8874826431274414, 1.1768553256988525, -0.6766926050186157, -0.6794171333312988, 1.7045177221298218, -1.2547013759613037, 0.9693915247917175, -1.4691823720932007], [-1.6882100105285645, -0.810230553150177, 0.2401660978794098, -1.128990650177002, 2.1047377586364746, 2.213155746459961, 0.35741811990737915, 3.694342851638794, -2.923818826675415, 2.80450439453125, -0.6792802810668945, -1.6008734703063965, -0.9826886057853699, 0.7518402934074402, 0.5243936777114868, 0.4834482967853546, 0.9385536313056946, 0.6750685572624207], [-1.453185796737671, 1.6898036003112793, 0.1959647834300995, 2.3720264434814453, -0.3814677596092224, -1.1363728046417236, 0.22010673582553864, 4.905470371246338, -0.7437334060668945, 0.8273348212242126, 0.517349898815155, -0.6676579117774963, -1.3595993518829346, 2.1358118057250977, 3.921978712081909, -1.2767118215560913, 0.8423452973365784, 2.7498645782470703], [-0.6418440937995911, 1.572985053062439, 0.9412999153137207, 0.42058613896369934, -0.7896522283554077, 0.4100864827632904, 0.5635179281234741, -1.4620033502578735, -1.403306484222412, 0.9412229657173157, 0.19425064325332642, -2.6941022872924805, 0.9206917881965637, -3.274308443069458, -0.3055165112018585, -0.402538925409317, 0.23913255333900452, -1.9579157829284668], [-2.2800307273864746, -1.8318202495574951, -1.22877836227417, -2.2417755126953125, -1.109901785850525, 1.1166163682937622, 3.218519687652588, 3.2187397480010986, 0.3378974199295044, -0.523358166217804, 1.4215458631515503, 3.0008649826049805, -2.8650529384613037, -2.7013187408447266, -1.0682538747787476, 1.12791109085083, 1.1742069721221924, 1.931405782699585], [1.4490267038345337, 2.3882999420166016, 2.085172176361084, 1.5081121921539307, -1.0389162302017212, -0.8578540682792664, 0.17583774030208588, 0.06016167253255844, -2.2537527084350586, -2.67574143409729, -1.6689257621765137, -0.8590537309646606, -0.6536041498184204, -0.6451065540313721, 2.161172866821289, -0.9105013608932495, 1.2280032634735107, -1.1072293519973755], [-0.37527045607566833, 1.6349048614501953, -0.24180901050567627, -0.27461904287338257, -2.017995834350586, -2.111501932144165, -0.4512160122394562, 2.2201733589172363, 0.28906548023223877, 1.7553349733352661, -2.030468225479126, -1.0919023752212524, 0.8765674829483032, -0.959976315498352, -0.03497069329023361, -1.7053159475326538, -0.6572200059890747, -0.8949055075645447], [-1.2565964460372925, 0.8167843818664551, 0.41689473390579224, -0.6998717784881592, -1.0037418603897095, 1.6915265321731567, 2.5880355834960938, -1.7153685092926025, 0.3647848963737488, -0.20679022371768951, 0.4684857130050659, -1.980194091796875, -0.5330224633216858, -1.2065534591674805, 0.737343430519104, -0.01476730965077877, 0.9313342571258545, -1.4225916862487793], [-0.22971028089523315, 2.1674516201019287, 2.227569818496704, -0.2662317156791687, 1.139933705329895, -2.183769464492798, -0.8736193776130676, -1.6407334804534912, -0.37095820903778076, -1.6578131914138794, 1.3193187713623047, 1.8819379806518555, -1.8614510297775269, 1.1122429370880127, -0.48115742206573486, -0.8011941909790039, -0.15073198080062866, 0.35741764307022095], [-1.2928963899612427, 0.23409157991409302, 3.4852263927459717, -0.8336223363876343, -2.416637659072876, 2.1571266651153564, -2.3892579078674316, -3.029468059539795, 1.1875413656234741, 0.30403217673301697, 1.453237771987915, -0.25195449590682983, 1.6448404788970947, -1.4488463401794434, -1.601250410079956, 0.11018659174442291, 1.982004165649414, -1.9626078605651855], [2.5537960529327393, -1.099266529083252, -1.2904471158981323, 2.1312479972839355, 0.46291446685791016, 1.6149522066116333, -1.9975650310516357, -0.544755220413208, 1.769957184791565, 1.819594144821167, 0.9004712104797363, -0.4250175952911377, -2.2016682624816895, -1.5752980709075928, -3.651444673538208, -1.3343195915222168, -1.846755862236023, 0.2896764576435089]], [[-0.96666419506073, 0.9899722933769226, 2.5692849159240723, -1.3618463277816772, -2.8912510871887207, -2.2276904582977295, -2.2983016967773438, 0.020215708762407303, -1.241007685661316, -0.9754919409751892, 0.8528486490249634, -0.2101791650056839, -0.8531486392021179, 0.4598068594932556, -0.24989856779575348, 1.8260499238967896, -1.0275459289550781, -1.2779113054275513, 2.646108627319336, 0.5162605047225952, -0.6397597789764404, 0.6943906545639038, 1.2895586490631104, 2.28383207321167, 2.978961944580078, 0.9013285636901855, 0.6426635980606079, 0.21098238229751587, -1.0603643655776978, -4.184000015258789, 2.765620231628418, -1.269081711769104], [-0.3149544894695282, 0.3109755218029022, 3.1207048892974854, -0.9277036190032959, 2.3968896865844727, -0.20561857521533966, 1.7718256711959839, 1.8067492246627808, 0.5367149114608765, 2.575762987136841, 2.3229551315307617, -4.7863898277282715, 0.4718875586986542, 0.7484509348869324, -1.1922941207885742, -1.4973970651626587, -0.5276458263397217, 0.3518320620059967, 4.225183486938477, 2.9019405841827393, 0.7901651263237, 1.681333065032959, 0.7653329372406006, 0.7796403765678406, -0.6006289124488831, -1.4749168157577515, 2.4699206352233887, 1.031076192855835, -0.38230058550834656, 0.7555748820304871, 0.007677406072616577, 0.21446964144706726], [3.3108644485473633, 1.7733348608016968, 2.895189046859741, -0.07230255752801895, -0.5084527134895325, 2.090355396270752, 0.3332965075969696, 1.9395860433578491, 2.9712893962860107, 5.081915855407715, 0.35905182361602783, -2.52923321723938, 0.4126964807510376, 1.577879786491394, 2.9059195518493652, 0.23658761382102966, 2.651080846786499, -0.31921082735061646, -0.637239396572113, 2.2141406536102295, -2.5368809700012207, 0.8218079805374146, -1.6217185258865356, 2.601891279220581, -3.3719611167907715, -0.31328898668289185, -2.0884816646575928, 3.1003358364105225, -0.21407201886177063, 1.2418700456619263, -0.2450137436389923, 0.12532374262809753], [-2.492119550704956, 1.1965351104736328, -1.6342740058898926, -0.6010896563529968, -4.479443073272705, 0.05966659262776375, 0.7165153622627258, -0.9313032031059265, 2.605462074279785, 2.1649038791656494, 1.3669904470443726, -1.3847194910049438, 3.0277111530303955, 0.954954206943512, 0.23906633257865906, 0.05781818553805351, 0.9390096664428711, -0.4359002709388733, 0.5023595094680786, 0.1747647225856781, 0.8639937043190002, 0.6892293095588684, -1.4055745601654053, -0.5987392663955688, 2.3133509159088135, -2.084686279296875, 0.0010147243738174438, 2.73001766204834, 3.353365421295166, 1.2902781963348389, -2.2780890464782715, 2.2007510662078857], [0.8442910313606262, 2.0045154094696045, -1.0478153228759766, 2.723439931869507, -1.3602263927459717, 2.201435089111328, -0.7311149835586548, 2.158569574356079, -0.6994976997375488, 0.6008632779121399, 0.49425315856933594, -2.1089529991149902, -1.0866196155548096, 1.1209611892700195, -0.8744602799415588, 1.5277011394500732, 1.000483751296997, -3.530984401702881, -0.48454636335372925, 0.1453261375427246, 0.08467404544353485, 2.5631465911865234, -0.24925515055656433, 1.461870789527893, 1.5918796062469482, -0.811806321144104, 0.9340528249740601, -1.7754647731781006, -1.6044371128082275, -0.8524959683418274, -0.40965771675109863, -0.6111077070236206], [0.03673370182514191, -0.3409402370452881, -1.8261288404464722, -1.3523321151733398, 1.4179611206054688, 1.5195305347442627, -0.670314371585846, -0.9051084518432617, 1.4857792854309082, 0.45025861263275146, -3.4009463787078857, 0.7531748414039612, -0.4698868989944458, 1.6719679832458496, 1.9358155727386475, 1.2841620445251465, -2.258577346801758, 0.7398608922958374, 3.0165562629699707, 2.1374311447143555, 1.1517664194107056, -0.2498023957014084, -1.783083438873291, -1.3066273927688599, -0.8447381854057312, -3.4702627658843994, 0.005754008889198303, 0.9847476482391357, -2.4506776332855225, 0.44104912877082825, 0.5633662343025208, 2.2256786823272705], [-0.598132312297821, -0.37970542907714844, -2.2101070880889893, 1.2881790399551392, 3.232710599899292, -3.466214179992676, -1.5651209354400635, -1.0009089708328247, 0.9281057119369507, -0.9533984661102295, 0.11283419281244278, -0.7373654842376709, 3.5421979427337646, -0.7712123990058899, -0.269899845123291, -1.5826115608215332, -2.975282669067383, -0.208685964345932, 0.4004843533039093, -0.665417492389679, -0.4565238952636719, -0.9532027244567871, 0.20099873840808868, 1.536524772644043, 0.7253913879394531, -1.702122688293457, -0.9841501116752625, 0.5832787752151489, 0.6299645304679871, 0.5405852794647217, -0.18627755343914032, 2.3351964950561523], [2.4255824089050293, -1.0641601085662842, 1.2066818475723267, -2.162957191467285, 0.7068283557891846, -0.6720536947250366, -1.5716336965560913, -0.21620261669158936, 0.8480198383331299, 2.3363327980041504, -1.0322028398513794, 1.597449779510498, 3.1988401412963867, -1.1402474641799927, 1.3175506591796875, -0.6268579959869385, -3.733717918395996, -0.32186245918273926, 1.4802525043487549, -3.9842870235443115, 0.39021939039230347, -0.32571491599082947, 2.405879497528076, -1.0819337368011475, -1.038070559501648, -3.826800584793091, 0.975326418876648, -2.2095439434051514, 0.36505648493766785, 0.48783862590789795, 2.714493751525879, -0.9121768474578857], [-0.5736937522888184, 0.348306804895401, -0.08537963032722473, -0.715372622013092, 1.334293007850647, -0.7964405417442322, -0.06887055188417435, 1.8989028930664062, 0.7377228736877441, -0.814842164516449, 1.7674919366836548, -2.683764696121216, 1.1886277198791504, 0.4120335280895233, -1.1456719636917114, 0.7161986231803894, 1.4233909845352173, 0.6526104211807251, -1.977314829826355, -1.5744467973709106, 0.26146724820137024, -0.3825080692768097, 1.0417261123657227, -1.3906224966049194, 1.3222002983093262, 1.886171817779541, -1.9744455814361572, 1.4164520502090454, 2.494446277618408, -1.075717568397522, 0.01178588904440403, -0.11893075704574585], [1.1035953760147095, -1.1627893447875977, 3.019085168838501, -0.2643967270851135, 3.403108835220337, -1.0878242254257202, -0.1670905351638794, -3.1819159984588623, -0.7969381213188171, -1.5800976753234863, 0.5698400139808655, -1.8695054054260254, 0.9574207663536072, -0.9282411932945251, 0.29709380865097046, -0.9426185488700867, -1.432633876800537, 4.961723804473877, -0.6667052507400513, 1.4196679592132568, 1.5178593397140503, -2.057861804962158, -0.033341675996780396, -1.8442296981811523, -0.8639359474182129, -3.9322171211242676, -1.0681476593017578, 1.2821481227874756, -4.283636569976807, -0.010918645188212395, 0.059985436499118805, 1.3787336349487305], [2.840188980102539, -1.041806697845459, 0.3388877511024475, 1.7964229583740234, -1.1829233169555664, 1.7273491621017456, 0.8938966989517212, -0.20141999423503876, 1.404297113418579, -1.0798137187957764, -3.5375759601593018, -2.6669905185699463, 1.476325511932373, 0.9305669069290161, 1.5418051481246948, -0.33286190032958984, 1.7210994958877563, 2.846628427505493, -0.8921046257019043, -1.056370496749878, -1.0518940687179565, -0.5394920110702515, 0.11215537786483765, 0.1351851522922516, 0.1649036705493927, -2.548309803009033, 2.170584201812744, -1.3218743801116943, -2.3338427543640137, -0.12391088902950287, 0.9553747177124023, -0.9454696774482727], [-1.1964190006256104, -1.8215065002441406, -3.276106119155884, -0.8681607246398926, -0.2761539816856384, -0.23628868162631989, -0.6650035381317139, 1.1558566093444824, 1.123960256576538, 1.677483320236206, -1.6894655227661133, 1.242986798286438, 2.133316993713379, 2.2650206089019775, 0.5088244080543518, 1.699223518371582, 0.08808101713657379, 0.45931559801101685, 4.0428948402404785, 1.3132784366607666, 1.0925747156143188, 3.48576021194458, 0.29114317893981934, -0.2887135148048401, -0.7368621826171875, 2.1536998748779297, -1.1934725046157837, -2.101783037185669, -3.5593833923339844, 0.432372510433197, 2.8573338985443115, -0.7601277828216553], [2.265174388885498, -2.035442352294922, -1.6396180391311646, -1.4778958559036255, 3.5538461208343506, 3.252671003341675, 0.3938828110694885, 1.4850531816482544, -0.41655370593070984, -0.28312215209007263, 1.378466248512268, -0.6309086680412292, 0.5392717719078064, 3.270474433898926, 0.2575411796569824, 1.2374743223190308, 3.5764636993408203, -0.4115738272666931, -1.6346527338027954, 1.5735774040222168, 1.7377392053604126, 1.7314373254776, 0.21158407628536224, 1.4930593967437744, 0.5392295122146606, 0.8226493000984192, 1.7289448976516724, -0.7132948637008667, -3.6523237228393555, -2.411433219909668, 0.34415721893310547, -0.8984531164169312], [0.7446381449699402, 4.158846855163574, -0.9392266273498535, -1.516586422920227, -3.4329304695129395, 0.22802144289016724, 2.6121842861175537, -0.6332759261131287, -1.6234947443008423, -0.9509478211402893, -1.1825754642486572, -3.2628159523010254, -0.7181782126426697, 2.7782604694366455, 0.92870032787323, 1.4803709983825684, 3.5265138149261475, -1.2208579778671265, -2.090341806411743, -0.499370276927948, 2.043609857559204, -1.1713427305221558, 2.403424024581909, 2.3682539463043213, -1.3280174732208252, 1.4153552055358887, -0.8840233683586121, -0.8537662029266357, 0.11734172701835632, -2.6843349933624268, -0.6413017511367798, 1.6938546895980835], [-0.138922780752182, 0.7755671143531799, 2.0894181728363037, 0.16250400245189667, -0.15734197199344635, 1.5087651014328003, 1.3398175239562988, 1.2704660892486572, -1.2877042293548584, -0.6721864938735962, -0.34210583567619324, -1.7552859783172607, 0.3561677932739258, 1.5251972675323486, -1.9151502847671509, 1.6880086660385132, 1.7752633094787598, 1.927574872970581, -1.7865285873413086, -0.40238797664642334, 4.35330057144165, -3.2154290676116943, -1.5416871309280396, -2.143284797668457, -4.4556193351745605, -2.710336923599243, -2.234912157058716, 2.8135690689086914, 1.9421502351760864, -6.201097011566162, -2.319681167602539, -1.202721357345581], [2.4969394207000732, 0.13661015033721924, -0.8686051368713379, 0.9108630418777466, -3.891613006591797, 2.0455164909362793, -2.646310567855835, 1.3873803615570068, 0.7423672080039978, -0.6014025807380676, -3.070979595184326, 4.53213357925415, -0.9280678629875183, -3.1387438774108887, -0.924383282661438, 2.749260663986206, 2.346998929977417, -0.18065012991428375, -1.0195213556289673, 0.7114693522453308, -0.24713744223117828, 4.553338527679443, -2.1351568698883057, 0.14149990677833557, -1.1540836095809937, -2.3019144535064697, 0.08487189561128616, 1.0821778774261475, -0.37210729718208313, 1.5877825021743774, -0.4189735949039459, -3.4701154232025146]], [[-1.897078514099121, 2.2729945182800293, 2.278275966644287, 0.18298424780368805, 3.3148915767669678, 0.31317242980003357, -1.5402300357818604, -0.8153202533721924, -1.7839624881744385, -1.2632641792297363, 1.403145670890808, -1.2250633239746094, 2.829099416732788, -2.2083659172058105, -1.349900722503662, 1.9706898927688599], [1.4283037185668945, -1.121705412864685, -1.7390327453613281, 1.9744349718093872, 0.060719430446624756, 0.44431760907173157, -0.2526784837245941, -2.6573469638824463, -3.2783682346343994, -0.21482309699058533, 0.415826678276062, -1.636846899986267, 1.8570618629455566, 1.8529781103134155, -1.5353797674179077, 0.30902865529060364], [-0.971947431564331, 0.8160915374755859, 0.14475730061531067, -3.330183744430542, -0.7201069593429565, -1.3987375497817993, -0.8362338542938232, -2.133316993713379, -2.120166063308716, -2.140698194503784, 0.8628475069999695, 1.9901996850967407, -1.414945125579834, -1.725797176361084, -0.7362182140350342, 1.4217941761016846], [2.488417625427246, -1.899496078491211, 2.300821542739868, -0.33423736691474915, 0.8758106231689453, 0.6567458510398865, 0.11579380184412003, 0.7186691164970398, -0.20161831378936768, 1.2576169967651367, -0.3719852566719055, 0.8042430281639099, -0.8938208222389221, -0.625551700592041, -3.232347011566162, 4.178891181945801], [0.7401687502861023, -0.8314265608787537, 2.02944278717041, 0.7736705541610718, 0.8775288462638855, -1.0856292247772217, -3.027451515197754, -1.156854271888733, -1.1175113916397095, 0.5262818932533264, -0.7921454310417175, -2.1518032550811768, -2.8316009044647217, 2.1457254886627197, 2.9998531341552734, -2.1398558616638184], [0.2609619200229645, -2.026283025741577, 0.02631368488073349, -0.8575570583343506, 1.0230419635772705, -0.05489816889166832, -0.7926595211029053, 0.45537254214286804, -0.7184391617774963, -5.337819576263428, 2.430410623550415, 2.2670154571533203, -2.4123804569244385, 1.469530701637268, 0.24220582842826843, -2.1477112770080566], [-0.5003123879432678, 0.12535731494426727, 0.7305706739425659, -0.04536774754524231, -0.13322225213050842, -5.263679504394531, 1.6560808420181274, 2.25948429107666, 1.9483894109725952, -0.5301591753959656, -0.7846466302871704, -0.21800567209720612, 2.2351150512695312, 0.760009765625, -0.2937083840370178, -0.5874043107032776], [-0.39960819482803345, 3.6536221504211426, -1.1492173671722412, -0.6055982112884521, 2.5762107372283936, 0.602541446685791, -1.1404554843902588, -0.7583683729171753, -0.5455223917961121, 0.4780994653701782, -1.039103627204895, -0.26303601264953613, 1.3465244770050049, 1.9585981369018555, -2.199794292449951, -2.5936076641082764]], [[-1.4482824802398682, 0.9779242873191833, -0.5918692946434021, -0.18176579475402832, 4.328657627105713, -0.942584216594696, -0.6023446321487427, -1.3219966888427734], [-2.6435017585754395, 0.6193365454673767, 1.2336318492889404, 0.24612967669963837, -1.7171000242233276, -0.4850243330001831, 0.7416375875473022, 1.0409616231918335]]], "brain_biases": [[-0.613457441329956, 2.453463554382324, -1.7623727321624756, -0.5487275719642639, -0.9898578524589539, 2.353915214538574, -1.6927164793014526, -0.041161611676216125, 0.10310208052396774, -0.9810804128646851, 1.1503872871398926, -3.261418342590332, -0.4453352689743042, -1.3877512216567993, -0.6053564548492432, 0.8946561813354492, -1.686110258102417, 1.8178343772888184, 0.12195317447185516, 0.20374193787574768, 1.5159071683883667, 0.6221585273742676, 3.3556370735168457, 3.48089861869812, -0.49080219864845276, -0.38254910707473755, -0.9083840847015381, -3.028902769088745, -0.09762554615736008, -1.4569602012634277, -0.1467352956533432, 0.3212377429008484], [-1.6062684059143066, 2.0902676582336426, 0.859418511390686, 1.5762935876846313, 3.8008828163146973, 1.0860499143600464, -2.046369791030884, -0.21240739524364471, -1.2151882648468018, -2.7167255878448486, -2.462933301925659, -0.2504565119743347, -0.9638969898223877, 3.4047393798828125, 2.1104531288146973, -1.0388171672821045], [0.3074769079685211, -1.840943694114685, -0.16632702946662903, 2.364670753479004, -0.3373916745185852, 0.8716120719909668, -2.3142566680908203, 1.0412777662277222], [0.45534050464630127, 0.6644583940505981]], "sensor_retina_count": 18, "sensor_vision_radius": 300.0, "sensor_fov_degrees": 180.0, "sensor_skip": 2, "sensor_see_food": true, "sensor_see_bacteria": false, "sensor_see_predators": true, "locomotion_max_speed": 300.0, "locomotion_max_turn": 3.141592653589793, "energy_death_energy": 0.0, "energy_split_energy": 200.0, "energy_v0_cost": 3.0, "energy_vmax_cost": 6.0, "energy_vmax_ref": 300.0, "energy_energy_cap": 200.0, "energy_loss_idle": 3.0, "energy_loss_move": 6.0, "last_brain_output": [5.663752555847168, 0.2871854305267334], "last_brain_activations": [[-0.5465563535690308, 0.9853181838989258, -0.9427673816680908, -0.4995659589767456, -0.7573016881942749, 0.98211270570755, -0.934492290019989, -0.04113838076591492, 0.10273829847574234, -0.7535331845283508, 0.8178823590278625, -0.9970653653144836, -0.41805705428123474, -0.8826751708984375, -0.5408501625061035, 0.7136858701705933, -0.9336499571800232, 0.9486220479011536, 0.12135215848684311, 0.20096881687641144, 0.9079816937446594, 0.5526291728019714, 0.9975687265396118, 0.9981070160865784, -0.4548528790473938, -0.36491918563842773, -0.720355749130249, -0.995331883430481, -0.09731657058000565, -0.8970606327056885, -0.1456911563873291, 0.31062567234039307], [0.9999993443489075, 0.9833189249038696, -0.9999996423721313, 0.9762195348739624, 1.0, 0.9260331988334656, -0.8428649306297302, -0.9348190426826477, 0.7494938373565674, -0.6234880089759827, -0.9999877214431763, 0.9925484657287598, -0.5065181255340576, 1.0, 0.9999999403953552, 0.3520684242248535], [-0.9970264434814453, 0.41553011536598206, -0.9979227185249329, -0.5554125905036926, 0.9999305009841919, 0.9996153712272644, -1.0, 0.9999997019767761], [5.663751602172852, 0.28718507289886475]]}, {"type": "bacteria", "x": 4991.0, "y": 3708.623745666662, "r": 9.0, "angle": 1.1002294252726665, "vx": -66.92106502019094, "vy": 263.1169283524215, "energy": 84.64848255694905, "age": 59.78499999999774, "brain_sizes": [18, 32, 16, 8, 2], "brain_version": 2921, "brain_weights": [[[2.673246383666992, -0.3805859684944153, 4.35355281829834, -1.0875933170318604, -0.21457618474960327, 2.957124710083008, -0.8334602117538452, -1.9155701398849487, -0.13626815378665924, 3.010075807571411, -0.6335209012031555, -0.7604214549064636, -2.3321986198425293, 0.6262139081954956, -0.30959630012512207, -3.50382661819458, 1.3348524570465088, 1.4876418113708496], [3.6699025630950928, -1.2767060995101929, -3.3848793506622314, -1.1526579856872559, -2.0071001052856445, 1.7440539598464966, -0.5316038131713867, -2.079514265060425, -1.4679127931594849, 1.2287813425064087, 0.32892337441444397, -0.7465460300445557, -0.06428182870149612, 1.8860118389129639, -0.8185588717460632, -0.9280970692634583, 0.8741611242294312, 1.1623066663742065], [3.026113748550415, -1.1501693725585938, 1.7057931423187256, 1.2564376592636108, 1.3713834285736084, 0.10548431426286697, -0.2906053364276886, 1.175157904624939, 0.3205935060977936, 2.888216733932495, -1.8189440965652466, 2.2172298431396484, -1.0690524578094482, 0.5825406312942505, 0.2678397297859192, 1.8070201873779297, 2.201183319091797, -0.002171408385038376], [-0.1261167675256729, -2.398833751678467, -3.226855993270874, 4.688043117523193, -0.9110481142997742, 1.0805420875549316, 2.0599050521850586, -0.09288699179887772, 1.3717246055603027, -2.876443862915039, 2.1326475143432617, 1.0004676580429077, -2.6028249263763428, 2.6500205993652344, -1.7732328176498413, 1.1706644296646118, 4.802829742431641, -1.6976542472839355], [-1.5239717960357666, 1.1869786977767944, -2.5757994651794434, -2.175821542739868, -2.8227455615997314, -0.9926603436470032, -0.4807547926902771, -0.5378251671791077, -1.0095292329788208, 3.625770330429077, -0.14000055193901062, 0.31304019689559937, 1.0036288499832153, 0.5873963832855225, 0.7708403468132019, 5.504880428314209, 1.9023141860961914, -2.647984504699707], [1.828481912612915, -1.5518618822097778, 1.7309831380844116, -0.559934139251709, 3.468825101852417, 3.7675719261169434, -0.6243361234664917, 0.2395322322845459, 0.3127429187297821, 2.166233777999878, 0.10664938390254974, 4.28957462310791, -2.9029788970947266, -2.7921786308288574, -1.9253225326538086, -0.045022882521152496, 1.4398294687271118, 1.7755184173583984], [-2.1728196144104004, -1.294780969619751, 1.6880316734313965, 0.018850401043891907, -3.9795172214508057, 0.31861773133277893, -2.818358898162842, 1.713917851448059, 2.031735897064209, 1.9054808616638184, -0.6036698222160339, 1.2464839220046997, -3.9712088108062744, 0.3409188985824585, 2.234431743621826, -0.24055710434913635, -0.3978181481361389, -1.1790482997894287], [-1.4892302751541138, 3.26888108253479, 0.9380396008491516, 1.0485738515853882, 1.2685015201568604, -1.3289613723754883, -0.819904625415802, -0.6888830661773682, 3.6906771659851074, -2.0506675243377686, -1.2734458446502686, -0.1712726652622223, -4.033050537109375, 0.7202547788619995, -3.03680157661438, -1.449284315109253, 0.7314052581787109, 0.43103596568107605], [1.1541897058486938, 0.7409489154815674, -3.151745080947876, 1.9815592765808105, 1.5804314613342285, 0.9903544187545776, 1.432538390159607, 3.4198455810546875, -0.581380307674408, 0.41209104657173157, -0.15538816154003143, -4.108327865600586, -1.0242869853973389, 2.207092046737671, -2.961242437362671, 0.12274870276451111, 1.8397306203842163, -0.782865047454834], [0.9799293875694275, -2.920192003250122, 1.8074883222579956, 0.184466153383255, 2.368661642074585, 1.9451098442077637, -2.3391685485839844, -1.0672842264175415, 2.969223976135254, 0.2550385296344757, 0.6839383840560913, 0.42722415924072266, -0.59051913022995, -3.2381813526153564, -0.26513242721557617, -2.078190326690674, -3.062565803527832, 1.472175121307373], [0.5074474811553955, -0.2800571918487549, -0.01433570496737957, 0.7838308811187744, -2.722597599029541, 0.1346919685602188, 0.2531138062477112, -0.8981032967567444, 0.812446117401123, 0.2972010374069214, -1.164380669593811, 1.4283045530319214, -1.8466696739196777, -0.2404554784297943, -1.9603538513183594, -1.676301121711731, -2.1464264392852783, 2.2178280353546143], [-0.16448315978050232, -2.1070008277893066, -2.075479030609131, 0.14186115562915802, 1.7247569561004639, -0.8261759877204895, -1.31709623336792, -2.2731378078460693, 0.4913559556007385, -0.13852077722549438, 1.8183807134628296, 2.4322750568389893, -0.9498043060302734, -1.648823618888855, -1.9221422672271729, 0.3090924620628357, 0.24977493286132812, -1.6431628465652466], [3.6820755004882812, 1.3101472854614258, 1.9168701171875, -2.590972423553467, 0.25304698944091797, 1.2364294528961182, 0.19834008812904358, -1.515360951423645, 0.020086348056793213, -0.11076850444078445, -1.030511736869812, 2.327467441558838, 2.3906619548797607, -0.1653471291065216, -1.4983694553375244, 3.6009178161621094, -2.1935105323791504, 2.286151647567749], [-1.5922490358352661, -1.1484591960906982, 1.244818925857544, -0.002893000841140747, 1.6925945281982422, 1.2051644325256348, -0.8884352445602417, 0.20950400829315186, -0.09959538280963898, -1.7197179794311523, -1.9012054204940796, -1.0231938362121582, 1.6539270877838135, -2.260474443435669, -0.6069467663764954, 1.0990437269210815, 1.0267494916915894, -0.158688023686409], [-2.419450521469116, -1.043398380279541, 0.2978498041629791, 2.3648529052734375, 1.9710391759872437, 1.7311630249023438, 0.5396646857261658, -0.4097508192062378, -1.7074453830718994, -0.35737431049346924, -1.0382071733474731, -2.84287691116333, 2.574531316757202, 2.5435070991516113, 0.8991026878356934, 4.888576507568359, 0.25095951557159424, -0.8820009231567383], [3.2265119552612305, 0.058782100677490234, 0.9310001134872437, 0.7759008407592773, 2.670010805130005, 0.7677155137062073, 0.5589485168457031, 0.6128143072128296, 0.4451737403869629, 0.27288785576820374, -0.18063393235206604, -0.27484241127967834, -1.1758315563201904, -2.3619935512542725, 0.6979911923408508, -1.241575837135315, -1.7380307912826538, -0.3201982378959656], [-1.5244600772857666, -0.6731365919113159, 2.7123513221740723, -2.5585885047912598, 0.8947521448135376, -0.2946914732456207, 1.3621437549591064, 1.2828072309494019, 0.012971099466085434, -0.6898509860038757, 2.0231680870056152, -0.2827227711677551, 0.029781315475702286, -0.6068707704544067, 1.6003130674362183, 0.36470624804496765, 0.043384358286857605, 0.9639427065849304], [-2.7219536304473877, -1.2083778381347656, -1.9148712158203125, -2.0669705867767334, 0.4179854393005371, -1.6687591075897217, -0.46455514430999756, 1.1107152700424194, 0.18704380095005035, 0.7627010941505432, -4.710963726043701, 0.9094603061676025, 3.5624966621398926, -1.0506324768066406, 0.4911988079547882, -2.1344542503356934, 0.6915358901023865, -0.7700915932655334], [-0.3357257843017578, 0.9528287053108215, 0.7130566239356995, -1.9916564226150513, -1.3435626029968262, -2.625091075897217, -2.0409247875213623, 2.098245859146118, 0.4947938919067383, 0.48871049284935, -0.8343926072120667, -0.3917607367038727, 0.8490342497825623, 1.044871211051941, 0.4820535480976105, -2.620002031326294, -1.180879831314087, 0.14723031222820282], [-5.2945427894592285, -0.3658815920352936, -1.7585889101028442, 2.5758273601531982, 0.6789987683296204, -0.9240239858627319, -0.5336008667945862, -1.0994948148727417, -3.314488649368286, -1.801255226135254, -1.4072996377944946, -1.5516494512557983, 3.3331992626190186, 0.49298709630966187, 0.8037439584732056, -1.503352165222168, -0.05395128205418587, 6.172980785369873], [1.8319141864776611, 0.7057148218154907, 0.6329731941223145, 1.0917900800704956, -1.3755441904067993, -1.884998083114624, 1.9349331855773926, 4.315529823303223, 1.5841259956359863, -1.183340072631836, -2.273667097091675, 3.1690943241119385, 1.6057392358779907, 0.491708368062973, -1.6053621768951416, 1.9645987749099731, -0.13951453566551208, -1.0539093017578125], [-0.20796626806259155, 0.13629260659217834, -1.424264907836914, 0.029599718749523163, -1.9123053550720215, -4.538259029388428, 0.3496396243572235, -3.097252130508423, -0.945496678352356, 0.041548147797584534, 2.6982574462890625, 0.9560494422912598, -0.6011882424354553, -0.4564110338687897, 2.0889248847961426, -1.2605009078979492, 1.0968822240829468, -1.6730555295944214], [-1.6882100105285645, -0.958228588104248, 0.16211211681365967, -1.128990650177002, 2.1596519947052, 1.9405440092086792, 0.5396915674209595, 3.6216180324554443, -2.9337782859802246, 2.6372249126434326, -0.40262043476104736, -1.5818077325820923, -1.1029431819915771, 0.7518402934074402, 0.5761215090751648, 0.47798559069633484, 0.9319596290588379, 0.40278977155685425], [-1.2717422246932983, 1.4005833864212036, 0.0744088813662529, 2.369929790496826, -0.3960319757461548, -0.9962276816368103, 0.1437160074710846, 4.431435585021973, -0.7072618007659912, 0.7020273208618164, 0.5767313241958618, -0.6772632002830505, -1.2933238744735718, 2.1358118057250977, 3.5211875438690186, -1.1806710958480835, 0.5873450636863708, 2.6966464519500732], [-0.7313894033432007, 1.7012908458709717, 0.46784162521362305, 0.42058613896369934, -0.729038655757904, 0.5399830341339111, 0.36898964643478394, -1.6552938222885132, -1.403306484222412, 0.9585192799568176, 0.31946802139282227, -2.6941022872924805, 0.866508960723877, -3.134847640991211, -0.2613369822502136, -0.5379284620285034, 0.2663748860359192, -1.9744939804077148], [-2.2704153060913086, -1.8112287521362305, -1.1062278747558594, -2.2093334197998047, -0.8201609253883362, 1.114438533782959, 3.366753101348877, 3.1613638401031494, 0.27844321727752686, -0.7341423630714417, 1.4453024864196777, 3.0823183059692383, -2.8650529384613037, -2.5919933319091797, -0.9293335676193237, 1.0018672943115234, 1.2249670028686523, 1.8811479806900024], [1.4901161193847656, 2.2085611820220947, 2.128169059753418, 1.3262889385223389, -0.9224070310592651, -0.8578540682792664, 0.27891451120376587, -0.1716122180223465, -2.2999980449676514, -2.4317941665649414, -1.5564627647399902, -0.8127180337905884, -0.3497769236564636, -0.7134904861450195, 2.1381490230560303, -0.7398335933685303, 1.2446203231811523, -1.2020615339279175], [-0.37527045607566833, 1.717921257019043, -0.01116386242210865, -0.11467798054218292, -2.0182650089263916, -2.0026824474334717, -0.2785676121711731, 2.1599202156066895, 0.35097214579582214, 1.5258029699325562, -1.623928189277649, -1.1762970685958862, 0.8001915812492371, -0.959976315498352, 0.026434356346726418, -1.8061758279800415, -0.5433987975120544, -0.7205415964126587], [-1.2845485210418701, 0.9900301694869995, 0.38722530007362366, -0.4488224387168884, -1.0037418603897095, 1.6162643432617188, 2.506649971008301, -1.7587659358978271, 0.2659054398536682, -0.24096444249153137, 0.6318460702896118, -2.118497133255005, -0.36282914876937866, -1.2065534591674805, 0.5583341121673584, -0.0009842142462730408, 0.9238194823265076, -1.5154293775558472], [-0.21700477600097656, 2.043274402618408, 2.383742570877075, -0.26219210028648376, 0.9430481195449829, -2.183769464492798, -0.9209316372871399, -2.2304630279541016, -0.5648062229156494, -1.820029854774475, 1.3537720441818237, 1.8819379806518555, -1.767958164215088, 0.9601101875305176, -0.1567942500114441, -0.8641168475151062, -0.17214617133140564, 0.5280990600585938], [-1.2311104536056519, 0.3424736261367798, 3.539167642593384, -0.8463036417961121, -2.3713417053222656, 1.9873642921447754, -2.2440035343170166, -3.078995704650879, 1.1532601118087769, 0.5241657495498657, 1.453237771987915, -0.49079620838165283, 1.7989920377731323, -1.5469865798950195, -1.583444356918335, 0.05045922100543976, 1.982004165649414, -1.9315917491912842], [2.5537960529327393, -1.1057201623916626, -0.9842963218688965, 2.0530922412872314, 0.7081578969955444, 1.5316462516784668, -1.9975650310516357, -0.5843813419342041, 1.7725471258163452, 1.9582372903823853, 0.7921003699302673, -0.4865345358848572, -1.841771125793457, -1.472599983215332, -3.4445385932922363, -1.1064023971557617, -1.778449535369873, 0.2896764576435089]], [[-1.0870890617370605, 0.9634376764297485, 2.5692849159240723, -1.3618463277816772, -2.382115602493286, -2.4838380813598633, -2.345041036605835, -0.05387703701853752, -1.3476063013076782, -1.0195509195327759, 0.8636962175369263, -0.24649086594581604, -0.7414281368255615, 0.6101774573326111, -0.2645334005355835, 1.8260499238967896, -1.0275459289550781, -1.3082765340805054, 2.707449436187744, 0.6734885573387146, -0.5550293922424316, 0.6625617742538452, 1.406955599784851, 2.596219778060913, 3.1168487071990967, 0.7279995083808899, 0.5437568426132202, 0.21098238229751587, -0.9312943816184998, -4.011394500732422, 2.8005616664886475, -1.1014857292175293], [-0.1537017822265625, 0.31426963210105896, 3.0194895267486572, -1.1401878595352173, 2.3968896865844727, -0.20561857521533966, 1.7704650163650513, 1.8603333234786987, 0.7833976745605469, 2.336437463760376, 2.3284170627593994, -4.603244781494141, 0.4718875586986542, 0.984534740447998, -1.3624908924102783, -1.3596583604812622, -0.4892350733280182, 0.44229501485824585, 4.247590065002441, 3.068493604660034, 0.676699697971344, 2.069201707839966, 0.668087899684906, 0.556449830532074, -0.31905215978622437, -1.5007948875427246, 2.2078490257263184, 1.1462173461914062, -0.40199336409568787, 0.8276362419128418, 0.039335425943136215, 0.24301199615001678], [3.6958882808685303, 1.7733348608016968, 2.8009228706359863, -0.17328238487243652, -0.7818641662597656, 2.152719259262085, 0.35465046763420105, 1.903887152671814, 3.092038869857788, 5.081915855407715, 0.4108053743839264, -2.6430046558380127, 0.38334527611732483, 1.577879786491394, 2.8127264976501465, 0.2991105914115906, 2.7617268562316895, -0.3989880681037903, -0.4315340220928192, 2.327723741531372, -2.591583251953125, 0.8553920388221741, -1.5685017108917236, 2.839172840118408, -3.308053493499756, -0.4677691161632538, -2.3228092193603516, 3.2062466144561768, -0.11424162983894348, 1.3587696552276611, -0.09825064241886139, 0.2369585633277893], [-2.7280421257019043, 1.3298041820526123, -1.329016923904419, -0.6010896563529968, -4.227077484130859, -0.06041849032044411, 0.46653589606285095, -0.8031325340270996, 2.68601393699646, 2.1649038791656494, 1.334099531173706, -1.4138175249099731, 3.088610887527466, 1.0492393970489502, 0.23906633257865906, -0.11097291111946106, 1.0980186462402344, -0.22582006454467773, 0.5023595094680786, 0.2735198140144348, 0.6852992177009583, 0.5230185389518738, -1.5719091892242432, -0.44593876600265503, 2.785417079925537, -2.084686279296875, 0.02674633264541626, 2.73001766204834, 3.2437710762023926, 1.1963505744934082, -2.3622047901153564, 2.2341957092285156], [0.5673309564590454, 1.9740113019943237, -1.0478153228759766, 2.723439931869507, -1.2320280075073242, 2.229677200317383, -0.599272608757019, 2.3234851360321045, -0.4590645730495453, 0.704832911491394, 0.5125586986541748, -1.849497675895691, -1.2028636932373047, 0.8006850481033325, -1.0426950454711914, 1.5309438705444336, 1.135533094406128, -3.2858970165252686, -0.22513626515865326, 0.39452531933784485, 0.1329566240310669, 2.794586658477783, -0.18570822477340698, 1.3371835947036743, 1.6541024446487427, -0.8845510482788086, 1.152542233467102, -1.860867977142334, -1.3861221075057983, -0.825610339641571, -0.6467781066894531, -0.48500263690948486], [0.22720873355865479, -0.43174856901168823, -1.8616262674331665, -1.2868177890777588, 1.3149453401565552, 1.4276660680770874, -0.48307400941848755, -1.1013751029968262, 1.5811254978179932, 0.478644996881485, -3.330913543701172, 0.8996587991714478, -0.31371042132377625, 1.7167145013809204, 1.8765360116958618, 1.2841620445251465, -2.1782898902893066, 0.6494454145431519, 2.8296120166778564, 2.1374311447143555, 1.1427663564682007, -0.5626588463783264, -1.873202919960022, -1.2795870304107666, -0.9069900512695312, -3.5854580402374268, -0.03419816121459007, 0.8695710897445679, -2.4506776332855225, 0.47611820697784424, 0.3299427032470703, 2.2256786823272705], [-0.5592718124389648, -0.28028470277786255, -2.0806546211242676, 1.2881790399551392, 3.237596035003662, -3.3364522457122803, -1.5670698881149292, -0.9910059571266174, 1.0271666049957275, -0.9941173195838928, 0.41113579273223877, -0.6630043387413025, 3.5667593479156494, -0.6523662209510803, -0.12842819094657898, -1.6336194276809692, -2.975282669067383, -0.3702269494533539, 0.3540114760398865, -0.7096922993659973, -0.5384621024131775, -1.202871322631836, 0.011756300926208496, 1.6284738779067993, 0.735172688961029, -1.7177430391311646, -1.1144081354141235, 0.7137797474861145, 0.6180225014686584, 0.45381397008895874, -0.32733210921287537, 2.355797052383423], [2.2478058338165283, -0.7992911338806152, 1.1024329662322998, -2.0651376247406006, 0.5370909571647644, -0.5992206931114197, -1.4592376947402954, -0.31177380681037903, 0.8480198383331299, 2.4775888919830322, -1.0678025484085083, 0.9246946573257446, 3.2456321716308594, -1.0454838275909424, 1.3686987161636353, -0.8838858008384705, -3.733717918395996, -0.3680886924266815, 1.4915813207626343, -4.002534866333008, 0.5387905836105347, -0.28127944469451904, 2.0833206176757812, -0.7819470167160034, -0.945583164691925, -3.7177200317382812, 0.813759446144104, -2.423898696899414, 0.36376091837882996, 0.24652910232543945, 2.7572271823883057, -0.82123202085495], [-0.59547358751297, 0.5212094783782959, -0.14289695024490356, -0.678028404712677, 1.334293007850647, -0.7877517938613892, -0.0958905965089798, 2.1055119037628174, 0.7377228736877441, -0.7008150815963745, 1.7028007507324219, -2.4770233631134033, 1.767628788948059, 0.1087934598326683, -1.2167903184890747, 0.7822935581207275, 1.3903417587280273, 0.8074663877487183, -1.998016357421875, -1.8648927211761475, 0.12256033718585968, -0.780532956123352, 1.0356067419052124, -1.3880265951156616, 1.333596110343933, 1.2550939321517944, -1.9028260707855225, 1.4268198013305664, 2.658742666244507, -1.2972348928451538, 0.043541911989450455, 0.010391918942332268], [0.9569677114486694, -1.4434140920639038, 3.0475778579711914, -0.14586089551448822, 3.1036298274993896, -1.1246610879898071, -0.6163892149925232, -3.2374444007873535, -0.7969381213188171, -1.8107802867889404, 0.7171468138694763, -1.9894208908081055, 0.8518857955932617, -1.4838389158248901, 0.17424848675727844, -0.8566625118255615, -1.4557301998138428, 4.819590091705322, -0.529639482498169, 1.4196679592132568, 1.6183205842971802, -2.057861804962158, -0.026442650705575943, -1.3945025205612183, -0.7347971796989441, -3.9211902618408203, -0.8260540962219238, 1.213762879371643, -4.280707359313965, -0.31171900033950806, -0.008986562490463257, 1.3643654584884644], [2.806551933288574, -0.9835267066955566, 0.3388877511024475, 1.5201327800750732, -1.0535428524017334, 1.7525591850280762, 0.8180397152900696, -0.31481218338012695, 1.2984511852264404, -0.9630190134048462, -3.721625804901123, -2.6669905185699463, 1.6887093782424927, 1.0781384706497192, 1.5695000886917114, -0.39416781067848206, 1.7887234687805176, 2.8769497871398926, -1.1157093048095703, -1.056370496749878, -1.0877102613449097, -0.6894509792327881, 0.11215537786483765, 0.30266162753105164, 0.4365523159503937, -2.3259170055389404, 1.8728398084640503, -1.4421629905700684, -2.321478843688965, -0.28372177481651306, 1.1873388290405273, -1.0810881853103638], [-1.1511434316635132, -1.7875690460205078, -3.174152135848999, -0.8626971244812012, -0.18028709292411804, -0.388600617647171, -0.850745677947998, 1.137571930885315, 1.123960256576538, 1.4622435569763184, -1.5869176387786865, 1.2224026918411255, 2.0119478702545166, 2.318958282470703, 0.5423213839530945, 1.9384207725524902, 0.19760842621326447, 0.56611168384552, 3.957167625427246, 1.2471747398376465, 1.0626904964447021, 3.48576021194458, 0.09704378247261047, -0.2866149842739105, -0.8559377193450928, 2.1126322746276855, -0.878409743309021, -2.0715699195861816, -3.69425630569458, 0.432372510433197, 3.1867547035217285, -0.7965422868728638], [2.193938970565796, -2.1511361598968506, -1.6751645803451538, -1.361680269241333, 3.0884625911712646, 3.2772910594940186, 0.3426109552383423, 1.4871199131011963, -0.41655370593070984, -0.17268383502960205, 1.464510440826416, -0.7402831315994263, 0.7992861270904541, 3.3256900310516357, 0.39844080805778503, 1.176005244255066, 3.680283546447754, -0.4115738272666931, -1.7185537815093994, 1.525040626525879, 1.651842474937439, 1.7314373254776, 0.250973105430603, 1.4472328424453735, 0.6568842530250549, 0.7560442686080933, 1.7308748960494995, -0.5051003098487854, -4.02468204498291, -2.3238728046417236, 0.49032676219940186, -1.0028921365737915], [0.6506611108779907, 4.213321208953857, -0.9660124778747559, -1.5256437063217163, -3.511720657348633, 0.2280859798192978, 2.7256617546081543, -0.7059018611907959, -1.6234947443008423, -0.9509478211402893, -1.2010267972946167, -3.2628159523010254, -0.4311147928237915, 2.5984201431274414, 0.9420924782752991, 1.4803709983825684, 3.7752740383148193, -1.3645461797714233, -2.245666027069092, -0.5419585108757019, 1.8225818872451782, -1.1713427305221558, 2.2869791984558105, 2.464873790740967, -1.4023609161376953, 1.8496825695037842, -0.9067009687423706, -0.7266931533813477, 0.2108684480190277, -2.706306219100952, -0.883732259273529, 1.6938546895980835], [-0.04116041213274002, 0.8773171901702881, 2.0894181728363037, 0.28874078392982483, -0.04787066578865051, 1.5756996870040894, 1.3256794214248657, 1.227036476135254, -1.3243979215621948, -0.8061463832855225, -0.3897618353366852, -1.6720091104507446, 0.46936243772506714, 1.2996195554733276, -1.9813851118087769, 1.6880086660385132, 1.706634283065796, 1.7764819860458374, -1.8192112445831299, -0.4228144586086273, 4.027004718780518, -3.2154290676116943, -1.6428483724594116, -1.9366289377212524, -4.378383636474609, -2.805457830429077, -2.20190691947937, 2.865070343017578, 1.945194125175476, -6.286636829376221, -2.331249713897705, -1.202721357345581], [2.532155752182007, -0.022878356277942657, -0.9449531435966492, 0.7877406477928162, -3.892758846282959, 2.036921739578247, -2.6071455478668213, 1.4214566946029663, 0.9560033679008484, -0.5863295793533325, -3.0066332817077637, 4.53213357925415, -0.7576948404312134, -3.1387438774108887, -0.924383282661438, 2.749260663986206, 2.4842894077301025, -0.17615440487861633, -1.0195213556289673, 0.763218343257904, -0.14684036374092102, 4.503918647766113, -2.3113908767700195, 0.14149990677833557, -1.246610403060913, -2.1638941764831543, 0.19508174061775208, 1.0821778774261475, -0.37210729718208313, 1.4074221849441528, -0.2763659656047821, -3.6074438095092773]], [[-1.759671926498413, 2.2836122512817383, 2.050316572189331, 0.16463053226470947, 3.3148915767669678, 0.31317242980003357, -1.7961256504058838, -0.6939552426338196, -1.7646968364715576, -0.8839118480682373, 1.393042802810669, -1.293672800064087, 2.885023355484009, -2.009540319442749, -1.2518304586410522, 1.9706898927688599], [1.2969191074371338, -0.8318113088607788, -1.9126925468444824, 2.2177460193634033, -0.20017272233963013, 0.44431760907173157, -0.2526784837245941, -2.6573469638824463, -2.982689142227173, -0.03745495155453682, 0.415826678276062, -1.4323723316192627, 2.1052017211914062, 1.3769562244415283, -1.5353797674179077, 0.29920992255210876], [-1.1003309488296509, 0.8160915374755859, 0.2708701491355896, -3.297072649002075, -0.8521032929420471, -1.6212972402572632, -0.9736953973770142, -2.133316993713379, -2.299637794494629, -1.7174758911132812, 0.849331259727478, 1.8538150787353516, -1.5932947397232056, -1.4660367965698242, -1.0505783557891846, 1.5024330615997314], [2.488417625427246, -1.8085037469863892, 2.343736410140991, -0.27959954738616943, 0.7636274099349976, 0.5970397591590881, 0.1506301462650299, 0.5983115434646606, -0.08440840989351273, 1.1133800745010376, -0.3719852566719055, 0.8042430281639099, -0.9260462522506714, -0.49894315004348755, -3.3260738849639893, 4.178891181945801], [0.7677782773971558, -0.8673322796821594, 1.951675295829773, 0.7438174486160278, 1.092583179473877, -1.0183703899383545, -3.1299145221710205, -0.6766319274902344, -1.2266430854797363, 0.5262818932533264, -0.910878598690033, -2.059615135192871, -2.817345142364502, 1.9986997842788696, 3.077070951461792, -2.1398558616638184], [0.25469970703125, -2.0877797603607178, 0.15056627988815308, -0.7449498772621155, 1.046530842781067, -0.26363080739974976, -0.8776289820671082, 0.34796732664108276, -0.7717027068138123, -5.249586582183838, 2.229485034942627, 2.2618918418884277, -2.3593509197235107, 1.5934979915618896, 0.21707558631896973, -2.0378756523132324], [-0.48024147748947144, 0.4287622570991516, 0.7305706739425659, -0.12156808376312256, -0.13322225213050842, -5.263679504394531, 1.5482652187347412, 2.2623958587646484, 1.9111449718475342, -0.6948423981666565, -0.7846466302871704, -0.12120772153139114, 2.038402557373047, 0.760009765625, -0.23361660540103912, -0.5874043107032776], [-0.39960819482803345, 3.5319664478302, -1.1492173671722412, -0.5361858010292053, 2.7045071125030518, 0.6996583938598633, -1.1894464492797852, -0.8056713938713074, -0.40619736909866333, 0.40409576892852783, -0.9755072593688965, -0.3678833842277527, 1.4194313287734985, 1.9647141695022583, -2.1544971466064453, -2.6714065074920654]], [[-1.4482824802398682, 0.9875075221061707, -0.3225688338279724, -0.28569474816322327, 4.385795593261719, -0.937513530254364, -0.6414607167243958, -1.2335660457611084], [-2.539381265640259, 0.6357130408287048, 1.2648736238479614, 0.1139071136713028, -1.6620056629180908, -0.271450936794281, 0.562571108341217, 1.050154447555542]]], "brain_biases": [[-0.5028079748153687, 2.453463554382324, -1.6614824533462524, -0.5915593504905701, -1.178591012954712, 2.353915214538574, -1.5771920680999756, 0.10070083290338516, 0.16059672832489014, -1.112037181854248, 1.301767349243164, -3.5150651931762695, -0.31650012731552124, -1.4039961099624634, -0.6294733285903931, 0.7860059142112732, -1.901652455329895, 1.7094780206680298, -0.055579494684934616, 0.22512292861938477, 1.4346139430999756, 0.5370557308197021, 3.3370540142059326, 3.5187087059020996, -0.8646030426025391, -0.38254910707473755, -0.9990381002426147, -3.3462836742401123, 0.08991237729787827, -1.481665015220642, -0.07278554141521454, 0.34274056553840637], [-1.3662222623825073, 1.9264775514602661, 0.8640007972717285, 1.5762935876846313, 3.8288097381591797, 1.1052287817001343, -2.098629951477051, -0.18654128909111023, -1.1877020597457886, -2.9276206493377686, -2.462933301925659, -0.03171881288290024, -0.7601169943809509, 3.523754596710205, 2.149475336074829, -0.9972877502441406], [0.4186059534549713, -1.834676742553711, -0.22397007048130035, 2.234297513961792, -0.31064632534980774, 0.8716120719909668, -2.3142566680908203, 1.0157263278961182], [0.4427702724933624, 0.7960083484649658]], "sensor_retina_count": 18, "sensor_vision_radius": 300.0, "sensor_fov_degrees": 180.0, "sensor_skip": 2, "sensor_see_food": true, "sensor_see_bacteria": false, "sensor_see_predators": true, "locomotion_max_speed": 300.0, "locomotion_max_turn": 3.141592653589793, "energy_death_energy": 0.0, "energy_split_energy": 200.0, "energy_v0_cost": 3.0, "energy_vmax_cost": 6.0, "energy_vmax_ref": 300.0, "energy_energy_cap": 200.0, "energy_loss_idle": 3.0, "energy_loss_move": 6.0, "last_brain_output": [4.119465351104736, 0.17133522033691406], "last_brain_activations": [[-0.46432262659072876, 0.9853181838989258, -0.9304165840148926, -0.5310162305831909, -0.8270068168640137, 0.98211270570755, -0.9181622266769409, 0.10036181658506393, 0.15923015773296356, -0.8047813177108765, 0.8621774911880493, -0.9982319474220276, -0.306338906288147, -0.8862124085426331, -0.5576894879341125, 0.6561404466629028, -0.956378698348999, 0.9365834593772888, -0.055522337555885315, 0.2213953733444214, 0.8926082849502563, 0.4907560646533966, 0.9974768161773682, 0.9982447624206543, -0.6986216902732849, -0.36491918563842773, -0.761189877986908, -0.9975228905677795, 0.08967086672782898, -0.9017794728279114, -0.0726572796702385, 0.3299218714237213], [0.9999918937683105, 0.9196515083312988, -0.9999768733978271, 0.9245666265487671, 1.0, -0.12685620784759521, -0.8912593722343445, 0.26143428683280945, 0.9774131178855896, 0.3124697804450989, -0.999990701675415, 0.9403969049453735, -0.8665775060653687, 1.0, 1.0, 0.3985978960990906], [-0.9999884366989136, -0.9998055100440979, -0.9999966621398926, 0.8349387645721436, 0.9999976754188538, 0.699307918548584, -0.9900609850883484, 0.9999836683273315], [4.119465351104736, 0.17133480310440063]]}, {"type": "bacteria", "x": 3036.864434788827, "y": 4434.5179319729305, "r": 9.0, "angle": -1.5182686068238453, "vx": 14.99725786907725, "vy": -285.24866593565855, "energy": 101.73654249050098, "age": 52.901666666664966, "brain_sizes": [18, 32, 16, 8, 2], "brain_version": 2923, "brain_weights": [[[2.5445055961608887, -0.3805859684944153, 4.35355281829834, -1.0875933170318604, -0.1413922905921936, 2.957124710083008, -0.9341261386871338, -2.085430860519409, -0.13626815378665924, 2.987983226776123, -0.6564291715621948, -0.7604214549064636, -2.3321986198425293, 0.6262139081954956, -0.1652841418981552, -3.378688097000122, 1.3348524570465088, 1.525027871131897], [3.6699025630950928, -1.2767060995101929, -3.3848793506622314, -1.1526579856872559, -2.0071001052856445, 1.7440539598464966, -0.5316038131713867, -2.079514265060425, -1.4679127931594849, 1.2287813425064087, 0.32892337441444397, -0.7612686157226562, -0.17511582374572754, 1.8860118389129639, -0.8185588717460632, -0.8945480585098267, 0.7828902006149292, 1.1623066663742065], [3.026113748550415, -1.1501693725585938, 1.7057931423187256, 1.2564376592636108, 1.4700332880020142, -0.04459325224161148, -0.2906053364276886, 1.175157904624939, 0.3205935060977936, 2.888216733932495, -1.7207796573638916, 2.074044704437256, -1.0690524578094482, 0.5825406312942505, 0.2678397297859192, 1.8070201873779297, 2.1000542640686035, 0.09644204378128052], [-0.1261167675256729, -2.398833751678467, -3.2636847496032715, 4.688043117523193, -0.8877702355384827, 1.0805420875549316, 2.0599050521850586, -0.09288699179887772, 1.3717246055603027, -2.929776668548584, 2.0682296752929688, 1.0004676580429077, -2.6028249263763428, 2.6500205993652344, -1.7732328176498413, 1.1706644296646118, 4.802829742431641, -1.6976542472839355], [-1.5239717960357666, 1.2489538192749023, -2.5757994651794434, -2.175821542739868, -2.8246166706085205, -0.9926603436470032, -0.5036109089851379, -0.5378251671791077, -1.0095292329788208, 3.625770330429077, -0.14000055193901062, 0.31304019689559937, 1.0036288499832153, 0.5873963832855225, 0.7708403468132019, 5.504880428314209, 1.9023141860961914, -2.647984504699707], [1.9283133745193481, -1.498223066329956, 1.7309831380844116, -0.559934139251709, 3.468825101852417, 3.7675719261169434, -0.6243361234664917, 0.2395322322845459, 0.3127429187297821, 2.4156718254089355, 0.10664938390254974, 4.345059871673584, -2.843400239944458, -2.7921786308288574, -1.8126468658447266, -0.045022882521152496, 1.4398294687271118, 1.7755184173583984], [-2.1728196144104004, -1.294780969619751, 1.6880316734313965, 0.018850401043891907, -3.9795172214508057, 0.29008880257606506, -2.8674466609954834, 1.713917851448059, 2.051283836364746, 1.9054808616638184, -0.6036698222160339, 1.2464839220046997, -4.020759582519531, 0.29179665446281433, 2.234431743621826, -0.24055710434913635, -0.3978181481361389, -1.1790482997894287], [-1.4892302751541138, 3.2405049800872803, 0.9380396008491516, 1.0172175168991089, 1.2685015201568604, -1.3289613723754883, -0.8250896334648132, -0.6888830661773682, 3.7344977855682373, -2.0506675243377686, -1.2734458446502686, -0.1712726652622223, -4.033050537109375, 0.8571447134017944, -3.1821343898773193, -1.449284315109253, 0.7314052581787109, 0.43103596568107605], [1.1541897058486938, 0.7409489154815674, -3.151745080947876, 1.9815592765808105, 1.5804314613342285, 0.9903544187545776, 1.73281991481781, 3.4232144355773926, -0.581380307674408, 0.41209104657173157, -0.15538816154003143, -3.9975264072418213, -1.0242869853973389, 2.207092046737671, -2.961242437362671, 0.3539086580276489, 1.8397306203842163, -0.9362367391586304], [0.9799293875694275, -3.135324478149414, 1.802661418914795, 0.17982599139213562, 2.368661642074585, 1.8696858882904053, -2.3391685485839844, -1.0672842264175415, 2.9362921714782715, 0.2550385296344757, 0.6839383840560913, 0.42722415924072266, -0.46831756830215454, -3.2381813526153564, -0.45996904373168945, -2.1287598609924316, -2.9717888832092285, 1.395867109298706], [0.5074474811553955, -0.2800571918487549, -0.01433570496737957, 0.7838308811187744, -2.90909481048584, 0.1203208863735199, 0.35288211703300476, -0.8981032967567444, 0.812446117401123, 0.2972010374069214, -1.164380669593811, 1.4030784368515015, -1.8466696739196777, -0.2404554784297943, -1.946997046470642, -1.676301121711731, -2.1464264392852783, 2.2178280353546143], [-0.05429533123970032, -2.1070008277893066, -2.075479030609131, 0.14186115562915802, 1.8280173540115356, -0.8585667014122009, -1.31709623336792, -2.2520062923431396, 0.4913559556007385, -0.13852077722549438, 1.8183807134628296, 2.4322750568389893, -1.0905951261520386, -1.648823618888855, -1.9221422672271729, 0.25029265880584717, 0.4031277596950531, -1.6431628465652466], [3.6820755004882812, 1.461840033531189, 1.8282673358917236, -2.5353991985321045, 0.19247695803642273, 1.2364294528961182, 0.29151827096939087, -1.4564651250839233, 0.020086348056793213, 0.03622404485940933, -1.030511736869812, 2.327467441558838, 2.3906619548797607, -0.1653471291065216, -1.4408482313156128, 3.5239906311035156, -2.1935105323791504, 2.2974469661712646], [-1.5922490358352661, -1.1484591960906982, 1.2608433961868286, -0.002893000841140747, 1.6925945281982422, 1.2051644325256348, -0.9699646234512329, 0.20950400829315186, -0.05994096398353577, -1.7197179794311523, -1.9012054204940796, -0.9137644171714783, 1.6879518032073975, -2.2659828662872314, -0.5489241480827332, 1.285762906074524, 1.0919902324676514, -0.158688023686409], [-2.419450521469116, -1.043398380279541, 0.2978498041629791, 2.3648529052734375, 1.9710391759872437, 1.7311630249023438, 0.5396646857261658, -0.4097508192062378, -1.6661791801452637, -0.35737431049346924, -1.0382071733474731, -2.7110605239868164, 2.574531316757202, 2.5435070991516113, 1.0075974464416504, 4.888576507568359, 0.25095951557159424, -0.8820009231567383], [3.2265119552612305, 0.058782100677490234, 0.9310001134872437, 0.7759008407592773, 2.7450456619262695, 0.7677155137062073, 0.5141857862472534, 0.6128143072128296, 0.4451737403869629, 0.3009909689426422, -0.18063393235206604, -0.27484241127967834, -1.1758315563201904, -2.3619935512542725, 0.6979911923408508, -1.3734358549118042, -1.7380307912826538, -0.2350558638572693], [-1.5244600772857666, -0.7222440242767334, 2.7123513221740723, -2.467205047607422, 0.8947521448135376, -0.2946914732456207, 1.358811616897583, 1.3376984596252441, 0.08669455349445343, -0.6898509860038757, 2.0231680870056152, -0.09567910432815552, 0.04877003654837608, -0.6068707704544067, 1.544548749923706, 0.36470624804496765, 0.043384358286857605, 0.8745322227478027], [-2.7219536304473877, -1.232101559638977, -1.9148712158203125, -2.110775947570801, 0.3949793875217438, -1.6687591075897217, -0.5095675587654114, 1.2063230276107788, 0.18704380095005035, 0.6711560487747192, -4.710963726043701, 0.9094603061676025, 3.5624966621398926, -1.0506324768066406, 0.4911988079547882, -2.1344542503356934, 0.8044967651367188, -0.74079829454422], [-0.3357257843017578, 0.8834729194641113, 0.7130566239356995, -1.9916564226150513, -1.2904140949249268, -2.625091075897217, -2.0409247875213623, 2.098245859146118, 0.4696473777294159, 0.48871049284935, -0.8343926072120667, -0.3917607367038727, 0.7150726318359375, 1.044871211051941, 0.4820535480976105, -2.584132671356201, -1.180879831314087, 0.14723031222820282], [-5.2945427894592285, -0.3658815920352936, -1.7585889101028442, 2.5758273601531982, 0.857521116733551, -0.917193591594696, -0.5336008667945862, -1.0994948148727417, -3.314488649368286, -1.801255226135254, -1.4072996377944946, -1.5516494512557983, 3.3331992626190186, 0.49298709630966187, 0.8037439584732056, -1.503352165222168, -0.05395128205418587, 6.256349563598633], [1.8850202560424805, 0.7450971007347107, 0.7968565225601196, 1.0917900800704956, -1.3755441904067993, -1.8043274879455566, 1.9349331855773926, 4.597728729248047, 1.5841259956359863, -1.183340072631836, -2.389181613922119, 3.1690943241119385, 1.7288997173309326, 0.491708368062973, -1.6053621768951416, 1.8827195167541504, -0.2785002291202545, -1.193884253501892], [-0.20796626806259155, 0.06608784943819046, -1.3752751350402832, 0.029599718749523163, -1.9123053550720215, -4.538259029388428, 0.3496396243572235, -3.097252130508423, -0.945496678352356, 0.024879541248083115, 2.6982574462890625, 1.0138880014419556, -0.6011882424354553, -0.4564110338687897, 2.0889248847961426, -1.2605009078979492, 1.0968822240829468, -1.6730555295944214], [-1.6941813230514526, -1.1012544631958008, 0.23713409900665283, -1.128990650177002, 2.1596519947052, 1.9405440092086792, 0.6688565611839294, 3.6216180324554443, -2.9337782859802246, 2.6749393939971924, -0.32578063011169434, -1.5818077325820923, -1.1133723258972168, 0.6284931302070618, 0.5761215090751648, 0.2748578190803528, 0.885343611240387, 0.40278977155685425], [-1.2717422246932983, 1.384592890739441, 0.0744088813662529, 2.369929790496826, -0.31683000922203064, -0.852899432182312, 0.07062564790248871, 4.431435585021973, -0.7072618007659912, 0.7020273208618164, 0.3585033118724823, -0.6772632002830505, -1.3595993518829346, 2.1358118057250977, 3.4175350666046143, -1.1806710958480835, 0.6880751252174377, 2.6882107257843018], [-0.5862055420875549, 1.7012908458709717, 0.46784162521362305, 0.42058613896369934, -0.7160921692848206, 0.609991192817688, 0.4757232367992401, -1.6552938222885132, -1.403306484222412, 0.9585192799568176, 0.31946802139282227, -2.6941022872924805, 0.866508960723877, -3.245086431503296, -0.2613369822502136, -0.4554196298122406, 0.19549335539340973, -1.9744939804077148], [-2.2704153060913086, -1.8112287521362305, -1.1062278747558594, -2.2093334197998047, -0.8712626099586487, 1.114438533782959, 3.4115030765533447, 3.1613638401031494, 0.051161959767341614, -0.7771830558776855, 1.4453024864196777, 3.0356996059417725, -2.8650529384613037, -2.661518096923828, -0.8501216769218445, 1.0018672943115234, 1.2249670028686523, 1.8811479806900024], [1.4901161193847656, 2.2085611820220947, 2.128169059753418, 1.3262889385223389, -0.84783536195755, -0.8578540682792664, 0.2742431163787842, -0.1716122180223465, -2.2999980449676514, -2.4317941665649414, -1.7467256784439087, -0.8127180337905884, -0.3497769236564636, -0.6842233538627625, 2.1381490230560303, -0.7398335933685303, 1.2438549995422363, -1.2020615339279175], [-0.37527045607566833, 1.717921257019043, -0.01116386242210865, -0.11467798054218292, -2.0182650089263916, -2.0026824474334717, -0.3227875232696533, 2.1599202156066895, 0.35097214579582214, 1.4704563617706299, -1.8067870140075684, -1.2376081943511963, 0.7870519161224365, -0.9621891379356384, 0.026434356346726418, -1.9123749732971191, -0.5433987975120544, -0.7205415964126587], [-1.5541179180145264, 0.9900301694869995, 0.32160523533821106, -0.5441794991493225, -1.0037418603897095, 1.6162643432617188, 2.506649971008301, -1.7879235744476318, 0.2659054398536682, -0.24096444249153137, 0.7938466668128967, -2.118497133255005, -0.3761097192764282, -1.2065534591674805, 0.5583341121673584, -0.0009842142462730408, 1.0096083879470825, -1.5741616487503052], [-0.2861449718475342, 2.043274402618408, 2.383742570877075, -0.26219210028648376, 0.9619866013526917, -2.217500925064087, -0.9209316372871399, -2.2956113815307617, -0.6886889934539795, -1.7032657861709595, 1.3034287691116333, 1.8819379806518555, -1.767958164215088, 0.9601101875305176, -0.1567942500114441, -0.8641168475151062, -0.17214617133140564, 0.4217893183231354], [-1.2311104536056519, 0.3424736261367798, 3.539167642593384, -0.8463036417961121, -2.3713417053222656, 1.9873642921447754, -2.2440035343170166, -3.078995704650879, 1.0522830486297607, 0.5241657495498657, 1.453237771987915, -0.49079620838165283, 1.7989920377731323, -1.5678790807724, -1.583444356918335, 0.05045922100543976, 1.982004165649414, -1.9162653684616089], [2.5767483711242676, -1.1057201623916626, -0.9842963218688965, 2.0848495960235596, 0.8013782501220703, 1.5316462516784668, -1.9975650310516357, -0.5843813419342041, 1.7725471258163452, 1.9582372903823853, 0.7921003699302673, -0.4865345358848572, -1.9316035509109497, -1.472599983215332, -3.4445385932922363, -1.1064023971557617, -1.778449535369873, 0.2896764576435089]], [[-1.0870890617370605, 0.9634376764297485, 2.593993902206421, -1.3618463277816772, -2.382115602493286, -2.4838380813598633, -2.09839129447937, -0.05387703701853752, -1.296256184577942, -1.0195509195327759, 0.7236448526382446, -0.24649086594581604, -0.7414281368255615, 0.6101774573326111, -0.28467831015586853, 1.8260499238967896, -1.0275459289550781, -1.2691189050674438, 2.722607374191284, 0.6734885573387146, -0.4509778916835785, 0.8268356919288635, 1.406955599784851, 2.596219778060913, 3.1168487071990967, 0.7279995083808899, 0.4610666334629059, 0.2585364878177643, -0.9312943816184998, -3.909898519515991, 2.765620231628418, -1.1014857292175293], [-0.1537017822265625, 0.31426963210105896, 3.0194895267486572, -1.202105164527893, 2.3968896865844727, -0.20561857521533966, 1.7704650163650513, 1.7594642639160156, 0.7833976745605469, 2.323232650756836, 2.3284170627593994, -4.603244781494141, 0.2837579846382141, 0.984534740447998, -1.3624908924102783, -1.3596583604812622, -0.4892350733280182, 0.5911895036697388, 4.247590065002441, 3.068493604660034, 0.676699697971344, 2.069201707839966, 0.668087899684906, 0.556449830532074, -0.12887424230575562, -1.3173308372497559, 2.287883758544922, 1.1462173461914062, -0.40199336409568787, 0.8276362419128418, 0.039335425943136215, 0.24301199615001678], [3.6828789710998535, 1.7733348608016968, 2.8009228706359863, -0.17328238487243652, -0.5816434621810913, 2.152719259262085, 0.35465046763420105, 1.9257988929748535, 3.092038869857788, 5.081915855407715, 0.4108053743839264, -2.6879494190216064, 0.4081498384475708, 1.577879786491394, 2.8127264976501465, 0.41603851318359375, 2.7617268562316895, -0.5861324071884155, -0.4315340220928192, 2.327723741531372, -2.5323450565338135, 0.8553920388221741, -1.5685017108917236, 2.839172840118408, -3.3248698711395264, -0.4677691161632538, -2.3228092193603516, 3.2062466144561768, -0.11424162983894348, 1.3587696552276611, -0.09825064241886139, 0.2369585633277893], [-2.680011510848999, 1.1954319477081299, -1.1400398015975952, -0.6010896563529968, -4.0892558097839355, -0.06041849032044411, 0.4305232763290405, -0.6594384908676147, 2.68601393699646, 2.1649038791656494, 1.334099531173706, -1.4391371011734009, 3.088610887527466, 1.0492393970489502, 0.23906633257865906, -0.04594817012548447, 1.0980186462402344, -0.22582006454467773, 0.5280836224555969, 0.24480563402175903, 0.6239373683929443, 0.5230185389518738, -1.5840532779693604, -0.4212876260280609, 2.785417079925537, -2.084686279296875, 0.02674633264541626, 2.73001766204834, 3.2437710762023926, 1.2902781963348389, -2.3622047901153564, 2.2341957092285156], [0.60921311378479, 1.9740113019943237, -1.0478153228759766, 2.723439931869507, -1.0876373052597046, 2.229677200317383, -0.41163378953933716, 2.3234851360321045, -0.4590645730495453, 0.8342600464820862, 0.5125586986541748, -1.8476141691207886, -1.3516358137130737, 0.8006850481033325, -1.0426950454711914, 1.5309438705444336, 1.0828388929367065, -3.246469020843506, -0.22513626515865326, 0.39452531933784485, -0.03069373220205307, 2.794586658477783, -0.18570822477340698, 1.3371835947036743, 1.6541024446487427, -0.8845510482788086, 1.152542233467102, -1.860867977142334, -1.3861221075057983, -0.8837332725524902, -0.6467781066894531, -0.5278761982917786], [0.22720873355865479, -0.5403910875320435, -1.8616262674331665, -1.2868177890777588, 1.3149453401565552, 1.4276660680770874, -0.48307400941848755, -1.1013751029968262, 1.5811254978179932, 0.7592153549194336, -3.4428870677948, 0.915893018245697, -0.39720216393470764, 1.6502187252044678, 1.8765360116958618, 1.2715493440628052, -2.2613916397094727, 0.6494454145431519, 2.8296120166778564, 2.1374311447143555, 1.1427663564682007, -0.5626588463783264, -1.873202919960022, -1.4560606479644775, -0.931242823600769, -3.4451472759246826, -0.03419816121459007, 0.8695710897445679, -2.4506776332855225, 0.47611820697784424, 0.3299427032470703, 2.2256786823272705], [-0.5592718124389648, -0.13308119773864746, -2.1845297813415527, 1.3476276397705078, 3.237596035003662, -3.188225269317627, -1.5670698881149292, -0.9910059571266174, 0.9750003814697266, -0.9941173195838928, 0.26651257276535034, -0.6775273084640503, 3.5667593479156494, -0.6523662209510803, -0.12842819094657898, -1.7018797397613525, -2.917536735534668, -0.3702269494533539, 0.39757049083709717, -0.7096922993659973, -0.5384621024131775, -1.202871322631836, 0.011756300926208496, 1.543341875076294, 0.735172688961029, -1.7564606666564941, -1.0302518606185913, 0.7137797474861145, 0.6180225014686584, 0.45381397008895874, -0.516808271408081, 2.383338451385498], [2.2478058338165283, -0.7992911338806152, 1.1024329662322998, -2.127387046813965, 0.7552723288536072, -0.5992206931114197, -1.4592376947402954, -0.31177380681037903, 0.8480198383331299, 2.473106622695923, -0.9753602743148804, 0.9246946573257446, 3.2456321716308594, -1.0454838275909424, 1.3686987161636353, -0.8838858008384705, -3.8285233974456787, -0.34837284684181213, 1.3338028192520142, -4.007848262786865, 0.5055111646652222, -0.28127944469451904, 1.9046796560287476, -0.7819470167160034, -0.945583164691925, -3.7177200317382812, 0.813759446144104, -2.4453914165496826, 0.36376091837882996, 0.17955134809017181, 2.812001943588257, -0.82123202085495], [-0.59547358751297, 0.5212094783782959, -0.1799311339855194, -0.7582547664642334, 1.334293007850647, -0.7877517938613892, -0.0958905965089798, 2.1055119037628174, 0.5857937932014465, -0.7008150815963745, 1.7028007507324219, -2.509355068206787, 1.7635165452957153, 0.1087934598326683, -1.2167903184890747, 0.7822935581207275, 1.3903417587280273, 0.7523596882820129, -1.998016357421875, -1.884105920791626, 0.12256033718585968, -0.780532956123352, 1.0217937231063843, -1.3880265951156616, 1.333596110343933, 1.4531493186950684, -1.9028260707855225, 1.4698257446289062, 2.7585811614990234, -1.2972348928451538, -0.002817802131175995, -0.008340887725353241], [1.1724936962127686, -1.4434140920639038, 3.0475778579711914, -0.14970779418945312, 3.0446321964263916, -1.1246610879898071, -0.43958520889282227, -3.2374444007873535, -0.8475547432899475, -1.8107802867889404, 0.7133205533027649, -1.9894208908081055, 0.8518857955932617, -1.4838389158248901, 0.17424848675727844, -0.8566625118255615, -1.4557301998138428, 4.874682426452637, -0.529639482498169, 1.4196679592132568, 1.425218939781189, -2.057861804962158, -0.01075364463031292, -1.4569110870361328, -0.7347971796989441, -3.9211902618408203, -0.8260540962219238, 1.248547077178955, -4.238791465759277, -0.19297359883785248, -0.008986562490463257, 1.3643654584884644], [2.806551933288574, -0.9835267066955566, 0.3388877511024475, 1.424213171005249, -1.0535428524017334, 1.7525591850280762, 0.8180397152900696, -0.18688762187957764, 1.2984511852264404, -0.9630190134048462, -3.721625804901123, -2.6669905185699463, 1.6887093782424927, 1.0781384706497192, 1.5695000886917114, -0.39416781067848206, 1.775756597518921, 2.9650185108184814, -1.139244556427002, -0.9617811441421509, -1.0877102613449097, -0.4026387631893158, 0.03088373690843582, 0.2999125123023987, 0.5691688656806946, -2.3259170055389404, 1.7443243265151978, -1.3352797031402588, -2.321478843688965, -0.28372177481651306, 0.983401358127594, -1.0810881853103638], [-1.3217049837112427, -1.5779951810836792, -3.174152135848999, -0.8626971244812012, -0.18028709292411804, -0.3372664451599121, -0.850745677947998, 1.122495412826538, 1.123960256576538, 1.4622435569763184, -1.5869176387786865, 1.0560084581375122, 2.0119478702545166, 2.318958282470703, 0.5423213839530945, 1.9384207725524902, 0.22688616812229156, 0.56611168384552, 3.9050543308258057, 1.3310660123825073, 1.0626904964447021, 3.48576021194458, 0.15777158737182617, -0.1419561356306076, -0.8559377193450928, 2.1126322746276855, -0.878409743309021, -2.0715699195861816, -3.69425630569458, 0.432372510433197, 3.1867547035217285, -0.7965422868728638], [2.1803154945373535, -2.1049556732177734, -1.8279314041137695, -1.361680269241333, 3.0884625911712646, 3.2772910594940186, 0.3426109552383423, 1.4871199131011963, -0.41655370593070984, -0.17268383502960205, 1.464510440826416, -0.7402831315994263, 0.8732311725616455, 3.3256900310516357, 0.29964858293533325, 1.176005244255066, 3.5521883964538574, -0.4115738272666931, -1.7185537815093994, 1.5505809783935547, 1.651842474937439, 1.7314373254776, 0.250973105430603, 1.4472328424453735, 0.6568842530250549, 0.7339122891426086, 1.7327500581741333, -0.6239026784896851, -4.033083915710449, -2.3238728046417236, 0.3790951371192932, -0.9740518927574158], [0.6048778295516968, 4.213321208953857, -0.9660124778747559, -1.5110701322555542, -3.511720657348633, 0.2280859798192978, 2.7256617546081543, -0.7297197580337524, -1.492427945137024, -1.0113402605056763, -1.2989932298660278, -3.2628159523010254, -0.4311147928237915, 2.5984201431274414, 0.9420924782752991, 1.515629529953003, 3.7752740383148193, -1.1253547668457031, -2.245666027069092, -0.478679895401001, 1.8225818872451782, -1.1713427305221558, 2.2869791984558105, 2.464873790740967, -1.4023609161376953, 1.8496825695037842, -0.9067009687423706, -0.7266931533813477, 0.2108684480190277, -2.706306219100952, -0.883732259273529, 1.6938546895980835], [-0.13955442607402802, 0.8773171901702881, 2.0894181728363037, 0.3176496922969818, -0.04787066578865051, 1.5756996870040894, 1.3256794214248657, 1.2204244136810303, -1.3243979215621948, -0.8061463832855225, -0.3897618353366852, -1.6408833265304565, 0.46936243772506714, 1.2879397869110107, -1.9813851118087769, 1.6880086660385132, 1.5815376043319702, 1.7764819860458374, -1.8383454084396362, -0.4856981337070465, 4.027004718780518, -3.2655277252197266, -1.6428483724594116, -1.9366289377212524, -4.378383636474609, -2.805457830429077, -2.20190691947937, 2.865070343017578, 1.7359157800674438, -6.286636829376221, -2.4384303092956543, -1.202721357345581], [2.532155752182007, -0.022878356277942657, -0.9449531435966492, 0.7877406477928162, -3.9017088413238525, 2.0321764945983887, -2.3640341758728027, 1.3873803615570068, 0.9560033679008484, -0.5863295793533325, -3.090524911880493, 4.53213357925415, -0.8281909227371216, -3.1387438774108887, -0.924383282661438, 2.749260663986206, 2.58754563331604, -0.09978443384170532, -1.2097326517105103, 0.763218343257904, -0.3697115480899811, 4.503918647766113, -2.372040033340454, 0.14149990677833557, -1.246610403060913, -2.0722484588623047, 0.19508174061775208, 1.0821778774261475, -0.3582683205604553, 1.4074221849441528, -0.2763659656047821, -3.6074438095092773]], [[-1.759671926498413, 2.384434938430786, 2.050316572189331, 0.16463053226470947, 3.3148915767669678, 0.31317242980003357, -1.9541363716125488, -0.6939552426338196, -1.7646968364715576, -0.9853624105453491, 1.2973593473434448, -1.3223156929016113, 2.885023355484009, -2.009540319442749, -1.2518304586410522, 1.9706898927688599], [1.3186519145965576, -0.6057251691818237, -1.9126925468444824, 2.2177460193634033, -0.08356218039989471, 0.44431760907173157, -0.2526784837245941, -2.6573469638824463, -2.982689142227173, -0.03745495155453682, 0.415826678276062, -1.4323723316192627, 2.1052017211914062, 1.590789794921875, -1.502234697341919, 0.29920992255210876], [-1.3365278244018555, 0.8435913920402527, 0.2708701491355896, -3.307326555252075, -0.8521032929420471, -1.6212972402572632, -1.033712387084961, -2.133316993713379, -2.299637794494629, -1.7174758911132812, 0.849331259727478, 1.8538150787353516, -1.5932947397232056, -1.4088611602783203, -1.0802247524261475, 1.5024330615997314], [2.488417625427246, -1.9300483465194702, 2.2994561195373535, -0.27959954738616943, 0.7636274099349976, 0.6203399896621704, 0.07894358038902283, 0.6158206462860107, -0.08440840989351273, 1.1133800745010376, -0.3719852566719055, 0.6714714765548706, -0.9260462522506714, -0.35662317276000977, -3.3260738849639893, 4.15194034576416], [0.712043046951294, -0.8673322796821594, 1.9195343255996704, 0.7438174486160278, 1.092583179473877, -1.0183703899383545, -2.9951069355010986, -0.6766319274902344, -1.2266430854797363, 0.7623302340507507, -0.910878598690033, -2.059615135192871, -2.817345142364502, 1.9986997842788696, 3.077070951461792, -2.1398558616638184], [0.25469970703125, -2.0877797603607178, -0.05144132673740387, -0.7449498772621155, 1.046530842781067, -0.26363080739974976, -0.8776289820671082, 0.34796732664108276, -0.7717027068138123, -5.374384880065918, 2.229485034942627, 2.2618918418884277, -2.3593509197235107, 1.5260366201400757, 0.18549275398254395, -2.0378756523132324], [-0.5026519894599915, 0.4287622570991516, 0.6005337238311768, -0.04536774754524231, -0.13322225213050842, -5.263679504394531, 1.60541570186615, 2.2623958587646484, 1.8912200927734375, -0.6948423981666565, -0.7846466302871704, -0.12120772153139114, 2.329420566558838, 0.760009765625, -0.23361660540103912, -0.5874043107032776], [-0.3407321572303772, 3.5319664478302, -1.1492173671722412, -0.5361858010292053, 2.7045071125030518, 0.6996583938598633, -1.1894464492797852, -0.9771955609321594, -0.40619736909866333, 0.40409576892852783, -0.9755072593688965, -0.3678833842277527, 1.4954431056976318, 1.9123197793960571, -2.1544971466064453, -2.6714065074920654]], [[-1.4482824802398682, 0.9875075221061707, -0.3225688338279724, -0.07224985957145691, 4.385795593261719, -0.937513530254364, -0.6414607167243958, -1.1992270946502686], [-2.539381265640259, 0.6357130408287048, 1.3194799423217773, 0.1139071136713028, -1.6194140911102295, -0.20464156568050385, 0.562571108341217, 1.050154447555542]]], "brain_biases": [[-0.5028079748153687, 2.453463554382324, -1.6614824533462524, -0.5915593504905701, -1.178591012954712, 2.353915214538574, -1.5213353633880615, 0.10070083290338516, 0.14438867568969727, -0.9259220361709595, 1.295330286026001, -3.368621587753296, -0.31650012731552124, -1.3877512216567993, -0.5511451959609985, 0.7860059142112732, -1.901652455329895, 1.7094780206680298, -0.055579494684934616, 0.15273484587669373, 1.5290576219558716, 0.5370557308197021, 3.3270227909088135, 3.7231626510620117, -0.8646030426025391, -0.38254910707473755, -0.9990381002426147, -3.3462836742401123, 0.08991237729787827, -1.481665015220642, -0.07278554141521454, 0.34274056553840637], [-1.1790388822555542, 1.9264775514602661, 0.859418511390686, 1.5762935876846313, 3.805091381072998, 1.1052287817001343, -2.11541485786438, -0.2881602644920349, -1.2180933952331543, -2.9276206493377686, -2.462933301925659, -0.03171881288290024, -0.7601169943809509, 3.52858567237854, 2.1104531288146973, -0.9972877502441406], [0.4186059534549713, -1.834676742553711, -0.22397007048130035, 2.2194888591766357, -0.31064632534980774, 0.6873993873596191, -2.294220209121704, 0.9760689735412598], [0.4427702724933624, 0.8027468323707581]], "sensor_retina_count": 18, "sensor_vision_radius": 300.0, "sensor_fov_degrees": 180.0, "sensor_skip": 2, "sensor_see_food": true, "sensor_see_bacteria": false, "sensor_see_predators": true, "locomotion_max_speed": 300.0, "locomotion_max_turn": 3.141592653589793, "energy_death_energy": 0.0, "energy_split_energy": 200.0, "energy_v0_cost": 3.0, "energy_vmax_cost": 6.0, "energy_vmax_ref": 300.0, "energy_energy_cap": 200.0, "energy_loss_idle": 3.0, "energy_loss_move": 6.0, "last_brain_output": [2.990478992462158, 0.9880753755569458], "last_brain_activations": [[-0.46432262659072876, 0.9853181838989258, -0.9304165840148926, -0.5310162305831909, -0.8270068168640137, 0.98211270570755, -0.9089300632476807, 0.10036181658506393, 0.14339356124401093, -0.7286869287490845, 0.8605161905288696, -0.9976310133934021, -0.306338906288147, -0.8826751708984375, -0.501378059387207, 0.6561404466629028, -0.956378698348999, 0.9365834593772888, -0.055522337555885315, 0.15155816078186035, 0.910263180732727, 0.4907560646533966, 0.9974257349967957, 0.9988335371017456, -0.6986216902732849, -0.36491918563842773, -0.761189877986908, -0.9975228905677795, 0.08967086672782898, -0.9017794728279114, -0.0726572796702385, 0.3299218714237213], [0.9999885559082031, 0.8967339396476746, -0.999969482421875, 0.8590678572654724, 1.0, -0.5452938079833984, -0.9046187400817871, 0.5467551946640015, 0.9710476398468018, -0.385219007730484, -0.999985933303833, 0.9864524602890015, -0.7056701183319092, 1.0, 1.0, -0.3429655432701111], [-0.9999953508377075, -0.9999095797538757, -0.9999961853027344, -0.9926533102989197, 0.9999994039535522, 0.9999889731407166, 0.8675523996353149, 0.9999984502792358], [2.990478515625, 0.9880755543708801]]}, {"type": "bacteria", "x": 3968.5659858708605, "y": 4351.497416894098, "r": 9.0, "angle": -0.8481068518079553, "vx": 197.12559135602214, "vy": -223.5395852016591, "energy": 77.14197782216243, "age": 48.66587499999852, "brain_sizes": [18, 32, 16, 8, 2], "brain_version": 2921, "brain_weights": [[[2.5342423915863037, -0.4167746901512146, 4.2728352546691895, -1.1563668251037598, -0.08120870590209961, 2.957124710083008, -0.6728408932685852, -2.063905954360962, -0.1404394507408142, 2.97157883644104, -0.6496168971061707, -0.8377078175544739, -2.5555830001831055, 0.6405428051948547, -0.20907722413539886, -3.335726022720337, 1.5062392950057983, 1.1561903953552246], [3.5925405025482178, -1.1215472221374512, -3.4248788356781006, -1.1526579856872559, -2.193659543991089, 1.8139292001724243, -0.47352921962738037, -2.1089959144592285, -1.2846952676773071, 1.0010039806365967, 0.07188146561384201, -0.615515410900116, 0.00597562687471509, 2.0137288570404053, -0.9308611154556274, -0.7889871597290039, 0.7875073552131653, 1.2967039346694946], [3.119854688644409, -1.4941099882125854, 1.4983458518981934, 1.155632495880127, 1.5046485662460327, -0.11359032988548279, -0.2912600040435791, 1.0400381088256836, 0.25370603799819946, 2.888216733932495, -1.7403980493545532, 2.2265543937683105, -1.0690524578094482, 0.7993481159210205, 0.1127004623413086, 1.9321643114089966, 2.201183319091797, -0.20332299172878265], [-0.0310039222240448, -2.6844775676727295, -3.2868871688842773, 4.7887864112854, -0.5886813998222351, 1.0633208751678467, 2.0525362491607666, 0.10786532610654831, 1.5974762439727783, -3.068974494934082, 1.8642349243164062, 0.9895135760307312, -2.5939388275146484, 2.5732779502868652, -1.7732328176498413, 1.0844489336013794, 4.909129619598389, -1.6951584815979004], [-1.4688150882720947, 1.181806206703186, -2.4855785369873047, -2.1081082820892334, -2.8227455615997314, -0.9719651937484741, -0.6147058010101318, -0.5378251671791077, -1.049241542816162, 3.625770330429077, -0.07950552552938461, 0.44126710295677185, 0.8134037256240845, 0.4335804879665375, 0.6228231191635132, 5.208748817443848, 1.7157185077667236, -2.530012369155884], [1.9298882484436035, -1.2917203903198242, 1.571613073348999, -0.1919579952955246, 3.3328237533569336, 4.0453314781188965, -0.10775710642337799, 0.08418883383274078, 0.24331232905387878, 2.166233777999878, -0.0479724295437336, 4.234513282775879, -2.959857702255249, -2.73837947845459, -1.786681890487671, -0.045022882521152496, 1.4398294687271118, 1.8229917287826538], [-2.2828829288482666, -1.3800392150878906, 1.617082953453064, 0.013313375413417816, -3.9015893936157227, 0.31861773133277893, -2.6153299808502197, 1.697793960571289, 1.9452604055404663, 1.7902798652648926, -0.8737916946411133, 1.2275192737579346, -4.0400800704956055, 0.24777230620384216, 2.4594266414642334, -0.4553513526916504, -0.4994881749153137, -1.1744575500488281], [-1.4892302751541138, 3.6464900970458984, 0.8795599937438965, 0.9630078673362732, 1.1275910139083862, -1.3338488340377808, -0.4811787009239197, -0.3958968222141266, 3.6906771659851074, -1.8937495946884155, -1.3106226921081543, -0.09509997814893723, -3.847904682159424, 0.41028666496276855, -3.0508780479431152, -1.5167663097381592, 0.44775068759918213, 0.5870888233184814], [1.2640342712402344, 0.6481781601905823, -3.363280773162842, 2.250944137573242, 1.4573560953140259, 0.9370341897010803, 1.5628268718719482, 3.170567512512207, -0.4768950045108795, 0.5654831528663635, -0.10356488823890686, -4.140902519226074, -0.8471472263336182, 2.138425827026367, -2.9969334602355957, 0.5365626811981201, 1.8397306203842163, -0.9974203109741211], [0.929431140422821, -2.779604911804199, 1.8185302019119263, 0.23552671074867249, 2.3092665672302246, 2.0720510482788086, -2.3391685485839844, -0.9578841924667358, 2.9946508407592773, 0.2550385296344757, 0.49461647868156433, 0.5169098973274231, -0.6905127763748169, -3.5277702808380127, -0.13450169563293457, -2.1229348182678223, -3.0584287643432617, 1.5629762411117554], [0.6889974474906921, -0.2800571918487549, -0.10775826126337051, 1.0138413906097412, -2.722597599029541, -0.2085963487625122, 0.24515782296657562, -0.891007125377655, 0.8837870955467224, 0.2972010374069214, -1.164380669593811, 1.4049279689788818, -1.8466696739196777, 0.03731444105505943, -1.6076120138168335, -1.676301121711731, -2.19197940826416, 2.2920658588409424], [-0.026031605899333954, -2.226318359375, -2.075479030609131, 0.29901695251464844, 1.6814587116241455, -0.7858534455299377, -1.7565809488296509, -1.9956802129745483, 0.3554074168205261, -0.17880985140800476, 1.7578706741333008, 2.1944124698638916, -1.1238081455230713, -1.6805577278137207, -1.9221422672271729, 0.15518049895763397, 0.2815909683704376, -1.8058773279190063], [3.6389753818511963, 1.162552833557129, 1.8601746559143066, -2.554884195327759, 0.4915350079536438, 1.2364294528961182, 0.29151827096939087, -1.501084804534912, -0.07589022815227509, -0.08807818591594696, -0.7913639545440674, 2.327467441558838, 2.4424331188201904, -0.29566094279289246, -1.278316855430603, 3.642981767654419, -2.308558225631714, 2.286151647567749], [-1.5922490358352661, -1.2141051292419434, 1.4693914651870728, 0.15389488637447357, 1.6925945281982422, 1.1178025007247925, -0.8884352445602417, 0.20950400829315186, 0.08589258044958115, -1.7197179794311523, -1.8483220338821411, -0.9852911233901978, 1.4938637018203735, -1.99337637424469, -0.8857788443565369, 1.2231097221374512, 1.1069953441619873, 0.025023125112056732], [-2.419450521469116, -1.1073616743087769, 0.30231374502182007, 2.2599472999572754, 1.8715450763702393, 1.7006815671920776, 0.6091450452804565, -0.21789398789405823, -1.7050423622131348, -0.14968842267990112, -1.2270063161849976, -2.9904491901397705, 2.635218620300293, 2.480717658996582, 1.1505423784255981, 4.836948394775391, 0.19273003935813904, -0.9313316941261292], [3.2265119552612305, 0.12171591818332672, 0.9143476486206055, 0.8244446516036987, 2.4590017795562744, 0.8166062831878662, 0.377392053604126, 0.5095305442810059, 0.4789649546146393, 0.3132507801055908, -0.2346295565366745, -0.14967375993728638, -1.0551069974899292, -2.4648921489715576, 0.9240112900733948, -1.300737738609314, -1.686885118484497, -0.2401413917541504], [-1.6826235055923462, -0.6804044246673584, 3.055088758468628, -2.518237829208374, 0.7107890844345093, 0.17500747740268707, 1.320845603942871, 1.3376984596252441, -0.004900971427559853, -1.0131689310073853, 2.0485081672668457, -0.019977375864982605, 0.023178651928901672, -0.7572342753410339, 1.6003130674362183, 0.2511932849884033, 0.2138211578130722, 0.9163585901260376], [-3.1482813358306885, -1.095096468925476, -2.364131450653076, -2.3384268283843994, 0.2224714756011963, -1.5875144004821777, -0.5672929883003235, 1.1107152700424194, 0.132227823138237, 0.674979567527771, -4.372547149658203, 1.132897138595581, 3.485084056854248, -0.8967370986938477, 0.20110931992530823, -1.8556902408599854, 0.7001974582672119, -0.8240624666213989], [-0.3357257843017578, 0.8353615999221802, 0.7130566239356995, -1.9916564226150513, -1.5398813486099243, -2.4780478477478027, -1.9422111511230469, 1.914316177368164, 0.5449020862579346, 0.22944766283035278, -0.8232433795928955, -0.35751914978027344, 0.9748591780662537, 1.044871211051941, 0.3626812696456909, -2.828508138656616, -1.17921781539917, 0.1414712369441986], [-5.130100250244141, -0.28094518184661865, -1.7585889101028442, 2.5789589881896973, 1.0938084125518799, -1.0350329875946045, -0.5202006101608276, -1.1946361064910889, -3.3673365116119385, -1.7327007055282593, -1.4072996377944946, -1.2230464220046997, 2.884542465209961, 0.6650760769844055, 0.919174075126648, -1.5602421760559082, -0.0662795826792717, 6.0710344314575195], [1.9409762620925903, 0.6132419109344482, 0.6302462220191956, 0.8111860156059265, -1.4983105659484863, -1.7342289686203003, 2.0864176750183105, 4.399438858032227, 1.538339614868164, -1.043784260749817, -2.2830939292907715, 3.1822731494903564, 1.5732903480529785, 0.3498349189758301, -1.079028606414795, 1.9619687795639038, -0.2856461703777313, -1.0984522104263306], [-0.2978491187095642, -0.14600597321987152, -1.7878429889678955, 0.10506485402584076, -2.0093111991882324, -4.4966959953308105, 0.2641075849533081, -3.070208787918091, -0.892378032207489, 0.07876951992511749, 2.8874826431274414, 1.307498574256897, -0.6766926050186157, -0.6794171333312988, 1.8004728555679321, -1.078072190284729, 0.9693915247917175, -1.5129153728485107], [-1.7368731498718262, -0.810230553150177, 0.2401660978794098, -1.042436957359314, 2.1047377586364746, 2.04876446723938, 0.35741811990737915, 3.694342851638794, -2.886120080947876, 2.80450439453125, -0.6792802810668945, 