{"version": 1, "timestamp": "20250831_001627", "params": {"time_scale": 2.0, "fps": 60.0, "paused": true, "use_spatial": true, "substrate_shape": "rectangular", "world_w": 8000.0, "world_h": 8000.0, "substrate_radius": 400.0, "max_deaths_per_step": 5, "retina_skip": 2, "simple_render": false, "reuse_spatial_grid": true, "food_target": 130, "food_min_r": 8.0, "food_max_r": 10.0, "food_replenish_interval": 0.1, "bacteria_count": 10, "bacteria_min_r": 6.0, "bacteria_max_r": 12.0, "bacteria_min_limit": 300, "bacteria_max_limit": 500, "bacteria_initial_energy": 100.0, "bacteria_energy_loss_idle": 2.0, "bacteria_energy_loss_move": 5.0, "bacteria_death_energy": 0.0, "bacteria_split_energy": 150.0, "bacteria_body_size": 9.0, "bacteria_max_speed": 300.0, "bacteria_max_turn": 3.141592653589793, "bacteria_vision_radius": 300.0, "bacteria_vision_mode": "frontal", "bacteria_retina_count": 24, "bacteria_retina_fov_degrees": 180.0, "bacteria_show_vision": false, "bacteria_retina_see_food": true, "bacteria_retina_see_bacteria": false, "bacteria_retina_see_predators": false, "bacteria_hidden_layers": 3, "bacteria_neurons_layer_1": 32, "bacteria_neurons_layer_2": 16, "bacteria_neurons_layer_3": 8, "bacteria_neurons_layer_4": 20, "bacteria_neurons_layer_5": 0, "bacteria_mutation_rate": 0.1, "bacteria_mutation_strength": 0.1, "bacteria_structural_jitter": 0, "predators_enabled": true, "predator_count": 10, "predator_min_r": 10.0, "predator_max_r": 18.0, "predator_min_limit": 100, "predator_max_limit": 200, "predator_initial_energy": 100.0, "predator_energy_loss_idle": 3.0, "predator_energy_loss_move": 6.0, "predator_death_energy": 0.0, "predator_split_energy": 150.0, "predator_body_size": 14.0, "predator_max_speed": 400.0, "predator_max_turn": 3.141592653589793, "predator_vision_radius": 400.0, "predator_vision_mode": "frontal", "predator_retina_count": 18, "predator_retina_fov_degrees": 120.0, "predator_show_vision": false, "predator_retina_see_food": false, "predator_retina_see_bacteria": true, "predator_retina_see_predators": false, "predator_hidden_layers": 3, "predator_neurons_layer_1": 32, "predator_neurons_layer_2": 16, "predator_neurons_layer_3": 8, "predator_neurons_layer_4": 0, "predator_neurons_layer_5": 0, "predator_mutation_rate": 0.1, "predator_mutation_strength": 0.1, "predator_structural_jitter": 0, "agents_inertia": 1.0, "show_selected_details": true, "disable_brain_activations": false, "auto_export_substrate": true, "auto_export_interval_minutes": 1.0}, "ui_params": {"time_scale": 2.0, "fps": 60, "paused": true, "use_spatial": true, "retina_skip": 2, "simple_render": false, "reuse_spatial_grid": true, "agents_inertia": 1.0, "show_selected_details": true, "enable_brain_activations": true, "auto_export_substrate": true, "auto_export_interval_minutes": 1.0, "food_target": 130, "food_min_r": 8.0, "food_max_r": 10.0, "food_replenish_interval": 0.1, "world_w": 8000.0, "world_h": 8000.0, "substrate_shape": "rectangular", "substrate_radius": 400.0, "bacteria_count": 10, "bacteria_min_limit": 300, "bacteria_max_limit": 500, "bacteria_energy_loss_idle": 2.0, "bacteria_energy_loss_move": 5.0, "bacteria_initial_energy": 100.0, "bacteria_death_energy": 0.0, "bacteria_split_energy": 150.0, "bacteria_body_size": 9.0, "bacteria_vision_radius": 300.0, "bacteria_retina_count": 24, "bacteria_retina_fov_degrees": 180.0, "bacteria_max_speed": 300.0, "bacteria_max_turn_deg": 180.0, "bacteria_hidden_layers": 3, "bacteria_neurons_layer_1": 32, "bacteria_neurons_layer_2": 16, "bacteria_neurons_layer_3": 8, "bacteria_neurons_layer_4": 20, "bacteria_neurons_layer_5": 0, "bacteria_mutation_rate": 0.1, "bacteria_mutation_strength": 0.1, "bacteria_show_vision": false, "bacteria_retina_see_food": true, "bacteria_retina_see_bacteria": false, "bacteria_retina_see_predators": false, "predators_enabled": true, "predator_count": 10, "predator_min_limit": 100, "predator_max_limit": 200, "predator_energy_loss_idle": 3.0, "predator_energy_loss_move": 6.0, "predator_initial_energy": 100.0, "predator_death_energy": 0.0, "predator_split_energy": 150.0, "predator_body_size": 14.0, "predator_vision_radius": 400.0, "predator_retina_count": 18, "predator_retina_fov_degrees": 120.0, "predator_max_speed": 400.0, "predator_max_turn_deg": 180.0, "predator_hidden_layers": 3, "predator_neurons_layer_1": 32, "predator_neurons_layer_2": 16, "predator_neurons_layer_3": 8, "predator_neurons_layer_4": 0, "predator_neurons_layer_5": 0, "predator_mutation_rate": 0.1, "predator_mutation_strength": 0.1, "predator_retina_see_food": false, "predator_retina_see_bacteria": true, "predator_retina_see_predators": false, "predator_show_vision": false, "test_param_1": 1, "test_param_2": 2, "test_param_3": 3.0, "test_param_4": 4, "test_param_5": 5, "test_param_6": 6.0, "test_param_7": 7, "test_param_8": 8, "test_param_9": 9.0, "test_param_10": 10, "test_param_11": 11, "test_param_12": 12.0, "test_param_13": 8, "test_param_14": 20, "test_param_15": 15.0, "test_param_16": 16, "test_param_17": 17, "test_param_18": 18.0, "test_param_19": 19, "test_param_20": 20, "test_param_21": 21.0, "test_param_22": 22, "test_param_23": 23, "test_param_24": 24.0, "test_param_25": 25, "test_param_26": 26, "test_param_27": 27.0, "test_param_28": 28, "test_param_29": 29, "test_param_30": 30.0}, "world": {"width": 8000.0, "height": 8000.0, "shape": "rectangular", "radius": 400.0}, "camera": {"x": -3074.301949129761, "y": -2759.629244420831, "zoom": 0.11167815779424772}, "simulation": {"total_simulation_time": 139.471999999999}, "food": {"count": 130, "target": 130}, "agents": [{"type": "bacteria", "x": 424.3983249169407, "y": 4138.599373305528, "r": 9.0, "angle": 1.6023880688393861, "vx": -4.40855879739201, "vy": 139.50139428676286, "energy": 0.001, "age": 141.06666666667107, "brain_sizes": [24, 32, 16, 8, 2], "brain_version": 0, "brain_weights": [[[0.13437680900096893, -0.11080150306224823, 0.09299314767122269, -0.11954857409000397, -0.12437449395656586, 0.3331250548362732, -0.21494261920452118, -0.18819652497768402, -0.1529642939567566, -0.12632028758525848, -0.18311375379562378, -0.3787655532360077, 0.12778019905090332, 0.01412606704980135, 0.04512772336602211, -0.4291081726551056, -0.08885067701339722, 0.2664061188697815, 0.19619120657444, -0.06714262068271637, 0.38867393136024475, 0.5411936640739441, 0.06364492326974869, 0.11959382146596909], [-0.07115337997674942, 0.09031140804290771, 0.23222514986991882, -0.12795805931091309, 0.24585939943790436, 0.15297940373420715, 0.02752572111785412, -0.0934126079082489, 0.2790132462978363, 0.01684289425611496, -0.4914362132549286, 0.17893697321414948, 0.031162267550826073, -0.28443285822868347, 0.28805941343307495, 0.2235315591096878, 0.23424482345581055, 0.16718265414237976, -0.2355680912733078, 0.0032291177194565535, 0.019221168011426926, -0.3221847712993622, 0.15966813266277313, 0.3973217308521271], [0.05439389869570732, 0.054456550627946854, 0.11319558322429657, 0.04896083101630211, 0.27275580167770386, 0.12477685511112213, -0.15352478623390198, 0.09997662156820297, 0.10842069983482361, 0.2116360068321228, -0.15469156205654144, -0.09429311007261276, 0.2711929976940155, -0.028624245896935463, -0.0850672647356987, -0.09267541021108627, -0.19184532761573792, -0.2608143985271454, 0.14832110702991486, 0.1973046362400055, 0.12157589942216873, 0.012904556468129158, -0.043743863701820374, -0.26480695605278015], [-0.1082039475440979, -0.18019317090511322, -0.3018565773963928, 0.10915936529636383, -0.021506737917661667, 0.3153464198112488, 0.18949177861213684, -0.01266664732247591, -0.21447166800498962, -0.02846577763557434, 0.18856988847255707, -0.07668696343898773, -0.1278161257505417, 0.20070615410804749, 0.12251598387956619, -0.1408027857542038, -0.16999825835227966, -0.051742155104875565, -0.11710961908102036, 0.102016881108284, -0.06620900332927704, 0.4574747681617737, -0.0345977246761322, 0.2118089199066162], [0.289864718914032, 0.29257261753082275, -0.004192030988633633, 0.3217059373855591, 0.05475904792547226, 0.047273945063352585, -0.20360150933265686, 0.07735089957714081, 0.07519351691007614, 0.12423259019851685, 0.3035988211631775, -0.2684134542942047, -0.29098397493362427, 0.14280784130096436, 0.45961567759513855, 0.20400092005729675, -0.10350742191076279, 0.005888429936021566, 0.22394229471683502, 0.07304026186466217, -0.13851195573806763, 0.21041952073574066, -0.13271695375442505, 0.21840104460716248], [-0.27037397027015686, 0.1687050759792328, 0.04139184579253197, 0.17901208996772766, 0.17046095430850983, 0.08321687579154968, 0.062201373279094696, -0.11432311683893204, -0.2182445526123047, -0.04559151455760002, 0.23014123737812042, 0.006381502375006676, -0.44274187088012695, -0.13135193288326263, 0.101793073117733, 0.08976289629936218, 0.02391805313527584, 0.026345888152718544, 0.26166850328445435, 0.007603490259498358, 0.04160119220614433, -0.0015424779849126935, 0.2405668944120407, -0.06714214384555817], [0.1810460388660431, 0.12488675117492676, -0.05370088666677475, -0.06716269254684448, 0.03630056232213974, 0.11030253767967224, 0.09711581468582153, 0.13098150491714478, 0.1936110109090805, 0.1242205947637558, -0.1473003327846527, -0.33574655652046204, -0.13555535674095154, 0.18315882980823517, -0.28421705961227417, -0.062328897416591644, 0.2237420231103897, -0.044933561235666275, -0.05680593475699425, 0.13127300143241882, -0.11954046040773392, -0.21461744606494904, 0.2299736738204956, 0.23040497303009033], [-0.1253507435321808, -0.1994820237159729, 0.28967511653900146, 0.5079936981201172, 0.2582797408103943, -0.2614975571632385, 0.025866806507110596, 0.16750912368297577, 0.17682349681854248, -0.36797526478767395, -0.0053007956594228745, 0.15663999319076538, -0.36918988823890686, 0.021503407508134842, 0.013822636567056179, -0.12987539172172546, 0.2492864578962326, 0.0720696896314621, -0.08585897088050842, 0.20232370495796204, -0.13344286382198334, 0.06278067827224731, 0.1440034806728363, 0.1972980499267578], [0.30323314666748047, -0.12327183783054352, -0.017337562516331673, -0.20748837292194366, -0.39989399909973145, 0.002073206938803196, -0.28450796008110046, 0.32759207487106323, -0.1592816859483719, -0.12299029529094696, 0.18250146508216858, -0.06207924336194992, -0.14590369164943695, 0.1451481282711029, 0.32904502749443054, -0.11268756538629532, -0.43359506130218506, -0.031894322484731674, -0.02700790949165821, -0.02289380319416523, 0.04345575347542763, -0.13311970233917236, 0.005844712257385254, -0.005676927976310253], [0.4316524267196655, 0.07437392324209213, 0.025322888046503067, -0.21474583446979523, 0.06293973326683044, -0.16345258057117462, 0.20742538571357727, -0.17146284878253937, 0.10811232775449753, 0.43909433484077454, 0.10389143973588943, 0.283195436000824, -0.07669927924871445, 0.1793176680803299, 0.06324991583824158, -0.0748131275177002, -0.14966635406017303, -0.12704306840896606, -0.0013188960729166865, -0.05692918971180916, 0.00802726112306118, 0.041627317667007446, -0.33412474393844604, 0.10735154896974564], [0.18769322335720062, 0.17351923882961273, 0.04557734727859497, 0.024911552667617798, 0.14611145853996277, -0.09877707064151764, -0.0036400065291672945, 0.1631087362766266, -0.11027038097381592, -0.19039027392864227, -0.09183153510093689, 0.10895217210054398, 0.06873004138469696, -0.3059491515159607, 0.24517951905727386, -0.6134357452392578, 0.06724399328231812, -0.16354776918888092, 0.04577368125319481, 0.07011349499225616, -0.020862732082605362, -0.046377718448638916, -0.06825702637434006, 0.18185485899448395], [0.01803847961127758, 0.40991780161857605, -0.04659852012991905, 0.1483849436044693, 0.05017724260687828, -0.342024564743042, 0.08349974453449249, 0.3406932055950165, -0.12379445135593414, 0.10695213824510574, 0.12253393977880478, 0.2514408826828003, 0.05534068122506142, 0.39416778087615967, -0.25181061029434204, -0.2915734052658081, 0.09457946568727493, -0.008577580563724041, -0.21014493703842163, -0.11369270831346512, 0.20996206998825073, 0.03547121211886406, 0.31515488028526306, 0.046570390462875366], [-0.14564093947410583, -0.1373405158519745, 0.07119791209697723, 0.050233177840709686, 0.2437407225370407, -0.22291651368141174, 0.125312939286232, 0.042577192187309265, -0.03320474922657013, 0.10838522017002106, -0.35535362362861633, 0.06578882038593292, -0.2697156071662903, 0.07745577394962311, -0.045909058302640915, -0.2671051025390625, 0.20939840376377106, 0.21072269976139069, 0.05579901859164238, 0.2061508595943451, 0.0378006212413311, 0.027673812583088875, -0.17192275822162628, 0.014935179613530636], [-0.12362416088581085, 0.0735316276550293, -0.10892405360937119, -0.0972161516547203, 0.023848744109272957, 0.14953486621379852, 0.10958217829465866, -0.14012908935546875, 0.13368940353393555, 0.3607541024684906, -0.16669917106628418, -0.47879987955093384, -0.2100566178560257, -0.36060163378715515, -0.1842600405216217, 0.41111934185028076, 0.04628828540444374, -0.24910202622413635, 0.003825352992862463, 0.14897873997688293, 0.10021262615919113, 0.22250047326087952, 0.024660713970661163, 0.08116687834262848], [0.08691856265068054, 0.006078747566789389, -0.07094316929578781, 0.09711316972970963, -0.05343041196465492, -0.29757773876190186, -0.11084280908107758, -0.4869101941585541, -0.24478761851787567, 0.17253516614437103, -0.3361630439758301, 0.1231779232621193, -0.4290953278541565, 0.08680632710456848, 0.3272930383682251, 0.11841952800750732, 0.1204928606748581, -0.08654972910881042, 0.04035982862114906, -0.11456706374883652, 0.2145368903875351, -0.06328225135803223, 0.0024075021501630545, 0.4399077594280243], [-0.1227501705288887, -0.001317145535722375, 0.44982263445854187, 0.23934322595596313, -0.035792868584394455, -0.1348986178636551, -0.058139897882938385, -0.17651841044425964, -0.008785415440797806, 0.043909817934036255, 0.018026649951934814, 0.08825258165597916, -0.22961732745170593, 0.40224942564964294, 0.017397155985236168, -0.19446375966072083, 0.17335723340511322, -0.26666969060897827, -0.11483505368232727, -0.048078715801239014, 0.18056322634220123, -0.07414311915636063, -0.1351952850818634, -0.2798428237438202], [0.015302791260182858, -0.19038023054599762, 0.011529632844030857, -0.026872456073760986, -0.18148480355739594, -0.2313299924135208, -0.12948742508888245, 0.007496905513107777, -0.20462734997272491, 0.12909851968288422, 0.11899808049201965, 0.0026620638091117144, -0.37408801913261414, -0.13570691645145416, 0.30997228622436523, -0.039644625037908554, 0.2588675022125244, -0.0378379262983799, 0.21864543855190277, -0.26312118768692017, 0.24080747365951538, 0.17661981284618378, -0.06218258664011955, 0.03337397053837776], [-0.05741073191165924, -0.3680371642112732, -0.10640755295753479, -0.12750986218452454, 0.12934091687202454, -0.2988239526748657, -0.29839980602264404, 0.09782540053129196, 0.02278732694685459, 0.15393951535224915, -0.1140730232000351, -0.1646522581577301, -0.2325737476348877, -0.29845425486564636, -0.2953258156776428, 0.3194025158882141, -0.1999627947807312, -0.2020755261182785, 0.28856486082077026, 0.18661381304264069, 0.09334509819746017, -0.09361530095338821, 0.009830747731029987, 0.023849189281463623], [-0.10756680369377136, 0.2301764190196991, 0.19289787113666534, 6.573061546077952e-05, 0.07429854571819305, 0.10311984270811081, 0.0018239787314087152, -0.3180832266807556, 0.22487354278564453, 0.02961304597556591, -0.3036547303199768, -0.3049219846725464, 0.44366973638534546, -0.13273285329341888, 0.09802088886499405, -0.2010471224784851, -0.198465958237648, -0.35704687237739563, 0.2397799789905548, -0.510697603225708, 0.08721024543046951, -0.11409135162830353, 0.13195085525512695, 0.3320140540599823], [0.22527320683002472, -0.10386822372674942, 0.06925316900014877, -0.29274824261665344, 0.21962925791740417, 0.012799525633454323, 0.0003601323696784675, 0.04946321249008179, -0.030145104974508286, -0.37880751490592957, -0.18696601688861847, -0.11543610692024231, 0.10483022034168243, 0.42768746614456177, 0.19137993454933167, 0.1100533977150917, 0.07780548930168152, -0.4735868573188782, 0.3534950315952301, 0.01237454079091549, 0.2499670535326004, -0.21144188940525055, 0.03168533369898796, -0.34218403697013855], [0.1357755959033966, -0.19644111394882202, 0.14766329526901245, 0.04626303166151047, 0.07094638049602509, 0.06091645732522011, 0.028078192844986916, 0.2521592676639557, 0.26475825905799866, 0.07446306943893433, 0.1510542780160904, 0.07828956842422485, 0.12834754586219788, 0.012437156401574612, -0.192050039768219, -0.24959324300289154, -0.30038776993751526, -0.012993554584681988, 0.06407739222049713, -0.02804550714790821, 0.13030196726322174, -0.21517160534858704, 0.08323262631893158, 0.3088410198688507], [0.19744044542312622, -0.0010268953628838062, -0.2420467883348465, -0.0313948318362236, 0.35591837763786316, 0.18157848715782166, 0.05140659585595131, 0.047909077256917953, 0.3076220154762268, -0.19725076854228973, -0.04957817494869232, 0.05158326029777527, 0.0746167004108429, -0.00022649059246759862, 0.05858294293284416, -0.1514565795660019, 0.1279899775981903, -0.06225525960326195, 0.08096103370189667, 0.08928491175174713, -0.3744102120399475, 0.3967280387878418, -0.019630830734968185, -0.14821003377437592], [-0.07111868262290955, -0.15742193162441254, 0.20138557255268097, 0.4727399945259094, -0.3811659514904022, 0.19124674797058105, -0.09647231549024582, -0.04365217313170433, -0.05496343970298767, -0.05727362260222435, 0.14614884555339813, -0.12945465743541718, 0.09196696430444717, 0.11759987473487854, 0.11107421666383743, 0.3859989047050476, -0.2595027685165405, -0.13859282433986664, -0.178873211145401, 0.20556971430778503, -0.12105439603328705, 0.12017456442117691, -0.5454698801040649, 0.014495356008410454], [0.05555051565170288, 0.1500391662120819, -0.17700843513011932, -0.3535158038139343, -0.44448214769363403, 0.07044434547424316, -0.15024037659168243, -0.05397891625761986, -0.2629129886627197, -0.23048615455627441, 0.4410253167152405, -0.19208838045597076, 0.47288262844085693, 0.21489611268043518, 0.2548213601112366, -0.03105883114039898, -0.16971518099308014, 0.17932963371276855, 0.17619675397872925, 0.1216036006808281, 0.03347725048661232, 0.215036541223526, -0.1186334639787674, -0.05435403808951378], [0.17820601165294647, -0.12086524814367294, 0.01254495233297348, -0.025225209072232246, -0.07606714218854904, 0.07485051453113556, -0.18416337668895721, 0.11121427267789841, 0.1258706897497177, 0.08187711238861084, 0.2032092958688736, -0.08773819357156754, 0.13557864725589752, 0.10975784063339233, 0.18675489723682404, -0.14471548795700073, 0.01391608826816082, -0.027809269726276398, -0.0018602124182507396, 0.13285310566425323, -0.13967031240463257, -0.15003181993961334, -0.13050322234630585, 0.3058203160762787], [-0.15695172548294067, -0.20237089693546295, 0.08344835788011551, 0.053729597479104996, -0.08364369720220566, -0.2432616651058197, -0.2248784899711609, 0.053713489323854446, 0.14655017852783203, -0.10194014012813568, -0.10807479918003082, 0.03876087814569473, -0.0078402329236269, -0.05738338083028793, 0.08101288974285126, -0.18352991342544556, 0.1280195713043213, -0.32110118865966797, -0.023052187636494637, 0.17525096237659454, -0.09707261621952057, -0.004420737735927105, 0.04217591881752014, 0.32000142335891724], [-0.045296669006347656, 0.3061736524105072, -0.042902857065200806, 0.07420866191387177, 0.08692384511232376, -0.2575095295906067, 0.17670434713363647, -0.15569454431533813, -0.09833298623561859, 0.1069680005311966, 0.20713399350643158, 0.2120049148797989, -0.19296908378601074, 0.07284989207983017, -0.32628628611564636, 0.12280892580747604, 0.09795915335416794, 0.3819272518157959, -0.357124924659729, 0.13992591202259064, 0.2903359830379486, -0.20678693056106567, -0.05675403028726578, -0.0007654379587620497], [-0.20456463098526, 0.12057491391897202, 0.25621679425239563, 0.2703033685684204, -0.06606856733560562, 0.29163652658462524, 0.14702214300632477, 0.12810522317886353, -0.13834257423877716, -0.262992799282074, 0.21139125525951385, 0.4078579246997833, -0.1860954463481903, -0.004010136239230633, -0.14673370122909546, 0.01719646342098713, -0.1640806496143341, 0.13100092113018036, 0.21543781459331512, -0.428922563791275, -0.1645074337720871, -0.12375444173812866, 0.14750303328037262, 0.04164746031165123], [0.1043790802359581, 0.1790091097354889, 0.030702363699674606, 0.19985607266426086, -0.1802794337272644, 0.3339882791042328, -0.41407400369644165, -0.05299834534525871, -0.12215019762516022, -0.10007849335670471, 0.02587384171783924, -0.3543431758880615, -0.10445522516965866, 0.378949373960495, -0.2961772084236145, -0.10060560703277588, 0.015036998316645622, -0.12198226153850555, -0.24647438526153564, 0.10436500608921051, 0.12503457069396973, 0.020357949659228325, -0.14766782522201538, -0.08873371034860611], [0.1074032336473465, -0.18308492004871368, 0.16565850377082825, -0.3543732166290283, -0.10709874331951141, -0.11494298279285431, 0.14690493047237396, 0.04292307049036026, 0.18498530983924866, 0.366305947303772, 0.1496351808309555, -0.021309498697519302, -0.04059937223792076, 0.32284414768218994, 0.14047116041183472, -0.13490767776966095, -0.16421028971672058, -0.3378990888595581, 0.05747988447546959, 0.3189484775066376, 0.09408658742904663, -0.2287774384021759, -0.0714457631111145, -0.18801791965961456], [0.04016194865107536, 0.00452835438773036, 0.028842026367783546, -0.13053125143051147, -0.047340478748083115, -0.08836083859205246, 0.029818737879395485, 0.053151026368141174, 0.1128203421831131, 0.18108095228672028, -0.11486819386482239, 0.13031791150569916, -0.09050007164478302, 0.10406085103750229, 0.21015048027038574, 0.07967211306095123, 0.03997694328427315, 0.14665928483009338, -0.2382538765668869, 0.09645987302064896, -0.26047420501708984, 0.02881663851439953, -0.11846421658992767, -0.23201127350330353], [0.03327391296625137, -0.10637277364730835, -0.07781132310628891, 0.162771075963974, 0.02945365384221077, -0.183460995554924, -0.01544936653226614, -0.2505951523780823, -0.014115219935774803, -0.31155478954315186, -0.10979443788528442, 0.02034059166908264, -0.24350087344646454, 0.11652648448944092, 0.26130566000938416, 0.1823335736989975, -0.47285616397857666, 0.012636372819542885, 0.2708744406700134, 0.02917044423520565, -0.009747709147632122, 0.012106859125196934, 0.009520377032458782, -0.15248361229896545]], [[0.0589485839009285, 0.13952279090881348, 0.16587352752685547, -0.1450180560350418, -0.022688496857881546, -0.023769021034240723, 0.0015632195863872766, -0.052315853536129, 0.2322680503129959, 0.008217522874474525, 0.011039018630981445, 0.18833352625370026, -0.06306717544794083, -0.1316153109073639, 0.15436382591724396, 0.3062348961830139, 0.2291175276041031, -0.11953331530094147, 0.07853112369775772, 0.04336382448673248, -0.0400460921227932, -0.2709110975265503, -0.07187330722808838, 0.023668505251407623, -0.007742821238934994, 0.38117915391921997, -0.19995564222335815, 0.09767722338438034, -0.19556118547916412, -0.08073259890079498, -0.09676322340965271, 0.1805315613746643], [-0.2006399929523468, -0.15728642046451569, -0.19006706774234772, -0.14452961087226868, -0.17374210059642792, 0.1449378877878189, -0.19668276607990265, -0.3040428161621094, 0.25391826033592224, -0.09889525920152664, -0.06585535407066345, 0.012148858979344368, 0.1026059165596962, 0.06454739719629288, -0.24643278121948242, 0.2043725997209549, 0.28208911418914795, -0.3499599099159241, -0.255267471075058, -0.263277143239975, -0.18967460095882416, -0.15717551112174988, -0.0387083999812603, 0.18017150461673737, -0.1993725746870041, 0.14403502643108368, 0.0120543846860528, -0.0017943975981324911, 0.05705636739730835, -0.17915160953998566, 0.2173783928155899, -0.10720284283161163], [0.012237568385899067, 0.3221619427204132, 0.17098306119441986, -0.14495253562927246, 0.19770264625549316, -0.09103170037269592, 0.05155743286013603, -0.03862535208463669, -0.09107455611228943, 0.013057864271104336, 0.02955479733645916, -0.005770187359303236, -0.014886938035488129, 0.1472397744655609, 0.1625160574913025, 0.032898712903261185, 0.1384986937046051, -0.049537543207407, -0.25157779455184937, -0.1023525595664978, -0.06951425969600677, -0.1968231052160263, -0.16974616050720215, -0.09720125794410706, 0.26400163769721985, -0.1874951273202896, -0.09463629126548767, -0.04788465425372124, -0.11631669104099274, 0.07008655369281769, 0.09840507060289383, -0.034205060452222824], [0.10187868773937225, 0.0948886051774025, -0.0387406051158905, 0.09991032630205154, 0.16622105240821838, -0.22602695226669312, -0.0837220549583435, 0.17777664959430695, -0.18067677319049835, -0.11517317593097687, -0.19728778302669525, -0.02190731093287468, 0.20640045404434204, -0.20284077525138855, -0.048142582178115845, -0.13050155341625214, 0.42798203229904175, -0.07153043150901794, 0.1300792545080185, -0.1336156576871872, 0.2223416566848755, -0.041507430374622345, 0.19315358996391296, 0.08033087849617004, 0.04906314238905907, 0.07604996860027313, -0.061533696949481964, 0.16180875897407532, -0.05155687406659126, -0.005836565978825092, -0.23192092776298523, 0.18014122545719147], [0.0034096548333764076, -0.2411780208349228, 0.10902225226163864, 0.04015340283513069, 0.14055189490318298, -0.1901087760925293, 0.35293954610824585, 0.1567516028881073, 0.08302667737007141, 0.11331120878458023, 0.0766688734292984, -0.15284478664398193, -0.145783469080925, -0.5119177103042603, -0.23554092645645142, -0.0356898233294487, 0.09557362645864487, -0.18118423223495483, 0.031301237642765045, 0.038089703768491745, -0.14402051270008087, 0.034912750124931335, 0.501862645149231, 0.11318249255418777, -0.17362816631793976, -0.018087012693285942, -0.07209897041320801, -0.09274854511022568, 0.20141002535820007, -0.2880527079105377, 0.2987789511680603, 0.043819960206747055], [0.44487491250038147, -0.07592712342739105, -0.03653712198138237, 0.01649840548634529, 0.12937010824680328, -0.43679919838905334, 0.09528728574514389, 0.09734848141670227, 0.10344363003969193, -0.15638692677021027, -0.40763136744499207, 0.06089730188250542, -0.017789050936698914, 0.08790472894906998, 0.08789059519767761, 0.06806090474128723, -0.17422248423099518, 0.23828575015068054, 0.259099543094635, 0.18783512711524963, -0.07741638273000717, 0.10856392234563828, 0.09248968958854675, 0.20457346737384796, -0.11175942420959473, -0.3143029510974884, 0.04682327061891556, -0.04741625487804413, 0.0196071770042181, -0.1309994012117386, -0.04598025977611542, 0.09159893542528152], [-0.06236841157078743, -0.0818239375948906, -0.2131548523902893, -0.09066813439130783, -0.1894151121377945, 0.051614925265312195, -0.05660013481974602, 0.11097927391529083, -0.14658066630363464, 0.11083967983722687, 0.21789994835853577, -0.17487317323684692, 0.3240293860435486, -0.047642022371292114, -0.11517215520143509, -0.10134599357843399, 0.004793119616806507, 0.14170882105827332, -0.06523498892784119, 0.09415247291326523, 0.104294054210186, 0.06088696047663689, -0.11931397020816803, -0.22985303401947021, 0.14679943025112152, -0.21359479427337646, -0.10190091282129288, -0.18738141655921936, -0.1194382980465889, -0.24631983041763306, 0.00442168116569519, -0.10720676183700562], [-0.10407400131225586, 0.23584601283073425, 0.20260757207870483, 0.2923126816749573, -0.22177106142044067, 0.20418380200862885, 0.15550865232944489, 0.02156834304332733, 0.1733945906162262, -0.022378742694854736, -0.11133410781621933, 0.43095749616622925, 0.10861848294734955, -0.26297590136528015, 0.10157601535320282, -0.19537727534770966, 0.03362990915775299, 0.03781752660870552, 0.03841738402843475, 0.21167173981666565, -0.16659441590309143, 0.03109169565141201, -0.4707257151603699, 0.1160295382142067, 0.2448430359363556, -0.01894976943731308, 0.20672141015529633, -0.23128795623779297, -0.22346946597099304, -0.03839657083153725, 0.19015949964523315, -0.0633968859910965], [-0.003252586582675576, 0.3904494643211365, 0.1008576825261116, -0.010235466063022614, -0.006400568876415491, -0.13024209439754486, 0.12739498913288116, -0.07536455988883972, -0.02948479726910591, -0.15604811906814575, 0.020196793600916862, 0.10514799505472183, 0.16189269721508026, 0.06125063821673393, 0.08671373128890991, 0.3611006736755371, -0.006090189330279827, -0.017205385491251945, 0.0035504139959812164, 0.08941981196403503, -0.20128850638866425, -0.014329428784549236, 0.30231529474258423, 0.21557936072349548, 0.2299366295337677, 0.08613750338554382, -0.2001085728406906, -0.17369388043880463, 0.17884336411952972, -0.14983409643173218, 0.03662560135126114, -0.32975032925605774], [0.14966177940368652, -0.15261682868003845, 0.26686376333236694, 0.14302629232406616, -0.07404840737581253, -0.33305874466896057, 0.10672342032194138, 0.07719820737838745, -0.2826501131057739, -0.20754766464233398, -0.15068762004375458, -0.04001669958233833, 0.17351363599300385, 0.5770010352134705, 0.07211653888225555, -0.2539081573486328, -0.05067836865782738, 0.20700497925281525, 0.034577567130327225, 0.28153878450393677, 0.06065038591623306, -0.029954539611935616, -0.13097643852233887, 0.08697421103715897, 0.10607204586267471, 0.11658637225627899, 0.1875080168247223, 0.11246023327112198, -0.07755548506975174, -0.12143265455961227, 0.1466056853532791, -0.11628260463476181], [0.061038535088300705, -0.26605305075645447, 0.04090671241283417, -0.07414626330137253, 0.06575023382902145, -0.009707041084766388, -0.22394959628582, 0.002611639676615596, 0.20960809290409088, 0.07295917719602585, -0.1688828468322754, -0.0031111598946154118, -0.08938281983137131, 0.18401344120502472, -0.260265588760376, 0.07953321933746338, -0.03353836387395859, -0.04910646751523018, 0.08032342046499252, -0.06052190810441971, 0.09847990423440933, -0.1782311201095581, 0.0020543450955301523, -0.02424801141023636, 0.1949537992477417, 0.15783639252185822, 0.1300230622291565, -0.23770517110824585, -0.15958482027053833, -0.2052166759967804, -0.05042549595236778, -0.03198772668838501], [-0.0778745785355568, -0.16820764541625977, -0.3285350203514099, 0.1523207128047943, 0.009789764881134033, -0.014490093104541302, 0.04123665392398834, 0.014904899522662163, 0.015750177204608917, -0.035725999623537064, 0.1393609195947647, 0.04496772214770317, -0.02456466667354107, 0.012525287456810474, 0.04775690287351608, 0.0014757044846192002, -0.011200036853551865, -0.05732441693544388, -0.28020328283309937, 0.07180121541023254, -0.07429605722427368, -0.26526960730552673, -0.2734321355819702, -0.024824263527989388, 0.2017732411623001, -0.21462129056453705, -0.03545796871185303, 0.025844339281320572, 0.05579894036054611, 0.2800790071487427, 0.3037843704223633, 0.19095440208911896], [0.012966890819370747, -0.021639442071318626, 0.12173417210578918, 0.02842983789741993, 0.017445266246795654, -0.15296195447444916, -0.12475229799747467, 0.12695550918579102, -0.13700030744075775, 0.21060289442539215, 0.07807856053113937, -0.1484081894159317, -0.40084102749824524, 0.5875144004821777, 0.043183982372283936, 0.07822121679782867, 0.031709183007478714, -0.21545961499214172, 0.15639148652553558, 0.020225239917635918, -0.022378915920853615, -0.050885897129774094, -0.09644104540348053, 0.06023721396923065, 0.10682807862758636, -0.13043244183063507, -0.09655420482158661, -0.2841563820838928, 0.23344488441944122, -0.12309915572404861, 0.6306720972061157, -0.21679969131946564], [0.1028054729104042, -0.2623492181301117, -0.13366225361824036, -0.297166645526886, 0.14837144315242767, -0.06656041741371155, 0.07905896008014679, 0.30002591013908386, -0.008352382108569145, 0.29326707124710083, 0.20972025394439697, -0.16682499647140503, 0.011206372641026974, -0.1696881651878357, -0.22127290070056915, 0.07346092164516449, -0.3724479377269745, 0.06778773665428162, 0.31198665499687195, -0.14553655683994293, -0.07915603369474411, -0.13797412812709808, 0.07495982944965363, 0.05243818834424019, 0.0953158512711525, -0.07683220505714417, 0.022658996284008026, 0.05136463791131973, 0.0458916574716568, 0.050682127475738525, -0.15212729573249817, -0.07689926028251648], [-0.06241929158568382, 0.227121040225029, -0.06945931166410446, 0.08758919686079025, -0.07006080448627472, 0.2833002805709839, -0.15496525168418884, 0.1724204123020172, -0.10540354251861572, -0.24304641783237457, -0.22459687292575836, -0.0022805132903158665, -0.1928236484527588, -0.026268064975738525, 0.38216155767440796, -0.13931800425052643, -0.08198725432157516, -0.08277995139360428, -0.013588476926088333, -0.20841611921787262, 0.1989395171403885, -0.35819146037101746, -0.3447244465351105, -0.06395447999238968, -0.0010152787435799837, -0.00785738229751587, -0.20273040235042572, -0.12890219688415527, -0.09046074748039246, 0.1330559402704239, -0.1260366141796112, -0.014888509176671505], [0.17849783599376678, -0.22371722757816315, 0.1430242359638214, 0.3331190049648285, 0.20345844328403473, -0.3267337679862976, 0.009672428481280804, -0.102801114320755, -0.09522613137960434, -0.11316704750061035, -0.20859545469284058, 0.256328821182251, 0.30607667565345764, -0.06486986577510834, 0.05161292850971222, -0.04597332701086998, -0.22101932764053345, 0.4117327332496643, 0.08700673282146454, 0.050513625144958496, 0.12416165322065353, -0.1372406780719757, 0.1373167484998703, -0.08236385136842728, 0.13504581153392792, -0.1416950225830078, 0.11602459102869034, 0.2526929974555969, 0.07594463229179382, 0.14580906927585602, 0.06805316358804703, 0.12972187995910645]], [[-0.2798301577568054, 0.46049362421035767, -0.209636852145195, -0.21846236288547516, -0.23249955475330353, 0.20526868104934692, -0.4073057770729065, -0.02953222766518593, 0.27696818113327026, -0.5559544563293457, 0.13063231110572815, 0.3989890515804291, -0.3797661066055298, 0.13789355754852295, 0.027920547872781754, -0.39542263746261597], [-0.29549771547317505, -0.30932819843292236, 0.2311544269323349, -0.2938341498374939, 0.36608126759529114, 0.1160530224442482, -0.47255316376686096, 0.18653330206871033, 0.14098283648490906, 0.003924591466784477, 0.12758700549602509, -0.08288846164941788, -0.07493189722299576, 0.3293861448764801, 0.2372967153787613, -0.1695929914712906], [0.3313175141811371, 0.012031987309455872, -0.3022691011428833, 0.33642473816871643, 0.32566356658935547, 0.1351979672908783, 0.33493277430534363, -0.08312545716762543, -0.25226008892059326, 0.14974164962768555, -0.2304573804140091, 0.03994018957018852, -0.10791416466236115, 0.05573967471718788, -0.2650087773799896, -0.22634662687778473], [0.3765369653701782, -0.0930979996919632, 0.08641979098320007, -0.3305385708808899, 0.1479002833366394, -0.11154007166624069, -0.2964048385620117, -0.27607113122940063, -0.5356505513191223, -0.11085083335638046, 0.30786824226379395, -0.3365027904510498, -0.032254308462142944, 0.06023629382252693, -0.27119529247283936, -0.6193893551826477], [0.20591618120670319, -0.11105936020612717, 0.33982253074645996, -0.09852983057498932, 0.1765924096107483, -0.01690199412405491, -0.1353747844696045, 0.010977009311318398, 0.0478830486536026, -0.3743821382522583, -0.37231138348579407, 0.08727706223726273, 0.07130564004182816, -0.12194178253412247, -0.23269487917423248, 0.24089960753917694], [0.14685678482055664, -0.06556922942399979, -0.25394406914711, 0.1426672488451004, 0.19229453802108765, -0.259297251701355, 0.23181243240833282, -0.3455953896045685, -0.37117886543273926, 0.02268998883664608, 0.02836163341999054, -0.29021188616752625, -0.06061811372637749, -0.07221317291259766, -0.2686030864715576, 0.41232720017433167], [0.1313498169183731, 0.14579340815544128, -0.04267359897494316, -0.2946297228336334, -0.3349335491657257, -0.13961869478225708, -0.10167676210403442, 0.25315508246421814, 0.3409954607486725, 0.07073391228914261, 0.23508547246456146, 0.01774766854941845, -0.12442682683467865, -0.024539483711123466, 0.03958296775817871, -0.010056623257696629], [-0.35825586318969727, 0.3602406680583954, -0.1420017033815384, 0.12098506093025208, -0.011549125425517559, -0.06765443086624146, -0.19353623688220978, -0.06054640933871269, -0.6116514205932617, -0.15796387195587158, 0.25848880410194397, -0.30982184410095215, -0.1938873678445816, -0.23687472939491272, -0.29201099276542664, 0.06860250234603882]], [[-0.2994779050350189, 0.056760355830192566, -0.07999014854431152, -0.19135385751724243, 0.43253129720687866, -0.14107441902160645, 0.2842988669872284, -0.16630804538726807], [0.6724480986595154, 0.4101346731185913, -0.2569187879562378, -0.04423762485384941, -0.25132986903190613, -0.31523486971855164, -0.10820689797401428, -0.21071584522724152]]], "brain_biases": [[-0.016767553985118866, 0.06293287873268127, -0.04267178103327751, -0.06173556670546532, -0.05350702255964279, 0.16677434742450714, 0.17681218683719635, -0.24734240770339966, -0.19252543151378632, 0.0027733223978430033, 0.07148028910160065, -0.06341782957315445, -0.12502849102020264, -0.06944269686937332, 0.020482519641518593, 0.026891881600022316, 0.0175248421728611, -0.10778090357780457, 0.030261028558015823, -0.008276660926640034, -0.09701649844646454, 0.16592828929424286, 0.04735125973820686, 0.0012410918716341257, -0.0720357596874237, -0.07048268616199493, 0.17762543261051178, -0.098647840321064, 0.01062845904380083, -0.03539595752954483, 0.10771332681179047, -0.021732421591877937], [-0.005875076167285442, -0.08164644241333008, 0.047002341598272324, -0.051823850721120834, -0.04757767170667648, -0.09694761782884598, 0.0438896045088768, -0.08139371126890182, -0.029066618531942368, -0.02787228301167488, -0.06291872262954712, 0.10270790010690689, -0.05304660275578499, -0.04774080216884613, 0.04422176629304886, -0.04436701163649559], [0.02282603271305561, 0.005816819611936808, -0.061081867665052414, 0.07978148013353348, -0.0016923421062529087, -0.12132222205400467, -0.12371530383825302, -0.13337062299251556], [-0.11573806405067444, -0.01223786361515522]], "sensor_retina_count": 24, "sensor_vision_radius": 300.0, "sensor_fov_degrees": 180.0, "sensor_skip": 2, "sensor_see_food": true, "sensor_see_bacteria": false, "sensor_see_predators": false, "locomotion_max_speed": 300.0, "locomotion_max_turn": 3.141592653589793, "energy_loss_idle": 2.0, "energy_loss_move": 5.0, "energy_death_energy": 0.0, "energy_split_energy": 150.0, "last_brain_output": [-0.13927754759788513, 0.2171783745288849], "last_brain_activations": [[-0.016765983775258064, 0.06284993141889572, -0.0426458977162838, -0.06165725737810135, -0.05345601588487625, 0.1652451604604721, 0.1749924123287201, -0.24241885542869568, -0.19018146395683289, 0.00277331518009305, 0.07135879993438721, -0.0633329525589943, -0.12438105046749115, -0.06933128833770752, 0.020479654893279076, 0.02688540145754814, 0.01752304844558239, -0.10736548155546188, 0.030251795426011086, -0.008276471868157387, -0.09671325981616974, 0.16442209482192993, 0.04731590300798416, 0.0012410911731421947, -0.07191141694784164, -0.07036620378494263, 0.17578063905239105, -0.0983290821313858, 0.010628058575093746, -0.03538118302822113, 0.10729867964982986, -0.0217289999127388], [-0.12202326953411102, -0.002486171666532755, 0.034197863191366196, -0.21119995415210724, 0.081212118268013, -0.19677966833114624, 0.040369048714637756, -0.03202023729681969, 0.008694113232195377, -0.14569725096225739, -0.18612487614154816, 0.06430027633905411, 0.02257624641060829, -0.11653256416320801, -0.05478676036000252, -0.24632036685943604], [0.17420892417430878, 0.0546702966094017, -0.0839131772518158, 0.22593261301517487, 0.11631131917238235, -0.1984362155199051, -0.1399478167295456, -0.14151102304458618], [-0.13927754759788513, 0.2171783745288849]]}, {"type": "bacteria", "x": 4218.078347254718, "y": 1999.8018304812715, "r": 9.0, "angle": -1.8253680197931497, "vx": -40.93969201961685, "vy": -157.32879579596704, "energy": 0.001, "age": 141.06666666667107, "brain_sizes": [24, 32, 16, 8, 2], "brain_version": 0, "brain_weights": [[[0.007022499106824398, -0.1365799605846405, -0.0567256323993206, -0.07618344575166702, 0.18672630190849304, 0.11069833487272263, -0.2175270915031433, 0.07016999274492264, -0.10183935612440109, 0.17888318002223969, -0.15463314950466156, -0.3378581702709198, -0.03045574575662613, -0.3951977491378784, 0.0877738669514656, 0.17886394262313843, 0.052554626017808914, -0.032832562923431396, -0.15579240024089813, -0.02741977386176586, 0.09103614836931229, -0.37203627824783325, -0.15150532126426697, 0.10929292440414429], [-0.04987194761633873, 0.16376958787441254, -0.03082430362701416, 0.06433068215847015, 0.049824174493551254, 0.00025247130542993546, -0.1621324121952057, -0.2346426248550415, -0.09573429077863693, 0.035952337086200714, 0.25156983733177185, -0.10491599142551422, -0.14523808658123016, 0.24812465906143188, -0.04475657269358635, -0.0233142152428627, -0.16041328012943268, 0.05871355161070824, 0.6164577007293701, -0.3917759358882904, -0.2829914093017578, 0.18846595287322998, -0.07557076960802078, -0.22218772768974304], [-0.11851341277360916, 0.0899585708975792, 0.02881627529859543, 0.13092784583568573, -0.24382396042346954, 0.3610103130340576, 0.040710002183914185, 0.09282944351434708, 0.2958201766014099, -0.20159406960010529, -0.004849553573876619, -0.20438002049922943, 0.024385154247283936, -0.21297232806682587, -0.050113096833229065, -0.053055278956890106, 0.002560741500928998, 0.20907676219940186, 0.11787767708301544, 0.021407756954431534, -0.3395921289920807, 0.1924082189798355, -0.04021792858839035, 0.13780564069747925], [0.32171696424484253, -0.14447352290153503, -0.4640043079853058, -0.06777042150497437, -0.04144421964883804, 0.15398140251636505, -0.15756765007972717, 0.20526306331157684, 0.47612208127975464, -0.17058171331882477, 0.0470598042011261, -0.1193520650267601, 0.06060992553830147, -0.2129613757133484, -0.23907588422298431, -0.03389132395386696, 0.09611912816762924, -0.3873581290245056, -0.0695948451757431, 0.039630502462387085, 0.10141376405954361, 0.007818998768925667, -0.13484136760234833, -0.010308844037353992], [-0.24207496643066406, -0.44633349776268005, -0.6785848140716553, 0.037595245987176895, -0.213291198015213, -0.016120411455631256, 0.0021597621962428093, -0.033464062958955765, 0.04397835582494736, -0.3117966055870056, 0.24085967242717743, -0.06496356427669525, 0.13271553814411163, 0.4560168981552124, 0.05868816375732422, -0.12182202190160751, -0.1620432734489441, 0.22215917706489563, 0.12684029340744019, -0.2715952396392822, 0.046593550592660904, -0.02295004390180111, 0.06698112934827805, -0.20381814241409302], [-0.010612634010612965, -0.29109683632850647, 0.045817308127880096, 0.13452523946762085, 0.4374922811985016, 0.08552469313144684, -0.009788721799850464, 0.07479239255189896, 0.19002476334571838, 0.052023351192474365, 0.01731329970061779, 0.05037446320056915, -0.07549659162759781, 0.06450977176427841, 0.11159498989582062, 0.24118788540363312, -0.08333402872085571, -0.08698064088821411, -0.03856975585222244, 0.2837013602256775, -0.03112555854022503, 0.06520102918148041, 0.03647572174668312, 0.1713762879371643], [-0.09446153044700623, -0.19217005372047424, -0.2219698280096054, 0.28627654910087585, 0.11332333087921143, -0.30642518401145935, -0.05112148076295853, 0.10668469965457916, -0.12663006782531738, 0.24766571819782257, 0.04987487196922302, 0.37842732667922974, -0.40720364451408386, 0.06852748245000839, 0.21196824312210083, -0.30199459195137024, 0.03357461467385292, 0.2618599534034729, -0.08273544162511826, -0.19512268900871277, 0.1823405772447586, -0.3603321313858032, -0.04191644862294197, 0.09100694954395294], [-0.2336723804473877, 0.013420683331787586, -0.2286977767944336, -0.12977023422718048, 0.1607416719198227, -0.021186506375670433, 0.0412842333316803, -0.2739159166812897, -0.3193931579589844, 0.2783116102218628, -0.3171282112598419, -0.09549298882484436, -0.045852068811655045, -0.03186463937163353, 0.03738955408334732, -0.3402881324291229, 0.22506220638751984, 0.18150025606155396, -0.1530991792678833, -0.04056774079799652, -0.026941506192088127, 0.12546896934509277, 0.18163947761058807, 0.12229661643505096], [-0.14949841797351837, -0.08836467564105988, -0.0707191452383995, 0.16954374313354492, 0.3260616958141327, 0.08935753256082535, 0.0068750688806176186, 0.15951292216777802, -0.07511268556118011, -0.1309564709663391, -0.2326555699110031, -0.1898382008075714, -0.2313990592956543, -0.11815978586673737, 0.055092282593250275, -0.2859417498111725, 0.20145203173160553, 0.31422051787376404, -0.020939260721206665, -0.40355709195137024, 0.2213013619184494, 0.06574415415525436, -0.20391060411930084, 0.12844084203243256], [0.016888827085494995, 0.2557307481765747, 0.1650846302509308, -0.2265273630619049, -0.10459689050912857, -0.15111689269542694, 0.10073289275169373, 0.07540152966976166, 0.16573284566402435, 0.09355191886425018, -0.10735202580690384, -0.20456063747406006, 0.1838599592447281, 0.04270937293767929, 0.12515710294246674, 0.2442062348127365, 0.09762197732925415, -0.39827942848205566, -0.1672641783952713, -0.08004672080278397, -0.22208993136882782, 0.06325604021549225, -0.2729138135910034, -0.2628955543041229], [0.2938237488269806, -0.19519144296646118, 0.24336029589176178, 0.0882243886590004, -0.03310162201523781, 0.165573388338089, -0.19675128161907196, 0.11141528934240341, 0.08408533781766891, 0.18461625277996063, 0.14029885828495026, -0.2265249341726303, 0.3713279068470001, 0.5585976243019104, 0.010147501714527607, -0.1028873473405838, 0.010478459298610687, 0.010873937979340553, -0.18203391134738922, 0.15487396717071533, 0.10803604871034622, -0.2719467580318451, -0.08827050030231476, -0.08297313004732132], [0.20960116386413574, -0.1972850114107132, 0.01172890979796648, -0.23944219946861267, -0.2559855282306671, 0.026642901822924614, -0.11965282261371613, -0.12166281789541245, 0.05629022791981697, -0.06767868250608444, -0.2356979101896286, 0.0645199716091156, 0.1152413859963417, -0.004160332027822733, -0.050903402268886566, 0.030430572107434273, -0.018646111711859703, -0.32689550518989563, -0.01469081174582243, 0.27217158675193787, 0.2580697536468506, 0.03365618735551834, 0.07574955374002457, 0.08198908716440201], [-0.2224142998456955, -0.05806718021631241, 0.15816418826580048, 0.18421794474124908, 0.19173380732536316, -0.29236382246017456, -0.08089949935674667, 0.23135046660900116, 0.22764483094215393, -0.10258445888757706, -0.3086601793766022, 0.05882453918457031, -0.1520587056875229, 0.04960360750555992, -0.011775421909987926, 0.04876672104001045, -0.19264836609363556, -0.20409147441387177, -0.18058401346206665, -0.12218417227268219, -0.019385075196623802, -0.24733486771583557, -0.019475162029266357, -0.010638534091413021], [-0.13814188539981842, -0.08757120370864868, 0.059952668845653534, 0.16531987488269806, -0.1599564105272293, 0.06119314208626747, -0.027703680098056793, 0.1647707223892212, -0.02356082946062088, -0.42632338404655457, -0.03647252172231674, 0.11401726305484772, -0.02749262936413288, -0.008720986545085907, -0.24932114779949188, 0.282143235206604, -0.5398533940315247, 0.23444631695747375, -0.23969870805740356, 0.3017612099647522, 0.03950519114732742, -0.27055567502975464, 0.12612706422805786, 0.11508863419294357], [0.001229286310262978, -0.011813716031610966, 0.29428723454475403, 0.00040103739593178034, -0.30091285705566406, 0.339937686920166, -0.48989951610565186, 0.11089036613702774, 0.23705314099788666, -0.017330344766378403, 0.21803109347820282, 0.09434174746274948, 0.44467100501060486, 0.11649575084447861, 0.16358132660388947, 0.03726919740438461, 0.1436406672000885, -0.15359167754650116, -0.16481195390224457, 0.09739935398101807, -0.23767057061195374, 0.017996279522776604, -0.0867222398519516, -0.015222523361444473], [-0.16301985085010529, -0.24411612749099731, -0.159359872341156, -0.04756270349025726, 0.01190278958529234, 0.30484041571617126, 0.05610058829188347, 0.10784071683883667, 0.14172393083572388, -0.17321166396141052, -0.06499774754047394, 0.06585211306810379, 0.29000920057296753, 0.021259741857647896, -0.3707703649997711, 0.08191609382629395, 0.16617125272750854, 0.0033130210358649492, 0.18987344205379486, -0.1365107148885727, -0.03574638068675995, 0.2597001791000366, 0.20789788663387299, -0.33374571800231934], [0.053067512810230255, 0.1146773025393486, -0.040381044149398804, 0.022756585851311684, 0.15583480894565582, 0.09621431678533554, -0.19434872269630432, -0.009988266043365002, 0.06282773613929749, -0.03709142282605171, 0.08200577646493912, -0.1049022227525711, 0.2900981605052948, 0.16182079911231995, -0.02128782868385315, 0.24841473996639252, 0.24874764680862427, -0.029325390234589577, 0.10034940391778946, 0.059725143015384674, 0.03027409315109253, -0.04714752733707428, -0.4483828544616699, 0.22549040615558624], [0.12510190904140472, -0.37515783309936523, -0.010324869304895401, -0.3902330994606018, 0.1331883668899536, -0.0466691330075264, -0.015576482750475407, 0.057278070598840714, 0.3480816185474396, -0.09219969809055328, -0.08873593062162399, 0.017024973407387733, -0.14076726138591766, 0.18210992217063904, -0.22681257128715515, 0.06998513638973236, -0.037354275584220886, 0.002564724301919341, -0.0363931804895401, -0.36022672057151794, 0.054340910166502, 0.11341778188943863, 0.3025883436203003, -0.35417935252189636], [-0.02769114449620247, -0.19296209514141083, 0.17262914776802063, -0.12973648309707642, -0.30976542830467224, -0.007719054352492094, 0.17156852781772614, 0.2682388722896576, 0.21602056920528412, -0.23442231118679047, 0.4347403943538666, 0.07962913811206818, 0.2659190893173218, -0.003959480673074722, 0.144539475440979, 0.4455229341983795, 0.05135022848844528, 0.2256341427564621, 0.12512972950935364, 0.3232807517051697, -0.018247090280056, 0.06169750541448593, -0.23722948133945465, 0.014175301417708397], [-0.07414562255144119, -0.1369762122631073, -0.12615333497524261, -0.3760194182395935, 0.1257513016462326, 0.040369365364313126, 0.005078189540654421, -0.03651469200849533, 0.21127481758594513, -0.03676730766892433, -0.21421267092227936, 0.20415399968624115, -0.026993215084075928, 0.24361801147460938, -0.0854194313287735, 0.037034306675195694, 0.08610081672668457, 0.053317613899707794, 0.1424482762813568, 0.019273916259407997, 0.12877494096755981, 0.030851328745484352, -0.03643327206373215, 0.00447544502094388], [0.3116149306297302, 0.16019180417060852, 0.09498054534196854, 0.19435594975948334, 0.0939907655119896, 0.21549713611602783, 0.12577694654464722, 0.21705356240272522, 0.4927377700805664, -0.06439389288425446, -0.164478600025177, -0.32719171047210693, -0.15125006437301636, -0.37479111552238464, -0.0853595957159996, 0.2916596233844757, -0.06757167726755142, -0.03312363103032112, 0.067719466984272, 0.017472131177783012, 0.03213106468319893, -0.05990728735923767, -0.49321043491363525, -0.26048219203948975], [0.1353260576725006, -0.06701897084712982, -0.25154370069503784, -0.19754818081855774, -0.25395041704177856, 0.3967706263065338, 0.08005917817354202, -0.33830511569976807, 0.032235242426395416, 0.20275454223155975, -0.23131756484508514, 0.049997467547655106, -0.29784852266311646, 0.053740493953228, 0.44509679079055786, 0.42992454767227173, -0.06711602210998535, 0.07415203005075455, -0.20534484088420868, -0.2508363723754883, -0.15505604445934296, -0.19943924248218536, 0.06225382164120674, 0.5153993368148804], [-0.17791740596294403, 0.15282662212848663, 0.04240916669368744, -0.06817636638879776, -0.1332560032606125, -0.06865581125020981, 0.2303963303565979, -0.5533008575439453, -0.16566863656044006, -0.1362154334783554, 0.3191731870174408, 0.2983885705471039, 0.2846543788909912, 0.2104359269142151, 0.26234719157218933, -0.008899894542992115, -0.03745681792497635, -0.10027666389942169, 0.0986889898777008, 0.05832921713590622, -0.18140575289726257, 0.0657665953040123, -0.23784062266349792, -0.08943557739257812], [-0.35058626532554626, -0.10304535925388336, -0.37694230675697327, 0.08987841755151749, 0.01918051391839981, -0.1882328987121582, -0.10704640299081802, -0.10383284091949463, -0.26514917612075806, 0.08448250591754913, -0.05801946669816971, 0.13929302990436554, 0.22266043722629547, 0.06763787567615509, 0.05220384895801544, -0.1971602439880371, -0.04143208637833595, -0.048881471157073975, 0.23313818871974945, -0.19085684418678284, 0.021369721740484238, -0.01393179688602686, 0.3683415949344635, -0.07523832470178604], [-0.30237019062042236, -0.15842969715595245, 0.09264659881591797, 0.037495482712984085, 0.3175915479660034, -0.38083362579345703, 0.04023507982492447, -0.05202271789312363, 0.06551199406385422, 0.3521513044834137, -0.020100941881537437, -0.06959974765777588, 0.11352714151144028, -0.08094707131385803, 0.0379737988114357, 0.3457520604133606, 0.0739126205444336, -0.044114939868450165, 0.1022333949804306, -0.059659358114004135, -0.14770255982875824, -0.03251677379012108, 0.2235461324453354, 0.4290353059768677], [-0.18134371936321259, 0.09766370803117752, -0.1265265792608261, -0.23831315338611603, 0.1012168601155281, -0.23884060978889465, 0.33141592144966125, 0.1910138726234436, -0.18510399758815765, -0.019983669742941856, 0.14881537854671478, 0.12830398976802826, 0.16616570949554443, -0.09743210673332214, 0.025855816900730133, 0.043736692517995834, 0.4848628640174866, 0.05110286548733711, -0.03637203201651573, -0.5184848308563232, 0.24203281104564667, 0.15496839582920074, -0.023421773687005043, 0.10476132482290268], [0.18213778734207153, 0.36093851923942566, 0.045932430773973465, -0.17584049701690674, -0.018429400399327278, -0.3616127371788025, -0.045882515609264374, -0.05330091342329979, -0.287110298871994, 0.46785128116607666, -0.1970471739768982, 0.1958104819059372, -0.1259080022573471, 0.11020731925964355, 0.2574619948863983, 0.19181862473487854, 0.1656278371810913, 0.0491257980465889, 0.16937927901744843, 0.03603788837790489, 0.2529080808162689, 0.36300089955329895, -0.1910572201013565, 0.32490453124046326], [-0.07394391298294067, -0.27940431237220764, -0.16554851830005646, -0.046257756650447845, -0.04527563974261284, 0.4360642433166504, -0.05297471955418587, -0.2825630009174347, 0.17585337162017822, 0.36338725686073303, 0.14247168600559235, -0.15453484654426575, -0.10472284257411957, -0.12395764887332916, 0.3549914062023163, 0.01299977581948042, 0.11174978315830231, 0.40989047288894653, -0.04953101649880409, -0.3290150761604309, -0.0002957313845399767, -0.29995590448379517, 0.2767282724380493, -0.0862058475613594], [0.004588212352246046, 0.22040840983390808, 0.11347047239542007, 0.018702181056141853, -0.44838234782218933, 0.30378201603889465, 0.35718217492103577, 0.26368284225463867, 0.08426353335380554, -0.14063608646392822, -0.10822995007038116, -0.31310418248176575, 0.2595594823360443, 0.04745215177536011, -0.31298506259918213, 0.224430650472641, -0.12764474749565125, -0.259348601102829, 0.08419257402420044, -0.16857826709747314, 0.06332627683877945, -0.09001462906599045, 0.5085536241531372, -0.32910269498825073], [-0.46625229716300964, 0.3571949005126953, -0.0024625270161777735, -0.0692921057343483, 0.15394172072410583, -0.21176667511463165, 0.258516788482666, -0.21683111786842346, -0.1633094847202301, 0.2928370237350464, -0.23472151160240173, -0.03844548016786575, -0.13260288536548615, 0.10249866545200348, 0.22561709582805634, -0.10726208984851837, 0.05313873663544655, 0.06104947626590729, -0.2644553482532501, -0.2599533498287201, -0.08908065408468246, -0.20805126428604126, 0.17164058983325958, 0.11352857947349548], [-0.12762686610221863, 0.027506567537784576, 0.1484770029783249, 0.01930403523147106, -0.001324450597167015, -0.36772051453590393, 0.1462033987045288, 0.16077889502048492, -0.36844930052757263, -0.08752451837062836, 0.06296743452548981, 0.20530833303928375, -0.372780442237854, -0.30189722776412964, -0.10874027758836746, 0.17195530235767365, -0.18603214621543884, 0.007697516120970249, 0.2291712909936905, 0.19434218108654022, 0.15760676562786102, 0.08323858678340912, -0.3402235507965088, -0.4738098680973053], [0.22436955571174622, -0.08365127444267273, 0.03333562985062599, -0.054285138845443726, 0.017784317955374718, 0.1281687617301941, 0.36850810050964355, -0.22613395750522614, 0.3545283079147339, 0.09189321100711823, 0.20643216371536255, 0.6170509457588196, -0.2045481950044632, 0.10096589475870132, 0.38620904088020325, -0.21446886658668518, 0.02065911516547203, 0.21122002601623535, -0.2162843942642212, -0.12694427371025085, -0.0969175398349762, -0.09292364865541458, 0.08215699344873428, 0.18492190539836884]], [[-0.002319145016372204, -0.2683115601539612, 0.10518572479486465, -0.008474218659102917, -0.16643516719341278, -0.1963741034269333, 0.014395792037248611, 0.25258737802505493, -0.07175040990114212, 0.11353205889463425, -0.002099752426147461, -0.07954106479883194, 0.25833719968795776, 0.035061854869127274, 0.08950567245483398, -0.01312993559986353, 0.011532091535627842, -0.17163661122322083, -0.2524646520614624, -0.06469544023275375, -0.0798686221241951, 0.11326467245817184, 0.2719835937023163, -0.013953698799014091, -0.030780017375946045, 0.09108763188123703, 0.11072294414043427, 0.10807464271783829, -0.03032812662422657, 0.08627809584140778, -0.0401606410741806, 0.0271946731954813], [-0.06941816955804825, -0.10459261387586594, -0.04736730083823204, -0.14914467930793762, 0.04217313975095749, 0.5111300349235535, -0.0968075692653656, 0.04371577873826027, -0.223282128572464, 0.41330793499946594, -0.38270431756973267, -0.2830490171909332, 0.13369737565517426, 0.06722083687782288, 0.018918931484222412, -0.3819924592971802, 0.18049895763397217, 0.019188078120350838, 0.03172173351049423, 0.3235644996166229, -0.0627487525343895, -0.3750913441181183, -0.07587040215730667, -0.09920936077833176, -0.0754324421286583, -0.2200356423854828, -0.26687130331993103, 0.16603805124759674, -0.32534778118133545, -0.06071389093995094, -0.14088137447834015, -0.16509979963302612], [-0.04735318571329117, 0.013922063633799553, -0.09447098523378372, -0.06271446496248245, -0.3019541800022125, 0.11207910627126694, -0.4701230525970459, 0.1744009256362915, 0.19987742602825165, -0.15105755627155304, -0.01680379919707775, 0.06527029722929001, -0.029817471280694008, 0.0022873766720294952, 0.04973524436354637, -0.22108156979084015, -0.15630657970905304, -0.11512365937232971, 0.15090051293373108, 0.03893115371465683, -0.22992663085460663, 0.48507004976272583, -0.2514103055000305, 0.0007021104684099555, 0.21433043479919434, -0.3713715076446533, 0.15975238382816315, -0.14045751094818115, -0.14303112030029297, 0.06430191546678543, 0.09787239879369736, -0.1740710735321045], [-0.1230604350566864, -0.23666997253894806, -0.2931816279888153, -0.04729602485895157, 0.2039770483970642, 0.0788191705942154, -0.33338189125061035, -0.27191677689552307, -0.23596487939357758, -0.3396400511264801, 0.08880579471588135, 0.22477957606315613, -0.005554701667279005, -0.07113675028085709, -0.13271857798099518, -0.2712853252887726, -0.1772831529378891, -0.06466080248355865, 0.1474297046661377, 0.08863823860883713, -0.2203381359577179, -0.16988056898117065, -0.0696607232093811, 0.16298790276050568, 0.023125536739826202, -0.15171119570732117, -0.28449633717536926, -0.25436756014823914, -0.04755125939846039, -0.10857021808624268, -0.09207545965909958, -0.24502165615558624], [0.12643957138061523, 0.156132310628891, -0.11262257397174835, 0.17080114781856537, -0.19413700699806213, 0.02982843667268753, -0.24339501559734344, 0.07485827058553696, -0.07695401459932327, -0.00021881247812416404, 0.05653251335024834, 0.30546432733535767, -0.2859838604927063, 0.16887076199054718, 0.051278144121170044, -0.25111743807792664, 0.4010225832462311, 0.2693493664264679, -0.05296594277024269, -0.250948041677475, 0.41553395986557007, 0.41941192746162415, -0.08874990046024323, 0.12405632436275482, -0.19374814629554749, 0.17445605993270874, 0.24199704825878143, -0.23789286613464355, 0.009421025402843952, 0.2764103412628174, -0.10354530066251755, -0.10042035579681396], [0.059971123933792114, -0.03893008083105087, 0.12526769936084747, -0.025235986337065697, -0.2981005012989044, -0.1498175710439682, 0.2020377814769745, -0.23531387746334076, 0.28561118245124817, -0.07052463293075562, -0.1339867115020752, -0.09358477592468262, 0.18998657166957855, -0.20461881160736084, -0.07822389155626297, 0.284574955701828, -0.15986885130405426, 0.07662293314933777, 0.06212376803159714, -0.129060760140419, 0.09907481074333191, -0.1723446249961853, -0.09195182472467422, 0.3305688798427582, 0.0922001376748085, 0.2214232236146927, 0.05795062705874443, 0.16821148991584778, 0.4651452302932739, 0.23905867338180542, -0.3212714195251465, 0.14643022418022156], [-0.2272023856639862, 0.15356892347335815, 0.02633660100400448, 0.3007705509662628, 0.13850583136081696, -0.2582510709762573, 0.09257245063781738, 0.06857762485742569, -0.0021242948714643717, -0.019672296941280365, 0.11073052883148193, 0.3954816162586212, 0.06839127838611603, 0.014891240745782852, 0.3350120484828949, -0.08791647851467133, 0.3439468741416931, 0.024537967517971992, 0.011722241528332233, -0.1118750274181366, 0.024452855810523033, 0.020541446283459663, 0.12623125314712524, -0.12531261146068573, -0.1385386437177658, 0.12981215119361877, -0.19381189346313477, 0.07106506079435349, -0.02169610932469368, 0.01829163357615471, 0.1027306467294693, -0.04117304086685181], [0.2010963410139084, -0.21195241808891296, -0.04262978211045265, 0.3958796560764313, -0.03033141791820526, -0.021891213953495026, 0.36757200956344604, -0.0073606036603450775, -0.3273947834968567, -0.07586568593978882, -0.004357248544692993, 0.008660702034831047, -0.15693528950214386, -0.03868645802140236, 0.2816166877746582, 0.11825079470872879, -0.06445403397083282, 0.3338893949985504, -0.06222368776798248, -0.03076905943453312, 0.32934966683387756, -0.05272331088781357, -0.18548502027988434, 0.11582344770431519, 0.10387036949396133, 0.00857514701783657, 0.18816012144088745, 0.12239891290664673, 0.09519374370574951, 0.21880702674388885, 0.025677833706140518, -0.026397142559289932], [0.06903497129678726, -0.056942880153656006, -0.017687339335680008, 0.08073895424604416, -0.03766380250453949, -0.15144746005535126, -0.1635093092918396, 0.035434287041425705, 0.147330641746521, 0.18635262548923492, -0.1220841035246849, -0.0568629652261734, 0.007860096171498299, 0.00417311443015933, 0.05694753676652908, 0.053316790610551834, 0.19440430402755737, -0.06443106383085251, 0.15423990786075592, -0.19414617121219635, -0.20124974846839905, 0.4080158770084381, -0.3974859118461609, 0.13501223921775818, -0.08768007159233093, -0.13476194441318512, -0.0335187204182148, 0.29237818717956543, -0.07160069793462753, 0.16994598507881165, -0.2994047999382019, -0.1699400544166565], [-0.138420969247818, -0.10633774101734161, -0.03669030964374542, -0.02350563183426857, -0.259378582239151, 0.15061195194721222, 0.16268707811832428, 0.14248217642307281, 0.019547302275896072, -0.14601078629493713, 0.31047511100769043, 0.35200777649879456, 0.22157111763954163, -0.1818215698003769, -0.051098719239234924, 0.17844797670841217, -0.15437866747379303, 0.37085244059562683, -0.029968807473778725, 0.2515471875667572, -0.1517494022846222, -0.16402819752693176, -0.07126601785421371, -0.18888989090919495, 0.1273496001958847, 0.11346657574176788, 0.08921602368354797, -0.01788814179599285, -0.1217270940542221, 0.17958848178386688, 0.02724095620214939, 0.2635432183742523], [0.17873506247997284, 0.4456609785556793, 0.04412512853741646, 0.1273309737443924, 0.0534890815615654, -0.006835230626165867, 0.0021950325462967157, -0.07355285435914993, -0.02183431386947632, -0.1629202514886856, 0.12764427065849304, 0.13918086886405945, -0.1318017542362213, -0.18513615429401398, -0.2942337393760681, -0.12839838862419128, -0.0332154780626297, -0.08957695960998535, 0.09025295078754425, 0.23576398193836212, 0.21709710359573364, -0.31150612235069275, -0.0771854892373085, -0.020880848169326782, 0.14430968463420868, 0.0757647380232811, 0.251108318567276, -0.23964621126651764, 0.3023454248905182, 0.06407271325588226, 0.15558381378650665, 0.297005832195282], [-0.26786601543426514, -0.17722001671791077, 0.10552269220352173, 0.07937946915626526, 0.017428241670131683, 0.17061133682727814, 0.04758807271718979, -0.18670442700386047, 0.06872114539146423, -0.3904237747192383, -0.14185014367103577, 0.18054023385047913, -0.022455420345067978, 0.11067088693380356, 0.3200908899307251, 0.21095678210258484, -0.2417643517255783, 0.1544855386018753, 0.10393200069665909, 0.1033254861831665, 0.03518616780638695, 0.09892214834690094, -0.021991342306137085, 0.3115025460720062, 0.10416289418935776, -0.12901407480239868, 0.23049309849739075, 0.13909903168678284, 0.011195112951099873, -0.09021545201539993, 0.000977258663624525, 0.44485539197921753], [-0.3350009620189667, 0.08287402242422104, 0.28298425674438477, 0.1287602335214615, 0.12287291884422302, -0.015068658627569675, -0.14136841893196106, -0.4445697069168091, 0.12592940032482147, 0.21991820633411407, -0.3577203154563904, 0.0015944942133501172, 0.09653662890195847, -0.003249187720939517, 0.09741057455539703, -0.12144578993320465, 0.1109875738620758, -0.2463090419769287, 0.13469329476356506, 0.01974729262292385, 0.18968582153320312, 0.18934297561645508, 0.31078779697418213, 0.3595152795314789, 0.13711640238761902, -0.2744141221046448, 0.05846833810210228, -0.026556309312582016, 0.3322497010231018, -0.05799853056669235, 0.11258639395236969, -0.1981474906206131], [-0.037986572831869125, 0.24238334596157074, -0.3272455334663391, 0.057608481496572495, -0.020187431946396828, -0.07566428184509277, -0.11165309697389603, -0.13847658038139343, -0.31559136509895325, -0.17241397500038147, 0.3073943555355072, -0.1833210587501526, 0.24557141959667206, 0.08717615157365799, 0.190815731883049, 0.11012037098407745, 0.1879638135433197, 0.1603982001543045, -0.18746733665466309, 0.07870390266180038, 0.09763241559267044, 0.09846995025873184, -0.14804916083812714, -0.09196016937494278, -0.22419975697994232, 0.14639288187026978, -0.11610538512468338, -0.08864553272724152, -0.19976060092449188, -0.06011291593313217, 0.26600444316864014, 0.006729558110237122], [-0.18302282691001892, 0.06220906600356102, 0.014554344117641449, 0.16645541787147522, -0.08432777225971222, 0.1329168826341629, -0.08517242223024368, 0.07607061415910721, 0.014037107117474079, -0.17242473363876343, -0.060157183557748795, -0.006971563212573528, 0.09111366420984268, -0.13708515465259552, 0.11103083938360214, -0.10031595081090927, 0.03746466711163521, -0.12274012714624405, -0.0950905978679657, -0.12597203254699707, -0.043190523982048035, 0.15009360015392303, 0.2824312746524811, -0.12731455266475677, -0.3335888683795929, 0.10364484041929245, 0.003074822947382927, -0.054302386939525604, -0.2708006203174591, 0.28601187467575073, -0.08978019654750824, -0.17509447038173676], [-0.21699237823486328, 0.16128754615783691, 0.06640271097421646, 0.23157551884651184, 0.2474573254585266, 0.21113288402557373, -0.13899601995944977, -0.123138427734375, 0.2581901550292969, -0.044860318303108215, 0.4591940641403198, -0.2373596727848053, -0.38308659195899963, -0.04989589378237724, 0.06699623167514801, 0.0699189081788063, -0.13998441398143768, 0.1863509714603424, 0.012509377673268318, -0.026273509487509727, 0.023384418338537216, -0.027672313153743744, 0.04201435670256615, 0.006298879161477089, -0.16967396438121796, -0.07845424860715866, 0.3928910195827484, 0.19959311187267303, 0.016628216952085495, 0.053453296422958374, 0.17623397707939148, 0.11185037344694138]], [[0.052263714373111725, 0.00032166758319363, 0.24401649832725525, -0.3240218162536621, 0.259857177734375, -0.19798880815505981, 0.09615355730056763, 0.03118029795587063, 0.29189127683639526, -0.196962371468544, -0.3564348816871643, -0.44367551803588867, -0.20868276059627533, -0.5214748978614807, 0.09269626438617706, 0.14683181047439575], [0.4415736198425293, 0.476431667804718, 0.03486834466457367, 0.05848889425396919, 0.29324817657470703, 0.08343042433261871, -0.282418817281723, 0.05319829657673836, -0.16808673739433289, 0.2551802396774292, -0.2277035266160965, 0.06317546218633652, -0.4503263831138611, 0.27890413999557495, 0.26805779337882996, 0.05953875929117203], [-0.1292043775320053, -0.08908984065055847, -0.257136732339859, -0.2719288766384125, 0.5465333461761475, 0.1556018739938736, 0.12066634744405746, -0.061676766723394394, 0.295345664024353, -0.083237424492836, 0.1047278493642807, -0.10525476932525635, 0.1021503284573555, -0.6008184552192688, -0.17703168094158173, 0.42588138580322266], [-0.40449702739715576, 0.011530734598636627, -0.24232061207294464, -0.106068916618824, -0.5113868117332458, -0.21305608749389648, 0.27840515971183777, -0.4869852364063263, -0.06569646298885345, 0.24658972024917603, 0.4508616626262665, 0.4531794786453247, -0.03172829747200012, 0.624025821685791, -0.16146162152290344, -0.27054235339164734], [-0.05249987170100212, 0.3475826680660248, -0.5799935460090637, 0.13600243628025055, 0.248806893825531, -0.04754962772130966, -0.09543082863092422, -0.060695257037878036, 0.011237791739404202, 0.31382986903190613, 0.08353514969348907, -0.3696894943714142, 0.3178226947784424, -0.17034627497196198, 0.23063704371452332, 0.23086699843406677], [-0.07208167761564255, -0.19429658353328705, -0.30308660864830017, 0.021488115191459656, 0.1088826134800911, -0.004468229599297047, 0.014596984721720219, 0.19761820137500763, 0.2832692265510559, -0.11653565615415573, 0.2071199119091034, 0.08241283893585205, -0.46377044916152954, 0.3575628399848938, 0.22177571058273315, -0.041694000363349915], [-0.11633861809968948, 0.010338518768548965, -0.3214065730571747, 0.21200890839099884, 0.1871325522661209, 0.04871648550033569, 0.19857250154018402, -0.09631763398647308, 0.10165944695472717, -0.03950882330536842, 0.07155352830886841, -0.35886716842651367, -0.49366989731788635, 0.16829444468021393, -0.2474772334098816, 0.13536912202835083], [0.47300615906715393, 0.33441635966300964, 0.3841637670993805, -0.022569477558135986, 0.3392106890678406, -0.1558438092470169, -0.3415035307407379, -0.1448049694299698, -0.0066644069738686085, 0.1676732748746872, -0.30234289169311523, 0.22429253160953522, 0.16327126324176788, -0.1332346498966217, 0.07545506954193115, 0.24362681806087494]], [[-0.30878373980522156, -0.29920580983161926, -0.41424059867858887, 0.6617723703384399, 0.7680857181549072, 0.009119955822825432, -0.16753163933753967, 0.48976871371269226], [0.39472389221191406, -0.3874974250793457, -1.15988290309906, 0.8923478722572327, -0.6809867024421692, -0.011845973320305347, -0.3161895275115967, -0.2132253497838974]]], "brain_biases": [[-0.00473098736256361, -0.24411869049072266, -0.0782453864812851, 0.08715523779392242, -0.023165926337242126, 0.18239793181419373, 0.03895863518118858, 0.035982199013233185, -0.06927692145109177, -0.09743984043598175, -0.2006693333387375, -0.061108678579330444, -0.17784661054611206, -0.03836822882294655, -0.022775497287511826, 0.026784107089042664, 0.00039379726513288915, 0.07092529535293579, -0.008291393518447876, -0.011249303817749023, -0.025487825274467468, -0.10358473658561707, -0.1158270463347435, 0.11673471331596375, 0.10628292709589005, 0.11589872092008591, 0.19208261370658875, -0.1606249064207077, -0.0327167846262455, -0.08013345301151276, 0.036734625697135925, 0.012728988192975521], [-0.042387716472148895, -0.07741184532642365, -0.07367368787527084, 0.17000731825828552, 0.1370680183172226, 0.133662611246109, 0.2068307250738144, -0.12800733745098114, -0.09382819384336472, -0.0021792110055685043, -0.041239865124225616, 0.008751358836889267, 0.14091980457305908, -0.046693455427885056, 0.0053681498393416405, 0.04513126611709595], [0.17181159555912018, -0.06408245116472244, 0.05418453738093376, -0.031416285783052444, 0.034134894609451294, -0.0701381042599678, -0.25110143423080444, 0.10992836207151413], [0.13247156143188477, -0.23007935285568237]], "sensor_retina_count": 24, "sensor_vision_radius": 300.0, "sensor_fov_degrees": 180.0, "sensor_skip": 2, "sensor_see_food": true, "sensor_see_bacteria": false, "sensor_see_predators": false, "locomotion_max_speed": 300.0, "locomotion_max_turn": 3.141592653589793, "energy_loss_idle": 2.0, "energy_loss_move": 5.0, "energy_death_energy": 0.0, "energy_split_energy": 150.0, "last_brain_output": [0.16796934604644775, -0.5839300155639648], "last_brain_activations": [[-0.004730951972305775, -0.23938222229480743, -0.07808609306812286, 0.08693522959947586, -0.023161781951785088, 0.1804017722606659, 0.03893893584609032, 0.03596667945384979, -0.06916631013154984, -0.0971326231956482, -0.19801849126815796, -0.0610327273607254, -0.17599497735500336, -0.03834941238164902, -0.02277155965566635, 0.026777703315019608, 0.0003937972360290587, 0.0708066076040268, -0.008291203528642654, -0.01124882884323597, -0.025482308119535446, -0.10321583598852158, -0.11531183123588562, 0.11620733886957169, 0.10588452965021133, 0.11538255214691162, 0.18975462019443512, -0.15925763547420502, -0.032705117017030716, -0.07996237277984619, 0.036718111485242844, 0.012728300876915455], [-0.10656652599573135, -0.007866138592362404, -0.05292588844895363, 0.2624056935310364, 0.18436022102832794, 0.15766632556915283, 0.010794145986437798, 0.09085069596767426, -0.1847788691520691, 0.04415898025035858, -0.001397884450852871, 0.18933197855949402, 0.05935675650835037, -0.14231249690055847, -0.05967437103390694, 0.05499817430973053], [0.00709407078102231, -0.056857526302337646, 0.17723779380321503, -0.15889489650726318, 0.11836390197277069, -0.13701623678207397, -0.24509012699127197, 0.13990922272205353], [0.16796934604644775, -0.5839300155639648]]}, {"type": "bacteria", "x": 1602.2553837223709, "y": 400.8511798748224, "r": 9.0, "angle": 1.2075193851185508, "vx": 58.20811882104183, "vy": 153.11934154984252, "energy": 30.180551678937967, "age": 141.06666666667107, "brain_sizes": [24, 32, 16, 8, 2], "brain_version": 0, "brain_weights": [[[-0.22599752247333527, -0.048310451209545135, 0.41702839732170105, -0.05123400315642357, -0.29695218801498413, -0.006160600110888481, 0.10989857465028763, 0.07607249170541763, -0.040986161679029465, -0.05811865255236626, 0.07734332233667374, -0.0034189927391707897, -0.267193078994751, -0.2620401084423065, -0.022964004427194595, 0.07334495335817337, 0.3611817955970764, 0.055172692984342575, 0.1328110545873642, -0.028247997164726257, 0.1295793056488037, 0.0714479461312294, -0.1500641405582428, -0.2879573702812195], [0.1600390374660492, -0.22608554363250732, -0.3990074098110199, 0.04084967449307442, 0.13180609047412872, 0.4232375919818878, 0.02207445539534092, -0.1244802176952362, -0.29175865650177, -0.022808285430073738, -0.031598880887031555, -0.604107141494751, 0.008861739188432693, -0.17279215157032013, -0.018038300797343254, 0.14179100096225739, -0.03171245753765106, 0.009233139455318451, -0.16326665878295898, -0.2779974937438965, -0.130141943693161, -0.1634068489074707, 0.003954081796109676, -0.2465282827615738], [-0.2175753116607666, -0.22303807735443115, -0.2105533331632614, -0.30688783526420593, -0.043948475271463394, -0.18556757271289825, -0.01261633075773716, 0.03482130542397499, -0.29323551058769226, -0.08517268300056458, -0.21092428267002106, -0.109572634100914, 0.06988057494163513, -0.003290431806817651, -0.03842786327004433, 0.028405379503965378, 0.05589519068598747, 0.05143054574728012, -0.0757044106721878, -0.12066714465618134, -0.1577962338924408, -0.08786191046237946, -0.1271711140871048, -0.09594696760177612], [0.1532680094242096, 0.3075607419013977, -0.0669533982872963, -0.1805116832256317, -0.10672105848789215, 0.0745258629322052, 0.15850265324115753, -0.31436124444007874, -0.05081164836883545, 0.012652737088501453, 0.3685716390609741, -0.10312804579734802, 0.04764057323336601, -0.08422067016363144, 0.06663081049919128, -0.05088368058204651, 0.14344511926174164, -0.047407474368810654, 0.40249329805374146, -0.08150829374790192, 0.098814457654953, -0.11992546916007996, 0.033931948244571686, 0.05165443569421768], [-0.3313852846622467, -0.07372972369194031, 0.07729709148406982, -0.009792081080377102, -0.0819355696439743, -0.19219116866588593, 0.4436231553554535, -0.13579732179641724, -0.039008308202028275, 0.11038681864738464, 0.07152559608221054, -0.03717803210020065, 0.013736355118453503, 0.15904031693935394, 0.19225643575191498, 0.1533818542957306, 0.18996742367744446, 0.19021111726760864, 0.13734212517738342, 0.08181140571832657, -0.04981587454676628, 0.06180219724774361, -0.2741756737232208, 0.03678333759307861], [-0.25501304864883423, 0.009672452695667744, -0.07540693879127502, -0.01982911303639412, 0.3927057981491089, 0.28173506259918213, -0.09462851285934448, -0.10962127894163132, 0.10202948749065399, 0.061021383851766586, 0.19817028939723969, -0.13080932199954987, -0.112355075776577, -0.2577473223209381, 0.5023014545440674, -0.3161884844303131, 0.23057152330875397, 0.2495105266571045, -0.16344186663627625, 0.04198712855577469, -0.04831160604953766, 0.13724246621131897, 0.16566681861877441, 0.34968438744544983], [-0.17699876427650452, 0.29635992646217346, 0.18362116813659668, -0.4709170162677765, -0.19371411204338074, 0.06258076429367065, 0.34449073672294617, -0.09999804943799973, -0.43871989846229553, -0.1354125440120697, -0.17277538776397705, -0.35747572779655457, -0.046940114349126816, 0.24387502670288086, -0.19581246376037598, 0.0054904199205338955, 0.09525708854198456, 0.024126077070832253, -0.1287251114845276, -0.042938508093357086, -0.03752840310335159, -0.06041440740227699, 0.010280441492795944, 0.31734904646873474], [0.03629714250564575, -0.14593569934368134, -0.11209020018577576, -0.05654337257146835, 0.1907890886068344, 0.19354870915412903, 0.1003960371017456, -0.006310414522886276, 0.07983514666557312, -0.15553529560565948, 0.12024158984422684, 0.293964147567749, 0.49280673265457153, -0.23202863335609436, 0.10711295157670975, 0.015684014186263084, -0.2982579469680786, -0.11457356065511703, -0.1593056172132492, 0.2437662035226822, 0.324673056602478, -0.1360326111316681, -0.19268733263015747, 0.2633034586906433], [-0.0923474133014679, 0.27056393027305603, 0.22333389520645142, -0.272964209318161, -0.06048751622438431, -0.12763071060180664, 0.037758998572826385, 0.1906713843345642, -0.05205097794532776, 0.1377646028995514, 0.018818477168679237, -0.31556856632232666, 0.05445517227053642, -0.10291726887226105, -0.12890565395355225, 0.17476215958595276, 0.08344248682260513, 0.27220618724823, 0.1042708083987236, -0.06354629993438721, -0.16906167566776276, 0.5667270421981812, 0.005241265520453453, -0.19095207750797272], [-0.155320405960083, 0.06571098417043686, 0.07488612830638885, -0.022336585447192192, -0.012475315481424332, 0.3217613101005554, 0.11646920442581177, -0.2582284212112427, -0.08111091703176498, 0.13198375701904297, 0.08615710586309433, -0.30535879731178284, 0.16739711165428162, -0.01736299693584442, -0.31445497274398804, -0.15481969714164734, 0.03542139381170273, 0.050032030791044235, 0.20297829806804657, 0.14685392379760742, 0.1385800838470459, -0.15025395154953003, 0.1340993195772171, -0.058798231184482574], [-0.009312444366514683, -0.24204985797405243, 0.42925122380256653, -0.07547014951705933, 0.09365324676036835, 0.07545751333236694, -0.5151190757751465, -0.2596859931945801, -0.08235079795122147, -0.3986624777317047, -0.33321183919906616, -0.13815775513648987, 0.05230925604701042, -0.004484404809772968, -0.26737353205680847, 0.10483669489622116, -0.10765768587589264, -0.3195800483226776, 0.0252273790538311, 0.1647617220878601, 0.09277009218931198, 0.154830664396286, 0.18028894066810608, 0.024921096861362457], [-0.16155549883842468, 0.1742939054965973, 0.04624998942017555, 0.028926193714141846, 0.13817480206489563, 0.18577946722507477, -0.06382329761981964, -0.22513577342033386, -0.1766354739665985, 0.026530614122748375, 0.01690124347805977, -0.14415879547595978, -0.05039658769965172, 0.26850980520248413, -0.12347863614559174, 0.18185889720916748, 0.17797398567199707, 0.11418411135673523, 0.24254187941551208, -0.2378954440355301, 0.033500686287879944, -0.3564969301223755, -0.1871986985206604, 0.18199215829372406], [-0.16268329322338104, 0.026561619713902473, -0.3374703824520111, -0.47353312373161316, 0.16393443942070007, -0.38771048188209534, -0.061887431889772415, 0.06612410396337509, -0.28468286991119385, -0.4094187319278717, -0.22063851356506348, -0.13426363468170166, -0.05284004285931587, -0.2024395912885666, 0.2821071445941925, 0.20655333995819092, 0.2096225470304489, -0.2545234262943268, -0.04191536828875542, 0.046013958752155304, -0.3919872045516968, -0.17230825126171112, -0.17538613080978394, 0.19016866385936737], [0.05033959820866585, -0.26087141036987305, 0.3214324116706848, 0.037524301558732986, 0.18747621774673462, 0.020483875647187233, -0.038752082735300064, 0.29059547185897827, 0.13280926644802094, -0.11929774284362793, -0.07681720703840256, -0.06759799271821976, -0.1294475644826889, 0.12089353054761887, 0.03649687394499779, -0.13564983010292053, -0.4138997793197632, 0.044606033712625504, -0.39416810870170593, -0.09305517375469208, 0.10385672003030777, 0.0996035486459732, 0.17451009154319763, 0.2874397337436676], [-0.15021274983882904, 0.045448802411556244, 0.15879157185554504, 0.1691121757030487, 0.10748088359832764, 0.025746310129761696, -0.19648121297359467, -0.11921844631433487, -0.2020854651927948, -0.21415677666664124, -0.07944069057703018, -0.0734480544924736, -0.18725501000881195, 0.20060738921165466, -0.30783602595329285, 0.07926268130540848, 0.38157474994659424, -0.22939817607402802, 0.22843366861343384, -0.08966691046953201, -0.1170259341597557, 0.05634848028421402, -0.07258907705545425, 0.09173274040222168], [-0.2501698136329651, 0.07295580953359604, 0.021263375878334045, 0.15522681176662445, -0.337472528219223, -0.08522547036409378, -0.23028482496738434, -0.382622629404068, 0.21499571204185486, -0.15738750994205475, 0.25025734305381775, 0.1305156797170639, -0.0446486733853817, -0.06880886852741241, -0.09127688407897949, 0.25456321239471436, 0.43009015917778015, 0.04964222386479378, 0.04311821609735489, 0.16813360154628754, -0.16975918412208557, 0.1725492775440216, -0.004695838317275047, 0.4830697774887085], [0.11521037667989731, -0.1552988439798355, 0.056578803807497025, 0.14166395366191864, 0.043959781527519226, 0.316602885723114, -0.034995585680007935, -0.3585921823978424, 0.0437479242682457, 0.20629946887493134, 0.22765612602233887, -0.14095433056354523, -0.04287905618548393, 0.029005268588662148, -0.09470201283693314, -0.1283053457736969, 0.0297592394053936, -0.07574085891246796, 0.35644009709358215, -0.33605584502220154, 0.28143009543418884, -0.14980554580688477, 0.08398647606372833, 0.0014452963368967175], [-0.6563923358917236, -0.017289895564317703, 0.047863006591796875, 0.10232807695865631, -0.0006640169303864241, 0.18780270218849182, 0.0017291135154664516, -0.26456913352012634, 0.4071090817451477, 0.0868559181690216, 0.050343964248895645, -0.3535512089729309, 0.10992001742124557, -0.23328034579753876, 0.10497865080833435, 0.06916458159685135, 0.16586336493492126, 0.6382809281349182, 0.006536170374602079, 0.11640086770057678, -0.1595725566148758, -0.011184015311300755, -0.277545303106308, -0.1967436969280243], [-0.35813865065574646, -0.12997767329216003, 0.011396409943699837, -0.11407233774662018, -0.1944606751203537, -0.0828634649515152, 0.21497634053230286, 0.06260707974433899, -0.19347849488258362, 0.09939370304346085, -0.06428025662899017, 0.22971324622631073, -0.14264383912086487, -0.05721922218799591, 0.11366322636604309, 0.2125369906425476, -0.029493501409888268, -0.29831716418266296, 0.4177807569503784, 0.033553753048181534, 0.4246630370616913, -0.18753808736801147, -0.18302325904369354, -0.027184102684259415], [-0.049522146582603455, -0.02893230691552162, 0.0009015321847982705, 0.189431294798851, -0.007871083915233612, -0.535751461982727, -0.2229212522506714, -0.3981403410434723, -0.5060396790504456, -0.16857314109802246, -0.29046866297721863, 0.1641755998134613, 0.1963600218296051, -0.06954462081193924, 0.12224144488573074, -0.2229660302400589, -0.23543839156627655, 0.043557461351156235, 0.32204747200012207, 0.06511841714382172, 0.1264510601758957, 0.34046027064323425, 0.00913219340145588, -0.1481887251138687], [0.05837284028530121, 0.3084171414375305, -0.2502318024635315, 0.024254685267806053, -0.22908401489257812, 0.34017413854599, 0.21087852120399475, 0.18966595828533173, -0.21980714797973633, 0.42323699593544006, -0.032957471907138824, -0.291027307510376, -0.18441258370876312, -0.36489400267601013, 0.044122740626335144, -0.17613598704338074, -0.2029774934053421, -0.014790735207498074, -0.1469472199678421, -0.027199305593967438, -0.38579562306404114, -0.31029942631721497, 0.07231433689594269, -0.26935604214668274], [-0.04417550191283226, 0.21857382357120514, -0.1535230278968811, -0.015667427331209183, 0.1100194975733757, -0.03855938836932182, 0.3429698050022125, -0.17715509235858917, 0.028302321210503578, 0.07663048058748245, 0.11996117979288101, -0.26095736026763916, -0.1912965327501297, 0.22761954367160797, -0.44249072670936584, -0.03569513186812401, 0.13509298861026764, -0.09123749285936356, 0.06822805106639862, -0.13221701979637146, 0.2328021228313446, 0.11314049363136292, 0.07784950733184814, 0.024807780981063843], [0.006909776479005814, -0.13874612748622894, 0.1440996527671814, -0.13677892088890076, -0.26241472363471985, 0.0007729269564151764, -0.17057186365127563, -0.3072408437728882, 0.03218381479382515, 0.3284328579902649, -0.1514768898487091, 0.1646297127008438, 0.04491058364510536, 0.2126256823539734, -0.07537008821964264, 0.21255777776241302, 0.08287031948566437, -0.0722852423787117, -0.06022442504763603, 0.05469539016485214, -0.024274909868836403, 0.10865394026041031, -0.09918951243162155, -0.1883297860622406], [0.004746497608721256, 0.1754584014415741, -0.19025841355323792, 0.11577581614255905, -0.22629714012145996, 0.0621514767408371, 0.1763998121023178, 0.33917149901390076, -0.4562181234359741, -0.04994463548064232, -0.3682974874973297, 0.39302098751068115, -0.33517447113990784, 0.12353436648845673, 0.09344324469566345, -0.16558092832565308, 0.02353857457637787, 0.22380399703979492, -0.14342106878757477, -0.17808450758457184, -0.042692072689533234, 0.16265837848186493, -0.16666433215141296, -0.19448597729206085], [0.13253718614578247, 0.3224448263645172, -0.24160344898700714, 0.1521923691034317, 0.2191024273633957, -0.08641881495714188, 0.011495444923639297, 0.004191129002720118, -0.25730377435684204, 0.4033772647380829, -0.1313822865486145, 0.0017079779645428061, 0.3445991277694702, 0.02979489602148533, -0.1057370975613594, 0.21374376118183136, -0.30183687806129456, 0.1666349619626999, 0.3115420937538147, -0.1078464463353157, 0.365772008895874, 0.17738866806030273, 0.1537347137928009, 0.18830527365207672], [0.2773057520389557, 0.0008526204037480056, -0.19764015078544617, -0.06987959146499634, 0.020509352907538414, 0.32728469371795654, -0.10453838855028152, -0.2691417336463928, 0.13609574735164642, 0.19822242856025696, 0.24296534061431885, 0.29170578718185425, -0.11513920873403549, -0.010351537726819515, 0.1863003820180893, -0.2691417336463928, -0.14754369854927063, -0.19569337368011475, 0.1161544993519783, 0.22961309552192688, -0.15709085762500763, 0.24001577496528625, 0.27281057834625244, 0.09480387717485428], [0.04082672297954559, 0.13568885624408722, 0.01959211379289627, -0.0435468889772892, -0.2927098572254181, -0.250655859708786, -0.01966164819896221, 0.23111069202423096, 0.20181351900100708, 0.20301316678524017, -0.07606656849384308, 0.10710185021162033, -0.30676034092903137, 0.030345477163791656, 0.26591968536376953, 0.23944565653800964, 0.19177357852458954, -0.11569657921791077, -0.22655397653579712, 0.03693457320332527, -0.1376178115606308, 0.15297119319438934, 0.0922083705663681, -0.0384717732667923], [0.42717090249061584, -0.24661865830421448, 0.0988454520702362, 0.18867354094982147, -0.03179338574409485, -0.13813500106334686, 0.12414131313562393, 0.2871200740337372, 0.27810099720954895, -0.2323761284351349, 0.0996219664812088, 0.2655406594276428, 0.1452093869447708, 0.5483009815216064, 0.16802416741847992, -0.24019895493984222, -0.05078442767262459, 0.1358739584684372, 0.08202670514583588, -0.1929693967103958, 0.04423892870545387, 0.11719535291194916, -0.18399515748023987, 0.41149646043777466], [-0.20521217584609985, -0.05886940658092499, -0.048450570553541183, 0.19572506844997406, 0.2147281914949417, -0.06128794327378273, -0.2831421196460724, -0.02436169795691967, -0.25494855642318726, 0.37071818113327026, 0.24883681535720825, 0.3265489935874939, 0.0006737319054082036, -0.10308868438005447, 0.03462168946862221, -0.17586661875247955, 0.0921841487288475, -0.3073945641517639, 0.004323472734540701, -0.026087887585163116, 0.17290368676185608, 0.07719214260578156, 0.13980410993099213, -0.28227564692497253], [0.145555317401886, 0.07320217043161392, -0.35388290882110596, 0.08299371600151062, 0.1295827329158783, -0.024594970047473907, -0.14696353673934937, 0.05632655695080757, -0.08390763401985168, -0.15898166596889496, -0.05070303753018379, 0.27261555194854736, -0.037027426064014435, -0.43448808789253235, 0.18953941762447357, 0.20882195234298706, -0.17239457368850708, -0.0194260086864233, 0.26678383350372314, -0.09030265361070633, 0.30219584703445435, -0.04041111841797829, -0.0908922553062439, -0.1821117401123047], [-0.46603065729141235, -0.023943932726979256, -0.016264745965600014, -0.02427784726023674, -0.025282198563218117, -0.12506131827831268, 0.03319486975669861, 0.11486110091209412, -0.10897589474916458, -0.261843204498291, 0.3035593330860138, 0.28382787108421326, 0.01046285405755043, 0.06087289750576019, 0.19065237045288086, -0.21548373997211456, 0.058764562010765076, -0.08226648718118668, -0.31109869480133057, 0.22524182498455048, 0.2015090435743332, -0.13918116688728333, -0.26287755370140076, 0.11594466120004654], [-0.015137466602027416, -0.11924957484006882, 0.110728919506073, 0.21023151278495789, 0.20434781908988953, -0.32030606269836426, 0.18806028366088867, 0.13536910712718964, -0.24153809249401093, -0.030474085360765457, -0.08447921276092529, 0.09475912898778915, -0.24622024595737457, 0.2215663492679596, 0.07073868811130524, 0.22092734277248383, -0.0019350078655406833, 0.2125280648469925, 0.42503854632377625, 0.19237962365150452, 0.026100821793079376, 0.3445046842098236, 0.03915288299322128, -0.34192562103271484]], [[-0.075266033411026, -0.14994105696678162, -0.24068059027194977, 0.09757452458143234, -0.2811383903026581, 0.2627418339252472, 0.09989821165800095, -0.0943370833992958, 0.06779041886329651, 0.09526757150888443, 0.10151165723800659, 0.05308595299720764, 0.15660831332206726, 0.012135721743106842, -0.249214306473732, -0.08535383641719818, -0.18155595660209656, 0.07635272294282913, 0.3382405936717987, 0.18432310223579407, 0.28575050830841064, -0.1680966317653656, 0.03379221260547638, -0.22819936275482178, -0.311449259519577, -0.07895916700363159, -0.18153631687164307, -0.2855275571346283, -0.10117150098085403, -0.37278857827186584, -0.2396729737520218, -0.06644458323717117], [0.3290654718875885, 0.07576187700033188, -0.16773736476898193, 0.16430222988128662, -0.047094669193029404, 0.002460642484948039, -0.04412520304322243, 0.24855773150920868, 0.2829030454158783, -0.1688605397939682, 0.20393435657024384, -0.19512668251991272, 0.0099452780559659, 0.12850120663642883, 0.049585744738578796, -0.07180442661046982, 0.023339619860053062, -0.1894400417804718, -0.16056130826473236, -0.006705109495669603, -0.0009658927447162569, -0.15453165769577026, 0.27450138330459595, 0.1250302940607071, -0.10400652885437012, 0.011615438386797905, 0.17106246948242188, -0.3275580406188965, 0.06065202131867409, -0.15454037487506866, 0.2804960012435913, -0.2038358896970749], [-0.09408841282129288, -0.05431510880589485, -0.165790855884552, -0.003547991393133998, 0.4030638635158539, 0.03779314458370209, 0.12222059816122055, -0.1111048236489296, -0.11056455969810486, -0.1097026988863945, 0.10242334008216858, 0.031087810173630714, -0.06264819204807281, 0.2054857611656189, 0.12254810333251953, -0.38302984833717346, 0.0040525090880692005, -0.3609291613101959, -0.051964811980724335, -0.11079263687133789, 0.26654529571533203, 0.3056538999080658, -0.04155405983328819, -0.021922679618000984, 0.12668950855731964, -0.1453266143798828, 0.019922953099012375, -0.04638872668147087, -0.05627705156803131, -0.06243152543902397, -0.19946643710136414, -0.026698891073465347], [-0.05800324305891991, -0.13485196232795715, 0.12593889236450195, -0.04790245741605759, -0.18599450588226318, -0.3862685561180115, 0.11500009149312973, -0.31326842308044434, -0.04397887364029884, 0.1227601170539856, -0.004965063650161028, -0.034798674285411835, 0.037892553955316544, -0.21933168172836304, -0.08794581890106201, 0.08624902367591858, 0.21022431552410126, -0.07145372778177261, 0.013522323220968246, -0.14806607365608215, -0.24965862929821014, 0.07553122192621231, 0.343048632144928, -0.0761210024356842, -0.027241382747888565, -0.25187721848487854, 0.14178483188152313, 0.03080795705318451, 0.03026149794459343, -0.02471158280968666, 0.196648508310318, -0.00984322652220726], [-0.10784974694252014, -0.03786379098892212, 0.16208668053150177, 0.10550107061862946, -0.04600735008716583, -0.10774758458137512, -0.24155330657958984, 0.026491865515708923, -0.015101291239261627, -0.3098224699497223, 0.005584895145148039, 0.07479271292686462, -0.18175414204597473, 0.445891797542572, 0.1241302490234375, 0.20151065289974213, 0.019783390685915947, 0.23949073255062103, -0.06579238921403885, 0.03704628720879555, 0.09576551616191864, -0.002953561255708337, -0.062041934579610825, -0.0628051832318306, -0.055458784103393555, 0.003715177532285452, -0.15379655361175537, -0.13964590430259705, 0.004306242801249027, 0.11889562755823135, 0.07158159464597702, 0.08495108783245087], [0.0778643786907196, 0.4782354533672333, -0.05840151384472847, 0.3964317739009857, -0.03223148360848427, 0.029051141813397408, 0.0082122553139925, -0.04602919891476631, 0.1450185328722, 0.2077195793390274, -0.4764212667942047, 0.13586965203285217, -0.06657805293798447, 0.14879418909549713, 0.009413206949830055, 0.028066202998161316, 0.1260187178850174, -0.43028324842453003, -0.19185447692871094, -0.1421048790216446, -0.17822207510471344, 0.0258261077105999, -0.2363608330488205, -0.055923763662576675, -0.29184064269065857, -0.38868609070777893, 0.08841537684202194, -0.021115420386195183, 0.08841066807508469, -0.08881199359893799, -0.23640303313732147, 0.002996793482452631], [0.022832706570625305, 0.19495898485183716, -0.08169861882925034, -0.07043285667896271, 0.12101779878139496, -0.23495444655418396, -0.23492436110973358, 0.06889545917510986, -0.2435869425535202, 0.2397686243057251, -0.009048691019415855, 0.018794868141412735, -0.051019880920648575, 0.27919551730155945, 0.1579170674085617, 0.21347859501838684, 0.18905450403690338, 0.15911199152469635, -0.01860808953642845, -0.010391268879175186, 0.17212070524692535, 0.10945285111665726, -0.19481275975704193, 0.11067970842123032, 0.21384985744953156, -0.03021943010389805, -0.0623956136405468, -0.24233213067054749, 0.14341486990451813, 0.04049331322312355, -0.31813672184944153, -0.1624453067779541], [0.39942604303359985, -0.053443219512701035, 0.12595026195049286, -0.13520771265029907, 0.14571449160575867, -0.39828014373779297, -0.05644507333636284, 0.40807363390922546, -0.06554100662469864, 0.3527948558330536, -0.11940746009349823, 0.10331228375434875, 0.07956098765134811, 0.11588628590106964, 0.0816347599029541, 0.19236232340335846, 0.036101870238780975, 0.11760379374027252, 0.09096501767635345, 0.16229403018951416, -0.3120211064815521, -0.24715951085090637, 0.06077092885971069, -0.16642966866493225, 0.4160533845424652, 0.02907007373869419, -0.2983684837818146, -0.008001301437616348, -0.026876822113990784, -0.11765623837709427, -0.004481838084757328, 0.022780442610383034], [0.2841666340827942, 0.18499022722244263, 0.08398403972387314, 0.13450534641742706, 0.04950002580881119, -0.09349614381790161, 0.2169383317232132, 0.03411737456917763, 0.32532891631126404, -0.15104566514492035, 0.05297816917300224, 0.2207978367805481, -0.19749684631824493, -0.24948221445083618, 0.02677994966506958, 0.19442549347877502, -0.04653800651431084, -0.18226978182792664, -0.22285547852516174, 0.3260844051837921, 0.26858285069465637, 0.10954669862985611, 0.01802660897374153, -0.12334981560707092, -0.6829146146774292, 0.22110594809055328, -0.030705511569976807, 0.01778104528784752, -0.17372047901153564, -0.1634569764137268, -0.11117137968540192, 0.005310353357344866], [0.10374566912651062, -0.2600995898246765, 0.024841131642460823, -0.02051066793501377, 0.03870633244514465, -0.3700893521308899, -0.09318436682224274, 0.03412385284900665, 0.2365347295999527, -0.20904594659805298, -0.1084381565451622, 0.039684899151325226, -0.029574178159236908, 0.22943155467510223, -0.08493337035179138, -0.014951467514038086, -0.2605006992816925, 0.12264848500490189, -0.17517206072807312, 0.17899943888187408, -0.19993221759796143, -0.07824186980724335, 0.11775194853544235, 0.17347875237464905, 0.3542749583721161, -0.010386044159531593, -0.0311252623796463, 0.231768399477005, 0.2514045536518097, 0.007789353374391794, 0.04253530502319336, -0.1056770533323288], [-0.04497431591153145, 0.24671566486358643, -0.496150940656662, 0.03418084606528282, 0.17401131987571716, -0.27519112825393677, 0.09696386754512787, 0.05509714037179947, 0.01815779320895672, 0.14332908391952515, 0.32109203934669495, -0.2344137281179428, 0.278242826461792, -0.006823756732046604, 0.28263768553733826, -0.21159107983112335, 0.14578160643577576, -0.1349295675754547, 0.19689980149269104, 0.0037413525860756636, -0.18689103424549103, -0.2365747094154358, -0.014352424070239067, -0.047099869698286057, -0.29718223214149475, 0.33329910039901733, 0.019982829689979553, 0.11612512916326523, -0.05475861206650734, 0.09851755201816559, 0.3647098243236542, -0.16117729246616364], [0.1011369600892067, 0.2053854912519455, 0.011786219663918018, -0.12454907596111298, 0.3050743639469147, -0.0019681446719914675, -0.0717058852314949, -0.040469974279403687, 0.24990049004554749, -0.043645549565553665, -0.22527946531772614, -0.08878806978464127, -0.25591617822647095, 0.2658115327358246, -0.11897812783718109, 0.08681617677211761, -0.0787491500377655, 0.27684277296066284, 0.0008298530010506511, -0.09371231496334076, 0.03526357561349869, 0.037109870463609695, 0.049329567700624466, -0.0920337364077568, 0.4109064042568207, -0.13400417566299438, 0.03344530612230301, 0.01404051948338747, -0.12936951220035553, -0.03006630763411522, 0.0524158775806427, -0.3375016450881958], [-0.2008339911699295, 0.27273494005203247, -0.12011527270078659, 0.32628747820854187, -0.03096613846719265, -0.14870306849479675, -0.03957962244749069, -0.12619787454605103, -0.26566073298454285, 0.200124591588974, 0.22499556839466095, 0.2770601212978363, -0.3092571198940277, -0.045965153723955154, 0.07024123519659042, 0.12106536328792572, 0.08309424668550491, -0.33445289731025696, -0.2263460010290146, 0.13583175837993622, -0.21816007792949677, -0.007810748647898436, 0.08372175693511963, -0.022343836724758148, -0.09416636824607849, -0.03327500447630882, -0.367794007062912, 0.3732426166534424, 0.013880416750907898, -0.12249178439378738, 0.13341103494167328, -0.033868491649627686], [-0.036917634308338165, -0.017588434740900993, -0.17854735255241394, -0.004671116359531879, -0.22415071725845337, 0.13502350449562073, -0.017663171514868736, 0.5243629813194275, 0.04092497006058693, 0.22482454776763916, -0.1315460205078125, -0.0730125829577446, -0.2983568012714386, 0.14637763798236847, 0.03559797257184982, 0.23666174709796906, -0.021571561694145203, 0.0033789302688091993, 0.2387368381023407, -0.39121517539024353, 0.05066606402397156, -0.11143808811903, 0.062362413853406906, 0.006595532409846783, 0.01411744300276041, -0.10444524139165878, -0.1099117174744606, -0.1372257024049759, -0.14613737165927887, 0.14924195408821106, -0.3121148645877838, -0.09310085326433182], [0.051277559250593185, 0.26535072922706604, -0.06999410688877106, -0.03952659294009209, -0.408851683139801, 0.06627913564443588, -0.12032289057970047, 3.3866323065012693e-05, -0.013748393394052982, 0.28887712955474854, -0.09350685030221939, -0.07480701059103012, 0.1935618370771408, -0.06671600788831711, 0.021336812525987625, -0.04358396306633949, 0.034381408244371414, 