{"version": 2, "timestamp": "20250905_174205", "params": {"time_scale": 1.0, "fps": 60.0, "paused": true, "use_spatial": true, "substrate_shape": "circular", "world_w": 8000.0, "world_h": 8000.0, "substrate_radius": 4000.0, "max_deaths_per_step": 5, "retina_skip": 2, "simple_render": false, "reuse_spatial_grid": true, "food_target": 300, "food_min_r": 8.0, "food_max_r": 10.0, "food_replenish_interval": 0.1, "bacteria_count": 150, "bacteria_min_r": 6.0, "bacteria_max_r": 12.0, "bacteria_min_limit": 20, "bacteria_max_limit": 500, "bacteria_initial_energy": 100.0, "bacteria_death_energy": 0.0, "bacteria_split_energy": 200.0, "bacteria_metab_v0_cost": 3.0, "bacteria_metab_vmax_cost": 6.0, "bacteria_energy_cap": 200.0, "bacteria_body_size": 9.0, "bacteria_max_speed": 300.0, "bacteria_max_turn": 3.141592653589793, "bacteria_vision_radius": 300.0, "bacteria_vision_mode": "frontal", "bacteria_retina_count": 18, "bacteria_retina_fov_degrees": 180.0, "bacteria_show_vision": false, "bacteria_retina_see_food": true, "bacteria_retina_see_bacteria": false, "bacteria_retina_see_predators": true, "bacteria_hidden_layers": 3, "bacteria_neurons_layer_1": 32, "bacteria_neurons_layer_2": 16, "bacteria_neurons_layer_3": 8, "bacteria_neurons_layer_4": 20, "bacteria_neurons_layer_5": 0, "bacteria_mutation_rate": 0.1, "bacteria_mutation_strength": 0.1, "bacteria_structural_jitter": 0, "predators_enabled": true, "predator_count": 10, "predator_min_r": 10.0, "predator_max_r": 18.0, "predator_min_limit": 5, "predator_max_limit": 100, "predator_initial_energy": 100.0, "predator_death_energy": 0.0, "predator_split_energy": 200.0, "predator_metab_v0_cost": 3.0, "predator_metab_vmax_cost": 6.0, "predator_energy_cap": 200.0, "predator_body_size": 30.0, "predator_max_speed": 300.0, "predator_max_turn": 3.141592653589793, "predator_vision_radius": 500.0, "predator_vision_mode": "frontal", "predator_retina_count": 18, "predator_retina_fov_degrees": 120.0, "predator_show_vision": false, "predator_retina_see_food": false, "predator_retina_see_bacteria": true, "predator_retina_see_predators": false, "predator_hidden_layers": 3, "predator_neurons_layer_1": 32, "predator_neurons_layer_2": 16, "predator_neurons_layer_3": 8, "predator_neurons_layer_4": 0, "predator_neurons_layer_5": 0, "predator_mutation_rate": 0.1, "predator_mutation_strength": 0.1, "predator_structural_jitter": 0, "agents_inertia": 1.0, "show_selected_details": true, "substrate_bg_color": [18, 7, 53], "food_color": [50, 100, 0], "bacteria_color": [173, 115, 0], "predator_color": [154, 0, 0], "disable_brain_activations": false, "auto_export_substrate": false, "auto_export_interval_minutes": 10.0}, "ui_params": {"time_scale": 1.0, "fps": 60, "paused": true, "use_spatial": true, "retina_skip": 2, "simple_render": false, "reuse_spatial_grid": true, "agents_inertia": 1.0, "show_selected_details": true, "enable_brain_activations": true, "auto_export_substrate": false, "auto_export_interval_minutes": 10.0, "food_target": 300, "food_min_r": 8.0, "food_max_r": 10.0, "food_replenish_interval": 0.1, "world_w": 8000.0, "world_h": 8000.0, "substrate_shape": "circular", "substrate_radius": 4000.0, "bacteria_count": 150, "bacteria_min_limit": 20, "bacteria_max_limit": 500, "bacteria_initial_energy": 100.0, "bacteria_death_energy": 0.0, "bacteria_split_energy": 200.0, "bacteria_metab_v0_cost": 3.0, "bacteria_metab_vmax_cost": 6.0, "bacteria_energy_cap": 200.0, "bacteria_body_size": 9.0, "bacteria_vision_radius": 300.0, "bacteria_retina_count": 18, "bacteria_retina_fov_degrees": 180.0, "bacteria_max_speed": 300.0, "bacteria_max_turn_deg": 180.0, "bacteria_hidden_layers": 3, "bacteria_neurons_layer_1": 32, "bacteria_neurons_layer_2": 16, "bacteria_neurons_layer_3": 8, "bacteria_neurons_layer_4": 20, "bacteria_neurons_layer_5": 0, "bacteria_mutation_rate": 0.1, "bacteria_mutation_strength": 0.1, "bacteria_show_vision": false, "bacteria_retina_see_food": true, "bacteria_retina_see_bacteria": false, "bacteria_retina_see_predators": true, "predators_enabled": true, "predator_count": 10, "predator_min_limit": 5, "predator_max_limit": 100, "predator_initial_energy": 100.0, "predator_death_energy": 0.0, "predator_split_energy": 200.0, "predator_metab_v0_cost": 3.0, "predator_metab_vmax_cost": 6.0, "predator_energy_cap": 200.0, "predator_body_size": 30.0, "predator_vision_radius": 500.0, "predator_retina_count": 18, "predator_retina_fov_degrees": 120.0, "predator_max_speed": 300.0, "predator_max_turn_deg": 180.0, "predator_hidden_layers": 3, "predator_neurons_layer_1": 32, "predator_neurons_layer_2": 16, "predator_neurons_layer_3": 8, "predator_neurons_layer_4": 0, "predator_neurons_layer_5": 0, "predator_mutation_rate": 0.1, "predator_mutation_strength": 0.1, "predator_retina_see_food": false, "predator_retina_see_bacteria": true, "predator_retina_see_predators": false, "predator_show_vision": false, "test_param_1": 1, "test_param_2": 2, "test_param_3": 3.0, "test_param_4": 4, "test_param_5": 5, "test_param_6": 6.0, "test_param_7": 7, "test_param_8": 8, "test_param_9": 9.0, "test_param_10": 10, "test_param_11": 11, "test_param_12": 12.0, "test_param_13": 13, "test_param_14": 14, "test_param_15": 15.0, "test_param_16": 16, "test_param_17": 17, "test_param_18": 18.0, "test_param_19": 19, "test_param_20": 20, "test_param_21": 21.0, "test_param_22": 22, "test_param_23": 23, "test_param_24": 24.0, "test_param_25": 25, "test_param_26": 26, "test_param_27": 27.0, "test_param_28": 28, "test_param_29": 29, "test_param_30": 30.0}, "world": {"width": 8000.0, "height": 8000.0, "shape": "circular", "radius": 4000.0}, "camera": {"x": -770.7317721878499, "y": -400.6259965468564, "zoom": 0.1116781577942491}, "simulation": {"total_simulation_time": 1620915.9350269376}, "food": {"count": 299, "target": 300}, "agents": [{"type": "bacteria", "x": 3781.2862846451044, "y": 5737.551553632506, "r": 9.0, "angle": -1.7545952836478493, "vx": -54.45667995437463, "vy": -292.94004610430943, "energy": 29.48834705178348, "age": 79.34999999999678, "brain_sizes": [18, 32, 16, 8, 2], "brain_version": 19565, "brain_weights": [[[0.7125901579856873, -4.237111568450928, 0.5889285802841187, 0.08387702703475952, 6.440526962280273, -6.617406368255615, 4.383669853210449, -3.2759079933166504, -6.88471794128418, 9.324430465698242, 5.678761959075928, 2.6545631885528564, -1.8326764106750488, -4.849817752838135, 3.220806360244751, 7.573149681091309, 2.7519073486328125, 1.7946243286132812], [0.7746649980545044, -10.826661109924316, 0.45145609974861145, 7.554830551147461, 10.638592720031738, -5.517297744750977, 7.246903896331787, -7.763571262359619, 0.5444855690002441, 1.4324630498886108, -0.9481911659240723, 1.876879096031189, 8.156219482421875, -3.05635929107666, -5.121787071228027, 4.114745616912842, -1.3258401155471802, -0.5858420133590698], [9.240424156188965, 7.376213550567627, -6.278656005859375, -2.63761305809021, -0.8392947912216187, -5.378201961517334, -3.7064006328582764, -4.614260196685791, 8.725732803344727, 1.453432321548462, -2.5294594764709473, 3.499786376953125, -2.981675148010254, -8.438319206237793, -0.7241984009742737, -5.521702766418457, 1.0206729173660278, -1.7915071249008179], [6.111175060272217, -4.111248016357422, 6.041103363037109, -7.904672622680664, -2.0510716438293457, 3.000338554382324, 2.4430036544799805, 4.517070293426514, 3.4947800636291504, -12.839365005493164, -0.3815538287162781, -2.4478302001953125, -2.1030778884887695, -2.116722822189331, 4.0467681884765625, -1.6985552310943604, 0.8530582189559937, -1.549428939819336], [1.723710060119629, -1.301594853401184, 4.564605236053467, -6.210155487060547, -0.38969331979751587, 1.9957207441329956, 1.2042988538742065, 4.131079196929932, 6.676193714141846, 2.6962616443634033, 0.5808107256889343, 0.30320215225219727, 18.174650192260742, -0.6252143383026123, -0.889660120010376, -2.8376545906066895, -7.644630432128906, 10.989581108093262], [1.625712513923645, 1.4726083278656006, 5.211652755737305, -2.499391794204712, -4.978967666625977, 1.0700680017471313, -5.790722370147705, 0.03599674254655838, -2.817873001098633, 6.274785041809082, 3.1566827297210693, -4.564384937286377, 1.5696513652801514, 3.179131269454956, 1.3624168634414673, -2.26973557472229, -3.106473922729492, -5.1587324142456055], [2.183443069458008, 4.562846660614014, -2.2708804607391357, -1.187646746635437, 0.7322592735290527, 3.6996822357177734, 6.007072925567627, 1.376222014427185, 5.000250816345215, -0.8640687465667725, -2.306962728500366, -3.986354112625122, 3.961369514465332, 2.994600534439087, 2.012251853942871, 4.800482749938965, -5.007973670959473, 1.6317180395126343], [0.6824100017547607, 0.4163645803928375, -1.2368755340576172, -2.4425125122070312, -2.478374481201172, -2.979001998901367, 7.292651176452637, -2.772188663482666, -8.573700904846191, 2.455164909362793, 3.6726174354553223, -4.646320819854736, -1.1603034734725952, 8.766463279724121, -1.3319376707077026, -0.8338942527770996, 4.032029628753662, -1.5298219919204712], [2.124507427215576, 3.2342193126678467, -1.655082106590271, -4.712427139282227, 2.073286533355713, -0.8725882172584534, -3.6337947845458984, 2.0699405670166016, -1.1307103633880615, -3.0370655059814453, 2.4438204765319824, 0.8299140334129333, -5.867234706878662, -1.3295921087265015, -10.489362716674805, 3.6879618167877197, -3.924039840698242, -6.175544738769531], [-6.128795623779297, -2.782329559326172, -0.6110635995864868, -2.771559476852417, 1.3836562633514404, -3.2692737579345703, 8.453699111938477, 3.842052936553955, 1.8049651384353638, -3.3679745197296143, -3.1346757411956787, -3.6174869537353516, -8.349355697631836, 1.8470454216003418, -7.550224304199219, -1.6739394664764404, -1.9333854913711548, -5.6378912925720215], [4.668663501739502, -1.49403715133667, 2.442162275314331, -0.09770389646291733, 2.7953481674194336, 1.8216930627822876, -0.6788860559463501, 3.3799736499786377, 6.140768527984619, -4.539278507232666, -0.22825229167938232, -3.9401142597198486, -0.6382743716239929, -7.683257579803467, -4.44636869430542, 1.3396021127700806, 1.841382384300232, -1.7737377882003784], [0.9424768090248108, -2.2333009243011475, -4.857327461242676, -5.29414176940918, -3.0365118980407715, 0.3684127926826477, 3.287198781967163, 0.4008072018623352, 1.767761468887329, 0.2776987552642822, -5.418417453765869, 4.952106952667236, -1.3595290184020996, 0.2362240105867386, -4.147860527038574, 1.1321604251861572, -3.657837390899658, -8.83603572845459], [-4.796810626983643, 2.3676533699035645, 3.2999401092529297, -2.0323400497436523, -1.2632662057876587, 0.2533586323261261, -1.0169649124145508, -3.057361602783203, -0.5680151581764221, -4.656940937042236, 1.5913246870040894, -5.012579917907715, 10.827619552612305, 4.6393723487854, -0.023048557341098785, 5.423914909362793, -3.036027669906616, -1.018218755722046], [-8.105191230773926, 2.353923797607422, 2.1200716495513916, 5.2276611328125, -4.930672645568848, -9.213383674621582, 0.76097571849823, 6.543018341064453, 7.914260387420654, -1.0334429740905762, -0.25333255529403687, -0.4327951669692993, -1.1914801597595215, 3.933901309967041, -4.55026912689209, 3.6115224361419678, 2.407313346862793, -0.6755190491676331], [-2.44024920463562, -12.032286643981934, -5.769538879394531, 7.440752983093262, 1.8292325735092163, 2.11374831199646, -8.013216972351074, -4.963459491729736, -4.156549453735352, 3.034006357192993, -5.467022895812988, 3.5003349781036377, -3.162963390350342, -0.3208760619163513, -2.271254539489746, -1.633341670036316, -4.9609456062316895, 2.3603355884552], [-0.8915693163871765, 0.3116058111190796, 4.396491050720215, 2.5701706409454346, 2.816298007965088, 7.153648853302002, 5.115728855133057, 0.14992766082286835, 1.8348379135131836, -3.296510934829712, -7.096018314361572, 0.5723275542259216, -5.981595993041992, 3.078012228012085, -6.22352409362793, -4.284889221191406, 0.27819812297821045, 5.992241859436035], [-5.199791431427002, 1.7982761859893799, 1.5756428241729736, -3.008680820465088, 0.9585108757019043, 4.37929630279541, -0.15949086844921112, 1.2373671531677246, 0.557671308517456, -3.6548960208892822, -4.23524284362793, 4.149615287780762, 0.2072678655385971, -8.843140602111816, -2.4230573177337646, -3.49265718460083, -3.284135341644287, 4.49891471862793], [-2.338724374771118, 0.22493112087249756, 3.7551958560943604, 2.6528947353363037, 0.027975372970104218, 3.5590810775756836, 3.8405141830444336, 2.3813555240631104, 7.988931179046631, 5.702876567840576, 5.121060371398926, 3.018897771835327, -4.826964378356934, 0.6792075037956238, 0.40959420800209045, -1.9463719129562378, -8.654267311096191, -2.3072140216827393], [-0.616248607635498, -8.265052795410156, -5.920971870422363, 1.308677077293396, -6.824957847595215, -3.098390817642212, -3.674851179122925, 1.715345025062561, 4.689577102661133, -0.017563793808221817, 1.6293234825134277, -13.024285316467285, 1.2188026905059814, -2.497396945953369, 1.4834052324295044, 5.278541088104248, 5.205695629119873, 10.639582633972168], [-7.891263484954834, -0.6486477255821228, 0.4670664668083191, 0.9708962440490723, -3.882171869277954, 0.20162659883499146, 0.15233927965164185, -4.010629653930664, 1.5966415405273438, -5.1905012130737305, 2.4237401485443115, 3.7744200229644775, 3.486279249191284, 1.7416492700576782, 8.765620231628418, -1.9859827756881714, -2.482487916946411, 0.26293790340423584], [1.4440244436264038, -13.367018699645996, 0.15662063658237457, 5.177401065826416, -8.091787338256836, -2.5821986198425293, -3.4241364002227783, -2.504925012588501, -1.7679136991500854, 5.316679954528809, 9.889415740966797, -1.322422981262207, 1.6607805490493774, 2.31072735786438, -0.37623563408851624, -4.353226661682129, -0.4197453260421753, -1.7897659540176392], [4.488352298736572, -7.057973861694336, 1.9370299577713013, 3.581371784210205, -8.412680625915527, -3.332083225250244, -5.192803859710693, 4.263286113739014, 0.7175080180168152, 0.5480775237083435, 3.5768816471099854, 1.8972983360290527, -8.390420913696289, 4.043474197387695, -0.541756272315979, 1.809168815612793, 0.7405569553375244, 3.070864677429199], [9.418916702270508, -1.640487790107727, 0.7738093137741089, 0.7244869470596313, -5.563485145568848, -0.7350804805755615, -0.5523843765258789, -8.017815589904785, -1.1015311479568481, -0.38471078872680664, 4.817221641540527, 1.2714390754699707, -5.068202018737793, 4.4442596435546875, -4.020289897918701, -0.6080240607261658, 9.45838737487793, 7.089372158050537], [0.0843125730752945, 4.750074863433838, 4.520512104034424, -0.7028247117996216, -7.320173740386963, -4.32920503616333, -9.60708236694336, -0.3785463571548462, -1.6931898593902588, 4.140462875366211, -1.3196330070495605, 6.03605318069458, 3.1788010597229004, -4.242573261260986, -0.010299935936927795, -2.2661006450653076, 4.755267143249512, 4.545165061950684], [-3.463754892349243, 1.6175634860992432, 5.404839515686035, 0.33062219619750977, 3.1861419677734375, -6.733673095703125, -7.20563268661499, -5.925936698913574, 1.9737157821655273, -3.4198405742645264, 0.282916396856308, 5.402155876159668, 4.984381675720215, -8.057926177978516, -5.1580657958984375, -2.6740994453430176, 2.088716745376587, -2.0588912963867188], [-4.470313549041748, -5.739908218383789, -5.0368475914001465, -6.064456939697266, -1.6090697050094604, -0.5100256204605103, 1.0649360418319702, 2.4721200466156006, 0.4014241397380829, 2.600024461746216, -2.2007503509521484, 2.3467915058135986, -3.8698832988739014, 2.1857831478118896, -1.7867214679718018, 2.2150161266326904, -7.131811618804932, -4.542435646057129], [-3.4435925483703613, 2.5280890464782715, 4.369807720184326, -5.730185031890869, -4.641183853149414, -0.2407158464193344, 7.015727519989014, -1.2244585752487183, -2.6707167625427246, -2.3712685108184814, -3.3799476623535156, 5.399753570556641, 3.0217578411102295, 2.526733160018921, -0.3483971655368805, -0.137504443526268, 2.641932249069214, 0.6892558336257935], [6.16811990737915, 3.4110100269317627, -1.0898115634918213, -5.206104278564453, 2.212190866470337, -4.1402974128723145, -8.264626502990723, -0.5710484385490417, -2.6497085094451904, 1.3351595401763916, -6.353033065795898, 0.5401996970176697, -2.538642168045044, 0.966127336025238, -5.12512731552124, 2.0752718448638916, -0.867956817150116, 2.6289241313934326], [-0.15733709931373596, -4.198796272277832, -0.4119371473789215, 4.350332736968994, -5.709073066711426, 7.452210426330566, -7.874851703643799, -1.5243091583251953, -2.615508556365967, -2.071483612060547, 0.13910043239593506, 0.19914516806602478, -2.198256492614746, 1.626792311668396, 1.6330691576004028, -1.3833448886871338, 4.342876434326172, -2.002645254135132], [2.813173532485962, 4.990815162658691, 1.6059882640838623, 10.115256309509277, 5.121232032775879, -0.511523425579071, -3.3294875621795654, -3.9072041511535645, 5.265035152435303, 3.5958316326141357, -3.203603744506836, 4.536458969116211, 6.243194103240967, 0.304341584444046, 4.343152046203613, -0.8744429349899292, -1.3539994955062866, -10.625855445861816], [1.7501373291015625, 5.835260391235352, -1.9370512962341309, 0.4190405011177063, 5.944297790527344, -0.5463515520095825, -5.1472063064575195, -6.549663066864014, -1.0971115827560425, -3.0438756942749023, 1.154957890510559, 2.053316593170166, 4.333165645599365, -4.688155174255371, -2.302680253982544, 3.773879051208496, 4.282639026641846, -4.695220947265625], [-4.409919738769531, -6.054478168487549, 1.901969313621521, -3.4560182094573975, -3.868727922439575, -0.33275023102760315, -2.621757984161377, 2.2116286754608154, 2.0914883613586426, -1.1399656534194946, -1.7842602729797363, 9.189709663391113, -4.648263454437256, 0.028035670518875122, 4.266764163970947, 3.4086616039276123, 1.7702542543411255, 2.9903578758239746]], [[0.4787932336330414, -2.005174160003662, -6.671206474304199, 4.101819038391113, 0.18626049160957336, -4.150411128997803, 5.6545729637146, -4.472072124481201, 5.697242736816406, -1.1476033926010132, 3.879115104675293, -4.350861549377441, -3.3828389644622803, -5.1755194664001465, -4.030703544616699, 5.437538146972656, -11.195263862609863, -4.748887538909912, -3.647850751876831, -11.258523941040039, -6.340821743011475, 6.107339382171631, -2.7367372512817383, 0.12036439031362534, 4.1071038246154785, 2.6482763290405273, -1.7765693664550781, -3.496732234954834, 3.92863392829895, 2.0562872886657715, -1.206248164176941, 3.0056538581848145], [0.43287211656570435, 0.290455162525177, 1.2111468315124512, -3.0633506774902344, 2.573071241378784, -9.923975944519043, 0.1490870863199234, 4.943665981292725, 2.561511993408203, -8.459854125976562, 1.0471653938293457, 0.50868159532547, 8.364830017089844, -10.808016777038574, -1.7058310508728027, 0.3852132260799408, -1.9294815063476562, 3.1984288692474365, -2.062778949737549, -3.5441370010375977, 0.10235282778739929, -3.6725711822509766, -0.3411797285079956, -4.765310287475586, 0.06341498345136642, -1.079506278038025, -2.8370540142059326, 5.52030611038208, 2.932943344116211, -2.452749013900757, 0.12537869811058044, 0.9308260679244995], [9.178999900817871, -8.989259719848633, -6.8468241691589355, 3.723665714263916, -1.606594204902649, 1.7569336891174316, 4.024081230163574, -13.948841094970703, -6.787506103515625, 0.6747815608978271, 4.59496545791626, 2.290879011154175, -1.3813139200210571, 1.1088402271270752, 5.377829551696777, 3.3812921047210693, 5.648892402648926, -4.187614917755127, -11.838671684265137, 3.9078445434570312, 2.2902603149414062, 0.052213698625564575, 3.625336170196533, -0.520435631275177, 1.7282968759536743, -3.230062961578369, 2.8374199867248535, -2.792870283126831, -6.281514644622803, -0.2395571619272232, -3.1699230670928955, -1.153249740600586], [5.6094069480896, -7.075469493865967, 5.7750678062438965, 1.4040292501449585, -0.5892055034637451, -7.670857906341553, -0.621610701084137, -4.895813465118408, 2.64277982711792, -8.488531112670898, 0.9201039671897888, -0.8584610223770142, 2.6467599868774414, -1.6387207508087158, -5.575252056121826, 3.407412052154541, 6.513389587402344, 0.7619229555130005, -2.377002239227295, -5.626646995544434, -7.20897102355957, 2.654637575149536, -2.3729026317596436, 2.1996400356292725, -0.1259138137102127, 8.197933197021484, -3.3848636150360107, -3.4806747436523438, -4.786204814910889, -0.6993215680122375, 1.8424079418182373, 1.7404277324676514], [1.425492763519287, -0.9398131370544434, -1.2007405757904053, 6.891414642333984, 4.63840913772583, 1.948420763015747, -5.17280387878418, 6.038400173187256, -2.056386709213257, -6.321080207824707, 2.762071132659912, 3.3577828407287598, -2.7141666412353516, -1.2851682901382446, -0.8568119406700134, -5.960402488708496, 2.6550402641296387, -2.5187056064605713, 0.6414769887924194, -3.1443374156951904, 2.420436382293701, 4.381968975067139, 2.592820405960083, 8.546034812927246, -4.459900379180908, -4.797689437866211, 1.986631155014038, -6.394282817840576, 7.820278167724609, -0.8525320887565613, -1.2524707317352295, -0.3934972286224365], [4.125314712524414, 2.926609754562378, 5.9762983322143555, -7.821593761444092, -2.95011830329895, 0.6059986352920532, 3.835893154144287, -3.9181318283081055, 2.488373041152954, 4.298398017883301, 1.7922136783599854, -5.051324844360352, -7.053230285644531, 2.824470043182373, 0.28108933568000793, -3.358146905899048, 3.0417463779449463, 0.9249881505966187, -12.424627304077148, 4.734768867492676, -1.5801162719726562, 3.605985164642334, -6.01876163482666, -2.8698458671569824, 3.9880666732788086, -0.030465854331851006, -0.9537836313247681, 4.809802055358887, -0.9695931077003479, 2.0208513736724854, -0.7558109760284424, -3.861804962158203], [0.5633618831634521, 0.27981916069984436, -0.3008196949958801, 5.923840045928955, -2.747856378555298, 0.978042483329773, 0.49002423882484436, 0.7625243663787842, 0.3378613293170929, 5.559393882751465, -3.0122487545013428, -6.056308746337891, -6.545733451843262, 2.2981224060058594, 6.238173007965088, 5.373493671417236, 1.4387704133987427, 0.8578618764877319, -0.7062332034111023, 0.8168272972106934, -1.99423086643219, -2.561309814453125, 5.3918867111206055, -2.843226432800293, 4.580130577087402, 5.420126438140869, 0.32396388053894043, 2.9465835094451904, 7.1930623054504395, -0.8998327851295471, 1.658266544342041, -8.61622142791748], [-0.9687477350234985, 5.152078628540039, -4.07460880279541, -1.6374202966690063, -4.727277755737305, 6.410908222198486, 8.181327819824219, -1.7232575416564941, 4.412267208099365, 2.8878729343414307, -6.862537860870361, 8.640083312988281, 5.669323921203613, 2.9922432899475098, 1.725645661354065, -10.183865547180176, -0.2604316473007202, 6.1513447761535645, -2.0015640258789062, -3.8294548988342285, -0.5030681490898132, 0.434646338224411, 0.9169918894767761, 1.298621654510498, -0.35311681032180786, 3.676161527633667, -0.7285693287849426, 2.8985371589660645, 7.072636604309082, 6.138584613800049, 0.9730719923973083, -0.027541369199752808], [1.230778455734253, 5.178175926208496, 1.9776736497879028, -3.6849679946899414, -3.8368213176727295, -6.968773365020752, -0.062286376953125, 1.6880176067352295, 7.751891613006592, -7.456926345825195, -1.1413137912750244, -6.957292556762695, -3.7488505840301514, 1.4723645448684692, 1.6047621965408325, 4.625977516174316, -1.3966871500015259, -6.233449935913086, -2.6541805267333984, -2.044774293899536, -3.011052131652832, -1.5199933052062988, -1.0634137392044067, 1.9326647520065308, -3.4259140491485596, -9.574615478515625, -4.513184070587158, -2.8458492755889893, 1.646669864654541, 0.7979340553283691, -7.920340538024902, -0.9675254821777344], [-3.5258591175079346, 2.209991216659546, 3.722296953201294, -1.4227951765060425, 5.531914234161377, -0.524224042892456, 7.614264011383057, 3.1926980018615723, -3.782330274581909, 4.494036674499512, -3.1761314868927, 0.7718455791473389, -4.692469596862793, -2.4899840354919434, 4.313167572021484, 5.284019470214844, 1.2968676090240479, -1.8907972574234009, 3.372365951538086, 4.34364128112793, -1.1813548803329468, -7.7253546714782715, 2.782802104949951, -2.056046485900879, -0.22111544013023376, 3.3220176696777344, -1.068992018699646, -2.8369624614715576, 0.7141517400741577, 2.974586248397827, -1.163271188735962, 4.6049981117248535], [2.2672290802001953, -1.7072932720184326, 3.651603937149048, -5.389112949371338, -8.835418701171875, 5.776388168334961, -2.680859327316284, 4.553132057189941, -0.8927127122879028, -6.315213203430176, 6.900129318237305, 4.595881462097168, 2.937011480331421, 3.5187299251556396, 0.5152221322059631, 7.393061637878418, -2.8581626415252686, -1.5580356121063232, -0.0016226321458816528, -5.483415126800537, -1.7411128282546997, -6.423390865325928, -5.507925987243652, 3.2660069465637207, -3.616293430328369, 0.5774760246276855, 1.0281013250350952, -5.475118160247803, 5.290015697479248, -5.314410209655762, -2.4034433364868164, 3.6281967163085938], [-3.952512502670288, 1.4586012363433838, 3.980470895767212, -2.262333869934082, 1.3763238191604614, -2.3988492488861084, -3.7969751358032227, -1.4135736227035522, 2.7875375747680664, -1.1509971618652344, 1.0211101770401, -1.00544273853302, -2.4222466945648193, 8.354555130004883, -7.745029449462891, -1.8921713829040527, -0.9215705394744873, 4.936830997467041, -0.2893766164779663, -2.5907886028289795, 5.644468307495117, 4.125541687011719, 7.798859119415283, -1.6899733543395996, -1.013169288635254, 1.9984211921691895, 1.3541144132614136, 3.550032138824463, 1.586071491241455, -3.6648874282836914, 5.547430038452148, 7.174117565155029], [9.789841651916504, 1.2738584280014038, -0.5087828636169434, -4.3311614990234375, -0.8604894876480103, -0.824295163154602, -4.360734939575195, 4.144412994384766, 3.2916247844696045, 2.9053354263305664, -3.354013681411743, -1.0206867456436157, 0.0498870313167572, -1.097484827041626, -3.885685443878174, -4.985100746154785, 9.160415649414062, -2.9163687229156494, 5.4194488525390625, 2.050869941711426, 5.6976518630981445, -4.222767353057861, 1.6571325063705444, 4.463296890258789, 0.678254246711731, -8.569862365722656, -11.19384765625, -13.568493843078613, -2.152486801147461, 0.8769358992576599, 0.7526108622550964, 7.92495059967041], [4.423800468444824, -2.169461250305176, -0.04025626927614212, 4.9184088706970215, 2.0229063034057617, 4.516165256500244, -0.04356968030333519, -4.401632308959961, 10.261334419250488, 1.1867096424102783, 4.669081211090088, 6.777473449707031, -1.519055724143982, 3.6995038986206055, -0.7617478966712952, -9.407563209533691, 2.2247657775878906, 2.5987014770507812, -1.0912652015686035, 5.818142890930176, -1.7897849082946777, -6.90142297744751, -1.968719244003296, -8.533661842346191, -1.191818356513977, -0.9010053277015686, -2.7661690711975098, -0.7136033773422241, -2.918102979660034, -2.2538771629333496, -3.4620747566223145, 7.038777828216553], [4.432164192199707, -0.33311668038368225, 2.4312613010406494, -0.8263081908226013, 3.8092093467712402, -0.3232913613319397, 3.5328569412231445, -8.050338745117188, 5.355925559997559, -5.406869888305664, -4.16400146484375, -2.3727784156799316, -6.6855974197387695, 7.064528465270996, -3.400484561920166, 2.267016887664795, 4.05881929397583, 4.159041881561279, -0.6493887901306152, -9.403726577758789, 2.8199515342712402, 0.41628026962280273, -0.7076807022094727, -6.7967000007629395, 0.23015756905078888, -3.8903069496154785, 0.4597811698913574, -4.4904866218566895, -4.480911731719971, 5.929938316345215, 2.071845531463623, 1.1990340948104858], [-5.212075710296631, -2.2543537616729736, -10.43689250946045, 1.6388119459152222, 0.6992836594581604, 5.4249267578125, 1.5724045038223267, -1.0404081344604492, 2.495511531829834, -4.740013599395752, -11.53264331817627, 1.9758896827697754, 6.331587314605713, 1.8376209735870361, 2.60675048828125, -1.5499975681304932, 4.875509262084961, -2.3902862071990967, -2.980255603790283, 1.6893218755722046, 0.9819043874740601, 2.0757668018341064, -1.3606845140457153, -5.544536590576172, -3.895235776901245, 4.83132791519165, 4.759301662445068, -1.5974833965301514, -0.23627817630767822, -4.320555210113525, -3.170076608657837, -3.129169225692749]], [[-6.632884979248047, -1.1590125560760498, 2.93947696685791, -0.5954723954200745, -1.741062045097351, 1.2455594539642334, -0.35267817974090576, 4.250435829162598, -2.3647546768188477, 1.558329463005066, -0.23613591492176056, -4.770997524261475, -5.423166751861572, -2.4541800022125244, -3.002377986907959, 2.1610169410705566], [-1.3018865585327148, -7.680619716644287, -2.2296454906463623, -1.6244540214538574, 3.8457274436950684, 0.26862633228302, 6.477147102355957, -1.6180195808410645, 5.846963882446289, 0.7801468968391418, 1.5969363451004028, 6.620026588439941, 1.4207184314727783, 1.7680387496948242, 5.5480523109436035, 0.05793394148349762], [-1.5481441020965576, 1.4201444387435913, 0.8757627010345459, 0.5820204615592957, 1.5162957906723022, 6.422883033752441, -4.807037830352783, -5.091770648956299, 6.924777507781982, -1.8291407823562622, -0.7417592406272888, -7.198439598083496, -3.5389137268066406, 0.3770129084587097, -16.291732788085938, 6.064611911773682], [-0.10066027194261551, -2.607556104660034, -6.10026741027832, 2.472043514251709, 1.4588650465011597, 4.898003578186035, 0.6075944304466248, -3.4142963886260986, 8.152349472045898, 4.008607864379883, -3.615973711013794, 0.06206401064991951, 0.13806171715259552, 2.662604570388794, -7.651590347290039, -5.086409091949463], [-9.439709663391113, 1.270392656326294, 9.03048038482666, -8.772093772888184, -0.5564555525779724, 0.8328596353530884, 0.8034358024597168, -0.997724711894989, 0.22790466248989105, -3.754072904586792, 0.013092711567878723, 1.1568069458007812, -1.6051641702651978, -2.738912343978882, 7.790004253387451, -1.4568932056427002], [0.29108771681785583, -1.8697261810302734, -2.095860719680786, -0.4708257019519806, -4.993424892425537, 3.3777272701263428, 5.609005928039551, 13.26585865020752, -0.11793005466461182, -2.5511839389801025, -1.6054805517196655, 4.04189920425415, 6.048051357269287, -9.75573444366455, 1.9173954725265503, 8.699042320251465], [-2.80290150642395, -2.6028409004211426, 11.15587043762207, 7.926758766174316, -1.7405649423599243, -5.666827201843262, -2.1166999340057373, -0.33370092511177063, -2.8410024642944336, 2.489370584487915, -3.7145988941192627, -3.5991692543029785, -4.655210018157959, 8.132110595703125, -0.62130206823349, 1.7722471952438354], [-8.555588722229004, -3.3417060375213623, -3.2902820110321045, -1.5339304208755493, 3.6510000228881836, -4.774842739105225, -16.382287979125977, -1.4785901308059692, 6.346734523773193, 1.042038083076477, -3.1650028228759766, 10.448485374450684, -2.1864471435546875, 0.34132227301597595, 0.6799204349517822, 6.5422892570495605]], [[6.117443084716797, 1.7531518936157227, -3.430091142654419, -1.9060713052749634, 4.818370342254639, -0.9727892875671387, -6.601317405700684, -0.7930549383163452], [-2.3882057666778564, -0.4280799627304077, -3.40930438041687, 0.41715383529663086, 0.9895063638687134, -5.10918664932251, 1.6534514427185059, 1.6240501403808594]]], "brain_biases": [[9.602612495422363, -0.22711120545864105, -7.411320686340332, -0.5582965016365051, -7.187703609466553, -4.213986873626709, -4.169804096221924, -8.313359260559082, -8.375076293945312, -2.779454469680786, -9.4646577835083, 0.5788016319274902, -1.8648685216903687, 2.2172603607177734, 9.737648963928223, -6.716207981109619, 5.236644268035889, 0.35530099272727966, 7.9835124015808105, -6.257167816162109, 2.996872901916504, -3.0001580715179443, -4.190337657928467, -4.370757579803467, -5.8347272872924805, 6.0452704429626465, -5.545494079589844, 7.560676097869873, -3.1410093307495117, 2.321028470993042, 9.934082984924316, -5.5975141525268555], [-2.8674628734588623, -5.578214168548584, 2.44460391998291, -0.18503594398498535, 9.534283638000488, 1.0215359926223755, -4.402541160583496, 6.013678073883057, 3.1085426807403564, -5.193586349487305, 2.18624210357666, 10.618721008300781, -1.2611446380615234, 6.4081926345825195, 4.472849369049072, -7.8340044021606445], [3.144141674041748, -4.09731912612915, -13.71186637878418, -5.712012767791748, 6.468987941741943, 1.285446286201477, -2.8304367065429688, 13.098907470703125], [-4.6743927001953125, 0.4492324888706207]], "sensor_retina_count": 18, "sensor_vision_radius": 300.0, "sensor_fov_degrees": 180.0, "sensor_skip": 2, "sensor_see_food": true, "sensor_see_bacteria": false, "sensor_see_predators": true, "locomotion_max_speed": 300.0, "locomotion_max_turn": 3.141592653589793, "energy_death_energy": 0.0, "energy_split_energy": 200.0, "energy_v0_cost": 3.0, "energy_vmax_cost": 6.0, "energy_vmax_ref": 300.0, "energy_energy_cap": 200.0, "energy_loss_idle": 3.0, "energy_loss_move": 6.0, "last_brain_output": [4.983379364013672, -0.21700629591941833], "last_brain_activations": [[0.9999999403953552, -0.22328534722328186, -0.9999992847442627, -0.5067124366760254, -0.9999988675117493, -0.9995627999305725, -0.9995223879814148, -0.9999998211860657, -0.9999998807907104, -0.992323637008667, -0.9999999403953552, 0.5217939019203186, -0.9531266093254089, 0.9765565395355225, 0.9999999403953552, -0.999997079372406, 0.9999434351921082, 0.3410683274269104, 0.9999997615814209, -0.9999926686286926, 0.995023787021637, -0.9950563311576843, -0.9995416402816772, -0.9996804594993591, -0.9999828934669495, 0.9999887943267822, -0.9999695420265198, 0.999999463558197, -0.9962677359580994, 0.9809082746505737, 0.9999999403953552, -0.9999725222587585], [-1.0, -0.9999995231628418, 1.0, 1.0, -1.0, 0.9997848868370056, 0.8256361484527588, 1.0, -0.9999992251396179, -1.0, -0.9999998211860657, 0.9999997615814209, 0.9999999403953552, 1.0, 1.0, 0.9999998807907104], [0.9999996423721313, 0.9999998807907104, -1.0, -1.0, 1.0, 1.0, 1.0, 0.9999998807907104], [4.9835710525512695, -0.21708068251609802]]}, {"type": "bacteria", "x": 4166.755723862341, "y": 7927.275124380513, "r": 9.0, "angle": -0.8390546371499065, "vx": 200.38028681618277, "vy": -223.12597186590892, "energy": 104.58738951487663, "age": 53.83333333333156, "brain_sizes": [18, 32, 16, 8, 2], "brain_version": 19566, "brain_weights": [[[0.8381035327911377, -4.237111568450928, 0.46980610489845276, 0.08387702703475952, 6.440526962280273, -6.72364616394043, 4.383669853210449, -3.2759079933166504, -6.88471794128418, 9.324430465698242, 5.678761959075928, 2.6545631885528564, -1.8326764106750488, -4.849817752838135, 3.541513442993164, 7.573149681091309, 2.7519073486328125, 1.7946243286132812], [0.7746649980545044, -10.826661109924316, 0.45145609974861145, 7.554830551147461, 10.638592720031738, -5.517297744750977, 7.246903896331787, -7.763571262359619, 0.5444855690002441, 1.4324630498886108, -0.9481911659240723, 1.876879096031189, 8.156219482421875, -3.05635929107666, -5.23179292678833, 4.114745616912842, -1.3571780920028687, -0.5858420133590698], [9.240424156188965, 7.376213550567627, -6.278656005859375, -2.63761305809021, -0.8392947912216187, -5.378201961517334, -3.7064006328582764, -4.614260196685791, 8.725732803344727, 1.453432321548462, -2.3278660774230957, 3.499786376953125, -2.981675148010254, -8.438319206237793, -0.7241984009742737, -5.521702766418457, 1.0206729173660278, -1.7915071249008179], [6.111175060272217, -4.12105655670166, 6.041103363037109, -7.904672622680664, -2.0510716438293457, 3.000338554382324, 2.4430036544799805, 4.517070293426514, 3.4947800636291504, -12.839365005493164, -0.3815538287162781, -2.4478302001953125, -2.1030778884887695, -2.116722822189331, 4.0467681884765625, -1.6985552310943604, 0.8530582189559937, -1.549428939819336], [1.723710060119629, -1.301594853401184, 4.564605236053467, -6.210155487060547, -0.38969331979751587, 1.6946784257888794, 1.2042988538742065, 4.131079196929932, 6.676193714141846, 2.6962616443634033, 0.5808107256889343, 0.30320215225219727, 18.174650192260742, -0.6252143383026123, -0.889660120010376, -2.8376545906066895, -7.644630432128906, 10.989581108093262], [1.625712513923645, 1.4726083278656006, 5.211652755737305, -2.499391794204712, -4.978967666625977, 1.0700680017471313, -5.790722370147705, 0.03599674254655838, -2.817873001098633, 6.274785041809082, 3.1566827297210693, -4.564384937286377, 1.5696513652801514, 3.273225784301758, 1.3624168634414673, -2.26973557472229, -3.106473922729492, -5.1587324142456055], [2.183443069458008, 4.562846660614014, -2.2708804607391357, -1.187646746635437, 0.7322592735290527, 3.6996822357177734, 6.007072925567627, 1.376222014427185, 5.000250816345215, -0.8640687465667725, -2.306962728500366, -3.986354112625122, 3.961369514465332, 2.994600534439087, 2.012251853942871, 4.800482749938965, -5.007973670959473, 1.6317180395126343], [0.6824100017547607, 0.4163645803928375, -1.2368755340576172, -2.4425125122070312, -2.478374481201172, -2.979001998901367, 7.225308418273926, -2.772188663482666, -8.573700904846191, 2.455164909362793, 3.6726174354553223, -4.646320819854736, -1.1603034734725952, 8.766463279724121, -1.3319376707077026, -0.8338942527770996, 4.032029628753662, -1.5298219919204712], [2.124507427215576, 3.2342193126678467, -1.655082106590271, -4.725166320800781, 2.092348575592041, -0.8725882172584534, -3.6337947845458984, 2.0699405670166016, -1.1307103633880615, -3.0370655059814453, 2.4438204765319824, 0.8299140334129333, -5.850636005401611, -1.3295921087265015, -10.489362716674805, 3.6879618167877197, -3.924039840698242, -6.175544738769531], [-6.128795623779297, -2.782329559326172, -0.6110635995864868, -2.8097667694091797, 1.4843711853027344, -3.2692737579345703, 8.453699111938477, 3.842052936553955, 1.8049651384353638, -3.2217259407043457, -3.1346757411956787, -3.6174869537353516, -8.349355697631836, 2.0112557411193848, -7.550224304199219, -1.6739394664764404, -1.9333854913711548, -5.6378912925720215], [4.668663501739502, -1.49403715133667, 2.442162275314331, -0.09770389646291733, 2.7953481674194336, 1.8216930627822876, -0.6788860559463501, 3.44058895111084, 6.140768527984619, -4.539278507232666, -0.09302602708339691, -3.9401142597198486, -0.6382743716239929, -7.683257579803467, -4.44636869430542, 1.3396021127700806, 1.862862229347229, -1.7737377882003784], [0.9424768090248108, -2.3337419033050537, -4.857327461242676, -5.29414176940918, -3.0365118980407715, 0.3684127926826477, 3.287198781967163, 0.4008072018623352, 1.767761468887329, 0.2776987552642822, -5.418417453765869, 4.952106952667236, -1.3595290184020996, 0.2362240105867386, -4.147860527038574, 1.1321604251861572, -3.657837390899658, -8.83603572845459], [-4.796810626983643, 2.3676533699035645, 3.3336946964263916, -2.0323400497436523, -1.2632662057876587, 0.2533586323261261, -1.0169649124145508, -3.057361602783203, -0.5680151581764221, -4.656940937042236, 1.5913246870040894, -5.012579917907715, 10.827619552612305, 4.535919666290283, -0.023048557341098785, 5.423914909362793, -3.036027669906616, -1.018218755722046], [-8.105191230773926, 2.353923797607422, 2.1200716495513916, 5.2276611328125, -4.930672645568848, -9.213383674621582, 0.76097571849823, 6.543018341064453, 7.914260387420654, -1.063173770904541, -0.25333255529403687, -0.4327951669692993, -1.1914801597595215, 3.933901309967041, -4.55026912689209, 3.6115224361419678, 2.407313346862793, -0.6755190491676331], [-2.44024920463562, -12.032286643981934, -5.769538879394531, 7.440752983093262, 1.8146438598632812, 2.11374831199646, -8.013216972351074, -4.963459491729736, -4.156549453735352, 3.034006357192993, -5.467022895812988, 3.5003349781036377, -3.162963390350342, -0.3208760619163513, -2.271254539489746, -1.633341670036316, -4.9609456062316895, 2.3912954330444336], [-0.8915693163871765, 0.33272695541381836, 4.396491050720215, 2.5701706409454346, 2.816298007965088, 7.153648853302002, 5.115728855133057, 0.14992766082286835, 1.8348379135131836, -3.296510934829712, -7.096018314361572, 0.5723275542259216, -5.981595993041992, 3.078012228012085, -6.22352409362793, -4.284889221191406, 0.27819812297821045, 5.992241859436035], [-5.199791431427002, 1.7982761859893799, 1.6998463869094849, -3.008680820465088, 0.9585108757019043, 4.37929630279541, -0.15949086844921112, 1.2373671531677246, 0.557671308517456, -3.6548960208892822, -4.193450450897217, 4.149615287780762, 0.2072678655385971, -8.843140602111816, -2.4230573177337646, -3.49265718460083, -3.284135341644287, 4.49891471862793], [-2.338724374771118, 0.22493112087249756, 3.7551958560943604, 2.6528947353363037, 0.027975372970104218, 3.6060311794281006, 3.8405141830444336, 2.3813555240631104, 7.988931179046631, 5.702876567840576, 5.121060371398926, 2.8181214332580566, -4.826964378356934, 0.6792075037956238, 0.40959420800209045, -1.9463719129562378, -8.654267311096191, -2.3072140216827393], [-0.616248607635498, -8.265052795410156, -5.920971870422363, 1.308677077293396, -6.824957847595215, -3.098390817642212, -3.674851179122925, 1.715345025062561, 4.689577102661133, -0.017563793808221817, 1.562629222869873, -13.257274627685547, 1.2188026905059814, -2.497396945953369, 1.4834052324295044, 5.278541088104248, 5.3150315284729, 10.639582633972168], [-7.891263484954834, -0.6486477255821228, 0.4670664668083191, 1.1947195529937744, -3.8717823028564453, 0.20162659883499146, 0.15233927965164185, -4.010629653930664, 1.5966415405273438, -5.1905012130737305, 2.4237401485443115, 3.7756965160369873, 3.486279249191284, 1.7416492700576782, 8.765620231628418, -1.9859827756881714, -2.482487916946411, 0.16545923054218292], [1.4440244436264038, -13.367018699645996, 0.15662063658237457, 5.177401065826416, -8.091787338256836, -2.5821986198425293, -3.4352991580963135, -2.504925012588501, -1.7679136991500854, 5.316679954528809, 9.889415740966797, -1.322422981262207, 1.6607805490493774, 2.31072735786438, -0.37623563408851624, -4.353226661682129, -0.4197453260421753, -1.7897659540176392], [4.411255836486816, -7.057973861694336, 1.9370299577713013, 3.581371784210205, -8.449012756347656, -3.332083225250244, -5.192803859710693, 4.263286113739014, 0.7175080180168152, 0.5480775237083435, 3.5724637508392334, 1.8972983360290527, -8.453428268432617, 4.043474197387695, -0.541756272315979, 1.809168815612793, 0.7405569553375244, 3.070864677429199], [9.418916702270508, -1.640487790107727, 0.7738093137741089, 0.7244869470596313, -5.563485145568848, -0.7350804805755615, -0.5485240817070007, -8.017815589904785, -1.0838197469711304, -0.38471078872680664, 4.817221641540527, 1.2714390754699707, -5.068202018737793, 4.4442596435546875, -4.020289897918701, -0.6080240607261658, 9.45838737487793, 7.089372158050537], [0.0843125730752945, 4.750074863433838, 4.520512104034424, -0.7028247117996216, -7.320173740386963, -4.32920503616333, -9.60708236694336, -0.3785463571548462, -1.6931898593902588, 4.140462875366211, -1.3196330070495605, 6.03605318069458, 3.1788010597229004, -4.242573261260986, -0.010299935936927795, -2.2661006450653076, 4.755267143249512, 4.545165061950684], [-3.463754892349243, 1.6175634860992432, 5.404839515686035, 0.33062219619750977, 3.1861419677734375, -6.733673095703125, -7.20563268661499, -5.925936698913574, 1.9737157821655273, -3.4198405742645264, 0.282916396856308, 5.302916049957275, 4.984381675720215, -8.057926177978516, -5.133354663848877, -2.6740994453430176, 2.088716745376587, -2.0588912963867188], [-4.512180805206299, -5.739908218383789, -5.0368475914001465, -6.105586528778076, -1.6090697050094604, -0.5100256204605103, 1.0649360418319702, 2.4721200466156006, 0.4014241397380829, 2.600024461746216, -2.2007503509521484, 2.205141305923462, -3.8698832988739014, 2.1857831478118896, -1.7867214679718018, 2.2150161266326904, -7.131811618804932, -4.542435646057129], [-3.4435925483703613, 2.5280890464782715, 4.369807720184326, -5.634105682373047, -4.641183853149414, -0.2407158464193344, 7.015727519989014, -1.2244585752487183, -2.6707167625427246, -2.3712685108184814, -3.3799476623535156, 5.399753570556641, 3.0217578411102295, 2.526733160018921, -0.3483971655368805, -0.137504443526268, 2.502143621444702, 0.6892558336257935], [6.16811990737915, 3.4110100269317627, -1.0898115634918213, -5.206104278564453, 2.212190866470337, -4.1402974128723145, -8.264626502990723, -0.5710484385490417, -2.6497085094451904, 1.3351595401763916, -6.353033065795898, 0.5401996970176697, -2.538642168045044, 0.966127336025238, -5.12512731552124, 2.0752718448638916, -0.867956817150116, 2.6289241313934326], [-0.15733709931373596, -4.198796272277832, -0.4119371473789215, 4.350332736968994, -5.6536149978637695, 7.452210426330566, -7.874851703643799, -1.5243091583251953, -2.615508556365967, -2.071483612060547, 0.13910043239593506, 0.19914516806602478, -2.198256492614746, 1.626792311668396, 1.6330691576004028, -1.3833448886871338, 4.342876434326172, -1.9756135940551758], [2.813173532485962, 4.990815162658691, 1.6059882640838623, 10.115256309509277, 5.2935285568237305, -0.5955208539962769, -3.3294875621795654, -3.9072041511535645, 5.265035152435303, 3.5958316326141357, -3.203603744506836, 4.536458969116211, 6.243194103240967, 0.304341584444046, 4.343152046203613, -0.8744429349899292, -1.3539994955062866, -10.625855445861816], [1.7501373291015625, 5.72837495803833, -1.9370512962341309, 0.4190405011177063, 5.944297790527344, -0.5463515520095825, -5.1472063064575195, -6.549663066864014, -1.0971115827560425, -3.0438756942749023, 1.154957890510559, 2.053316593170166, 4.333165645599365, -4.688155174255371, -2.302680253982544, 3.773879051208496, 4.282639026641846, -4.695220947265625], [-4.409919738769531, -6.054478168487549, 1.901969313621521, -3.445584535598755, -3.868727922439575, -0.33275023102760315, -2.621757984161377, 2.228982925415039, 2.0914883613586426, -1.1399656534194946, -1.7842602729797363, 9.189709663391113, -4.648263454437256, 0.028035670518875122, 4.266764163970947, 3.4086616039276123, 1.7702542543411255, 2.9903578758239746]], [[0.4787932336330414, -2.005174160003662, -6.671206474304199, 4.165608882904053, 0.18626049160957336, -4.150411128997803, 5.6545729637146, -4.472072124481201, 5.697242736816406, -1.1167534589767456, 3.879115104675293, -4.281869888305664, -3.3828389644622803, -5.1755194664001465, -4.030703544616699, 5.437538146972656, -11.195263862609863, -4.748887538909912, -3.647850751876831, -11.258523941040039, -6.340821743011475, 6.107339382171631, -2.7367372512817383, 0.12036439031362534, 4.1071038246154785, 2.6482763290405273, -1.7765693664550781, -3.496732234954834, 3.92863392829895, 2.0562872886657715, -1.206248164176941, 3.0056538581848145], [0.43287211656570435, 0.290455162525177, 1.0995302200317383, -3.0633506774902344, 2.573071241378784, -9.923975944519043, 0.1490870863199234, 4.943665981292725, 2.561511993408203, -8.459854125976562, 1.0471653938293457, 0.50868159532547, 8.364830017089844, -10.808016777038574, -1.7058310508728027, 0.3852132260799408, -1.9294815063476562, 3.1984288692474365, -2.062778949737549, -3.5441370010375977, 0.17512837052345276, -3.6725711822509766, -0.3411797285079956, -4.765310287475586, -0.023721806704998016, -1.079506278038025, -2.8370540142059326, 5.611461639404297, 2.932943344116211, -2.452749013900757, 0.12537869811058044, 0.8062582015991211], [9.178999900817871, -8.989259719848633, -6.8468241691589355, 3.723665714263916, -1.606594204902649, 1.7031687498092651, 4.024081230163574, -13.948841094970703, -6.787506103515625, 0.6747815608978271, 4.59496545791626, 2.290879011154175, -1.3813139200210571, 1.1088402271270752, 5.377829551696777, 3.3812921047210693, 5.648892402648926, -4.187614917755127, -11.838671684265137, 3.9078445434570312, 2.2902603149414062, 0.0746135264635086, 3.625336170196533, -0.520435631275177, 1.7282968759536743, -3.230062961578369, 2.8374199867248535, -2.792870283126831, -6.367563247680664, -0.2395571619272232, -3.1699230670928955, -1.153249740600586], [5.6094069480896, -7.075469493865967, 5.7750678062438965, 1.4040292501449585, -0.5892055034637451, -7.670857906341553, -0.6266745328903198, -4.895813465118408, 2.64277982711792, -8.488531112670898, 0.8050979971885681, -0.8584610223770142, 2.6467599868774414, -1.6387207508087158, -5.575252056121826, 3.407412052154541, 6.513389587402344, 0.7619229555130005, -2.377002239227295, -5.626646995544434, -7.20897102355957, 2.654637575149536, -2.3729026317596436, 2.1996400356292725, -0.1259138137102127, 8.197933197021484, -3.3848636150360107, -3.4806747436523438, -4.786204814910889, -0.6993215680122375, 1.8424079418182373, 1.7404277324676514], [1.425492763519287, -0.9398131370544434, -1.2007405757904053, 6.999200344085693, 4.63840913772583, 1.948420763015747, -5.220479965209961, 6.022484302520752, -2.056386709213257, -6.321080207824707, 2.762071132659912, 3.3577828407287598, -2.7141666412353516, -1.2851682901382446, -0.8568119406700134, -5.960402488708496, 2.6550402641296387, -2.5187056064605713, 0.6420592069625854, -3.1443374156951904, 2.420436382293701, 4.381968975067139, 2.592820405960083, 8.546034812927246, -4.459900379180908, -4.797689437866211, 1.986631155014038, -6.394282817840576, 7.820278167724609, -0.8525320887565613, -1.2524707317352295, -0.4163505733013153], [4.125314712524414, 2.926609754562378, 5.9762983322143555, -7.821593761444092, -2.95011830329895, 0.6059986352920532, 3.835893154144287, -3.9181318283081055, 2.488373041152954, 4.298398017883301, 1.7922136783599854, -5.051324844360352, -7.053230285644531, 2.824470043182373, 0.44415849447250366, -3.296945571899414, 3.0417463779449463, 0.9249881505966187, -12.424627304077148, 4.734768867492676, -1.5801162719726562, 3.6155667304992676, -6.01876163482666, -2.8698458671569824, 3.9880666732788086, -0.030465854331851006, -0.9537836313247681, 4.809802055358887, -0.951384961605072, 2.0208513736724854, -0.7558109760284424, -3.861804962158203], [0.5633618831634521, 0.27981916069984436, -0.3008196949958801, 5.923840045928955, -2.747856378555298, 0.978042483329773, 0.49002423882484436, 0.7625243663787842, 0.3378613293170929, 5.559393882751465, -2.9826722145080566, -6.056308746337891, -6.545733451843262, 2.2981224060058594, 6.238173007965088, 5.373493671417236, 1.4387704133987427, 0.8578618764877319, -0.7062332034111023, 0.8477951884269714, -1.99423086643219, -2.561309814453125, 5.3918867111206055, -2.843226432800293, 4.580130577087402, 5.420126438140869, 0.32396388053894043, 2.9465835094451904, 7.1930623054504395, -0.95391446352005, 1.658266544342041, -8.61622142791748], [-0.9687477350234985, 5.152078628540039, -4.07460880279541, -1.6374202966690063, -4.727277755737305, 6.410908222198486, 8.19985294342041, -1.7232575416564941, 4.412267208099365, 2.8878729343414307, -6.862537860870361, 8.640083312988281, 5.686916351318359, 2.9922432899475098, 1.846004843711853, -10.183865547180176, -0.2604316473007202, 6.1513447761535645, -2.0015640258789062, -3.8294548988342285, -0.5030681490898132, 0.434646338224411, 0.9855871200561523, 1.298621654510498, -0.35311681032180786, 3.7347426414489746, -0.7285693287849426, 2.8985371589660645, 7.072636604309082, 6.138584613800049, 0.9730719923973083, -0.027541369199752808], [1.230778455734253, 5.178175926208496, 2.0036888122558594, -3.6849679946899414, -3.8368213176727295, -6.862456798553467, 0.0448710098862648, 1.6498225927352905, 7.751891613006592, -7.550562858581543, -1.1413137912750244, -7.105693817138672, -3.7488505840301514, 1.4723645448684692, 1.6047621965408325, 4.625977516174316, -1.3966871500015259, -6.233449935913086, -2.6541805267333984, -2.044774293899536, -3.011052131652832, -1.5199933052062988, -1.0634137392044067, 1.9326647520065308, -3.4259140491485596, -9.574615478515625, -4.513184070587158, -2.8458492755889893, 1.646669864654541, 0.7979340553283691, -7.920340538024902, -0.9675254821777344], [-3.5258591175079346, 2.209991216659546, 3.722296953201294, -1.4227951765060425, 5.531914234161377, -0.524224042892456, 7.614264011383057, 3.1926980018615723, -3.782330274581909, 4.494036674499512, -3.1761314868927, 0.7718455791473389, -4.692469596862793, -2.4899840354919434, 4.313167572021484, 5.284019470214844, 1.2968676090240479, -1.8907972574234009, 3.372365951538086, 4.34364128112793, -1.1813548803329468, -7.7253546714782715, 2.782802104949951, -2.056046485900879, -0.22111544013023376, 3.3220176696777344, -1.068992018699646, -2.8369624614715576, 0.7141517400741577, 2.937809467315674, -1.163271188735962, 4.6049981117248535], [2.2672290802001953, -1.6467939615249634, 3.651603937149048, -5.389112949371338, -8.835418701171875, 5.776388168334961, -2.7362630367279053, 4.553132057189941, -0.8698207139968872, -6.315213203430176, 6.900129318237305, 4.595881462097168, 2.937011480331421, 3.5187299251556396, 0.5152221322059631, 7.393061637878418, -2.8581626415252686, -1.5580356121063232, -0.0016226321458816528, -5.483415126800537, -1.7411128282546997, -6.423390865325928, -5.507925987243652, 3.2660069465637207, -3.616293430328369, 0.5774760246276855, 1.0281013250350952, -5.475118160247803, 5.290015697479248, -5.314410209655762, -2.4034433364868164, 3.6281967163085938], [-3.952512502670288, 1.4586012363433838, 4.009915351867676, -2.262333869934082, 1.3763238191604614, -2.3988492488861084, -3.7969751358032227, -1.4135736227035522, 2.613006591796875, -1.1509971618652344, 0.953072726726532, -1.00544273853302, -2.4222466945648193, 8.354555130004883, -7.745029449462891, -1.8921713829040527, -0.9215705394744873, 4.936830997467041, -0.2893766164779663, -2.5907886028289795, 5.644468307495117, 4.125541687011719, 7.798859119415283, -1.5332857370376587, -1.013169288635254, 1.9984211921691895, 1.3541144132614136, 3.550032138824463, 1.586071491241455, -3.6648874282836914, 5.500820159912109, 6.935493469238281], [9.789841651916504, 1.2738584280014038, -0.5347967147827148, -4.3311614990234375, -0.8604894876480103, -0.824295163154602, -4.360734939575195, 4.144412994384766, 3.2916247844696045, 2.938490629196167, -3.354013681411743, -1.0206867456436157, -0.20762553811073303, -1.097484827041626, -3.885685443878174, -4.985100746154785, 9.160415649414062, -2.9163687229156494, 5.4194488525390625, 2.050869941711426, 5.6976518630981445, -4.222767353057861, 1.6571325063705444, 4.463296890258789, 0.678254246711731, -8.569862365722656, -11.19384765625, -13.568493843078613, -2.152486801147461, 0.8769358992576599, 0.7526108622550964, 7.92495059967041], [4.423800468444824, -2.169461250305176, -0.04025626927614212, 4.9184088706970215, 2.0229063034057617, 4.516165256500244, -0.04356968030333519, -4.401632308959961, 10.261334419250488, 1.1867096424102783, 4.669081211090088, 6.777473449707031, -1.5569435358047485, 3.6995038986206055, -0.7617478966712952, -9.407563209533691, 2.2247657775878906, 2.5987014770507812, -1.0912652015686035, 5.818142890930176, -1.7897849082946777, -6.90142297744751, -1.968719244003296, -8.533661842346191, -1.2352701425552368, -0.9010053277015686, -2.7661690711975098, -0.7136033773422241, -2.918102979660034, -2.2538771629333496, -3.4620747566223145, 7.163783550262451], [4.432164192199707, -0.33311668038368225, 2.4312613010406494, -0.8263081908226013, 3.8092093467712402, -0.3232913613319397, 3.5328569412231445, -8.050338745117188, 5.327795028686523, -5.406869888305664, -4.16400146484375, -2.3727784156799316, -6.6855974197387695, 7.064528465270996, -3.400484561920166, 2.267016887664795, 4.05881929397583, 4.159041881561279, -0.6493887901306152, -9.403726577758789, 2.8199515342712402, 0.4446866810321808, -0.7076807022094727, -6.7967000007629395, 0.23015756905078888, -3.8903069496154785, 0.4597811698913574, -4.4904866218566895, -4.480911731719971, 5.929938316345215, 2.071845531463623, 1.1990340948104858], [-5.212075710296631, -2.2543537616729736, -10.43689250946045, 1.6388119459152222, 0.6992836594581604, 5.4249267578125, 1.5724045038223267, -1.0404081344604492, 2.495511531829834, -4.740013599395752, -11.53264331817627, 1.9758896827697754, 6.331587314605713, 1.8376209735870361, 2.60675048828125, -1.5499975681304932, 4.875509262084961, -2.5314698219299316, -2.980255603790283, 1.6893218755722046, 0.9819043874740601, 2.0757668018341064, -1.3606845140457153, -5.544536590576172, -3.895235776901245, 4.83132791519165, 4.857640743255615, -1.5974833965301514, -0.23627817630767822, -4.320555210113525, -3.170076608657837, -3.129169225692749]], [[-6.632884979248047, -1.1590125560760498, 2.93947696685791, -0.5954723954200745, -1.741062045097351, 1.2455594539642334, -0.35267817974090576, 4.250435829162598, -2.3647546768188477, 1.561988353729248, -0.4793988764286041, -4.770997524261475, -5.423166751861572, -2.587212085723877, -3.1091208457946777, 2.1610169410705566], [-1.3018865585327148, -7.680619716644287, -2.2296454906463623, -1.6244540214538574, 3.8457274436950684, 0.26862633228302, 6.610388278961182, -1.6180195808410645, 5.846963882446289, 0.7801468968391418, 1.5969363451004028, 6.620026588439941, 1.4207184314727783, 1.7680387496948242, 5.5480523109436035, 0.05793394148349762], [-1.5481441020965576, 1.4535807371139526, 0.8757627010345459, 0.5820204615592957, 1.5162957906723022, 6.5263352394104, -4.807037830352783, -5.091770648956299, 6.924777507781982, -1.8291407823562622, -0.7417592406272888, -7.198439598083496, -3.5389137268066406, 0.3770129084587097, -16.291732788085938, 6.064611911773682], [-0.10066027194261551, -2.607556104660034, -6.10026741027832, 2.472043514251709, 1.4588650465011597, 4.898003578186035, 0.6075944304466248, -3.4142963886260986, 8.152349472045898, 4.008607864379883, -3.417696714401245, 0.06206401064991951, 0.13806171715259552, 2.662604570388794, -7.651590347290039, -5.086409091949463], [-9.439709663391113, 1.270392656326294, 9.03048038482666, -8.772093772888184, -0.5564555525779724, 0.8328596353530884, 0.8034358024597168, -0.997724711894989, 0.22790466248989105, -3.754072904586792, 0.013092711567878723, 1.1568069458007812, -1.6051641702651978, -2.738912343978882, 7.790004253387451, -1.4568932056427002], [0.29108771681785583, -1.8697261810302734, -2.095860719680786, -0.4708257019519806, -4.993424892425537, 3.3777272701263428, 5.609005928039551, 13.26585865020752, -0.11793005466461182, -2.5511839389801025, -1.6054805517196655, 4.04189920425415, 6.048051357269287, -9.75573444366455, 1.9173954725265503, 8.699042320251465], [-2.80290150642395, -2.6420931816101074, 11.15587043762207, 7.926758766174316, -1.7405649423599243, -5.666827201843262, -2.1166999340057373, -0.33370092511177063, -2.8410024642944336, 2.489370584487915, -3.4984235763549805, -3.5991692543029785, -4.655210018157959, 8.132110595703125, -0.62130206823349, 1.7866178750991821], [-8.555588722229004, -3.3417060375213623, -3.2902820110321045, -1.5339304208755493, 3.620436191558838, -4.774842739105225, -16.382287979125977, -1.4785901308059692, 6.346734523773193, 1.042038083076477, -3.1650028228759766, 10.448485374450684, -2.1864471435546875, 0.34132227301597595, 0.6799204349517822, 6.5422892570495605]], [[6.117443084716797, 1.7867616415023804, -3.430091142654419, -1.9060713052749634, 4.818370342254639, -0.9727892875671387, -6.601317405700684, -0.7930549383163452], [-2.3882057666778564, -0.4280799627304077, -3.40930438041687, 0.41715383529663086, 0.9895063638687134, -5.10918664932251, 1.6534514427185059, 1.7307829856872559]]], "brain_biases": [[9.602612495422363, -0.22711120545864105, -7.411320686340332, -0.5582965016365051, -7.299482822418213, -4.213986873626709, -4.169804096221924, -8.313359260559082, -8.375076293945312, -2.779454469680786, -9.4646577835083, 0.5788016319274902, -1.8648685216903687, 2.2172603607177734, 9.737648963928223, -6.716207981109619, 5.236644268035889, 0.35530099272727966, 7.9835124015808105, -6.257167816162109, 2.8672361373901367, -3.0001580715179443, -4.190337657928467, -4.370757579803467, -5.8347272872924805, 6.0452704429626465, -5.545494079589844, 7.560676097869873, -3.1410093307495117, 2.321028470993042, 9.809651374816895, -5.5975141525268555], [-2.8674628734588623, -5.578214168548584, 2.44460391998291, -0.18503594398498535, 9.534283638000488, 1.0215359926223755, -4.402541160583496, 6.013678073883057, 3.1085426807403564, -5.193586349487305, 2.18624210357666, 10.618721008300781, -1.2611446380615234, 6.4081926345825195, 4.472849369049072, -7.8340044021606445], [3.144141674041748, -4.09731912612915, -13.71186637878418, -5.712012767791748, 6.468987941741943, 1.285446286201477, -2.9184508323669434, 13.098907470703125], [-4.6743927001953125, 0.22037652134895325]], "sensor_retina_count": 18, "sensor_vision_radius": 300.0, "sensor_fov_degrees": 180.0, "sensor_skip": 2, "sensor_see_food": true, "sensor_see_bacteria": false, "sensor_see_predators": true, "locomotion_max_speed": 300.0, "locomotion_max_turn": 3.141592653589793, "energy_death_energy": 0.0, "energy_split_energy": 200.0, "energy_v0_cost": 3.0, "energy_vmax_cost": 6.0, "energy_vmax_ref": 300.0, "energy_energy_cap": 200.0, "energy_loss_idle": 3.0, "energy_loss_move": 6.0, "last_brain_output": [7.964363098144531, -0.2961532771587372], "last_brain_activations": [[0.9999999403953552, 0.999994695186615, -0.9999999403953552, -0.9999994039535522, -1.0, -0.9999946355819702, -0.9999409317970276, -1.0, -1.0, -0.9999451637268066, -0.9999999403953552, -0.9994279146194458, -0.9986582398414612, 0.999997615814209, 1.0, -0.9997298717498779, 0.9887915253639221, 0.9908190369606018, 0.9999999403953552, -0.9999398589134216, 0.9999992847442627, 0.14995339512825012, -0.9983605742454529, -0.9999072551727295, -0.9999694228172302, 0.5869247317314148, -1.0, 0.9948516488075256, 0.5959550738334656, 1.0, 1.0, -0.9999998807907104], [-1.0, -0.9986414313316345, -1.0, 0.9926313757896423, -0.9781863689422607, 1.0, 1.0, 1.0, 1.0, -1.0, -1.0, 1.0, 0.9999997019767761, -1.0, 1.0, -0.06498037278652191], [-0.053484611213207245, 1.0, -1.0, 0.9993142485618591, 1.0, 1.0, -1.0, 1.0], [7.964350700378418, -0.29614803194999695]]}, {"type": "bacteria", "x": 1865.0111054095532, "y": 993.979225165639, "r": 9.0, "angle": -1.3005978529057052, "vx": 57.07958669389157, "vy": -206.08445273156775, "energy": 45.30072831602176, "age": 33.566666666666045, "brain_sizes": [18, 32, 16, 8, 2], "brain_version": 19549, "brain_weights": [[[1.0731533765792847, -4.361989498138428, 0.4686635136604309, -0.12014636397361755, 6.074577331542969, -6.520874977111816, 4.4515299797058105, -3.576603889465332, -7.351318836212158, 9.096842765808105, 5.710993766784668, 2.6349964141845703, -1.8904880285263062, -4.435218334197998, 3.322216272354126, 7.650506973266602, 3.179692506790161, 1.534812331199646], [0.18907880783081055, -11.171112060546875, 0.49134528636932373, 7.5354390144348145, 10.153033256530762, -5.40395450592041, 7.304018020629883, -7.930230140686035, 0.4679238796234131, 1.9368739128112793, -0.5839927792549133, 1.879525065422058, 8.168937683105469, -3.2402279376983643, -4.974928855895996, 4.072412490844727, -1.3090661764144897, -0.5323675274848938], [9.182992935180664, 7.0667853355407715, -6.085136413574219, -2.7960827350616455, -0.7548871636390686, -5.518186569213867, -3.566551923751831, -4.983314037322998, 8.737770080566406, 1.3570282459259033, -2.2171010971069336, 3.280564308166504, -2.899322271347046, -9.085375785827637, -0.7130167484283447, -5.33726167678833, 1.304769515991211, -1.8598053455352783], [5.927648067474365, -4.602155685424805, 5.623648643493652, -7.646175384521484, -1.7879178524017334, 3.057727098464966, 2.876944065093994, 4.449614524841309, 3.128401517868042, -12.951275825500488, -0.009070396423339844, -2.424978733062744, -2.1280596256256104, -2.270005464553833, 4.110465049743652, -1.9452431201934814, 0.8026013374328613, -1.7892436981201172], [1.4288103580474854, -1.2375229597091675, 5.265865802764893, -6.200995922088623, -0.612574577331543, 1.6600230932235718, 1.0840801000595093, 4.091935157775879, 6.804684638977051, 2.927642583847046, 0.8225090503692627, 0.22330357134342194, 18.6398868560791, -0.8290462493896484, -0.9628334045410156, -3.0506539344787598, -7.907186985015869, 10.702186584472656], [1.3025456666946411, 1.4618130922317505, 5.1144208908081055, -2.6225855350494385, -4.973194599151611, 0.8251952528953552, -5.638239860534668, -0.12887737154960632, -2.685533046722412, 6.1640167236328125, 3.1100707054138184, -4.6962056159973145, 1.5247515439987183, 3.0629353523254395, 1.096705675125122, -2.136838436126709, -3.252547025680542, -5.058695316314697], [2.0193560123443604, 4.7758684158325195, -2.8269846439361572, -1.006333827972412, 0.8774734139442444, 3.682121992111206, 5.84041166305542, 1.5005488395690918, 4.891989231109619, -1.0912712812423706, -1.8263332843780518, -4.0918450355529785, 4.168778896331787, 2.765251874923706, 1.694535732269287, 4.955265998840332, -5.200854301452637, 1.3000578880310059], [1.4336497783660889, 0.985472559928894, -0.9527765512466431, -2.2526373863220215, -2.1499381065368652, -3.046081066131592, 7.213305950164795, -2.75844407081604, -8.504846572875977, 2.7613637447357178, 4.040673732757568, -4.604674816131592, -1.3903170824050903, 8.761554718017578, -1.392979621887207, -0.45671796798706055, 3.690511465072632, -1.3986533880233765], [1.9806822538375854, 3.0092499256134033, -1.670095682144165, -4.812262058258057, 2.2979674339294434, -0.4714823067188263, -3.794410467147827, 2.2395577430725098, -1.0873892307281494, -3.05983304977417, 2.9816858768463135, 0.5365365743637085, -5.823358535766602, -1.5543365478515625, -10.800131797790527, 3.9495744705200195, -3.6465067863464355, -6.2375898361206055], [-5.713149070739746, -2.7666192054748535, -0.42634326219558716, -3.340669631958008, 1.5519113540649414, -3.213243007659912, 8.819437026977539, 3.748837471008301, 1.9971657991409302, -3.71308970451355, -3.0696465969085693, -3.4769833087921143, -8.70708179473877, 1.9057226181030273, -7.318600654602051, -1.484116792678833, -1.8547006845474243, -5.809443950653076], [4.555674076080322, -1.8195887804031372, 2.8691911697387695, -0.17856593430042267, 2.2726407051086426, 1.7201811075210571, -0.8542959690093994, 3.9786999225616455, 5.95808744430542, -4.767064571380615, -0.06401138007640839, -4.0739240646362305, -0.5480660200119019, -7.872232913970947, -5.128359317779541, 1.3279800415039062, 2.110718250274658, -1.9728959798812866], [1.3670213222503662, -2.449814796447754, -4.810436248779297, -5.798562526702881, -2.978642702102661, 0.8429818153381348, 3.386765480041504, 0.6958589553833008, 1.1700708866119385, 0.494213342666626, -5.265117645263672, 4.810089111328125, -2.2788939476013184, 0.4543951153755188, -4.430469036102295, 1.4221446514129639, -3.275731086730957, -8.529186248779297], [-4.751011371612549, 2.240963935852051, 3.690462827682495, -2.076519727706909, -1.197452187538147, 0.20857931673526764, -1.0670104026794434, -3.139305591583252, -0.6840333938598633, -4.745101451873779, 1.9342974424362183, -5.176120758056641, 10.507484436035156, 4.49127197265625, 0.06730180978775024, 6.244620323181152, -2.948153018951416, -0.9432691335678101], [-8.115340232849121, 2.7910468578338623, 2.271181583404541, 5.0789313316345215, -4.997962474822998, -9.826895713806152, 0.4696783423423767, 6.394052028656006, 7.61768102645874, -0.8907524943351746, -0.42826902866363525, -0.2384127825498581, -1.5228251218795776, 4.665058135986328, -4.492537021636963, 3.8597960472106934, 2.242715358734131, -0.4433974027633667], [-2.090390682220459, -12.019091606140137, -5.781290531158447, 7.572368621826172, 2.460528612136841, 2.0010552406311035, -7.594089031219482, -5.112642765045166, -4.213101387023926, 3.120920419692993, -5.759820938110352, 3.5873732566833496, -3.3302407264709473, 0.2497897446155548, -1.7857133150100708, -1.6141107082366943, -5.0191473960876465, 2.426614284515381], [-1.0697771310806274, -0.25101619958877563, 4.583645343780518, 2.4963395595550537, 3.101409912109375, 6.463288307189941, 5.095531940460205, 0.053175054490566254, 2.254951000213623, -3.3037972450256348, -6.627074718475342, 0.42660731077194214, -5.877888202667236, 3.5294318199157715, -6.146160125732422, -4.622689723968506, -0.2503056824207306, 5.963010787963867], [-5.072906970977783, 1.8910272121429443, 1.9038214683532715, -2.9271652698516846, 0.7774801254272461, 4.806406497955322, -0.32086074352264404, 1.1325874328613281, 0.9667619466781616, -3.9245457649230957, -4.684847831726074, 4.612504959106445, 0.599396824836731, -9.290059089660645, -2.4483561515808105, -3.1644020080566406, -3.1052193641662598, 3.799013376235962], [-2.083059549331665, 0.2415180653333664, 3.426640748977661, 2.380978584289551, 0.23117321729660034, 3.5197527408599854, 3.8334829807281494, 2.331470489501953, 7.705798149108887, 5.629485130310059, 5.055690288543701, 3.0940628051757812, -5.042908668518066, 0.4358822703361511, 0.1910059154033661, -2.0908634662628174, -9.08901596069336, -2.332115650177002], [-0.7013438940048218, -8.090245246887207, -5.815242767333984, 1.3691809177398682, -6.7938313484191895, -2.972634792327881, -3.386573076248169, 1.7009984254837036, 4.825943470001221, -0.1615549474954605, 1.7715598344802856, -13.531388282775879, 1.552283525466919, -2.4245853424072266, 1.5185513496398926, 4.999397277832031, 5.233033180236816, 10.656360626220703], [-7.695585250854492, -0.36802223324775696, 0.5645265579223633, 0.5294528603553772, -3.6882612705230713, 0.3554888069629669, 0.44781672954559326, -5.014350891113281, 2.13616943359375, -5.21756649017334, 2.8176345825195312, 3.5851829051971436, 3.5554075241088867, 1.911414384841919, 8.693524360656738, -1.7492009401321411, -1.9931106567382812, 0.14085544645786285], [1.6350722312927246, -13.48740005493164, 0.054142843931913376, 5.254369258880615, -7.961469650268555, -2.4521126747131348, -3.423475742340088, -2.4944229125976562, -1.8667418956756592, 5.416920185089111, 10.171384811401367, -1.3751758337020874, 1.4907022714614868, 2.203397274017334, -0.20297330617904663, -3.881635904312134, -0.07405353337526321, -1.76044762134552], [4.377182960510254, -7.206325531005859, 2.1090517044067383, 4.182193279266357, -7.809188365936279, -3.5719101428985596, -5.38655424118042, 4.340808868408203, 0.6251628398895264, 0.5719684362411499, 3.3674185276031494, 2.0482404232025146, -8.650284767150879, 4.607800006866455, -0.6906582117080688, 2.316502809524536, 0.6820355653762817, 3.033159017562866], [9.333110809326172, -1.6834001541137695, 0.7203593850135803, 0.7778970003128052, -5.478315353393555, -0.8620505332946777, -0.6263192296028137, -8.092415809631348, -1.4672058820724487, -0.1840277910232544, 4.395839214324951, 1.392307996749878, -5.02761173248291, 4.350189208984375, -3.677049160003662, -0.6034923791885376, 8.63726806640625, 6.625583648681641], [0.3131953477859497, 4.833056449890137, 4.445916652679443, -0.8036755919456482, -7.566769599914551, -3.9155828952789307, -9.549914360046387, -0.5654537677764893, -1.899054765701294, 4.189134120941162, -1.405623197555542, 5.8048505783081055, 3.809365749359131, -3.7486555576324463, -0.20345738530158997, -2.538398265838623, 4.924868106842041, 4.437229633331299], [-3.7899091243743896, 1.8120331764221191, 5.05443811416626, 0.5341675877571106, 3.5400781631469727, -6.3350300788879395, -7.003866672515869, -5.539645195007324, 2.147404909133911, -3.258636236190796, 0.3109615445137024, 5.066211223602295, 4.235733985900879, -7.941764831542969, -5.112956523895264, -2.862187385559082, 2.5354573726654053, -1.9340198040008545], [-4.576569557189941, -5.5875654220581055, -5.4372100830078125, -5.624541282653809, -1.3834160566329956, -0.4884311258792877, 0.9262303709983826, 2.1191699504852295, 0.2629638910293579, 2.5862302780151367, -1.9430279731750488, 2.1801817417144775, -3.753338098526001, 2.394678831100464, -1.7064825296401978, 2.0516316890716553, -6.691378116607666, -4.711623191833496], [-3.7339529991149902, 2.3675222396850586, 4.397591590881348, -5.982388973236084, -5.001330375671387, 0.5363519191741943, 7.088352203369141, -1.1909103393554688, -2.6644704341888428, -2.508172035217285, -3.2030372619628906, 5.065403938293457, 3.2641396522521973, 2.1733205318450928, -0.41263121366500854, -0.0032307803630828857, 2.6952121257781982, 0.8295624852180481], [6.120626926422119, 3.376894950866699, -0.79109787940979, -5.163087844848633, 2.1474812030792236, -4.100820541381836, -8.21718978881836, -0.5640733242034912, -2.4068868160247803, 1.5359960794448853, -6.1926350593566895, 0.8313242197036743, -2.703453302383423, 0.9000189304351807, -5.2565131187438965, 1.794142484664917, -0.9793153405189514, 2.238177537918091], [-0.15788590908050537, -4.345601558685303, -0.7277984023094177, 4.418680667877197, -5.853813648223877, 7.5445237159729, -7.77434778213501, -1.6285816431045532, -2.353104829788208, -1.7246037721633911, -0.34523332118988037, 0.1623695194721222, -2.3012983798980713, 1.6040383577346802, 1.6341215372085571, -1.334951639175415, 4.42228889465332, -1.9577354192733765], [3.110671281814575, 5.27496337890625, 1.5705264806747437, 10.215132713317871, 5.268682956695557, -0.41220951080322266, -3.63313889503479, -3.9775538444519043, 5.356947422027588, 3.6137895584106445, -3.105043649673462, 4.856375217437744, 5.9474778175354, 0.19892874360084534, 4.2302398681640625, -0.5497859716415405, -1.8809010982513428, -10.853750228881836], [1.7889885902404785, 5.962106227874756, -2.176370143890381, 0.31335216760635376, 5.919095516204834, -0.7247656583786011, -5.0667572021484375, -6.587793350219727, -1.1747348308563232, -2.9345526695251465, 1.1258858442306519, 2.0754878520965576, 4.204041004180908, -4.966905117034912, -2.2485175132751465, 4.021625518798828, 4.007518291473389, -4.482509613037109], [-4.311686038970947, -6.290696144104004, 1.8477396965026855, -3.420166254043579, -4.169833183288574, -0.12776312232017517, -2.561053514480591, 2.503624439239502, 1.6645324230194092, -1.1162114143371582, -1.34867525100708, 8.931137084960938, -4.4009809494018555, -0.2073206603527069, 4.070937633514404, 3.5091419219970703, 1.7986894845962524, 3.1240434646606445]], [[0.5695114135742188, -2.216069459915161, -6.5107269287109375, 4.074949741363525, 0.21367588639259338, -4.477921962738037, 5.682509422302246, -4.290875434875488, 5.621346473693848, -1.6295218467712402, 3.506124496459961, -3.882772445678711, -3.5761518478393555, -5.172595500946045, -4.01572847366333, 5.523097991943359, -11.623217582702637, -5.1271443367004395, -3.8356869220733643, -11.434215545654297, -6.570536136627197, 6.213158130645752, -2.6194047927856445, 0.24913953244686127, 4.155969142913818, 2.809972047805786, -1.7255678176879883, -3.891009569168091, 3.9392194747924805, 1.727313756942749, -0.8354496955871582, 2.9673521518707275], [0.39357393980026245, 0.33519262075424194, 0.7596904039382935, -2.821690082550049, 2.175341844558716, -9.774367332458496, 0.31432875990867615, 5.1244049072265625, 1.6943359375, -8.18609619140625, 0.8796950578689575, 0.5540509223937988, 8.583210945129395, -10.84775161743164, -1.8642284870147705, 0.4985799491405487, -1.9886531829833984, 3.355916976928711, -1.8943121433258057, -3.7273032665252686, 0.012241959571838379, -3.6384997367858887, -0.49690741300582886, -4.779706954956055, 0.3150085210800171, -1.1793931722640991, -3.3704702854156494, 5.766977787017822, 2.6833889484405518, -2.4057490825653076, -0.038689181208610535, 0.6954479217529297], [9.109151840209961, -8.658459663391113, -7.132411479949951, 4.291356086730957, -1.6995129585266113, 1.448569416999817, 4.023581504821777, -13.73336410522461, -6.794569969177246, 1.1020270586013794, 5.426599979400635, 2.2329347133636475, -1.2658030986785889, 1.333338975906372, 5.4748215675354, 3.530437469482422, 5.033047676086426, -4.25014591217041, -11.658329963684082, 3.8023312091827393, 2.463770866394043, 0.06329987943172455, 3.6873326301574707, -0.41768044233322144, 1.5594604015350342, -3.1434507369995117, 2.8524630069732666, -3.0524065494537354, -6.441317081451416, -0.5452888607978821, -3.623459815979004, -0.9770573973655701], [5.872298240661621, -6.585848331451416, 5.9256720542907715, 1.0024902820587158, -0.14641232788562775, -7.153767108917236, -0.49722278118133545, -4.864621639251709, 3.1282052993774414, -7.848339080810547, 0.9334534406661987, -0.9608862996101379, 2.706444501876831, -1.6669530868530273, -5.365777492523193, 3.3523359298706055, 6.654845714569092, 0.6876682639122009, -2.1356616020202637, -5.501467704772949, -7.222458362579346, 2.7267088890075684, -1.934882640838623, 2.214073896408081, 0.09765186905860901, 8.28365421295166, -3.7574353218078613, -3.5420308113098145, -4.7266316413879395, -0.666420578956604, 2.194941520690918, 1.5332897901535034], [1.1653027534484863, -0.8297779560089111, -1.271374225616455, 6.622689247131348, 5.07335901260376, 2.1879937648773193, -5.112120628356934, 6.150302410125732, -1.5492315292358398, -5.9971818923950195, 1.9338127374649048, 3.5408716201782227, -2.605165719985962, -0.854885995388031, -0.8411087989807129, -6.409497261047363, 2.250138998031616, -2.98541522026062, 0.9296379685401917, -3.2439167499542236, 2.2789061069488525, 4.427595138549805, 2.171140670776367, 8.691311836242676, -4.493912220001221, -4.433195114135742, 1.4969770908355713, -6.4676513671875, 7.890328884124756, -1.3497200012207031, -0.9318528771400452, -0.11766332387924194], [4.184873580932617, 2.7358944416046143, 5.932107925415039, -8.115939140319824, -2.8606057167053223, 0.48051169514656067, 3.783036708831787, -3.8716044425964355, 2.714115858078003, 4.528901100158691, 1.7243698835372925, -5.161562919616699, -6.7388834953308105, 3.3043904304504395, -0.15444166958332062, -3.1714439392089844, 2.703293800354004, 0.6107357740402222, -12.522897720336914, 4.90410852432251, -1.5332581996917725, 3.3100500106811523, -5.866873264312744, -2.7810027599334717, 3.9254274368286133, -0.18194451928138733, -0.6439726948738098, 5.0960235595703125, -0.8692235350608826, 1.8140825033187866, -0.5398309230804443, -3.854403018951416], [0.2817680537700653, 0.2044893503189087, -0.04528346657752991, 5.472042560577393, -2.648590326309204, 0.5904642939567566, 0.5800396203994751, 0.6456673741340637, 0.5326160192489624, 5.683521270751953, -2.689925193786621, -6.245731353759766, -6.606026649475098, 2.0941429138183594, 6.101912021636963, 5.716597557067871, 1.315804123878479, 0.4260222315788269, -0.9691608548164368, 0.4415580928325653, -1.9311048984527588, -2.3755855560302734, 5.393169403076172, -3.212341070175171, 4.793127536773682, 5.175299644470215, 0.5089897513389587, 2.1445350646972656, 7.48776388168335, -0.8381285071372986, 1.3244714736938477, -8.737669944763184], [-1.0965890884399414, 4.844596862792969, -4.175520420074463, -1.4006659984588623, -4.528261184692383, 6.732223987579346, 8.50560188293457, -1.7160283327102661, 4.578254222869873, 2.908822536468506, -7.069397926330566, 8.586437225341797, 5.476698398590088, 2.8405802249908447, 1.5049782991409302, -10.37607479095459, -0.3051879107952118, 6.08489990234375, -2.0886764526367188, -3.544703483581543, -0.883924663066864, 0.8728547692298889, 0.5552392601966858, 1.1104029417037964, -0.7045966982841492, 3.376840114593506, -0.8484960198402405, 2.690938949584961, 6.743344306945801, 5.9381232261657715, 0.664944589138031, 0.010541282594203949], [1.352056860923767, 5.0691142082214355, 1.9688022136688232, -3.8286073207855225, -3.969217300415039, -6.7273850440979, 0.03622032701969147, 1.7349345684051514, 7.683806896209717, -7.308189392089844, -0.8098133206367493, -7.352775573730469, -3.5709121227264404, 1.700007677078247, 1.447096586227417, 4.635950088500977, -1.4390881061553955, -6.842593193054199, -2.3888137340545654, -2.056871175765991, -3.362971067428589, -1.4869334697723389, -0.9488616585731506, 1.8612200021743774, -3.2053189277648926, -9.611448287963867, -4.323996067047119, -2.8298799991607666, 1.717773199081421, 0.8943793177604675, -8.088294982910156, -1.103967547416687], [-4.18275785446167, 2.0863935947418213, 4.1659255027771, -1.6915831565856934, 5.536855220794678, -0.4655967354774475, 7.335055351257324, 3.3880584239959717, -4.222309589385986, 4.4790358543396, -3.489577054977417, 0.8919572830200195, -4.752412796020508, -2.670316696166992, 4.55210542678833, 5.354650974273682, 1.7909512519836426, -1.7793058156967163, 3.3341879844665527, 4.251791954040527, -1.3615667819976807, -7.826501846313477, 2.4941437244415283, -1.9423956871032715, -0.4897828996181488, 3.3701846599578857, -0.8602679371833801, -2.9299168586730957, 1.0887634754180908, 3.5197932720184326, -0.5315995812416077, 4.574770927429199], [2.185912609100342, -1.7084908485412598, 4.030456066131592, -5.4506378173828125, -8.875718116760254, 5.683522701263428, -2.7881956100463867, 4.749815940856934, -0.7508140802383423, -6.255251407623291, 7.002859115600586, 4.383492946624756, 3.3785433769226074, 3.229693651199341, 0.3960922360420227, 7.376838207244873, -2.7941479682922363, -1.7747459411621094, -0.05587933957576752, -5.312685966491699, -1.7709453105926514, -6.149707794189453, -5.496068000793457, 3.3066844940185547, -3.5199098587036133, 0.557249903678894, 1.3128365278244019, -5.562219142913818, 5.474761486053467, -5.717282772064209, -2.3402633666992188, 3.6765785217285156], [-3.6534829139709473, 1.2581145763397217, 4.1544623374938965, -2.30397891998291, 1.0562198162078857, -2.240757703781128, -3.785454511642456, -1.416905164718628, 2.7712087631225586, -1.3330703973770142, 1.2677011489868164, -0.6502525210380554, -2.4708259105682373, 7.903430938720703, -8.212162971496582, -1.7694454193115234, -0.9087865352630615, 5.082413196563721, 0.0016268342733383179, -2.594204902648926, 5.558473587036133, 4.229448318481445, 7.773677825927734, -1.5751771926879883, -0.9105309247970581, 1.7111657857894897, 0.983874499797821, 3.2790732383728027, 1.1244306564331055, -3.423142671585083, 5.241715908050537, 7.253317832946777], [9.561896324157715, 1.2196084260940552, -0.610688328742981, -4.211734771728516, -1.112896203994751, -0.8435493111610413, -5.04002571105957, 3.8257901668548584, 3.0366249084472656, 2.8383665084838867, -3.3151626586914062, -0.9745553731918335, 0.006681060418486595, -0.933781087398529, -4.161089897155762, -4.276772975921631, 8.891575813293457, -2.4847757816314697, 5.116132736206055, 2.264813184738159, 5.310188293457031, -4.150412559509277, 1.6418912410736084, 4.168781757354736, 0.6277009844779968, -8.304856300354004, -11.346879959106445, -13.369836807250977, -2.257648468017578, 0.7092735171318054, 0.9461451768875122, 7.9228949546813965], [4.425682067871094, -2.119438409805298, 0.02833031862974167, 4.946320533752441, 2.3195884227752686, 4.9204301834106445, 0.09041153639554977, -4.83149528503418, 10.026750564575195, 1.2108545303344727, 4.731651782989502, 6.756898880004883, -1.628916621208191, 3.4038987159729004, -0.5325672030448914, -9.7144775390625, 2.710137128829956, 2.6746010780334473, -0.9321222901344299, 6.21005916595459, -2.0778167247772217, -7.2285685539245605, -1.9213331937789917, -8.767911911010742, -1.183793067932129, -0.6244737505912781, -2.830626964569092, -0.6373567581176758, -2.7465267181396484, -2.3264176845550537, -3.6565442085266113, 7.593053817749023], [4.226285934448242, -0.10585426539182663, 2.4366486072540283, -0.7347455620765686, 4.295656681060791, -0.36104917526245117, 3.7161483764648438, -8.280649185180664, 5.676257133483887, -5.466779708862305, -4.1788740158081055, -2.091850519180298, -6.601892471313477, 6.783994674682617, -4.004220008850098, 2.1013355255126953, 4.10930871963501, 4.652907848358154, -0.6123823523521423, -9.788134574890137, 2.448718309402466, 0.26040196418762207, -0.6379764080047607, -6.99176025390625, 0.008021850138902664, -4.19303560256958, 0.14968878030776978, -4.408905982971191, -4.493577480316162, 5.732438087463379, 1.8289051055908203, 1.099251627922058], [-5.257191181182861, -2.1284122467041016, -10.028820991516113, 1.6076148748397827, 0.6075252890586853, 5.730705738067627, 1.278412103652954, -0.6831429600715637, 2.6852385997772217, -4.577771186828613, -11.546550750732422, 1.7502115964889526, 6.411993980407715, 1.5824378728866577, 2.4707753658294678, -1.8513859510421753, 5.138354778289795, -2.1181399822235107, -2.5188658237457275, 2.0465662479400635, 1.2494533061981201, 2.2015299797058105, -1.5070874691009521, -5.371763706207275, -4.197375297546387, 4.686816215515137, 4.606106758117676, -1.3664401769638062, 0.015539038926362991, -4.268195629119873, -3.6616077423095703, -3.430650234222412]], [[-6.811761856079102, -1.520603895187378, 2.903452157974243, -0.1701812744140625, -2.518343448638916, 1.0855544805526733, -0.1659991443157196, 3.879589557647705, -2.6787822246551514, 1.4408957958221436, -0.2952963411808014, -4.418500900268555, -5.144177436828613, -2.5903282165527344, -2.6797847747802734, 1.8356895446777344], [-1.0632929801940918, -7.886848449707031, -2.146358013153076, -2.175971508026123, 4.297211647033691, 0.6222528219223022, 6.122511386871338, -1.8343064785003662, 5.454087734222412, 0.7088310718536377, 1.4208276271820068, 7.022867679595947, 1.475394368171692, 1.8409786224365234, 5.837469100952148, -0.44207075238227844], [-1.1311854124069214, 1.4142781496047974, 0.8285388946533203, 0.8492943644523621, 1.9497967958450317, 6.770873546600342, -4.40811824798584, -4.886760711669922, 6.95170783996582, -1.6235530376434326, -1.0128233432769775, -7.04878044128418, -3.5919084548950195, 0.42658618092536926, -16.268878936767578, 5.707189083099365], [0.46824103593826294, -2.1594338417053223, -5.832253456115723, 2.635787010192871, 1.265475869178772, 4.905416011810303, 0.5793806314468384, -3.8975131511688232, 8.409453392028809, 4.130322456359863, -3.7895150184631348, -0.12449220567941666, 0.2848508954048157, 2.8142306804656982, -7.632218837738037, -5.390381813049316], [-9.18082046508789, 1.314708948135376, 9.207140922546387, -8.442805290222168, -0.560747504234314, 1.1447852849960327, 0.8536487817764282, -0.6855805516242981, 0.4993659257888794, -3.978813409805298, -0.17798271775245667, 1.0201936960220337, -1.9661614894866943, -2.452768087387085, 7.8513875007629395, -1.446765422821045], [0.7412946224212646, -1.2941627502441406, -2.3612608909606934, -0.6155911684036255, -4.9022603034973145, 3.1547279357910156, 5.695155143737793, 12.852749824523926, -0.4003034234046936, -2.5521774291992188, -1.6043100357055664, 3.871666431427002, 6.341669082641602, -9.5833740234375, 1.702498197555542, 8.264555931091309], [-2.601024627685547, -2.8271520137786865, 10.83814811706543, 8.317657470703125, -1.7649016380310059, -5.360349178314209, -1.734039545059204, -0.045009076595306396, -3.038428544998169, 3.2310004234313965, -4.070853233337402, -4.099107265472412, -4.443851947784424, 8.757318496704102, -0.6317614316940308, 1.9239705801010132], [-8.434782981872559, -3.053349494934082, -3.0332226753234863, -0.8900704979896545, 3.8579726219177246, -4.9884352684021, -16.530139923095703, -1.8507837057113647, 6.1954240798950195, 0.9501398205757141, -3.2351694107055664, 10.60296630859375, -2.228670120239258, -0.08824057877063751, 0.2729871869087219, 6.215969562530518]], [[6.258547306060791, 1.6760917901992798, -3.1308398246765137, -1.9311796426773071, 4.826343059539795, -0.9461172223091125, -6.704926490783691, -1.2665770053863525], [-2.2771995067596436, -0.22072651982307434, -3.4736509323120117, 0.32469746470451355, 1.0948504209518433, -5.4211201667785645, 2.1009514331817627, 1.3455864191055298]]], "brain_biases": [[9.301349639892578, -0.6872450113296509, -7.533367156982422, -0.4565933346748352, -6.752755641937256, -4.056196689605713, -4.227863788604736, -8.371496200561523, -8.376913070678711, -2.820726156234741, -9.215995788574219, 0.36895376443862915, -1.6843278408050537, 2.071162700653076, 9.686230659484863, -7.062840461730957, 5.033384323120117, 0.46143457293510437, 7.9045939445495605, -6.366130352020264, 2.9651098251342773, -2.7860500812530518, -4.033598899841309, -4.674297332763672, -5.407679080963135, 5.994002342224121, -5.69710111618042, 7.639871120452881, -3.424825668334961, 2.3351056575775146, 10.279197692871094, -5.754171371459961], [-2.8286356925964355, -5.513514041900635, 2.350215196609497, 0.1483766734600067, 9.580435752868652, 1.262830376625061, -4.782345294952393, 6.181380748748779, 3.2663137912750244, -5.344001770019531, 2.197298526763916, 10.621559143066406, -1.4110749959945679, 6.482401371002197, 4.336731433868408, -8.10287094116211], [3.190880298614502, -3.749427318572998, -14.038531303405762, -5.445517539978027, 5.714962959289551, 1.4367332458496094, -3.0101211071014404, 13.082808494567871], [-4.875988960266113, 0.44113272428512573]], "sensor_retina_count": 18, "sensor_vision_radius": 300.0, "sensor_fov_degrees": 180.0, "sensor_skip": 2, "sensor_see_food": true, "sensor_see_bacteria": false, "sensor_see_predators": true, "locomotion_max_speed": 300.0, "locomotion_max_turn": 3.141592653589793, "energy_death_energy": 0.0, "energy_split_energy": 200.0, "energy_v0_cost": 3.0, "energy_vmax_cost": 6.0, "energy_vmax_ref": 300.0, "energy_energy_cap": 200.0, "energy_loss_idle": 3.0, "energy_loss_move": 6.0, "last_brain_output": [0.9090728759765625, 0.6233465075492859], "last_brain_activations": [[0.9999999403953552, -0.5962092280387878, -0.999999463558197, -0.42730361223220825, -0.9999972581863403, -0.9994006156921387, -0.9995747804641724, -0.9999998807907104, -0.9999998807907104, -0.9929296970367432, -0.9999999403953552, 0.3530762493610382, -0.9334208965301514, 0.9687250852584839, 0.9999999403953552, -0.9999985694885254, 0.9999150633811951, 0.43125268816947937, 0.9999997615814209, -0.9999940991401672, 0.9946982860565186, -0.9924238324165344, -0.9993728995323181, -0.9998258948326111, -0.9999598264694214, 0.9999876022338867, -0.9999775290489197, 0.9999995827674866, -0.997882604598999, 0.9814333915710449, 1.0, -0.9999799132347107], [-1.0, -0.9999814033508301, 1.0, 1.0, -1.0, 0.9876750707626343, -0.7859451770782471, 1.0, -1.0, -1.0, -1.0, 0.9999993443489075, 0.9999998807907104, 1.0, 1.0, 0.9999998211860657], [1.0, -0.8616634011268616, -1.0, -1.0, 1.0, 1.0, 1.0, 1.0], [0.9090738296508789, 0.6233469843864441]]}, {"type": "bacteria", "x": 2507.1757091207396, "y": 2107.443312967814, "r": 9.0, "angle": -3.0467616417756194, "vx": -296.95644577099046, "vy": -28.245400572610034, "energy": 92.10381621529305, "age": 31.099999999999515, "brain_sizes": [18, 32, 16, 8, 2], "brain_version": 19565, "brain_weights": [[[0.6940996646881104, -4.160629749298096, 0.5889285802841187, 0.08387702703475952, 6.030876159667969, -6.679762840270996, 4.281234264373779, -3.229116439819336, -6.966713905334473, 9.368496894836426, 5.744381427764893, 2.7160019874572754, -2.01324200630188, -4.557615280151367, 3.220806360244751, 7.495176792144775, 2.8566789627075195, 1.8830569982528687], [0.5826420187950134, -10.820055961608887, 0.41314569115638733, 7.422796726226807, 10.638592720031738, -5.468852996826172, 7.225489139556885, -7.81528377532959, 0.5444855690002441, 1.5525931119918823, -0.9058132767677307, 1.7499263286590576, 8.155097961425781, -3.2515032291412354, -5.139049053192139, 4.1365742683410645, -1.2285362482070923, -0.5858420133590698], [9.294878005981445, 7.283099174499512, -6.210339546203613, -2.63761305809021, -0.8392947912216187, -5.428232669830322, -3.562096118927002, -4.335627555847168, 8.462937355041504, 1.4633162021636963, -2.5294594764709473, 3.3602781295776367, -2.981675148010254, -8.552159309387207, -0.7168315052986145, -5.233643531799316, 1.0299220085144043, -1.9209760427474976], [6.111175060272217, -4.220425128936768, 6.185885429382324, -7.904672622680664, -2.0510716438293457, 3.000338554382324, 2.7383780479431152, 4.609528064727783, 3.4947800636291504, -12.733113288879395, -0.44215020537376404, -2.340435028076172, -2.0364675521850586, -2.1710102558135986, 3.9580304622650146, -1.6985552310943604, 0.7806867957115173, -1.558254361152649], [1.723710060119629, -1.4806166887283325, 4.564605236053467, -6.299814224243164, -0.5335898399353027, 1.7593138217926025, 1.3232426643371582, 4.039344310760498, 6.676193714141846, 2.6962616443634033, 0.5808107256889343, 0.4363445043563843, 18.300819396972656, -0.6939153671264648, -0.7261505126953125, -2.852398633956909, -7.7818450927734375, 10.921942710876465], [1.5107322931289673, 1.4986177682876587, 5.211652755737305, -2.499391794204712, -4.978967666625977, 0.9762263298034668, -5.717657089233398, 0.005134908482432365, -2.76572585105896, 6.274785041809082, 3.1324617862701416, -4.482008457183838, 1.5696513652801514, 3.179131269454956, 1.3624168634414673, -2.40490460395813, -3.171476364135742, -5.1587324142456055], [2.183443069458008, 4.640375137329102, -2.2943360805511475, -1.187646746635437, 0.8360190391540527, 3.7056691646575928, 6.03239631652832, 1.4698163270950317, 4.851215839385986, -0.6628668308258057, -2.306962728500366, -4.171432018280029, 3.961369514465332, 3.0891716480255127, 1.8329232931137085, 4.726017475128174, -4.821726322174072, 1.6898553371429443], [0.797294020652771, 0.40973198413848877, -1.1768896579742432, -2.426262140274048, -2.371890068054199, -2.8696155548095703, 7.446259498596191, -2.7816615104675293, -8.477057456970215, 2.4843881130218506, 3.6726174354553223, -4.879332065582275, -1.0097531080245972, 8.79346752166748, -1.3614832162857056, -1.0497392416000366, 4.063261032104492, -1.6035857200622559], [2.124507427215576, 3.2939610481262207, -1.589576244354248, -4.908262252807617, 2.2621521949768066, -0.9153937101364136, -3.6495437622070312, 2.1808083057403564, -1.1307103633880615, -2.9094924926757812, 2.3166754245758057, 0.7304679751396179, -5.867234706878662, -1.2760565280914307, -10.703743934631348, 3.6879618167877197, -3.6972715854644775, -6.2828450202941895], [-6.005105495452881, -2.6886868476867676, -0.5919703841209412, -2.7862162590026855, 1.3836562633514404, -3.206106662750244, 8.536956787109375, 3.842052936553955, 1.840714693069458, -3.1815643310546875, -3.2506327629089355, -3.700225591659546, -8.326044082641602, 1.916210412979126, -7.5721259117126465, -1.7538669109344482, -1.8826664686203003, -5.6378912925720215], [4.539505958557129, -1.49403715133667, 2.442162275314331, -0.12634097039699554, 2.849057197570801, 1.8570939302444458, -0.6788860559463501, 3.397528648376465, 6.140768527984619, -4.4471755027771, -0.22825229167938232, -3.756499767303467, -0.8040229678153992, -7.683257579803467, -4.342299938201904, 1.2741639614105225, 1.9996998310089111, -1.7341440916061401], [0.9424768090248108, -2.1908645629882812, -4.882779598236084, -5.346594333648682, -3.150475025177002, 0.3684127926826477, 3.378519296646118, 0.3594056963920593, 1.8267499208450317, 0.2389548271894455, -5.591964244842529, 4.952106952667236, -1.2534494400024414, 0.2362240105867386, -4.148371696472168, 1.1321604251861572, -3.348393678665161, -8.851550102233887], [-4.869050979614258, 2.4069643020629883, 3.0454344749450684, -2.0468547344207764, -1.2632662057876587, 0.2533586323261261, -1.1048402786254883, -3.048130512237549, -0.5941401720046997, -4.446996212005615, 1.866729736328125, -5.012579917907715, 10.827619552612305, 5.1153035163879395, 0.0892888531088829, 5.516947269439697, -2.8152194023132324, -1.018218755722046], [-8.105191230773926, 2.6457364559173584, 2.0715365409851074, 5.2276611328125, -4.930672645568848, -9.110921859741211, 0.76097571849823, 6.60959005355835, 7.914260387420654, -1.0334429740905762, -0.25333255529403687, -0.49792274832725525, -1.1914801597595215, 4.08506965637207, -4.497125148773193, 3.700214147567749, 2.450453519821167, -0.6755190491676331], [-2.5316295623779297, -11.943218231201172, -5.769538879394531, 7.448806285858154, 1.9308266639709473, 2.11374831199646, -8.013216972351074, -5.065224647521973, -4.221682548522949, 3.0711469650268555, -5.5705389976501465, 3.5003349781036377, -3.3877005577087402, -0.11580577492713928, -2.36606764793396, -1.6140722036361694, -5.108191013336182, 2.460740566253662], [-0.8915693163871765, 0.24816429615020752, 4.251408100128174, 2.5893478393554688, 2.7664170265197754, 7.074039936065674, 5.115728855133057, 0.14992766082286835, 1.7808912992477417, -3.1591010093688965, -7.087539196014404, 0.5723275542259216, -5.786263465881348, 3.285689353942871, -6.002243995666504, -4.306824207305908, 0.3426779508590698, 5.992241859436035], [-5.199791431427002, 1.7713971138000488, 1.46370267868042, -3.048259973526001, 0.9585108757019043, 4.37929630279541, -0.3648972511291504, 1.2373671531677246, 0.4787188172340393, -3.6548960208892822, -4.204180717468262, 4.2391462326049805, 0.2899623513221741, -8.965312004089355, -2.4483561515808105, -3.4947328567504883, -3.3272323608398438, 4.350096702575684], [-1.858281135559082, 0.22493112087249756, 3.6171212196350098, 2.6631362438201904, -0.15823110938072205, 3.448357582092285, 3.809380292892456, 2.4111123085021973, 7.809813976287842, 5.597673416137695, 5.121060371398926, 3.018897771835327, -5.178983688354492, 0.6394526958465576, 0.3010633885860443, -1.9495060443878174, -8.580828666687012, -2.268954277038574], [-0.890265703201294, -7.940255165100098, -5.920971870422363, 1.5478274822235107, -6.824957847595215, -3.098390817642212, -3.721217393875122, 1.715345025062561, 4.381189823150635, -0.017563793808221817, 1.8761844635009766, -13.08696174621582, 1.4134761095046997, -2.497396945953369, 1.3674629926681519, 5.278541088104248, 5.290288925170898, 10.746368408203125], [-7.893176078796387, -0.7312219142913818, 0.33459508419036865, 1.0463231801986694, -3.81504225730896, 0.3411943018436432, 0.27195456624031067, -4.1072821617126465, 1.607613444328308, -5.070006370544434, 2.4237401485443115, 3.6459786891937256, 3.3491592407226562, 1.7416492700576782, 8.532036781311035, -2.058134078979492, -2.4701364040374756, 0.09958092868328094], [1.4729321002960205, -13.149215698242188, 0.15662063658237457, 5.177401065826416, -8.031189918518066, -2.5821986198425293, -3.2738876342773438, -2.344886541366577, -1.7641689777374268, 5.2820658683776855, 9.708662986755371, -1.2615808248519897, 1.7882859706878662, 2.4799344539642334, -0.27565938234329224, -4.488492012023926, -0.3468134105205536, -1.7208826541900635], [4.488352298736572, -7.259066104888916, 1.9370299577713013, 3.780956983566284, -8.220029830932617, -3.5169589519500732, -5.228777885437012, 4.381455421447754, 0.7175080180168152, 0.5480775237083435, 3.547208547592163, 1.8972983360290527, -8.284379005432129, 4.043474197387695, -0.4843793511390686, 1.9335616827011108, 0.574146032333374, 2.984403610229492], [9.36120891571045, -1.6057628393173218, 0.8738059997558594, 0.7196575999259949, -5.563485145568848, -0.7203434109687805, -0.5283005833625793, -8.017815589904785, -1.2160139083862305, -0.38471078872680664, 4.827636241912842, 1.3605239391326904, -5.244354724884033, 4.378137588500977, -3.7690229415893555, -0.6080240607261658, 9.080000877380371, 7.003418445587158], [0.0843125730752945, 4.714094161987305, 4.520512104034424, -0.6808849573135376, -7.25355863571167, -4.255168914794922, -9.497878074645996, -0.48630285263061523, -1.6931898593902588, 4.161617755889893, -1.3218252658843994, 6.03605318069458, 3.1688756942749023, -4.377936363220215, 0.036891378462314606, -2.2661006450653076, 4.88861083984375, 4.54203462600708], [-3.463754892349243, 1.6206779479980469, 5.275146007537842, 0.33062219619750977, 2.9932992458343506, -6.822887897491455, -6.892980575561523, -5.925936698913574, 2.1835334300994873, -3.66945743560791, 0.5535449385643005, 5.402155876159668, 5.002148151397705, -8.057926177978516, -5.198561668395996, -2.791611671447754, 2.1638760566711426, -2.056307554244995], [-4.6254167556762695, -5.739908218383789, -5.165022850036621, -6.086831092834473, -1.6090697050094604, -0.5829465389251709, 1.0899289846420288, 2.348299741744995, 0.46213096380233765, 2.699200391769409, -2.019843578338623, 2.3467915058135986, -3.726353645324707, 2.255347967147827, -1.893802523612976, 2.110729932785034, -7.080880641937256, -4.542435646057129], [-3.4435925483703613, 2.2492594718933105, 4.253358364105225, -5.567227840423584, -4.927035808563232, -0.2407158464193344, 7.12510347366333, -1.267412781715393, -2.651097059249878, -2.425480365753174, -3.317025661468506, 5.343369483947754, 3.090752124786377, 2.526733160018921, -0.49699708819389343, -0.137504443526268, 2.865520715713501, 0.8292425274848938], [6.017326831817627, 3.35209059715271, -1.1969934701919556, -5.155717849731445, 2.320925235748291, -4.1055521965026855, -8.335244178771973, -0.5710484385490417, -2.6497085094451904, 1.1694791316986084, -6.522800922393799, 0.6385326981544495, -2.60563325881958, 1.1107655763626099, -5.159759998321533, 2.008472442626953, -0.9192035794258118, 2.6289241313934326], [-0.4236656427383423, -4.288102149963379, -0.371395468711853, 4.328998565673828, -5.709073066711426, 7.431584358215332, -7.750377178192139, -1.6118398904800415, -2.2894341945648193, -2.071483612060547, 0.1947372406721115, 0.40690335631370544, -2.198256492614746, 1.626792311668396, 1.72883939743042, -1.3833448886871338, 3.978963851928711, -2.036405324935913], [2.813173532485962, 4.996421813964844, 1.5366432666778564, 10.115256309509277, 4.940840244293213, -0.511523425579071, -3.2981574535369873, 