{"version": 1, "timestamp": "20250831_013911", "params": {"time_scale": 5.0, "fps": 60.0, "paused": true, "use_spatial": true, "substrate_shape": "rectangular", "world_w": 10000.0, "world_h": 10000.0, "substrate_radius": 400.0, "max_deaths_per_step": 5, "retina_skip": 2, "simple_render": false, "reuse_spatial_grid": true, "food_target": 130, "food_min_r": 8.0, "food_max_r": 10.0, "food_replenish_interval": 0.1, "bacteria_count": 0, "bacteria_min_r": 6.0, "bacteria_max_r": 12.0, "bacteria_min_limit": 5, "bacteria_max_limit": 200, "bacteria_initial_energy": 100.0, "bacteria_energy_loss_idle": 2.0, "bacteria_energy_loss_move": 5.0, "bacteria_death_energy": 0.0, "bacteria_split_energy": 150.0, "bacteria_body_size": 9.0, "bacteria_max_speed": 300.0, "bacteria_max_turn": 3.141592653589793, "bacteria_vision_radius": 300.0, "bacteria_vision_mode": "frontal", "bacteria_retina_count": 24, "bacteria_retina_fov_degrees": 180.0, "bacteria_show_vision": false, "bacteria_retina_see_food": true, "bacteria_retina_see_bacteria": false, "bacteria_retina_see_predators": false, "bacteria_hidden_layers": 3, "bacteria_neurons_layer_1": 32, "bacteria_neurons_layer_2": 16, "bacteria_neurons_layer_3": 8, "bacteria_neurons_layer_4": 20, "bacteria_neurons_layer_5": 0, "bacteria_mutation_rate": 0.1, "bacteria_mutation_strength": 0.1, "bacteria_structural_jitter": 0, "predators_enabled": true, "predator_count": 0, "predator_min_r": 10.0, "predator_max_r": 18.0, "predator_min_limit": 5, "predator_max_limit": 100, "predator_initial_energy": 100.0, "predator_energy_loss_idle": 3.0, "predator_energy_loss_move": 10.0, "predator_death_energy": 0.0, "predator_split_energy": 250.0, "predator_body_size": 14.0, "predator_max_speed": 400.0, "predator_max_turn": 3.141592653589793, "predator_vision_radius": 400.0, "predator_vision_mode": "frontal", "predator_retina_count": 18, "predator_retina_fov_degrees": 120.0, "predator_show_vision": false, "predator_retina_see_food": false, "predator_retina_see_bacteria": true, "predator_retina_see_predators": false, "predator_hidden_layers": 3, "predator_neurons_layer_1": 32, "predator_neurons_layer_2": 16, "predator_neurons_layer_3": 8, "predator_neurons_layer_4": 0, "predator_neurons_layer_5": 0, "predator_mutation_rate": 0.1, "predator_mutation_strength": 0.1, "predator_structural_jitter": 0, "agents_inertia": 1.0, "show_selected_details": true, "auto_export_substrate": true, "disable_brain_activations": false, "auto_export_interval_minutes": 5.0}, "ui_params": {"time_scale": 5.0, "fps": 60, "paused": true, "use_spatial": true, "retina_skip": 2, "simple_render": false, "reuse_spatial_grid": true, "agents_inertia": 1.0, "show_selected_details": true, "enable_brain_activations": true, "auto_export_substrate": true, "auto_export_interval_minutes": 5.0, "food_target": 130, "food_min_r": 8.0, "food_max_r": 10.0, "food_replenish_interval": 0.1, "world_w": 10000.0, "world_h": 10000.0, "substrate_shape": "rectangular", "substrate_radius": 400.0, "bacteria_count": 0, "bacteria_min_limit": 5, "bacteria_max_limit": 200, "bacteria_energy_loss_idle": 2.0, "bacteria_energy_loss_move": 5.0, "bacteria_initial_energy": 100.0, "bacteria_death_energy": 0.0, "bacteria_split_energy": 150.0, "bacteria_body_size": 9.0, "bacteria_vision_radius": 300.0, "bacteria_retina_count": 24, "bacteria_retina_fov_degrees": 180.0, "bacteria_max_speed": 300.0, "bacteria_max_turn_deg": 180.0, "bacteria_hidden_layers": 3, "bacteria_neurons_layer_1": 32, "bacteria_neurons_layer_2": 16, "bacteria_neurons_layer_3": 8, "bacteria_neurons_layer_4": 20, "bacteria_neurons_layer_5": 0, "bacteria_mutation_rate": 0.1, "bacteria_mutation_strength": 0.1, "bacteria_show_vision": false, "bacteria_retina_see_food": true, "bacteria_retina_see_bacteria": false, "bacteria_retina_see_predators": false, "predators_enabled": true, "predator_count": 0, "predator_min_limit": 5, "predator_max_limit": 100, "predator_energy_loss_idle": 3.0, "predator_energy_loss_move": 10.0, "predator_initial_energy": 100.0, "predator_death_energy": 0.0, "predator_split_energy": 250.0, "predator_body_size": 14.0, "predator_vision_radius": 400.0, "predator_retina_count": 18, "predator_retina_fov_degrees": 120.0, "predator_max_speed": 400.0, "predator_max_turn_deg": 180.0, "predator_hidden_layers": 3, "predator_neurons_layer_1": 32, "predator_neurons_layer_2": 16, "predator_neurons_layer_3": 8, "predator_neurons_layer_4": 0, "predator_neurons_layer_5": 0, "predator_mutation_rate": 0.1, "predator_mutation_strength": 0.1, "predator_retina_see_food": false, "predator_retina_see_bacteria": true, "predator_retina_see_predators": false, "predator_show_vision": false, "test_param_1": 1, "test_param_2": 2, "test_param_3": 3.0, "test_param_4": 4, "test_param_5": 5, "test_param_6": 6.0, "test_param_7": 7, "test_param_8": 8, "test_param_9": 9.0, "test_param_10": 10, "test_param_11": 11, "test_param_12": 12.0, "test_param_13": 13, "test_param_14": 14, "test_param_15": 15.0, "test_param_16": 16, "test_param_17": 17, "test_param_18": 18.0, "test_param_19": 19, "test_param_20": 20, "test_param_21": 21.0, "test_param_22": 22, "test_param_23": 23, "test_param_24": 24.0, "test_param_25": 25, "test_param_26": 26, "test_param_27": 27.0, "test_param_28": 28, "test_param_29": 29, "test_param_30": 30.0}, "world": {"width": 10000.0, "height": 10000.0, "shape": "rectangular", "radius": 400.0}, "camera": {"x": -782.8825253862965, "y": -584.4918323016518, "zoom": 0.14864362802414788}, "simulation": {"total_simulation_time": 16856.554000002394}, "food": {"count": 130, "target": 130}, "agents": [{"type": "bacteria", "x": 142.4539361601001, "y": 7026.181717067199, "r": 9.0, "angle": 1.9925064515826716, "vx": -120.06252468807271, "vy": 267.623177898112, "energy": 86.18633750655974, "age": 275.0500000000785, "brain_sizes": [24, 32, 16, 8, 2], "brain_version": 242, "brain_weights": [[[1.8831716775894165, 1.1787641048431396, -0.0018275696784257889, -1.3068912029266357, 1.362290382385254, 0.25586795806884766, -0.5380566120147705, 0.04876124858856201, 1.2586121559143066, -2.491828441619873, -0.3820979595184326, -0.14697328209877014, -0.32937484979629517, -1.0816657543182373, -0.5057100057601929, -0.8957682847976685, 0.0715973749756813, -0.3881699740886688, 2.157517194747925, -0.3722743093967438, -0.924196183681488, 0.1383914351463318, 0.518306314945221, -0.8230666518211365], [-0.44306129217147827, 0.512810230255127, 0.027189023792743683, -0.9840155839920044, 0.7783900499343872, -0.9835532307624817, 1.1284332275390625, 0.37081217765808105, 0.3701711893081665, 0.6784744262695312, -2.0159225463867188, -0.4525775909423828, 0.5548822283744812, 1.295403242111206, 0.7255451083183289, -1.4378849267959595, -1.5789064168930054, 0.5965999364852905, 0.7111400365829468, 0.3794151842594147, 0.3234173059463501, -0.5016445517539978, -0.672450065612793, -2.3761050701141357], [0.10151705145835876, 0.3575868606567383, 0.6353028416633606, -0.06590941548347473, 1.150354027748108, -1.4201738834381104, -1.865607738494873, -0.5125526785850525, -1.0275927782058716, 1.4178996086120605, -0.28457850217819214, -0.24699187278747559, -0.7417492866516113, -1.3446439504623413, 1.1962937116622925, -0.9496212005615234, -1.401955485343933, 0.16600295901298523, 0.23844540119171143, -0.10001008212566376, 0.8608981370925903, 0.24787844717502594, -0.45397883653640747, -0.28564536571502686], [-0.13807325065135956, -1.5874451398849487, 0.0642075464129448, 2.1852428913116455, 0.5132767558097839, -0.4846331477165222, 1.4143669605255127, 1.452242374420166, -1.1463265419006348, 0.6145371198654175, -0.4664291739463806, 1.602769374847412, -0.4642462134361267, 0.42494696378707886, 0.150848388671875, -0.014148300513625145, 1.3156533241271973, -0.5889209508895874, -0.37391722202301025, -0.15097473561763763, -0.05552905425429344, -0.6787277460098267, 0.09609632939100266, 0.1096649020910263], [-0.5772839188575745, 0.7215792536735535, -0.15166592597961426, 0.2493191510438919, -0.2893849313259125, -0.932182788848877, -0.07106554508209229, -0.022031016647815704, 1.6586287021636963, 1.8704508543014526, 0.4602842330932617, -0.9848564863204956, 0.7306990623474121, -0.9683939218521118, 0.30120134353637695, -0.44092607498168945, -0.4264885187149048, 0.998900294303894, -1.4418069124221802, -0.6737086772918701, 1.5699307918548584, 0.18305744230747223, -1.3564165830612183, 0.583186149597168], [0.3560348451137543, -0.5364789366722107, 0.7588714361190796, -0.4510940611362457, -0.07602688670158386, -0.37824878096580505, 0.5270192623138428, 0.33954113721847534, -0.14402741193771362, -1.3832964897155762, 0.0902044028043747, -0.6038817167282104, 0.324602872133255, 0.667849063873291, -0.007264912128448486, -0.10418329387903214, 0.2926131784915924, -0.9757912158966064, -1.3290947675704956, 1.2271313667297363, -1.0790435075759888, 1.2371059656143188, -0.6554279923439026, -0.3495292067527771], [0.8253718018531799, -0.6815301775932312, -0.23457273840904236, -0.481172651052475, 0.6735775470733643, 0.6161850094795227, 1.0681270360946655, 0.7838154435157776, 0.045182228088378906, 0.5570428371429443, 1.6743496656417847, -0.12070965021848679, -0.07916952669620514, -0.7299373745918274, 0.13576579093933105, 0.25567469000816345, -0.6226824522018433, -1.3219550848007202, 0.5300804972648621, -0.8902136087417603, -0.6189914345741272, 1.2402985095977783, 0.8794289231300354, -0.340665727853775], [0.7704170346260071, -0.9595710039138794, -1.739158034324646, 1.1091753244400024, 0.7410760521888733, -1.3354167938232422, -1.181589961051941, -0.6638391017913818, -0.19625252485275269, 0.013025963678956032, 0.03291798010468483, 1.972347617149353, 0.6493116021156311, 0.7967945337295532, 1.6117603778839111, -0.5200514793395996, -0.17515751719474792, 1.4587504863739014, -0.150636225938797, 0.4086188077926636, 1.7433096170425415, -1.249422311782837, -1.887249231338501, -1.0219435691833496], [0.851835310459137, -0.5741544365882874, -0.12823566794395447, -0.9563691020011902, 1.068471908569336, -1.1993261575698853, -0.44804346561431885, 1.0245392322540283, 0.00802130252122879, 0.4825476109981537, -1.7209258079528809, 1.0138047933578491, 0.4562731981277466, 0.870349645614624, -0.2175203263759613, -0.4243340492248535, 0.8736934065818787, 1.05044686794281, -0.4924294352531433, -0.7748956084251404, -0.6981030106544495, 0.40030163526535034, 1.2073180675506592, 0.3055734932422638], [-0.3440477252006531, 1.3695977926254272, 1.5340436697006226, 0.3932182490825653, -1.8833894729614258, 0.10953351855278015, -0.23582595586776733, -1.7842093706130981, 1.9694955348968506, 0.011484246701002121, -0.687560498714447, -1.034479022026062, -1.1251893043518066, -0.0562194362282753, -0.2556881308555603, 1.3485499620437622, -0.014125362038612366, 2.280832529067993, 0.17514562606811523, -3.856846332550049, -0.35149499773979187, -0.6571055054664612, 0.320110559463501, -0.714246928691864], [-0.008789867162704468, -1.542953372001648, -0.34538233280181885, 0.91045081615448, 0.9664741158485413, -0.3466089367866516, -0.08492409437894821, -0.5159574151039124, -1.533876895904541, 0.2985852360725403, 0.6186119914054871, 0.8417159914970398, -1.700323224067688, -0.4084034562110901, -0.25267544388771057, 2.714034080505371, -2.4058682918548584, 0.22381846606731415, 0.24903392791748047, -0.13731738924980164, -1.1854859590530396, -0.6523112654685974, 0.3927021026611328, 1.3729907274246216], [-0.3716801404953003, 1.1586101055145264, -2.4676268100738525, 0.584483802318573, 0.25059542059898376, -1.4508922100067139, 0.4599343538284302, -1.4882581233978271, -1.0344243049621582, -0.4328347146511078, 0.9251130223274231, 0.23056575655937195, -0.04943162947893143, 0.3949529826641083, 0.9946304559707642, -1.4297899007797241, -0.2810072898864746, -0.892469048500061, 0.9038285613059998, 0.546109139919281, 0.9865159392356873, 0.3072599470615387, 0.7081676125526428, 0.9913755059242249], [1.3426433801651, 0.4437195658683777, 0.7206798195838928, 1.2764791250228882, 1.1775916814804077, -0.5979905724525452, 1.6764025688171387, 0.9702838063240051, 0.5231488943099976, -0.3365103304386139, -0.5142449736595154, 0.0756264179944992, 0.4508356750011444, 0.3370794355869293, -1.9112352132797241, -2.116352081298828, 0.6811051964759827, 0.26396694779396057, -0.5124541521072388, 0.6495925784111023, 1.329820156097412, -0.19243067502975464, -0.5586249828338623, -0.23594382405281067], [-0.27347418665885925, 1.4523192644119263, 1.602088212966919, 0.044475048780441284, -0.26224952936172485, -0.46233537793159485, -0.03239094465970993, 0.6359301805496216, 0.05397563427686691, 0.04378887638449669, -1.7725892066955566, 0.5848383903503418, 0.2952759861946106, 0.24417313933372498, -0.05716293305158615, 0.3165222108364105, 0.016204139217734337, 1.1728636026382446, -0.20862144231796265, -0.9024379253387451, 0.4171007573604584, 0.3675061762332916, 0.990793764591217, 1.241442322731018], [0.8593493103981018, -1.3692618608474731, -1.2043590545654297, 1.3006869554519653, -0.28170567750930786, -0.25466012954711914, 0.27563655376434326, 1.522404670715332, 0.40700089931488037, 2.0327322483062744, 0.10946314036846161, -0.8838015198707581, -0.27051350474357605, 1.0361263751983643, 0.49056294560432434, 1.325316071510315, 0.49400797486305237, -0.6001186966896057, -0.6730711460113525, -0.8827379941940308, 0.17465171217918396, 0.7532063126564026, -0.15269586443901062, -0.4012306332588196], [-0.2618323266506195, 0.2721851170063019, 1.2806282043457031, 0.5104849934577942, -1.1114580631256104, 0.42725011706352234, 2.0049831867218018, -0.5551252961158752, 0.08073325455188751, 1.262475609779358, -1.1244962215423584, 0.6058632135391235, 1.2630590200424194, 0.36901965737342834, 1.7865837812423706, 1.3664700984954834, 1.2052348852157593, -0.7290075421333313, -0.09266325831413269, 0.5795220732688904, -0.22864767909049988, -0.23492443561553955, 0.27463799715042114, 1.7436410188674927], [-0.06473973393440247, -0.8742589950561523, 1.2148536443710327, -0.33176687359809875, -1.3088675737380981, 0.3790045380592346, -1.3182464838027954, 0.2622027099132538, 0.5400300621986389, 0.05423785746097565, -0.6964181661605835, -0.23414145410060883, 0.937160074710846, -0.9783534407615662, -0.5235629081726074, 0.23665687441825867, 1.3345584869384766, -1.015576958656311, 0.12096258997917175, 0.47872814536094666, -1.2404335737228394, -1.0483514070510864, 1.7057421207427979, 2.1075804233551025], [0.8864412903785706, -0.6315727829933167, 0.06706053763628006, 0.5003120303153992, -0.7350594401359558, -1.4447108507156372, -0.6103180646896362, 0.1403070092201233, -0.5237817168235779, 1.5944985151290894, -0.3630099594593048, 0.49560895562171936, 2.269503116607666, -0.29772183299064636, 0.03699425980448723, 0.007131822407245636, 0.24498802423477173, 0.6352958679199219, -1.0479646921157837, -0.8040347099304199, 0.418603777885437, 0.24995383620262146, -1.7968868017196655, -1.1386491060256958], [-0.10675301402807236, 0.004041939042508602, -0.8456141948699951, -0.15139615535736084, -0.4166260063648224, -2.085458517074585, -0.11193883419036865, 0.10201355814933777, -1.208134412765503, -1.670698881149292, -1.1535990238189697, 1.4960919618606567, -0.08771505951881409, -0.7155042290687561, -0.5099014043807983, 0.22481627762317657, 0.9544087052345276, -0.36819103360176086, 1.161331295967102, -0.8725390434265137, 0.09513973444700241, 1.172739028930664, -1.1619691848754883, -1.500736951828003], [1.9829105138778687, -0.15992768108844757, -1.3117749691009521, -0.2658788859844208, 1.0451023578643799, -0.1588360220193863, -0.5949892401695251, 0.5127884149551392, -0.2847614288330078, -0.6463582515716553, 1.3195735216140747, -0.45241767168045044, -1.5462007522583008, 0.11882923543453217, -1.9827086925506592, -0.3052111864089966, 0.33282074332237244, -0.400387704372406, -0.07924489676952362, -0.6551535129547119, -1.5274122953414917, 0.48795560002326965, -1.2427408695220947, 0.38331490755081177], [1.238258719444275, 1.375015377998352, -0.2581837773323059, -0.0033793002367019653, -1.5011587142944336, 2.450779438018799, -0.07339659333229065, 1.3725796937942505, -0.2420293241739273, 0.63384610414505, 0.7274889945983887, -1.1219810247421265, 0.02640080451965332, 0.25777268409729004, -1.3270211219787598, -0.30877453088760376, -0.13454771041870117, 0.6231969594955444, -0.005301952362060547, 0.06297300010919571, -0.22262708842754364, 0.0018529146909713745, 0.5260326266288757, 1.9222209453582764], [-0.9941948056221008, 0.608282208442688, -0.3517701029777527, 1.8413994312286377, 0.4426567554473877, 1.6103140115737915, 1.5671769380569458, -0.6225142478942871, -0.7443554997444153, -0.2136748731136322, 0.6122490763664246, 1.1348156929016113, -0.7548118233680725, -0.5408784747123718, 0.04015755653381348, 0.3944614827632904, -0.5170803666114807, 1.1798012256622314, 0.2844301164150238, 0.8819243907928467, -0.46447473764419556, -0.7506991028785706, 0.004276767373085022, -1.044897437095642], [0.041324399411678314, -0.0395934134721756, -0.44809800386428833, -0.6231581568717957, -0.20202553272247314, 1.1919822692871094, 1.583530068397522, 0.10967062413692474, -0.845233142375946, -0.3994293212890625, 0.4582529664039612, 0.22573286294937134, 0.1256536841392517, -0.30378642678260803, 0.6430821418762207, 0.8660110831260681, 0.9013776779174805, 0.6057107448577881, 1.301347017288208, 0.5578005909919739, 0.3701452612876892, 0.36892563104629517, 0.05704760551452637, 0.7609063386917114], [0.7533156871795654, 1.1309006214141846, -0.4399053454399109, -0.6950260996818542, 0.6835397481918335, 0.725292980670929, 1.737236738204956, 1.6092839241027832, -0.491754412651062, -1.2758015394210815, -0.36669835448265076, 0.49581634998321533, -1.9236176013946533, 0.08894222974777222, 0.31021344661712646, -0.5995608568191528, -0.08779619634151459, -0.29558682441711426, -0.9124838709831238, 0.4911915063858032, -0.7940534353256226, 0.5891820192337036, -0.9836128950119019, 0.8939142823219299], [-1.1477142572402954, 0.3470919132232666, -1.0403987169265747, -1.1843839883804321, -1.3206876516342163, -0.09898430109024048, -0.16378530859947205, 0.5575845241546631, 0.07137390971183777, -0.3474619686603546, -0.21633799374103546, 0.5619330406188965, 1.3571820259094238, -1.0266709327697754, -1.0142662525177002, 0.7748834490776062, 0.00838744267821312, -0.21119125187397003, 0.8006895780563354, 0.49426960945129395, -1.0290265083312988, -0.20021981000900269, -1.006227731704712, 1.2825154066085815], [0.8743731379508972, 1.8951821327209473, 0.34004130959510803, -1.0007580518722534, -0.8126650452613831, -0.0020043961703777313, -0.683210551738739, 1.2116742134094238, -1.4524190425872803, -0.18724018335342407, 2.3327245712280273, -0.032061658799648285, 1.0250725746154785, -0.03191173076629639, -0.6303289532661438, -0.27861395478248596, 0.6389613747596741, 0.8751723766326904, -0.557140052318573, 0.0055686235427856445, -0.4494366943836212, 1.5736193656921387, -0.19147364795207977, -0.20551814138889313], [-0.7301678657531738, -1.7028719186782837, -1.230371117591858, -0.03003755211830139, -0.6902968287467957, -1.2276469469070435, -1.4244619607925415, 0.693753719329834, 0.7037056684494019, 0.09587185084819794, 1.8930011987686157, 0.4726126492023468, -0.40565186738967896, 1.224263072013855, 0.2570340633392334, -0.3459440767765045, 0.3916957378387451, 1.475959300994873, -0.341537207365036, 1.7672879695892334, -0.28138428926467896, -0.5010935068130493, 0.349517285823822, -0.6155321598052979], [-0.5135660767555237, 1.3636553287506104, 0.5388344526290894, 0.08279559016227722, 0.38638240098953247, 0.3447552025318146, -0.2275082767009735, -1.9448308944702148, -0.5578882694244385, -0.41872841119766235, 0.8617005348205566, 0.268010675907135, -0.06017942726612091, 0.3778053820133209, 0.733117401599884, -0.6008056402206421, 1.7808228731155396, 0.4170632064342499, 0.9313076734542847, 0.33012843132019043, 0.5440378189086914, -0.5008348226547241, -0.12483196705579758, 1.5404132604599], [0.8643316030502319, 0.5601551532745361, -0.9610483050346375, 1.0924813747406006, 0.25615477561950684, 1.4300981760025024, -0.5883426070213318, -1.1904875040054321, 0.5758218765258789, -0.3290790915489197, -1.9696335792541504, -0.07315915822982788, 0.5913687944412231, -0.18834516406059265, 0.6206517219543457, -0.0427120104432106, 0.5355108380317688, 0.6266844272613525, -0.5130089521408081, 0.06147846579551697, -0.7018849849700928, -1.419037938117981, -0.3363824486732483, 0.9714004397392273], [-0.36639660596847534, 0.06164569407701492, 0.17240601778030396, 0.06130147725343704, -1.8701648712158203, 0.32815492153167725, -1.0594985485076904, 1.3038631677627563, -0.13050627708435059, 0.3828449845314026, -1.644262433052063, -0.07680504024028778, 0.19877055287361145, -1.211496114730835, 0.8666233420372009, 1.1416782140731812, -0.8444507122039795, 0.1573520451784134, -0.3370094895362854, 0.5454244613647461, -1.1286475658416748, 0.2086276113986969, -0.4336943030357361, 1.706860065460205], [-0.45888566970825195, 0.1592477560043335, 0.8864469528198242, -0.16713975369930267, -0.3251522481441498, -0.1259937733411789, -0.5607023239135742, -0.4561402499675751, -0.7834538817405701, -0.5884578824043274, -0.1905917227268219, -0.6901430487632751, -0.729454517364502, -0.6394685506820679, 0.15194326639175415, 0.2018084079027176, 0.5005462169647217, 1.0099213123321533, 0.6439909934997559, 0.05135289579629898, 0.662298858165741, 0.6446484327316284, -0.10298967361450195, -0.30327317118644714], [0.9851892590522766, -0.7325254678726196, 0.05149051547050476, -0.5295233130455017, 0.006603505462408066, -0.17725788056850433, 0.7185478806495667, -1.9506075382232666, -0.8542400002479553, -0.8409773707389832, -0.28841927647590637, 0.11003085970878601, 0.15611326694488525, -0.05209856480360031, 1.4449918270111084, -0.3797134459018707, -0.1894768476486206, -0.010133102536201477, 0.7925670146942139, -1.1067662239074707, -0.4674862325191498, -0.28692853450775146, -0.6696728467941284, -0.07917261123657227]], [[0.5587954521179199, 0.2705559730529785, 0.7169137001037598, -0.2641323208808899, -0.3212026357650757, -1.112563967704773, 1.3183320760726929, 0.2546851933002472, -1.0805848836898804, -0.022182881832122803, 0.035687386989593506, -0.9280093312263489, -0.6101797223091125, 1.1389137506484985, -0.20428875088691711, 0.31192320585250854, -2.064321279525757, 0.17960867285728455, 0.8096275329589844, -0.5705145001411438, 0.10077501833438873, 1.3214941024780273, 0.22677184641361237, -0.5930641889572144, -0.13993115723133087, -0.4633384346961975, 1.3308050632476807, -0.9503498077392578, -0.06154709309339523, 1.3559077978134155, 0.3253217339515686, -0.08726127445697784], [0.08853363990783691, 0.022432733327150345, 1.4877095222473145, 0.35279130935668945, -1.0199906826019287, -1.5622878074645996, 0.6053448915481567, 0.1387297511100769, -0.9181360006332397, -0.5032597184181213, -2.5063745975494385, -0.20372214913368225, 0.9198460578918457, 0.8510075807571411, 0.557849109172821, -0.4707328677177429, -2.2370500564575195, 1.084083080291748, -0.9971408843994141, -0.34220650792121887, -0.8704966902732849, -0.1585303395986557, 0.5780233144760132, -0.08004878461360931, 0.020266473293304443, -0.04621775448322296, -1.0440770387649536, 0.6931856274604797, -0.3578944504261017, -0.03833220899105072, -0.4558255970478058, 0.544887900352478], [0.1354110836982727, 0.04768769443035126, -0.49391016364097595, -2.1939473152160645, 0.3034742474555969, 0.5651243925094604, 0.2249455451965332, 0.18638332188129425, 1.7718520164489746, 0.2369254231452942, -0.7264370322227478, 2.091832399368286, 1.0218569040298462, -0.4320179522037506, -0.3506595492362976, -0.9144725799560547, 0.7751335501670837, 1.1657274961471558, -0.3672941327095032, 0.5031474828720093, 1.351200819015503, 0.24168597161769867, 0.3173696994781494, -0.38457080721855164, 1.1793780326843262, -0.5362573266029358, 1.0643742084503174, -0.6734898090362549, 0.060489289462566376, -1.6733970642089844, 0.11141879111528397, -0.00746530294418335], [0.6553977727890015, 0.20567135512828827, 0.30666711926460266, 0.49443957209587097, 1.171962022781372, 0.47853049635887146, -1.861772894859314, -2.1848738193511963, -1.1018569469451904, -1.2832711935043335, -0.9833981394767761, 0.18763232231140137, -1.4311314821243286, 1.0610675811767578, -0.8067194223403931, 0.4530918598175049, 0.34827274084091187, -0.25387999415397644, 0.26080143451690674, 0.5464252829551697, -1.1966148614883423, 1.2507333755493164, 0.32623305916786194, -0.9617847204208374, 0.5877047181129456, 0.30591315031051636, 0.38991275429725647, 2.166362762451172, -0.49729758501052856, 0.5902929306030273, 1.9624048471450806, 1.5517550706863403], [1.0488483905792236, -0.4391832947731018, -0.3297467827796936, -1.1568971872329712, -0.37859249114990234, 0.8726592063903809, 0.9982828497886658, 0.680579423904419, -0.18439434468746185, 0.7116557955741882, -1.011826515197754, -0.27574723958969116, -1.9006065130233765, -0.2234051674604416, 0.10338477790355682, 0.8987478613853455, -1.4491676092147827, -0.8317580819129944, 1.5640506744384766, 0.801275908946991, -1.532281756401062, 0.22718365490436554, 0.6828200221061707, 0.16221624612808228, -0.7300870418548584, -0.3822413384914398, -0.2837487459182739, 0.5819922685623169, 1.2645257711410522, -2.1393401622772217, 1.8398358821868896, 0.6202946305274963], [0.5195016860961914, 0.24292707443237305, 0.6785104274749756, -1.0332261323928833, -1.105418086051941, 0.019191382452845573, 0.23821786046028137, -1.6058419942855835, 1.4946818351745605, -0.7527557015419006, -0.9020329117774963, -0.2834712564945221, 0.9767651557922363, -0.25201353430747986, -0.8208273649215698, 1.0399298667907715, 1.2407807111740112, 0.7421187162399292, -1.4581948518753052, 0.7924019694328308, -0.4369742274284363, -0.8288058042526245, -0.19133374094963074, -0.3277531862258911, -0.3115251064300537, 0.9726641178131104, 0.7939853668212891, -0.4789641499519348, -0.20063035190105438, -0.06528040766716003, 1.0773433446884155, 0.5130878686904907], [-0.41120612621307373, -0.1905740201473236, 0.5995165109634399, 0.13758330047130585, 0.552191436290741, -0.07866982370615005, -0.2622462213039398, 0.9143422245979309, -1.0181804895401, 0.18712657690048218, 0.5764227509498596, -1.126513123512268, -0.08023805916309357, -0.3081972002983093, -0.355127215385437, 0.9545506834983826, -0.3186299800872803, 0.9583409428596497, 0.5734893679618835, -0.7639517784118652, -0.8947616815567017, 1.209099531173706, 1.128772497177124, 0.3286413550376892, 1.4802614450454712, -0.6386008262634277, -0.2685602605342865, -1.3512414693832397, 0.35439348220825195, -0.3647940158843994, -0.20422212779521942, 0.8601818084716797], [2.146143913269043, -0.7659696936607361, 1.875793695449829, -0.07188551872968674, -0.4765409231185913, 0.06467743217945099, 0.28791242837905884, -0.9459887146949768, -0.742192804813385, 0.5736123323440552, -0.6589838862419128, 0.47700491547584534, -0.9719666838645935, 0.20012611150741577, -0.6919965744018555, 0.07854090631008148, -0.4305679500102997, 0.42834579944610596, 0.20851463079452515, -0.09655226767063141, 1.1032744646072388, 0.006527140736579895, -0.45752546191215515, 1.5636751651763916, -1.017783284187317, 1.3118524551391602, -2.0631103515625, 1.0511842966079712, -0.6325139999389648, -0.7389740943908691, -2.224123239517212, -1.2178082466125488], [-0.03829362988471985, -0.23446500301361084, 0.28361934423446655, 1.435102939605713, -0.09794558584690094, -0.4808955192565918, 0.9617884159088135, -0.872174859046936, 3.128873825073242, 1.327378511428833, -1.6366122961044312, 0.22054633498191833, -0.08565177023410797, -0.7356709241867065, -1.6307144165039062, 0.2919688820838928, -0.6243358254432678, 1.3011537790298462, -1.3104522228240967, 1.377531886100769, -1.1593602895736694, 0.7159432768821716, 0.3951479494571686, -0.5738898515701294, -0.1921556442975998, -0.2520519495010376, -0.047737352550029755, -0.3855275511741638, -0.6548678874969482, 0.5115485191345215, 0.5039652585983276, 0.8539386987686157], [-0.6227973103523254, 0.45531922578811646, -0.0028131380677223206, 0.2791558504104614, 1.2485836744308472, -0.12342502921819687, -0.6604419946670532, 0.28552526235580444, -1.0271751880645752, 0.6750503778457642, -0.43988117575645447, -0.6717510223388672, 0.02657465636730194, 0.08281555771827698, 0.9895659685134888, -0.07612454891204834, -0.17647616565227509, -0.48175138235092163, -1.3299533128738403, 0.9269241094589233, 1.0237592458724976, 1.4940745830535889, -0.9614987373352051, -1.3491772413253784, -0.49114614725112915, -0.08401603996753693, 0.07342563569545746, -0.5164234042167664, -0.28781139850616455, -0.5642409920692444, 0.36877110600471497, -0.2938605546951294], [0.10179702192544937, 0.5165891051292419, -0.23869085311889648, 1.674131155014038, -0.30195194482803345, 1.1112265586853027, 0.7780417203903198, 0.03457968682050705, 0.3228251039981842, -1.0597375631332397, 0.6533966064453125, 0.746727705001831, -0.3664887249469757, 1.2045507431030273, 1.2702974081039429, 0.027906354516744614, 1.625476360321045, 0.9842045307159424, -0.07955248653888702, -0.9931246638298035, -0.5287562608718872, 0.20328517258167267, -1.4060890674591064, -0.533863365650177, -1.5076295137405396, -1.8669953346252441, 0.16675543785095215, 0.6768878698348999, 0.5896520018577576, 1.9506586790084839, -1.25629460811615, -0.8688826560974121], [-1.7331364154815674, -1.0555357933044434, 1.2397658824920654, -0.26129600405693054, 0.1489691138267517, 0.04461020976305008, -0.5092212557792664, -1.630683422088623, -0.1083599105477333, -0.17424415051937103, -0.956627368927002, -0.008229784667491913, 0.938011109828949, 1.0944479703903198, -0.22835153341293335, 0.5492046475410461, -1.872363567352295, -0.09502293914556503, -0.1617746651172638, -0.034608229994773865, 0.1066223680973053, 0.09363821893930435, 0.9329283833503723, 0.583611011505127, -0.32003724575042725, -0.32375842332839966, -1.0732020139694214, -0.7464591860771179, 0.09264785796403885, -0.17535518109798431, -0.44439950585365295, 0.8391859531402588], [1.3184062242507935, 1.838843822479248, -0.4082877039909363, 0.9747887253761292, 1.101392149925232, 0.09286151826381683, -0.11380381137132645, 0.5521635413169861, -0.5735169053077698, -1.108248233795166, -0.9850987792015076, 0.29826822876930237, 0.33470189571380615, -1.0365872383117676, 0.8668190836906433, -0.3721294403076172, 0.11145768314599991, -0.5076829791069031, 1.3281222581863403, -0.196010023355484, -0.06046374887228012, -0.6857849359512329, -0.5287593007087708, -0.9323592185974121, 1.0163986682891846, -0.26235711574554443, -0.536024808883667, 1.204241394996643, 1.2182592153549194, 0.12474934011697769, -0.9418853521347046, 0.07191447168588638], [-0.8069187998771667, -0.42273417115211487, -0.44121989607810974, -0.7313594818115234, -0.24146494269371033, 0.15697672963142395, 1.4873510599136353, -1.3586350679397583, -0.5029477477073669, 0.5919345021247864, 1.3120876550674438, 0.01413215696811676, -0.8810487985610962, 1.0116853713989258, 2.1032795906066895, -3.0539865493774414, -0.2809222936630249, 0.2743569016456604, 0.05259545147418976, -1.2823843955993652, -0.6233744621276855, -0.20229287445545197, -0.512190580368042, 0.6041069030761719, 0.5992789268493652, -1.1435606479644775, 0.516549289226532, -0.6099251508712769, -0.43797874450683594, -0.05230075865983963, -0.30386102199554443, 1.1967148780822754], [-0.2562393546104431, -0.2260054051876068, 0.6823086142539978, 0.24203500151634216, -0.9553540349006653, -1.1667563915252686, 0.25563251972198486, -1.4429277181625366, 0.3513527512550354, -0.4095916152000427, -0.9412350058555603, -0.6297177076339722, -1.1200617551803589, 2.171769618988037, -1.2686693668365479, -0.8178529143333435, 1.189251184463501, -0.594566285610199, 0.7229944467544556, 0.37555864453315735, -1.2695232629776, -1.7344881296157837, 0.4111112952232361, -2.189225673675537, 0.22591987252235413, 0.552245557308197, 0.24861176311969757, -0.05212865769863129, 0.7308358550071716, 0.42169106006622314, 0.869288444519043, 0.14830245077610016], [-1.3565855026245117, -0.3670181632041931, 1.285899043083191, 0.43832308053970337, -1.0363880395889282, 0.7886194586753845, -0.9881173372268677, -1.1148018836975098, -0.4440839886665344, 1.7808220386505127, -1.5507293939590454, -0.4105645716190338, 0.15997150540351868, 0.7773586511611938, 0.7314915060997009, 0.2902861535549164, -0.02129729837179184, -0.2885398268699646, 0.5557295083999634, -0.5437100529670715, -1.3467974662780762, -0.7710044980049133, 1.0922459363937378, 0.2264968752861023, 0.7581319808959961, -0.46908190846443176, -1.162939190864563, -0.0713723748922348, 0.8671317100524902, 0.8170521855354309, 0.23510339856147766, -1.1814982891082764]], [[0.02910013124346733, -1.3725110292434692, -0.8384685516357422, 0.5654847025871277, -0.7173838019371033, 0.4467729926109314, -0.33681637048721313, -0.40514522790908813, -0.23727929592132568, 0.20982500910758972, 0.8013770580291748, 0.07201183587312698, -0.19979433715343475, 1.4267573356628418, 2.0823235511779785, -1.1424764394760132], [-1.0551140308380127, 1.4775782823562622, -0.06015049293637276, -0.5520263910293579, 1.3875482082366943, 0.07102937996387482, 0.032483380287885666, -0.014181122183799744, 1.1344635486602783, -1.166478157043457, 0.07498665153980255, -0.43658533692359924, 0.64335036277771, -0.6590964198112488, 1.0732381343841553, -0.7757318615913391], [1.2449499368667603, 0.4354274868965149, -0.6461490392684937, -0.7235968112945557, 0.9019547700881958, -1.5238525867462158, -0.31352436542510986, -0.6057382225990295, 0.2508184313774109, 0.2832799255847931, -0.438809335231781, 1.0149143934249878, 0.5651366710662842, 0.8772114515304565, 0.32035356760025024, -1.0293200016021729], [-0.720481276512146, 1.467657446861267, 0.809001088142395, -1.8577830791473389, 0.5371244549751282, 0.8215360641479492, 0.6319851875305176, 1.252271056175232, -1.5195142030715942, -0.34160879254341125, 1.8427231311798096, 0.14318373799324036, 0.271545946598053, -0.40101131796836853, 1.6056110858917236, 1.940464735031128], [-0.2188868522644043, 0.2308347523212433, -0.305156946182251, -0.8846724033355713, -1.5041396617889404, 0.8195133805274963, -0.2551465332508087, 0.1960955560207367, -0.6041617393493652, -0.3527929484844208, 0.2897512912750244, 0.07396058738231659, 0.20573805272579193, 0.468254029750824, -1.3346529006958008, -0.5209696888923645], [-0.23803068697452545, -1.8233141899108887, 2.3817806243896484, 1.7397085428237915, -1.7729742527008057, -0.6185634136199951, -0.6029701828956604, -0.4032944440841675, -0.3564336597919464, -0.7891821265220642, 0.07313713431358337, 0.8731739521026611, 1.0011497735977173, -0.4828326106071472, -0.41741329431533813, -0.6181584596633911], [-0.39886924624443054, 2.2095303535461426, -2.0474777221679688, -0.264855295419693, -3.069239854812622, -0.8787263631820679, -1.7975244522094727, 0.36657223105430603, 1.4051992893218994, -0.7048064470291138, 1.2957770824432373, -0.04765809327363968, 0.5701736807823181, 0.12022579461336136, -0.6186130046844482, 0.018581263720989227], [0.6925699710845947, 0.6711547374725342, 0.6078044176101685, 1.2358759641647339, -0.08547661453485489, 1.3928959369659424, -0.6698443293571472, -0.47976154088974, -1.0544793605804443, 0.01086735725402832, 0.7385389804840088, 0.46883779764175415, 0.5391652584075928, -0.5086430907249451, -0.09184552729129791, 0.16448722779750824]], [[0.7717936635017395, -0.7577215433120728, 0.26418760418891907, 1.117326021194458, -0.4644548296928406, -0.5899370908737183, 1.8154572248458862, 0.3545962870121002], [0.8341302871704102, 0.1005440354347229, 0.5252392292022705, -1.040209174156189, -2.0887985229492188, 0.456898033618927, 0.4510587155818939, 0.04182753711938858]]], "brain_biases": [[0.6220470666885376, -0.564857542514801, 1.2101755142211914, 0.5377249717712402, 1.0842211246490479, -0.9411202669143677, 0.5977303981781006, -2.0196616649627686, -0.0793202817440033, -0.16922323405742645, 0.3324640989303589, -0.12458536028862, 0.7673256397247314, -0.162955641746521, 0.8790779709815979, 0.932805061340332, 0.49127036333084106, 1.139030933380127, -0.5166248083114624, 0.7382898330688477, 0.8523839116096497, -0.5535364151000977, 0.5804088711738586, -1.2517849206924438, 0.6180446147918701, -0.6338049173355103, 0.11594124138355255, -0.4356604516506195, 0.3883947730064392, -0.35452282428741455, -0.4664645791053772, 0.7311482429504395], [-0.22890178859233856, 0.419461727142334, 0.049923814833164215, 0.5788976550102234, 0.3596832752227783, 0.23593983054161072, 0.19888633489608765, 0.012673668563365936, -0.63763028383255, 1.4901655912399292, 1.7132647037506104, -0.727336585521698, 0.1417846977710724, 1.56059992313385, -0.27371740341186523, -0.21836146712303162], [-0.30017390847206116, 0.004724178463220596, 1.7126970291137695, 0.5376676321029663, -0.0361722856760025, 0.20707140862941742, 0.601534903049469, -0.5765606164932251], [1.1450139284133911, 0.21389716863632202]], "sensor_retina_count": 24, "sensor_vision_radius": 300.0, "sensor_fov_degrees": 180.0, "sensor_skip": 2, "sensor_see_food": true, "sensor_see_bacteria": false, "sensor_see_predators": false, "locomotion_max_speed": 300.0, "locomotion_max_turn": 3.141592653589793, "energy_loss_idle": 2.0, "energy_loss_move": 5.0, "energy_death_energy": 0.0, "energy_split_energy": 150.0, "last_brain_output": [3.782290458679199, -0.15715128183364868], "last_brain_activations": [[0.5525517463684082, -0.5115726590156555, 0.8367321491241455, 0.4912639558315277, 0.794759213924408, -0.7357364892959595, 0.5354326367378235, -0.965390682220459, -0.0791543498635292, -0.16762621700763702, 0.3207331597805023, -0.12394475191831589, 0.645371675491333, -0.16152840852737427, 0.7059570550918579, 0.7318990230560303, 0.45522409677505493, 0.8140875101089478, -0.4750908613204956, 0.6281108260154724, 0.6923128366470337, -0.5031660199165344, 0.5229625701904297, -0.8487834334373474, 0.5497651100158691, -0.5606666207313538, 0.1154245063662529, -0.4100409746170044, 0.36997556686401367, -0.3403805196285248, -0.4353383183479309, 0.6237673163414001], [-0.29772889614105225, 0.9804657697677612, 0.9866372346878052, 0.3758508861064911, -0.999018132686615, 0.9991354942321777, 0.9858956336975098, -0.18184293806552887, 0.9653373956680298, 0.9962500929832458, 0.958911120891571, 0.9348798990249634, 0.9210484623908997, 0.8956587910652161, 0.7576226592063904, -0.9195922017097473], [0.9965004920959473, 0.8730158805847168, 0.9452061057090759, 0.9832594990730286, 0.8161264657974243, 0.9895421266555786, 0.9960752129554749, 0.9471139311790466], [3.782290458679199, -0.15715128183364868]]}, {"type": "bacteria", "x": 2376.571244513452, "y": 8217.486017686675, "r": 9.0, "angle": -1.4747776363395142, "vx": 66.02430607330115, "vy": -367.0733967691154, "energy": 0.001, "age": 268.3833333334179, "brain_sizes": [24, 32, 16, 8, 2], "brain_version": 243, "brain_weights": [[[1.8831716775894165, 1.1787641048431396, -0.0018275696784257889, -1.3068912029266357, 1.362290382385254, 0.25586795806884766, -0.5380566120147705, 0.13670659065246582, 1.2586121559143066, -2.491828441619873, -0.3820979595184326, -0.14697328209877014, -0.32937484979629517, -1.0816657543182373, -0.5057100057601929, -0.738862931728363, 0.0715973749756813, -0.3881699740886688, 2.243058919906616, -0.3722743093967438, -0.924196183681488, 0.1383914351463318, 0.518306314945221, -0.8230666518211365], [-0.44306129217147827, 0.512810230255127, 0.027189023792743683, -0.9840155839920044, 0.7783900499343872, -0.9835532307624817, 1.1284332275390625, 0.37081217765808105, 0.3701711893081665, 0.6784744262695312, -2.0159225463867188, -0.4525775909423828, 0.5548822283744812, 1.295403242111206, 0.7255451083183289, -1.4378849267959595, -1.5789064168930054, 0.5965999364852905, 0.7111400365829468, 0.3794151842594147, 0.3234173059463501, -0.5016445517539978, -0.672450065612793, -2.3761050701141357], [0.10151705145835876, 0.3575868606567383, 0.6353028416633606, -0.06590941548347473, 1.034626841545105, -1.4201738834381104, -1.865607738494873, -0.6033363342285156, -1.0275927782058716, 1.4178996086120605, -0.28457850217819214, -0.24461926519870758, -0.7417492866516113, -1.3446439504623413, 1.1962937116622925, -0.9496212005615234, -1.401955485343933, 0.16600295901298523, 0.23844540119171143, -0.10001008212566376, 0.8608981370925903, 0.24787844717502594, -0.45397883653640747, -0.28564536571502686], [-0.13807325065135956, -1.5874451398849487, 0.0642075464129448, 2.1852428913116455, 0.5132767558097839, -0.4846331477165222, 1.5370509624481201, 1.452242374420166, -1.1463265419006348, 0.6126807332038879, -0.38080450892448425, 1.602769374847412, -0.4642462134361267, 0.42494696378707886, 0.150848388671875, -0.014148300513625145, 1.3156533241271973, -0.5608991980552673, -0.37391722202301025, -0.15097473561763763, -0.05552905425429344, -0.6787277460098267, 0.09609632939100266, 0.1096649020910263], [-0.713005542755127, 0.7215792536735535, -0.15166592597961426, 0.1806856393814087, -0.2893849313259125, -0.932182788848877, -0.07106554508209229, -0.05001484230160713, 1.7598981857299805, 1.8704508543014526, 0.4721056818962097, -0.9848564863204956, 0.7306990623474121, -0.9683939218521118, 0.30120134353637695, -0.44092607498168945, -0.4264885187149048, 0.998900294303894, -1.4418069124221802, -0.6737086772918701, 1.5699307918548584, 0.18305744230747223, -1.3970531225204468, 0.583186149597168], [0.3560348451137543, -0.4478526711463928, 0.8738412261009216, -0.4510940611362457, -0.19803965091705322, -0.37824878096580505, 0.5270192623138428, 0.33954113721847534, -0.14402741193771362, -1.3832964897155762, 0.0902044028043747, -0.6038817167282104, 0.324602872133255, 0.667849063873291, -0.007264912128448486, -0.10418329387903214, 0.2926131784915924, -0.9757912158966064, -1.3290947675704956, 1.2271313667297363, -1.0790435075759888, 1.2371059656143188, -0.6554279923439026, -0.3495292067527771], [0.8253718018531799, -0.6815301775932312, -0.23457273840904236, -0.481172651052475, 0.6735775470733643, 0.6161850094795227, 1.1586880683898926, 0.7838154435157776, 0.045182228088378906, 0.5570428371429443, 1.6743496656417847, -0.12070965021848679, 0.022562317550182343, -0.7013178467750549, 0.13576579093933105, 0.25567469000816345, -0.6226824522018433, -1.3219550848007202, 0.5300804972648621, -0.8902136087417603, -0.6189914345741272, 1.2402985095977783, 0.7186377048492432, -0.340665727853775], [0.7704170346260071, -0.9595710039138794, -1.739158034324646, 1.0307427644729614, 0.7410760521888733, -1.3354167938232422, -1.181589961051941, -0.6638391017913818, -0.19625252485275269, 0.013025963678956032, 0.03291798010468483, 1.972347617149353, 0.6493116021156311, 0.7967945337295532, 1.6117603778839111, -0.5200514793395996, -0.17515751719474792, 1.4587504863739014, -0.150636225938797, 0.4086188077926636, 1.7433096170425415, -1.249422311782837, -1.887249231338501, -1.0219435691833496], [0.851835310459137, -0.5741544365882874, -0.12823566794395447, -0.9563691020011902, 1.068471908569336, -1.1993261575698853, -0.44804346561431885, 1.0245392322540283, 0.00802130252122879, 0.4825476109981537, -1.7209258079528809, 1.0138047933578491, 0.5184363126754761, 0.870349645614624, -0.2175203263759613, -0.4243340492248535, 0.8736934065818787, 1.05044686794281, -0.4924294352531433, -0.7748956084251404, -0.6981030106544495, 0.40030163526535034, 1.16353178024292, 0.3055734932422638], [-0.3440477252006531, 1.3695977926254272, 1.487928032875061, 0.3932182490825653, -1.8833894729614258, 0.10953351855278015, -0.23582595586776733, -1.7842093706130981, 1.9694955348968506, 0.011484246701002121, -0.687560498714447, -1.034479022026062, -1.1251893043518066, -0.13191628456115723, -0.2556881308555603, 1.2145979404449463, -0.02897215634584427, 2.280832529067993, 0.17514562606811523, -3.856846332550049, -0.35149499773979187, -0.6571055054664612, 0.320110559463501, -0.714246928691864], [-0.008789867162704468, -1.524740219116211, -0.34538233280181885, 0.91045081615448, 0.9318361878395081, -0.3466089367866516, -0.08492409437894821, -0.5159574151039124, -1.465727686882019, 0.2985852360725403, 0.6186119914054871, 0.8417159914970398, -1.700323224067688, -0.4084034562110901, -0.25267544388771057, 2.714034080505371, -2.4058682918548584, 0.22381846606731415, 0.24903392791748047, -0.13731738924980164, -1.1854859590530396, -0.6523112654685974, 0.3927021026611328, 1.3729907274246216], [-0.3716801404953003, 1.1586101055145264, -2.4676268100738525, 0.584483802318573, 0.25059542059898376, -1.4508922100067139, 0.4599343538284302, -1.4882581233978271, -1.0344243049621582, -0.5552117824554443, 0.9251130223274231, 0.23056575655937195, -0.04943162947893143, 0.3949529826641083, 0.9946304559707642, -1.4297899007797241, -0.2810072898864746, -0.892469048500061, 0.9038285613059998, 0.546109139919281, 0.9865159392356873, 0.2298717498779297, 0.7081676125526428, 0.9913755059242249], [1.3426433801651, 0.4437195658683777, 0.7206798195838928, 1.2764791250228882, 1.1775916814804077, -0.5979905724525452, 1.6764025688171387, 0.9702838063240051, 0.5231488943099976, -0.24600660800933838, -0.5142449736595154, 0.0756264179944992, 0.4508356750011444, 0.3370794355869293, -1.9112352132797241, -2.0384373664855957, 0.7449595928192139, 0.26396694779396057, -0.5124541521072388, 0.6495925784111023, 1.329820156097412, -0.19243067502975464, -0.5586249828338623, -0.14724576473236084], [-0.27347418665885925, 1.4523192644119263, 1.602088212966919, 0.044475048780441284, -0.26224952936172485, -0.46233537793159485, -0.03239094465970993, 0.6359301805496216, 0.05397563427686691, 0.04378887638449669, -1.7725892066955566, 0.5848383903503418, 0.2952759861946106, 0.24417313933372498, -0.05716293305158615, 0.3165222108364105, 0.016204139217734337, 1.1728636026382446, -0.20862144231796265, -0.9024379253387451, 0.4171007573604584, 0.3675061762332916, 0.990793764591217, 1.241442322731018], [0.8593493103981018, -1.3692618608474731, -1.2043590545654297, 1.3006869554519653, -0.28170567750930786, -0.2507287859916687, 0.27563655376434326, 1.522404670715332, 0.40700089931488037, 2.0327322483062744, 0.10946314036846161, -0.8838015198707581, -0.24361784756183624, 1.0361263751983643, 0.49056294560432434, 1.325316071510315, 0.49400797486305237, -0.6001186966896057, -0.6730711460113525, -0.8827379941940308, 0.07232066988945007, 0.7532063126564026, -0.15269586443901062, -0.4012306332588196], [-0.2618323266506195, 0.2721851170063019, 1.1505959033966064, 0.5104849934577942, -1.1114580631256104, 0.42725011706352234, 2.0049831867218018, -0.5551252961158752, 0.08073325455188751, 1.262475609779358, -1.1244962215423584, 0.6058632135391235, 1.2630590200424194, 0.36901965737342834, 1.7865837812423706, 1.3664700984954834, 1.2052348852157593, -0.7290075421333313, -0.09266325831413269, 0.5458394885063171, -0.22864767909049988, -0.23492443561553955, 0.27463799715042114, 1.7436410188674927], [-0.06473973393440247, -0.7844411134719849, 1.2148536443710327, -0.33176687359809875, -1.3088675737380981, 0.3790045380592346, -1.3182464838027954, 0.1857682466506958, 0.5400300621986389, 0.05423785746097565, -0.6964181661605835, -0.23414145410060883, 0.937160074710846, -0.9783534407615662, -0.5235629081726074, 0.23665687441825867, 1.3345584869384766, -1.015576958656311, 0.12096258997917175, 0.47872814536094666, -1.2404335737228394, -1.0483514070510864, 1.7057421207427979, 2.1075804233551025], [0.8864412903785706, -0.6315727829933167, 0.06706053763628006, 0.5003120303153992, -0.7350594401359558, -1.4447108507156372, -0.6103180646896362, 0.1403070092201233, -0.5237817168235779, 1.5944985151290894, -0.3265392482280731, 0.49560895562171936, 2.269503116607666, -0.27589455246925354, 0.03699425980448723, 0.007131822407245636, 0.24498802423477173, 0.6352958679199219, -1.0479646921157837, -0.8040347099304199, 0.418603777885437, 0.24995383620262146, -1.7968868017196655, -1.1386491060256958], [-0.10675301402807236, 0.004041939042508602, -0.8456141948699951, -0.15139615535736084, -0.4166260063648224, -2.085458517074585, -0.11193883419036865, 0.10201355814933777, -1.208134412765503, -1.670698881149292, -1.1535990238189697, 1.4960919618606567, -0.08771505951881409, -0.7155042290687561, -0.5099014043807983, 0.22481627762317657, 0.9544087052345276, -0.36819103360176086, 1.161331295967102, -0.8725390434265137, 0.09513973444700241, 1.172739028930664, -1.1619691848754883, -1.500736951828003], [1.9829105138778687, -0.15992768108844757, -1.2817293405532837, -0.3390815854072571, 1.0940486192703247, -0.1588360220193863, -0.5949892401695251, 0.5127884149551392, -0.2847614288330078, -0.6463582515716553, 1.3195735216140747, -0.45241767168045044, -1.5462007522583008, 0.11882923543453217, -1.9827086925506592, -0.3052111864089966, 0.33282074332237244, -0.400387704372406, -0.07924489676952362, -0.7776412963867188, -1.5274122953414917, 0.48795560002326965, -1.2427408695220947, 0.38331490755081177], [1.238258719444275, 1.375015377998352, -0.2581837773323059, -0.0033793002367019653, -1.5011587142944336, 2.450779438018799, -0.07339659333229065, 1.3725796937942505, -0.2420293241739273, 0.63384610414505, 0.7703484296798706, -1.1219810247421265, -0.0873199850320816, 0.25777268409729004, -1.3270211219787598, -0.30877453088760376, -0.13454771041870117, 0.6231969594955444, -0.005301952362060547, 0.06297300010919571, -0.22262708842754364, 0.0018529146909713745, 0.5260326266288757, 1.9385887384414673], [-0.8909811973571777, 0.7279040813446045, -0.262614369392395, 1.9680676460266113, 0.4426567554473877, 1.6103140115737915, 1.5671769380569458, -0.6225142478942871, -0.7443554997444153, -0.2136748731136322, 0.6532343626022339, 1.215302586555481, -0.7548118233680725, -0.5408784747123718, 0.04015755653381348, 0.3944614827632904, -0.5170803666114807, 1.1798012256622314, 0.2844301164150238, 0.8819243907928467, -0.46447473764419556, -0.7506991028785706, 0.004276767373085022, -1.044897437095642], [0.041324399411678314, 0.00896742194890976, -0.44809800386428833, -0.6231581568717957, -0.20202553272247314, 1.0327987670898438, 1.583530068397522, 0.10967062413692474, -0.845233142375946, -0.3994293212890625, 0.4582529664039612, 0.22573286294937134, 0.1256536841392517, -0.30378642678260803, 0.6430821418762207, 0.8660110831260681, 0.9013776779174805, 0.6057107448577881, 1.301347017288208, 0.5578005909919739, 0.3701452612876892, 0.36892563104629517, 0.05704760551452637, 0.7609063386917114], [0.7533156871795654, 1.1309006214141846, -0.4399053454399109, -0.6950260996818542, 0.699977457523346, 0.725292980670929, 1.737236738204956, 1.6653482913970947, -0.4756651222705841, -1.2758015394210815, -0.36669835448265076, 0.49581634998321533, -1.9236176013946533, 0.08894222974777222, 0.31021344661712646, -0.5995608568191528, -0.08779619634151459, -0.29558682441711426, -0.9124838709831238, 0.4911915063858032, -0.7940534353256226, 0.5056789517402649, -1.2017303705215454, 0.8939142823219299], [-1.1477142572402954, 0.3470919132232666, -1.0403987169265747, -1.1843839883804321, -1.3206876516342163, -0.18776266276836395, -0.16378530859947205, 0.5575845241546631, 0.07137390971183777, -0.3474619686603546, -0.21633799374103546, 0.5619330406188965, 1.3571820259094238, -1.0266709327697754, -1.0142662525177002, 0.8823087215423584, 0.00838744267821312, -0.21119125187397003, 0.8006895780563354, 0.49426960945129395, -1.0290265083312988, -0.20021981000900269, -0.8581413626670837, 1.2825154066085815], [0.8743731379508972, 1.8951821327209473, 0.34004130959510803, -1.0007580518722534, -0.8126650452613831, -0.0020043961703777313, -0.7397806644439697, 1.2116742134094238, -1.4379642009735107, -0.18724018335342407, 2.3327245712280273, -0.032061658799648285, 1.0250725746154785, -0.03191173076629639, -0.6303289532661438, -0.27861395478248596, 0.6389613747596741, 0.8751723766326904, -0.557140052318573, 0.0055686235427856445, -0.4494366943836212, 1.5736193656921387, -0.19147364795207977, -0.20551814138889313], [-0.7301678657531738, -1.7028719186782837, -1.230371117591858, -0.03003755211830139, -0.6902968287467957, -1.2276469469070435, -1.3833318948745728, 0.834961473941803, 0.7037056684494019, 0.09587185084819794, 1.8930011987686157, 0.4726126492023468, -0.37026065587997437, 1.224263072013855, 0.2570340633392334, -0.3459440767765045, 0.3916957378387451, 1.475959300994873, -0.341537207365036, 1.7672879695892334, -0.28138428926467896, -0.5010935068130493, 0.349517285823822, -0.6155321598052979], [-0.5135660767555237, 1.3636553287506104, 0.5388344526290894, 0.08279559016227722, 0.38638240098953247, 0.3447552025318146, -0.2275082767009735, -1.9448308944702148, -0.6890885829925537, -0.41872841119766235, 0.8617005348205566, 0.268010675907135, -0.06017942726612091, 0.3778053820133209, 0.733117401599884, -0.6008056402206421, 1.7808228731155396, 0.4170632064342499, 0.9313076734542847, 0.33012843132019043, 0.5440378189086914, -0.5008348226547241, -0.12483196705579758, 1.5404132604599], [0.9879432320594788, 0.5601551532745361, -0.9610483050346375, 1.0924813747406006, 0.25615477561950684, 1.4300981760025024, -0.5883426070213318, -1.1904875040054321, 0.5758218765258789, -0.3290790915489197, -1.9696335792541504, -0.07315915822982788, 0.5913687944412231, -0.18834516406059265, 0.6206517219543457, -0.025749225169420242, 0.5355108380317688, 0.6266844272613525, -0.5026792287826538, 0.06147846579551697, -0.7018849849700928, -1.419037938117981, -0.3363824486732483, 0.9714004397392273], [-0.36639660596847534, 0.06164569407701492, 0.17240601778030396, 0.06130147725343704, -2.019336223602295, 0.32815492153167725, -1.0594985485076904, 1.1856496334075928, -0.13050627708435059, 0.3828449845314026, -1.644262433052063, -0.07680504024028778, 0.19877055287361145, -1.211496114730835, 0.8666233420372009, 1.1416782140731812, -0.8444507122039795, 0.1573520451784134, -0.3370094895362854, 0.5454244613647461, -1.1286475658416748, 0.2086276113986969, -0.4336943030357361, 1.6405788660049438], [-0.45888566970825195, 0.1592477560043335, 0.8864469528198242, -0.16713975369930267, -0.4675585627555847, -0.1259937733411789, -0.607753574848175, -0.4561402499675751, -0.7834538817405701, -0.5884578824043274, -0.1905917227268219, -0.6901430487632751, -0.729454517364502, -0.6394685506820679, 0.15194326639175415, 0.2018084079027176, 0.5005462169647217, 1.0099213123321533, 0.6506197452545166, 0.05135289579629898, 0.662298858165741, 0.6446484327316284, -0.10298967361450195, -0.30327317118644714], [0.9851892590522766, -0.7325254678726196, 0.05149051547050476, -0.5295233130455017, 0.006603505462408066, -0.07978817075490952, 0.7185478806495667, -1.9506075382232666, -0.8542400002479553, -0.8409773707389832, -0.28841927647590637, 0.11003085970878601, 0.15611326694488525, -0.05209856480360031, 1.4449918270111084, -0.3797134459018707, -0.1894768476486206, -0.010133102536201477, 0.7925670146942139, -1.1631407737731934, -0.4674862325191498, -0.28692853450775146, -0.6696728467941284, -0.07917261123657227]], [[0.5587954521179199, 0.27167075872421265, 0.7169137001037598, -0.14632505178451538, -0.3212026357650757, -1.112563967704773, 1.3183320760726929, 0.2546851933002472, -1.0805848836898804, -0.02171468175947666, 0.035687386989593506, -0.9652743935585022, -0.6101797223091125, 1.1389137506484985, -0.20428875088691711, 0.31192320585250854, -2.064321279525757, 0.17960867285728455, 0.8096275329589844, -0.47908347845077515, 0.10077501833438873, 1.3214941024780273, 0.22677184641361237, -0.5930641889572144, -0.13993115723133087, -0.4633384346961975, 1.3308050632476807, -0.9503498077392578, -0.06154709309339523, 1.3559077978134155, 0.3253217339515686, -0.14763052761554718], [0.08853363990783691, 0.022432733327150345, 1.4877095222473145, 0.35279130935668945, -1.0199906826019287, -1.5622878074645996, 0.6053448915481567, 0.1387297511100769, -0.9181360006332397, -0.5032597184181213, -2.5063745975494385, -0.20372214913368225, 0.9198460578918457, 0.8510075807571411, 0.557849109172821, -0.4707328677177429, -2.2370500564575195, 1.084083080291748, -0.9971408843994141, -0.34220650792121887, -0.8704966902732849, -0.1585303395986557, 0.5780233144760132, -0.08004878461360931, 0.020266473293304443, -0.04621775448322296, -1.0440770387649536, 0.6931856274604797, -0.3578944504261017, -0.03833220899105072, -0.4558255970478058, 0.544887900352478], [0.1354110836982727, 0.04768769443035126, -0.49391016364097595, -2.1939473152160645, 0.3034742474555969, 0.5651243925094604, 0.2249455451965332, 0.18638332188129425, 1.7718520164489746, 0.2369254231452942, -0.7264370322227478, 2.091832399368286, 1.0218569040298462, -0.4320179522037506, -0.3506595492362976, -0.9144725799560547, 0.7751335501670837, 1.1657274961471558, -0.3672941327095032, 0.5031474828720093, 1.351200819015503, 0.24168597161769867, 0.3173696994781494, -0.38457080721855164, 1.1793780326843262, -0.5362573266029358, 1.0643742084503174, -0.6734898090362549, 0.07001972198486328, -1.602159857749939, 0.11141879111528397, -0.00746530294418335], [0.6553977727890015, 0.20567135512828827, 0.30666711926460266, 0.49443957209587097, 1.171962022781372, 0.47853049635887146, -1.8696523904800415, -2.1848738193511963, -1.1018569469451904, -1.2832711935043335, -0.9833981394767761, 0.18763232231140137, -1.4311314821243286, 1.0610675811767578, -0.8067194223403931, 0.4530918598175049, 0.34827274084091187, -0.25387999415397644, 0.26080143451690674, 0.5464252829551697, -1.1230030059814453, 1.2507333755493164, 0.32623305916786194, -0.988478422164917, 0.5877047181129456, 0.30591315031051636, 0.38991275429725647, 2.166362762451172, -0.49729758501052856, 0.5902929306030273, 1.9165747165679932, 1.5517550706863403], [1.1859601736068726, -0.4391832947731018, -0.3297467827796936, -1.1568971872329712, -0.37859249114990234, 0.954811155796051, 0.9982828497886658, 0.680579423904419, -0.18439434468746185, 0.7116557955741882, -1.011826515197754, -0.27574723958969116, -1.9006065130233765, -0.2234051674604416, 0.10338477790355682, 0.8987478613853455, -1.4491676092147827, -0.8317580819129944, 1.5640506744384766, 0.801275908946991, -1.532281756401062, 0.22718365490436554, 0.6828200221061707, 0.16221624612808228, -0.7300870418548584, -0.3822413384914398, -0.2837487459182739, 0.5819922685623169, 1.2645257711410522, -2.1393401622772217, 1.8398358821868896, 0.6202946305274963], [0.5195016860961914, 0.24292707443237305, 0.6785104274749756, -1.0332261323928833, -1.105418086051941, 0.019191382452845573, 0.23821786046028137, -1.6686397790908813, 1.4946818351745605, -0.7527557015419006, -0.9020329117774963, -0.2834712564945221, 0.9767651557922363, -0.25201353430747986, -0.8208273649215698, 1.0276809930801392, 1.2407807111740112, 0.7421187162399292, -1.4581948518753052, 0.7878431677818298, -0.3861369788646698, -0.8288058042526245, -0.19133374094963074, -0.3277531862258911, -0.3115251064300537, 0.9617298245429993, 0.7939853668212891, -0.4789641499519348, -0.1657479852437973, -0.06528040766716003, 1.0773433446884155, 0.5130878686904907], [-0.41120612621307373, -0.1905740201473236, 0.5995165109634399, 0.00023442506790161133, 0.552191436290741, -0.07866982370615005, -0.2622462213039398, 0.9143422245979309, -1.0181804895401, 0.18712657690048218, 0.5764227509498596, -1.126513123512268, -0.08023805916309357, -0.3081972002983093, -0.3365348279476166, 0.9545506834983826, -0.3186299800872803, 0.9583409428596497, 0.5734893679618835, -0.7639517784118652, -0.8947616815567017, 1.209099531173706, 1.128772497177124, 0.3286413550376892, 1.4802614450454712, -0.6386008262634277, -0.2685602605342865, -1.3512414693832397, 0.35439348220825195, -0.3647940158843994, -0.20422212779521942, 0.8601818084716797], [2.146143913269043, -0.7659696936607361, 1.875793695449829, -0.07188551872968674, -0.4765409231185913, 0.06467743217945099, 0.28791242837905884, -0.9459887146949768, -0.742192804813385, 0.5736123323440552, -0.6589838862419128, 0.4205686151981354, -0.9719666838645935, 0.20012611150741577, -0.6919965744018555, 0.10408835858106613, -0.4305679500102997, 0.42834579944610596, 0.20851463079452515, -0.09655226767063141, 1.009048581123352, 0.006527140736579895, -0.45752546191215515, 1.5636751651763916, -1.017783284187317, 1.3118524551391602, -2.0631103515625, 1.0809251070022583, -0.6325139999389648, -0.7389740943908691, -2.224123239517212, -1.3878142833709717], [-0.03829362988471985, -0.23446500301361084, 0.28361934423446655, 1.435102939605713, -0.09794558584690094, -0.4808955192565918, 0.9617884159088135, -0.872174859046936, 3.128873825073242, 1.327378511428833, -1.6366122961044312, 0.22054633498191833, -0.08565177023410797, -0.9896388053894043, -1.6307144165039062, 0.2919688820838928, -0.6243358254432678, 1.3011537790298462, -1.3104522228240967, 1.377531886100769, -1.1593602895736694, 0.7159432768821716, 0.3951479494571686, -0.5738898515701294, -0.1921556442975998, -0.2520519495010376, -0.047737352550029755, -0.3855275511741638, -0.6548678874969482, 0.5115485191345215, 0.5039652585983276, 0.8539386987686157], [-0.6227973103523254, 0.45531922578811646, -0.0028131380677223206, 0.2791558504104614, 1.2485836744308472, -0.12342502921819687, -0.6604419946670532, 0.28552526235580444, -1.0271751880645752, 0.6025528311729431, -0.4195738434791565, -0.6717510223388672, 0.02657465636730194, 0.08281555771827698, 0.9895659685134888, -0.07612454891204834, -0.17647616565227509, -0.48175138235092163, -1.3299533128738403, 0.8521392941474915, 1.0237592458724976, 1.4940745830535889, -0.9614987373352051, -1.3491772413253784, -0.49114614725112915, -0.08401603996753693, 0.1485314667224884, -0.5164234042167664, -0.28781139850616455, -0.5642409920692444, 0.36877110600471497, -0.2938605546951294], [0.10179702192544937, 0.5165891051292419, -0.23869085311889648, 1.674131155014038, -0.30195194482803345, 1.283181071281433, 0.7780417203903198, 0.03457968682050705, 0.3228251039981842, -1.0597375631332397, 0.6533966064453125, 0.6018005013465881, -0.37318551540374756, 1.2045507431030273, 1.2702974081039429, 0.027906354516744614, 1.625476360321045, 0.9842045307159424, -0.07955248653888702, -0.9931246638298035, -0.5582716464996338, 0.20328517258167267, -1.4060890674591064, -0.533863365650177, -1.5076295137405396, -1.8669953346252441, 0.16675543785095215, 0.6768878698348999, 0.5896520018577576, 1.9506586790084839, -1.25629460811615, -0.8688826560974121], [-1.7331364154815674, -1.0555357933044434, 1.2397658824920654, -0.26129600405693054, 0.1489691138267517, 0.04461020976305008, -0.5092212557792664, -1.630683422088623, -0.1083599105477333, -0.17424415051937103, -0.956627368927002, -0.008229784667491913, 0.938011109828949, 1.0944479703903198, -0.22835153341293335, 0.5492046475410461, -1.872363567352295, 0.03602658957242966, -0.1617746651172638, -0.034608229994773865, 0.1066223680973053, 0.09363821893930435, 0.9329283833503723, 0.583611011505127, -0.32003724575042725, -0.32375842332839966, -1.0732020139694214, -0.7464591860771179, 0.09264785796403885, -0.17535518109798431, -0.44439950585365295, 0.8391859531402588], [1.3184062242507935, 1.838843822479248, -0.4082877039909363, 0.9747887253761292, 1.101392149925232, -0.12542077898979187, -0.11380381137132645, 0.5521635413169861, -0.5735169053077698, -1.108248233795166, -0.9850987792015076, 0.3220788240432739, 0.33470189571380615, -1.0365872383117676, 0.8668190836906433, -0.3721294403076172, 0.21384170651435852, -0.636733889579773, 1.2554739713668823, -0.196010023355484, -0.06046374887228012, -0.6857849359512329, -0.5287593007087708, -1.0522481203079224, 0.9389286041259766, -0.26235711574554443, -0.536024808883667, 1.204241394996643, 1.2182592153549194, 0.3542831540107727, -0.9418853521347046, 0.07191447168588638], [-0.8069187998771667, -0.42273417115211487, -0.44121989607810974, -0.7313594818115234, -0.24146494269371033, 0.15697672963142395, 1.6517609357833862, -1.3586350679397583, -0.5029477477073669, 0.5919345021247864, 1.3120876550674438, 0.01413215696811676, -0.8810487985610962, 1.0116853713989258, 2.1032795906066895, -3.0539865493774414, -0.2809222936630249, 0.2743569016456604, 0.05259545147418976, -1.3375804424285889, -0.6233744621276855, -0.20229287445545197, -0.512190580368042, 0.6486818194389343, 0.5992789268493652, -1.1435606479644775, 0.516549289226532, -0.6099251508712769, -0.43797874450683594, -0.05230075865983963, -0.30386102199554443, 1.1967148780822754], [-0.2562393546104431, -0.2260054051876068, 0.6823086142539978, 0.24203500151634216, -0.9553540349006653, -1.1667563915252686, 0.23960651457309723, -1.4429277181625366, 0.2766026258468628, -0.4095916152000427, -0.9998902082443237, -0.6297177076339722, -1.1200617551803589, 2.171769618988037, -1.2686693668365479, -0.8178529143333435, 1.189251184463501, -0.594566285610199, 0.7229944467544556, 0.37555864453315735, -1.2695232629776, -1.7344881296157837, 0.4111112952232361, -2.189225673675537, 0.22591987252235413, 0.552245557308197, 0.320180207490921, -0.05212865769863129, 0.7308358550071716, 0.42169106006622314, 0.869288444519043, 0.14830245077610016], [-1.3565855026245117, -0.3670181632041931, 1.285899043083191, 0.43832308053970337, -1.0363880395889282, 0.7886194586753845, -0.9881173372268677, -1.1148018836975098, -0.6356996893882751, 1.7808220386505127, -1.5507293939590454, -0.4105645716190338, 0.15997150540351868, 0.7773586511611938, 0.7471646070480347, 0.2902861535549164, -0.02129729837179184, -0.2885398268699646, 0.5557295083999634, -0.5437100529670715, -1.3467974662780762, -0.7710044980049133, 1.0922459363937378, 0.2264968752861023, 0.7581319808959961, -0.46908190846443176, -1.162939190864563, -0.0713723748922348, 0.8671317100524902, 0.8170521855354309, 0.23510339856147766, -1.1814982891082764]], [[0.02910013124346733, -1.3725110292434692, -0.8384685516357422, 0.5654847025871277, -0.7173838019371033, 0.4467729926109314, -0.33681637048721313, -0.40514522790908813, -0.23727929592132568, 0.20982500910758972, 0.8013770580291748, 0.07201183587312698, -0.19979433715343475, 1.4267573356628418, 2.0823235511779785, -1.1424764394760132], [-1.0551140308380127, 1.4775782823562622, -0.06015049293637276, -0.4911125600337982, 1.3875482082366943, 0.07102937996387482, 0.032483380287885666, -0.014181122183799744, 1.1344635486602783, -1.166478157043457, 0.07498665153980255, -0.43658533692359924, 0.64335036277771, -0.6590964198112488, 1.0732381343841553, -0.7757318615913391], [1.2449499368667603, 0.4354274868965149, -0.6461490392684937, -0.7235968112945557, 0.9019547700881958, -1.5238525867462158, -0.31352436542510986, -0.6057382225990295, 0.2508184313774109, 0.2832799255847931, -0.438809335231781, 1.0149143934249878, 0.5651366710662842, 0.8772114515304565, 0.32035356760025024, -1.0293200016021729], [-0.720481276512146, 1.467657446861267, 0.809001088142395, -1.8577830791473389, 0.5874888300895691, 0.9231662154197693, 0.6319851875305176, 1.252271056175232, -1.5195142030715942, -0.34160879254341125, 1.8427231311798096, 0.14318373799324036, 0.271545946598053, -0.40101131796836853, 1.6056110858917236, 1.945803165435791], [-0.2188868522644043, 0.2308347523212433, -0.305156946182251, -0.8846724033355713, -1.5041396617889404, 0.8195133805274963, -0.2551465332508087, 0.1960955560207367, -0.6041617393493652, -0.3527929484844208, 0.2897512912750244, 0.12467826902866364, 0.20573805272579193, 0.468254029750824, -1.3346529006958008, -0.5303050875663757], [-0.23803068697452545, -1.8233141899108887, 2.3817806243896484, 1.7397085428237915, -1.7729742527008057, -0.6185634136199951, -0.6029701828956604, -0.4032944440841675, -0.3564336597919464, -0.8821491599082947, 0.07313713431358337, 0.8731739521026611, 1.0011497735977173, -0.4828326106071472, -0.41741329431533813, -0.6181584596633911], [-0.39886924624443054, 2.2095303535461426, -2.042236566543579, -0.264855295419693, -3.069239854812622, -0.8787263631820679, -1.8248672485351562, 0.36657223105430603, 1.4051992893218994, -0.7048064470291138, 1.1609783172607422, -0.04765809327363968, 0.5701736807823181, 0.12022579461336136, -0.6186130046844482, 0.018581263720989227], [0.6925699710845947, 0.6711547374725342, 0.6078044176101685, 1.2358759641647339, 0.056916870176792145, 1.3928959369659424, -0.6698443293571472, -0.47976154088974, -0.9618796110153198, 0.01086735725402832, 0.7385389804840088, 0.46883779764175415, 0.5391652584075928, -0.5016050934791565, -0.09184552729129791, 0.16448722779750824]], [[0.7717936635017395, -0.7577215433120728, 0.26418760418891907, 1.117326021194458, -0.4644548296928406, -0.5899370908737183, 1.8154572248458862, 0.34750425815582275], [0.8341302871704102, 0.1005440354347229, 0.5252392292022705, -1.040209174156189, -2.0887985229492188, 0.456898033618927, 0.4510587155818939, 0.04182753711938858]]], "brain_biases": [[0.5787266492843628, -0.564857542514801, 1.2101755142211914, 0.5377249717712402, 1.0842211246490479, -0.9411202669143677, 0.5977303981781006, -1.9226001501083374, -0.0793202817440033, -0.16922323405742645, 0.3324640989303589, -0.16985635459423065, 0.7673256397247314, -0.162955641746521, 0.8790779709815979, 0.932805061340332, 0.49127036333084106, 1.139030933380127, -0.5166248083114624, 0.7382898330688477, 0.8523839116096497, -0.5535364151000977, 0.5804088711738586, -1.2517849206924438, 0.6180446147918701, -0.6338049173355103, 0.11594124138355255, -0.4356604516506195, 0.3883947730064392, -0.35452282428741455, -0.4664645791053772, 0.7311482429504395], [-0.22890178859233856, 0.419461727142334, 0.049923814833164215, 0.5788976550102234, 0.3596832752227783, 0.23593983054161072, 0.19888633489608765, 0.012673668563365936, -0.63763028383255, 1.5486985445022583, 1.7132647037506104, -0.727336585521698, 0.1417846977710724, 1.56059992313385, -0.27371740341186523, -0.21836146712303162], [-0.30017390847206116, -0.02151828445494175, 1.7126970291137695, 0.5376676321029663, -0.0361722856760025, 0.20707140862941742, 0.601534903049469, -0.5765606164932251], [1.1450139284133911, 0.21389716863632202]], "sensor_retina_count": 24, "sensor_vision_radius": 300.0, "sensor_fov_degrees": 180.0, "sensor_skip": 2, "sensor_see_food": true, "sensor_see_bacteria": false, "sensor_see_predators": false, "locomotion_max_speed": 300.0, "locomotion_max_turn": 3.141592653589793, "energy_loss_idle": 2.0, "energy_loss_move": 5.0, "energy_death_energy": 0.0, "energy_split_energy": 150.0, "last_brain_output": [3.796982765197754, -0.08886855840682983], "last_brain_activations": [[0.5217393636703491, -0.5115726590156555, 0.8367321491241455, 0.4912639558315277, 0.794759213924408, -0.7357364892959595, 0.5354326367378235, -0.9581310153007507, -0.0791543498635292, -0.16762621700763702, 0.3207331597805023, -0.1682414710521698, 0.645371675491333, -0.16152840852737427, 0.7059570550918579, 0.7318990230560303, 0.45522409677505493, 0.8140875101089478, -0.4750908613204956, 0.6281108260154724, 0.6923128366470337, -0.5031660199165344, 0.5229625701904297, -0.8487834334373474, 0.5497651100158691, -0.5606666207313538, 0.1154245063662529, -0.4100409746170044, 0.36997556686401367, -0.3403805196285248, -0.4353383183479309, 0.6237673163414001], [-0.19547070562839508, 0.980746328830719, 0.9831705689430237, 0.4138137698173523, -0.9990261197090149, 0.9992741942405701, 0.986305832862854, -0.4080694913864136, 0.9670714735984802, 0.9968663454055786, 0.9435385465621948, 0.9512155652046204, 0.9301854968070984, 0.9014170169830322, 0.7627298831939697, -0.9066286683082581], [0.9971868991851807, 0.8366947174072266, 0.9671438932418823, 0.964651346206665, 0.7965577244758606, 0.9903314113616943, 0.9929785132408142, 0.9625163674354553], [3.796982765197754, -0.08886855840682983]]}, {"type": "bacteria", "x": 5134.6764712097665, "y": 6429.68167255408, "r": 9.0, "angle": -2.5421156016623234, "vx": -240.32130364161773, "vy": -164.22821846513756, "energy": 0.001, "age": 129.59999999999528, "brain_sizes": [24, 32, 16, 8, 2], "brain_version": 243, "brain_weights": [[[1.8831716775894165, 1.1787641048431396, -0.0018275696784257889, -1.5512197017669678, 1.362290382385254, 0.25586795806884766, -0.49895361065864563, 0.04876124858856201, 1.2586121559143066, -2.47855281829834, -0.31438878178596497, -0.14697328209877014, -0.32937484979629517, -1.0816657543182373, -0.5057100057601929, -0.8957682847976685, 0.0715973749756813, -0.2667829990386963, 2.157517194747925, -0.3722743093967438, -1.0407181978225708, 0.1383914351463318, 0.518306314945221, -0.8230666518211365], [-0.44306129217147827, 0.512810230255127, 0.027189023792743683, -0.9840155839920044, 0.7783900499343872, -0.9835532307624817, 1.1406762599945068, 0.37081217765808105, 0.3701711893081665, 0.6784744262695312, -2.0159225463867188, -0.6388930082321167, 0.503402054309845, 1.295403242111206, 0.686669647693634, -1.4378849267959595, -1.5789064168930054, 0.5865628123283386, 0.7111400365829468, 0.3794151842594147, 0.09072491526603699, -0.5652692317962646, -0.7632404565811157, -2.3761050701141357], [0.10151705145835876, 0.3164302110671997, 0.6353028416633606, -0.06590941548347473, 1.150354027748108, -1.4201738834381104, -1.865607738494873, -0.5125526785850525, -1.0275927782058716, 1.2270698547363281, -0.45602887868881226, -0.24699187278747559, -0.7362547516822815, -1.3345084190368652, 1.0113650560379028, -0.9496212005615234, -1.445390224456787, 0.16600295901298523, 0.23844540119171143, -0.05210006237030029, 0.8730954527854919, 0.24787844717502594, -0.45397883653640747, -0.15137140452861786], [-0.13807325065135956, -1.5874451398849487, 0.24080383777618408, 2.1225028038024902, 0.5132767558097839, -0.4846331477165222, 1.4143669605255127, 1.452242374420166, -1.1463265419006348, 0.6145371198654175, -0.4664291739463806, 1.602769374847412, -0.4642462134361267, 0.42494696378707886, 0.150848388671875, -0.014148300513625145, 1.3156533241271973, -0.5889209508895874, -0.25997525453567505, -0.15097473561763763, -0.05552905425429344, -0.6787277460098267, 0.09609632939100266, 0.1096649020910263], [-0.5772839188575745, 0.7215792536735535, -0.24871960282325745, 0.2493191510438919, -0.2893849313259125, -0.932182788848877, -0.07106554508209229, -0.022031016647815704, 1.6586287021636963, 1.7825069427490234, 0.4602842330932617, -1.1911176443099976, 0.7306990623474121, -0.9102079272270203, 0.30120134353637695, -0.44092607498168945, -0.39113396406173706, 0.998900294303894, -1.6368255615234375, -0.5795666575431824, 1.5699307918548584, 0.18305744230747223, -1.351807713508606, 0.583186149597168], [0.3560348451137543, -0.6247700452804565, 0.9187908172607422, -0.4510940611362457, -0.07602688670158386, -0.09670005738735199, 0.5270192623138428, 0.2824695110321045, -0.14402741193771362, -1.4129263162612915, 0.0902044028043747, -0.6038817167282104, 0.324602872133255, 0.667849063873291, -0.17945930361747742, -0.10418329387903214, 0.2926131784915924, -0.9757912158966064, -1.3290947675704956, 1.2271313667297363, -1.1981335878372192, 1.2371059656143188, -0.6554279923439026, -0.3495292067527771], [0.8253718018531799, -0.6815301775932312, -0.23457273840904236, -0.481172651052475, 0.6735775470733643, 0.6161850094795227, 1.0681270360946655, 0.7838154435157776, 0.22074450552463531, 0.5452756285667419, 1.6743496656417847, -0.12070965021848679, -0.07916952669620514, -0.3997076153755188, 0.13576579093933105, 0.25567469000816345, -0.6226824522018433, -1.2319618463516235, 0.5300804972648621, -0.8902136087417603, -0.6957622766494751, 1.2402985095977783, 0.8794289231300354, -0.340665727853775], [0.7704170346260071, -0.9595710039138794, -1.739158034324646, 1.1091753244400024, 0.7410760521888733, -1.3657103776931763, -1.181589961051941, -0.7992014288902283, -0.19625252485275269, 0.013025963678956032, 0.06029478460550308, 1.8333275318145752, 0.6493116021156311, 0.7967945337295532, 1.6117603778839111, -0.5200514793395996, 0.11164140701293945, 1.4587504863739014, -0.150636225938797, 0.4086188077926636, 1.7433096170425415, -1.249422311782837, -1.887249231338501, -1.0219435691833496], [0.851835310459137, -0.5741544365882874, -0.12823566794395447, -0.9563691020011902, 1.068471908569336, -1.1098742485046387, -0.44804346561431885, 1.0195013284683228, 0.00802130252122879, 0.4825476109981537, -1.6984140872955322, 1.0138047933578491, 0.4562731981277466, 0.8390926122665405, -0.2175203263759613, -0.4243340492248535, 0.8847739696502686, 1.05044686794281, -0.3520510196685791, -0.7748956084251404, -0.7499647736549377, 0.40030163526535034, 1.2073180675506592, 0.22211389243602753], [-0.3440477252006531, 1.227364182472229, 1.5340436697006226, 0.3932182490825653, -1.8833894729614258, 0.10953351855278015, 0.023931048810482025, -1.7842093706130981, 1.9694955348968506, 0.07456003129482269, -0.687560498714447, -1.3720247745513916, -1.1251893043518066, -0.0562194362282753, -0.2556881308555603, 1.47035551071167, 0.019434962421655655, 2.280832529067993, 0.17514562606811523, -3.856846332550049, -0.35149499773979187, -0.6571055054664612, 0.340299129486084, -0.714246928691864], [-0.008789867162704468, -1.542953372001648, -0.34538233280181885, 0.91045081615448, 0.9664741158485413, -0.3466089367866516, -0.08492409437894821, -0.5159574151039124, -1.481136441230774, 0.2985852360725403, 0.6186119914054871, 0.8417159914970398, -1.685343861579895, -0.4084034562110901, -0.25267544388771057, 2.714034080505371, -2.3564939498901367, 0.22381846606731415, 0.24903392791748047, -0.29982903599739075, -1.1854859590530396, -0.6523112654685974, 0.40287646651268005, 1.3729907274246216], [-0.4561846852302551, 1.1586101055145264, -2.4676268100738525, 0.7042610049247742, 0.25059542059898376, -1.7050011157989502, 0.4599343538284302, -1.4882581233978271, -1.0344243049621582, -0.4328347146511078, 0.9251130223274231, 0.23056575655937195, -0.2741018533706665, 0.3949529826641083, 1.0366613864898682, -1.4297899007797241, -0.2810072898864746, -0.892469048500061, 0.9038285613059998, 0.546109139919281, 0.9865159392356873, 0.42327991127967834, 0.7081676125526428, 0.9913755059242249], [1.3426433801651, 0.4437195658683777, 0.7206798195838928, 1.2764791250228882, 1.1775916814804077, -0.5952945351600647, 1.7510313987731934, 0.9570195078849792, 0.5231488943099976, -0.3365103304386139, -0.5142449736595154, 0.0756264179944992, 0.4508356750011444, 0.3370794355869293, -2.042659282684326, -2.116352081298828, 0.6811051964759827, 0.27069202065467834, -0.5124541521072388, 0.6495925784111023, 1.2863271236419678, -0.11234215646982193, -0.5211643576622009, -0.23594382405281067], [-0.27347418665885925, 1.4523192644119263, 1.6011146306991577, 0.044475048780441284, -0.26224952936172485, -0.4989110231399536, -0.03239094465970993, 0.6359301805496216, -0.0843685194849968, 0.04378887638449669, -1.7725892066955566, 0.5816122889518738, 0.2952759861946106, 0.2914617657661438, -0.05716293305158615, 0.3165222108364105, 0.016204139217734337, 1.3371124267578125, -0.20862144231796265, -0.9024379253387451, 0.4171007573604584, 0.3675061762332916, 0.9292774200439453, 1.241442322731018], [0.8832724690437317, -1.3692618608474731, -1.2043590545654297, 1.1225968599319458, -0.28170567750930786, -0.25466012954711914, 0.27563655376434326, 1.522404670715332, 0.40700089931488037, 2.0327322483062744, 0.128196120262146, -0.9590948820114136, -0.15086551010608673, 1.0361263751983643, 0.49056294560432434, 1.325316071510315, 0.49400797486305237, -0.6001186966896057, -0.6730711460113525, -0.9267009496688843, 0.17465171217918396, 0.7532063126564026, -0.15269586443901062, -0.4012306332588196], [-0.2618323266506195, 0.2721851170063019, 1.2806282043457031, 0.5104849934577942, -1.1114580631256104, 0.42725011706352234, 2.0049831867218018, -0.5551252961158752, -0.01506911963224411, 1.262475609779358, -1.1244962215423584, 0.6058632135391235, 1.2630590200424194, 0.36901965737342834, 1.858940839767456, 1.3664700984954834, 0.9647219181060791, -0.9195446372032166, -0.09266325831413269, 0.5795220732688904, -0.22864767909049988, -0.17924709618091583, 0.27463799715042114, 1.7436410188674927], [-0.06473973393440247, -0.7909265160560608, 1.2148536443710327, -0.41188645362854004, -1.3088675737380981, 0.3790045380592346, -1.3182464838027954, 0.2622027099132538, 0.5400300621986389, 0.14556685090065002, -0.6964181661605835, -0.23414145410060883, 1.1137155294418335, -0.9783534407615662, -0.5235629081726074, 0.23665687441825867, 1.3345584869384766, -1.1193673610687256, 0.12096258997917175, 0.47872814536094666, -1.2404335737228394, -1.0483514070510864, 1.7057421207427979, 2.1436660289764404], [0.8864412903785706, -0.6315727829933167, 0.06706053763628006, 0.5003120303153992, -0.7350594401359558, -1.4447108507156372, -0.6281981468200684, 0.1403070092201233, -0.5237817168235779, 1.5944985151290894, -0.3630099594593048, 0.49560895562171936, 2.269503116607666, -0.29772183299064636, 0.03699425980448723, 0.007131822407245636, 0.24498802423477173, 0.634941816329956, -1.0479646921157837, -0.8040347099304199, 0.418603777885437, 0.24995383620262146, -1.7186204195022583, -1.197194218635559], [-0.10675301402807236, 0.011783502995967865, -0.8456141948699951, -0.15139615535736084, -0.4166260063648224, -2.085458517074585, -0.11193883419036865, 0.10201355814933777, -1.208134412765503, -1.670698881149292, -1.3205450773239136, 1.4960919618606567, -0.03530767187476158, -0.7316601872444153, -0.5099014043807983, 0.011111512780189514, 0.9544087052345276, -0.29898375272750854, 1.161331295967102, -0.6730260848999023, 0.09513973444700241, 1.172739028930664, -1.1619691848754883, -1.500736951828003], [2.069676399230957, -0.15992768108844757, -1.3117749691009521, -0.2658788859844208, 1.0451023578643799, -0.12084801495075226, -0.5949892401695251, 0.5127884149551392, -0.2847614288330078, -0.6463582515716553, 1.3195735216140747, -0.6877158284187317, -1.6085870265960693, 0.11882923543453217, -1.9827086925506592, -0.16835802793502808, 0.32874029874801636, -0.400387704372406, -0.07924489676952362, -0.6551535129547119, -1.5274122953414917, 0.48795560002326965, -1.1844274997711182, 0.3048890233039856], [1.2479703426361084, 1.375015377998352, -0.0720221996307373, -0.0033793002367019653, -1.3224626779556274, 2.406585216522217, -0.14985914528369904, 1.3725796937942505, -0.2420293241739273, 0.63384610414505, 0.7274889945983887, -1.023517370223999, 0.02640080451965332, 0.25777268409729004, -1.3270211219787598, -0.30877453088760376, -0.2507978081703186, 0.7280082106590271, -0.005301952362060547, 0.06297300010919571, -0.22262708842754364, -0.06672252714633942, 0.6521956920623779, 1.9173657894134521], [-0.9941948056221008, 0.608282208442688, -0.3517701029777527, 1.8413994312286377, 0.4426567554473877, 1.6103140115737915, 1.6250903606414795, -0.6225142478942871, -0.7443554997444153, -0.2136748731136322, 0.6122490763664246, 1.1348156929016113, -0.7548118233680725, -0.5408784747123718, 0.04015755653381348, 0.3944614827632904, -0.5170803666114807, 1.1798012256622314, 0.2844301164150238, 0.8819243907928467, -0.4911239743232727, -0.7506991028785706, 0.11908895522356033, -1.044897437095642], [0.041324399411678314, 0.05479128658771515, -0.44809800386428833, -0.7930811047554016, -0.20202553272247314, 1.1919822692871094, 1.583530068397522, 0.0723821222782135, -0.845233142375946, -0.3994293212890625, 0.4582529664039612, 0.22573286294937134, 0.1256536841392517, -0.30378642678260803, 0.6430821418762207, 0.8660110831260681, 0.9013776779174805, 0.6057107448577881, 1.1950008869171143, 0.5578005909919739, 0.3701452612876892, 0.36892563104629517, 0.05704760551452637, 0.7609063386917114], [0.597199022769928, 1.1309006214141846, -0.4399053454399109, -0.7233062982559204, 0.6835397481918335, 0.8027159571647644, 1.737111210823059, 1.6092839241027832, -0.491754412651062, -1.2758015394210815, -0.36669835448265076, 0.49581634998321533, -1.9236176013946533, 0.2480432093143463, 0.31021344661712646, -0.540908694267273, -0.16271138191223145, -0.29558682441711426, -0.9124838709831238, 0.4911915063858032, -0.7152819633483887, 0.6668800711631775, -1.0165897607803345, 0.7263580560684204], [-1.1477142572402954, 0.2205515205860138, -1.0403987169265747, -1.0283854007720947, -1.3206876516342163, -0.09898430109024048, -0.16378530859947205, 0.47951239347457886, 0.07137390971183777, -0.4222143292427063, -0.21633799374103546, 0.5619330406188965, 1.3571820259094238, -1.0266709327697754, -1.0142662525177002, 0.7748834490776062, 0.00838744267821312, -0.21119125187397003, 0.7727439403533936, 0.49426960945129395, -1.0290265083312988, -0.20021981000900269, -1.006227731704712, 1.2825154066085815], [0.8743731379508972, 1.8951821327209473, 0.34004130959510803, -1.0007580518722534, -0.8126650452613831, -0.0020043961703777313, -0.683210551738739, 1.2116742134094238, -1.5196919441223145, -0.3097739517688751, 2.3327245712280273, -0.032061658799648285, 1.0554754734039307, -0.03191173076629639, -0.6303289532661438, -0.27861395478248596, 0.6389613747596741, 0.8751723766326904, -0.557140052318573, 0.0055686235427856445, -0.4494366943836212, 1.5736193656921387, -0.19147364795207977, -0.20551814138889313], [-0.7301678657531738, -1.782832384109497, -1.181150197982788, -0.03003755211830139, -0.6902968287467957, -1.2276469469070435, -1.4244619607925415, 0.6171725392341614, 0.7037056684494019, 0.09587185084819794, 1.8930011987686157, 0.27119314670562744, -0.360556423664093, 1.224263072013855, 0.2570340633392334, -0.24167530238628387, 0.3916957378387451, 1.6282399892807007, -0.341537207365036, 1.7672879695892334, -0.28138428926467896, -0.5010935068130493, 0.349517285823822, -0.6155321598052979], [-0.5315964818000793, 1.4170171022415161, 0.5388344526290894, 0.16393640637397766, 0.38638240098953247, 0.3447552025318146, -0.3940555453300476, -1.9448308944702148, -0.5578882694244385, -0.4506050944328308, 0.8614583015441895, 0.268010675907135, -0.06017942726612091, 0.3778053820133209, 0.7530663013458252, -0.6008056402206421, 1.7828994989395142, 0.4438987672328949, 1.0693172216415405, 0.33012843132019043, 0.5647759437561035, -0.5008348226547241, -0.12483196705579758, 1.780174970626831], [0.9319937825202942, 0.5601551532745361, -1.013340711593628, 1.0924813747406006, 0.25615477561950684, 1.4300981760025024, -0.5883426070213318, -1.1904875040054321, 0.5758218765258789, -0.3290790915489197, -1.9696335792541504, -0.07315915822982788, 0.5913687944412231, -0.18834516406059265, 0.7195622324943542, -0.0427120104432106, 0.39785245060920715, 0.6266844272613525, -0.5130089521408081, 0.06147846579551697, -0.7018849849700928, -1.419037938117981, -0.3363824486732483, 0.9714004397392273], [-0.5890527963638306, 0.06164569407701492, 0.16800986230373383, 0.06130147725343704, -1.8701648712158203, 0.32815492153167725, -1.0877798795700073, 1.3038631677627563, -0.09227117896080017, 0.3978235423564911, -1.644262433052063, -0.024687133729457855, 0.19877055287361145, -1.0900295972824097, 0.8666233420372009, 1.0315873622894287, -0.8444507122039795, 0.1573520451784134, -0.3370094895362854, 0.5454244613647461, -1.1286475658416748, 0.2086276113986969, -0.5516418814659119, 1.706860065460205], [-0.45888566970825195, 0.1592477560043335, 0.7726757526397705, -0.2189415991306305, -0.3251522481441498, -0.1259937733411789, -0.5607023239135742, -0.4561402499675751, -0.7834538817405701, -0.5884578824043274, -0.1905917227268219, -0.6901430487632751, -0.729454517364502, -0.6394685506820679, 0.15194326639175415, 0.2018084079027176, 0.5005462169647217, 1.0099213123321533, 0.6439909934997559, 0.05135289579629898, 0.662298858165741, 0.6446484327316284, -0.10298967361450195, -0.4272570013999939], [0.9851892590522766, -0.6836709976196289, 0.05149051547050476, -0.4934879541397095, -0.053944651037454605, -0.17725788056850433, 0.7448362708091736, -1.9506075382232666, -0.8542400002479553, -0.8409773707389832, -0.28841927647590637, 0.11003085970878601, 0.22846785187721252, -0.05209856480360031, 1.4449918270111084, -0.3797134459018707, -0.10121409595012665, 0.09464997798204422, 0.7925670146942139, -1.1067662239074707, -0.32517871260643005, -0.3846306800842285, -0.6696728467941284, -0.07917261123657227]], [[0.357444167137146, 0.2705559730529785, 0.658867597579956, -0.14631925523281097, -0.3212026357650757, -1.0205702781677246, 1.3183320760726929, 0.2546851933002472, -1.0805848836898804, -0.022182881832122803, 0.16691647469997406, -0.9450324177742004, -0.5045196413993835, 1.036167025566101, -0.20428875088691711, 0.31192320585250854, -2.193448066711426, 0.17960867285728455, 0.8096275329589844, -0.5705145001411438, 0.2510642111301422, 1.340194582939148, 0.22677184641361237, -0.5930641889572144, -0.13993115723133087, -0.4633384346961975, 1.3308050632476807, -0.9503498077392578, -0.06154709309339523, 1.349176287651062, 0.3253217339515686, -0.08726127445697784], [0.11794476956129074, 0.022432733327150345, 1.4760680198669434, 0.35279130935668945, -0.8528934717178345, -1.5622878074645996, 0.6053448915481567, 0.07200084626674652, -0.9181360006332397, -0.5032597184181213, -2.5063745975494385, -0.4571852684020996, 0.9198460578918457, 0.8510075807571411, 0.557849109172821, -0.4707328677177429, -2.2770981788635254, 1.084083080291748, -1.0141855478286743, -0.34220650792121887, -0.8704966902732849, -0.1585303395986557, 0.5780233144760132, -0.08004878461360931, 0.020266473293304443, -0.04621775448322296, -1.0440770387649536, 0.6005489826202393, -0.3578944504261017, -0.03833220899105072, -0.4558255970478058, 0.544887900352478], [0.1354110836982727, 0.04768769443035126, -0.46689271926879883, -2.016470193862915, 0.3034742474555969, 0.5651243925094604, 0.2249455451965332, 0.18638332188129425, 1.7718520164489746, 0.1900748908519745, -0.7264370322227478, 2.070187568664551, 1.0218569040298462, -0.3963819742202759, -0.3506595492362976, -0.9144725799560547, 0.7751335501670837, 1.1856802701950073, -0.2954271137714386, 0.5031474828720093, 1.351200819015503, 0.24168597161769867, 0.3173696994781494, -0.5351747274398804, 1.1793780326843262, -0.5362573266029358, 1.0643742084503174, -0.6734898090362549, 0.0964953750371933, -1.6733970642089844, 0.09043224900960922, -0.00746530294418335], [0.5705121159553528, 0.20567135512828827, 0.30666711926460266, 0.49443957209587097, 1.171962022781372, 0.47853049635887146, -1.861772894859314, -2.1848738193511963, -1.268815040588379, -1.2832711935043335, -0.9833981394767761, 0.18763232231140137, -1.4311314821243286, 1.0610675811767578, -1.001305341720581, 0.4530918598175049, 0.34827274084091187, -0.25387999415397644, 0.26080143451690674, 0.5464252829551697, -1.1966148614883423, 1.3694180250167847, 0.32623305916786194, -0.9617847204208374, 0.5877047181129456, 0.30591315031051636, 0.38991275429725647, 2.166362762451172, -0.49729758501052856, 0.7919724583625793, 1.966174840927124, 1.5517550706863403], [1.0488483905792236, -0.4391832947731018, -0.3297467827796936, -1.1568971872329712, -0.37859249114990234, 0.8726592063903809, 0.9982828497886658, 0.680579423904419, -0.18439434468746185, 0.7116557955741882, -1.0105884075164795, -0.27574723958969116, -1.9006065130233765, -0.2234051674604416, 0.10338477790355682, 0.8987478613853455, -1.4491676092147827, -0.8317580819129944, 1.5640506744384766, 0.801275908946991, -1.532281756401062, 0.15830768644809723, 0.6828200221061707, 0.07535361498594284, -0.7300870418548584, -0.3822413384914398, -0.2837487459182739, 0.5819922685623169, 1.2645257711410522, -2.078493118286133, 1.8398358821868896, 0.5677846670150757], [0.5195016860961914, 0.14018899202346802, 0.6785104274749756, -1.0332261323928833, -1.105418086051941, 0.06597656011581421, 0.23821786046028137, -1.6058419942855835, 1.4946818351745605, -0.8494628667831421, -1.0304384231567383, -0.1719498485326767, 0.9767651557922363, -0.25201353430747986, -0.8208273649215698, 0.917853593826294, 1.2407807111740112, 0.7421187162399292, -1.4058630466461182, 0.7924019694328308, -0.4369742274284363, -0.8288058042526245, -0.07883960008621216, -0.3277531862258911, -0.3115251064300537, 0.9726641178131104, 0.7939853668212891, -0.4789641499519348, -0.20063035190105438, -0.06528040766716003, 1.0773433446884155, 0.5795943737030029], [-0.41886967420578003, -0.1905740201473236, 0.5995165109634399, 0.13758330047130585, 0.552191436290741, -0.08276723325252533, -0.2622462213039398, 0.9143422245979309, -1.0181804895401, 0.18712657690048218, 0.5764227509498596, -1.138205885887146, -0.08023805916309357, -0.3081972002983093, -0.355127215385437, 0.947677731513977, -0.3186299800872803, 0.9583409428596497, 0.5734893679618835, -0.7639517784118652, -0.8947616815567017, 1.209099531173706, 1.128772497177124, 0.3286413550376892, 1.3210631608963013, -0.7225197553634644, -0.2685602605342865, -1.3512414693832397, 0.2479235827922821, -0.3647940158843994, -0.20422212779521942, 0.8601818084716797], [2.146143913269043, -0.7659696936607361, 1.875793695449829, -0.07188551872968674, -0.4765409231185913, 0.06467743217945099, 0.28791242837905884, -0.9459887146949768, -0.490073561668396, 0.5736123323440552, -0.6288506984710693, 0.47700491547584534, -0.9719666838645935, 0.20012611150741577, -0.6919965744018555, 0.07854090631008148, -0.4111126661300659, 0.5841262936592102, 0.20851463079452515, -0.09655226767063141, 1.0667494535446167, 0.006527140736579895, -0.45752546191215515, 1.5045490264892578, -1.017783284187317, 1.3118524551391602, -2.0631103515625, 1.0511842966079712, -0.628375232219696, -0.7389740943908691, -2.224123239517212, -1.2178082466125488], [-0.03829362988471985, -0.23446500301361084, 0.28361934423446655, 1.5420384407043457, -0.09794558584690094, -0.4808955192565918, 0.9617884159088135, -0.872174859046936, 3.207782745361328, 1.327378511428833, -1.6366122961044312, 0.028165876865386963, -0.08565177023410797, -0.6149194240570068, -1.6307144165039062, 0.2919688820838928, -0.6243358254432678, 1.3011537790298462, -1.3104522228240967, 1.377531886100769, -1.1593602895736694, 0.7159432768821716, 0.3951479494571686, -0.5676182508468628, -0.1921556442975998, -0.2520519495010376, -0.06519411504268646, -0.5392583608627319, -0.710867702960968, 0.5115485191345215, 0.5039652585983276, 0.8539386987686157], [-0.6227973103523254, 0.45531922578811646, -0.0028131380677223206, 0.2791558504104614, 1.2485836744308472, -0.12342502921819687, -0.5477487444877625, 0.28552526235580444, -1.0271751880645752, 0.6750503778457642, -0.43988117575645447, -0.7025307416915894, 0.02657465636730194, 0.08281555771827698, 0.9788320064544678, -0.07612454891204834, -0.1708553284406662, -0.48175138235092163, -1.3299533128738403, 0.9269241094589233, 1.0237592458724976, 1.4940745830535889, -0.9614987373352051, -1.3491772413253784, -0.49114614725112915, 0.1268746703863144, 0.07342563569545746, -0.5164234042167664, -0.28781139850616455, -0.5642409920692444, 0.36877110600471497, -0.2938605546951294], [-0.04404818266630173, 0.5165891051292419, -0.23869085311889648, 1.674131155014038, -0.168354794383049, 1.1112265586853027, 0.7780417203903198, 0.03457968682050705, 0.3228251039981842, -1.0597375631332397, 0.6533966064453125, 0.746727705001831, -0.3664887249469757, 1.1615087985992432, 1.2702974081039429, 0.027906354516744614, 1.625476360321045, 0.9842045307159424, -0.07955248653888702, -0.8397846817970276, -0.5287562608718872, 0.20328517258167267, -1.4060890674591064, -0.5171237587928772, -1.5076295137405396, -1.8669953346252441, 0.16675543785095215, 0.6768878698348999, 0.5896520018577576, 1.9182980060577393, -1.25629460811615, -0.6479812264442444], [-1.7331364154815674, -1.0555357933044434, 1.2397658824920654, -0.26129600405693054, 0.17365531623363495, 0.04461020976305008, -0.5092212557792664, -1.630683422088623, -0.23149830102920532, -0.17424415051937103, -0.956627368927002, -0.008229784667491913, 0.938011109828949, 1.0944479703903198, -0.22835153341293335, 0.5492046475410461, -1.872363567352295, -0.09502293914556503, -0.1617746651172638, 0.0061822980642318726, 0.1066223680973053, 0.09363821893930435, 0.9329283833503723, 0.583611011505127, -0.16079899668693542, -0.32375842332839966, -0.9907694458961487, -0.7464591860771179, 0.09112164378166199, -0.1302495002746582, -0.44439950585365295, 0.8207535147666931], [1.3184062242507935, 1.838843822479248, -0.35756465792655945, 0.9747887253761292, 1.101392149925232, 0.09286151826381683, -0.056379687041044235, 0.5521635413169861, -0.5735169053077698, -1.108248233795166, -1.152463436126709, 0.29826822876930237, 0.33470189571380615, -1.0365872383117676, 0.8796222805976868, -0.3721294403076172, 0.11145768314599991, -0.532927930355072, 1.3281222581863403, -0.16392755508422852, -0.08445121347904205, -0.6857849359512329, -0.5287593007087708, -0.9323592185974121, 1.0163986682891846, -0.26235711574554443, -0.536024808883667, 1.204241394996643, 1.182076334953308, 0.12474934011697769, -0.8703222274780273, 0.10831469297409058], [-0.8242797255516052, -0.46115565299987793, -0.4996797740459442, -0.7313594818115234, -0.40226754546165466, -0.0015829503536224365, 1.4873510599136353, -1.3586350679397583, -0.40530192852020264, 0.5919345021247864, 1.3120876550674438, 0.01413215696811676, -0.8810487985610962, 1.0116853713989258, 2.1032795906066895, -3.0539865493774414, -0.2809222936630249, 0.2743569016456604, 0.05259545147418976, -1.2823843955993652, -0.6674215793609619, 0.01647701859474182, -0.512190580368042, 0.6041069030761719, 0.5992789268493652, -1.1795635223388672, 0.47493353486061096, -0.6099251508712769, -0.37879467010498047, -0.05230075865983963, -0.30386102199554443, 1.1967148780822754], [-0.2562393546104431, -0.2260054051876068, 0.6823086142539978, 0.24203500151634216, -0.9553540349006653, -1.1667563915252686, 0.40170472860336304, -1.4429277181625366, 0.3513527512550354, -0.4095916152000427, -0.9412350058555603, -0.5427298545837402, -1.1200617551803589, 2.3370532989501953, -1.2686693668365479, -0.8178529143333435, 1.189251184463501, -0.594566285610199, 0.7229944467544556, 0.37555864453315735, -1.2695232629776, -1.7344881296157837, 0.4111112952232361, -2.189225673675537, 0.32146358489990234, 0.552245557308197, 0.24861176311969757, -0.05212865769863129, 0.569852352142334, 0.42169106006622314, 0.4998069107532501, 0.14830245077610016], [-1.3565855026245117, -0.3491606116294861, 1.285899043083191, 0.43832308053970337, -1.0363880395889282, 0.7464088797569275, -1.1159262657165527, -1.1148018836975098, -0.5570261478424072, 1.7808220386505127, -1.5507293939590454, -0.4105645716190338, 0.15997150540351868, 0.7773586511611938, 0.7314915060997009, 0.09536494314670563, -0.02129729837179184, -0.2885398268699646, 0.4957480728626251, -0.5437100529670715, -1.3467974662780762, -0.7710044980049133, 1.0922459363937378, 0.28867441415786743, 0.7581319808959961, -0.46908190846443176, -1.162939190864563, -0.028654642403125763, 0.839680016040802, 0.8170521855354309, 0.26845425367355347, -1.1814982891082764]], [[0.02910013124346733, -1.1926383972167969, -0.8384685516357422, 0.6699119210243225, -0.672193169593811, 0.4467729926109314, -0.33681637048721313, -0.4160752594470978, -0.15544849634170532, 0.20982500910758972, 0.7995402216911316, -0.018314609304070473, -0.2142878621816635, 1.4267573356628418, 2.1716065406799316, -1.1424764394760132], [-1.0551140308380127, 1.4775782823562622, -0.06015049293637276, -0.5520263910293579, 1.3875482082366943, 0.07102937996387482, 0.032483380287885666, 0.18135549128055573, 1.3288331031799316, -1.166478157043457, 0.07498665153980255, -0.43658533692359924, 0.64335036277771, -0.6590964198112488, 1.0732381343841553, -0.7757318615913391], [1.2449499368667603, 0.8065850734710693, -0.6121023297309875, -0.7235968112945557, 0.9650357365608215, -1.5238525867462158, -0.31352436542510986, -0.4676664471626282, 0.2508184313774109, 0.2832799255847931, -0.438809335231781, 0.9712241291999817, 0.5651366710662842, 0.6442804336547852, 0.32035356760025024, -1.1560039520263672], [-0.7480897903442383, 1.4683433771133423, 0.809001088142395, -1.8577830791473389, 0.5038974285125732, 0.8215360641479492, 0.6319851875305176, 1.2146503925323486, -1.5195142030715942, -0.32507988810539246, 1.8427231311798096, 0.14318373799324036, 0.271545946598053, -0.40101131796836853, 1.6056110858917236, 2.056647300720215], [-0.2188868522644043, 0.2308347523212433, -0.305156946182251, -0.8846724033355713, -1.5041396617889404, 0.8195133805274963, -0.2551465332508087, 0.1960955560207367, -0.6041617393493652, -0.3527929484844208, 0.3240204453468323, 0.01869095489382744, 0.18238073587417603, 0.468254029750824, -1.3346529006958008, -0.5209696888923645], [-0.23803068697452545, -1.7016209363937378, 2.3817806243896484, 1.7397085428237915, -1.7729742527008057, -0.45918354392051697, -0.6454322338104248, -0.3097238540649414, -0.3564336597919464, -0.7891821265220642, 0.08807732909917831, 0.8731739521026611, 1.0011497735977173, -0.4828326106071472, -0.41741329431533813, -0.7290711998939514], [-0.39886924624443054, 2.1147687435150146, -1.8984616994857788, -0.264855295419693, -3.069239854812622, -0.8787263631820679, -1.7975244522094727, 