{"version": 1, "timestamp": "20250831_005123", "params": {"time_scale": 5.0, "fps": 60.0, "paused": true, "use_spatial": true, "substrate_shape": "rectangular", "world_w": 10000.0, "world_h": 10000.0, "substrate_radius": 400.0, "max_deaths_per_step": 5, "retina_skip": 2, "simple_render": false, "reuse_spatial_grid": true, "food_target": 130, "food_min_r": 8.0, "food_max_r": 10.0, "food_replenish_interval": 0.1, "bacteria_count": 0, "bacteria_min_r": 6.0, "bacteria_max_r": 12.0, "bacteria_min_limit": 1, "bacteria_max_limit": 200, "bacteria_initial_energy": 100.0, "bacteria_energy_loss_idle": 2.0, "bacteria_energy_loss_move": 5.0, "bacteria_death_energy": 0.0, "bacteria_split_energy": 150.0, "bacteria_body_size": 9.0, "bacteria_max_speed": 300.0, "bacteria_max_turn": 3.141592653589793, "bacteria_vision_radius": 300.0, "bacteria_vision_mode": "frontal", "bacteria_retina_count": 24, "bacteria_retina_fov_degrees": 180.0, "bacteria_show_vision": false, "bacteria_retina_see_food": true, "bacteria_retina_see_bacteria": false, "bacteria_retina_see_predators": false, "bacteria_hidden_layers": 3, "bacteria_neurons_layer_1": 32, "bacteria_neurons_layer_2": 16, "bacteria_neurons_layer_3": 8, "bacteria_neurons_layer_4": 20, "bacteria_neurons_layer_5": 0, "bacteria_mutation_rate": 0.1, "bacteria_mutation_strength": 0.1, "bacteria_structural_jitter": 0, "predators_enabled": true, "predator_count": 0, "predator_min_r": 10.0, "predator_max_r": 18.0, "predator_min_limit": 1, "predator_max_limit": 100, "predator_initial_energy": 100.0, "predator_energy_loss_idle": 3.0, "predator_energy_loss_move": 10.0, "predator_death_energy": 0.0, "predator_split_energy": 250.0, "predator_body_size": 14.0, "predator_max_speed": 400.0, "predator_max_turn": 3.141592653589793, "predator_vision_radius": 400.0, "predator_vision_mode": "frontal", "predator_retina_count": 18, "predator_retina_fov_degrees": 120.0, "predator_show_vision": false, "predator_retina_see_food": false, "predator_retina_see_bacteria": true, "predator_retina_see_predators": false, "predator_hidden_layers": 3, "predator_neurons_layer_1": 32, "predator_neurons_layer_2": 16, "predator_neurons_layer_3": 8, "predator_neurons_layer_4": 0, "predator_neurons_layer_5": 0, "predator_mutation_rate": 0.1, "predator_mutation_strength": 0.1, "predator_structural_jitter": 0, "agents_inertia": 1.0, "show_selected_details": true, "auto_export_substrate": true, "disable_brain_activations": false, "auto_export_interval_minutes": 5.0}, "ui_params": {"time_scale": 5.0, "fps": 60, "paused": true, "use_spatial": true, "retina_skip": 2, "simple_render": false, "reuse_spatial_grid": true, "agents_inertia": 1.0, "show_selected_details": true, "enable_brain_activations": true, "auto_export_substrate": true, "auto_export_interval_minutes": 5.0, "food_target": 130, "food_min_r": 8.0, "food_max_r": 10.0, "food_replenish_interval": 0.1, "world_w": 10000.0, "world_h": 10000.0, "substrate_shape": "rectangular", "substrate_radius": 400.0, "bacteria_count": 0, "bacteria_min_limit": 1, "bacteria_max_limit": 200, "bacteria_energy_loss_idle": 2.0, "bacteria_energy_loss_move": 5.0, "bacteria_initial_energy": 100.0, "bacteria_death_energy": 0.0, "bacteria_split_energy": 150.0, "bacteria_body_size": 9.0, "bacteria_vision_radius": 300.0, "bacteria_retina_count": 24, "bacteria_retina_fov_degrees": 180.0, "bacteria_max_speed": 300.0, "bacteria_max_turn_deg": 180.0, "bacteria_hidden_layers": 3, "bacteria_neurons_layer_1": 32, "bacteria_neurons_layer_2": 16, "bacteria_neurons_layer_3": 8, "bacteria_neurons_layer_4": 20, "bacteria_neurons_layer_5": 0, "bacteria_mutation_rate": 0.1, "bacteria_mutation_strength": 0.1, "bacteria_show_vision": false, "bacteria_retina_see_food": true, "bacteria_retina_see_bacteria": false, "bacteria_retina_see_predators": false, "predators_enabled": true, "predator_count": 0, "predator_min_limit": 1, "predator_max_limit": 100, "predator_energy_loss_idle": 3.0, "predator_energy_loss_move": 10.0, "predator_initial_energy": 100.0, "predator_death_energy": 0.0, "predator_split_energy": 250.0, "predator_body_size": 14.0, "predator_vision_radius": 400.0, "predator_retina_count": 18, "predator_retina_fov_degrees": 120.0, "predator_max_speed": 400.0, "predator_max_turn_deg": 180.0, "predator_hidden_layers": 3, "predator_neurons_layer_1": 32, "predator_neurons_layer_2": 16, "predator_neurons_layer_3": 8, "predator_neurons_layer_4": 0, "predator_neurons_layer_5": 0, "predator_mutation_rate": 0.1, "predator_mutation_strength": 0.1, "predator_retina_see_food": false, "predator_retina_see_bacteria": true, "predator_retina_see_predators": false, "predator_show_vision": false, "test_param_1": 1, "test_param_2": 2, "test_param_3": 3.0, "test_param_4": 4, "test_param_5": 5, "test_param_6": 6.0, "test_param_7": 7, "test_param_8": 8, "test_param_9": 9.0, "test_param_10": 10, "test_param_11": 11, "test_param_12": 12.0, "test_param_13": 13, "test_param_14": 14, "test_param_15": 15.0, "test_param_16": 16, "test_param_17": 17, "test_param_18": 18.0, "test_param_19": 19, "test_param_20": 20, "test_param_21": 21.0, "test_param_22": 22, "test_param_23": 23, "test_param_24": 24.0, "test_param_25": 25, "test_param_26": 26, "test_param_27": 27.0, "test_param_28": 28, "test_param_29": 29, "test_param_30": 30.0}, "world": {"width": 10000.0, "height": 10000.0, "shape": "rectangular", "radius": 400.0}, "camera": {"x": -3701.247721547341, "y": -4268.233697213325, "zoom": 0.09229599817706655}, "simulation": {"total_simulation_time": 2519.5090000000237}, "food": {"count": 130, "target": 130}, "agents": [{"type": "bacteria", "x": 9973.673278115035, "y": 4815.987825210652, "r": 9.0, "angle": 1.6861912196145243, "vx": -33.573472629424984, "vy": 289.6516311020044, "energy": 1.6504577469181372, "age": 27.133333333333074, "brain_sizes": [24, 32, 16, 8, 2], "brain_version": 21, "brain_weights": [[[1.0743829011917114, 0.6423628330230713, 0.12042868882417679, -1.3347727060317993, 1.4123573303222656, 0.6105414032936096, -0.7102736830711365, 0.21584556996822357, 1.1606011390686035, -1.7619742155075073, -0.5010268688201904, -0.15681092441082, -0.6060704588890076, -0.3800565004348755, -0.5082378387451172, -1.4253064393997192, 0.007136303931474686, -0.9969581365585327, 1.6099767684936523, -0.7658793330192566, -1.2920559644699097, 0.34615474939346313, 0.7698637843132019, -0.6308397054672241], [-0.041582170873880386, 0.5002002120018005, -0.025421231985092163, -0.7610092163085938, 0.6807833909988403, -1.0459041595458984, 0.6223589181900024, -0.791228711605072, 0.28730541467666626, 0.29611602425575256, -2.172417640686035, -0.4083026647567749, -0.4896993339061737, 1.2137963771820068, 0.41334405541419983, -1.0228594541549683, -1.912155032157898, 1.2933429479599, 0.06687640398740768, 0.034553900361061096, 0.3090794086456299, -0.9636892080307007, -0.30588993430137634, -0.7552279233932495], [-0.27090123295783997, 0.3208920955657959, -0.06347353756427765, -0.5902693867683411, 1.3315340280532837, -1.3373973369598389, -2.251854181289673, -0.6635079383850098, -1.0129203796386719, 1.396536946296692, -0.4835261106491089, -0.8629269599914551, -0.11297646164894104, -0.7679210901260376, 1.5610100030899048, -0.2310156524181366, -0.9421753287315369, -0.39673900604248047, 0.6374513506889343, -0.04357357323169708, 0.6380653381347656, 0.42169517278671265, -0.1595437228679657, -0.3357568085193634], [0.49964651465415955, -0.8788813352584839, 0.17756818234920502, 1.6130342483520508, 0.2149866223335266, -0.1374836266040802, 1.8091145753860474, 0.6259456872940063, -0.5267826318740845, 0.48421552777290344, -0.09382620453834534, 1.010898232460022, -0.11946357786655426, -0.4515002965927124, 0.9486912488937378, 0.4082036316394806, 1.0699307918548584, -0.44910120964050293, 0.09939880669116974, -0.5925097465515137, -0.5475799441337585, -0.695355236530304, -0.18129301071166992, 0.26003125309944153], [-0.5204710364341736, 0.5466806888580322, 0.4703328013420105, -0.20920851826667786, -0.12945164740085602, -1.5440300703048706, -0.02869991585612297, 0.1417764276266098, 1.160941481590271, 1.422539472579956, 0.42438921332359314, -0.5579189658164978, 0.32311391830444336, -1.0502943992614746, 0.1783520132303238, 0.07635286450386047, -0.5255498886108398, 1.2041234970092773, -1.1912963390350342, -0.3231040835380554, 1.256632685661316, -0.7036758065223694, -0.7336899042129517, -0.4461204409599304], [0.608281672000885, -0.8293493986129761, 0.45605579018592834, 0.08043850213289261, 0.6663206219673157, -0.26808005571365356, -0.004112999886274338, -0.1897144317626953, 0.2727926969528198, -1.6422001123428345, 0.08199397474527359, -0.11223070323467255, -0.49454760551452637, 1.1162046194076538, -0.04657392576336861, -0.45637771487236023, 0.053348831832408905, -0.7793854475021362, -1.019710898399353, 0.43765559792518616, -0.5791199207305908, 1.1547822952270508, 0.27971115708351135, -0.8535470366477966], [0.10844796150922775, -0.5785130858421326, -0.4359476566314697, -0.24125565588474274, 0.07715453952550888, 0.1054132729768753, 0.26039302349090576, 0.5157602429389954, -0.17951707541942596, 0.48232242465019226, 2.0021700859069824, 0.22981896996498108, 0.10907872021198273, -0.6918203234672546, 0.7936952710151672, 0.6028265953063965, 0.29820549488067627, -1.376258373260498, 0.4442209005355835, -0.5903953313827515, -0.20112472772598267, 0.7917389869689941, 0.3566119074821472, -0.7010920643806458], [-0.1260972023010254, -0.2702080011367798, -1.4352537393569946, 1.4514834880828857, 0.8354853987693787, -1.101452350616455, -0.7844610214233398, -0.2549612522125244, -0.5379222631454468, -0.058129534125328064, -0.4374352693557739, 1.6313196420669556, -0.18834584951400757, 0.5695549845695496, 1.097412347793579, -0.15718938410282135, 0.4031103253364563, 0.6264899969100952, -0.023659855127334595, -0.48834800720214844, 1.2588328123092651, -1.2846707105636597, -0.8937367796897888, -0.8770636320114136], [1.1341757774353027, -0.057355500757694244, 0.697384238243103, -0.8737327456474304, 0.7755095958709717, -0.8694595694541931, -0.5541074275970459, 0.8443006873130798, -0.7162255048751831, -0.00893104076385498, -1.214574933052063, 0.13614976406097412, 0.1425388604402542, 0.9145394563674927, -0.8248603343963623, -0.18272840976715088, 0.6510246992111206, 0.9584617614746094, -0.5332384705543518, -0.4777652621269226, -0.24477432668209076, 0.6938692927360535, 1.2734534740447998, -0.49658921360969543], [-0.19214338064193726, 1.4216376543045044, 0.6598864197731018, 0.5803859233856201, -1.490917682647705, 0.2825084924697876, -0.10945335030555725, -1.8775404691696167, 1.480799674987793, -0.1566041111946106, -0.7542473077774048, -1.5867644548416138, -0.6861022114753723, 0.31533536314964294, -0.5887148976325989, 1.4361324310302734, 0.12864671647548676, 1.0867602825164795, 0.07547816634178162, -2.714059591293335, -0.4729958772659302, -0.2723575830459595, -0.06754636019468307, -0.3816817104816437], [0.0881008431315422, -1.6772586107254028, -0.6233742833137512, 0.7716265916824341, 0.5334012508392334, -0.32114702463150024, -0.010033704340457916, -0.42757704854011536, -0.8141589760780334, -0.16574013233184814, 0.35657376050949097, 0.24422042071819305, -1.0024785995483398, -0.6289845705032349, -0.4364645481109619, 1.753987193107605, -1.7785707712173462, 0.008209636434912682, -0.026689138263463974, -0.19538074731826782, -0.3779471516609192, 0.41091203689575195, 0.15663069486618042, 1.5014451742172241], [0.14366471767425537, 0.40371012687683105, -1.4424922466278076, 0.3970835506916046, 0.4213997423648834, -0.6795886754989624, 1.4443119764328003, -1.5315204858779907, -0.1746421456336975, -0.4156389534473419, 0.8738502264022827, 0.1612107902765274, -0.41837772727012634, 0.7826583385467529, 0.31999266147613525, -0.7997604608535767, -0.20893602073192596, -0.408762127161026, 1.3272831439971924, 0.08131413161754608, 0.7088925242424011, -0.39684227108955383, -0.31465616822242737, -0.19279582798480988], [1.5263522863388062, 0.29946979880332947, 0.4724351465702057, 1.1525547504425049, 1.21992027759552, -0.11969100683927536, 1.4211480617523193, 0.7882055044174194, 0.4622829854488373, -0.10500773787498474, -0.5683295130729675, 0.24559104442596436, 0.04485781490802765, 0.22060659527778625, -1.010140061378479, -0.853054940700531, 0.7145873308181763, 0.042770132422447205, -0.11016519367694855, 0.5747273564338684, 0.6945134997367859, -0.24096108973026276, -0.6884109973907471, -0.4165959358215332], [-0.2867726683616638, 0.9305950999259949, 0.9890189170837402, 0.8741913437843323, -0.4982052445411682, -0.19315461814403534, 0.34693220257759094, -0.031842976808547974, -0.37857121229171753, 0.47275346517562866, -1.264298677444458, 0.5222072005271912, 0.3108096420764923, -0.240860253572464, 0.1595287024974823, -0.09454847872257233, -0.2507760524749756, 0.8257476687431335, 0.03666412830352783, -0.8059422969818115, 0.551573634147644, 0.22426946461200714, 0.4970642626285553, 1.1357007026672363], [0.7660650014877319, -0.4092802405357361, -1.0846351385116577, 0.3422280550003052, -0.34549498558044434, -0.5365114808082581, 0.9441149830818176, 0.7004517912864685, 0.783159077167511, 1.0318900346755981, 0.6220320463180542, 0.0659015029668808, 0.027160778641700745, 0.7082040905952454, 0.9497254490852356, 1.0676045417785645, -0.25905758142471313, -0.12817546725273132, -0.4109705984592438, -0.7720299959182739, 0.3592950105667114, 0.29986661672592163, 0.21971698105335236, -0.32482415437698364], [0.4297478497028351, 0.30529356002807617, 0.8621838688850403, -0.09429338574409485, -0.6605309844017029, 0.1088283583521843, 1.9569816589355469, -0.5035059452056885, -0.24186751246452332, 1.2880784273147583, -0.687900722026825, 0.8272311687469482, 0.9386409521102905, 0.34798282384872437, 1.830086588859558, 1.2111399173736572, 1.0073115825653076, -0.4604644477367401, -0.6071906089782715, 0.6052523255348206, -0.8482390642166138, -0.4914000630378723, -0.7126182913780212, 1.2088096141815186], [-0.3902970254421234, -0.6910933256149292, 1.4621233940124512, 0.34951305389404297, -1.334642767906189, -0.4933423399925232, -0.5380807518959045, 0.3740227222442627, -0.5790860056877136, -0.48857492208480835, -0.33968377113342285, -0.18203452229499817, 0.5882410407066345, 0.11827345192432404, -0.5105891227722168, -0.30592668056488037, 0.9441012740135193, -0.9633780717849731, -0.6376605033874512, 0.17647308111190796, -0.8686216473579407, -0.48069244623184204, 1.0944223403930664, 1.1323471069335938], [0.4894070625305176, 0.32578733563423157, 0.07564420253038406, 0.8787119388580322, -0.0006732568144798279, -1.557816982269287, -0.30291420221328735, 0.38142213225364685, -0.34602057933807373, 0.7139393091201782, -0.5776702761650085, 0.11912801861763, 1.927093505859375, -0.14593461155891418, -0.034576743841171265, 0.36036694049835205, 0.16662254929542542, 0.8626008629798889, -0.5366976857185364, -1.5133904218673706, 0.4279080331325531, -0.19199343025684357, -1.281723976135254, -1.1820138692855835], [0.07969262450933456, -0.14397478103637695, -0.39631444215774536, 0.19017158448696136, 0.4173116981983185, -1.4281388521194458, -0.5578634738922119, 0.693616509437561, -1.1649905443191528, -1.3029710054397583, -1.0378614664077759, 0.7105180025100708, -0.667450487613678, -0.027227036654949188, -1.2320810556411743, -0.06994301080703735, 0.7302857637405396, -0.29485023021698, 0.1198320984840393, -0.856641948223114, -0.03294438123703003, 0.2535412907600403, -1.10128653049469, -1.384569764137268], [1.551798939704895, 0.527184247970581, -1.2660146951675415, -0.04864807426929474, 0.9329017996788025, 0.05959167331457138, 0.2288147658109665, -0.04687397554516792, 0.35445860028266907, -0.19649139046669006, 0.736843466758728, -0.40846025943756104, -1.0528825521469116, 0.3928835690021515, -1.385237693786621, -0.6929305791854858, 0.46243390440940857, -0.3798246383666992, 0.10958342999219894, -0.40552812814712524, -0.5361075401306152, 0.10750515758991241, -1.2006748914718628, 0.11948654055595398], [0.9400603771209717, 0.8736470937728882, -0.19621314108371735, 0.39713895320892334, -1.0214207172393799, 1.6334774494171143, 0.6374530792236328, 1.5501686334609985, -0.6174407601356506, 0.23296789824962616, -0.2455304116010666, -0.9700525999069214, -0.37666672468185425, -0.07348840683698654, -1.23270845413208, 0.06829233467578888, -0.1790352612733841, 0.3137253522872925, -0.6476402878761292, -0.12458350509405136, -0.5184885263442993, -0.00861949473619461, 0.5473387837409973, 1.2251107692718506], [-0.33431297540664673, 0.8280346393585205, -0.6516461372375488, 1.4792581796646118, 0.290225625038147, 0.6379444599151611, 2.0173659324645996, -0.26142990589141846, -0.30732131004333496, -0.14760452508926392, 0.06800712645053864, 1.0727612972259521, -0.4495640993118286, -0.5388216376304626, -0.17971356213092804, 0.5827882885932922, -0.7497037649154663, 0.34664255380630493, 0.6203052997589111, 0.9468315243721008, -0.10808824002742767, -0.15396758913993835, -0.6607447266578674, -0.9753466248512268], [0.21256054937839508, 0.29505449533462524, -0.1176723837852478, -0.1492220163345337, -0.3845539093017578, 0.5821734666824341, 0.20918592810630798, -0.27195632457733154, -0.8428955674171448, -0.5456188917160034, 1.1727373600006104, -0.2132505178451538, -0.2635692358016968, -0.38435038924217224, 0.9199502468109131, 1.5463001728057861, 0.4993005394935608, 0.48422184586524963, 0.710222065448761, 0.9561291933059692, 0.004893407225608826, 0.31956014037132263, 0.14395667612552643, 1.0601692199707031], [-0.4131293296813965, 1.5475879907608032, -0.22754105925559998, -0.5890047550201416, 0.7028027772903442, 0.7061386108398438, 1.3422372341156006, 1.022865891456604, -0.3818216919898987, -0.6302366256713867, -0.3109903931617737, 0.41845446825027466, -1.5781688690185547, -0.10333558917045593, -0.2513892948627472, -0.45999062061309814, -0.5174347162246704, -0.39922046661376953, -0.8722939491271973, 0.23858922719955444, -1.1263023614883423, 0.8464078903198242, -1.3099160194396973, 0.6373816132545471], [-0.9594852924346924, 0.16732683777809143, -0.8234890699386597, -0.5690842270851135, -1.0592474937438965, -0.831114649772644, -0.10079669207334518, 0.724379301071167, 0.11020245403051376, -0.4722157418727875, 0.17241597175598145, 0.17150992155075073, 1.1296700239181519, -0.3951430916786194, -0.17537936568260193, 0.4465705156326294, -0.027432501316070557, -0.7432870864868164, 0.3668908476829529, 0.5443301200866699, -1.2656687498092651, 0.30373257398605347, -0.8045436143875122, 1.1629841327667236], [0.9998241066932678, 1.707824945449829, 0.07786571234464645, -1.1706714630126953, -0.24989838898181915, 0.19323575496673584, -0.8835538029670715, 1.5797948837280273, -1.263883352279663, -0.3023891746997833, 1.1058869361877441, 0.4617924988269806, 0.8996294736862183, 0.6115073561668396, -0.8834794759750366, -0.04886212944984436, 0.6065913438796997, 0.39188021421432495, -0.3690108060836792, 0.6296159029006958, -0.6891962885856628, 1.6066690683364868, -1.0100746154785156, -0.30204808712005615], [-0.6856222748756409, -1.6562906503677368, -0.5566808581352234, -1.0487079620361328, -1.243345856666565, -0.965949296951294, -1.179826021194458, 1.078987717628479, 1.122762680053711, -0.37321990728378296, 1.4191443920135498, 0.6075352430343628, -0.2960973381996155, 0.7120122313499451, -0.07538771629333496, 0.03740133345127106, 0.5650614500045776, 1.2398111820220947, -0.21464157104492188, 0.9019209146499634, -0.38101422786712646, -0.4435521066188812, -0.04350113868713379, -1.0357770919799805], [-0.44734665751457214, 0.9552754759788513, -0.23620754480361938, -0.13662263751029968, 0.14604279398918152, 0.23892842233181, -0.2613332271575928, -1.781696081161499, -0.29106777906417847, -0.14462772011756897, 0.01868227869272232, 0.12921904027462006, -0.20477324724197388, -0.19758814573287964, 0.8663490414619446, -0.7391144037246704, 1.0404837131500244, 0.6275492310523987, 0.14815910160541534, 0.1320895254611969, 0.31742727756500244, -0.2869642376899719, 0.5684587359428406, 1.063073992729187], [0.7746246457099915, -0.14374181628227234, -0.23623788356781006, 0.41575199365615845, -0.7466264963150024, 1.4025743007659912, -0.4582417607307434, -0.9962071776390076, 0.304129421710968, 0.0375232994556427, -1.129697561264038, 0.3292419910430908, 0.45929697155952454, -0.4243982434272766, 0.20567253232002258, 0.4709154963493347, -0.258413165807724, 0.006444022059440613, -0.6963716149330139, -0.8697164058685303, -0.45750823616981506, -1.5214301347732544, -0.3257750868797302, 1.2602038383483887], [0.15650786459445953, 0.21326929330825806, 0.34025853872299194, 0.06200195476412773, -1.743496298789978, 0.6464020013809204, -0.6622253656387329, 1.3470431566238403, -0.6712390780448914, 1.236069917678833, -1.5401487350463867, 0.18970808386802673, 0.4070199131965637, -0.9748450517654419, 1.2095166444778442, -0.02723032236099243, -0.5182420015335083, -0.6587193012237549, -0.09020555019378662, 0.3303978443145752, -0.12322347611188889, 0.16484133899211884, -0.1988312304019928, 1.3056540489196777], [-0.4937029182910919, 0.47830450534820557, 0.3833406865596771, -0.4611574113368988, 0.20356380939483643, -0.1590583622455597, -0.6706055998802185, -0.405023455619812, -0.40320831537246704, -0.48084667325019836, -0.13992911577224731, -0.5081806182861328, -0.8390589356422424, -0.16914847493171692, -0.9449887871742249, 0.16900813579559326, 0.2753048241138458, 0.8384560346603394, -0.3507612645626068, 0.967156708240509, 0.2747604250907898, 1.1732964515686035, -0.2523093521595001, -0.24841861426830292], [0.6786268949508667, -1.0099290609359741, -0.8293493986129761, -0.22093169391155243, 0.21194544434547424, 0.366725891828537, 0.858998715877533, -1.4000775814056396, -0.9621286988258362, -0.11796217411756516, -0.4303897023200989, -0.06121021881699562, -0.24257628619670868, 0.06746308505535126, 0.31038838624954224, 0.37984123826026917, -0.16390661895275116, -0.40720412135124207, 0.7787688970565796, -0.28819966316223145, -0.8274707198143005, 0.18247230350971222, -0.566689133644104, 1.637812852859497]], [[0.24512803554534912, 0.4108574390411377, -0.2258467972278595, -0.34651196002960205, -0.4728109538555145, -0.6086316704750061, 0.8223989605903625, 0.48341673612594604, -0.6079907417297363, 0.09832045435905457, -0.3819555640220642, -1.429559350013733, -0.49395284056663513, 0.932271420955658, 0.39279353618621826, 0.3692820966243744, -1.5697448253631592, 0.3935379385948181, 1.3900718688964844, -0.368973046541214, 0.6221751570701599, 0.9229552149772644, 0.33038029074668884, -0.2388727366924286, 0.7542584538459778, -0.5661489963531494, 0.8663128614425659, -0.18144504725933075, -0.5534125566482544, 1.2955117225646973, 0.00840679183602333, 0.8195281624794006], [0.1213802695274353, -0.5549027323722839, 1.0299992561340332, 0.07169170677661896, -0.9692611694335938, -0.6573377251625061, 0.34676453471183777, 0.6161568760871887, -0.9475622773170471, -0.4231327176094055, -1.8335814476013184, -0.95779949426651, 0.2739865183830261, 0.43000340461730957, 0.7807102203369141, -0.691796600818634, -1.5403170585632324, 0.5184726119041443, -0.5483661890029907, 0.36211085319519043, -0.36435264348983765, -0.45364534854888916, 0.1388445347547531, -0.32872292399406433, -0.13586096465587616, 0.2138078808784485, -1.0352870225906372, 1.0935460329055786, -0.3348163962364197, 0.3798561692237854, 0.057628143578767776, 0.12023529410362244], [-0.6770580410957336, -0.15065395832061768, -0.09427635371685028, -1.78494393825531, 0.21524062752723694, 0.8300366401672363, 0.5326917767524719, 0.12194299697875977, 1.5238356590270996, -0.006568878889083862, 0.20972870290279388, 1.3857989311218262, 0.5347569584846497, 0.13485585153102875, -0.6551046371459961, -0.41789814829826355, -0.13555096089839935, 0.7731709480285645, -0.3603644371032715, 0.17472031712532043, 1.2896461486816406, 0.6951615810394287, 0.33007222414016724, -0.7430106401443481, 1.2500535249710083, -0.33002981543540955, 0.9668416976928711, -0.6411316394805908, 0.22171828150749207, -0.9562475085258484, 0.4106866121292114, 0.33292922377586365], [0.6035144329071045, -0.352384477853775, -0.596557080745697, -0.14575104415416718, 0.2510406970977783, 0.5042237043380737, -1.0829797983169556, -1.1301416158676147, -0.7701691389083862, -0.6234080791473389, -0.9670298099517822, -0.8767990469932556, -1.7582247257232666, 0.4549263119697571, -0.2942844033241272, -0.16989260911941528, 0.08682925999164581, -0.13385680317878723, 0.39749470353126526, 0.5257288217544556, -1.0190850496292114, 0.8063904643058777, 1.157668948173523, -1.100862741470337, 0.6216188073158264, 0.5510584115982056, 0.2548324763774872, 1.4530493021011353, -0.03192584961652756, 0.5381942391395569, 1.911439299583435, 0.7949831485748291], [0.6915199756622314, 0.24098923802375793, -0.04675191640853882, -1.118183970451355, -0.060408756136894226, 0.43433693051338196, 1.012681245803833, 0.30820897221565247, 1.1154576539993286, 0.7326926589012146, -0.9980754852294922, -0.3105875253677368, -2.008749008178711, 0.001163877546787262, -0.12075778841972351, 0.80519700050354, -0.25858110189437866, -0.19166409969329834, 1.7805649042129517, 0.6760821342468262, -1.3330178260803223, 0.637763261795044, 0.7827510833740234, 0.029928602278232574, 0.2534101903438568, -0.0103316530585289, -0.6487742066383362, 0.5020816326141357, 1.5838067531585693, -0.9829784631729126, 2.0509414672851562, 0.6715100407600403], [0.2470620721578598, 0.0688062384724617, 0.8274898529052734, -1.023148536682129, -0.9318217039108276, 0.07695428282022476, -0.6975855231285095, -1.259590983390808, 1.5951168537139893, -0.19106505811214447, -0.6521503925323486, -0.43690764904022217, 0.2867191731929779, 0.05769241228699684, -0.1518687903881073, 0.7497661113739014, 0.12181137502193451, 0.9874273538589478, -1.1243749856948853, 0.7358553409576416, -0.4639657139778137, -0.851777195930481, -0.25661057233810425, 0.4770970940589905, 0.6323353052139282, 0.6835530400276184, 0.7464412450790405, -0.563478946685791, -0.5348082184791565, -0.1823279857635498, 0.5612673759460449, 0.7209288477897644], [-0.36995166540145874, -0.3037314713001251, -0.07790599763393402, -0.3016337454319, 0.12393727898597717, 0.19588452577590942, -0.24821200966835022, 1.113006830215454, -0.15718455612659454, 0.22322097420692444, 0.5086540579795837, -1.0175412893295288, -0.2541792094707489, 0.25764816999435425, -0.029603004455566406, 0.5957818031311035, -0.8701659440994263, 0.6307434439659119, 0.19687452912330627, -0.4140717685222626, -0.6360253691673279, 1.0683258771896362, 1.120583415031433, 0.8042116165161133, 0.7246862649917603, -0.8214731812477112, 0.18759775161743164, -1.2089135646820068, 0.4598904550075531, -0.5017358064651489, -0.4057966470718384, 0.638574481010437], [1.6479283571243286, -0.3177252411842346, 1.4713667631149292, -0.5577740669250488, -0.2641790211200714, -0.44058728218078613, 0.3346588909626007, 0.016309943050146103, -1.231806993484497, 0.4469589293003082, -0.8643151521682739, 0.24544887244701385, -0.6755675673484802, 0.16959327459335327, -0.13358420133590698, -0.5227775573730469, -0.5134294033050537, 0.9551083445549011, 0.24014431238174438, -0.11390464752912521, 1.2717736959457397, 0.1345817893743515, -0.17438974976539612, 1.319515585899353, -0.3930661678314209, 1.0020657777786255, -1.5597288608551025, 0.3226635456085205, -0.5944482684135437, -0.08222372829914093, -1.2341318130493164, -0.3423515260219574], [-0.33714184165000916, -1.2380223274230957, 0.17337891459465027, 1.1795473098754883, -0.6041058301925659, 0.22780902683734894, 0.9282280206680298, -0.8400224447250366, 2.944666862487793, 1.745199203491211, -1.3019508123397827, -0.5389446020126343, 0.0423179566860199, -0.04446445778012276, -1.5326573848724365, 0.14187313616275787, -0.49206382036209106, -0.0004976484924554825, -0.5633596777915955, 1.343691349029541, -0.4020228981971741, 0.8890752792358398, 0.4801167845726013, 0.1602306067943573, -0.10896369069814682, -0.2651575803756714, 0.2147538959980011, -0.47782137989997864, 0.006075024604797363, 0.18346351385116577, 1.1881109476089478, 0.8645880222320557], [-0.3858129382133484, 0.5540008544921875, -0.1338404268026352, 0.722610354423523, 0.6938608884811401, -0.2768208682537079, -0.7519401907920837, 0.5065797567367554, -0.8757545351982117, 0.43232598900794983, 0.12275877594947815, -0.18138521909713745, 0.7124804854393005, 0.3704144060611725, 0.4281280040740967, 0.1460077315568924, 0.4702787399291992, -0.789609432220459, -0.8471680283546448, 0.660288393497467, 0.48324260115623474, 1.0486063957214355, -0.7054811716079712, -1.2215511798858643, -0.38680216670036316, -0.3617623746395111, -0.22826337814331055, -0.3287692964076996, 0.20341646671295166, -0.8164132237434387, 0.49217477440834045, -0.8698388934135437], [0.3947957158088684, 0.3669664263725281, -0.4518963694572449, 0.975224494934082, 0.13885965943336487, 0.713228702545166, 1.0509283542633057, -0.21737857162952423, 0.6934797167778015, -0.5313782095909119, 0.20752215385437012, 0.2184169441461563, 0.013431571424007416, 0.3189937472343445, 1.1571366786956787, 0.16135501861572266, 0.5925024747848511, 0.7466220259666443, 0.8401545286178589, -0.6718435287475586, -0.6357211470603943, 0.36556267738342285, -1.1558605432510376, -0.5087201595306396, -0.8816039562225342, -1.5722172260284424, 0.09962422400712967, 0.44872620701789856, 0.11656446754932404, 1.412453532218933, -0.9550294876098633, -0.387231707572937], [-2.2643160820007324, -0.9548859596252441, 1.4319493770599365, -0.43488988280296326, 0.1843150556087494, 0.40747058391571045, 0.13338196277618408, -1.2858142852783203, -0.05692353844642639, 0.11493947356939316, -0.6136721968650818, -0.23383602499961853, 0.7329490184783936, 0.21759091317653656, -0.3822447657585144, 0.5231727957725525, -1.7531038522720337, -0.5316072106361389, -0.3242306113243103, -0.34813135862350464, 0.2119726687669754, 0.361815869808197, 0.9762116074562073, 0.01648212969303131, -0.9197785258293152, 0.12388812750577927, -1.281585454940796, -0.23804165422916412, -0.3028792440891266, -0.45788857340812683, -0.4994104504585266, 0.24077007174491882], [0.9189580082893372, 1.305265188217163, 0.5505378246307373, 0.6769840121269226, 0.7360367178916931, 0.32935938239097595, -0.13959603011608124, -0.09577111154794693, 0.19462519884109497, -0.753563642501831, -1.2511858940124512, -0.0048225149512290955, 0.03260029852390289, -0.919605553150177, -0.03198526054620743, -0.4034927487373352, 0.10736839473247528, 0.15174457430839539, 1.725177526473999, -1.1721550226211548, -0.5374575257301331, -0.35855498909950256, 0.06983733177185059, -0.9557030200958252, 1.3993854522705078, 0.26360461115837097, -0.618655800819397, 1.1553345918655396, 0.24526767432689667, 0.3350111246109009, -0.7686223983764648, 0.03964895009994507], [-1.1779755353927612, -0.4691096544265747, -0.9280344247817993, -0.6758373379707336, -0.4019690454006195, -0.45659178495407104, 0.7175757884979248, -1.116175651550293, 0.29870572686195374, 0.6701177954673767, 1.1448723077774048, -0.2504744529724121, -0.9297485947608948, 0.7665746212005615, 1.4938735961914062, -2.3681740760803223, -0.27721625566482544, 0.024858951568603516, 0.6714498400688171, -0.9576191902160645, -0.4999443292617798, -0.29402869939804077, -0.6024245619773865, 0.5212979912757874, 0.465475469827652, -1.4296443462371826, -0.027078893035650253, -0.5130758285522461, -0.25179508328437805, -0.2227129191160202, -0.2583802342414856, 0.9503549933433533], [-0.1693367213010788, 0.4014982581138611, 0.6644760966300964, -0.12089650332927704, -0.22903543710708618, -0.5928196310997009, 0.3329586982727051, -1.149769902229309, -0.1421235352754593, -0.8110686540603638, 0.06230994313955307, -0.317655473947525, -1.0390198230743408, 1.981279730796814, -0.4968477785587311, -0.04544132947921753, 0.9802393913269043, -0.9779716730117798, 0.718805193901062, 0.702971875667572, -0.906001627445221, -1.774356722831726, 0.3146497905254364, -1.9712787866592407, 0.20525525510311127, 0.3170453608036041, 0.29394084215164185, -0.24995508790016174, 0.25861746072769165, -0.6400796175003052, 1.4950275421142578, 0.5349174737930298], [-1.1801414489746094, 0.3277513086795807, 1.4590785503387451, 0.37833622097969055, -0.8868705034255981, 0.6256765127182007, -1.128356695175171, -1.0672187805175781, -0.6294098496437073, 1.4875816106796265, -0.6408603191375732, -0.3356848359107971, 0.20290984213352203, 0.5702218413352966, 0.5191283822059631, 0.6029036641120911, 0.04744245111942291, -0.0255146324634552, 1.1735111474990845, -1.0359621047973633, -0.6395702958106995, -0.617129921913147, 1.9339866638183594, -0.2112516313791275, 0.6557438373565674, -0.13572624325752258, -0.49763745069503784, -0.3914456367492676, 1.001969814300537, 0.4890868067741394, -0.5273436307907104, -1.1759377717971802]], [[-0.6911554932594299, -0.04691644012928009, -0.27234914898872375, 0.23549361526966095, 0.12198679149150848, 0.6773520112037659, -0.7032386064529419, 0.032337456941604614, -0.4520288109779358, 0.37875375151634216, 0.15670651197433472, 0.36632516980171204, -0.4398064613342285, 1.7017103433609009, 2.3510546684265137, -0.5866563320159912], [-0.8617038726806641, 1.647786021232605, 0.4582977592945099, -0.8903148770332336, 0.6899247169494629, -0.2859452962875366, -0.09420041739940643, 0.3368881940841675, 0.9527900815010071, -0.5723293423652649, 0.1369887739419937, -0.9058950543403625, 1.0439214706420898, -0.7306496500968933, 0.7701901197433472, -0.7801331281661987], [0.6614447236061096, 1.1561235189437866, -0.4200426936149597, -0.7399845123291016, 1.152304768562317, -1.4950722455978394, -0.4015454053878784, -0.2630743384361267, 0.8612524271011353, 0.10169093310832977, 0.25849974155426025, 1.2615858316421509, 1.0158395767211914, 0.3495754301548004, 0.6452583074569702, -1.1955690383911133], [-0.531344473361969, 0.8612099289894104, 0.22211450338363647, -1.1744673252105713, 0.2805657982826233, 0.07682400941848755, 0.7315679788589478, 1.0208609104156494, -0.9124234318733215, -0.505778431892395, 0.967886209487915, 0.43848755955696106, 0.16924946010112762, -0.3954835832118988, 0.6315414309501648, 1.1586452722549438], [-0.579017162322998, 0.13448259234428406, -0.5956108570098877, -0.5627232789993286, -1.558115839958191, 0.18549810349941254, -0.4675746560096741, 0.5090086460113525, 0.029053138568997383, -0.22123122215270996, 0.11703826487064362, 0.14322823286056519, -0.45230042934417725, -0.13701725006103516, -1.398826003074646, -0.6117090582847595], [-1.0961542129516602, -1.5533385276794434, 1.0602824687957764, 0.7335680723190308, -1.5250298976898193, -0.24893411993980408, -0.734462320804596, -0.5403375625610352, -0.7108899354934692, -1.1493054628372192, 0.27876225113868713, 0.33064186573028564, 1.1433683633804321, -0.9086458683013916, -0.47911781072616577, -0.10436324775218964], [-0.7877261638641357, 1.7350804805755615, -1.1031129360198975, -0.44232577085494995, -2.2443203926086426, -0.6513455510139465, -1.3263407945632935, -0.26480531692504883, 1.5394251346588135, -0.5910249948501587, 0.8431470394134521, -0.18355026841163635, 0.31926628947257996, 0.20177575945854187, -0.5490814447402954, 0.34443598985671997], [0.6955451965332031, 0.45449382066726685, 0.18435658514499664, 0.8153981566429138, -0.09214667230844498, 0.6963348388671875, -0.7458729147911072, 0.3111191987991333, -0.29188328981399536, -0.19929489493370056, 1.1547398567199707, 0.4890720546245575, 0.5308555960655212, -0.03959501534700394, 0.13296182453632355, -0.13784052431583405]], [[0.7570404410362244, -1.0074713230133057, -0.30312108993530273, 1.1620100736618042, 0.2297114133834839, -0.41574209928512573, 1.5397366285324097, 0.7869215607643127], [0.6231387257575989, 0.05501677840948105, 0.5649399161338806, -0.4832785427570343, -1.879073143005371, 0.19794484972953796, 0.6494517922401428, 0.06779570877552032]]], "brain_biases": [[0.4557129442691803, -0.012763634324073792, 0.6608583331108093, 0.9442716240882874, 0.9115912318229675, -0.8118628263473511, 0.6067266464233398, -1.4947271347045898, -0.30122676491737366, 0.38810300827026367, -0.5494914054870605, 0.4020286798477173, 0.7616686820983887, 0.795539140701294, 0.47392863035202026, 0.7098924517631531, -0.10932080447673798, 0.7561029195785522, -0.5620875358581543, 0.4065045714378357, 0.6918782591819763, -0.3348426818847656, 0.3251217007637024, -1.3666821718215942, 0.6610866189002991, -0.11259479075670242, 0.23410853743553162, -0.6600714921951294, 0.34255820512771606, -0.6516400575637817, -0.3883357048034668, 0.44118762016296387], [-0.6518985033035278, 0.39677077531814575, -0.7750532627105713, 0.5443268418312073, 0.5043397545814514, 0.4310537278652191, -0.03118263930082321, 0.17011453211307526, -0.23753780126571655, 1.4426586627960205, 1.3437433242797852, -1.0460546016693115, 0.4112805724143982, 0.4722629487514496, 0.37948572635650635, -0.38838624954223633], [0.42409300804138184, -0.11423657834529877, 0.9651753306388855, 0.31266409158706665, 0.5820383429527283, 0.5152997970581055, -0.08954408764839172, -0.6860669851303101], [0.709489107131958, -0.02738901413977146]], "sensor_retina_count": 24, "sensor_vision_radius": 300.0, "sensor_fov_degrees": 180.0, "sensor_skip": 2, "sensor_see_food": true, "sensor_see_bacteria": false, "sensor_see_predators": false, "locomotion_max_speed": 300.0, "locomotion_max_turn": 3.141592653589793, "energy_loss_idle": 2.0, "energy_loss_move": 5.0, "energy_death_energy": 0.0, "energy_split_energy": 150.0, "last_brain_output": [3.5460357666015625, 0.03622785955667496], "last_brain_activations": [[0.4265837073326111, -0.012762941420078278, 0.578934371471405, 0.7371786832809448, 0.7218950986862183, -0.670616626739502, 0.5418187975883484, -0.9041908979415894, -0.2924348711967468, 0.36972370743751526, -0.5001389384269714, 0.38168343901634216, 0.6420588493347168, 0.6615355610847473, 0.44136810302734375, 0.6106094121932983, -0.10888737440109253, 0.6387757658958435, -0.5095247030258179, 0.3855007290840149, 0.5991872549057007, -0.32286542654037476, 0.31413063406944275, -0.8779338598251343, 0.5790861248970032, -0.11212138086557388, 0.2299233376979828, -0.5784109830856323, 0.3297593593597412, -0.5727730393409729, -0.3699245750904083, 0.41462835669517517], [-0.12809687852859497, 0.8930824995040894, 0.8436979651451111, -0.8011448383331299, -0.9524767398834229, 0.9805029630661011, -0.4822588562965393, 0.8415175080299377, 0.8773699998855591, 0.9987581968307495, 0.7273480296134949, 0.5179735422134399, 0.7331322431564331, -0.8597030639648438, 0.9981212615966797, 0.8869825601577759], [0.859881579875946, 0.9974106550216675, 0.8582615256309509, 0.9996602535247803, 0.6940237283706665, 0.3224145472049713, 0.9993252754211426, 0.9211902618408203], [3.5460357666015625, 0.03622785955667496]]}, {"type": "predator", "x": 3622.8321854790565, "y": 4990.438959639023, "r": 14.0, "angle": -1.9138596243921726, "vx": -114.8775430703096, "vy": -321.6171571000253, "energy": 31.10193760258999, "age": 243.44333333339623, "brain_sizes": [18, 32, 16, 8, 2], "brain_version": 7, "brain_weights": [[[0.05286493897438049, -0.11404822766780853, 0.3191397190093994, 0.3917303681373596, -0.0743509829044342, -0.4678797125816345, 0.0206344872713089, 0.43148094415664673, -0.46996042132377625, -0.07631056755781174, -0.17012524604797363, -0.24952208995819092, 0.43809622526168823, -0.5771391987800598, 0.5054731965065002, 0.4790818989276886, -0.14721043407917023, 0.44184598326683044], [-0.1928367018699646, 0.11010852456092834, -0.026796549558639526, -0.13306166231632233, 0.35731834173202515, -0.4630415141582489, 0.0699271708726883, -0.34599733352661133, -0.06251762807369232, 0.18315017223358154, -0.23842744529247284, -0.030838340520858765, 0.31416234374046326, -0.5279490947723389, 0.5905225276947021, 0.4760696589946747, 0.3396463990211487, 0.21017849445343018], [-0.18646082282066345, 0.34371936321258545, -0.5540265440940857, -0.017150960862636566, -0.11522749811410904, 0.2589028775691986, 0.17218434810638428, 0.15563121438026428, -0.45820891857147217, -0.13031333684921265, -0.7634537220001221, -0.1299472153186798, 0.3230140507221222, 0.14377109706401825, 0.07902997732162476, 0.5662401914596558, 0.39233100414276123, -0.3551569879055023], [-0.07870468497276306, -0.1067027598619461, 0.3310580849647522, -0.5039488077163696, -0.45189619064331055, 0.3749195635318756, 0.2321368306875229, -0.020147111266851425, 0.1429804116487503, -0.24330218136310577, -1.045582890510559, 0.5006393790245056, 0.30298709869384766, 0.5160407423973083, 0.1487196981906891, 0.006185345351696014, -0.2608407139778137, -0.8286345601081848], [0.18056179583072662, 0.13656237721443176, -0.4006569981575012, -0.06931211054325104, -0.2778521776199341, 1.1477818489074707, 0.10480676591396332, 0.24168981611728668, -0.004939615726470947, -0.713345468044281, -0.057126931846141815, -0.4260943531990051, -0.3591833710670471, 0.369735985994339, -0.030542001128196716, -0.18361204862594604, 0.2842535078525543, -0.03029247187077999], [0.1059933453798294, 0.5886997580528259, -0.4467317461967468, -0.004079733043909073, 0.03793328255414963, -0.5353823900222778, -0.3110191226005554, -0.408666729927063, 0.14898532629013062, -0.31022942066192627, 0.13391420245170593, 0.2135024219751358, -0.17040088772773743, -0.4535219669342041, -0.4897824823856354, 0.11515801399946213, 0.08944147080183029, -0.23973391950130463], [0.002489715814590454, -0.1872110366821289, 0.36845481395721436, 0.6749852895736694, 0.24506300687789917, 0.3838620185852051, 0.8938524127006531, 0.41936254501342773, 0.05903035029768944, 0.6925626993179321, 0.5541781783103943, 0.09395989775657654, 0.03524027019739151, -0.34605178236961365, -0.08438905328512192, 0.02544565498828888, -0.3624681234359741, -0.060006506741046906], [-0.5487936735153198, 0.2204819768667221, -0.21134507656097412, -0.1219032034277916, 0.3619396388530731, -0.2098349630832672, -0.41319388151168823, -0.288780152797699, 0.4945116639137268, -0.18508851528167725, -0.08371688425540924, -0.07545378804206848, -0.24613133072853088, 0.06895734369754791, 0.20593896508216858, -0.013240661472082138, -0.5291712284088135, -0.047714851796627045], [0.578127920627594, -0.0835007056593895, -0.009198145940899849, 0.036062099039554596, 0.07662869244813919, -0.022001266479492188, 0.1595057249069214, 0.31290867924690247, -0.10451734066009521, 0.1771443784236908, 0.3386371433734894, 0.17848137021064758, -0.2823861837387085, 0.36840304732322693, 0.29275810718536377, 0.2634851932525635, -0.11207923293113708, -0.012776652351021767], [-0.07721652090549469, -0.3176732659339905, 0.5505093336105347, 0.8249891400337219, -0.10932360589504242, 0.09105703979730606, 0.05648701637983322, -0.7957897782325745, 0.2191878706216812, 0.47204136848449707, -0.13238605856895447, -0.005525651387870312, 0.3674277663230896, -0.980863630771637, 0.777603805065155, 0.05425989627838135, 0.26051947474479675, 0.009998194873332977], [-0.034802649170160294, -0.27729976177215576, -0.5753411650657654, -0.10624121129512787, -0.10748037695884705, -0.1507086604833603, 0.2955584228038788, -0.16988852620124817, -0.10936951637268066, -0.15987852215766907, -0.23039937019348145, 0.23629385232925415, 0.7113161087036133, -0.3911321461200714, 0.06254793703556061, -0.17597337067127228, -0.37796980142593384, 0.19459334015846252], [-0.04745238646864891, -0.4526618421077728, -0.5684540867805481, -0.08641095459461212, -0.3013891875743866, 0.4250093102455139, 0.5368354916572571, 0.13995853066444397, 0.045564234256744385, -1.1475327014923096, 0.24585048854351044, 0.20119278132915497, 0.06387514621019363, 0.14310519397258759, -0.5455666184425354, 0.16374441981315613, -0.05726456642150879, 0.017228765413165092], [0.04331202059984207, -0.1012832522392273, -0.5315073728561401, 0.1662530153989792, -0.14319144189357758, 0.17021077871322632, -0.24507005512714386, 0.39534062147140503, -0.12579461932182312, 0.9740187525749207, -0.0864931046962738, -0.10589820891618729, 0.22813281416893005, -0.3459591567516327, 0.16702190041542053, 0.34481072425842285, -0.19753725826740265, -0.6403742432594299], [-0.047605372965335846, 0.10427308082580566, 0.49214279651641846, -0.20219352841377258, 0.05583462119102478, 0.21888116002082825, -0.07762427628040314, 0.3841394782066345, -0.09099248051643372, 0.5725200772285461, -0.029345013201236725, 0.4017956852912903, -0.26923027634620667, -0.5135250091552734, -0.47757068276405334, -0.07235442101955414, -0.4263378977775574, -0.5534934997558594], [0.5344677567481995, 0.16477693617343903, 0.10582196712493896, -0.15585964918136597, -0.3952764868736267, -0.6487149596214294, 0.046910375356674194, 0.272849977016449, 0.6207653284072876, -0.05063740909099579, 0.5135107040405273, -0.03169894963502884, -0.01939013972878456, -0.5704518556594849, 0.42698848247528076, -0.17693385481834412, -0.2808654010295868, -0.5198186039924622], [0.29421401023864746, 0.004011861979961395, -1.232051968574524, -0.05525481700897217, -0.2073415368795395, 0.6876749992370605, 0.36401811242103577, 0.2067461460828781, 0.012309856712818146, 0.26658961176872253, 0.2210112363100052, -0.1913272589445114, 0.5845330953598022, 0.15495504438877106, 0.1502372920513153, 0.3880470097064972, -0.24877575039863586, 0.5686787366867065], [0.17263785004615784, -0.5925425291061401, 0.14069180190563202, 0.11914096027612686, 0.22180071473121643, -0.5342356562614441, 0.5700191855430603, 0.09707219898700714, -0.23721885681152344, -0.09592675417661667, -0.2813630998134613, -0.06117083132266998, -0.2621539831161499, -0.022042348980903625, -0.6146828532218933, -0.3106589913368225, 0.0786309540271759, -0.21381568908691406], [0.2790974974632263, -0.025185082107782364, 0.6302661299705505, 0.45459288358688354, -0.02959577366709709, -0.6310043334960938, 0.011185050010681152, 0.1684155911207199, -0.010107353329658508, -1.1036051511764526, -0.29738762974739075, -0.1999133676290512, 0.27223318815231323, 0.6595944166183472, 0.2345060557126999, -0.017776384949684143, -0.03708595409989357, -0.6385596990585327], [-0.3865625858306885, 0.31192415952682495, -0.288733571767807, -0.48030975461006165, 0.004771333187818527, -0.11214003711938858, -0.3621499836444855, 0.10191095620393753, 0.9552845358848572, -0.1502227485179901, 0.7248016595840454, -0.5476052761077881, -0.2558213770389557, 0.27909383177757263, -0.5137209296226501, -0.16222620010375977, 0.2154628038406372, 0.05335629731416702], [0.6382379531860352, -0.2385086715221405, 0.6088513731956482, 0.18442684412002563, 0.36999207735061646, 0.44608932733535767, -0.1922953724861145, -0.62161785364151, -0.22785869240760803, 0.26954740285873413, -0.3587268590927124, 0.5417401790618896, -0.4368716776371002, 0.3162306845188141, 0.2001820206642151, 0.3138284683227539, 0.018300503492355347, 0.8749899864196777], [-0.38178539276123047, -0.14774714410305023, 0.08053472638130188, -0.2578524053096771, 0.34560680389404297, 0.48763716220855713, 0.5640543699264526, -0.42159226536750793, 0.21933513879776, -0.06795638799667358, -0.6630076169967651, -0.3636525273323059, -0.27246296405792236, -0.04727538302540779, 0.176548570394516, 0.5235252380371094, 0.6367737650871277, -0.11901535093784332], [-0.2094288468360901, 0.33911266922950745, 0.005641356110572815, -0.05526532232761383, 0.045665398240089417, 0.2955549657344818, 0.2677503228187561, -0.23578187823295593, 0.22709950804710388, 0.3306519091129303, 0.0790008157491684, -0.18530234694480896, 0.7398549914360046, 0.09937989711761475, -0.6452949047088623, -0.5510589480400085, 0.32277339696884155, 0.00806613638997078], [0.3138860762119293, 0.04739813506603241, 0.2649930417537689, 0.5924310684204102, 0.8080058097839355, -0.7018181681632996, -0.2872442603111267, -0.322346955537796, 0.2274574637413025, 0.15993548929691315, 0.8460097312927246, -0.49789953231811523, -0.009785093367099762, -0.34618526697158813, -0.8168459534645081, 0.20120328664779663, -0.49383383989334106, 0.286155104637146], [-0.3161979913711548, 0.378562867641449, 0.18660908937454224, -0.2426358312368393, 0.30981457233428955, 0.711129903793335, 0.5959076881408691, 0.17463816702365875, -0.2562580108642578, -0.43392109870910645, -0.22153428196907043, -0.2770959436893463, -0.20351210236549377, 0.22612547874450684, -0.18907523155212402, -0.5075428485870361, -0.11266712099313736, 0.5728444457054138], [0.16134113073349, -0.07284694910049438, 0.7808113694190979, 0.0003315359354019165, -0.3446459472179413, 0.15460357069969177, -0.13145044445991516, -0.4859105050563812, 0.00951395183801651, 0.27276700735092163, -0.016392957419157028, -0.04166540503501892, -0.26163673400878906, -0.4198598265647888, -0.3424895107746124, -0.3522206246852875, -0.08102218806743622, 0.6121134161949158], [0.2284500002861023, 0.042629219591617584, 0.1828915923833847, 0.34584692120552063, -0.0019276216626167297, 0.2519666254520416, -0.08926215022802353, -0.36957645416259766, -0.44495484232902527, -0.24801622331142426, 0.21333065629005432, 0.23929233849048615, -0.6076337695121765, 0.15406186878681183, 0.5199415683746338, 0.2933359444141388, -0.00606936402618885, 0.20228253304958344], [-0.05118626356124878, 0.18434636294841766, 0.4393734335899353, 0.20635440945625305, -0.08057291805744171, 0.020666364580392838, -0.14196684956550598, -0.04734198749065399, 0.22984202206134796, 0.13874909281730652, 0.9086279273033142, 0.1565021425485611, 0.010835528373718262, 0.30553388595581055, -0.24322199821472168, 0.2484969198703766, 0.1852755844593048, -0.5305728316307068], [0.16969572007656097, 0.41260746121406555, 0.15707319974899292, -0.38868218660354614, -0.07930504530668259, -0.24933847784996033, -0.5284846425056458, -0.024946436285972595, -0.15670374035835266, -0.10263669490814209, -0.7840750217437744, 0.08818244934082031, 0.4013484716415405, 0.12227822840213776, 0.24858230352401733, 0.4433155953884125, -0.1446220576763153, -0.2510894238948822], [-0.024326473474502563, -0.6869577765464783, 0.499654620885849, -0.21972262859344482, 0.11115023493766785, 0.6858095526695251, 0.4370410442352295, -0.0918167307972908, 0.37524694204330444, -0.03969627246260643, -0.3895644545555115, 0.39216741919517517, -0.9623156785964966, -0.17325419187545776, 0.6794240474700928, 0.25419577956199646, 0.5564584136009216, 0.872435450553894], [-0.2661244869232178, -0.4564269781112671, -0.17119139432907104, -0.1661970615386963, -0.04966210946440697, -0.6804301142692566, -1.0152111053466797, -0.18128396570682526, -0.016156315803527832, 0.36254966259002686, 0.2550893723964691, 0.8564538359642029, -0.0721573606133461, -0.31687164306640625, -0.052311986684799194, 0.04750102758407593, -0.4699518084526062, -0.09712758660316467], [-0.6081541776657104, -0.6504778861999512, -0.3469090461730957, 0.51173335313797, 0.4977417290210724, 0.6878377199172974, -0.25902897119522095, 0.06592707335948944, -0.08717206120491028, 0.6299386620521545, 0.4340246617794037, -0.2153306007385254, 0.39401790499687195, -0.08106069266796112, -0.48990577459335327, 0.614467442035675, 0.2354169636964798, -0.1814921498298645], [-0.025579050183296204, -0.038103241473436356, 0.4942857325077057, 0.19761639833450317, 0.10226873308420181, 0.3865567743778229, 0.38307473063468933, -0.1653459072113037, 0.22362589836120605, -0.020063474774360657, -0.4354286789894104, 0.23969395458698273, 0.3071456551551819, -0.12814366817474365, 0.37458157539367676, -0.049561865627765656, -0.16950029134750366, -0.16598035395145416]], [[-0.6343265175819397, 0.08335482329130173, -0.6102598905563354, 0.4138626754283905, 0.29804396629333496, -0.4803803563117981, -0.8800868988037109, -0.17804503440856934, -0.019750671461224556, -0.012942319735884666, -0.14784866571426392, 0.021929994225502014, 0.07565413415431976, -0.06114621460437775, 0.500992476940155, -0.5479179620742798, -0.563281238079071, -0.1568157970905304, -0.23064839839935303, 0.10953708738088608, 0.3033755123615265, 0.34217533469200134, 0.05229420214891434, -0.3107127547264099, -0.29510319232940674, -0.3243773877620697, 0.32705986499786377, -0.30786821246147156, 0.06720079481601715, -0.42238789796829224, -0.04277855157852173, -0.2604539096355438], [-0.0017988979816436768, 0.11808066070079803, 0.06746828556060791, 0.41901737451553345, -0.4816371202468872, -0.2620386779308319, 0.0021564364433288574, 0.06567099690437317, 0.21699297428131104, 0.31888246536254883, 0.36064326763153076, -0.14516982436180115, -0.44719117879867554, 0.06835576146841049, 0.20974546670913696, 0.5745896697044373, -0.15281346440315247, -0.5377601981163025, -0.44426852464675903, -0.46252161264419556, -0.4202316403388977, -0.35066261887550354, -0.3513694405555725, -0.005559362471103668, 0.7513255476951599, -0.40443289279937744, 0.09598790109157562, -0.5208150148391724, 0.5024005174636841, 0.14480552077293396, -0.30737894773483276, 0.13604538142681122], [0.09876151382923126, -0.317382276058197, 0.26536476612091064, 0.04751966893672943, 0.22594816982746124, 0.688477635383606, -0.38937968015670776, 0.3947833180427551, 0.20129558444023132, 0.3557615280151367, -0.12083828449249268, -0.03150761127471924, 0.2674528658390045, 0.1805025339126587, 0.08182679116725922, 0.2339511513710022, -0.14447881281375885, -0.34945768117904663, -0.422748327255249, -0.21189439296722412, 0.11747235804796219, 1.0942111015319824, 0.23568810522556305, 0.5631241202354431, 0.43020159006118774, -0.44382432103157043, 0.4313068985939026, -0.10259446501731873, 0.08059318363666534, 0.6129395961761475, -0.16523943841457367, 0.048853807151317596], [-0.4478667974472046, -0.1862937957048416, -0.4464433193206787, -0.6897533535957336, -0.11974205076694489, -0.09273244440555573, 0.42560049891471863, -0.3934703767299652, -0.05938798189163208, 1.1006593704223633, 0.013910539448261261, -0.43722984194755554, 0.6501816511154175, 0.3991609811782837, 0.30172041058540344, 0.1342369168996811, -0.1384352594614029, 0.054498493671417236, -0.2030509114265442, 0.29838040471076965, 0.1639573574066162, -0.07728515565395355, 0.5494861006736755, 0.1914472132921219, -0.07056533545255661, -0.034597352147102356, -0.4490586519241333, 0.03807738050818443, -0.2038765847682953, 0.0606260746717453, 0.8106619715690613, 0.4197706878185272], [-0.1237821877002716, -0.10543897747993469, -0.48822861909866333, 0.030357517302036285, -0.06095656007528305, 0.5585684180259705, -0.019452445209026337, -0.26411548256874084, 0.03025825321674347, -0.23601391911506653, 0.16143850982189178, 0.11665397882461548, -0.3688797950744629, -0.4512024521827698, -0.014651045203208923, 0.14743481576442719, -0.269966721534729, -0.12191874533891678, -0.05022173374891281, 0.1207592561841011, 0.47568708658218384, -0.030540138483047485, -0.4376980662345886, 0.16186435520648956, -0.4369827210903168, -0.10122271627187729, 0.49481040239334106, 0.37192121148109436, 0.2565925121307373, 0.34794890880584717, 0.33267003297805786, 0.22853218019008636], [-0.1019890308380127, -0.44622570276260376, 0.49885809421539307, 0.06662364304065704, 0.3389548659324646, -0.09321645647287369, -0.3616269826889038, -0.8785346746444702, -0.11743974685668945, 0.20103704929351807, 0.22592855989933014, -0.00672324001789093, 0.20278853178024292, -0.2048107385635376, 0.23489642143249512, -0.03079371154308319, 0.3369983732700348, 0.2791808843612671, 0.10803522169589996, -0.27103540301322937, -0.1344326287508011, 0.20881174504756927, -0.4571818709373474, -0.4000496566295624, -0.27610450983047485, 0.24934932589530945, -0.3411118984222412, -0.4223780930042267, -0.06511279195547104, 0.06736770272254944, -0.3144426643848419, 0.3653210699558258], [-0.03555428981781006, 0.07470136880874634, 0.1266442835330963, -0.02286572754383087, -0.22180308401584625, -0.12360960245132446, -0.20683616399765015, 0.46998345851898193, -0.2066209763288498, -0.1151578426361084, -0.912559449672699, -0.4641900658607483, -0.07435020804405212, 0.4921616315841675, 0.264523446559906, -0.007205560803413391, 0.036567702889442444, 0.06118560954928398, -0.29713740944862366, 0.5241251587867737, 0.2116107940673828, 0.6734995245933533, 0.4032681882381439, -0.5269227027893066, -0.18563275039196014, -0.2073613554239273, -0.13668182492256165, -0.15661248564720154, 0.011531218886375427, -0.15787425637245178, -0.09925570338964462, 0.10988008975982666], [0.20327019691467285, 0.12016436457633972, -0.26192617416381836, -0.13758252561092377, 0.444275438785553, 0.28539425134658813, -0.22819176316261292, -0.14983145892620087, 0.20101478695869446, 1.3986283540725708, -0.6024351119995117, 0.31083691120147705, 0.3667629361152649, 0.046658262610435486, -0.030940378084778786, 0.19112661480903625, -0.47433555126190186, 0.5094232559204102, 0.3305584788322449, 0.18304947018623352, 0.308824747800827, 0.027602870017290115, -0.17384442687034607, -0.2736356556415558, 0.26930055022239685, -0.04868859052658081, 0.18748795986175537, -0.46014827489852905, -0.6179778575897217, 0.5139685869216919, 0.37150904536247253, 0.29453614354133606], [-0.4943031072616577, 0.41150957345962524, 0.41983839869499207, -0.43181848526000977, -0.16559240221977234, 0.3601890504360199, -0.4275074005126953, 0.2802121937274933, -0.04852211847901344, 0.20507018268108368, -0.09419713914394379, 0.6351945996284485, -0.7640421390533447, 0.23752868175506592, 0.10456160455942154, -0.188218891620636, 0.20788519084453583, -0.024082764983177185, 0.36600035429000854, 0.1611918807029724, -0.45798343420028687, 0.3546599745750427, 0.5493200421333313, 0.2918229401111603, 0.899759829044342, 0.038139209151268005, 0.4931459426879883, 0.02969948947429657, -0.2451455295085907, 0.23685669898986816, 0.025986798107624054, -0.35788124799728394], [0.2785390019416809, 0.13680920004844666, 0.33494699001312256, -0.057132869958877563, -0.14955902099609375, -0.06629586964845657, 0.17900925874710083, 0.007328465580940247, 0.17217622697353363, -0.26668938994407654, 0.12828217446804047, 0.20058339834213257, -0.10468778759241104, -0.04382844641804695, -0.018989168107509613, -0.35644274950027466, -0.042669717222452164, 0.21871218085289001, -0.1038942039012909, 0.010286916047334671, 0.21658144891262054, -0.3843064606189728, 0.1176893562078476, 0.06470276415348053, 0.17266926169395447, -0.3797129988670349, 0.15123075246810913, 0.1221577599644661, -0.28469759225845337, -0.2827133536338806, -0.16170047223567963, 0.6995087265968323], [-0.1380934715270996, 0.2573689818382263, 0.17623940110206604, -0.06049076467752457, 0.12440384924411774, -0.23996759951114655, -0.4314131736755371, 0.15444736182689667, 0.2521417438983917, -0.3592427372932434, -0.4670761823654175, 0.35946202278137207, 0.08825360238552094, -0.021358639001846313, -0.35552024841308594, -0.269866943359375, -0.03289307653903961, 0.07087564468383789, -0.09589105099439621, 0.18076172471046448, 0.2826969623565674, 0.21053089201450348, 0.2288150191307068, -0.1807674616575241, 0.07547987997531891, -0.7379879951477051, 0.14160850644111633, 0.28482162952423096, 0.5261270999908447, -0.10606835782527924, -0.4251087009906769, 0.10213018953800201], [-0.3064095675945282, 0.29918739199638367, 0.4831762909889221, 0.5001360774040222, -0.05524708330631256, -0.6665117144584656, -0.227080300450325, -0.23251529037952423, -0.019852131605148315, 0.03391748666763306, -0.10082012414932251, 0.33909446001052856, -0.30539458990097046, -0.4165816605091095, -0.5427974462509155, -0.09366880357265472, -0.40731164813041687, -0.16852860152721405, 0.08320856094360352, 0.14491984248161316, 0.08960980921983719, -0.2626577317714691, 0.13522382080554962, 0.32240965962409973, 0.5741786956787109, 0.2583180367946625, -0.1003686860203743, -0.6771682500839233, 0.560192883014679, -0.03358982130885124, 0.5602737665176392, -0.31132495403289795], [0.538580060005188, 0.1724996417760849, -0.38355880975723267, -0.9085360169410706, 0.23383265733718872, -0.4444335699081421, 0.13778522610664368, -0.36325332522392273, 0.030966490507125854, -0.1770947277545929, -0.023292511701583862, 0.3696814179420471, 0.3791945278644562, -0.05380193889141083, 0.1253911405801773, 0.06543974578380585, 0.16955161094665527, -0.08688591420650482, 0.3658007085323334, 0.18710815906524658, 0.5602377653121948, -0.1603553593158722, 0.5370162725448608, 0.042036838829517365, -0.6648286581039429, -0.6518871784210205, 0.03920106589794159, 0.029289796948432922, -0.13572856783866882, 0.37381792068481445, -0.5050929188728333, 0.015474691987037659], [-0.7133722901344299, -0.6108303070068359, -0.15501800179481506, -0.18600398302078247, 0.5294457077980042, -0.5922272801399231, 0.04112038016319275, -0.18016450107097626, -0.3572954535484314, 0.29324209690093994, -0.06785072386264801, 0.31184282898902893, -0.575100839138031, 0.05917695537209511, 0.14457648992538452, -0.28108155727386475, 0.06970757991075516, 0.1573793590068817, -0.042099595069885254, -0.072883240878582, 0.39722293615341187, 0.06850975751876831, 0.09642747789621353, 0.3180694580078125, 0.4704556167125702, 0.45343202352523804, -0.03618481755256653, 0.2143217921257019, -0.05415770411491394, -0.12856990098953247, -0.4164544343948364, 1.2850416898727417], [0.05399863421916962, -0.09270933270454407, -0.4193492829799652, -0.19459164142608643, -0.12686097621917725, -0.0714951902627945, 0.013739436864852905, -0.03171152621507645, -0.24375249445438385, 0.11813309788703918, -0.32543545961380005, 0.4582293629646301, 0.1407400518655777, 0.21439436078071594, 0.6239258050918579, -0.211370587348938, -0.0017375973984599113, 0.025585245341062546, -0.47898024320602417, -0.28781992197036743, 0.0020505981519818306, -0.1154090166091919, -0.30988484621047974, 0.10532067716121674, -0.04609701782464981, 0.38783448934555054, 0.5395472645759583, -0.39213618636131287, 0.6436694264411926, 0.1317909061908722, 0.3206419348716736, -0.3004528880119324], [-0.015857234597206116, -0.19934871792793274, 0.3124726414680481, -0.15740829706192017, -0.03663107752799988, 0.06935179233551025, -0.335074245929718, 0.28851914405822754, -0.5277619957923889, -0.14172671735286713, 0.3379514217376709, 0.14991401135921478, -0.30639123916625977, -0.2663118243217468, -0.5976263284683228, -0.018971890211105347, 0.3010771870613098, 0.44184908270835876, 0.24929147958755493, -0.22206249833106995, -0.5677585005760193, 0.3670946955680847, -0.24612465500831604, 0.04259039834141731, 0.08843115717172623, -0.28999894857406616, 0.4593452513217926, -0.051424816250801086, 0.19631797075271606, 0.1777832806110382, 0.028542375192046165, -0.1884884536266327]], [[-0.5401723384857178, 0.6639061570167542, 0.027128256857395172, 0.015556669794023037, -0.35353922843933105, 0.2198575735092163, 0.23994077742099762, 0.6090646982192993, 0.011900156736373901, 0.14715972542762756, -0.035881608724594116, -0.6256078481674194, 0.46074193716049194, 0.3613812327384949, -0.2209436297416687, -0.5346604585647583], [0.25089555978775024, -0.25626614689826965, 0.3779686987400055, -0.6332842111587524, 0.0028385110199451447, -0.013288937509059906, -0.3084516227245331, -0.08130566775798798, 0.5920069217681885, -0.0008873865008354187, -0.7582064867019653, 0.1310792863368988, -0.6732166409492493, 0.41028738021850586, -0.17980962991714478, 0.7375401258468628], [0.4801146984100342, 0.253815621137619, -0.023965001106262207, -0.3117165267467499, 0.10193866491317749, -0.08867448568344116, 0.5641372203826904, -0.5626811981201172, -0.6986746788024902, -0.41788432002067566, 0.07289835065603256, -0.07336026430130005, -0.6452396512031555, 0.3527037799358368, -0.22268396615982056, 0.3863258361816406], [0.20708014070987701, -0.40484967827796936, -0.12908467650413513, -0.08426497131586075, 0.075924813747406, 0.03422088176012039, -0.07665786892175674, -0.08671648055315018, 0.23316529393196106, -0.32447147369384766, 0.03040887415409088, 0.3780270218849182, 0.04601859673857689, -0.739090621471405, -0.28986725211143494, 0.06500957906246185], [-0.48598459362983704, 0.04677153378725052, -0.2793794274330139, 0.0922919362783432, 0.03789985924959183, -0.49423280358314514, 0.01647992804646492, 0.21412986516952515, 0.4412633776664734, -0.17371374368667603, 0.021505478769540787, -0.812265157699585, 0.476739764213562, 0.5148496627807617, 0.3501710295677185, -0.22790369391441345], [0.6647112369537354, 0.25866809487342834, 0.1131763681769371, 0.16119541227817535, 0.07915163040161133, 0.24971407651901245, 0.46073153614997864, 0.06258821487426758, 0.19910620152950287, -0.27587032318115234, -0.058310337364673615, 0.41759350895881653, 0.4637996554374695, 0.04893745854496956, -0.7591135501861572, -0.06665439903736115], [0.6622267961502075, -0.06340616196393967, 0.33150461316108704, 0.4215949773788452, -0.22559551894664764, 0.06095154210925102, 0.6748258471488953, -0.14172156155109406, -0.143693208694458, 0.2829958200454712, -0.037377383559942245, 0.8270226120948792, -0.2920031249523163, 0.055216044187545776, 0.13297130167484283, -0.2124224305152893], [-0.09202519059181213, 0.20494432747364044, -0.3890324831008911, 0.1373080313205719, 0.27104923129081726, 0.10878385603427887, 0.6215593814849854, -0.2142818123102188, 0.4682014286518097, -0.13995420932769775, 0.09201725572347641, 0.25886937975883484, 0.6103773713111877, -0.03308675065636635, 0.2626307010650635, 0.022061556577682495]], [[0.29673928022384644, -0.32348543405532837, 0.2613719403743744, -0.3709908723831177, 0.3832886815071106, -0.3089190125465393, -0.15526443719863892, -0.6809861063957214], [-0.17759495973587036, -0.058213941752910614, 0.6658079624176025, 0.18431419134140015, -0.5043575763702393, -0.3030201196670532, -0.1832793951034546, -0.32745569944381714]]], "brain_biases": [[0.3238671123981476, -0.5187265872955322, 0.07428820431232452, -0.16764390468597412, 0.04687712341547012, 0.21562498807907104, -0.043057460337877274, 0.012976273894309998, -0.06658654659986496, -0.25219783186912537, -0.24565918743610382, -0.10584916919469833, -0.17085325717926025, 0.17008596658706665, -0.07694343477487564, 0.4635271430015564, 0.07061739265918732, 0.2704792618751526, -0.015895619988441467, -0.36860018968582153, -0.09507206082344055, -0.4325450658798218, 0.01497840415686369, -0.7099795937538147, 0.5073312520980835, -0.34338635206222534, -0.08051052689552307, 0.07434764504432678, -0.13025173544883728, 0.5695168375968933, 0.22886739671230316, 0.515088677406311], [0.12782832980155945, -0.06597620993852615, 0.16575181484222412, 0.032953500747680664, -0.19092810153961182, 0.20812970399856567, -0.515680193901062, -0.09400369971990585, -0.30069589614868164, -0.44141894578933716, 0.1456073373556137, -0.2721664309501648, 0.23656989634037018, -0.188348188996315, -0.18834254145622253, -0.13431686162948608], [0.19600538909435272, 0.03940839320421219, -0.1377578228712082, -0.10578997433185577, -0.36843323707580566, -0.2785819172859192, 0.18828555941581726, -0.009047284722328186], [0.49422603845596313, 0.28728756308555603]], "sensor_retina_count": 18, "sensor_vision_radius": 400.0, "sensor_fov_degrees": 120.0, "sensor_skip": 2, "sensor_see_food": false, "sensor_see_bacteria": true, "sensor_see_predators": false, "locomotion_max_speed": 400.0, "locomotion_max_turn": 3.141592653589793, "energy_loss_idle": 3.0, "energy_loss_move": 10.0, "energy_death_energy": 0.0, "energy_split_energy": 250.0, "last_brain_output": [1.7646784782409668, 0.09432081878185272], "last_brain_activations": [[0.3129993975162506, -0.4767166078090668, 0.07415185123682022, -0.16609084606170654, 0.04684281721711159, 0.212344229221344, -0.04303087294101715, 0.012975545600056648, -0.06648831069469452, -0.24698354303836823, -0.24083390831947327, -0.10545561462640762, -0.16921000182628632, 0.16846458613872528, -0.07679194957017899, 0.4329545497894287, 0.07050023972988129, 0.2640707492828369, -0.01589428074657917, -0.3527667224407196, -0.09478665143251419, -0.40744608640670776, 0.014977283775806427, -0.6106640100479126, 0.4678632616996765, -0.33049723505973816, -0.0803370252251625, 0.07421096414327621, -0.12952010333538055, 0.5150043964385986, 0.2249533236026764, 0.47390058636665344], [-0.7898150682449341, 0.48704957962036133, 0.3170170485973358, 0.04743027687072754, -0.13531413674354553, 0.46670153737068176, -0.3696478605270386, 0.5409377813339233, -0.40903201699256897, -0.013312000781297684, 0.09084063768386841, -0.7275466322898865, 0.22043706476688385, 0.06274405866861343, -0.4401993453502655, 0.21685169637203217], [0.9559956192970276, -0.3971666395664215, -0.5159263610839844, -0.6539535522460938, 0.17469972372055054, -0.5556793808937073, -0.8406158089637756, -0.5600603222846985], [1.7646784782409668, 0.09432081878185272]]}, {"type": "predator", "x": 4110.196295156278, "y": 8341.539371832017, "r": 14.0, "angle": 0.4616256174339939, "vx": 314.2701265377597, "vy": 156.3415499940909, "energy": 1.0638330092330874, "age": 243.44333333339623, "brain_sizes": [18, 32, 16, 8, 2], "brain_version": 7, "brain_weights": [[[0.08854324370622635, -0.27541476488113403, 0.2210794985294342, 0.3703247010707855, -0.05471749231219292, -0.3645019829273224, 0.0206344872713089, 0.6342619061470032, -0.597113311290741, -0.07631056755781174, -0.17012524604797363, -0.24952208995819092, 0.3036230802536011, -0.4275503158569336, 0.2376319169998169, 0.26390835642814636, -0.33803194761276245, 0.46976202726364136], [-0.1928367018699646, 0.30517667531967163, -0.026796549558639526, -0.13306166231632233, 0.3899451792240143, -0.4630415141582489, 0.0699271708726883, -0.5161133408546448, -0.06160321831703186, 0.10420684516429901, -0.23842744529247284, -0.030838340520858765, 0.257526695728302, -0.5279490947723389, 0.5905225276947021, 0.2444579005241394, 0.3299698233604431, 0.21017849445343018], [-0.21017029881477356, 0.3125985860824585, -0.5246648788452148, 0.06273284554481506, -0.11522749811410904, 0.248936265707016, 0.17218434810638428, -0.02697056531906128, -0.45820891857147217, -0.26567748188972473, -0.7634537220001221, -0.1299472153186798, 0.3230140507221222, 0.020823456346988678, 0.1237235963344574, 0.5662401914596558, 0.46689000725746155, -0.31900620460510254], [0.0885779932141304, -0.1067027598619461, 0.3826993703842163, -0.5039488077163696, -0.5784608125686646, 0.23082350194454193, 0.18651506304740906, -0.020147111266851425, -0.2708986699581146, -0.037955548614263535, -1.0378286838531494, 0.43744659423828125, 0.30298709869384766, 0.5420252084732056, 0.18343055248260498, 0.04965629428625107, -0.2608407139778137, -0.7348189949989319], [0.18074347078800201, 0.13656237721443176, -0.4587523937225342, -0.050332680344581604, -0.22632896900177002, 1.4203766584396362, -0.036155328154563904, 0.2341417670249939, -0.1830616295337677, -0.713345468044281, -0.057126931846141815, -0.38050177693367004, -0.426639586687088, 0.35419103503227234, -0.368968665599823, -0.1461361050605774, 0.3293476700782776, -0.052052319049835205], [0.016781624406576157, 0.5886997580528259, -0.20438341796398163, -0.015660332515835762, 0.12146063894033432, -0.32283487915992737, -0.2749847173690796, -0.408666729927063, 0.14898532629013062, -0.11916019022464752, 0.13391420245170593, 0.26880770921707153, -0.42435407638549805, -0.3822474181652069, -0.4897824823856354, 0.070738285779953, 0.08944147080183029, -0.23973391950130463], [-0.30432143807411194, -0.25631940364837646, 0.39009687304496765, 0.6749852895736694, 0.24506300687789917, 0.4008387327194214, 0.9176314473152161, 0.17723709344863892, -0.02220829576253891, 0.6592686772346497, 0.35400715470314026, 0.2902343273162842, 0.21658527851104736, -0.34605178236961365, -0.2153584361076355, 0.02544565498828888, -0.21564388275146484, -0.26796072721481323], [-0.6771968007087708, 0.2204819768667221, -0.2858758568763733, -0.1219032034277916, 0.3619396388530731, -0.15923842787742615, -0.18068747222423553, -0.20814022421836853, 0.6238895058631897, -0.2408074140548706, -0.08371688425540924, -0.1636238694190979, -0.24613133072853088, 0.06895734369754791, 0.26664483547210693, -0.013240661472082138, -0.5291712284088135, -0.09603817760944366], [0.578127920627594, 0.04711921140551567, -0.009198145940899849, 0.036062099039554596, -0.13663756847381592, 0.1426243633031845, 0.1595057249069214, 0.3865029215812683, -0.16159436106681824, 0.21319794654846191, 0.3928399980068207, 0.1119040995836258, -0.17960938811302185, 0.36840304732322693, 0.2930867671966553, 0.2813679277896881, -0.06949648261070251, 0.06110852211713791], [0.04903994873166084, -0.41092199087142944, 0.41107606887817383, 0.6419293284416199, -0.15382090210914612, 0.09105703979730606, -0.05181884765625, -0.7972948551177979, 0.16126585006713867, 0.3932194411754608, -0.13238605856895447, -0.0743258148431778, 0.31961220502853394, -1.1736583709716797, 0.7194693684577942, 0.04813198372721672, 0.3172495365142822, -0.0225816797465086], [-0.031034596264362335, -0.27729976177215576, -0.4200523793697357, 0.05488993227481842, -0.34833136200904846, -0.1507086604833603, 0.30896511673927307, -0.16988852620124817, -0.10936951637268066, 0.041685059666633606, -0.2940874695777893, 0.3580482602119446, 0.5627390742301941, -0.28372660279273987, 0.06254793703556061, -0.26049625873565674, -0.5525833964347839, -0.0003620460629463196], [-0.04745238646864891, -0.5282860994338989, -0.4255630373954773, -0.0401044636964798, -0.3013891875743866, 0.4250093102455139, 0.6885550022125244, 0.15701328217983246, 0.3192884624004364, -1.1475327014923096, 0.22687439620494843, 0.20119278132915497, -0.032564565539360046, 0.0586797297000885, -0.5455666184425354, 0.16832144558429718, 0.2285720407962799, -0.11040448397397995], [-0.009553621523082256, -0.12836827337741852, -0.5315073728561401, 0.25988584756851196, -0.1277036815881729, 0.09532494097948074, -0.23328335583209991, 0.39534062147140503, -0.12579461932182312, 1.0230778455734253, -0.036145418882369995, -0.10589820891618729, 0.11344227194786072, -0.3459591567516327, -0.2294466644525528, 0.34481072425842285, -0.4603061378002167, -0.6403742432594299], [-0.06975996494293213, 0.03791399300098419, 0.3410370349884033, -0.342852383852005, 0.20349657535552979, 0.23714429140090942, -0.006730031222105026, 0.6580180525779724, -0.15875524282455444, 0.5725200772285461, -0.2583916187286377, 0.24190175533294678, -0.1834588646888733, -0.5135250091552734, -0.47757068276405334, -0.07235442101955414, -0.4263378977775574, -0.3702477216720581], [0.5344677567481995, 0.0885302722454071, -0.2622425854206085, -0.2721104025840759, -0.08065809309482574, -0.6743824481964111, 0.11623086780309677, 0.2798047959804535, 0.6924590468406677, -0.007851507514715195, 0.5413240194320679, -0.02733187936246395, 0.04696551337838173, -0.5704518556594849, 0.5607357025146484, -0.17693385481834412, -0.2808654010295868, -0.494163453578949], [0.0976235419511795, -0.061071962118148804, -1.0785268545150757, 0.04917110502719879, 0.014294847846031189, 0.605840802192688, 0.6211287975311279, 0.040022045373916626, 0.1312638819217682, 0.23086771368980408, 0.2210112363100052, -0.30535757541656494, 0.5845330953598022, -0.07298165559768677, 0.1502372920513153, 0.43213096261024475, -0.4507111608982086, 0.5686787366867065], [0.21674326062202454, -0.5880208015441895, 0.14069180190563202, 0.11914096027612686, 0.23611995577812195, -0.38381898403167725, 0.5812028646469116, -0.047435641288757324, -0.48153719305992126, -0.09592675417661667, -0.24114811420440674, 0.19984488189220428, -0.2621539831161499, -0.291469931602478, -0.5618274807929993, -0.4523981213569641, 0.03565545752644539, -0.18519949913024902], [0.2790974974632263, -0.058345384895801544, 0.6365458965301514, 0.3453030586242676, -0.02959577366709709, -0.6009461879730225, -0.09399360418319702, 0.16528281569480896, -0.04296649247407913, -1.0872827768325806, -0.29738762974739075, -0.21670100092887878, 0.3196508586406708, 0.7088785171508789, 0.29018908739089966, 0.01570095494389534, -0.04320456087589264, -0.6385596990585327], [-0.3208954930305481, 0.31192415952682495, -0.31658437848091125, -0.5295791029930115, 0.004771333187818527, -0.3574523329734802, -0.3095952868461609, 0.11760614812374115, 0.9552845358848572, -0.19935983419418335, 0.8562348484992981, -0.49366044998168945, -0.2558213770389557, 0.15454864501953125, -0.5366612672805786, -0.1122235655784607, 0.24376904964447021, 0.1838817298412323], [0.6309381127357483, -0.2263735681772232, 0.8049910068511963, 0.12323307245969772, 0.22033676505088806, 0.44608932733535767, -0.1129702776670456, -0.62161785364151, -0.22785869240760803, 0.08918219804763794, -0.3587268590927124, 0.39831843972206116, -0.4291008412837982, 0.3916066884994507, 0.1797126829624176, 0.3559628427028656, 0.19337430596351624, 0.8749899864196777], [-0.38178539276123047, -0.14774714410305023, 0.11491481959819794, -0.2578524053096771, 0.3403264284133911, 0.4546586573123932, 0.4461308419704437, -0.36862730979919434, 0.08577458560466766, -0.06795638799667358, -0.5986406803131104, -0.2943228483200073, -0.29469290375709534, -0.04727538302540779, 0.125345379114151, 0.5235252380371094, 0.6367737650871277, -0.24415770173072815], [-0.10237342864274979, 0.3235357403755188, 0.1470736861228943, -0.08753132820129395, -0.12178459763526917, 0.244720458984375, 0.2258315533399582, -0.46898648142814636, 0.021971099078655243, 0.07857661694288254, 0.0790008157491684, -0.07684525847434998, 0.7398549914360046, 0.16458746790885925, -0.7436762452125549, -0.6860126256942749, 0.32277339696884155, -0.1905820518732071], [0.3662726581096649, 0.09858672320842743, 0.2649930417537689, 0.5539743900299072, 0.8080058097839355, -0.772580087184906, -0.2872442603111267, -0.1927836388349533, 0.2477646917104721, 0.15993548929691315, 0.6872225403785706, -0.49789953231811523, 0.00021938979625701904, -0.3824111521244049, -0.7995903491973877, 0.32456910610198975, -0.49383383989334106, 0.25446248054504395], [-0.2685747742652893, 0.30724868178367615, 0.07685382664203644, -0.3450098931789398, 0.30981457233428955, 0.3801022171974182, 0.6488781571388245, -0.04101172089576721, -0.2611108720302582, -0.43392109870910645, -0.4576314687728882, -0.2770959436893463, -0.4143674671649933, 0.19101396203041077, -0.056086763739585876, -0.49149033427238464, -0.0683315098285675, 0.26172128319740295], [0.2102956622838974, -0.04816484823822975, 0.7808113694190979, -0.10771892964839935, -0.6755163669586182, -0.03020475059747696, -0.010884270071983337, -0.6191131472587585, 0.0440543070435524, 0.27276700735092163, 0.023487143218517303, -0.21937033534049988, -0.14617474377155304, -0.30061447620391846, -0.11433978378772736, -0.4335358440876007, -0.08102218806743622, 0.6101822853088379], [0.21340249478816986, 0.042629219591617584, 0.4042850136756897, 0.331760048866272, -0.0019276216626167297, 0.23634487390518188, 0.09345550090074539, -0.36957645416259766, -0.42081353068351746, -0.2100096046924591, 0.19260698556900024, 0.031668901443481445, -0.5620933771133423, 0.15406186878681183, 0.5199415683746338, 0.2933359444141388, -0.029176371172070503, 0.49537527561187744], [0.03424268960952759, 0.18434636294841766, 0.3729638457298279, 0.20635440945625305, -0.08057291805744171, 0.020666364580392838, -0.14196684956550598, -0.15752862393856049, 0.28744155168533325, 0.25193965435028076, 0.9775624871253967, 0.07989432662725449, 0.010835528373718262, 0.08920510858297348, -0.2568660080432892, 0.15425603091716766, 0.2832432687282562, -0.5305728316307068], [0.16969572007656097, 0.41260746121406555, 0.2675136923789978, -0.38868218660354614, -0.07930504530668259, -0.24933847784996033, -0.3357009291648865, 0.04959643632173538, -0.15670374035835266, -0.12668384611606598, -0.7840750217437744, -0.07600768655538559, 0.4408159554004669, 0.12227822840213776, 0.18889456987380981, 0.3030351400375366, -0.30165016651153564, -0.2510894238948822], [-0.024326473474502563, -0.8770270347595215, 0.499654620885849, -0.05290649086236954, 0.13354088366031647, 0.6104521751403809, 0.36136311292648315, -0.0918167307972908, 0.5025492906570435, -0.03969627246260643, -0.304194837808609, 0.39216741919517517, -0.9515221118927002, -0.17325419187545776, 0.682924211025238, 0.25419577956199646, 0.5564584136009216, 0.872435450553894], [-0.2661244869232178, -0.34607428312301636, -0.17119139432907104, -0.10952284932136536, -0.04966210946440697, -0.6570718884468079, -1.0199339389801025, -0.014766156673431396, 0.05947886407375336, 0.48458409309387207, 0.2244594395160675, 0.8325178623199463, -0.0721573606133461, -0.06066890060901642, -0.07245238870382309, 0.3025471270084381, -0.5528150200843811, 0.023299816995859146], [-0.8553290963172913, -0.7573630809783936, -0.45790883898735046, 0.51173335313797, 0.4977417290210724, 0.6125609278678894, -0.07470597326755524, -0.038275204598903656, -0.0883709043264389, 0.6337133049964905, 0.4776974320411682, -0.3753790259361267, 0.3690120279788971, 0.0033323876559734344, -0.5575163960456848, 0.614467442035675, 0.07441404461860657, -0.15561838448047638], [-0.31045350432395935, 0.04192734137177467, 0.48538732528686523, 0.27669835090637207, 0.10226873308420181, 0.3865567743778229, 0.3727416694164276, -0.07560054212808609, 0.30306148529052734, -0.020063474774360657, -0.4354286789894104, 0.3684890866279602, 0.3071456551551819, -0.12814366817474365, 0.37458157539367676, 0.05134129524230957, -0.07982891798019409, 0.01848781108856201]], [[-0.7895180583000183, 0.21480868756771088, -0.7362905740737915, 0.4138626754283905, 0.23317644000053406, -0.28928515315055847, -0.944304883480072, 0.0005257278680801392, -0.035571951419115067, 0.011399013921618462, -0.13153627514839172, 0.021929994225502014, -0.034514352679252625, -0.06114621460437775, 0.500992476940155, -0.5322396755218506, -0.563281238079071, -0.1568157970905304, -0.23064839839935303, 0.15985223650932312, 0.3858543336391449, 0.4302423894405365, 0.1940431147813797, 0.0023730844259262085, -0.3772331476211548, -0.14686109125614166, 0.4028647840023041, -0.30786821246147156, 0.06720079481601715, -0.20916597545146942, 0.12951210141181946, -0.31803596019744873], [-0.0017988979816436768, 0.022850554436445236, 0.06746828556060791, 0.5602866411209106, -0.549138069152832, -0.3524697422981262, -0.044614195823669434, 0.20503081381320953, 0.19213905930519104, 0.2513360381126404, 0.4168584942817688, -0.355277419090271, -0.3387628197669983, 0.19476470351219177, 0.6283068656921387, 0.5185050964355469, -0.19409307837486267, -0.6383658647537231, -0.5785524845123291, -0.4538417160511017, -0.4202316403388977, -0.3485344648361206, -0.3513694405555725, -0.005559362471103668, 0.7119861841201782, -0.4657532274723053, -0.015892375260591507, -0.5208150148391724, 0.49485012888908386, 0.28808337450027466, -0.30737894773483276, 0.24612627923488617], [0.16386020183563232, -0.2800108790397644, 0.22179540991783142, 0.14510497450828552, 0.31221234798431396, 0.688477635383606, -0.19028796255588531, 0.3135402202606201, 0.20129558444023132, 0.2777152955532074, 0.07273896038532257, 0.0816323459148407, 0.31869572401046753, -0.1290116310119629, -0.059297461062669754, 0.2339511513710022, 0.07189048081636429, -0.2563238739967346, -0.399341881275177, -0.21189439296722412, 0.15626683831214905, 1.0806999206542969, 0.2813071012496948, 0.6462274193763733, 0.22706559300422668, -0.44382432103157043, 0.2754221260547638, -0.04481860250234604, 0.012603642418980598, 0.6129395961761475, -0.16523943841457367, 0.048853807151317596], [-0.49834078550338745, -0.03171071410179138, -0.5808380842208862, -0.6897533535957336, -0.11974205076694489, -0.09273244440555573, 0.24696823954582214, -0.3934703767299652, -0.05938798189163208, 0.9249858856201172, 0.03609772026538849, -0.43722984194755554, 0.6617043018341064, 0.08568641543388367, 0.3551894724369049, 0.09876538813114166, -0.34996405243873596, 0.054498493671417236, 0.02013590931892395, 0.39994189143180847, 0.1639573574066162, -0.035388827323913574, 0.6021082997322083, 0.48391109704971313, -0.07056533545255661, -0.034597352147102356, -0.30871134996414185, 0.03807738050818443, -0.28464746475219727, 0.008659712970256805, 0.5420680046081543, 0.10390880703926086], [-0.19231033325195312, -0.03979082405567169, -0.48822861909866333, 0.04309816285967827, -0.24338798224925995, 0.5585684180259705, 0.06691166758537292, -0.19669678807258606, 0.03025825321674347, -0.23601391911506653, 0.16143850982189178, -0.04855773597955704, -0.3485601544380188, -0.4512024521827698, 0.005292633548378944, 0.14743481576442719, -0.269966721534729, -0.12191874533891678, -0.05022173374891281, 0.18964506685733795, 0.6759809255599976, 0.004708342254161835, -0.4376980662345886, 0.23049049079418182, -0.4369827210903168, -0.14102819561958313, 0.2658061385154724, 0.26697900891304016, -0.056585751473903656, 0.34794890880584717, 0.09108103811740875, 0.22853218019008636], [0.11937400698661804, -0.16396136581897736, 0.6412677764892578, 0.06662364304065704, 0.14109832048416138, -0.05642169713973999, -0.5071451663970947, -0.8785346746444702, -0.03555034101009369, -0.07102549076080322, 0.033257707953453064, -0.00672324001789093, 0.09730987995862961, -0.09810055792331696, 0.2085578441619873, 0.0542709119617939, 0.27716657519340515, 0.24643990397453308, 0.15644340217113495, -0.1021428108215332, -0.07501190155744553, 0.20881174504756927, -0.4014800786972046, -0.4000496566295624, -0.34338515996932983, 0.2941347062587738, -0.509827196598053, -0.556922435760498, -0.1681971698999405, 0.041237473487854004, -0.5386034846305847, 0.2864565849304199], [-0.03555428981781006, 0.08512479066848755, 0.1266442835330963, 0.09594105184078217, -0.2195470929145813, -0.12360960245132446, -0.2620175778865814, 0.46998345851898193, -0.2066209763288498, -0.1151578426361084, -0.9935750961303711, -0.5265331268310547, 0.19897466897964478, 0.4564440846443176, 0.30545419454574585, -0.007205560803413391, 0.114689901471138, 0.06118560954928398, -0.33245447278022766, 0.637252688407898, 0.2116107940673828, 0.6734995245933533, 0.2456301748752594, -0.6164823174476624, 0.016706407070159912, -0.2073613554239273, -0.13668182492256165, -0.058242667466402054, 0.09599277377128601, -0.15787425637245178, -0.10242892801761627, 0.18524518609046936], [0.20327019691467285, 0.14860747754573822, -0.0848078727722168, -0.07533350586891174, 0.444275438785553, 0.30681338906288147, -0.02006322145462036, -0.14983145892620087, 0.20101478695869446, 1.6436399221420288, -0.4886268973350525, 0.22492356598377228, 0.3667629361152649, 0.045599907636642456, -0.010643482208251953, 0.19112661480903625, -0.41273730993270874, 0.6080535054206848, 0.3305584788322449, 0.22056451439857483, 0.2613557279109955, 0.023726508021354675, -0.025726497173309326, -0.2736356556415558, 0.26930055022239685, -0.09432586282491684, 0.13881976902484894, -0.23063181340694427, -0.6179778575897217, 0.36559930443763733, 0.4220808446407318, 0.015227900817990303], [-0.4943031072616577, 0.3016737103462219, 0.32908758521080017, -0.47512543201446533, -0.16559240221977234, 0.4913596212863922, -0.4378648102283478, 0.3477293848991394, 0.13068990409374237, 0.16028612852096558, -0.09419713914394379, 0.6351945996284485, -0.6420940160751343, 0.23752868175506592, 0.12104862928390503, -0.08562013506889343, -0.15716280043125153, 0.021961495280265808, 0.29939940571784973, 0.1412719488143921, -0.4558107256889343, 0.40752795338630676, 0.06650000810623169, 0.01874987781047821, 0.899759829044342, -0.052999868988990784, 0.5672630071640015, 0.02969948947429657, -0.45264729857444763, 0.2730746269226074, 0.025986798107624054, -0.35788124799728394], [0.19698527455329895, 0.13680920004844666, 0.3858987092971802, -0.09757602214813232, -0.09490998089313507, -0.06629586964845657, 0.23224568367004395, 0.007328465580940247, 0.09050637483596802, -0.26668938994407654, 0.12828217446804047, 0.20058339834213257, 0.09938725084066391, -0.04382844641804695, -0.018989168107509613, -0.35644274950027466, -0.012666773051023483, 0.21871218085289001, -0.07456088811159134, 0.13995759189128876, 0.19227933883666992, -0.5066804885864258, -0.13631334900856018, 0.06470276415348053, 0.17805147171020508, -0.3797129988670349, 0.494889497756958, 0.14776277542114258, -0.3682508170604706, -0.13585568964481354, -0.16170047223567963, 0.6580629944801331], [0.023437783122062683, 0.3871915936470032, 0.08133846521377563, -0.06049076467752457, 0.04622369259595871, -0.1922684907913208, -0.5477701425552368, 0.21214990317821503, 0.2817288339138031, -0.16066020727157593, -0.4670761823654175, 0.5336700677871704, 0.08825360238552094, -0.19116464257240295, -0.2152770459651947, -0.269866943359375, -0.03289307653903961, -0.04344112053513527, -0.09589105099439621, 0.18076172471046448, 0.3896593153476715, 0.24529993534088135, 0.27139192819595337, -0.058321330696344376, 0.07547987997531891, -0.7379879951477051, 0.20509517192840576, 0.28482162952423096, 0.37337154150009155, -0.10606835782527924, -0.25523531436920166, 0.09724032878875732], [-0.3089444637298584, 0.2715919017791748, 0.4831762909889221, 0.4451763331890106, -0.16135121881961823, -0.6665117144584656, -0.217166930437088, -0.2686631977558136, 0.1418931484222412, 0.2004922479391098, -0.14813119173049927, 0.1955331414937973, -0.3663092255592346, -0.4113725423812866, -0.4477248787879944, -0.3683714270591736, -0.399472177028656, -0.1289578080177307, 0.06556466221809387, 0.1276993751525879, 0.08561903238296509, -0.2626577317714691, 0.2935693860054016, 0.13503733277320862, 0.5096046328544617, 0.2583180367946625, -0.28794026374816895, -0.5798529386520386, 0.503574013710022, 0.01879080757498741, 0.40499475598335266, -0.39357537031173706], [0.4789307117462158, 0.12192033231258392, -0.38355880975723267, -0.9933237433433533, 0.2745600640773773, -0.49949780106544495, 0.13778522610664368, -0.5932371020317078, 0.13586556911468506, -0.10830913484096527, 0.004586078226566315, 0.009604111313819885, 0.1713477224111557, -0.0829925537109375, 0.10175380110740662, 0.06543974578380585, 0.02563418447971344, -0.06586834043264389, 0.1463545560836792, 0.18710815906524658, 0.5526922345161438, -0.22347061336040497, 0.4052203893661499, 0.028162958100438118, -0.7225043773651123, -0.7025501728057861, 0.03920106589794159, -0.19797436892986298, -0.13572856783866882, 0.20056311786174774, -0.5370904803276062, 0.2097918838262558], [-0.9373267889022827, -0.6108303070068359, -0.1104152649641037, -0.16252592206001282, 0.5294457077980042, -0.8105303645133972, 0.04112038016319275, -0.18016450107097626, -0.17026206851005554, 0.4109727144241333, -0.05714082345366478, 0.4810129404067993, -0.4575349688529968, 0.09731445461511612, 0.14457648992538452, -0.28108155727386475, 0.06970757991075516, 0.1573793590068817, -0.21099957823753357, -0.19780147075653076, 0.3956117630004883, 0.24424101412296295, -0.1275443136692047, 0.0377996563911438, 0.4272361397743225, 0.4889383018016815, -0.3150249421596527, 0.2198159545660019, -0.0976908728480339, -0.12856990098953247, -0.2824109196662903, 1.0322874784469604], [-0.08251215517520905, -0.09270933270454407, -0.4193492829799652, -0.063619464635849, -0.12686097621917725, -0.0714951902627945, 0.013739436864852905, -0.03171152621507645, -0.24375249445438385, 0.22428548336029053, -0.3652670383453369, 0.523809015750885, 0.26547548174858093, 0.03825521469116211, 0.5654177665710449, -0.28422844409942627, -0.0017375973984599113, 0.025585245341062546, -0.3952152132987976, -0.06483246386051178, -0.04876510426402092, -0.17696091532707214, -0.41840800642967224, 0.14371496438980103, -0.02628915011882782, 0.38783448934555054, 0.5395472645759583, -0.39794209599494934, 0.7049415707588196, 0.1317909061908722, 0.27502667903900146, -0.4231269955635071], [0.14580893516540527, -0.19934871792793274, 0.3124726414680481, 0.035361211746931076, -0.03663107752799988, 0.06935179233551025, -0.17528556287288666, 0.18409913778305054, -0.25261634588241577, -0.14172671735286713, 0.3379514217376709, -0.27066588401794434, -0.24185079336166382, -0.2282828837633133, -0.5219945907592773, -0.082194484770298, 0.21774522960186005, 0.3122011721134186, 0.24929147958755493, -0.22206249833106995, -0.5042898058891296, 0.22650408744812012, -0.24612465500831604, -0.1469937562942505, 0.08843115717172623, -0.012259166687726974, 0.6173588633537292, -0.08998823910951614, 0.11041510850191116, 0.22565165162086487, -0.11160236597061157, -0.275213360786438]], [[-0.5401723384857178, 0.5280928015708923, -0.06276266276836395, 0.015556669794023037, -0.44005346298217773, 0.23848477005958557, 0.1372876763343811, 0.6918684244155884, -0.05040040612220764, 0.1012730747461319, 0.06580987572669983, -0.6256078481674194, 0.46074193716049194, 0.25257399678230286, -0.2209436297416687, -0.5346604585647583], [0.3178028166294098, -0.30793407559394836, 0.5604434609413147, -0.564214825630188, -0.039366528391838074, 0.03203881159424782, -0.3084516227245331, -0.08896856009960175, 0.5059570670127869, 0.09039633721113205, -0.9181782603263855, 0.1310792863368988, -0.32548683881759644, 0.26321274042129517, -0.17980962991714478, 0.7375401258468628], [0.4102471172809601, 0.253815621137619, -0.2845519781112671, -0.19705042243003845, 0.10193866491317749, -0.07012294232845306, 0.4875553846359253, -0.5626811981201172, -0.6986746788024902, -0.6340563297271729, 0.02387847751379013, 0.0001636222004890442, -0.6452396512031555, 0.36243000626564026, -0.04069600999355316, 0.3863258361816406], [0.20708014070987701, -0.40484967827796936, -0.16199736297130585, -0.1774134784936905, 0.010567672550678253, 0.03422088176012039, -0.07665786892175674, 0.20491309463977814, 0.16256745159626007, -0.32447147369384766, 0.05719821900129318, 0.317387193441391, -0.3047221601009369, -0.5471978187561035, -0.23763839900493622, 0.13770326972007751], [-0.4473792016506195, 0.04677153378725052, -0.2793794274330139, 0.19429072737693787, 0.03789985924959183, -0.5783869028091431, -0.09942497313022614, 0.11983535438776016, 0.3959205150604248, -0.2681828439235687, 0.10809819400310516, -0.812265157699585, 0.7779589891433716, 0.5148496627807617, 0.19882306456565857, -0.20621836185455322], [0.6647112369537354, 0.25866809487342834, 0.1784398853778839, 0.17811790108680725, 0.07915163040161133, 0.24971407651901245, 0.4549737870693207, 0.05954858288168907, 0.26946553587913513, -0.49319618940353394, -0.058310337364673615, 0.41759350895881653, 0.43264496326446533, 0.04893745854496956, -0.7866904735565186, -0.1562291830778122], [0.7141164541244507, 0.048701293766498566, 0.33150461316108704, 0.4215949773788452, -0.22559551894664764, 0.4810749292373657, 0.6748258471488953, -0.14172156155109406, 0.1281510591506958, 0.353133887052536, -0.09082229435443878, 0.7807112336158752, -0.2920031249523163, 0.1348704844713211, 0.09523482620716095, -0.2124224305152893], [-0.07246257364749908, 0.04993501305580139, -0.3890324831008911, 0.26565712690353394, 0.27104923129081726, 0.10878385603427887, 0.48252251744270325, -0.16825610399246216, 0.5164893865585327, -0.13995420932769775, 0.02020808309316635, 0.30581146478652954, 0.7004537582397461, -0.08515255153179169, 0.5050691962242126, 0.022061556577682495]], [[0.29673928022384644, -0.26528382301330566, 0.39029863476753235, -0.4276016056537628, 0.3991323709487915, -0.4269251227378845, -0.43776029348373413, -0.6294124722480774], [-0.145077183842659, -0.2518954873085022, 0.7138280272483826, 0.11726254969835281, -0.7422637343406677, -0.2685689926147461, -0.1832793951034546, -0.24664801359176636]]], "brain_biases": [[0.5361701250076294, -0.45802223682403564, 0.07428820431232452, -0.17151856422424316, 0.04687712341547012, 0.2633683681488037, 0.0262688547372818, 0.012976273894309998, -0.009668320417404175, -0.2738891541957855, -0.22947846353054047, -0.06501772254705429, -0.17085325717926025, 0.14998389780521393, -0.08026406168937683, 0.4635271430015564, 0.07061739265918732, 0.3244466185569763, 0.07407472282648087, -0.3301142156124115, 0.16877028346061707, -0.23446279764175415, -0.2913919687271118, -0.4678272008895874, 0.45698124170303345, -0.16670233011245728, -0.14389337599277496, 0.018190909177064896, -0.10643510520458221, 0.37860235571861267, 0.07891620695590973, 0.40183722972869873], [0.12782832980155945, -0.07908477634191513, -0.12653550505638123, 0.032953500747680664, -0.19092810153961182, 0.20812970399856567, -0.7814677953720093, 0.022462934255599976, -0.30069589614868164, -0.2821294069290161, 0.2245306819677353, -0.2721664309501648, 0.3857108950614929, -0.16192391514778137, -0.18834254145622253, -0.16817449033260345], [0.19600538909435272, -0.10633698105812073, -0.037195540964603424, -0.15116015076637268, -0.36843323707580566, -0.2785819172859192, 0.11558244377374649, 0.03857160359621048], [0.49422603845596313, 0.3342469036579132]], "sensor_retina_count": 18, "sensor_vision_radius": 400.0, "sensor_fov_degrees": 120.0, "sensor_skip": 2, "sensor_see_food": false, "sensor_see_bacteria": true, "sensor_see_predators": false, "locomotion_max_speed": 400.0, "locomotion_max_turn": 3.141592653589793, "energy_loss_idle": 3.0, "energy_loss_move": 10.0, "energy_death_energy": 0.0, "energy_split_energy": 250.0, "last_brain_output": [1.9692108631134033, -0.03660431504249573], "last_brain_activations": [[0.4900834560394287, -0.4284709095954895, 0.07415185123682022, -0.16985619068145752, 0.04684281721711159, 0.257443368434906, 0.026262814179062843, 0.012975545600056648, -0.00966801866889, -0.2672399878501892, -0.2255333960056305, -0.06492625921964645, -0.16921000182628632, 0.14886929094791412, -0.08009213954210281, 0.4329545497894287, 0.07050023972988129, 0.3135220408439636, 0.07393953949213028, -0.318623423576355, 0.1671859472990036, -0.23025885224342346, -0.28341546654701233, -0.4364420473575592, 0.42762064933776855, -0.16517511010169983, -0.14290840923786163, 0.018188903108239174, -0.10603500157594681, 0.3614930808544159, 0.0787527933716774, 0.3815198838710785], [-0.8965239524841309, 0.31056657433509827, -0.07403580099344254, -0.6678159236907959, -0.051824603229761124, 0.5810652375221252, -0.5735563635826111, 0.4374546408653259, -0.3105330467224121, 0.1133350357413292, -0.05887553468346596, -0.7841225862503052, 0.4342042803764343, -0.07536055892705917, -0.5975083708763123, 0.11995577812194824], [0.9630654454231262, -0.15258654952049255, -0.6850539445877075, -0.42287448048591614, 0.3294261693954468, -0.6902053356170654, -0.9467399716377258, -0.6270683407783508], [1.9692108631134033, -0.03660431504249573]]}, {"type": "predator", "x": 5627.9566714699085, "y": 4338.870992799643, "r": 14.0, "angle": 0.6693912761610961, "vx": 275.5560266082438, "vy": 218.03752324717152, "energy": 12.356853686729497, "age": 243.09208333339632, "brain_sizes": [18, 32, 16, 8, 2], "brain_version": 4, "brain_weights": [[[0.05286493897438049, -0.11404822766780853, 0.3221878111362457, 0.31811338663101196, -0.03035842441022396, -0.3645019829273224, 0.0206344872713089, 0.6342619061470032, -0.31211185455322266, -0.07631056755781174, -0.17012524604797363, -0.229159876704216, 0.43809622526168823, -0.453350305557251, 0.31692206859588623, 0.18688729405403137, -0.11875936388969421, 0.44184598326683044], [-0.1928367018699646, 0.38564199209213257, -0.25647634267807007, -0.13306166231632233, 0.2826012670993805, -0.4630415141582489, 0.0699271708726883, -0.30463653802871704, -0.06251762807369232, 0.18315017223358154, -0.23842744529247284, -0.030838340520858765, 0.26876091957092285, -0.5279490947723389, 0.5905225276947021, 0.4760696589946747, 0.312927782535553, 0.21017849445343018], [-0.15004530549049377, 0.4452642798423767, -0.6238163113594055, 0.17563730478286743, -0.11522749811410904, 0.2589028775691986, 0.17218434810638428, 0.15563121438026428, -0.45820891857147217, -0.2345457524061203, -0.5848745107650757, -0.1299472153186798, 0.3230140507221222, 0.20248955488204956, 0.07902997732162476, 0.5876936912536621, 0.39847350120544434, -0.36159196496009827], [0.07386434078216553, -0.1067027598619461, 0.6119565367698669, -0.5039488077163696, -0.45189619064331055, 0.3380512595176697, 0.347021222114563, 0.018811147660017014, -0.28508803248405457, -0.037955548614263535, -1.045582890510559, 0.43744659423828125, 0.30298709869384766, 0.5768184065818787, 0.18343055248260498, 0.04965629428625107, -0.2608407139778137, -0.70889812707901], [0.18074347078800201, 0.18572580814361572, -0.275714635848999, -0.19006562232971191, -0.2733224630355835, 1.2364819049835205, 0.10480676591396332, 0.2341417670249939, -0.1830616295337677, -0.713345468044281, -0.057126931846141815, -0.38050177693367004, -0.20146922767162323, 0.369735985994339, -0.17454616725444794, -0.1461361050605774, 0.3293476700782776, 0.009018126875162125], [0.016781624406576157, 0.5886997580528259, -0.17397797107696533, -0.004079733043909073, 0.12146063894033432, -0.6848040223121643, -0.11264382302761078, -0.408666729927063, 0.14898532629013062, -0.24212679266929626, 0.13391420245170593, 0.26880770921707153, -0.16785728931427002, -0.37809234857559204, -0.507529079914093, 0.070738285779953, 0.08944147080183029, -0.23973391950130463], [-0.28627705574035645, -0.25631940364837646, 0.36845481395721436, 0.6749852895736694, 0.24506300687789917, 0.5216898918151855, 0.94831383228302, 0.17723709344863892, -0.0025361329317092896, 0.6592686772346497, 0.3300999701023102, 