{"version": 2, "timestamp": "20250906_215303", "params": {"time_scale": 10.0, "fps": 60.0, "paused": true, "use_spatial": true, "substrate_shape": "rectangular", "world_w": 5000.0, "world_h": 5000.0, "substrate_radius": 5000.0, "max_deaths_per_step": 5, "retina_skip": 2, "retina_vision_mode": "fullbody", "simple_render": false, "reuse_spatial_grid": true, "food_target": 200, "food_min_r": 8.0, "food_max_r": 10.0, "food_replenish_interval": 0.1, "bacteria_count": 100, "bacteria_min_r": 6.0, "bacteria_max_r": 12.0, "bacteria_min_limit": 20, "bacteria_max_limit": 400, "bacteria_initial_energy": 100.0, "bacteria_death_energy": 0.0, "bacteria_split_energy": 200.0, "bacteria_metab_v0_cost": 3.0, "bacteria_metab_vmax_cost": 6.0, "bacteria_energy_cap": 200.0, "bacteria_body_size": 9.0, "bacteria_max_speed": 300.0, "bacteria_max_turn": 3.141592653589793, "bacteria_vision_radius": 180.0, "bacteria_vision_mode": "frontal", "bacteria_retina_count": 18, "bacteria_retina_fov_degrees": 180.0, "bacteria_show_vision": true, "bacteria_retina_see_food": true, "bacteria_retina_see_bacteria": false, "bacteria_retina_see_predators": true, "bacteria_hidden_layers": 3, "bacteria_neurons_layer_1": 32, "bacteria_neurons_layer_2": 16, "bacteria_neurons_layer_3": 8, "bacteria_neurons_layer_4": 20, "bacteria_neurons_layer_5": 0, "bacteria_mutation_rate": 0.1, "bacteria_mutation_strength": 0.1, "bacteria_structural_jitter": 0, "predators_enabled": true, "predator_count": 1, "predator_min_r": 10.0, "predator_max_r": 18.0, "predator_min_limit": 1, "predator_max_limit": 100, "predator_initial_energy": 100.0, "predator_death_energy": 100.0, "predator_split_energy": 400.0, "predator_metab_v0_cost": 10.0, "predator_metab_vmax_cost": 15.0, "predator_energy_cap": 400.0, "predator_body_size": 30.0, "predator_max_speed": 300.0, "predator_max_turn": 3.141592653589793, "predator_vision_radius": 500.0, "predator_vision_mode": "frontal", "predator_retina_count": 18, "predator_retina_fov_degrees": 120.0, "predator_show_vision": false, "predator_retina_see_food": false, "predator_retina_see_bacteria": true, "predator_retina_see_predators": false, "predator_hidden_layers": 3, "predator_neurons_layer_1": 32, "predator_neurons_layer_2": 16, "predator_neurons_layer_3": 8, "predator_neurons_layer_4": 0, "predator_neurons_layer_5": 0, "predator_mutation_rate": 0.1, "predator_mutation_strength": 0.1, "predator_structural_jitter": 0, "agents_inertia": 1.0, "show_selected_details": true, "substrate_bg_color": [18, 7, 53], "food_color": [50, 100, 0], "bacteria_color": [173, 115, 0], "predator_color": [154, 0, 0], "disable_brain_activations": false, "auto_export_substrate": true, "auto_export_interval_minutes": 10.0}, "ui_params": {"time_scale": 10.0, "fps": 60, "paused": true, "use_spatial": true, "retina_skip": 2, "retina_vision_mode": "fullbody", "simple_render": false, "reuse_spatial_grid": true, "agents_inertia": 1.0, "show_selected_details": true, "enable_brain_activations": true, "auto_export_substrate": true, "auto_export_interval_minutes": 10.0, "food_target": 200, "food_min_r": 8.0, "food_max_r": 10.0, "food_replenish_interval": 0.1, "world_w": 5000.0, "world_h": 5000.0, "substrate_shape": "rectangular", "substrate_radius": 5000.0, "bacteria_count": 100, "bacteria_min_limit": 20, "bacteria_max_limit": 400, "bacteria_initial_energy": 100.0, "bacteria_death_energy": 0.0, "bacteria_split_energy": 200.0, "bacteria_metab_v0_cost": 3.0, "bacteria_metab_vmax_cost": 6.0, "bacteria_energy_cap": 200.0, "bacteria_body_size": 9.0, "bacteria_vision_radius": 180.0, "bacteria_retina_count": 18, "bacteria_retina_fov_degrees": 180.0, "bacteria_max_speed": 300.0, "bacteria_max_turn_deg": 180.0, "bacteria_hidden_layers": 3, "bacteria_neurons_layer_1": 32, "bacteria_neurons_layer_2": 16, "bacteria_neurons_layer_3": 8, "bacteria_neurons_layer_4": 20, "bacteria_neurons_layer_5": 0, "bacteria_mutation_rate": 0.1, "bacteria_mutation_strength": 0.1, "bacteria_show_vision": true, "bacteria_retina_see_food": true, "bacteria_retina_see_bacteria": false, "bacteria_retina_see_predators": true, "predators_enabled": true, "predator_count": 1, "predator_min_limit": 1, "predator_max_limit": 100, "predator_initial_energy": 100.0, "predator_death_energy": 100.0, "predator_split_energy": 400.0, "predator_metab_v0_cost": 10.0, "predator_metab_vmax_cost": 15.0, "predator_energy_cap": 400.0, "predator_body_size": 30.0, "predator_vision_radius": 500.0, "predator_retina_count": 18, "predator_retina_fov_degrees": 120.0, "predator_max_speed": 300.0, "predator_max_turn_deg": 180.0, "predator_hidden_layers": 3, "predator_neurons_layer_1": 32, "predator_neurons_layer_2": 16, "predator_neurons_layer_3": 8, "predator_neurons_layer_4": 0, "predator_neurons_layer_5": 0, "predator_mutation_rate": 0.1, "predator_mutation_strength": 0.1, "predator_retina_see_food": false, "predator_retina_see_bacteria": true, "predator_retina_see_predators": false, "predator_show_vision": false, "test_param_1": 1, "test_param_2": 2, "test_param_3": 3.0, "test_param_4": 4, "test_param_5": 5, "test_param_6": 6.0, "test_param_7": 7, "test_param_8": 8, "test_param_9": 9.0, "test_param_10": 10, "test_param_11": 11, "test_param_12": 12.0, "test_param_13": 13, "test_param_14": 14, "test_param_15": 15.0, "test_param_16": 16, "test_param_17": 17, "test_param_18": 18.0, "test_param_19": 19, "test_param_20": 20, "test_param_21": 21.0, "test_param_22": 22, "test_param_23": 23, "test_param_24": 24.0, "test_param_25": 25, "test_param_26": 26, "test_param_27": 27.0, "test_param_28": 28, "test_param_29": 29, "test_param_30": 30.0}, "world": {"width": 5000.0, "height": 5000.0, "shape": "rectangular", "radius": 5000.0}, "camera": {"x": -2578.7593234237297, "y": -1093.3176603542975, "zoom": 0.14420993610650873}, "simulation": {"total_simulation_time": 850924.1722004666}, "food": {"count": 199, "target": 200}, "agents": [{"type": "bacteria", "x": 1158.965511293203, "y": 4236.21483961158, "r": 9.0, "angle": -0.6588897769317501, "vx": 237.20047368296412, "vy": -183.67084743517313, "energy": 1.6920437274054985, "age": 80.71633333332998, "brain_sizes": [18, 32, 16, 8, 2], "brain_version": 32165, "brain_weights": [[[-6.214857578277588, 4.574948787689209, 6.003746509552002, -0.8940415382385254, -2.731886386871338, 9.705972671508789, 7.023656368255615, -3.1491079330444336, 0.009939834475517273, 6.985601902008057, -4.428250789642334, -6.501636981964111, 5.241356372833252, -5.224093437194824, -9.050253868103027, -9.305377006530762, -0.9916374683380127, -4.181610107421875], [-2.0484907627105713, 2.5110206604003906, -5.441094875335693, 12.807969093322754, -15.834322929382324, -3.5457191467285156, 1.6918818950653076, 0.04002481698989868, -9.1079683303833, 7.421010494232178, -0.7145261764526367, -5.850666046142578, 0.5593533515930176, -2.411985158920288, -2.876969814300537, 8.213377952575684, -3.5552892684936523, 7.19716215133667], [3.229501724243164, -3.510068893432617, 10.64961051940918, -1.7255269289016724, -1.570002794265747, -8.568180084228516, 8.404314994812012, -1.6072347164154053, -1.7105647325515747, 2.0311708450317383, -0.1672491431236267, -4.945397853851318, 2.227628231048584, 4.96532678604126, -9.782670974731445, -0.28397560119628906, -6.9163713455200195, -3.1268603801727295], [1.6965270042419434, -9.060171127319336, -6.091341018676758, 9.672355651855469, -5.817346096038818, 2.466600179672241, -3.2408673763275146, -9.956273078918457, -2.3390164375305176, 6.120513916015625, -5.4824628829956055, 6.633845329284668, -0.46877622604370117, -4.805624961853027, -4.461853981018066, -11.502182006835938, -1.8642585277557373, 1.137054681777954], [-1.6369229555130005, -5.691556453704834, 1.2123967409133911, -9.930364608764648, -17.689552307128906, -1.7369248867034912, 4.107450485229492, -3.1487016677856445, -15.422772407531738, -0.7154368162155151, 2.591745138168335, 4.5267438888549805, 6.026412010192871, -5.188172817230225, -0.5135147571563721, 9.758549690246582, 8.168793678283691, -8.508920669555664], [12.730506896972656, 2.741300582885742, 9.585761070251465, 6.93447208404541, -5.233860492706299, -3.4124321937561035, 9.220017433166504, -7.546127796173096, -6.70290994644165, 3.8183882236480713, -5.121190071105957, 2.2277140617370605, 6.698116779327393, -4.231394290924072, 1.7779675722122192, -9.452117919921875, -1.5034782886505127, -4.027421474456787], [-4.677331924438477, 12.181973457336426, -5.600854873657227, 9.181680679321289, -11.032489776611328, -3.0342659950256348, -4.16621732711792, -1.450751781463623, 7.775729656219482, 4.402791500091553, 11.78979206085205, -4.250519275665283, -4.139159202575684, 1.9967339038848877, 2.0832717418670654, -0.5997254848480225, -1.158496379852295, -5.358584880828857], [-4.7428436279296875, 7.383368968963623, 6.37239933013916, 13.661843299865723, -1.9628444910049438, 2.295872211456299, 11.075838088989258, 1.1427321434020996, 5.375514984130859, 8.027243614196777, -12.21749210357666, 0.30332911014556885, -2.3405380249023438, 3.887118339538574, 4.509406089782715, -8.43483829498291, -1.6073569059371948, -1.4491899013519287], [-0.7889916896820068, 0.08166266977787018, -3.9600307941436768, 2.209040641784668, 0.731182873249054, 8.617652893066406, -0.3837818503379822, -2.1471545696258545, -1.9393856525421143, -3.555461883544922, -1.365014910697937, 0.5949040055274963, 10.52669620513916, 10.336319923400879, -7.491281986236572, 3.3551268577575684, 2.9809718132019043, 6.5701751708984375], [0.9671837687492371, -8.170238494873047, 10.309587478637695, 1.4600980281829834, 0.14952731132507324, -2.063426971435547, 1.8022055625915527, 2.0699515342712402, 10.045538902282715, 2.121250629425049, 0.8614197969436646, 4.6963605880737305, -0.12860870361328125, -0.5217872858047485, 0.5699734687805176, 9.134061813354492, -0.790830671787262, 1.512592077255249], [9.759157180786133, 6.044532775878906, 2.775357246398926, 2.9837071895599365, 5.913996696472168, 0.11243807524442673, 6.727137088775635, 0.6498023867607117, -1.1651322841644287, -2.9233455657958984, 1.8890800476074219, -4.669985771179199, -0.9995932579040527, -3.6164937019348145, -5.5932793617248535, 6.969309329986572, 6.106706142425537, 1.2307417392730713], [-4.787461757659912, 1.253534197807312, 2.342446804046631, 1.6097631454467773, -1.7530745267868042, -0.6237468123435974, -9.413932800292969, -1.084430456161499, 1.0029865503311157, -6.300479888916016, 0.4356331527233124, 7.368311882019043, 0.7171823382377625, -0.5837696194648743, 0.03258690983057022, -4.2834553718566895, 3.3226943016052246, 4.403731346130371], [0.7477363348007202, 0.4538739323616028, -2.424942970275879, -1.0101184844970703, -5.104201316833496, 0.2749631106853485, -6.7151713371276855, 1.0871036052703857, -3.5103559494018555, -1.4787882566452026, -4.585680961608887, 3.2678842544555664, 7.517665386199951, 0.02562132477760315, -5.467860698699951, 0.010179102420806885, 0.22510816156864166, -0.1517738401889801], [7.541009902954102, 1.625853180885315, -5.600850582122803, -10.202991485595703, 1.293923020362854, 2.5308029651641846, -2.135730028152466, 2.429561138153076, -7.138305187225342, -10.354781150817871, -3.1724298000335693, -3.2078258991241455, -7.484418869018555, -2.071805000305176, 7.133984565734863, 12.533563613891602, 2.6831905841827393, -1.107787847518921], [-4.331825256347656, -3.283385753631592, 6.381497383117676, 4.000637054443359, 7.818333625793457, -1.0884636640548706, -1.5272128582000732, 0.35819360613822937, -0.9174922108650208, -14.13945484161377, 0.5854724645614624, -3.518512010574341, -2.6873345375061035, 7.74045991897583, 1.2467490434646606, -1.9172807931900024, 4.405496597290039, -10.151472091674805], [-14.597161293029785, -7.53519344329834, 2.283874034881592, 6.660225868225098, 2.655277967453003, 1.4387106895446777, 2.9070353507995605, -5.6295552253723145, 7.096405029296875, -4.603184700012207, -4.040878772735596, -4.050299167633057, -6.381744861602783, -3.316962480545044, -14.816959381103516, -11.659690856933594, 0.09812208265066147, -2.447612762451172], [0.986462414264679, 0.5384565591812134, 13.785961151123047, -0.9870004057884216, -2.513657331466675, -0.8951994180679321, 4.078004837036133, -0.21024984121322632, -6.0858917236328125, -6.01713752746582, 5.117855548858643, -4.292483806610107, 0.08614658564329147, -9.075543403625488, 5.177598476409912, 1.775061845779419, -2.706383228302002, -0.13883070647716522], [6.218493461608887, -6.9764838218688965, -3.393982410430908, -12.195419311523438, -4.370792865753174, -6.183311462402344, -3.757814407348633, 0.3419680893421173, -9.906865119934082, 8.40109920501709, -6.251917839050293, 5.076546669006348, 4.789389133453369, -3.328176736831665, -1.7265499830245972, -13.32906723022461, -7.806647777557373, -6.31955623626709], [12.69221019744873, 9.717036247253418, 1.2150472402572632, -7.148974418640137, 6.093636989593506, -2.0940985679626465, 1.5180824995040894, -3.1082112789154053, 3.0309581756591797, 1.1183470487594604, -2.545013904571533, -12.632575988769531, -2.7836503982543945, -8.642664909362793, -9.47290325164795, -1.3238518238067627, -4.992086887359619, -1.5793578624725342], [-4.124502182006836, 4.023521900177002, -2.5602080821990967, -1.3722344636917114, 5.223607540130615, 6.622286319732666, 8.481059074401855, 4.081839084625244, -0.3765379786491394, 0.0039274245500564575, -17.36748504638672, 9.486390113830566, 4.796177864074707, -2.899536371231079, -0.5020644068717957, 9.819397926330566, -1.4195321798324585, 11.937331199645996], [6.969025611877441, 4.519137382507324, 3.691189765930176, -1.5368255376815796, -3.1680805683135986, -10.52861213684082, -1.030715823173523, -0.6785096526145935, 7.6580095291137695, -7.381198883056641, -5.972261905670166, 0.5745848417282104, -13.300396919250488, -3.08058762550354, 10.737227439880371, 4.237392425537109, 0.3556755483150482, -8.696688652038574], [5.487576961517334, 3.3268489837646484, -10.515483856201172, 1.0143718719482422, 5.0019307136535645, -10.886534690856934, -5.422114372253418, -3.5932984352111816, 2.19394588470459, 7.776802062988281, 4.6867499351501465, -0.45643794536590576, 2.229834794998169, 3.561936855316162, 2.445070505142212, -0.38698503375053406, 1.2554229497909546, 0.4166301488876343], [-5.669534683227539, -1.5568201541900635, 2.9888904094696045, -5.797886848449707, 1.6402000188827515, 12.939981460571289, -6.605151653289795, 4.440695762634277, -0.6971797347068787, 8.668023109436035, -3.9361236095428467, -5.877673625946045, 4.486330986022949, 2.049543619155884, -0.9019117951393127, 0.2503296136856079, 6.740390300750732, -1.1057844161987305], [-3.151742935180664, -5.799864292144775, 1.1481292247772217, 2.5114548206329346, -9.93306827545166, -3.2471511363983154, -8.970212936401367, 0.024469241499900818, 5.074184417724609, -0.5325881838798523, -4.842217922210693, 0.5528742671012878, 4.836212158203125, 5.303786277770996, 4.336490154266357, -6.097581386566162, -0.09217596054077148, 15.706066131591797], [0.18028318881988525, -2.710618019104004, -3.4016664028167725, 6.3962554931640625, -10.872190475463867, -0.33622634410858154, 1.8778843879699707, -1.4932538270950317, 1.2945690155029297, 5.375692367553711, -10.239910125732422, -0.30689966678619385, -2.9547176361083984, 6.564802169799805, -1.0687131881713867, 0.7069059014320374, 3.1711318492889404, -0.8911150693893433], [0.00988949928432703, 0.2679867446422577, 0.1355690062046051, -7.492987632751465, 4.741731643676758, 3.467871904373169, 5.1183295249938965, 13.728809356689453, 0.23613271117210388, 1.1024137735366821, 0.12679289281368256, -5.599313735961914, -1.4122878313064575, 3.423577308654785, 7.135101318359375, 10.680469512939453, 0.009272456169128418, 0.7452815175056458], [2.6053686141967773, 6.177695274353027, -0.8016805648803711, -2.3078877925872803, -1.9960062503814697, 4.8612775802612305, -10.258770942687988, -1.7328993082046509, 1.15183424949646, -1.2413878440856934, -0.6200973987579346, -5.021678447723389, -12.326202392578125, -4.26739501953125, -1.3705466985702515, -4.570761680603027, -3.17529559135437, -10.203313827514648], [2.147010087966919, -0.21019791066646576, 4.409019947052002, -7.631724834442139, 3.0365912914276123, 12.36393928527832, 6.448929309844971, -3.940599203109741, -5.545087814331055, -3.592045783996582, -1.1967405080795288, 6.6770405769348145, 0.3954808712005615, 7.887129783630371, -3.2012970447540283, -8.243375778198242, -10.17481803894043, -7.477894306182861], [-0.5290213823318481, -3.5912158489227295, -0.8912582397460938, -1.11412513256073, -0.9013382196426392, 2.6556060314178467, 12.440943717956543, 1.2959301471710205, 2.400240898132324, 6.054958343505859, -2.298926591873169, -10.001348495483398, 2.82957124710083, -3.383871078491211, -5.475072383880615, -4.0468549728393555, 10.791830062866211, -2.3337366580963135], [1.3381073474884033, 3.094503164291382, -9.382226943969727, -4.549783706665039, -1.858195185661316, 6.1812334060668945, 1.8305643796920776, 7.628853797912598, 3.721529245376587, -7.096900463104248, 4.826148509979248, -2.4367706775665283, -0.3394314646720886, 1.765704870223999, 2.588912010192871, 7.68798303604126, 11.22995376586914, -4.1865081787109375], [5.52290153503418, 8.788032531738281, 4.4754133224487305, -8.144775390625, 5.365319728851318, 2.3264944553375244, -7.2590131759643555, -2.8528213500976562, 2.8479697704315186, -0.8674283027648926, 3.0531301498413086, -0.6833694577217102, 15.392455101013184, 2.8003017902374268, -1.9704914093017578, 2.6990113258361816, 7.81295108795166, -1.9544302225112915], [-3.7784833908081055, -8.693816184997559, -1.0957517623901367, 2.2481584548950195, -6.170717716217041, 1.840455412864685, -1.4824117422103882, -11.617700576782227, -5.037839889526367, -0.3819534480571747, 5.122741222381592, -0.9161376953125, 0.030984587967395782, 0.2966790795326233, -2.193110466003418, -3.060837745666504, 0.8506584167480469, -3.6444091796875]], [[-3.910759687423706, 6.233537197113037, -1.0327001810073853, -1.5905637741088867, -9.464248657226562, -12.077380180358887, -6.112473964691162, 9.330772399902344, 0.37781640887260437, 14.753987312316895, 8.53657341003418, -2.6231138706207275, 3.834432601928711, 1.0883018970489502, -3.07171368598938, -4.048867702484131, 1.650107502937317, -0.8471537828445435, 1.4844893217086792, -9.650952339172363, -9.443300247192383, 4.747316837310791, -0.4231143593788147, 0.10394487529993057, 4.427253246307373, 5.269935131072998, 3.4495835304260254, -0.4993140697479248, -2.2458655834198, -5.701148986816406, 8.375670433044434, 4.429341793060303], [0.5691530108451843, 0.5165438652038574, 4.854187488555908, 1.6848766803741455, -4.371842384338379, 4.735793590545654, -0.6261122226715088, 7.482771873474121, -0.6006496548652649, 3.167229175567627, 11.987970352172852, -5.405690670013428, -12.027831077575684, -0.08969353139400482, 4.940805912017822, 3.3431811332702637, -4.726457595825195, 4.263087749481201, 10.27055835723877, 2.178910732269287, 9.347823143005371, 2.3814022541046143, 3.5755515098571777, -6.9624714851379395, 0.7189893126487732, -3.064347982406616, 3.6288259029388428, 4.387814521789551, 1.0458542108535767, 0.894663393497467, 3.622830629348755, 1.720619797706604], [8.409507751464844, -8.242277145385742, 1.709761619567871, 0.5568275451660156, 5.144044399261475, 7.4386186599731445, 2.392667293548584, 10.281455993652344, 7.883807182312012, 10.652396202087402, -2.5921244621276855, -4.981967926025391, -2.380312442779541, -1.4653862714767456, 4.458690166473389, 5.694387435913086, -0.6969332695007324, 0.9289780259132385, 5.314369201660156, 3.47403883934021, -4.0100202560424805, 1.3714004755020142, -14.53155517578125, 7.050577163696289, -13.324610710144043, 0.5324553847312927, 4.24555778503418, 0.5281884074211121, -3.765437602996826, 10.448493003845215, 10.40388298034668, -0.1483120173215866], [-18.53118896484375, -7.935872554779053, -0.2864489257335663, 3.283911943435669, 2.4916019439697266, -4.785627841949463, 3.8681509494781494, -5.751046180725098, 1.0845917463302612, 5.3263044357299805, -3.400066614151001, 5.4484968185424805, 2.382213830947876, 0.15542013943195343, -1.440285086631775, 6.971429824829102, -0.6038286685943604, 4.110617160797119, 6.2739176750183105, -6.882001876831055, 6.197795867919922, -0.898237407207489, -3.11989164352417, -2.680584669113159, 7.891051292419434, 1.2046459913253784, -0.7031154632568359, 0.09208851307630539, 7.274038314819336, 7.1681904792785645, -5.792604446411133, 1.0774732828140259], [-2.678309202194214, -2.013612747192383, 3.150381565093994, 2.46453595161438, 4.628152370452881, 2.013901710510254, -4.321098327636719, 9.235862731933594, 4.430606842041016, -7.669201374053955, -11.330782890319824, 5.000881671905518, -0.16475269198417664, 3.594503879547119, 2.1044275760650635, 10.589828491210938, -3.3731606006622314, -9.584705352783203, -5.393555641174316, 6.24906587600708, 7.949251174926758, 2.291752338409424, 8.202604293823242, 1.871348261833191, 5.112447261810303, 8.465938568115234, -1.7767722606658936, 0.18691124022006989, -6.835601329803467, -6.2761945724487305, 6.799973011016846, -3.4280993938446045], [3.357844829559326, 0.893235445022583, -2.633676767349243, -8.355491638183594, 11.739781379699707, -0.46004295349121094, -2.405141830444336, -0.8089809417724609, 6.847984313964844, 1.514908790588379, 1.9099868535995483, -5.102560997009277, -7.704048156738281, -2.0217888355255127, -1.389434814453125, 10.446818351745605, -12.720203399658203, 5.793905258178711, -1.324654221534729, 1.1059545278549194, -9.113008499145508, 0.7270801067352295, 0.6451422572135925, 4.442419052124023, 7.703686237335205, -8.629712104797363, 3.0393905639648438, 3.988028049468994, -10.5097074508667, 3.3401029109954834, 5.746862411499023, -6.4643940925598145], [4.474783897399902, 1.9296598434448242, -0.8946778178215027, 2.5935256481170654, 12.844688415527344, -4.6191534996032715, 3.168018102645874, -1.54805326461792, -2.5229439735412598, -2.039886713027954, 1.0614099502563477, 6.402629375457764, 8.257837295532227, -0.6723683476448059, 5.374999046325684, -6.795344829559326, -4.306716442108154, 3.1489293575286865, -2.927879571914673, 8.125783920288086, 11.499982833862305, 0.3736952245235443, 2.002286195755005, -3.9506826400756836, 0.5235375761985779, -6.73210334777832, -6.031457901000977, 6.119183540344238, -1.4833396673202515, -11.437474250793457, 1.4800947904586792, -0.6105974316596985], [8.350513458251953, -1.7459841966629028, 3.8721063137054443, -0.32681185007095337, -1.8092777729034424, -0.4049209952354431, -3.3450357913970947, -6.8903093338012695, 0.22585591673851013, -1.3378247022628784, -4.852441310882568, -0.9726842641830444, 3.79148268699646, -13.723264694213867, -2.512458562850952, -1.2954919338226318, -4.53049898147583, -0.3705037534236908, 7.8435845375061035, -12.021932601928711, -2.0807244777679443, -7.731255531311035, 1.7312897443771362, -6.8232035636901855, -10.137824058532715, -3.678309440612793, 2.7578797340393066, -1.4475642442703247, -7.562614440917969, 7.178138256072998, -0.6490064263343811, 3.059325933456421], [5.980506896972656, -8.273580551147461, 2.055997610092163, 6.514666557312012, 9.887899398803711, -7.893996238708496, 8.205792427062988, 6.8178582191467285, -3.1095595359802246, -6.051424026489258, 8.217571258544922, -18.593063354492188, 4.780217170715332, -1.6413016319274902, -0.411342591047287, -2.9738690853118896, -6.085209846496582, 3.8340907096862793, 5.125594139099121, -1.027245044708252, -3.3366925716400146, -11.05955982208252, 4.708291053771973, 3.5658464431762695, 5.606874465942383, -10.653095245361328, -10.203107833862305, -0.49088984727859497, -6.106384754180908, 9.418081283569336, -3.3228530883789062, 2.8702445030212402], [-0.2232835441827774, 1.9980369806289673, 10.075434684753418, -3.988454818725586, 1.5430665016174316, 2.3798751831054688, -6.993980407714844, 3.1502764225006104, 0.5032737851142883, 1.2543909549713135, -6.914394855499268, 10.080275535583496, -10.105693817138672, -7.90680456161499, 9.840611457824707, -1.4410299062728882, 8.868449211120605, 1.0854251384735107, 1.7674628496170044, 6.622337818145752, -3.1619086265563965, 6.902849197387695, -6.047086715698242, -6.353593826293945, -6.637064456939697, -4.862551689147949, 0.2229367345571518, 9.909000396728516, -5.275060653686523, 5.318701267242432, 10.276155471801758, 6.293095111846924], [0.35581111907958984, -1.3754136562347412, 9.794715881347656, 0.8735977411270142, 3.9555575847625732, -2.8953826427459717, 1.4758564233779907, -6.912258625030518, 1.0882635116577148, -0.7058926820755005, -6.821533203125, -2.7444281578063965, 6.565249919891357, -8.898714065551758, 4.566521644592285, 14.447874069213867, -4.907326698303223, 4.968207359313965, -5.137917518615723, -0.014329805970191956, -6.480541229248047, -3.6070032119750977, 0.5170386433601379, -1.2780280113220215, -0.4737353026866913, -4.456632614135742, 4.804753303527832, -1.228633999824524, 4.418932914733887, -7.43274450302124, -1.4317857027053833, 6.84449577331543], [-2.7882912158966064, -0.9624993205070496, 3.212862014770508, 3.9762229919433594, 8.682326316833496, -4.425848960876465, -1.8849468231201172, -3.330756664276123, -6.962588787078857, 4.1798272132873535, -4.393135070800781, 2.0252511501312256, -1.0876175165176392, 7.351688861846924, -2.5508060455322266, 6.549101829528809, -1.346015214920044, 0.3503682315349579, -1.9427016973495483, -2.3902809619903564, -1.9700959920883179, 3.3890576362609863, 1.555271029472351, -0.36290091276168823, -4.152270793914795, 3.9810917377471924, 3.5845553874969482, 7.4005327224731445, -12.848915100097656, -8.057584762573242, 10.548295974731445, 8.132966041564941], [-4.747582912445068, -8.65507984161377, -5.076806545257568, 3.9561092853546143, -5.352920055389404, 14.439996719360352, 4.0988945960998535, 2.5298144817352295, -1.5502173900604248, -5.983677387237549, 6.860559940338135, 0.08672473579645157, -7.963682651519775, 8.381918907165527, 1.814026951789856, 5.05947208404541, -0.7761878371238708, -1.615744948387146, -0.432650625705719, -3.5789432525634766, -1.823007345199585, -2.7388195991516113, 4.930984973907471, 1.3345849514007568, -5.638704299926758, 2.5509607791900635, 6.424604892730713, 0.11757180094718933, -3.254676580429077, -3.45615291595459, -4.118490219116211, 1.9518402814865112], [-0.47130781412124634, -1.6881256103515625, -9.21933364868164, 0.7845487594604492, -0.010096177458763123, -2.364478826522827, 13.591262817382812, -3.5141971111297607, 1.7537575960159302, -6.94645881652832, -8.167508125305176, -6.591923713684082, -2.4569168090820312, 1.376737356185913, 4.370786190032959, 7.561014175415039, 7.467010498046875, 2.5841293334960938, 3.692528486251831, 0.08421486616134644, -2.0175821781158447, -7.942446231842041, 2.1715786457061768, 0.5593177676200867, 0.5856958627700806, 0.9496874213218689, -6.878989219665527, -3.6912407875061035, 6.176469802856445, -7.676181793212891, -8.679194450378418, -2.952008008956909], [-3.894749641418457, -7.46205472946167, -1.759316325187683, -3.7230255603790283, -3.255168914794922, 3.8522112369537354, 6.942022323608398, -1.156447410583496, 4.113260746002197, -0.9000514149665833, 1.2468477487564087, -0.30251550674438477, 2.3964905738830566, -1.5274218320846558, -4.684717655181885, 2.5522501468658447, -0.012637287378311157, -6.975020885467529, 1.6540478467941284, -11.45627498626709, 6.7335662841796875, 0.8070763349533081, -5.95810079574585, -8.239023208618164, -0.7529124617576599, -1.9032520055770874, -1.2507376670837402, 15.061238288879395, -2.37007999420166, -9.425005912780762, -1.7260043621063232, -4.615232944488525], [9.319602012634277, -5.131678104400635, -2.6361043453216553, 6.084316730499268, -3.987471103668213, -13.102619171142578, 3.8305933475494385, -6.973466873168945, -2.5351979732513428, -9.735307693481445, 0.31167784333229065, -4.375895023345947, 4.6236443519592285, 3.901824474334717, -0.15820258855819702, 3.117769479751587, 4.638051986694336, 1.7487021684646606, 1.237480640411377, 5.762034893035889, -4.405791282653809, 8.03015422821045, -5.329117774963379, -3.459404945373535, -1.8660697937011719, -8.35265827178955, 0.7895596027374268, 1.923856258392334, -1.8613184690475464, -2.6705610752105713, -0.4729117155075073, 2.4849705696105957]], [[-5.187036514282227, 1.2600589990615845, -4.635924339294434, -10.270162582397461, 0.45655500888824463, -1.3552051782608032, 5.541212558746338, -0.33099400997161865, 0.5031206011772156, -0.19287383556365967, 9.021753311157227, 3.9916884899139404, 7.3756632804870605, -9.503283500671387, -8.88973617553711, 1.7606204748153687], [5.472878932952881, -5.336308479309082, -10.07069206237793, 4.130889415740967, 5.865866661071777, -1.3475762605667114, -4.096303462982178, 3.7215797901153564, -4.325420379638672, 6.771965503692627, -0.5614293217658997, 8.431529998779297, 5.283462047576904, 3.558379888534546, -8.915522575378418, 3.3494997024536133], [0.20828835666179657, -0.5650513768196106, -3.9704244136810303, -4.549853801727295, -2.8707642555236816, 0.296593576669693, -11.528824806213379, -10.519095420837402, -5.609864711761475, -2.378584384918213, 3.5292916297912598, -0.7976197004318237, 7.281160354614258, 1.760696530342102, -1.417073369026184, -8.439787864685059], [4.000903606414795, 5.6463727951049805, 3.5863759517669678, -1.5621498823165894, -0.6493607759475708, 1.3707138299942017, -2.9879441261291504, -1.423346757888794, -4.323520183563232, 1.7444218397140503, 4.682182312011719, -12.136441230773926, -7.747902870178223, 0.5184844136238098, 0.7727860808372498, 12.324882507324219], [2.7758076190948486, 6.872221946716309, 3.6611056327819824, -5.505187511444092, -6.519622802734375, -0.48071372509002686, -16.399560928344727, 1.8030024766921997, -8.413651466369629, 8.363978385925293, -3.612682342529297, -5.825885772705078, -0.2844480574131012, 6.778356552124023, 3.969679832458496, -0.24613270163536072], [-5.179051876068115, -4.223837852478027, 0.24771961569786072, -7.525779724121094, 4.002005100250244, -1.975583553314209, -17.468961715698242, 7.019105434417725, -3.1597740650177, -4.477123260498047, 2.165484666824341, 0.43207141757011414, -4.70045804977417, 4.195167064666748, -5.062577724456787, -7.397093772888184], [6.353625774383545, 0.3881639540195465, 5.92686128616333, 1.46963369846344, -7.102252960205078, -5.270801067352295, 0.17630213499069214, 4.157020568847656, -1.7813061475753784, -6.006437301635742, -5.181346416473389, 2.0437910556793213, -0.48036813735961914, -5.649901390075684, -4.914357662200928, 10.476949691772461], [8.02653980255127, -0.9391436576843262, 0.6932265162467957, 16.47478485107422, 1.7554981708526611, -6.905970096588135, 1.9589784145355225, -0.29836732149124146, -0.21244199573993683, -6.466582298278809, 1.7615877389907837, 3.4733903408050537, 7.104825019836426, 3.5718538761138916, -13.736968994140625, -9.04260540008545]], [[-4.2422871589660645, 4.730874538421631, -0.032529741525650024, 5.851341724395752, -2.155362367630005, 10.611188888549805, -0.49886009097099304, -3.117663621902466], [-8.398517608642578, 2.914240837097168, 0.6271778345108032, -3.1799893379211426, -8.175847053527832, -0.8152080774307251, -2.8545632362365723, 3.0238993167877197]]], "brain_biases": [[-0.9011378288269043, -4.931169033050537, 0.43980810046195984, -3.656787395477295, -2.368182420730591, -8.227622985839844, 0.07160525023937225, 10.064911842346191, 0.3496474027633667, -0.35894840955734253, -0.5651071071624756, -11.44769287109375, -3.4392385482788086, -9.179012298583984, 1.7152881622314453, 7.861156463623047, -6.0493268966674805, -3.317816734313965, -3.046433448791504, 1.9398343563079834, 0.09782707691192627, -9.182912826538086, 7.932733535766602, 8.822540283203125, 4.2758941650390625, 3.427248001098633, -8.455537796020508, -3.654087781906128, 0.5958654284477234, 0.9705039262771606, 6.387604713439941, 12.951736450195312], [-5.870264530181885, 0.472040593624115, 6.130200386047363, 0.840888500213623, 7.012962818145752, -0.046824127435684204, -1.7951757907867432, -3.92775297164917, 7.637402057647705, 1.0343403816223145, -13.972121238708496, -15.024271011352539, 2.8625833988189697, -1.4895254373550415, 5.931545257568359, -4.718846321105957], [4.566764831542969, -0.8767687082290649, 3.7012486457824707, -1.7289011478424072, 2.239874839782715, -2.123993396759033, -3.3733739852905273, 0.3966559171676636], [0.1347726434469223, -0.0368853360414505]], "sensor_retina_count": 18, "sensor_vision_radius": 180.0, "sensor_fov_degrees": 180.0, "sensor_skip": 2, "sensor_see_food": true, "sensor_see_bacteria": false, "sensor_see_predators": true, "locomotion_max_speed": 300.0, "locomotion_max_turn": 3.141592653589793, "energy_death_energy": 0.0, "energy_split_energy": 200.0, "energy_v0_cost": 3.0, "energy_vmax_cost": 6.0, "energy_vmax_ref": 300.0, "energy_energy_cap": 200.0, "energy_loss_idle": 3.0, "energy_loss_move": 6.0, "last_brain_output": [12.14665699005127, -16.93807029724121], "last_brain_activations": [[0.5640077590942383, -0.9997750520706177, 0.9999881386756897, -0.999987781047821, -0.9667178392410278, -0.9999774098396301, -0.3525029420852661, 1.0, 1.0, -0.31881779432296753, -0.9997662305831909, -1.0, 0.9019657969474792, -1.0, 0.9704439043998718, -0.031881969422101974, -1.0, -0.38777393102645874, -1.0, 0.9967721700668335, -1.0, -0.9971529245376587, 1.0, 1.0, 0.9999998211860657, 0.9999322295188904, -1.0, 0.8919104933738708, 0.9143208861351013, 0.33807557821273804, 1.0, 1.0], [1.0, -1.0, 1.0, -1.0, 1.0, 1.0, -0.9999999403953552, -0.9999878406524658, 1.0, 1.0, 1.0, -1.0, -1.0, 0.2589668929576874, -1.0, -1.0], [0.2708337604999542, -0.9998405575752258, 1.0, 1.0, 1.0, 1.0, -1.0, -0.9999130368232727], [12.146588325500488, -16.938203811645508]]}, {"type": "bacteria", "x": 9.0, "y": 2059.0421925261826, "r": 9.0, "angle": -2.889862362335973, "vx": 145.27134060836718, "vy": -74.72346442757876, "energy": 70.68344028039516, "age": 80.25233333333017, "brain_sizes": [18, 32, 16, 8, 2], "brain_version": 32168, "brain_weights": [[[-6.214857578277588, 4.551884174346924, 6.003746509552002, -0.7459110021591187, -2.731886386871338, 9.602181434631348, 7.275648593902588, -3.0978617668151855, 0.009939834475517273, 6.96784782409668, -4.337365627288818, -6.29855489730835, 5.229419708251953, -5.394586086273193, -8.946877479553223, -9.232818603515625, -0.841944694519043, -4.140952110290527], [-2.0484907627105713, 2.4857327938079834, -5.441094875335693, 12.807969093322754, -15.685919761657715, -3.4724690914154053, 1.6446069478988647, 0.41206997632980347, -9.292520523071289, 7.421010494232178, -0.8423817753791809, -5.86016321182251, 0.7594379186630249, -2.4156322479248047, -2.8672547340393066, 8.213377952575684, -3.5552892684936523, 7.156135559082031], [3.205258846282959, -3.5357019901275635, 10.515124320983887, -1.7916184663772583, -1.4205069541931152, -8.596179008483887, 8.404314994812012, -1.6694731712341309, -1.8057026863098145, 2.2082767486572266, -0.22999268770217896, -4.821192264556885, 2.227628231048584, 4.898488521575928, -9.828962326049805, -0.3509579300880432, -6.9163713455200195, -3.1268603801727295], [1.7378511428833008, -8.973283767700195, -6.035146236419678, 9.375931739807129, -5.817346096038818, 2.424710988998413, -3.2408673763275146, -9.956273078918457, -2.3390164375305176, 6.120513916015625, -5.4824628829956055, 6.512612342834473, -0.48740676045417786, -4.805624961853027, -4.521202564239502, -11.646084785461426, -1.8642585277557373, 1.137054681777954], [-1.5658167600631714, -5.579495429992676, 1.092896819114685, -9.930364608764648, -17.689552307128906, -1.7281074523925781, 4.052896976470947, -3.043842315673828, -15.577035903930664, -0.7225898504257202, 2.6903584003448486, 4.864223003387451, 6.026412010192871, -5.062221050262451, -0.4759611189365387, 9.711812973022461, 8.168793678283691, -8.508611679077148], [12.82156753540039, 2.899786949157715, 9.56235408782959, 6.896580696105957, -5.504146099090576, -3.4124321937561035, 9.228699684143066, -7.667662143707275, -6.628181457519531, 3.8591148853302, -4.940459251403809, 2.3318264484405518, 6.698116779327393, -4.446656703948975, 1.7779675722122192, -9.645209312438965, -1.7595436573028564, -3.9363622665405273], [-4.609422206878662, 12.125730514526367, -5.7270355224609375, 9.181680679321289, -11.037942886352539, -2.725615978240967, -3.7601892948150635, -1.4863762855529785, 7.73221492767334, 4.39652156829834, 11.78979206085205, -4.062263488769531, -4.139159202575684, 1.9934313297271729, 2.0832717418670654, -0.6296255588531494, -1.247981071472168, -5.252636432647705], [-4.818885803222656, 7.6798319816589355, 6.233958721160889, 13.635993003845215, -1.8106850385665894, 2.414672374725342, 11.075838088989258, 1.1427321434020996, 5.31571626663208, 8.141863822937012, -12.268070220947266, 0.48302334547042847, -2.037789821624756, 4.084311485290527, 4.509406089782715, -8.305277824401855, -1.6075512170791626, -1.2475175857543945], [-0.9039204716682434, 0.2552226185798645, -4.059246063232422, 2.0837998390197754, 0.48425111174583435, 8.617652893066406, -0.36392390727996826, -2.1664674282073975, -1.9697686433792114, -3.555461883544922, -1.311315655708313, 0.7147136926651001, 10.483652114868164, 10.456334114074707, -7.491281986236572, 3.3551268577575684, 2.9809718132019043, 6.5701751708984375], [0.9865571856498718, -8.30033016204834, 10.309587478637695, 1.4600980281829834, 0.40746861696243286, -2.0383238792419434, 1.782699465751648, 2.0860726833343506, 9.950765609741211, 2.0457606315612793, 0.8614197969436646, 4.6963605880737305, -0.2756801247596741, -0.4932444989681244, 0.38636431097984314, 9.005345344543457, -0.824156641960144, 1.512592077255249], [9.839210510253906, 5.937917709350586, 2.7847812175750732, 3.1954116821289062, 5.874629497528076, -0.002891824347898364, 6.716022968292236, 0.6460639834403992, -1.1651322841644287, -2.9017627239227295, 1.8890800476074219, -4.566519737243652, -1.0954136848449707, -3.6164937019348145, -5.690526008605957, 6.950746059417725, 5.978047847747803, 1.31377112865448], [-4.787461757659912, 1.4728635549545288, 2.4992356300354004, 1.5726675987243652, -1.7530745267868042, -0.8000026941299438, -9.429733276367188, -1.2454403638839722, 0.936704695224762, -6.177737712860107, 0.4207707643508911, 7.2997822761535645, 0.6230971217155457, -0.5775017738342285, 0.03258690983057022, -4.2834553718566895, 2.9436140060424805, 4.428004741668701], [0.7477363348007202, 0.4538739323616028, -2.3922951221466064, -0.8485599756240845, -5.074728488922119, 0.2749631106853485, -6.63374137878418, 1.039954423904419, -3.362678289413452, -1.5473474264144897, -4.593250274658203, 3.1457953453063965, 7.406588554382324, 0.02562132477760315, -5.477793216705322, 0.20326529443264008, 0.22510816156864166, -0.25298672914505005], [7.4595184326171875, 1.8575409650802612, -5.557322978973389, -10.202991485595703, 1.293923020362854, 2.6699912548065186, -2.135730028152466, 2.429561138153076, -7.190609455108643, -10.113174438476562, -3.1724298000335693, -3.125340700149536, -7.484418869018555, -2.1710052490234375, 7.133984565734863, 12.63512897491455, 2.5735716819763184, -0.9827948808670044], [-4.38631534576416, -3.3470029830932617, 6.381497383117676, 4.000637054443359, 7.7267231941223145, -1.0884636640548706, -1.4350301027297974, 0.6717147827148438, -0.9758270978927612, -13.983505249023438, 0.5859785079956055, -3.546872138977051, -2.788508653640747, 7.739781856536865, 1.2994579076766968, -1.9172807931900024, 4.4382147789001465, -10.151472091674805], [-14.506166458129883, -7.455298900604248, 2.2261903285980225, 6.658753871917725, 2.6448006629943848, 1.3363484144210815, 2.9070353507995605, -5.590508460998535, 7.09674596786499, -4.653664588928223, -3.9571046829223633, -4.300420761108398, -6.454246520996094, -3.316962480545044, -14.816959381103516, -11.659690856933594, 0.09812208265066147, -2.344766616821289], [0.9928900599479675, 0.5384565591812134, 13.6895170211792, -1.1993776559829712, -2.5190694332122803, -0.7794232964515686, 4.187953948974609, -0.2354244887828827, -6.0858917236328125, -5.852602481842041, 5.237890720367432, -4.287665367126465, 0.09545847028493881, -8.966507911682129, 5.0791826248168945, 1.8951609134674072, -2.975471258163452, 0.059971749782562256], [6.147978782653809, -6.829584121704102, -3.3531758785247803, -12.304740905761719, -4.337774276733398, -6.183311462402344, -3.83184552192688, 0.3419680893421173, -9.906865119934082, 8.36279010772705, -6.251917839050293, 4.981896877288818, 4.845492362976074, -3.3486549854278564, -1.6146278381347656, -13.32906723022461, -7.859794616699219, -6.31955623626709], [12.446005821228027, 9.717036247253418, 1.2150472402572632, -7.148974418640137, 6.067068099975586, -2.1024439334869385, 1.4436343908309937, -3.1082112789154053, 3.0309581756591797, 1.2651903629302979, -2.742915391921997, -12.597382545471191, -2.85851788520813, -8.576118469238281, -9.563091278076172, -1.3238518238067627, -4.992086887359619, -1.5793578624725342], [-4.142911434173584, 4.023521900177002, -2.390000343322754, -1.3202719688415527, 5.223607540130615, 6.643539905548096, 8.652680397033691, 3.961076259613037, -0.5115212798118591, 0.0941895842552185, -17.34651756286621, 9.226680755615234, 4.677495956420898, -2.869091749191284, -0.251819908618927, 9.732258796691895, -1.5011670589447021, 11.90997314453125], [7.056554794311523, 4.411536693572998, 3.7925000190734863, -1.5368255376815796, -3.090885639190674, -10.52861213684082, -1.2177956104278564, -0.499897301197052, 7.420321464538574, -7.508275032043457, -5.972261905670166, 0.7316723465919495, -13.389888763427734, -2.9594004154205322, 10.750564575195312, 4.27545690536499, 0.5312944054603577, -8.669734001159668], [5.516486644744873, 3.3268489837646484, -10.515483856201172, 1.0143718719482422, 4.929774284362793, -10.886534690856934, -5.327277183532715, -3.676849365234375, 1.9812476634979248, 7.761538982391357, 4.637571334838867, -0.45643794536590576, 2.267343282699585, 3.7628111839294434, 2.2526655197143555, -0.4966890215873718, 1.184687852859497, 0.2851811647415161], [-5.739937782287598, -1.6583174467086792, 2.9754221439361572, -5.797886848449707, 1.44687020778656, 12.860038757324219, -6.605151653289795, 4.440695762634277, -0.7961210012435913, 8.577641487121582, -3.8909709453582764, -5.7287821769714355, 4.655056953430176, 1.8517390489578247, -0.9019117951393127, 0.19717758893966675, 6.795087814331055, -1.1057844161987305], [-3.29514217376709, -5.681042671203613, 1.1481292247772217, 2.456038475036621, -10.067169189453125, -3.2471511363983154, -8.86944580078125, 0.024469241499900818, 5.074184417724609, -0.5745747685432434, -4.842217922210693, 0.5528742671012878, 4.936837673187256, 5.294219017028809, 4.245707988739014, -6.176849842071533, -0.09217596054077148, 15.706066131591797], [0.4340904653072357, -2.733356237411499, -3.4016664028167725, 6.0091962814331055, -10.727784156799316, -0.3749545216560364, 1.8327869176864624, -1.4932538270950317, 1.2945690155029297, 5.375692367553711, -10.239910125732422, -0.2125731259584427, -3.0266366004943848, 6.564802169799805, -1.3396788835525513, 0.6569362878799438, 3.1414356231689453, -0.8911150693893433], [-0.15646375715732574, 0.15776047110557556, 0.3356779217720032, -7.482318878173828, 4.741731643676758, 3.467871904373169, 5.1183295249938965, 13.66378116607666, 0.23613271117210388, 1.1024137735366821, -0.031456634402275085, -5.72473669052124, -1.3665436506271362, 3.4313888549804688, 7.115312099456787, 10.622274398803711, 0.286948561668396, 0.812094509601593], [2.50183367729187, 6.06038236618042, -0.8016805648803711, -2.421215295791626, -1.8864185810089111, 4.82102108001709, -10.311126708984375, -1.735371708869934, 1.1012803316116333, -1.3261464834213257, -0.8184685707092285, -5.132699012756348, -12.45615005493164, -4.089909076690674, -1.3705466985702515, -4.570761680603027, -3.088191032409668, -10.227502822875977], [2.078214406967163, -0.21019791066646576, 4.409019947052002, -7.557537078857422, 3.0701024532318115, 12.36393928527832, 6.483118057250977, -3.929170608520508, -5.595800399780273, -3.647404909133911, -1.1865856647491455, 6.7220282554626465, 0.46140342950820923, 7.896663665771484, -3.2086243629455566, -8.09542465209961, -10.195279121398926, -7.477894306182861], [-0.47769448161125183, -3.878568410873413, -0.9115419983863831, -1.1252886056900024, -0.7646293044090271, 2.604252815246582, 12.326562881469727, 1.2959301471710205, 2.4989988803863525, 6.330382347106934, -2.3611409664154053, -10.001348495483398, 2.82957124710083, -3.5938937664031982, -5.39585542678833, -4.112510681152344, 10.670574188232422, -2.1192193031311035], [1.3381073474884033, 2.9813811779022217, -9.382226943969727, -4.573390007019043, -1.858195185661316, 6.095017433166504, 1.8305643796920776, 7.627440452575684, 3.721529245376587, -7.096900463104248, 4.7779927253723145, -2.4367706775665283, -0.17556032538414001, 1.765704870223999, 2.4316203594207764, 7.68798303604126, 11.236013412475586, -4.304301738739014], [5.52290153503418, 8.685229301452637, 4.28654670715332, -8.277981758117676, 5.3872222900390625, 2.3264944553375244, -7.289919853210449, -2.9334707260131836, 2.9518930912017822, -0.8674283027648926, 3.263223648071289, -0.6833694577217102, 15.319818496704102, 2.819788932800293, -2.000673294067383, 2.554889678955078, 7.873106479644775, -1.9804810285568237], [-3.7784833908081055, -8.64288330078125, -1.0626813173294067, 2.1301050186157227, -6.1418561935424805, 1.840455412864685, -1.4073299169540405, -11.765215873718262, -4.939688205718994, -0.29171785712242126, 5.097163200378418, -1.0047158002853394, -0.05110883712768555, 0.037587299942970276, -2.15390682220459, -3.213027238845825, 0.8894248008728027, -3.6444091796875]], [[-4.018184185028076, 6.112392902374268, -1.1432832479476929, -1.5926358699798584, -9.65787410736084, -12.085789680480957, -6.112473964691162, 9.324012756347656, 0.4143923223018646, 14.718382835388184, 8.347332000732422, -2.6231138706207275, 3.9007484912872314, 1.02534019947052, -2.9723312854766846, -4.172979354858398, 1.5910613536834717, -0.8822667002677917, 1.502345323562622, -9.53053092956543, -9.598224639892578, 4.785282611846924, -0.5123502016067505, 0.33568644523620605, 4.229076862335205, 5.269935131072998, 3.4495835304260254, -0.5185747146606445, -2.35878324508667, -5.701148986816406, 8.375670433044434, 4.414280891418457], [0.5845065116882324, 0.5165438652038574, 4.774960041046143, 1.707122802734375, -4.279474258422852, 4.910634517669678, -0.4712027311325073, 7.471033573150635, -0.6006496548652649, 3.0557892322540283, 12.096478462219238, -5.424126625061035, -12.13465404510498, -0.02941456064581871, 5.117895126342773, 3.179718017578125, -4.726457595825195, 4.21875, 10.27055835723877, 2.178910732269287, 9.347823143005371, 2.236898422241211, 3.5248286724090576, -6.9391021728515625, 0.6549288034439087, -3.1306867599487305, 3.7189807891845703, 4.2380499839782715, 1.0343081951141357, 1.108856439590454, 3.5407514572143555, 1.720619797706604], [8.314889907836914, -8.242277145385742, 1.856208324432373, 0.26872795820236206, 5.191713809967041, 7.395085334777832, 2.392667293548584, 10.432441711425781, 7.9883856773376465, 10.652396202087402, -2.5309741497039795, -4.829869747161865, -2.51389479637146, -1.4633190631866455, 4.373774528503418, 5.694387435913086, -0.7999963164329529, 0.876986563205719, 5.32960844039917, 3.1337978839874268, -4.0100202560424805, 1.410367727279663, -14.575516700744629, 7.050577163696289, -13.306428909301758, 0.5586793422698975, 4.374545097351074, 0.5281884074211121, -3.8279590606689453, 10.448493003845215, 10.267115592956543, 0.05828416347503662], [-18.676502227783203, -7.935872554779053, -0.2864489257335663, 3.271374464035034, 2.4916019439697266, -4.780313491821289, 3.8681509494781494, -5.751046180725098, 1.2055374383926392, 5.213871955871582, -3.200000286102295, 5.553040504455566, 2.382213830947876, 0.19697780907154083, -1.440285086631775, 6.889500141143799, -0.6038286685943604, 4.110617160797119, 6.250421047210693, -6.822714805603027, 6.197795867919922, -0.8781609535217285, -3.1241631507873535, -2.640979051589966, 7.792143821716309, 1.541398048400879, -0.7585799694061279, 0.07416602969169617, 7.3370795249938965, 7.089414596557617, -5.792604446411133, 1.0100650787353516], [-2.678309202194214, -1.893550992012024, 3.210418462753296, 2.4874746799468994, 4.48292875289917, 2.025033950805664, -4.349349021911621, 9.235862731933594, 4.563532829284668, -7.544187068939209, -11.330782890319824, 4.698700904846191, -0.044825904071331024, 3.594503879547119, 2.1590049266815186, 10.606856346130371, -3.3731606006622314, -9.606542587280273, -5.430601596832275, 6.449631690979004, 8.04704761505127, 2.1804494857788086, 8.41833209991455, 1.833070158958435, 5.3410563468933105, 8.465938568115234, -1.6785377264022827, 0.1458801031112671, -6.835601329803467, -6.2761945724487305, 6.840391635894775, -3.4110522270202637], [3.357844829559326, 0.6884820461273193, -2.596729040145874, -8.482322692871094, 11.739781379699707, -0.4759964048862457, -2.385640859603882, -0.9063559174537659, 6.728109836578369, 1.6141259670257568, 1.882755160331726, -5.1219048500061035, -7.784019470214844, -2.0217888355255127, -1.3752989768981934, 10.58335018157959, -12.732839584350586, 5.793905258178711, -1.2113869190216064, 1.2494970560073853, -9.218283653259277, 0.7270801067352295, 0.6165730357170105, 4.355636119842529, 7.621197700500488, -8.46904182434082, 2.8585193157196045, 3.988028049468994, -10.5097074508667, 3.4304213523864746, 5.634662628173828, -6.304215431213379], [4.155665397644043, 2.0248661041259766, -0.8946778178215027, 2.4520304203033447, 12.844688415527344, -4.6167893409729, 3.0081863403320312, -1.736395239830017, -3.0095009803771973, -1.918880581855774, 1.0614099502563477, 6.402629375457764, 8.428869247436523, -0.8583530783653259, 5.459298133850098, -6.862499237060547, -4.208952903747559, 3.1350395679473877, -2.8429911136627197, 8.14249038696289, 11.56461238861084, 0.43776747584342957, 2.002286195755005, -4.305507659912109, 0.3088826537132263, -6.548989772796631, -6.344994068145752, 6.042828559875488, -1.3195277452468872, -11.38585090637207, 1.6428765058517456, -0.7106031179428101], [8.270272254943848, -1.7032822370529175, 3.8721063137054443, -0.32681185007095337, -1.8092777729034424, -0.35293489694595337, -3.3964531421661377, -6.8903093338012695, 0.08496873080730438, -1.3438998460769653, -4.775623798370361, -0.9726842641830444, 3.79148268699646, -13.723264694213867, -2.4762840270996094, -1.2710037231445312, -4.53049898147583, -0.5498171448707581, 7.8435845375061035, -12.022396087646484, -1.957482099533081, -7.855698585510254, 1.7053781747817993, -7.126298427581787, -10.231921195983887, -3.779489278793335, 2.7578797340393066, -1.4475642442703247, -7.573657035827637, 7.3335137367248535, -0.6490064263343811, 2.734584093093872], [6.086033344268799, -8.257943153381348, 1.8953850269317627, 6.648332595825195, 9.947982788085938, -7.937722682952881, 8.225193977355957, 6.814963340759277, -3.035672903060913, -6.13761568069458, 8.31927490234375, -18.29633903503418, 4.780217170715332, -1.9475750923156738, -0.411342591047287, -2.8847274780273438, -6.085209846496582, 3.7110135555267334, 5.125594139099121, -1.0835191011428833, -3.3366925716400146, -11.05955982208252, 4.764238357543945, 3.5658464431762695, 5.497681140899658, -10.629960060119629, -10.368454933166504, -0.5475456714630127, -6.333240509033203, 9.191818237304688, -3.3228530883789062, 2.7984530925750732], [0.046137575060129166, 1.974002718925476, 9.985097885131836, -3.822869300842285, 1.5430665016174316, 2.4385170936584473, -6.943325996398926, 2.9294044971466064, 0.32484889030456543, 1.2867224216461182, -6.915939807891846, 10.080275535583496, -10.119964599609375, -7.90680456161499, 9.840611457824707, -1.4309751987457275, 8.867122650146484, 1.2118831872940063, 1.7568347454071045, 6.622337818145752, -3.5828001499176025, 6.86884069442749, -6.047086715698242, -6.547368049621582, -6.710813522338867, -4.862551689147949, 0.26722562313079834, 9.909000396728516, -5.346429824829102, 5.329934120178223, 10.183272361755371, 6.348466873168945], [0.35581111907958984, -1.3645944595336914, 9.794715881347656, 1.126663327217102, 3.84432315826416, -2.8924036026000977, 1.6232131719589233, -6.912258625030518, 0.8691322207450867, -0.6170644760131836, -6.824857711791992, -2.750825881958008, 6.72296142578125, -9.07132625579834, 4.393759727478027, 14.447874069213867, -5.041663646697998, 4.967101573944092, -5.137917518615723, -0.06865783035755157, -6.480541229248047, -3.517517328262329, 0.5504451990127563, -1.2597074508666992, -0.43454864621162415, -4.300784111022949, 4.959382057189941, -1.228633999824524, 4.406425952911377, -7.416610240936279, -1.595275640487671, 6.967929840087891], [-2.7882912158966064, -1.1877385377883911, 3.1556296348571777, 3.9762229919433594, 8.846111297607422, -4.314101696014404, -2.0116333961486816, -3.330756664276123, -7.082764148712158, 4.1798272132873535, -4.548375129699707, 2.0252511501312256, -1.0876175165176392, 7.351688861846924, -2.5508060455322266, 6.681644439697266, -1.346015214920044, 0.39064615964889526, -1.9286305904388428, -2.494755268096924, -1.9700959920883179, 3.4256794452667236, 1.6075372695922852, -0.5247101783752441, -4.144749164581299, 3.8446478843688965, 3.5845553874969482, 7.365466117858887, -12.975876808166504, -8.057584762573242, 10.548295974731445, 8.132966041564941], [-4.854896545410156, -8.883795738220215, -5.076806545257568, 3.9561092853546143, -5.352920055389404, 14.439996719360352, 4.10707950592041, 2.7569429874420166, -1.394781231880188, -5.963388442993164, 6.860559940338135, 0.08672473579645157, -7.963682651519775, 8.381918907165527, 1.814026951789856, 5.150945663452148, -0.7761878371238708, -1.8090293407440186, -0.48840057849884033, -3.6070058345794678, -1.823007345199585, -2.8516805171966553, 4.947983741760254, 1.3345849514007568, -5.596408843994141, 2.587573528289795, 6.660544395446777, 0.11757180094718933, -3.2409462928771973, -3.5433032512664795, -4.103128910064697, 2.116541862487793], [-0.3728588819503784, -1.53749680519104, -9.228862762451172, 0.6666428446769714, -0.010096177458763123, -2.5359370708465576, 13.697409629821777, -3.2880702018737793, 1.7020865678787231, -6.94645881652832, -8.200540542602539, -6.570910930633545, -2.4569168090820312, 1.27632737159729, 4.562049388885498, 7.561014175415039, 7.398026943206787, 2.4983818531036377, 3.9656577110290527, 0.08421486616134644, -2.2814438343048096, -7.947129249572754, 2.0604641437530518, 0.6257168054580688, 0.3867374360561371, 0.7374603748321533, -6.671916484832764, -3.67144775390625, 6.176469802856445, -7.676181793212891, -8.679194450378418, -3.0107903480529785], [-3.894749641418457, -7.530444145202637, -1.7087634801864624, -3.54080867767334, -3.1922454833984375, 3.709794521331787, 7.126656532287598, -1.2180086374282837, 4.248043060302734, -0.9198061227798462, 1.189927101135254, -0.30251550674438477, 2.4415862560272217, -1.534285545349121, -4.779524803161621, 2.473128318786621, 0.0852217823266983, -6.956406116485596, 2.0475759506225586, -11.585680961608887, 6.766226291656494, 0.7270504832267761, -6.045732021331787, -8.211871147155762, -0.7529124617576599, -1.918482780456543, -1.2507376670837402, 15.140881538391113, -2.602940320968628, -9.26209545135498, -1.6354455947875977, -4.496431350708008], [9.319602012634277, -5.131678104400635, -2.5340285301208496, 6.099651336669922, -4.075489521026611, -12.999312400817871, 3.8073079586029053, -6.973466873168945, -2.497927665710449, -9.735307693481445, 0.31167784333229065, -4.289266586303711, 4.6236443519592285, 3.68967342376709, -0.13693352043628693, 2.941929578781128, 4.4668192863464355, 1.7127100229263306, 1.2015267610549927, 5.9894022941589355, -4.243812084197998, 8.03015422821045, -5.348564624786377, -3.390540599822998, -1.76781165599823, -8.35265827178955, 0.5046230554580688, 1.89077889919281, -1.8613184690475464, -2.881765604019165, -0.4272892475128174, 2.4849705696105957]], [[-5.413943290710449, 1.5590999126434326, -4.534773349761963, -10.213939666748047, 0.48696041107177734, -1.2633056640625, 5.66850471496582, -0.2936246693134308, 0.5661238431930542, -0.11676668375730515, 8.94498348236084, 4.2429094314575195, 7.3423261642456055, -9.358378410339355, -9.038637161254883, 1.6721073389053345], [5.472878932952881, -5.286057472229004, -10.07069206237793, 4.024493217468262, 5.865866661071777, -1.3475762605667114, -4.071720600128174, 3.7215797901153564, -4.325420379638672, 6.506752967834473, -0.7777922749519348, 8.333634376525879, 5.405606746673584, 3.5986483097076416, -8.790426254272461, 3.2497434616088867], [0.19768327474594116, -0.608215868473053, -4.058509826660156, -4.7967305183410645, -2.8707642555236816, 0.4884650409221649, -11.61757755279541, -10.567505836486816, -5.609864711761475, -2.3231353759765625, 3.6835267543792725, -0.8346993923187256, 7.247748851776123, 1.7257041931152344, -1.4869359731674194, -8.66828441619873], [4.000903606414795, 5.929859161376953, 3.3656318187713623, -1.5621498823165894, -0.6493607759475708, 1.546756386756897, -2.84765887260437, -1.423346757888794, -4.323520183563232, 1.7444218397140503, 4.605599403381348, -12.136441230773926, -7.747902870178223, 0.4945794641971588, 0.8222166895866394, 12.157853126525879], [2.7758076190948486, 6.872221946716309, 3.796186685562134, -5.760656833648682, -6.610509395599365, -0.48071372509002686, -16.399560928344727, 1.8030024766921997, -8.549041748046875, 8.363978385925293, -3.4846527576446533, -5.825885772705078, -0.3614868223667145, 6.953467845916748, 3.9740748405456543, -0.24613270163536072], [-5.179051876068115, -4.1950578689575195, 0.24771961569786072, -7.527499198913574, 3.898474931716919, -1.711413860321045, -17.40423583984375, 7.00666618347168, -3.1470861434936523, -4.55896520614624, 2.0414373874664307, 0.533804714679718, -4.4642534255981445, 4.198465347290039, -5.084331035614014, -7.737466812133789], [6.296902656555176, 0.13361001014709473, 5.693053245544434, 1.46963369846344, -7.102252960205078, -5.334082126617432, 0.2897583544254303, 4.157020568847656, -1.8083750009536743, -6.006437301635742, -5.144481658935547, 1.9426095485687256, -0.5535963177680969, -5.649901390075684, -5.050169467926025, 10.474858283996582], [8.02653980255127, -0.8767919540405273, 0.6932265162467957, 16.47478485107422, 1.722975492477417, -7.008554935455322, 1.9589784145355225, -0.23454871773719788, -0.40564560890197754, -6.466582298278809, 1.4984512329101562, 3.696528434753418, 7.155642509460449, 3.5718538761138916, -13.736968994140625, -9.04260540008545]], [[-3.9783079624176025, 4.306829929351807, 0.2824743688106537, 5.824746608734131, -2.040731906890869, 10.38283920288086, -0.6476761102676392, -3.1513583660125732], [-8.398517608642578, 2.9932520389556885, 0.6271778345108032, -3.054440975189209, -8.070688247680664, -0.6831012964248657, -2.7661144733428955, 3.0238993167877197]]], "brain_biases": [[-1.0115324258804321, -5.0520477294921875, 0.3322394788265228, -3.656787395477295, -2.222233772277832, -8.227622985839844, 0.10797753930091858, 9.840933799743652, 0.3496474027633667, -0.35894840955734253, -0.6803445816040039, -11.44769287109375, -3.697598934173584, -9.179012298583984, 1.6506139039993286, 7.787282466888428, -5.927493095397949, -3.5369768142700195, -3.028282642364502, 2.120460271835327, 0.02919089049100876, -9.141319274902344, 8.007415771484375, 8.95348072052002, 4.1848297119140625, 3.427248001098633, -8.455537796020508, -3.569784641265869, 0.6217327117919922, 0.8479317426681519, 6.387604713439941, 12.951736450195312], [-5.870264530181885, 0.42196086049079895, 6.130200386047363, 0.840888500213623, 6.965182781219482, 0.42116719484329224, -1.9488506317138672, -4.006732940673828, 7.5549116134643555, 0.6703458428382874, -14.019328117370605, -14.972481727600098, 2.7887656688690186, -1.707152247428894, 5.94671630859375, -4.718846321105957], [4.87351655960083, -0.8337903022766113, 3.7012486457824707, -1.6643033027648926, 2.2149181365966797, -2.284027338027954, -3.3803744316101074, 0.43931642174720764], [0.1801528036594391, -0.0368853360414505]], "sensor_retina_count": 18, "sensor_vision_radius": 180.0, "sensor_fov_degrees": 180.0, "sensor_skip": 2, "sensor_see_food": true, "sensor_see_bacteria": false, "sensor_see_predators": true, "locomotion_max_speed": 300.0, "locomotion_max_turn": 3.141592653589793, "energy_death_energy": 0.0, "energy_split_energy": 200.0, "energy_v0_cost": 3.0, "energy_vmax_cost": 6.0, "energy_vmax_ref": 300.0, "energy_energy_cap": 200.0, "energy_loss_idle": 3.0, "energy_loss_move": 6.0, "last_brain_output": [11.797449111938477, -0.021978452801704407], "last_brain_activations": [[-0.766395092010498, -0.9999182224273682, 0.32053160667419434, -0.9986680150032043, -0.9767858982086182, -0.9999998211860657, 0.10755984485149384, 0.9999999403953552, 0.33606281876564026, -0.3442874252796173, -0.5917433500289917, -1.0, -0.998772382736206, -0.9999999403953552, 0.9289417862892151, 0.9999996423721313, -0.9999858140945435, -0.9983077049255371, -0.9953261017799377, 0.9716198444366455, 0.02918260172009468, -0.9999999403953552, 0.9999997615814209, 0.9999999403953552, 0.9995365738868713, 0.9978928565979004, -0.9999998807907104, -0.9984150528907776, 0.5523332953453064, 0.6899874210357666, 0.9999943375587463, 1.0], [0.6681267023086548, 0.9999929070472717, 1.0, 0.9999996423721313, 1.0, 1.0, -1.0, -1.0, 1.0, -0.9999899864196777, 1.0, -1.0, 0.2742408514022827, 1.0, -1.0, -1.0], [-1.0, -1.0, 1.0, 0.9999999403953552, 0.9999157190322876, 1.0, -1.0, 1.0], [11.797449111938477, -0.021978452801704407]]}, {"type": "bacteria", "x": 312.7432695632884, "y": 2921.1926327269957, "r": 9.0, "angle": 2.0168439505879694, "vx": -129.4197244406459, "vy": 270.645154551941, "energy": 105.09895840706494, "age": 69.42366666666697, "brain_sizes": [18, 32, 16, 8, 2], "brain_version": 32167, "brain_weights": [[[-6.245865345001221, 4.372386932373047, 6.0720953941345215, -0.6816461682319641, -2.405064105987549, 9.688728332519531, 7.39164400100708, -3.487553834915161, -0.010360188782215118, 6.288382053375244, -4.119729042053223, -6.936731815338135, 5.2758469581604, -5.809576034545898, -8.536349296569824, -9.34101390838623, -1.117773175239563, -4.5074687004089355], [-2.08345890045166, 2.6112446784973145, -5.621344089508057, 13.112793922424316, -15.41213607788086, -3.8315389156341553, 1.9365299940109253, -0.030770346522331238, -9.257257461547852, 7.36952018737793, -0.5351753234863281, -5.926846981048584, 0.7154496312141418, -2.4875707626342773, -2.754822254180908, 8.234721183776855, -3.654348611831665, 7.098659515380859], [3.314260959625244, -3.401400327682495, 10.524312019348145, -1.90288507938385, -1.6589140892028809, -8.933636665344238, 8.047083854675293, -1.7956318855285645, -1.7859008312225342, 2.403920888900757, -0.3221243619918823, -4.962923049926758, 1.9427025318145752, 5.003167629241943, -9.770939826965332, -0.138504296541214, -7.087582111358643, -3.3361852169036865], [1.833223819732666, -9.10052490234375, -6.062986850738525, 9.94046401977539, -5.593267917633057, 2.3079357147216797, -2.982306718826294, -10.04952335357666, -2.165482759475708, 5.978066444396973, -5.538233280181885, 6.069596767425537, -0.3683350384235382, -4.915074348449707, -4.235461235046387, -11.409154891967773, -1.9548472166061401, 1.1938155889511108], [-1.1623541116714478, -5.442286491394043, 0.7140357494354248, -9.882427215576172, -17.554506301879883, -1.8132290840148926, 3.7375707626342773, -2.7664084434509277, -15.125785827636719, -1.307597279548645, 2.4922077655792236, 4.567965507507324, 6.065216064453125, -4.786834239959717, -0.34555894136428833, 9.958839416503906, 8.251302719116211, -8.584712982177734], [13.058204650878906, 3.1883914470672607, 9.696435928344727, 7.008676052093506, -5.178054332733154, -3.5443103313446045, 9.597155570983887, -7.8480119705200195, -6.780759811401367, 3.8542237281799316, -4.850472450256348, 2.2474982738494873, 6.813274383544922, -4.300728797912598, 1.8272753953933716, -9.60057258605957, -0.9080085754394531, -4.058021068572998], [-4.853647708892822, 12.381499290466309, -5.193268775939941, 9.39722728729248, -10.768856048583984, -2.952819347381592, -4.1400299072265625, -1.0580841302871704, 7.82289457321167, 4.39304780960083, 11.773872375488281, -4.352782726287842, -4.207334041595459, 1.9549775123596191, 1.7437363862991333, -0.4608554244041443, -1.034164547920227, -5.36025857925415], [-5.032804012298584, 7.542775630950928, 6.394113063812256, 13.5669584274292, -1.8985856771469116, 2.5889062881469727, 11.206725120544434, 0.9201372265815735, 5.200557708740234, 7.971997261047363, -12.166866302490234, 0.4369867742061615, -1.903562307357788, 4.279447555541992, 5.057212829589844, -8.133472442626953, -1.2498366832733154, -1.180243730545044], [-0.7194883823394775, -0.08977454155683517, -3.930555820465088, 1.718505620956421, 0.6685064435005188, 8.757314682006836, -0.8535339832305908, -2.148101806640625, -1.6717236042022705, -3.639784336090088, -1.074036955833435, 0.7757540941238403, 10.32485580444336, 10.361143112182617, -7.231716156005859, 3.2192227840423584, 3.039530038833618, 6.77928352355957], [0.8434961438179016, -8.474440574645996, 11.226676940917969, 1.4396541118621826, -0.14050014317035675, -1.5915530920028687, 2.1320385932922363, 1.999489188194275, 10.664192199707031, 1.8165645599365234, 0.9018725156784058, 4.485860347747803, -0.22521743178367615, -0.2402491420507431, 0.5468645095825195, 9.119402885437012, -1.2005447149276733, 2.1680212020874023], [9.461068153381348, 5.863651275634766, 2.5497641563415527, 3.4939615726470947, 5.6443281173706055, 0.17547419667243958, 6.540119647979736, 0.7918641567230225, -1.343224287033081, -2.989363670349121, 1.8734990358352661, -4.667533874511719, -0.8347995281219482, -3.611534357070923, -5.7574992179870605, 7.051216125488281, 6.1870880126953125, 1.8630883693695068], [-4.31072473526001, 1.0817978382110596, 2.2199020385742188, 1.2829095125198364, -1.5798630714416504, -0.45577603578567505, -9.53482437133789, -0.8990773558616638, 1.3653775453567505, -6.2420477867126465, 0.3730383813381195, 6.900972843170166, 0.8295680284500122, -0.12997007369995117, 0.1062031090259552, -4.5680341720581055, 3.763279914855957, 4.37184476852417], [0.7585679292678833, 0.6174459457397461, -2.1741154193878174, -1.1197843551635742, -5.029724597930908, 0.11070941388607025, -7.317986965179443, 1.137803316116333, -3.7075304985046387, -1.5099247694015503, -4.784852027893066, 3.1505138874053955, 7.324090480804443, 0.09138975292444229, -5.318204879760742, -0.17362721264362335, 0.2477256953716278, -0.19801555573940277], [7.686071872711182, 2.062730312347412, -5.97658109664917, -9.924192428588867, 1.2937994003295898, 2.4121806621551514, -1.7608914375305176, 1.9900845289230347, -7.142702579498291, -10.390028953552246, -3.0648162364959717, -2.992034435272217, -7.383940696716309, -2.072953701019287, 6.9435296058654785, 13.045402526855469, 2.9536242485046387, -1.0064202547073364], [-4.554121971130371, -3.2733664512634277, 6.654835224151611, 3.6812760829925537, 7.777153491973877, -1.2029523849487305, -1.8466476202011108, 0.2836076319217682, -0.8722618818283081, -13.855448722839355, 0.5406801104545593, -3.4719905853271484, -2.561877489089966, 7.771393299102783, 1.3635729551315308, -1.892843246459961, 4.707160949707031, -10.140378952026367], [-14.622631072998047, -7.654657363891602, 2.2129809856414795, 6.610065460205078, 3.1465392112731934, 0.9571356773376465, 2.267808198928833, -5.909575462341309, 7.287714004516602, -4.795021057128906, -4.018628120422363, -4.303268909454346, -6.457573890686035, -3.738121509552002, -14.4975004196167, -11.5684232711792, 0.40824341773986816, -2.4017722606658936], [0.4535984396934509, 0.39952120184898376, 13.652591705322266, -0.6996363997459412, -2.592177152633667, -0.8122588396072388, 4.236807823181152, -0.23449383676052094, -5.764210224151611, -5.855177879333496, 5.014622688293457, -4.072101593017578, 0.07510335743427277, -8.89182186126709, 5.426252841949463, 1.510838270187378, -2.696531295776367, -0.21153685450553894], [5.86405086517334, -6.920527458190918, -3.075223207473755, -11.82742691040039, -4.037561416625977, -6.111278057098389, -3.9101028442382812, 0.30897843837738037, -10.19898796081543, 8.832073211669922, -5.8513898849487305, 4.922235012054443, 4.329444408416748, -3.1138129234313965, -1.708645224571228, -13.390297889709473, -7.880711078643799, -6.080745220184326], [12.62982177734375, 10.001133918762207, 1.1984797716140747, -7.038361549377441, 5.968588829040527, -2.4285261631011963, 1.2960442304611206, -3.0973830223083496, 3.181936264038086, 1.1517620086669922, -1.8869775533676147, -12.813529968261719, -2.7482235431671143, -8.824195861816406, -9.376592636108398, -1.231818437576294, -4.701884746551514, -1.5148860216140747], [-4.543807506561279, 4.014419078826904, -2.429094076156616, -1.134055256843567, 5.159681797027588, 6.538533687591553, 8.203330993652344, 4.10946798324585, -0.26418226957321167, -0.19271361827850342, -17.291547775268555, 9.211713790893555, 4.620013236999512, -2.826368570327759, -0.892976701259613, 9.968810081481934, -1.4629638195037842, 12.174176216125488], [7.068240165710449, 4.484829902648926, 3.595815658569336, -1.4432138204574585, -3.6599807739257812, -10.7792329788208, -1.02438485622406, -0.7861536741256714, 7.734407424926758, -6.924581527709961, -6.324345588684082, 0.8692926168441772, -12.89928150177002, -3.1530964374542236, 10.848979949951172, 4.42891788482666, 0.5160017609596252, -8.90082836151123], [5.5338544845581055, 3.101778030395508, -10.761127471923828, 1.0811339616775513, 4.726456165313721, -10.920412063598633, -5.337066173553467, -3.9419732093811035, 2.4079556465148926, 7.4836249351501465, 4.613521575927734, -0.4582790732383728, 1.9289954900741577, 3.3692688941955566, 2.560426950454712, -0.24212397634983063, 1.2479054927825928, 0.29525521397590637], [-5.613961696624756, -1.5344135761260986, 2.953786611557007, -5.601551055908203, 1.4729218482971191, 12.309723854064941, -6.7306671142578125, 4.244255065917969, -0.8532249331474304, 8.752458572387695, -3.850667715072632, -5.862593173980713, 4.595278263092041, 2.1312050819396973, -1.2366554737091064, 0.12209442257881165, 6.468760013580322, -1.1829476356506348], [-3.0159733295440674, -5.722540855407715, 1.2637170553207397, 2.1948928833007812, -9.784965515136719, -3.3268485069274902, -9.021573066711426, 0.2915840744972229, 5.404532432556152, -0.8776735067367554, -4.730613708496094, 0.8664067983627319, 4.843169212341309, 4.760894775390625, 4.313822269439697, -5.777688026428223, -0.5672656297683716, 15.663687705993652], [0.006756218150258064, -2.613713026046753, -3.512190103530884, 6.07594633102417, -10.727784156799316, -0.6055729985237122, 1.9075638055801392, -1.565245509147644, 1.2483265399932861, 5.553370952606201, -10.339265823364258, 0.006595550570636988, -2.905912399291992, 6.361272811889648, -1.0310052633285522, 0.7060045003890991, 3.0801875591278076, -0.7938228845596313], [-0.34665149450302124, 0.28511515259742737, 0.3118647336959839, -7.606671333312988, 4.996591567993164, 3.2612340450286865, 4.602140426635742, 14.166613578796387, 0.4038468301296234, 1.0747734308242798, 0.10879044234752655, -5.6340765953063965, -1.2396454811096191, 3.9037392139434814, 7.354370594024658, 10.603715896606445, 0.07564671337604523, 0.7294528484344482], [2.6664609909057617, 6.211240768432617, -0.8035467863082886, -2.3078877925872803, -2.181915760040283, 5.169435024261475, -10.320980072021484, -1.637466549873352, 1.0039105415344238, -0.7074817419052124, -0.33795419335365295, -5.058830738067627, -12.39542293548584, -4.017919540405273, -1.5466153621673584, -4.527715682983398, -3.242138624191284, -10.507914543151855], [2.6169073581695557, -0.26028257608413696, 4.610836505889893, -7.613466262817383, 3.059159517288208, 12.42996597290039, 6.638340950012207, -4.083299160003662, -5.296807289123535, -3.4410810470581055, -1.2212765216827393, 6.651184558868408, 0.17769910395145416, 7.7387189865112305, -3.4169862270355225, -8.27238941192627, -9.90215015411377, -7.5856828689575195], [-0.5063103437423706, -3.546058416366577, -0.9205123782157898, -1.252780556678772, -1.2463172674179077, 2.8336360454559326, 12.506610870361328, 1.1710762977600098, 2.2632603645324707, 6.0050764083862305, -2.148904800415039, -10.191752433776855, 2.4891204833984375, -3.417633533477783, -5.245021343231201, -3.982832670211792, 10.826309204101562, -2.2395663261413574], [1.457911491394043, 3.143204927444458, -9.694291114807129, -5.254267692565918, -1.9668854475021362, 6.11748743057251, 1.860817551612854, 7.566953659057617, 3.6425533294677734, -7.029250144958496, 4.668878555297852, -2.455395221710205, -0.2262829840183258, 1.7937520742416382, 2.4491055011749268, 8.153970718383789, 11.354970932006836, -4.494758129119873], [5.462608814239502, 8.579371452331543, 4.467145919799805, -8.084973335266113, 5.500051021575928, 2.582648992538452, -7.617937088012695, -3.030703544616699, 2.8866348266601562, -0.7917704582214355, 2.8944809436798096, -0.6237106919288635, 15.439835548400879, 3.239558458328247, -1.9526798725128174, 2.396883010864258, 7.977621555328369, -2.4263925552368164], [-3.9355804920196533, -8.609299659729004, -0.881561815738678, 2.556666851043701, -6.8811469078063965, 2.2820866107940674, -1.9880316257476807, -11.419045448303223, -5.100137710571289, -0.42098572850227356, 4.879878997802734, -0.8077157735824585, -0.3119242489337921, 0.009430883452296257, -1.345218300819397, -3.1971991062164307, 0.8513131141662598, -3.6444091796875]], [[-3.885713577270508, 6.0505523681640625, -1.0370173454284668, -1.8020107746124268, -9.599026679992676, -11.935734748840332, -6.192076206207275, 9.17751407623291, 0.6573874354362488, 14.29549789428711, 8.473321914672852, -2.2814855575561523, 3.7921555042266846, 1.0052720308303833, -3.1335628032684326, -3.8450400829315186, 1.5308533906936646, -0.7758777141571045, 1.7970004081726074, -9.705838203430176, -9.48164176940918, 4.631832599639893, -0.42955729365348816, -0.06015520170331001, 3.902191638946533, 5.534461975097656, 4.232614994049072, -0.43460848927497864, -2.0572197437286377, -5.8038763999938965, 8.506844520568848, 4.454469203948975], [0.3392146825790405, 0.8938925862312317, 4.2042555809021, 1.6552636623382568, -4.599606990814209, 5.024398326873779, -0.7378175258636475, 7.485775470733643, -0.8154935240745544, 3.245563268661499, 11.777849197387695, -5.3345866203308105, -12.605680465698242, -0.21524693071842194, 5.118162155151367, 2.7237491607666016, -4.359389781951904, 4.45296573638916, 10.16527271270752, 2.0821781158447266, 9.482170104980469, 2.2186217308044434, 3.6711313724517822, -6.853742599487305, 0.6579535603523254, -2.9021410942077637, 3.7217793464660645, 3.8665378093719482, 1.0453095436096191, 1.3438129425048828, 3.1946866512298584, 1.691858172416687], [8.32138729095459, -8.146520614624023, 2.194305896759033, 0.7650144100189209, 5.049258708953857, 7.157983779907227, 2.6556289196014404, 10.342572212219238, 7.967304229736328, 10.593924522399902, -2.72637939453125, -5.032061576843262, -2.706009864807129, -1.7036561965942383, 4.107245445251465, 5.787123680114746, -0.5951423645019531, 1.158766508102417, 5.359405994415283, 3.549018383026123, -4.180043697357178, 1.2437005043029785, -14.987786293029785, 6.976766586303711, -13.15158462524414, 0.4843570590019226, 4.135732650756836, 0.9193467497825623, -3.891385793685913, 10.395282745361328, 10.283330917358398, -0.30313432216644287], [-18.5892333984375, -7.977640628814697, -0.2968309223651886, 3.3395583629608154, 2.5405638217926025, -4.7785797119140625, 4.30753755569458, -5.676543235778809, 1.201703667640686, 4.958527565002441, -3.072049140930176, 5.81639289855957, 1.9427132606506348, -0.2057347297668457, -1.4607583284378052, 6.531599521636963, -0.46223998069763184, 3.6445388793945312, 6.087830066680908, -7.486041069030762, 6.235952854156494, -0.6029601693153381, -3.4861886501312256, -2.2815024852752686, 7.725521564483643, 1.5364165306091309, -0.6772207617759705, 0.034703101962804794, 7.052816390991211, 7.0440287590026855, -5.922008991241455, 1.0479724407196045], [-2.6343743801116943, -1.783423900604248, 3.378726005554199, 2.198895215988159, 4.4616007804870605, 2.128283977508545, -4.352619647979736, 9.255020141601562, 3.906771183013916, -7.3362932205200195, -11.565752983093262, 5.005367755889893, -0.768586277961731, 3.933218479156494, 2.0173726081848145, 11.133557319641113, -2.96177077293396, -9.757266998291016, -5.191212177276611, 5.945115089416504, 7.8344855308532715, 2.2913331985473633, 8.13541030883789, 1.8510241508483887, 5.148690223693848, 8.236308097839355, -1.4809355735778809, 0.1438053399324417, -6.491123199462891, -6.0523223876953125, 6.648857116699219, -3.2713449001312256], [3.498936414718628, 0.7021015286445618, -2.772118330001831, -8.175272941589355, 12.014474868774414, -0.46004295349121094, -2.2177441120147705, -1.0749741792678833, 6.6416015625, 1.2047505378723145, 1.9256449937820435, -4.760044574737549, -7.527024269104004, -2.124070405960083, -1.8081841468811035, 10.415351867675781, -12.582808494567871, 6.04541015625, -1.1739660501480103, 1.058660626411438, -8.85200023651123, 1.0275874137878418, 0.6649844646453857, 4.64861536026001, 7.7551727294921875, -8.488724708557129, 2.9054133892059326, 4.021814823150635, -10.512044906616211, 3.55894136428833, 6.049315929412842, -6.155762672424316], [4.524957180023193, 1.8117681741714478, -0.7530869841575623, 2.8967807292938232, 12.799715042114258, -4.119568824768066, 3.3749876022338867, -1.410598874092102, -2.988962173461914, -2.175136089324951, 1.2387456893920898, 6.58903169631958, 8.360285758972168, -0.8875154852867126, 5.3780694007873535, -6.356080055236816, -4.155044078826904, 2.949782609939575, -3.1667287349700928, 8.307999610900879, 11.184855461120605, 0.06681748479604721, 2.075697660446167, -4.3198113441467285, 0.643715500831604, -6.665337085723877, -6.266845703125, 6.320676803588867, -1.309219241142273, -11.30457592010498, 1.9298838376998901, -0.6181561946868896], [8.47148323059082, -1.4974956512451172, 3.999959945678711, 0.0519418939948082, -2.0223240852355957, -0.5711265802383423, -2.980151414871216, -6.548191547393799, 0.1678449809551239, -1.3114116191864014, -4.762744903564453, -0.5770589709281921, 3.6327123641967773, -14.083962440490723, -3.097595691680908, -1.1920723915100098, -4.212106704711914, -0.6148003339767456, 7.8806586265563965, -11.656494140625, -1.8774477243423462, -7.800553321838379, 1.8694891929626465, -6.959173679351807, -10.188389778137207, -3.6497409343719482, 2.4992597103118896, -1.6483875513076782, -6.979732036590576, 7.242172718048096, -0.3222391605377197, 2.9205617904663086], [5.864814758300781, -8.787259101867676, 2.0833160877227783, 6.423299312591553, 9.910943984985352, -7.452476978302002, 8.433091163635254, 6.999299049377441, -3.0972840785980225, -6.2851338386535645, 7.972026824951172, -17.960432052612305, 4.732173442840576, -1.558605670928955, -0.43688738346099854, -2.8932995796203613, -6.018485069274902, 4.167478084564209, 4.757278919219971, -0.9951769113540649, -3.2528812885284424, -11.069703102111816, 4.2501749992370605, 3.9059417247772217, 5.343125343322754, -11.043604850769043, -10.635339736938477, -0.7001762986183167, -6.351474761962891, 9.513818740844727, -3.167992353439331, 2.856565475463867], [-0.23577585816383362, 2.2651596069335938, 10.278472900390625, -3.4733519554138184, 1.544935703277588, 2.765186071395874, -7.511077404022217, 2.960209846496582, 0.38213562965393066, 1.085353970527649, -6.736466407775879, 9.925873756408691, -10.146034240722656, -8.029065132141113, 9.903594970703125, -1.5325366258621216, 9.104012489318848, 1.047252893447876, 2.1066198348999023, 6.774939060211182, -3.152271032333374, 6.9420576095581055, -5.7374043464660645, -6.265994548797607, -6.57277250289917, -4.950373649597168, 0.027061939239501953, 9.825081825256348, -5.380112648010254, 5.2678446769714355, 10.13859748840332, 6.092462539672852], [0.24233433604240417, -1.6979517936706543, 10.077872276306152, 0.6679354906082153, 3.790233850479126, -3.048201084136963, 1.6323741674423218, -7.020370006561279, 1.0924209356307983, -0.18809618055820465, -6.481822967529297, -3.647642135620117, 6.624248504638672, -9.365900993347168, 4.349287986755371, 14.687719345092773, -4.917430400848389, 4.851438999176025, -5.023882865905762, -0.0642852932214737, -6.392730236053467, -3.5136327743530273, 0.4377132058143616, -1.2409226894378662, -0.2683427333831787, -4.384556770324707, 5.427791118621826, -1.2035106420516968, 4.191262245178223, -7.462991714477539, -1.089517593383789, 7.041348457336426], [-2.489931106567383, -1.287041425704956, 3.1905126571655273, 3.7594692707061768, 8.939656257629395, -4.532641887664795, -2.0938940048217773, -3.365973949432373, -6.931521892547607, 4.122799396514893, -4.8332695960998535, 2.1119017601013184, -0.9639821648597717, 7.201936721801758, -2.513727903366089, 6.793002605438232, -1.5092262029647827, 0.2813124358654022, -1.792583703994751, -2.651726722717285, -2.025897264480591, 2.9016616344451904, 1.3363747596740723, -0.4473903179168701, -3.872260808944702, 4.310923099517822, 3.4910824298858643, 7.283842086791992, -12.798203468322754, -8.26717758178711, 10.280316352844238, 7.9834980964660645], [-4.543023586273193, -8.261319160461426, -5.151303768157959, 3.4984028339385986, -5.164642810821533, 14.616430282592773, 4.260852813720703, 2.7610416412353516, -1.6354706287384033, -6.172640800476074, 6.87061882019043, -0.2719862461090088, -7.8954997062683105, 7.885749816894531, 1.9389747381210327, 4.706101894378662, -0.4112333059310913, -1.6088318824768066, -0.46229469776153564, -3.6152431964874268, -1.7031558752059937, -3.0992612838745117, 4.672699451446533, 1.3955886363983154, -5.412152290344238, 2.8038885593414307, 6.510150909423828, 0.11706303060054779, -3.1153616905212402, -3.7448010444641113, -4.126699447631836, 2.236725091934204], [-0.4604033827781677, -1.7103946208953857, -9.178634643554688, 1.3196167945861816, 0.10801460593938828, -2.778813123703003, 13.831921577453613, -3.362124443054199, 1.7404921054840088, -6.799744606018066, -8.335128784179688, -6.554584503173828, -2.7920804023742676, 1.3776651620864868, 4.727352142333984, 7.172676086425781, 7.276656150817871, 2.373591899871826, 3.9007556438446045, 0.07396721839904785, -2.253014087677002, -8.192395210266113, 1.9836280345916748, 0.7608802318572998, 0.16124054789543152, 0.9912352561950684, -6.602020740509033, -3.5531091690063477, 6.441538333892822, -8.2628812789917, -9.010185241699219, -3.1653828620910645], [-4.422183513641357, -7.4272613525390625, -1.8286365270614624, -3.9922542572021484, -3.5745255947113037, 3.9246768951416016, 7.2775068283081055, -1.041735291481018, 4.042478084564209, -0.8728349804878235, 1.2597472667694092, -0.3120112419128418, 2.146496534347534, -1.5866988897323608, -4.773734092712402, 2.7570927143096924, 0.022245407104492188, -6.868061542510986, 2.25116229057312, -11.180632591247559, 6.871626377105713, 0.7929258346557617, -6.599078178405762, -8.111031532287598, -0.9171209335327148, -1.420235514640808, -1.3413726091384888, 14.773974418640137, -2.7606260776519775, -8.798839569091797, -1.2947890758514404, -4.690791130065918], [9.327349662780762, -5.008497714996338, -2.7155208587646484, 5.962945938110352, -4.153331756591797, -13.324141502380371, 3.9398887157440186, -6.9599456787109375, -2.8296942710876465, -9.477577209472656, 0.37272199988365173, -4.335587024688721, 4.70687198638916, 4.0400824546813965, 0.10538635402917862, 2.9854893684387207, 4.292288780212402, 1.7226170301437378, 1.4951051473617554, 5.572908401489258, -4.697759628295898, 8.287464141845703, -4.857898235321045, -3.4903903007507324, -2.2882444858551025, -8.09943675994873, 0.2998742461204529, 1.6004360914230347, -1.9015733003616333, -2.9023571014404297, -0.33420896530151367, 2.2845592498779297]], [[-5.3491740226745605, 1.3537014722824097, -4.813971042633057, -10.808446884155273, -0.06445971131324768, -1.0262778997421265, 5.77745246887207, -0.41688376665115356, 0.6962999701499939, -0.01731358841061592, 8.88918399810791, 3.963106155395508, 7.547250270843506, -9.646894454956055, -8.813581466674805, 1.7887275218963623], [5.464754104614258, -5.5399274826049805, -10.03395938873291, 3.5608627796173096, 5.7648701667785645, -1.0669453144073486, -4.031463146209717, 3.804882287979126, -4.067770957946777, 6.461062908172607, -0.4135303497314453, 8.31917953491211, 5.372773170471191, 3.3822720050811768, -9.04076099395752, 3.1757750511169434], [0.30027732253074646, -0.46062174439430237, -3.9291341304779053, -4.581719875335693, -2.5931806564331055, 0.8772749900817871, -11.341330528259277, -10.660818099975586, -6.007938861846924, -2.209294557571411, 3.627331495285034, -0.8680244088172913, 7.225313663482666, 1.731963872909546, -1.334242582321167, -8.652938842773438], [3.4240689277648926, 5.558239459991455, 3.3009865283966064, -1.7101622819900513, -0.2843666076660156, 1.8926469087600708, -2.779102325439453, -1.2633082866668701, -4.511215686798096, 2.1761696338653564, 4.569304466247559, -11.585756301879883, -7.839870929718018, 0.6005264520645142, 0.5211657881736755, 12.517451286315918], [2.446404457092285, 6.63340425491333, 3.7871031761169434, -5.934430122375488, -6.536044120788574, -0.15876014530658722, -16.051401138305664, 1.5807921886444092, -8.47725772857666, 7.970720291137695, -3.320176362991333, -5.860421657562256, -0.26584380865097046, 6.371693134307861, 3.977731227874756, 0.0032384321093559265], [-5.027591705322266, -4.4431538581848145, 0.43997251987457275, -7.813140392303467, 4.216976165771484, -2.001464366912842, -17.51634979248047, 7.314572811126709, -2.9632890224456787, -4.230029582977295, 2.1509242057800293, 1.1530451774597168, -4.5965681076049805, 4.215580463409424, -5.096368789672852, -7.174736499786377], [6.534084796905518, 0.11995650827884674, 5.591137409210205, 1.7922382354736328, -7.101957321166992, -5.050928592681885, 0.549248456954956, 4.232510566711426, -2.3046061992645264, -5.804929256439209, -5.189568996429443, 2.258824586868286, -0.2605581283569336, -5.468379974365234, -4.751634120941162, 10.214802742004395], [7.90339994430542, -0.9741973876953125, 0.7195135951042175, 16.64057731628418, 1.8373055458068848, -6.845175266265869, 1.8493008613586426, -0.1879461705684662, -0.2626610994338989, -6.770360469818115, 1.7692219018936157, 3.2537577152252197, 6.919234275817871, 3.309338331222534, -13.795703887939453, -8.867207527160645]], [[-4.328520774841309, 4.9105048179626465, 0.14469075202941895, 5.972602844238281, -2.2576942443847656, 10.815719604492188, -0.49552038311958313, -3.18273663520813], [-8.157890319824219, 2.880305767059326, 0.7131233215332031, -3.145982265472412, -7.80040979385376, -0.8815642595291138, -2.7159085273742676, 2.9706926345825195]]], "brain_biases": [[-1.149253010749817, -5.30625057220459, 0.25712159276008606, -3.673031806945801, -2.310560703277588, -8.398116111755371, -0.4553910493850708, 9.566033363342285, 0.820648729801178, -0.3023884892463684, -0.34049665927886963, -11.222455024719238, -3.2916595935821533, -9.45108413696289, 1.661954402923584, 7.7687788009643555, -5.952475547790527, -3.4603915214538574, -2.8664796352386475, 2.0913195610046387, 0.257499098777771, -9.042364120483398, 7.840360164642334, 9.048481941223145, 4.037172794342041, 3.699336528778076, -8.681742668151855, -3.7166435718536377, 0.33824196457862854, 0.489056259393692, 6.407519340515137, 12.756636619567871], [-5.655235767364502, 0.212367981672287, 6.490098476409912, 1.0649431943893433, 6.695485591888428, 0.07186611741781235, -1.437857747077942, -4.113987445831299, 7.514944076538086, 0.9588448405265808, -13.9640531539917, -15.045456886291504, 2.670745372772217, -1.6780760288238525, 5.643521785736084, -4.725895404815674], [4.3684234619140625, -1.1466668844223022, 3.710988998413086, -2.014091968536377, 2.121800661087036, -2.3254551887512207, -3.455061674118042, 0.28858494758605957], [0.19465559720993042, -0.2428072988986969]], "sensor_retina_count": 18, "sensor_vision_radius": 180.0, "sensor_fov_degrees": 180.0, "sensor_skip": 2, "sensor_see_food": true, "sensor_see_bacteria": false, "sensor_see_predators": true, "locomotion_max_speed": 300.0, "locomotion_max_turn": 3.141592653589793, "energy_death_energy": 0.0, "energy_split_energy": 200.0, "energy_v0_cost": 3.0, "energy_vmax_cost": 6.0, "energy_vmax_ref": 300.0, "energy_energy_cap": 200.0, "energy_loss_idle": 3.0, "energy_loss_move": 6.0, "last_brain_output": [11.54955005645752, -0.4899958670139313], "last_brain_activations": [[-1.0, -1.0, -1.0, -1.0, -1.0, 0.9925186634063721, 0.9996410012245178, 1.0, 1.0, 1.0, 1.0, -1.0, -1.0, -1.0, -0.9999998211860657, -1.0, -0.9999920725822449, -1.0, -1.0, 1.0, -1.0, -0.9980378150939941, 1.0, 0.9997966289520264, -0.9999246001243591, 1.0, -1.0, -0.9999999403953552, 0.9992980360984802, 1.0, 1.0, -1.0], [0.9999999403953552, 0.9986881613731384, 1.0, -1.0, -0.9909947514533997, 1.0, -1.0, -1.0, 1.0, -1.0, -1.0, -1.0, 1.0, 0.9269540309906006, -0.9999997019767761, -1.0], [-0.9999951720237732, -1.0, 1.0, -0.9472005367279053, 1.0, 1.0, -0.15724493563175201, 1.0], [-0.4467042088508606, 3.44351863861084]]}, {"type": "bacteria", "x": 890.5952397400964, "y": 3925.2834450790983, "r": 9.0, "angle": -2.7002792318069644, "vx": -271.25495419599616, "vy": -128.137054199345, "energy": 122.08334956007387, "age": 61.3236666666676, "brain_sizes": [18, 32, 16, 8, 2], "brain_version": 32170, "brain_weights": [[[-6.283402919769287, 4.372386932373047, 6.02631950378418, -0.5869086384773254, -2.5880255699157715, 9.688728332519531, 7.39164400100708, -3.5356674194335938, -0.010360188782215118, 6.288382053375244, -4.119729042053223, -6.936731815338135, 5.4204421043396, -5.809576034545898, -8.520068168640137, -9.34101390838623, -1.0710482597351074, -4.568943977355957], [-2.1331634521484375, 2.36093807220459, -5.621344089508057, 13.112793922424316, -15.41213607788086, -3.8173699378967285, 1.9365299940109253, 0.059623949229717255, -9.42451000213623, 7.36952018737793, -0.5351753234863281, -5.926846981048584, 0.7154496312141418, -2.4875707626342773, -2.7856738567352295, 8.234721183776855, -3.654348611831665, 7.098659515380859], [3.1049373149871826, -3.401400327682495, 10.427762985229492, -1.90288507938385, -1.5407088994979858, -8.933636665344238, 8.212636947631836, -1.7956318855285645, -1.7859008312225342, 2.403920888900757, -0.3598611652851105, -5.022663593292236, 1.9427025318145752, 5.003167629241943, -9.802730560302734, -0.138504296541214, -7.087582111358643, -3.3361852169036865], [1.708280324935913, -9.10052490234375, -6.096441745758057, 9.94046401977539, -5.59077787399292, 2.305332660675049, -2.982306718826294, -10.092992782592773, -2.165482759475708, 5.978066444396973, -5.538233280181885, 6.219953536987305, -0.3683350384235382, -4.915074348449707, -4.235461235046387, -11.409154891967773, -2.017988681793213, 1.1938155889511108], [-1.1791155338287354, -5.442286491394043, 0.7140357494354248, -9.68638801574707, -17.581392288208008, -1.6280125379562378, 3.6597065925598145, -2.7664084434509277, -15.06238842010498, -1.460890531539917, 2.500908851623535, 4.567965507507324, 6.0717997550964355, -4.786834239959717, -0.34555894136428833, 10.111967086791992, 8.251302719116211, -8.584712982177734], [13.058204650878906, 2.9043076038360596, 9.696435928344727, 7.036745071411133, -5.255880355834961, -3.5443103313446045, 9.471698760986328, -7.76627254486084, -6.780759811401367, 3.6196579933166504, -5.152150630950928, 2.2474982738494873, 6.663206577301025, -4.300728797912598, 1.8272753953933716, -9.60057258605957, -0.9080085754394531, -4.163609981536865], [-4.853647708892822, 12.381499290466309, -5.298313140869141, 9.375528335571289, -10.768856048583984, -2.9938433170318604, -4.1400299072265625, -0.936037540435791, 8.029325485229492, 4.204250335693359, 11.722123146057129, -4.352782726287842, -4.207334041595459, 1.9549775123596191, 1.7656114101409912, -0.4608554244041443, -1.034164547920227, -5.471497058868408], [-5.032804012298584, 7.542775630950928, 6.394113063812256, 13.398479461669922, -1.8985856771469116, 2.440636157989502, 11.174001693725586, 1.0050231218338013, 4.911695957183838, 7.971997261047363, -12.166866302490234, 0.2722538113594055, -1.903562307357788, 4.279447555541992, 4.919851303100586, -8.133472442626953, -1.2738929986953735, -1.2305108308792114], [-0.7194883823394775, -0.08977454155683517, -3.930555820465088, 1.718505620956421, 0.6685064435005188, 8.757314682006836, -0.974786102771759, -2.148101806640625, -1.6717236042022705, -3.639784336090088, -1.079659104347229, 0.7545804977416992, 10.422076225280762, 10.361143112182617, -7.231716156005859, 3.2192227840423584, 2.953888177871704, 6.77928352355957], [0.8434961438179016, -8.474440574645996, 11.097061157226562, 1.4396541118621826, -0.14050014317035675, -1.7326749563217163, 2.1320385932922363, 1.999489188194275, 10.636775970458984, 1.8165645599365234, 0.9610639810562134, 4.619657516479492, -0.22521743178367615, -0.1912882924079895, 0.5468645095825195, 9.119402885437012, -1.2005447149276733, 2.1680212020874023], [9.480441093444824, 5.863651275634766, 2.5497641563415527, 3.5433778762817383, 5.6443281173706055, 0.2678265869617462, 6.540119647979736, 0.7918641567230225, -1.190999984741211, -2.989363670349121, 1.8734990358352661, -4.667533874511719, -0.8347995281219482, -3.3611862659454346, -5.6363630294799805, 7.051216125488281, 6.05654239654541, 1.8630883693695068], [-4.1688432693481445, 1.0817978382110596, 2.2199020385742188, 1.2829095125198364, -1.5798630714416504, -0.45628947019577026, -9.180879592895508, -0.8990773558616638, 1.3924480676651, -6.2420477867126465, 0.39785996079444885, 6.900972843170166, 0.6958099007606506, -0.1829293966293335, 0.24045021831989288, -4.5680341720581055, 3.6571176052093506, 4.37184476852417], [0.8169765472412109, 0.6174459457397461, -2.1741154193878174, -1.087201714515686, -5.029724597930908, 0.11070941388607025, -7.317986965179443, 1.137803316116333, -3.658520460128784, -1.4584277868270874, -4.784852027893066, 3.1505138874053955, 7.324090480804443, 0.09138975292444229, -5.318204879760742, -0.17362721264362335, 0.14635887742042542, -0.2017357498407364], [7.686071872711182, 2.062730312347412, -5.952722549438477, -9.849861145019531, 1.2937994003295898, 2.477081060409546, -1.7608914375305176, 1.9900845289230347, -7.1983232498168945, -10.390028953552246, -3.0648162364959717, -2.992034435272217, -7.4437642097473145, -2.072953701019287, 6.9435296058654785, 13.06461238861084, 2.9536242485046387, -1.0064202547073364], [-4.554121971130371, -3.114809513092041, 6.654835224151611, 3.6812760829925537, 7.777153491973877, -1.2029523849487305, -1.896382212638855, 0.2836076319217682, -0.8722618818283081, -13.855448722839355, 0.5406801104545593, -3.4719905853271484, -2.561877489089966, 8.030803680419922, 1.38591730594635, -1.892843246459961, 4.821195602416992, -10.140378952026367], [-14.59278392791748, -7.595382213592529, 2.2129809856414795, 6.610065460205078, 3.0389158725738525, 0.9209704995155334, 2.4568817615509033, -5.75783634185791, 7.287714004516602, -4.8678131103515625, -4.018628120422363, -4.303268909454346, -6.67104959487915, -3.738121509552002, -14.4975004196167, -11.5684232711792, 0.40824341773986816, -2.4017722606658936], [0.4535984396934509, 0.39952120184898376, 13.652591705322266, -0.6996363997459412, -2.592177152633667, -0.8255434036254883, 4.4279327392578125, -0.31998318433761597, -5.764210224151611, -5.855177879333496, 5.20344877243042, -4.144515037536621, 0.07510335743427277, -8.89182186126709, 5.426252841949463, 1.4931098222732544, -2.696894645690918, -0.21153685450553894], [5.86405086517334, -6.920527458190918, -3.075223207473755, -11.82742691040039, -4.037561416625977, -6.111278057098389, -4.082403659820557, 0.23191282153129578, -10.19898796081543, 8.832073211669922, -5.866511821746826, 4.982059001922607, 4.394320487976074, -3.1138129234313965, -1.7402375936508179, -13.560541152954102, -7.880711078643799, -6.080745220184326], [12.62982177734375, 10.03543472290039, 1.1984797716140747, -7.110202312469482, 5.968588829040527, -2.4285261631011963, 1.2960442304611206, -3.0973830223083496, 3.181936264038086, 0.9090296030044556, -2.130673408508301, -12.813529968261719, -2.7482235431671143, -8.824195861816406, -9.376592636108398, -1.177547574043274, -4.701884746551514, -1.489487648010254], [-4.543807506561279, 4.044837951660156, -2.3354673385620117, -1.2430427074432373, 5.265381336212158, 6.538533687591553, 8.203330993652344, 4.10946798324585, -0.26418226957321167, -0.19271361827850342, -17.330787658691406, 9.211713790893555, 4.7234039306640625, -2.794532537460327, -0.687470018863678, 9.968810081481934, -1.4629638195037842, 12.397842407226562], [7.068240165710449, 4.484829902648926, 3.7191834449768066, -1.3340270519256592, -3.7985877990722656, -10.775919914245605, -1.02438485622406, -0.7861536741256714, 7.734407424926758, -7.078706741333008, -6.324345588684082, 0.8692926168441772, -12.969300270080566, -3.1530964374542236, 10.848979949951172, 4.42891788482666, 0.6234754323959351, -9.0274658203125], [5.5020647048950195, 3.101778030395508, -10.793963432312012, 1.0811339616775513, 4.8967695236206055, -10.920412063598633, -5.146121501922607, -3.881145477294922, 2.4079556465148926, 7.4836249351501465, 4.613521575927734, -0.4582790732383728, 1.9289954900741577, 3.4077324867248535, 2.560426950454712, -0.3150756061077118, 1.357886552810669, 0.29525521397590637], [-5.682156085968018, -1.5344135761260986, 3.0067710876464844, -5.601551055908203, 1.4729218482971191, 12.309723854064941, -6.658865928649902, 4.244255065917969, -0.7634446620941162, 8.752458572387695, -3.850667715072632, -5.703172206878662, 4.595278263092041, 2.1312050819396973, -1.2366554737091064, 0.12209442257881165, 6.468760013580322, -1.1829476356506348], [-3.0024025440216064, -5.722540855407715, 1.2637170553207397, 2.1948928833007812, -9.777558326721191, -3.3402903079986572, -8.856356620788574, 0.2915840744972229, 5.331357955932617, -0.9481029510498047, -4.730613708496094, 0.7149981260299683, 4.843169212341309, 4.922641754150391, 4.313822269439697, -5.600950241088867, -0.54608553647995, 15.552323341369629], [0.006756218150258064, -2.7331008911132812, -3.512190103530884, 6.07594633102417, -10.727784156799316, -0.5423052310943604, 1.9075638055801392, -1.5348352193832397, 1.229177713394165, 5.451757907867432, -10.225484848022461, 0.017385931685566902, -2.905912399291992, 6.361272811889648, -1.0310052633285522, 0.7337555289268494, 3.0049057006835938, -0.7938228845596313], [-0.4984722137451172, 0.28511515259742737, 0.3118647336959839, -7.515930652618408, 4.996591567993164, 3.3770344257354736, 4.602140426635742, 14.166613578796387, 0.425123006105423, 1.1424388885498047, -0.10736040771007538, -5.6340765953063965, -1.2396454811096191, 3.9037392139434814, 7.354370594024658, 10.603715896606445, 0.07564671337604523, 0.7294528484344482], [2.641322374343872, 6.179074764251709, -0.8035467863082886, -2.3078877925872803, -2.1455938816070557, 5.169435024261475, -10.489928245544434, -1.637466549873352, 1.0039105415344238, -0.7074817419052124, -0.33795419335365295, -5.258787155151367, -12.22643756866455, -3.9735028743743896, -1.5594136714935303, -4.528594017028809, -3.15742826461792, -10.695137023925781], [2.6169073581695557, -0.26028257608413696, 4.648879528045654, -7.613466262817383, 3.033104658126831, 12.381330490112305, 6.599976539611816, -4.083299160003662, -5.296807289123535, -3.4410810470581055, -1.2212765216827393, 6.651184558868408, 0.17769910395145416, 7.7387189865112305, -3.552570104598999, -8.19871997833252, -9.90215015411377, -7.5856828689575195], [-0.3659452199935913, -3.583761692047119, -0.9205123782157898, -1.252780556678772, -1.308000087738037, 2.8336360454559326, 12.506610870361328, 1.1710762977600098, 2.31026291847229, 6.2278032302856445, -2.148904800415039, -10.143009185791016, 2.4712586402893066, -3.417633533477783, -5.48040246963501, -4.1301188468933105, 10.826309204101562, -2.087689161300659], [1.5203931331634521, 3.143204927444458, -9.646161079406738, -5.254267692565918, -1.9668854475021362, 6.11748743057251, 1.9394429922103882, 7.541835308074951, 3.6425533294677734, -7.029250144958496, 4.564797878265381, -2.455395221710205, -0.2262829840183258, 1.8953365087509155, 2.4491055011749268, 8.027498245239258, 11.354970932006836, -4.6115803718566895], [5.462608814239502, 8.579371452331543, 4.4539995193481445, -8.084973335266113, 5.374208927154541, 2.582648992538452, -7.572239875793457, -3.030703544616699, 2.9448020458221436, -0.7917704582214355, 2.8944809436798096, 