{"version": 2, "timestamp": "20250906_211302", "params": {"time_scale": 10.0, "fps": 60.0, "paused": true, "use_spatial": true, "substrate_shape": "rectangular", "world_w": 5000.0, "world_h": 5000.0, "substrate_radius": 5000.0, "max_deaths_per_step": 5, "retina_skip": 2, "retina_vision_mode": "fullbody", "simple_render": false, "reuse_spatial_grid": true, "food_target": 200, "food_min_r": 8.0, "food_max_r": 10.0, "food_replenish_interval": 0.1, "bacteria_count": 100, "bacteria_min_r": 6.0, "bacteria_max_r": 12.0, "bacteria_min_limit": 20, "bacteria_max_limit": 400, "bacteria_initial_energy": 100.0, "bacteria_death_energy": 0.0, "bacteria_split_energy": 200.0, "bacteria_metab_v0_cost": 3.0, "bacteria_metab_vmax_cost": 6.0, "bacteria_energy_cap": 200.0, "bacteria_body_size": 9.0, "bacteria_max_speed": 300.0, "bacteria_max_turn": 3.141592653589793, "bacteria_vision_radius": 180.0, "bacteria_vision_mode": "frontal", "bacteria_retina_count": 18, "bacteria_retina_fov_degrees": 180.0, "bacteria_show_vision": true, "bacteria_retina_see_food": true, "bacteria_retina_see_bacteria": false, "bacteria_retina_see_predators": true, "bacteria_hidden_layers": 3, "bacteria_neurons_layer_1": 32, "bacteria_neurons_layer_2": 16, "bacteria_neurons_layer_3": 8, "bacteria_neurons_layer_4": 20, "bacteria_neurons_layer_5": 0, "bacteria_mutation_rate": 0.1, "bacteria_mutation_strength": 0.1, "bacteria_structural_jitter": 0, "predators_enabled": true, "predator_count": 1, "predator_min_r": 10.0, "predator_max_r": 18.0, "predator_min_limit": 1, "predator_max_limit": 100, "predator_initial_energy": 100.0, "predator_death_energy": 100.0, "predator_split_energy": 400.0, "predator_metab_v0_cost": 10.0, "predator_metab_vmax_cost": 15.0, "predator_energy_cap": 400.0, "predator_body_size": 30.0, "predator_max_speed": 300.0, "predator_max_turn": 3.141592653589793, "predator_vision_radius": 500.0, "predator_vision_mode": "frontal", "predator_retina_count": 18, "predator_retina_fov_degrees": 120.0, "predator_show_vision": false, "predator_retina_see_food": false, "predator_retina_see_bacteria": true, "predator_retina_see_predators": false, "predator_hidden_layers": 3, "predator_neurons_layer_1": 32, "predator_neurons_layer_2": 16, "predator_neurons_layer_3": 8, "predator_neurons_layer_4": 0, "predator_neurons_layer_5": 0, "predator_mutation_rate": 0.1, "predator_mutation_strength": 0.1, "predator_structural_jitter": 0, "agents_inertia": 1.0, "show_selected_details": true, "substrate_bg_color": [18, 7, 53], "food_color": [50, 100, 0], "bacteria_color": [173, 115, 0], "predator_color": [154, 0, 0], "disable_brain_activations": false, "auto_export_substrate": true, "auto_export_interval_minutes": 10.0}, "ui_params": {"time_scale": 10.0, "fps": 60, "paused": true, "use_spatial": true, "retina_skip": 2, "retina_vision_mode": "fullbody", "simple_render": false, "reuse_spatial_grid": true, "agents_inertia": 1.0, "show_selected_details": true, "enable_brain_activations": true, "auto_export_substrate": true, "auto_export_interval_minutes": 10.0, "food_target": 200, "food_min_r": 8.0, "food_max_r": 10.0, "food_replenish_interval": 0.1, "world_w": 5000.0, "world_h": 5000.0, "substrate_shape": "rectangular", "substrate_radius": 5000.0, "bacteria_count": 100, "bacteria_min_limit": 20, "bacteria_max_limit": 400, "bacteria_initial_energy": 100.0, "bacteria_death_energy": 0.0, "bacteria_split_energy": 200.0, "bacteria_metab_v0_cost": 3.0, "bacteria_metab_vmax_cost": 6.0, "bacteria_energy_cap": 200.0, "bacteria_body_size": 9.0, "bacteria_vision_radius": 180.0, "bacteria_retina_count": 18, "bacteria_retina_fov_degrees": 180.0, "bacteria_max_speed": 300.0, "bacteria_max_turn_deg": 180.0, "bacteria_hidden_layers": 3, "bacteria_neurons_layer_1": 32, "bacteria_neurons_layer_2": 16, "bacteria_neurons_layer_3": 8, "bacteria_neurons_layer_4": 20, "bacteria_neurons_layer_5": 0, "bacteria_mutation_rate": 0.1, "bacteria_mutation_strength": 0.1, "bacteria_show_vision": true, "bacteria_retina_see_food": true, "bacteria_retina_see_bacteria": false, "bacteria_retina_see_predators": true, "predators_enabled": true, "predator_count": 1, "predator_min_limit": 1, "predator_max_limit": 100, "predator_initial_energy": 100.0, "predator_death_energy": 100.0, "predator_split_energy": 400.0, "predator_metab_v0_cost": 10.0, "predator_metab_vmax_cost": 15.0, "predator_energy_cap": 400.0, "predator_body_size": 30.0, "predator_vision_radius": 500.0, "predator_retina_count": 18, "predator_retina_fov_degrees": 120.0, "predator_max_speed": 300.0, "predator_max_turn_deg": 180.0, "predator_hidden_layers": 3, "predator_neurons_layer_1": 32, "predator_neurons_layer_2": 16, "predator_neurons_layer_3": 8, "predator_neurons_layer_4": 0, "predator_neurons_layer_5": 0, "predator_mutation_rate": 0.1, "predator_mutation_strength": 0.1, "predator_retina_see_food": false, "predator_retina_see_bacteria": true, "predator_retina_see_predators": false, "predator_show_vision": false, "test_param_1": 1, "test_param_2": 2, "test_param_3": 3.0, "test_param_4": 4, "test_param_5": 5, "test_param_6": 6.0, "test_param_7": 7, "test_param_8": 8, "test_param_9": 9.0, "test_param_10": 10, "test_param_11": 11, "test_param_12": 12.0, "test_param_13": 13, "test_param_14": 14, "test_param_15": 15.0, "test_param_16": 16, "test_param_17": 17, "test_param_18": 18.0, "test_param_19": 19, "test_param_20": 20, "test_param_21": 21.0, "test_param_22": 22, "test_param_23": 23, "test_param_24": 24.0, "test_param_25": 25, "test_param_26": 26, "test_param_27": 27.0, "test_param_28": 28, "test_param_29": 29, "test_param_30": 30.0}, "world": {"width": 5000.0, "height": 5000.0, "shape": "rectangular", "radius": 5000.0}, "camera": {"x": -1169.3095924368677, "y": -758.7873234588747, "zoom": 0.13109994191500587}, "simulation": {"total_simulation_time": 839527.6605995849}, "food": {"count": 198, "target": 200}, "agents": [{"type": "bacteria", "x": 970.220418473848, "y": 2543.1807162205814, "r": 9.0, "angle": 2.131591310527766, "vx": -159.37670435447697, "vy": 253.76130549741598, "energy": 76.90978954508869, "age": 145.08250000000024, "brain_sizes": [18, 32, 16, 8, 2], "brain_version": 31468, "brain_weights": [[[-6.544419288635254, 4.226683139801025, 6.486016273498535, -0.14698272943496704, -3.3052139282226562, 10.049323081970215, 5.697377681732178, -3.734579086303711, -0.2195698320865631, 6.9142374992370605, -3.520855188369751, -7.946807861328125, 5.967761993408203, -5.223291397094727, -8.86679744720459, -8.546403884887695, -1.3715426921844482, -5.470366954803467], [-2.8405187129974365, 2.3328425884246826, -5.174722194671631, 11.456725120544434, -14.717388153076172, -2.870845317840576, 2.210688591003418, 0.052888866513967514, -7.433030128479004, 6.947686195373535, -0.4473605453968048, -5.445662021636963, 1.0800541639328003, -1.7530550956726074, -2.022381067276001, 8.493844985961914, -3.186591625213623, 8.055929183959961], [2.9935450553894043, -3.451711893081665, 11.05994701385498, -1.8216400146484375, -1.0013161897659302, -8.793251037597656, 7.865849494934082, -0.5733180046081543, -1.2224417924880981, 1.5664868354797363, -0.22763657569885254, -4.299535751342773, 1.9461755752563477, 3.018242835998535, -10.411988258361816, 0.8454152345657349, -7.195504188537598, -2.9037342071533203], [2.5289368629455566, -8.343716621398926, -7.445979595184326, 9.545310974121094, -3.9460597038269043, 2.622138023376465, -2.487586498260498, -8.923393249511719, -2.437758684158325, 4.816650867462158, -4.834359169006348, 6.483147621154785, -0.3219640254974365, -7.441282272338867, -2.987541437149048, -10.333695411682129, -2.6072237491607666, 1.4341254234313965], [-2.4463346004486084, -4.915262222290039, 0.37269455194473267, -9.148263931274414, -17.51009178161621, -0.20756974816322327, 4.366100788116455, -3.364760398864746, -14.51947021484375, -0.8939423561096191, 4.220192909240723, 4.239725589752197, 6.592581272125244, -4.275600433349609, -1.1260042190551758, 9.999740600585938, 7.874072074890137, -6.830354690551758], [12.89225959777832, 3.4225685596466064, 9.32275390625, 8.521486282348633, -6.4185099601745605, -2.8834903240203857, 8.494627952575684, -6.972482681274414, -6.4257283210754395, 5.561329364776611, -5.345033645629883, 0.625796914100647, 6.997252941131592, -3.71425461769104, 3.6885430812835693, -9.232295989990234, -2.460980176925659, -1.9721189737319946], [-4.345215797424316, 11.503913879394531, -5.162415027618408, 10.252762794494629, -9.013007164001465, -4.448722839355469, -2.9526073932647705, -1.331608533859253, 7.558463096618652, 4.263479232788086, 12.18559455871582, -4.475948810577393, -6.374260902404785, 0.9473677277565002, 2.6518142223358154, -0.40155792236328125, -0.3131234347820282, -6.039586544036865], [-5.493753433227539, 8.126018524169922, 6.539856433868408, 13.68320083618164, -3.640535831451416, 2.416581630706787, 12.480395317077637, 0.7370234727859497, 4.706082344055176, 8.078079223632812, -13.070478439331055, 0.8973309397697449, -1.5008388757705688, 1.9584953784942627, 3.4593915939331055, -7.834001541137695, -2.1763384342193604, -0.19744990766048431], [-1.322977066040039, 0.8564113974571228, -5.662543296813965, 2.2690491676330566, 1.0371932983398438, 7.3955607414245605, 0.5297776460647583, -1.3647936582565308, -2.0931715965270996, -2.3565785884857178, -0.6657198667526245, 2.040841579437256, 10.182653427124023, 10.588784217834473, -8.058050155639648, 3.1533801555633545, 2.7541306018829346, 6.680545806884766], [-0.0314372181892395, -7.542380332946777, 9.386340141296387, 0.5659245848655701, 0.28169500827789307, -1.9944109916687012, 1.7721422910690308, 2.988884925842285, 9.016491889953613, 1.5084903240203857, -0.19477689266204834, 4.194969654083252, -0.33132612705230713, -1.0668226480484009, -0.1810644418001175, 8.462695121765137, -0.5157404541969299, 1.4742794036865234], [9.987578392028809, 5.55086088180542, 3.316494941711426, 2.2378947734832764, 4.453429698944092, 0.8692969083786011, 6.406786918640137, -0.6311636567115784, -0.7097005844116211, -2.7635819911956787, 1.7270312309265137, -5.386260032653809, -1.7821996212005615, -4.392229080200195, -5.2557268142700195, 5.6743998527526855, 6.542167663574219, 1.735527753829956], [-5.404646873474121, 2.2967052459716797, 3.0945162773132324, 2.070345640182495, -1.3757299184799194, -1.2348873615264893, -8.967358589172363, -0.6765111684799194, 0.6726866364479065, -5.268427848815918, 1.1885261535644531, 7.769705772399902, 0.1647498905658722, -1.415268063545227, 0.7410833239555359, -2.9236021041870117, 5.229394912719727, 3.3013875484466553], [0.1952131688594818, 1.2001252174377441, -2.135953187942505, -1.0185946226119995, -5.126154899597168, 0.6646195650100708, -5.206897258758545, -0.22467966377735138, -3.856062889099121, -0.398220956325531, -6.047268867492676, 2.812560558319092, 8.84292984008789, 0.039433516561985016, -5.834327220916748, 0.5508481860160828, -0.6930183172225952, -1.4023597240447998], [6.083804130554199, 0.8316535949707031, -4.574470043182373, -10.46524715423584, 0.7841068506240845, 3.563628911972046, -0.9480283856391907, 2.000131845474243, -6.799485206604004, -8.94579792022705, -4.528202056884766, -5.077152729034424, -6.802248001098633, -3.6411314010620117, 6.907071590423584, 12.267118453979492, 3.0627143383026123, -1.8410553932189941], [-3.5733330249786377, -2.8150148391723633, 5.769862651824951, 1.7879638671875, 6.698870658874512, -0.8802757263183594, -0.791017472743988, 0.07911428064107895, -1.5668306350708008, -13.211504936218262, 1.179983139038086, -3.6170151233673096, -2.5385475158691406, 7.7180376052856445, 2.1677844524383545, -2.538280963897705, 4.689271450042725, -9.991189956665039], [-12.873839378356934, -5.48572301864624, 2.6050832271575928, 5.983017444610596, 3.533740997314453, 1.2215662002563477, 3.457242965698242, -4.902702808380127, 6.7001237869262695, -5.282400131225586, -3.9722816944122314, -4.034482479095459, -5.953802585601807, -4.595155715942383, -16.031402587890625, -11.271746635437012, -0.7614271640777588, -2.7285773754119873], [2.406344413757324, 0.23257827758789062, 13.374757766723633, -1.6580380201339722, -2.6870737075805664, -0.5309926867485046, 3.8134679794311523, 0.9679632186889648, -6.627523899078369, -4.1656813621521, 4.437892436981201, -5.006633758544922, -0.9492579102516174, -8.965585708618164, 7.033904075622559, 1.4761531352996826, -3.8487796783447266, 0.542445719242096], [6.980748176574707, -8.23595142364502, -2.9783573150634766, -12.44490909576416, -4.7285237312316895, -5.738516330718994, -1.9440566301345825, -0.7625585794448853, -8.20882511138916, 9.034119606018066, -7.344898700714111, 4.365345478057861, 4.569869041442871, -1.8876711130142212, -1.720986008644104, -14.307974815368652, -7.6390180587768555, -6.3638505935668945], [12.351764678955078, 9.329787254333496, 2.328540802001953, -6.4317626953125, 4.78374719619751, -0.761801540851593, 0.6563769578933716, -4.6633710861206055, 2.0054104328155518, -0.00373685359954834, -2.0406088829040527, -11.793272018432617, -3.9686901569366455, -8.220490455627441, -9.967912673950195, -0.6258377432823181, -5.836239337921143, -1.3105167150497437], [-6.517822265625, 4.390711307525635, -2.564028263092041, -0.729588508605957, 4.5178914070129395, 6.194758415222168, 8.558602333068848, 3.846389055252075, 0.19987116754055023, 0.11415097117424011, -16.371538162231445, 10.32454776763916, 5.383212089538574, -2.232933282852173, -0.8157489895820618, 9.588539123535156, -1.9871643781661987, 13.542852401733398], [8.049530029296875, 3.119673013687134, 2.281873941421509, -0.515482485294342, -2.8843674659729004, -10.002270698547363, 0.09955453872680664, 0.2101241946220398, 7.397122383117676, -6.951126575469971, -7.360766410827637, 2.098508358001709, -11.249604225158691, -2.9287877082824707, 11.214241027832031, 6.0371503829956055, -0.1928795874118805, -8.387486457824707], [6.078643798828125, 2.7743875980377197, -10.565228462219238, 1.1978793144226074, 3.3177151679992676, -9.715001106262207, -3.541858196258545, -3.8246564865112305, 2.3406312465667725, 7.513453483581543, 4.507718086242676, 0.11115053296089172, 2.419004440307617, 1.9462263584136963, 2.9529621601104736, -2.1619720458984375, 1.508087158203125, 0.5098353624343872], [-6.1245436668396, -1.231985330581665, 1.7424728870391846, -4.847264766693115, 2.330059766769409, 13.463444709777832, -7.398442268371582, 4.132556438446045, -1.5437895059585571, 7.877135753631592, -4.409269332885742, -5.521697521209717, 4.4308366775512695, 1.6647975444793701, -0.2608289420604706, 0.8592645525932312, 7.602234363555908, -1.1345174312591553], [-2.553372621536255, -5.722239017486572, 2.9678635597229004, 3.385079860687256, -11.55697250366211, -3.3632237911224365, -7.9189677238464355, 0.3167450726032257, 6.367215633392334, -0.2659689486026764, -4.825606346130371, -0.7407998442649841, 5.224630832672119, 6.309931755065918, 4.6639723777771, -4.6733551025390625, -0.9697154760360718, 15.054582595825195], [-0.615750253200531, -3.5876739025115967, -3.5267345905303955, 5.616072177886963, -10.536502838134766, -1.4214937686920166, 2.861865282058716, -1.763622522354126, 1.1778885126113892, 5.143972396850586, -8.825926780700684, 0.3589552640914917, -1.9521561861038208, 6.265704154968262, -0.022793829441070557, 0.9768663048744202, 3.3503756523132324, -0.2631567120552063], [-0.6886283159255981, -0.15664878487586975, 1.1570504903793335, -6.876593589782715, 4.038149356842041, 3.990508556365967, 4.668517589569092, 15.033286094665527, 1.4979074001312256, 2.4143104553222656, -0.4000721275806427, -6.035677909851074, -0.14650247991085052, 2.5502429008483887, 7.829340934753418, 10.192756652832031, 1.3002369403839111, 0.9068313241004944], [3.2235536575317383, 5.71589469909668, 1.046798825263977, -2.4980642795562744, -1.0894182920455933, 3.4328203201293945, -8.672493934631348, -2.811121940612793, 1.4537217617034912, -0.3553029000759125, -1.3030133247375488, -5.737427234649658, -11.353055000305176, -5.1701812744140625, -1.6308637857437134, -4.713231563568115, -1.7763055562973022, -8.817035675048828], [3.1033554077148438, -0.7719534039497375, 5.123380184173584, -7.774788856506348, 3.7878172397613525, 11.414658546447754, 5.128698825836182, -3.814771890640259, -6.322412014007568, -3.630861759185791, -1.1404755115509033, 5.276608467102051, 0.4138539433479309, 7.787522315979004, -3.118582010269165, -8.044144630432129, -10.51258373260498, -7.694818019866943], [-0.538537859916687, -2.8923885822296143, -1.0001379251480103, -1.7603706121444702, -0.5093909502029419, 3.4463400840759277, 11.57802677154541, -0.30070239305496216, 3.0168049335479736, 6.438745975494385, -2.37688946723938, -10.703703880310059, 1.980550765991211, -4.089356899261475, -5.3932390213012695, -4.934048175811768, 9.948320388793945, -2.4536705017089844], [1.7330580949783325, 2.686375379562378, -9.343683242797852, -4.699548721313477, -1.5976403951644897, 5.444305419921875, 0.967613935470581, 7.272609710693359, 2.684605360031128, -7.257933616638184, 6.5749664306640625, -2.5558969974517822, 0.42906659841537476, 3.619860887527466, 1.4920719861984253, 6.341075420379639, 10.229848861694336, -3.636337995529175], [4.1952385902404785, 7.343776702880859, 3.6139774322509766, -6.307658672332764, 5.371346473693848, 1.3228092193603516, -7.532952308654785, -1.753786563873291, 2.8233230113983154, -0.5792619585990906, 2.051248550415039, -0.881205677986145, 14.781187057495117, 2.7636966705322266, -2.30387544631958, 4.390530109405518, 7.662050247192383, -1.5495609045028687], [-3.218416690826416, -7.693310737609863, -2.3634302616119385, 3.2783424854278564, -5.317996025085449, 0.3586292266845703, -3.2194669246673584, -10.602940559387207, -4.2664079666137695, 1.5064442157745361, 2.8953826427459717, -0.8645584583282471, -0.06364859640598297, -0.05031106621026993, -2.5388433933258057, -2.643392562866211, 1.3854243755340576, -5.00838041305542]], [[-2.824207067489624, 6.133913040161133, -2.08870005607605, -3.237004280090332, -10.140666007995605, -13.066621780395508, -6.8892974853515625, 9.622446060180664, 1.2913179397583008, 13.693124771118164, 7.691473960876465, -2.5904505252838135, 3.422590970993042, 0.9064778089523315, -5.088747978210449, -4.173974514007568, 1.6188631057739258, 0.4156678318977356, 0.32516995072364807, -8.279032707214355, -11.241848945617676, 5.013182640075684, -1.2264468669891357, 1.702789545059204, 4.767983913421631, 4.681851863861084, 2.756730794906616, 0.14920742809772491, -0.9898197054862976, -5.79890775680542, 8.454248428344727, 3.6687517166137695], [0.8362077474594116, 0.16172094643115997, 3.2605173587799072, 1.4495490789413452, -3.372826337814331, 4.835056781768799, -1.1661030054092407, 8.066630363464355, -0.14072073996067047, 3.4963173866271973, 11.432863235473633, -7.069552421569824, -12.861457824707031, 0.6323528289794922, 5.152602195739746, 3.6425187587738037, -3.7373604774475098, 4.6631293296813965, 9.608180046081543, 2.580411434173584, 9.93864917755127, 1.187178373336792, 2.666322708129883, -6.975953578948975, 0.8934518098831177, -2.876676321029663, 2.365649700164795, 4.51469087600708, 1.6822549104690552, 0.04966849088668823, 2.7793772220611572, 0.37571075558662415], [9.029118537902832, -7.916153430938721, 3.7589211463928223, 1.1220331192016602, 3.9227585792541504, 5.861269474029541, 3.077930212020874, 9.163521766662598, 7.852179050445557, 11.924332618713379, -3.4586174488067627, -5.225064754486084, -3.1678364276885986, -1.869521975517273, 2.438431739807129, 5.489724636077881, -1.316488265991211, 0.041597433388233185, 4.597644329071045, 4.085510730743408, -3.3101487159729004, 0.9602828025817871, -14.200577735900879, 7.76335334777832, -14.109724998474121, 1.6162017583847046, 5.834297180175781, 1.660797119140625, -2.4226365089416504, 11.002103805541992, 10.468342781066895, 0.6353284120559692], [-19.153364181518555, -7.561776161193848, 0.3883608281612396, 2.2762744426727295, 2.7423295974731445, -5.108680248260498, 5.231293678283691, -5.412603855133057, 1.864332675933838, 5.832849025726318, -2.2315778732299805, 5.287207126617432, 2.223104953765869, 0.2903764843940735, -0.6411870718002319, 7.022366046905518, -0.607657790184021, 3.663330316543579, 5.8160929679870605, -7.074732303619385, 6.200275897979736, -0.590776801109314, -3.2677464485168457, -2.734182119369507, 6.867096424102783, 1.73556649684906, -0.13698208332061768, 1.116367220878601, 5.647087097167969, 6.5769362449646, -5.206371784210205, 2.1413464546203613], [-2.532308340072632, -2.058562755584717, 3.1029036045074463, 3.2831194400787354, 5.024678707122803, 1.9022223949432373, -4.714534759521484, 9.36247444152832, 3.269913673400879, -6.2457499504089355, -11.910181045532227, 5.924469470977783, -0.7672060132026672, 4.425198078155518, 1.9278661012649536, 11.34958553314209, -4.065284729003906, -8.794305801391602, -5.885969638824463, 4.950174808502197, 8.597529411315918, 2.154348373413086, 7.0879645347595215, 0.4835505187511444, 5.107621192932129, 8.912654876708984, -0.4667298197746277, 0.3334050178527832, -6.496067523956299, -6.412564277648926, 6.5349602699279785, -3.740996837615967], [1.4679023027420044, 0.8347488045692444, -4.418793201446533, -7.788601875305176, 11.982122421264648, -1.3010368347167969, -2.1243979930877686, -1.4148608446121216, 6.545799255371094, 2.022064685821533, 2.0197160243988037, -4.898223400115967, -8.890984535217285, -0.5607990622520447, -2.826366424560547, 9.976081848144531, -11.971609115600586, 7.294923782348633, -1.8676328659057617, 1.0333497524261475, -8.548145294189453, 0.1747642308473587, 1.337737798690796, 3.7765183448791504, 6.154054641723633, -6.664529800415039, 3.666304588317871, 2.3121299743652344, -9.671876907348633, 3.6440606117248535, 5.996218204498291, -5.731562614440918], [4.113001346588135, 1.4018149375915527, 1.1174061298370361, 4.2826828956604, 13.95971393585205, -5.009510517120361, 2.387375831604004, -0.7620894312858582, -2.4273793697357178, -0.7732924222946167, 2.8067634105682373, 7.022170066833496, 8.299216270446777, -2.1487066745758057, 6.319146156311035, -7.029258728027344, -4.182672500610352, 2.5526819229125977, -0.8927946090698242, 6.8162126541137695, 12.105168342590332, -1.3111588954925537, 2.0644261837005615, -4.217362880706787, 1.9746241569519043, -8.17442512512207, -5.619866847991943, 5.8956098556518555, -1.5675761699676514, -10.209502220153809, 0.44483664631843567, -0.678780198097229], [8.803117752075195, -1.920292854309082, 3.0483462810516357, 0.3204639256000519, -1.4356721639633179, 0.17979729175567627, -2.8239293098449707, -5.55363130569458, 0.3375837802886963, -0.7153700590133667, -5.09946346282959, -1.4176310300827026, 3.85243821144104, -14.582935333251953, -1.2981406450271606, -1.8980107307434082, -3.9087541103363037, -0.40711966156959534, 8.496993064880371, -12.013418197631836, -1.1808242797851562, -8.113422393798828, 1.2790331840515137, -6.478025436401367, -11.34052848815918, -2.6075494289398193, 2.4091854095458984, -2.4815447330474854, -7.422977924346924, 6.912509918212891, -0.8758114576339722, 3.456355094909668], [5.057247638702393, -7.928206443786621, 2.053098201751709, 4.517491817474365, 9.1546049118042, -6.567020416259766, 7.699468612670898, 6.562867164611816, -2.558461904525757, -5.8001508712768555, 8.481768608093262, -18.013900756835938, 4.748906135559082, -2.801271438598633, -0.006917547434568405, -2.2014272212982178, -6.530250549316406, 2.4610793590545654, 4.977187156677246, -1.423250436782837, -4.689974784851074, -10.691520690917969, 4.553050994873047, 3.4462172985076904, 5.78748083114624, -9.934402465820312, -10.006241798400879, -2.9595627784729004, -5.897672176361084, 8.603893280029297, -2.2243812084198, 3.9948184490203857], [-0.8710463047027588, 3.8107168674468994, 9.50699520111084, -3.6503162384033203, 0.6658228635787964, 2.0010783672332764, -6.846518516540527, 2.1633119583129883, 1.2914965152740479, 0.9951726198196411, -6.258687973022461, 9.935007095336914, -10.259157180786133, -7.08587121963501, 10.668475151062012, -1.572045087814331, 8.503098487854004, 1.2413945198059082, 1.7659136056900024, 4.876535415649414, -3.474400758743286, 6.637248992919922, -6.00376558303833, -4.728726387023926, -5.873773097991943, -3.8476181030273438, 0.4164954721927643, 10.190225601196289, -5.893099784851074, 5.6957550048828125, 9.401899337768555, 5.49532413482666], [0.9368197321891785, -1.2535258531570435, 8.741683006286621, 1.329840898513794, 3.2182955741882324, -3.6982853412628174, -0.12097889184951782, -7.718880653381348, 0.8038182258605957, -0.8610435128211975, -7.756466388702393, -3.014598846435547, 7.244641304016113, -9.958706855773926, 4.010402679443359, 13.69187068939209, -4.6473870277404785, 4.516599655151367, -4.815152645111084, 1.463726282119751, -7.353751182556152, -2.397300958633423, 0.08573971688747406, 0.08272706717252731, -0.3160511255264282, -3.4418294429779053, 4.1636738777160645, 0.022466786205768585, 4.3857741355896, -7.600901126861572, -0.4889845550060272, 5.241602420806885], [-2.9578781127929688, -0.4408200979232788, 2.915724039077759, 2.865227222442627, 8.689536094665527, -5.193607807159424, -0.010243028402328491, -2.778695821762085, -6.86480712890625, 3.6637070178985596, -4.809276580810547, 1.1958600282669067, -0.7230172157287598, 7.938984394073486, -2.4216623306274414, 7.381561756134033, -0.8180301785469055, -0.07389874756336212, -2.222775459289551, -2.195784091949463, -1.378889799118042, 3.090843439102173, 2.393590211868286, 1.2028640508651733, -5.934825897216797, 4.221884250640869, 4.681746959686279, 6.260597229003906, -12.031596183776855, -9.192681312561035, 10.284978866577148, 8.035324096679688], [-5.034103870391846, -8.29958438873291, -4.707191467285156, 3.0563974380493164, -4.4225172996521, 13.641918182373047, 2.4163591861724854, 3.045560359954834, -2.0100231170654297, -6.24699068069458, 7.057831764221191, -1.338525652885437, -7.4918694496154785, 8.773176193237305, 1.6657967567443848, 5.3033013343811035, -0.04574449360370636, -2.2504398822784424, -0.19573849439620972, -3.689687728881836, -3.0922112464904785, -3.2158050537109375, 5.370306968688965, 1.650024175643921, -5.651700019836426, 2.1962149143218994, 5.703766822814941, -0.02933240681886673, -4.037579536437988, -3.0422279834747314, -4.785403251647949, 1.2892978191375732], [-0.07999991625547409, -3.1862759590148926, -9.113527297973633, -1.1144639253616333, -1.0582702159881592, -2.4751081466674805, 13.960091590881348, -1.2126065492630005, 0.46143049001693726, -5.764477729797363, -6.767661094665527, -6.466908931732178, -1.4046249389648438, 1.809049129486084, 5.300508499145508, 8.365594863891602, 8.383244514465332, 2.3462066650390625, 3.583106279373169, -0.11570361256599426, -3.0019888877868652, -8.454376220703125, 1.5503937005996704, 0.44723135232925415, 0.5391693115234375, 1.0640205144882202, -6.497951984405518, -2.779412269592285, 7.318205833435059, -7.277862548828125, -8.614411354064941, -1.858862042427063], [-4.8590779304504395, -7.727103233337402, -2.708672285079956, -3.763728380203247, -4.264383792877197, 2.9524946212768555, 7.776947498321533, -1.6676586866378784, 5.026987075805664, 0.03798331320285797, 1.7648876905441284, 0.13416072726249695, 2.8926637172698975, -2.1079013347625732, -4.705399513244629, 4.286995887756348, -0.9772140383720398, -6.83170747756958, 1.776656150817871, -10.570998191833496, 6.632288932800293, -0.5438981056213379, -6.007656574249268, -7.634382247924805, -1.2770603895187378, -1.5940226316452026, -2.399975299835205, 15.097546577453613, -1.2541838884353638, -9.728918075561523, -1.5180983543395996, -3.608976125717163], [7.287728786468506, -4.508652687072754, -2.377624988555908, 4.897540092468262, -3.8666317462921143, -11.982817649841309, 5.587695121765137, -6.430749893188477, -2.561288833618164, -9.469759941101074, -0.2639273703098297, -4.120082378387451, 5.2794342041015625, 3.462402582168579, 0.5664098858833313, 2.5211758613586426, 3.7657744884490967, 3.1655359268188477, -0.5769562125205994, 6.224210262298584, -5.448304176330566, 8.385859489440918, -4.447376251220703, -4.5514044761657715, -2.3060193061828613, -9.005014419555664, 1.2447149753570557, 2.3381059169769287, -3.052863836288452, -3.016690492630005, -0.333069384098053, 2.0298261642456055]], [[-4.0756707191467285, 0.7288097739219666, -4.970860481262207, -10.988618850708008, 0.6394705772399902, -1.0924772024154663, 7.4285454750061035, -0.22329537570476532, -0.27791640162467957, -0.06912150979042053, 7.995885372161865, 3.8501882553100586, 8.25450611114502, -8.752005577087402, -8.406984329223633, 1.2632719278335571], [6.435720443725586, -5.432027816772461, -7.625116348266602, 2.397186756134033, 6.117922306060791, -1.4626128673553467, -3.635547399520874, 3.352691888809204, -3.808702230453491, 8.789610862731934, -0.43516385555267334, 8.451791763305664, 5.425580024719238, 3.36875581741333, -7.761937618255615, 4.170196533203125], [0.21801498532295227, -1.3722726106643677, -3.4698729515075684, -5.298775672912598, -2.1766436100006104, 0.24554327130317688, -10.776976585388184, -9.622434616088867, -6.505801200866699, -1.1786694526672363, 3.21236515045166, -0.8789967894554138, 7.188848972320557, 2.7022273540496826, -0.9090328216552734, -7.5656938552856445], [4.10426664352417, 6.849218845367432, 2.648149013519287, -1.6534496545791626, -0.3186616599559784, 1.73186194896698, -3.3957359790802, -2.2400119304656982, -4.567197799682617, 1.7833752632141113, 4.547342777252197, -11.891715049743652, -8.246269226074219, 0.8758311867713928, 0.2657588720321655, 12.878552436828613], [2.5334653854370117, 6.678107261657715, 2.1883816719055176, -5.642021179199219, -6.683391094207764, 0.33642593026161194, -15.681841850280762, 1.2833251953125, -10.499578475952148, 7.581467151641846, -1.2683402299880981, -4.7141571044921875, 1.5704164505004883, 8.727728843688965, 3.3033769130706787, 0.34891122579574585], [-4.532259464263916, -6.155453205108643, -0.25599151849746704, -7.271209239959717, 4.482154846191406, -1.3617827892303467, -16.65011215209961, 5.247058391571045, -3.747922897338867, -4.168726921081543, 3.3347833156585693, 1.2146469354629517, -4.347344398498535, 2.259489059448242, -4.380692005157471, -7.738860130310059], [4.782726764678955, 0.5744528770446777, 5.874564170837402, 1.1768263578414917, -7.32897424697876, -6.219850063323975, -0.24826039373874664, 2.824108839035034, -1.9816243648529053, -4.600833415985107, -5.608493804931641, 2.418424606323242, -0.6396523118019104, -5.436046123504639, -4.478153228759766, 10.040811538696289], [5.427109241485596, -0.6404331922531128, 0.328906387090683, 15.486841201782227, 2.2913870811462402, -6.303041934967041, 2.8550901412963867, -0.6093665361404419, -0.22840695083141327, -6.54874324798584, 0.9999658465385437, 3.110304832458496, 4.690202236175537, 0.7724089622497559, -12.69434928894043, -8.90367603302002]], [[-2.9408085346221924, 5.950965404510498, -0.5524809956550598, 4.81218147277832, -2.1174428462982178, 9.727992057800293, -0.8259214758872986, -3.6240828037261963], [-8.525148391723633, 2.642728090286255, 0.7713342308998108, -3.2379817962646484, -9.248357772827148, -0.7314592003822327, -4.44586706161499, 2.554905652999878]]], "brain_biases": [[-0.8075709342956543, -4.99448299407959, 2.6749794483184814, -5.087918758392334, -1.3262901306152344, -10.00334644317627, -0.27240806818008423, 10.458288192749023, 1.071689248085022, -0.7828434109687805, -0.22719599306583405, -11.694567680358887, -2.055310010910034, -8.696728706359863, 1.371842384338379, 7.028846263885498, -5.765141010284424, -2.1694138050079346, -3.624755620956421, 2.7516276836395264, 0.2447357475757599, -9.078911781311035, 9.387948989868164, 9.563698768615723, 3.549490451812744, 1.9198240041732788, -7.447574615478516, -3.9069645404815674, 0.4298100471496582, 2.2786741256713867, 6.9014739990234375, 12.088273048400879], [-3.5759477615356445, 1.0545293092727661, 6.998436450958252, 0.2393060177564621, 6.14807653427124, 1.2790473699569702, -1.163731336593628, -4.480648040771484, 6.807831764221191, 1.2792134284973145, -14.454107284545898, -13.850421905517578, 2.559882879257202, -0.23536205291748047, 8.096888542175293, -5.188037872314453], [4.818266868591309, -1.687865972518921, 2.6638050079345703, -1.096422553062439, 2.2981455326080322, -2.9658167362213135, -3.195492744445801, 0.482666939496994], [0.715467631816864, -0.19728147983551025]], "sensor_retina_count": 18, "sensor_vision_radius": 180.0, "sensor_fov_degrees": 180.0, "sensor_skip": 2, "sensor_see_food": true, "sensor_see_bacteria": false, "sensor_see_predators": true, "locomotion_max_speed": 300.0, "locomotion_max_turn": 3.141592653589793, "energy_death_energy": 0.0, "energy_split_energy": 200.0, "energy_v0_cost": 3.0, "energy_vmax_cost": 6.0, "energy_vmax_ref": 300.0, "energy_energy_cap": 200.0, "energy_loss_idle": 3.0, "energy_loss_move": 6.0, "last_brain_output": [6.779585361480713, 0.24042832851409912], "last_brain_activations": [[-0.6682481169700623, -0.9999082088470459, 0.9905481934547424, -0.9999238848686218, -0.8683397173881531, -1.0, -0.26586413383483887, 1.0, 0.7900968194007874, -0.6543357372283936, -0.223365917801857, -1.0, -0.9677338600158691, -0.9999999403953552, 0.8791114091873169, 0.9999984502792358, -0.9999803900718689, -0.9742326736450195, -0.9985799789428711, 0.9918860793113708, 0.2399638444185257, -0.9999999403953552, 0.9999999403953552, 0.9999999403953552, 0.9983494877815247, 0.9579027891159058, -0.9999993443489075, -0.9991921782493591, 0.4051625728607178, 0.9792380928993225, 0.9999979734420776, 1.0], [0.8683386445045471, 1.0, 1.0, 0.9999110698699951, 1.0, 1.0, -1.0, -1.0, 1.0, 0.9789595007896423, 1.0, -1.0, -0.9850547313690186, 0.9999999403953552, -1.0, -1.0], [-1.0, -0.9996292591094971, 1.0, 1.0, 1.0, 0.9999979138374329, -1.0, 1.0], [6.779584884643555, 0.24042785167694092]]}, {"type": "bacteria", "x": 1012.0406371521572, "y": 3538.750407587269, "r": 9.0, "angle": -2.5949171596484226, "vx": -256.0629088900054, "vy": -155.82460444427846, "energy": 96.63064832937647, "age": 135.71250000000003, "brain_sizes": [18, 32, 16, 8, 2], "brain_version": 31481, "brain_weights": [[[-6.632216453552246, 4.103189468383789, 6.347066879272461, 0.11502574384212494, -3.2643754482269287, 10.650856971740723, 5.528517246246338, -3.6096858978271484, -0.36171451210975647, 6.737694263458252, -3.415649890899658, -7.7605462074279785, 5.825937271118164, -5.210280895233154, -8.932680130004883, -9.162361145019531, -1.4659297466278076, -6.059708118438721], [-2.7543413639068604, 2.2373549938201904, -4.784998893737793, 11.63492202758789, -14.743597030639648, -2.9397568702697754, 2.192452907562256, -0.41759049892425537, -7.408051490783691, 6.888006210327148, -0.4669457674026489, -5.087235927581787, 0.9291369318962097, -1.9125049114227295, -1.8311508893966675, 8.629677772521973, -2.997086524963379, 7.995793342590332], [3.1478469371795654, -3.5026912689208984, 11.369255065917969, -2.281970977783203, -1.0701370239257812, -8.774266242980957, 8.112503051757812, -0.1777094155550003, -1.113499641418457, 1.8372228145599365, -0.5184783339500427, -4.468372821807861, 2.2363266944885254, 2.5910377502441406, -10.193403244018555, 1.1643235683441162, -6.7657060623168945, -2.491237163543701], [2.618086099624634, -8.462751388549805, -7.304460525512695, 8.945258140563965, -4.103285312652588, 2.674616575241089, -2.3751401901245117, -9.100018501281738, -2.6818392276763916, 4.617733955383301, -4.8785881996154785, 6.763004779815674, -0.4446558654308319, -7.3634796142578125, -3.236668109893799, -10.336899757385254, -2.464513063430786, 1.4609588384628296], [-2.2734079360961914, -4.821803092956543, 0.5008894801139832, -9.227243423461914, -17.311073303222656, -0.5400758981704712, 4.410048007965088, -3.7566311359405518, -14.639883041381836, -1.070120096206665, 3.9650185108184814, 4.210455417633057, 6.385918140411377, -4.108618259429932, -1.172917366027832, 10.748761177062988, 7.772185802459717, -6.362902641296387], [12.81205940246582, 3.293734073638916, 9.45596981048584, 8.449177742004395, -6.330910682678223, -3.273739814758301, 8.710193634033203, -7.0395660400390625, -6.04074239730835, 5.890200138092041, -5.008264541625977, 0.5907037854194641, 6.626338005065918, -3.4932985305786133, 3.4329981803894043, -9.073667526245117, -2.6239430904388428, -2.3233392238616943], [-4.3060994148254395, 11.651195526123047, -5.082211017608643, 10.314584732055664, -8.973482131958008, -4.571323871612549, -2.841611623764038, -1.4189118146896362, 7.576828956604004, 4.2369513511657715, 12.19775104522705, -4.57062292098999, -6.374260902404785, 0.8404898643493652, 2.17630934715271, -0.42496421933174133, -0.46893563866615295, -5.887494087219238], [-5.701066493988037, 8.191363334655762, 6.668765544891357, 13.711557388305664, -3.935046911239624, 2.5259644985198975, 11.991823196411133, 0.8429133296012878, 4.596768856048584, 7.906374454498291, -12.97219181060791, 0.712291955947876, -1.726141095161438, 1.7592302560806274, 3.5230512619018555, -8.072896957397461, -2.37872052192688, -0.1105564534664154], [-1.0647506713867188, 1.010694146156311, -5.541908264160156, 2.191272497177124, 1.124182939529419, 7.608558177947998, 0.162162646651268, -1.2473671436309814, -2.1134424209594727, -2.514552116394043, -0.9951232671737671, 1.6820595264434814, 10.088666915893555, 10.367877960205078, -8.137825965881348, 3.508382797241211, 2.936521291732788, 6.909063816070557], [-0.04314976930618286, -7.220646381378174, 9.598843574523926, 0.5094623565673828, 0.591818630695343, -2.1488142013549805, 2.086203098297119, 2.878659963607788, 8.855912208557129, 1.3875807523727417, -0.19157901406288147, 4.069643974304199, -0.6594105362892151, -0.7243798971176147, 0.05847560241818428, 8.387348175048828, -0.5796882510185242, 1.9999197721481323], [9.914463996887207, 5.507570743560791, 2.83388614654541, 1.9550151824951172, 4.308101654052734, 0.8958239555358887, 6.465087890625, -0.4239490032196045, -0.710646390914917, -3.4652013778686523, 1.9177542924880981, -5.56135368347168, -1.7774864435195923, -4.017654895782471, -5.319374084472656, 5.731232166290283, 6.54923152923584, 1.8349717855453491], [-4.93284797668457, 2.2479310035705566, 3.2102103233337402, 1.786644697189331, -1.5289463996887207, -1.1623589992523193, -9.098405838012695, -1.1287462711334229, 0.864509105682373, -5.248071670532227, 1.5620791912078857, 7.235333442687988, 0.05921245366334915, -1.2198691368103027, 0.7724348306655884, -3.0926318168640137, 4.9676737785339355, 3.461988687515259], [0.4301472306251526, 1.2177711725234985, -2.087864637374878, -1.3227083683013916, -5.090950012207031, 0.6747876405715942, -5.7116827964782715, -0.7391546368598938, -3.666139841079712, -0.4574874937534332, -6.28767728805542, 3.0596675872802734, 9.044556617736816, 0.2244812399148941, -5.5929083824157715, 0.6088426113128662, -0.5744113922119141, -1.469910740852356], [5.971403121948242, 0.576849102973938, -4.470630168914795, -10.512527465820312, 0.7092846632003784, 3.7349071502685547, -0.8834037184715271, 2.1596791744232178, -7.102047920227051, -9.268685340881348, -3.7403111457824707, -5.01869010925293, -6.542235851287842, -3.396554946899414, 6.9599609375, 12.44954776763916, 3.415297508239746, -2.2074625492095947], [-3.392920732498169, -2.8563411235809326, 6.063060760498047, 1.7936586141586304, 6.985866546630859, -0.7524073123931885, -0.7359263300895691, -0.3154480755329132, -1.275428295135498, -13.101654052734375, 1.5638835430145264, -3.597719430923462, -3.0726425647735596, 7.916909217834473, 2.122014284133911, -2.064450263977051, 4.538369655609131, -9.919761657714844], [-12.672895431518555, -5.450985908508301, 2.583940029144287, 6.008989334106445, 3.3893308639526367, 1.6046618223190308, 3.361887216567993, -4.36123514175415, 6.496960639953613, -5.185831546783447, -3.815875291824341, -4.3712286949157715, -5.8283491134643555, -3.788543224334717, -16.031402587890625, -11.746683120727539, -0.5460394024848938, -3.022217035293579], [2.845212936401367, 0.1646132469177246, 13.350984573364258, -1.7723428010940552, -2.769760847091675, -0.19934700429439545, 3.95133638381958, 1.1012639999389648, -6.612249374389648, -4.3029584884643555, 4.5747151374816895, -4.856029510498047, -0.9267972111701965, -9.034307479858398, 6.654257297515869, 1.5329375267028809, -4.23236608505249, 0.20373371243476868], [7.026045322418213, -8.126867294311523, -2.779033660888672, -12.389195442199707, -4.391915321350098, -5.643438339233398, -1.8017957210540771, -0.8293353319168091, -8.140156745910645, 9.02284049987793, -7.582851886749268, 4.080667972564697, 5.188196182250977, -1.8311454057693481, -1.7483569383621216, -14.242791175842285, -7.582674026489258, -6.222158908843994], [12.180879592895508, 9.353748321533203, 2.276878833770752, -6.382316589355469, 4.886026382446289, -1.1695786714553833, 0.302284836769104, -4.562948703765869, 1.9036459922790527, -0.10817235708236694, -1.9780205488204956, -11.369730949401855, -4.141247272491455, -8.313054084777832, -9.99235725402832, -0.7118456959724426, -5.781383991241455, -1.3664278984069824], [-6.5786848068237305, 4.037364482879639, -2.7799201011657715, -0.9533223509788513, 4.38576078414917, 6.512119293212891, 8.36429214477539, 3.8919007778167725, 0.6900771260261536, 0.034144699573516846, -16.609050750732422, 10.166280746459961, 4.866580486297607, -2.4610002040863037, -0.4974171221256256, 9.588539123535156, -1.9131699800491333, 13.574053764343262], [8.456764221191406, 3.2831318378448486, 2.4788625240325928, -0.635019063949585, -2.8374557495117188, -10.015132904052734, 0.05591750144958496, 0.10464649647474289, 7.504201889038086, -6.9190449714660645, -6.8816962242126465, 2.27266001701355, -11.22240924835205, -2.7348413467407227, 10.939802169799805, 5.8900322914123535, -0.3379499912261963, -8.381455421447754], [6.1037774085998535, 3.068467617034912, -10.813840866088867, 1.3073698282241821, 3.151528835296631, -9.8499755859375, -3.190966844558716, -3.483518123626709, 3.0695769786834717, 7.490022659301758, 3.941153049468994, -0.2371053546667099, 2.356841564178467, 2.007929801940918, 3.3266561031341553, -1.698506474494934, 1.326759696006775, 0.5892277359962463], [-6.321442127227783, -1.0114449262619019, 2.551694393157959, -4.65877103805542, 2.405473470687866, 13.4170503616333, -7.415241241455078, 4.050015926361084, -1.4669734239578247, 7.916210651397705, -4.3302178382873535, -5.590114593505859, 4.5679826736450195, 1.6647975444793701, 0.12110485881567001, 0.7252904176712036, 7.87431526184082, -1.0376787185668945], [-2.4804205894470215, -5.615172386169434, 2.987571954727173, 3.2928946018218994, -11.192706108093262, -3.2848825454711914, -8.03840446472168, 0.37224477529525757, 6.10884952545166, -0.2569846510887146, -4.9718241691589355, -0.7385140657424927, 5.208065032958984, 6.091035842895508, 4.304976940155029, -4.972240924835205, -1.0723326206207275, 14.881915092468262], [-0.5978671908378601, -3.720226764678955, -3.6060991287231445, 5.758017539978027, -10.4578218460083, -1.2063387632369995, 2.7847652435302734, -1.752258062362671, 1.1159342527389526, 5.048283100128174, -8.935979843139648, 0.1798880696296692, -1.925848126411438, 6.597765922546387, 0.20290206372737885, 0.9293103814125061, 3.1629951000213623, -0.23138827085494995], [-0.8537185788154602, -0.23080889880657196, 0.6179024577140808, -6.662832260131836, 4.12410831451416, 3.996532440185547, 4.709522247314453, 15.011889457702637, 1.1695750951766968, 2.5218560695648193, -0.6076244711875916, -6.329533100128174, -0.10392208397388458, 2.556333541870117, 7.594537734985352, 10.095768928527832, 0.9102884531021118, 1.1277174949645996], [3.05196475982666, 5.773177623748779, 1.0407553911209106, -2.732923746109009, -1.286216139793396, 3.525552749633789, -8.67297649383545, -2.727487564086914, 1.4424339532852173, -0.5693097114562988, -0.8787451386451721, -5.406435489654541, -11.536396026611328, -5.222766876220703, -1.1149615049362183, -4.907693386077881, -1.709930181503296, -8.852753639221191], [3.0573315620422363, -0.9911773204803467, 5.185232162475586, -8.32742691040039, 4.070580005645752, 11.414658546447754, 5.326875686645508, -4.01392126083374, -6.3314619064331055, -3.601166009902954, -1.2072192430496216, 5.332178592681885, 0.3511880338191986, 7.656595230102539, -3.200133800506592, -8.034805297851562, -10.390399932861328, -7.520623207092285], [-0.6784515976905823, -3.087057113647461, -0.8026032447814941, -1.8156507015228271, -0.6668915748596191, 3.5357885360717773, 11.583345413208008, -0.18794503808021545, 2.697115659713745, 6.5446085929870605, -2.350661516189575, -10.624576568603516, 1.9032150506973267, -4.389431476593018, -5.149102210998535, -4.846646308898926, 10.365338325500488, -2.7872812747955322], [1.63438081741333, 3.166792392730713, -9.099773406982422, -4.841247081756592, -1.5432145595550537, 5.351445198059082, 0.5975859761238098, 7.51317024230957, 2.312133312225342, -7.144554615020752, 6.323279857635498, -2.9722471237182617, 0.3860565721988678, 3.4823105335235596, 1.3955272436141968, 6.179344654083252, 10.301857948303223, -3.3885743618011475], [4.159698009490967, 7.44701623916626, 3.4694628715515137, -6.299057960510254, 5.523677825927734, 1.1789122819900513, -7.644137382507324, -2.2155425548553467, 3.047083854675293, -0.5488144755363464, 1.8033353090286255, -0.9402984976768494, 14.758832931518555, 2.7787094116210938, -2.471675395965576, 4.525331020355225, 7.839416027069092, -1.7421936988830566], [-3.3841919898986816, -7.9631781578063965, -2.481123924255371, 3.1075141429901123, -5.3062286376953125, 0.362576961517334, -3.3307149410247803, -10.953362464904785, -4.4145188331604, 1.2883121967315674, 3.2301883697509766, -1.2992385625839233, 0.2757466435432434, -0.020740913227200508, -2.6105449199676514, -2.596484422683716, 1.0557751655578613, -5.365692138671875]], [[-3.1031606197357178, 6.480171203613281, -2.4142932891845703, -3.229297161102295, -9.776572227478027, -12.998405456542969, -7.124022006988525, 9.885802268981934, 1.3705025911331177, 13.744653701782227, 7.303407669067383, -2.2794952392578125, 3.726562738418579, 1.0827583074569702, -4.914345741271973, -4.713516712188721, 1.3032435178756714, 0.44383347034454346, 0.2563037574291229, -8.191755294799805, -11.250018119812012, 5.083704471588135, -1.0312037467956543, 1.8851385116577148, 4.654016494750977, 4.956291198730469, 2.7731995582580566, 0.08626352250576019, -0.7287322282791138, -5.79890775680542, 8.294329643249512, 3.6702327728271484], [0.7428486347198486, 0.07305023074150085, 3.4253692626953125, 1.7489407062530518, -3.4664924144744873, 4.8494768142700195, -0.9286627173423767, 8.131306648254395, -0.08944777399301529, 3.055021047592163, 11.566659927368164, -7.37449836730957, -12.740459442138672, 0.3135465383529663, 4.996709823608398, 3.8870840072631836, -3.4135966300964355, 4.418793201446533, 9.576279640197754, 2.384281873703003, 10.045608520507812, 1.082247257232666, 2.7069876194000244, -6.59490966796875, 0.7004995346069336, -2.816558599472046, 2.3810009956359863, 4.463547706604004, 1.5542353391647339, 0.5018618106842041, 2.670142650604248, 0.41032323241233826], [8.842512130737305, -7.79580545425415, 3.55237078666687, 1.3879979848861694, 3.9552109241485596, 5.634765625, 2.7777836322784424, 9.219120979309082, 7.75939416885376, 12.089999198913574, -3.5235674381256104, -5.216946125030518, -3.652059316635132, -1.9356441497802734, 2.482393503189087, 5.243605613708496, -1.7284687757492065, -0.08710189163684845, 4.640406131744385, 4.25331974029541, -3.4795150756835938, 0.8554385900497437, -14.307045936584473, 7.457813739776611, -14.11864948272705, 1.5978782176971436, 5.83812141418457, 1.618098497390747, -2.5296852588653564, 10.520256996154785, 10.519816398620605, 0.7567701935768127], [-18.869422912597656, -7.3794403076171875, 0.19474151730537415, 2.216975450515747, 2.628225326538086, -5.284341335296631, 5.1481733322143555, -5.314177989959717, 1.7340108156204224, 5.599999904632568, -2.1642909049987793, 5.415613651275635, 2.0846006870269775, 0.0167645663022995, -0.9185884594917297, 7.01405668258667, -0.39803311228752136, 3.9048380851745605, 5.604515075683594, -7.182677268981934, 5.856228828430176, -0.4380089044570923, -3.1305599212646484, -2.42557954788208, 7.088870048522949, 1.7842634916305542, -0.16636894643306732, 0.7674286961555481, 5.704140663146973, 6.466036796569824, -5.3877129554748535, 2.8287463188171387], [-2.4621427059173584, -1.9005992412567139, 2.897218704223633, 3.4713916778564453, 4.878672122955322, 2.0268514156341553, -5.189666748046875, 9.215903282165527, 3.306084632873535, -6.527149200439453, -11.50833797454834, 6.379518032073975, -0.7155879735946655, 4.536877155303955, 2.182877540588379, 11.287596702575684, -3.6789028644561768, -9.185595512390137, -5.654951095581055, 5.164493083953857, 8.805182456970215, 2.08199143409729, 7.198365211486816, 0.7735514640808105, 5.091018199920654, 8.75065803527832, -0.6044808030128479, 0.5983443260192871, -6.847772598266602, -6.352489948272705, 6.681894302368164, -3.6387076377868652], [1.3052430152893066, 0.46843358874320984, -4.5043864250183105, -7.813043117523193, 11.919384002685547, -1.1311554908752441, -1.8298826217651367, -1.5138602256774902, 6.7661519050598145, 1.9812074899673462, 1.8393315076828003, -4.8081769943237305, -8.464554786682129, -0.5132652521133423, -2.954657793045044, 9.91651439666748, -11.851613998413086, 7.207851886749268, -1.5817288160324097, 0.4765074551105499, -8.264297485351562, -0.4130041003227234, 1.1463104486465454, 3.3390896320343018, 6.892981052398682, -6.510623931884766, 4.081598281860352, 2.5164663791656494, -9.715932846069336, 3.6610333919525146, 6.341087341308594, -5.642000675201416], [4.247983455657959, 1.293656349182129, 0.33458536863327026, 4.067197322845459, 13.977781295776367, -5.24753475189209, 2.574558973312378, -0.28531578183174133, -2.395831823348999, -0.611189603805542, 2.7458486557006836, 7.242982387542725, 8.50966739654541, -2.185210943222046, 6.278448104858398, -6.98174524307251, -3.9455628395080566, 2.784646511077881, -1.4154579639434814, 6.864250659942627, 12.059754371643066, -1.4709733724594116, 1.8889399766921997, -4.426403045654297, 1.7364848852157593, -8.067038536071777, -5.926418781280518, 6.1701788902282715, -1.8069028854370117, -10.202363014221191, 0.40573742985725403, -0.618414580821991], [9.389362335205078, -1.8209409713745117, 3.0515522956848145, 0.32161688804626465, -1.9046428203582764, 0.6791386604309082, -3.000248432159424, -5.561753749847412, 0.13505467772483826, -0.5005636215209961, -5.092312335968018, -1.106087565422058, 4.009424209594727, -14.543401718139648, -1.075282096862793, -1.8286681175231934, -4.008230209350586, -0.33321505784988403, 8.327221870422363, -11.731071472167969, -1.1125831604003906, -7.959423065185547, 1.6758558750152588, -6.559627056121826, -11.161420822143555, -2.6558611392974854, 2.338724374771118, -2.241752862930298, -7.494843006134033, 6.744419097900391, -1.3214390277862549, 3.500154495239258], [4.9157514572143555, -8.372916221618652, 1.9251905679702759, 4.390877723693848, 8.912158012390137, -6.743868350982666, 7.671718120574951, 6.5442376136779785, -2.8681750297546387, -5.409821033477783, 8.62293529510498, -18.0716495513916, 4.8643388748168945, -3.0120632648468018, 0.03384825587272644, -2.2840399742126465, -6.4760613441467285, 2.4464190006256104, 5.187038898468018, -1.3600232601165771, -4.750311374664307, -10.571305274963379, 4.3801655769348145, 3.320223808288574, 5.78500509262085, -9.766143798828125, -9.860629081726074, -3.3022217750549316, -6.124764442443848, 8.546762466430664, -2.4738528728485107, 3.5830843448638916], [-1.098860740661621, 3.66452956199646, 9.651354789733887, -3.5002784729003906, 0.8772953748703003, 2.3125112056732178, -6.563807487487793, 2.1300621032714844, 0.9448111057281494, 0.9440658092498779, -6.317155838012695, 9.7470121383667, -10.233899116516113, -7.2331342697143555, 10.59167194366455, -1.5603104829788208, 8.609270095825195, 0.7581558227539062, 1.7018390893936157, 4.769163608551025, -3.5267863273620605, 6.563638210296631, -5.912851810455322, -4.912413120269775, -5.8720269203186035, -4.014525890350342, 0.33841627836227417, 10.099665641784668, -5.824313163757324, 5.8480987548828125, 9.478059768676758, 5.121173858642578], [1.296581506729126, -1.2394577264785767, 8.87896728515625, 1.5093003511428833, 3.3934319019317627, -4.015805244445801, 0.11860590428113937, -7.774268627166748, 0.9834560751914978, -0.7727440595626831, -8.393935203552246, -2.962355613708496, 7.189507484436035, -9.941276550292969, 3.8569934368133545, 13.537750244140625, -4.269405841827393, 4.536312580108643, -4.668883800506592, 1.4726933240890503, -7.328836441040039, -2.3098344802856445, 0.7296937704086304, 0.18515628576278687, -0.454189270734787, -3.3913395404815674, 4.041553974151611, 0.23649413883686066, 4.578768253326416, -7.636892795562744, -0.26724204421043396, 5.377889156341553], [-2.706092119216919, -0.42132505774497986, 2.860673189163208, 2.7172603607177734, 8.389429092407227, -5.121076583862305, -0.1688992828130722, -2.9215590953826904, -6.808221817016602, 3.5908751487731934, -4.777060031890869, 0.8984988927841187, -0.6866178512573242, 8.436925888061523, -2.8267765045166016, 7.588569164276123, -0.5987614393234253, 0.09496107697486877, -2.3369863033294678, -2.3552560806274414, -1.5904525518417358, 3.005220651626587, 2.390369176864624, 1.019707202911377, -6.090600967407227, 3.74263334274292, 4.44485330581665, 6.7790751457214355, -12.633787155151367, -8.765774726867676, 10.918025970458984, 7.3176589012146], [-5.236620903015137, -8.344876289367676, -4.967343330383301, 2.8824801445007324, -4.224456310272217, 13.145792007446289, 2.48119854927063, 2.687372922897339, -2.070094585418701, -6.008796215057373, 7.598509311676025, -1.255476713180542, -7.3800530433654785, 8.429784774780273, 1.5778521299362183, 5.4108428955078125, -0.3292466700077057, -1.9529420137405396, -0.28118911385536194, -3.973682165145874, -2.9987943172454834, -2.833528518676758, 5.909480094909668, 1.8701571226119995, -5.999098777770996, 1.9897979497909546, 5.409188747406006, 0.25568926334381104, -3.7396740913391113, -3.211843252182007, -4.785403251647949, 1.4611022472381592], [-0.37533271312713623, -3.01350474357605, -9.030311584472656, -1.0900413990020752, -1.1067365407943726, -2.5273032188415527, 14.081299781799316, -1.1625480651855469, 0.5709046721458435, -6.0300750732421875, -6.634875297546387, -6.5228657722473145, -1.5080963373184204, 1.8457086086273193, 5.1348981857299805, 8.18206787109375, 8.28316593170166, 2.135223865509033, 3.681983470916748, 0.3297831118106842, -3.351785182952881, -8.855485916137695, 1.5798676013946533, 0.8985610008239746, 0.40326035022735596, 0.9612353444099426, -6.404434680938721, -2.7017159461975098, 7.442366600036621, -7.464169025421143, -8.836973190307617, -1.9264938831329346], [-4.8990159034729, -7.859731197357178, -2.649696111679077, -3.3526322841644287, -4.07058572769165, 3.215351104736328, 7.946180820465088, -1.432325005531311, 5.355815410614014, 0.193739116191864, 1.7445743083953857, 0.16962042450904846, 2.8281521797180176, -2.3092617988586426, -4.512670040130615, 4.3979058265686035, -1.1137481927871704, -6.922783374786377, 1.7908954620361328, -10.847750663757324, 6.746891975402832, -0.7825062870979309, -6.192442893981934, -7.70897102355957, -1.4612407684326172, -1.2797677516937256, -2.4019649028778076, 15.173189163208008, -1.5980974435806274, -9.921760559082031, -1.907442569732666, -4.012317180633545], [7.222463607788086, -4.365938186645508, -2.3000833988189697, 4.758745193481445, -3.833760976791382, -11.793252944946289, 5.663553237915039, -6.105006217956543, -2.445183038711548, -9.219854354858398, -0.7058473825454712, -4.024223804473877, 5.4735636711120605, 3.2635374069213867, 0.49937206506729126, 2.8838276863098145, 3.6246581077575684, 2.88822603225708, -0.19702018797397614, 6.097277641296387, -5.346077919006348, 8.608253479003906, -4.279175281524658, -4.660283088684082, -2.2833969593048096, -8.69736099243164, 0.6753053665161133, 2.431025266647339, -2.907360076904297, -3.024470329284668, -0.5942337512969971, 2.00238299369812]], [[-4.145302772521973, 1.110154390335083, -5.279354572296143, -10.876798629760742, 0.39005047082901, -0.8392724990844727, 7.405451774597168, -0.19878949224948883, -0.10529229044914246, -0.09841727465391159, 7.923567295074463, 3.6637039184570312, 8.327542304992676, -8.902878761291504, -8.358184814453125, 1.0957571268081665], [6.860028266906738, -5.535956382751465, -7.804614067077637, 2.5098965167999268, 5.913993835449219, -1.446422815322876, -3.4689009189605713, 3.3999369144439697, -3.6814112663269043, 8.71023941040039, -0.8300145268440247, 8.829036712646484, 5.376934051513672, 3.318362236022949, -8.097712516784668, 4.071906089782715], [0.1910543590784073, -1.3827998638153076, -3.560899019241333, -5.621615886688232, -2.3000433444976807, -0.052340053021907806, -11.08952808380127, -9.298126220703125, -6.790502548217773, -1.3934144973754883, 3.0828375816345215, -1.318701982498169, 7.586463451385498, 2.499708652496338, -1.273781180381775, -7.207465648651123], [3.8918418884277344, 6.701933860778809, 2.8216490745544434, -1.3577516078948975, -0.17703185975551605, 1.8187044858932495, -3.680227279663086, -1.9062649011611938, -4.507441997528076, 1.749385118484497, 4.542967319488525, -11.211647033691406, -8.116382598876953, 0.4765215218067169, 0.6690641045570374, 13.269838333129883], [2.2643609046936035, 6.409451484680176, 1.9623860120773315, -5.644320964813232, -6.555100440979004, 0.6339529752731323, -15.4534330368042, 1.5901299715042114, -10.229637145996094, 7.552545070648193, -1.45460844039917, -4.636937618255615, 1.5711174011230469, 8.836586952209473, 3.3517959117889404, 0.1293705254793167], [-4.732861518859863, -6.155453205108643, -0.33394187688827515, -7.558939456939697, 4.5033278465271, -1.3044027090072632, -16.65127944946289, 5.075967311859131, -3.829422950744629, -4.04823637008667, 3.051494598388672, 1.0683112144470215, -4.654021263122559, 2.575448989868164, -4.391879081726074, -7.728119850158691], [4.641738414764404, 0.4720747470855713, 5.8545660972595215, 1.4654747247695923, -7.462137699127197, -6.174084186553955, -0.32818469405174255, 2.5154054164886475, -1.801340937614441, -4.373335838317871, -6.093918800354004, 2.476901054382324, -0.6483554244041443, -5.746375560760498, -4.4436187744140625, 9.46299934387207], [5.690291404724121, -0.8837616443634033, 0.4690926671028137, 15.05797290802002, 2.2407546043395996, -6.517906665802002, 2.806544780731201, -0.43878093361854553, -0.3002346456050873, -6.5334792137146, 1.0203607082366943, 2.9106380939483643, 4.75180721282959, 0.7686672210693359, -12.68100643157959, -8.812649726867676]], [[-2.9690439701080322, 6.071953773498535, -0.9287653565406799, 5.187154769897461, -1.862044095993042, 9.859149932861328, -0.5788216590881348, -3.728163003921509], [-8.100746154785156, 2.9233498573303223, 1.119823694229126, -3.0835211277008057, -9.512460708618164, -0.7135416269302368, -4.626327037811279, 2.751361131668091]]], "brain_biases": [[-0.716570258140564, -5.062699794769287, 2.4134223461151123, -5.070778846740723, -1.367003321647644, -9.960347175598145, -0.27930939197540283, 10.178553581237793, 0.8699774742126465, -0.3339132070541382, -0.16714347898960114, -10.99394702911377, -2.3187129497528076, -8.917167663574219, 1.3291261196136475, 7.221737861633301, -5.72933292388916, -2.277116298675537, -3.4171977043151855, 2.377291440963745, 0.37765607237815857, -9.098095893859863, 9.171936988830566, 9.754040718078613, 3.5496795177459717, 1.997495412826538, -6.933045864105225, -4.161085605621338, 0.09243199229240417, 2.2311134338378906, 6.739682197570801, 11.902189254760742], [-3.945253849029541, 1.0374529361724854, 6.452070236206055, 0.30111804604530334, 5.686032772064209, 1.5887476205825806, -0.8360684514045715, -4.798311233520508, 6.600464344024658, 1.2325514554977417, -14.498912811279297, -13.854196548461914, 2.7779734134674072, -0.10770324617624283, 8.318663597106934, -5.2027435302734375], [4.644888401031494, -1.1701375246047974, 2.6848182678222656, -1.0028553009033203, 2.4905431270599365, -2.980123281478882, -3.1029090881347656, 0.5980343818664551], [1.0652453899383545, -0.12309245020151138]], "sensor_retina_count": 18, "sensor_vision_radius": 180.0, "sensor_fov_degrees": 180.0, "sensor_skip": 2, "sensor_see_food": true, "sensor_see_bacteria": false, "sensor_see_predators": true, "locomotion_max_speed": 300.0, "locomotion_max_turn": 3.141592653589793, "energy_death_energy": 0.0, "energy_split_energy": 200.0, "energy_v0_cost": 3.0, "energy_vmax_cost": 6.0, "energy_vmax_ref": 300.0, "energy_energy_cap": 200.0, "energy_loss_idle": 3.0, "energy_loss_move": 6.0, "last_brain_output": [7.085631370544434, 0.25057098269462585], "last_brain_activations": [[-0.6147803664207458, -0.9999199509620667, 0.984103798866272, -0.9999212026596069, -0.8780074715614319, -0.9999999403953552, -0.27226579189300537, 1.0, 0.7013627290725708, -0.3220325708389282, -0.16560418903827667, -1.0, -0.9808204770088196, -0.9999999403953552, 0.8690356016159058, 0.999998927116394, -0.9999788999557495, -0.9791739583015442, -0.9978501200675964, 0.9829227924346924, 0.36067017912864685, -0.9999999403953552, 0.9999999403953552, 0.9999999403953552, 0.9983500838279724, 0.963850200176239, -0.9999980926513672, -0.9995139837265015, 0.09216964989900589, 0.977189838886261, 0.9999971985816956, 1.0], [0.9994382858276367, 1.0, 1.0, 0.9999611377716064, 1.0, 1.0, -1.0, -1.0, 1.0, 0.9969266057014465, 0.9999997615814209, -1.0, -0.9965380430221558, 0.9999696612358093, -1.0, -1.0], [-1.0, -0.9971690773963928, 0.9999999403953552, 1.0, 1.0, 0.9999951720237732, -1.0, 1.0], [7.085630416870117, 0.25057145953178406]]}, {"type": "bacteria", "x": 1656.2003566946366, "y": 4005.4001859730897, "r": 9.0, "angle": 2.127625821401503, "vx": -158.5167894488655, "vy": 254.62844518907085, "energy": 48.88022758763516, "age": 96.00000000000017, "brain_sizes": [18, 32, 16, 8, 2], "brain_version": 31471, "brain_weights": [[[-6.643568515777588, 3.8850741386413574, 6.425361633300781, -0.13605518639087677, -3.362534999847412, 9.782869338989258, 5.518762111663818, -3.983595132827759, -0.3031153976917267, 6.580005168914795, -3.5997259616851807, -7.5940775871276855, 5.597311019897461, -5.05977725982666, -9.069628715515137, -8.539429664611816, -1.0264700651168823, -5.439189434051514], [-2.806671142578125, 2.0736165046691895, -4.632775783538818, 11.41928482055664, -14.677043914794922, -2.8229029178619385, 1.8523399829864502, -0.3728688955307007, -7.479281425476074, 7.295112609863281, -0.7105981111526489, -5.7392258644104, 0.660219669342041, -1.3782597780227661, -1.9269371032714844, 8.331192016601562, -3.536935329437256, 8.014482498168945], [2.943997621536255, -3.3231327533721924, 10.66911792755127, -1.821624517440796, -1.1497019529342651, -8.79655933380127, 7.933951377868652, -0.8886763453483582, -1.3025873899459839, 1.5762860774993896, -0.17323248088359833, -4.292670726776123, 2.277850866317749, 2.7279157638549805, -10.269909858703613, 0.9834332466125488, -8.058194160461426, -2.9105677604675293], [2.673980951309204, -8.137846946716309, -7.257339954376221, 9.607674598693848, -4.0230607986450195, 2.622138023376465, -2.6411123275756836, -9.1038236618042, -2.6287317276000977, 4.68107271194458, -5.113936901092529, 6.610982418060303, -0.20472699403762817, -7.1483941078186035, -3.236741304397583, -10.697582244873047, -2.7051565647125244, 1.5295498371124268], [-2.45695424079895, -4.921400547027588, 0.009717978537082672, -9.39753532409668, -17.250680923461914, -0.7458429932594299, 4.51392126083374, -3.9283483028411865, -14.592994689941406, -0.7791963219642639, 4.2117486000061035, 3.810086488723755, 6.209750175476074, -4.283236026763916, -0.9665704965591431, 9.747846603393555, 7.613288879394531, -6.786069869995117], [12.86007308959961, 3.34808349609375, 9.346518516540527, 8.504470825195312, -6.550443649291992, -3.6607632637023926, 8.457453727722168, -6.857388496398926, -6.474919319152832, 5.204049110412598, -5.554524898529053, 0.8043054342269897, 6.933556079864502, -3.3975203037261963, 3.8321375846862793, -8.76494312286377, -2.301649808883667, -2.449986457824707], [-4.522818088531494, 11.281229972839355, -4.897024631500244, 10.415020942687988, -9.275425910949707, -4.531325817108154, -2.7809462547302246, -1.2423393726348877, 7.466684818267822, 3.997650623321533, 12.003884315490723, -5.012754440307617, -6.430507183074951, 1.0204894542694092, 2.894515037536621, -0.326740026473999, -0.7448774576187134, -6.073545932769775], [-5.496907711029053, 8.094844818115234, 6.80112886428833, 13.841730117797852, -3.702526569366455, 2.427431583404541, 12.360451698303223, 0.9047704935073853, 5.2559003829956055, 8.08039379119873, -12.546601295471191, 0.9009027481079102, -1.338130235671997, 1.7856117486953735, 3.4189374446868896, -8.021607398986816, -1.7469062805175781, -0.24273370206356049], [-1.429905652999878, 1.0353740453720093, -5.347530364990234, 2.2069814205169678, 1.1424858570098877, 7.5428242683410645, 0.43668484687805176, -1.467315435409546, -2.1479239463806152, -2.210800886154175, -0.6195384860038757, 1.9024372100830078, 9.885530471801758, 10.697705268859863, -7.857513904571533, 3.1792798042297363, 2.917100191116333, 6.657516002655029], [-0.2717263698577881, -7.195272922515869, 9.57340145111084, 0.49807679653167725, -0.08078763633966446, -2.096693277359009, 2.002260446548462, 3.7571065425872803, 8.920910835266113, 1.4955631494522095, -0.15350504219532013, 4.563255310058594, -0.39919596910476685, -0.8103690147399902, 0.0321190319955349, 8.465437889099121, -0.5894097685813904, 1.713685154914856], [9.559745788574219, 5.480069160461426, 3.1662352085113525, 2.2855262756347656, 4.240108013153076, 1.2104663848876953, 6.752586364746094, -0.10880498588085175, -0.8899585604667664, -3.5408482551574707, 1.612978458404541, -5.346199989318848, -1.7891616821289062, -4.344399929046631, -5.584278106689453, 5.862869739532471, 6.499879360198975, 1.8691470623016357], [-5.195783615112305, 2.3095500469207764, 3.5814967155456543, 2.2194459438323975, -1.363279938697815, -1.252959966659546, -9.249635696411133, -0.732721209526062, 0.9194815754890442, -5.208922863006592, 1.0957342386245728, 8.285016059875488, 0.08988340944051743, -0.819591224193573, 0.6671736836433411, -3.1507060527801514, 4.938111305236816, 3.0611653327941895], [0.13400524854660034, 0.8509713411331177, -2.4543545246124268, -1.413111925125122, -5.078928470611572, 0.9618672132492065, -6.03415584564209, -0.4335033893585205, -3.6675944328308105, -0.46361228823661804, -6.132758617401123, 2.6832499504089355, 8.188491821289062, 0.04224824532866478, -5.669402599334717, 0.3001359701156616, -0.6094368100166321, -1.2601122856140137], [5.765273571014404, 0.9003328680992126, -4.44460391998291, -10.521634101867676, 0.5808178186416626, 3.662299156188965, -1.3050274848937988, 2.1119508743286133, -7.101842403411865, -8.7666597366333, -3.917977809906006, -5.273186206817627, -7.022172451019287, -3.4716999530792236, 7.348117828369141, 12.513152122497559, 3.502948760986328, -1.5714025497436523], [-3.638631820678711, -3.072115182876587, 5.723907947540283, 1.7894623279571533, 6.786977767944336, -1.095792293548584, -1.0639350414276123, -0.1515652984380722, -1.1582369804382324, -13.03498649597168, 0.8646048307418823, -3.457019567489624, -2.7014997005462646, 7.950286388397217, 2.2266244888305664, -1.6292173862457275, 4.798112869262695, -9.911561012268066], [-13.16702938079834, -5.5352606773376465, 2.4719552993774414, 5.884022235870361, 3.4640748500823975, 1.4661149978637695, 3.35939359664917, -4.617341041564941, 6.565996170043945, -5.258138656616211, -3.69927978515625, -4.004688262939453, -6.3067474365234375, -3.399125814437866, -16.168848037719727, -11.442259788513184, -0.8030656576156616, -2.4815874099731445], [2.598860740661621, 0.6416303515434265, 12.878570556640625, -1.842790961265564, -2.7050297260284424, -0.4122430980205536, 4.046533584594727, 0.6382231712341309, -6.812390327453613, -3.7026588916778564, 4.867425918579102, -5.093204975128174, -1.0839593410491943, -8.909724235534668, 6.8389410972595215, 1.6638095378875732, -4.063210964202881, 0.7648119926452637], [6.824213027954102, -8.27138614654541, -2.758953332901001, -12.408947944641113, -4.847079753875732, -5.4061408042907715, -1.4219703674316406, -0.8647864460945129, -8.313199043273926, 8.870654106140137, -7.5737714767456055, 4.655259132385254, 4.894028186798096, -2.2098453044891357, -1.7074968814849854, -14.498848915100098, -7.721250534057617, -6.111241817474365], [12.352534294128418, 9.455787658691406, 2.2171030044555664, -6.51251220703125, 4.876678943634033, -1.215994119644165, 0.48634466528892517, -4.035835266113281, 1.693683385848999, -0.05045369267463684, -1.8432557582855225, -11.92650032043457, -4.0539164543151855, -8.376248359680176, -9.785783767700195, -0.3948834240436554, -5.637709617614746, -1.2867125272750854], [-6.806296348571777, 4.852220058441162, -2.4291810989379883, -0.5879068970680237, 4.565976619720459, 6.395656108856201, 8.197813987731934, 3.9752397537231445, 0.7841315865516663, -0.3213825225830078, -16.523466110229492, 10.469062805175781, 4.744579792022705, -2.2865564823150635, -0.9935410618782043, 9.651487350463867, -1.526449203491211, 13.880302429199219], [8.218146324157715, 3.5854785442352295, 2.4637367725372314, -0.648909866809845, -2.8013532161712646, -10.001925468444824, 0.1619199812412262, 0.28266671299934387, 7.439569473266602, -7.3357625007629395, -6.873026371002197, 1.8373743295669556, -11.452364921569824, -2.9041481018066406, 11.39481258392334, 5.561885356903076, -0.05782404541969299, -8.428369522094727], [6.190080165863037, 2.6766912937164307, -10.202000617980957, 1.3806543350219727, 3.302175521850586, -9.903701782226562, -3.5643744468688965, -3.45462703704834, 2.3501267433166504, 7.546891689300537, 3.6734204292297363, 0.009562194347381592, 2.7575924396514893, 2.168396472930908, 3.28299617767334, -1.9062654972076416, 1.7620816230773926, 0.7808763980865479], [-6.02700138092041, -1.059413194656372, 1.9824891090393066, -4.618103504180908, 2.1551990509033203, 13.704507827758789, -7.394113540649414, 4.095359802246094, -1.5363640785217285, 7.765568733215332, -4.275359153747559, -5.4947509765625, 4.658621788024902, 1.701080083847046, 0.08842446655035019, 0.6880126595497131, 7.558732032775879, -1.0909008979797363], [-2.7151384353637695, -5.441778659820557, 3.198652982711792, 3.188385486602783, -11.048595428466797, -3.537705421447754, -7.905694007873535, 0.8472513556480408, 5.813045501708984, -0.3302731215953827, -4.847416400909424, -0.6914756298065186, 5.312342643737793, 6.5805463790893555, 4.767522811889648, -4.846610069274902, -0.8845850825309753, 15.014025688171387], [-1.074898600578308, -3.790156602859497, -3.496133327484131, 5.79319953918457, -10.409313201904297, -1.1672569513320923, 2.424877643585205, -1.9884005784988403, 0.8183607459068298, 5.083163261413574, -8.901603698730469, 0.642586350440979, -2.286123514175415, 6.054703712463379, 0.4142170548439026, 0.8977829813957214, 3.168550491333008, -0.15239056944847107], [-0.8027956485748291, 0.23555557429790497, 0.5130530595779419, -6.74558162689209, 3.9452123641967773, 3.8101062774658203, 4.838827610015869, 14.983601570129395, 1.6299537420272827, 2.706458568572998, -0.9635030627250671, -5.798585891723633, -0.21659156680107117, 2.709360122680664, 8.160979270935059, 10.388197898864746, 1.0752452611923218, 0.7692011594772339], [3.6303293704986572, 5.937036037445068, 0.7261467576026917, -2.2643377780914307, -1.1454602479934692, 3.870551824569702, -8.8233003616333, -2.9068610668182373, 1.2872051000595093, -0.46307897567749023, -0.6639197468757629, -5.6315107345581055, -11.616752624511719, -5.25185489654541, -1.5970362424850464, -4.9173970222473145, -2.0412709712982178, -8.808126449584961], [2.698422908782959, -1.0193418264389038, 4.476050853729248, -7.599477291107178, 3.632227659225464, 11.546131134033203, 5.403125286102295, -4.162141799926758, -6.702540397644043, -3.9663338661193848, -1.079418659210205, 5.701263904571533, -0.13590842485427856, 7.291084289550781, -3.0710926055908203, -8.045825958251953, -10.343118667602539, -7.525600910186768], [0.17241641879081726, -2.8578927516937256, -1.0591694116592407, -1.69412100315094, -0.2641974687576294, 3.5109994411468506, 11.654932022094727, -0.1679270714521408, 2.8276941776275635, 6.484423637390137, -2.4962334632873535, -10.397378921508789, 1.9449032545089722, -4.242280006408691, -5.467957973480225, -5.05615758895874, 10.000614166259766, -2.6187546253204346], [2.0097012519836426, 2.605522394180298, -9.102814674377441, -4.715246200561523, -1.5435514450073242, 5.715939998626709, 0.5070985555648804, 7.459031581878662, 2.7212464809417725, -7.683953285217285, 6.392475128173828, -3.0292654037475586, -0.009705841541290283, 3.6513631343841553, 1.4994707107543945, 6.372767448425293, 10.081088066101074, -3.6322128772735596], [4.441342830657959, 7.41680383682251, 3.4975876808166504, -6.768832206726074, 5.400846004486084, 1.2240443229675293, -7.782090663909912, -2.1628100872039795, 2.825819492340088, -0.21424704790115356, 2.1682724952697754, -0.9305990934371948, 14.418246269226074, 2.271275281906128, -2.539177179336548, 4.083421230316162, 7.994406700134277, -1.9018704891204834], [-3.1637558937072754, -7.835055828094482, -2.2753090858459473, 3.1590583324432373, -5.335074424743652, 0.2740056812763214, -3.0149013996124268, -10.952713966369629, -4.6427836418151855, 1.2912769317626953, 3.405937433242798, -0.9145108461380005, 0.24379144608974457, -0.2092701941728592, -2.444462776184082, -2.875624656677246, 0.7980960011482239, -4.982639312744141]], [[-3.124096632003784, 6.360467910766602, -2.4940989017486572, -3.2044057846069336, -9.796380043029785, -12.926360130310059, -7.104421138763428, 9.42563247680664, 1.3252719640731812, 13.66390323638916, 7.5401763916015625, -2.4486348628997803, 3.7852835655212402, 0.5996063947677612, -4.999468803405762, -4.767967700958252, 1.582515001296997, 0.00011274218559265137, 0.6611021161079407, -8.031725883483887, -11.245583534240723, 4.95806884765625, -0.9618613719940186, 1.642144799232483, 4.740644454956055, 4.751605987548828, 2.8666059970855713, 0.29709330201148987, -1.0810860395431519, -6.019087314605713, 8.74069595336914, 3.401869773864746], [0.803693413734436, 0.2695663571357727, 3.3274314403533936, 1.8344286680221558, -3.6759426593780518, 4.708611965179443, -1.1620068550109863, 7.99486780166626, -0.06816855072975159, 3.0599827766418457, 11.43777847290039, -7.561778545379639, -13.696332931518555, 0.5089444518089294, 5.054386615753174, 3.835192918777466, -3.9760775566101074, 4.815155029296875, 9.552934646606445, 2.644650459289551, 9.852368354797363, 1.6342581510543823, 2.472102403640747, -6.457979679107666, 1.0191727876663208, -2.6613149642944336, 2.4576075077056885, 4.136466026306152, 1.2377630472183228, 0.10706312954425812, 2.7176201343536377, 0.5326618552207947], [9.26351261138916, -7.962363243103027, 3.7025747299194336, 0.7486976385116577, 3.9233856201171875, 5.747698783874512, 2.7294156551361084, 8.842581748962402, 7.93500280380249, 12.124273300170898, -3.4796292781829834, -5.540711402893066, -3.178046226501465, -1.4679166078567505, 2.453045606613159, 5.758913516998291, -1.6530576944351196, -0.013311952352523804, 4.508511066436768, 4.107719421386719, -3.556537628173828, 0.9001373052597046, -14.233111381530762, 7.677448272705078, -13.936600685119629, 1.328505277633667, 6.25433874130249, 1.2198034524917603, -2.7078514099121094, 10.813438415527344, 10.374589920043945, 0.5493243932723999], [-19.363174438476562, -7.548827171325684, 0.4577041566371918, 2.268765449523926, 3.0706229209899902, -5.196416854858398, 5.293421745300293, -5.110944747924805, 1.5975890159606934, 5.43788480758667, -2.354063034057617, 5.419528484344482, 2.1902875900268555, 0.42844322323799133, -0.7003557085990906, 6.6563334465026855, -0.33765876293182373, 4.082553386688232, 6.122744083404541, -7.275688171386719, 5.8600640296936035, -0.6082044243812561, -2.973609209060669, -2.896414279937744, 6.733178615570068, 1.7971001863479614, -0.13359202444553375, 1.0917835235595703, 6.038150310516357, 6.947290897369385, -5.25032377243042, 2.515501022338867], [-2.509209632873535, -2.002171754837036, 3.402130365371704, 3.0880093574523926, 4.707070827484131, 2.463594913482666, -4.837465763092041, 9.384483337402344, 3.3316831588745117, -6.538619041442871, -11.553383827209473, 6.208070755004883, -1.2307137250900269, 4.325035095214844, 1.7643085718154907, 11.117361068725586, -3.36834716796875, -9.261466979980469, -5.775937080383301, 4.818466663360596, 8.853377342224121, 2.317845344543457, 7.035118103027344, 0.695493221282959, 4.872405052185059, 9.044520378112793, -1.015092372894287, 0.5591822862625122, -6.97309684753418, -6.300821304321289, 6.591663360595703, -3.434451103210449], [1.3209072351455688, 0.5234633684158325, -4.051215171813965, -7.668900966644287, 12.05936336517334, -1.120789647102356, -2.070101022720337, -1.1703437566757202, 6.650498390197754, 1.7405686378479004, 1.7309201955795288, -4.319291591644287, -8.758493423461914, -0.6110984086990356, -2.7631020545959473, 9.786792755126953, -12.279720306396484, 7.349833011627197, -1.698974370956421, 0.5591840744018555, -8.536898612976074, -0.06028853356838226, 0.8803330063819885, 3.57955002784729, 6.80523681640625, -7.005439758300781, 3.763627767562866, 2.3233611583709717, -9.71006965637207, 3.7166666984558105, 6.039888858795166, -5.775712013244629], [4.365555286407471, 1.5526719093322754, 0.689831018447876, 4.227259635925293, 13.775012969970703, -4.967069149017334, 2.4569616317749023, -0.3002437353134155, -2.3004519939422607, -0.5235467553138733, 3.0458273887634277, 6.922731876373291, 8.516732215881348, -1.9461981058120728, 6.177411079406738, -6.914211273193359, -3.9389843940734863, 2.369448184967041, -0.7916955947875977, 6.814545154571533, 12.291215896606445, -0.9609817266464233, 1.9366205930709839, -4.651791095733643, 1.7698607444763184, -8.264906883239746, -6.030315399169922, 5.984481334686279, -1.2013148069381714, -10.213266372680664, 0.686266303062439, -0.6003323197364807], [9.212099075317383, -1.6886190176010132, 3.5621345043182373, 0.08986300230026245, -1.4189058542251587, 0.16008232533931732, -3.384955883026123, -5.295665740966797, 0.28787145018577576, -0.5632811188697815, -5.204998016357422, -1.2947584390640259, 3.6112074851989746, -14.10135555267334, -1.241371989250183, -1.9304935932159424, -4.051905155181885, -0.3429785370826721, 8.13886547088623, -12.124611854553223, -1.1251239776611328, -8.378780364990234, 1.2227938175201416, -6.740360260009766, -11.183764457702637, -2.580434799194336, 2.5400683879852295, -2.3886728286743164, -7.366447448730469, 7.243215084075928, -1.1651897430419922, 3.5183050632476807], [4.984857082366943, -8.41435432434082, 2.140930652618408, 4.541715621948242, 9.339683532714844, -7.022456645965576, 7.522445201873779, 6.374942779541016, -2.799058675765991, -5.685540199279785, 8.423360824584961, -17.99102210998535, 4.848241329193115, -2.818889856338501, -0.08494430780410767, -2.844492197036743, -6.841883659362793, 2.069580554962158, 5.1682868003845215, -1.0028886795043945, -4.98866081237793, -11.00650405883789, 4.456144332885742, 3.462653636932373, 5.79948616027832, -9.980489730834961, -10.338733673095703, -3.3032753467559814, -5.8664164543151855, 8.888195037841797, -2.2876131534576416, 3.4015614986419678], [-0.9956152439117432, 3.883195400238037, 9.703622817993164, -3.260777711868286, 0.1260964721441269, 1.7105567455291748, -6.814199447631836, 1.978602647781372, 0.8550249338150024, 1.0416944026947021, -5.753981590270996, 9.753443717956543, -9.957515716552734, -6.953622341156006, 10.73541259765625, -1.2904669046401978, 8.761571884155273, 1.1299086809158325, 1.5586639642715454, 5.1417317390441895, -3.5292184352874756, 6.276673316955566, -6.050126552581787, -4.915899753570557, -5.815862655639648, -4.167294979095459, 0.42292648553848267, 10.081891059875488, -5.815208435058594, 5.71342134475708, 9.881704330444336, 5.678669452667236], [0.8803591132164001, -1.4396024942398071, 8.453117370605469, 1.3672597408294678, 2.842655897140503, -3.8680803775787354, 0.18473109602928162, -7.435783386230469, 0.8202948570251465, -0.7629183530807495, -7.663599491119385, -3.0118725299835205, 7.656704425811768, -9.917867660522461, 3.5639493465423584, 13.55894660949707, -4.6612162590026855, 4.220809459686279, -4.807424068450928, 1.4754252433776855, -7.39707088470459, -2.2918341159820557, 0.4835025370121002, -0.21674515306949615, -0.46944481134414673, -3.4134223461151123, 4.210606575012207, 0.27394193410873413, 4.4943132400512695, -7.499150276184082, -0.3953944444656372, 5.693835258483887], [-2.7520592212677, -0.5155880451202393, 2.856876850128174, 2.7308895587921143, 8.42408561706543, -5.3407464027404785, -0.06303485482931137, -3.084502696990967, -6.726820468902588, 3.647083282470703, -4.871103286743164, 0.6823639869689941, -0.7147344350814819, 8.37154483795166, -2.4429514408111572, 7.76301908493042, -0.8905684351921082, -0.20948189496994019, -2.602508783340454, -1.810038447380066, -1.5243350267410278, 3.1347289085388184, 2.6113975048065186, 1.159567952156067, -6.070417881011963, 3.651546001434326, 4.712679862976074, 6.684237003326416, -12.069917678833008, -9.085662841796875, 10.46519947052002, 7.8705549240112305], [-4.754785060882568, -8.456204414367676, -4.637890815734863, 3.025146007537842, -4.327698707580566, 13.497089385986328, 2.335951089859009, 2.801004409790039, -2.258676528930664, -5.712080478668213, 6.97952127456665, -1.3589088916778564, -7.085272312164307, 8.712322235107422, 1.2573857307434082, 5.165231227874756, -0.2130068987607956, -2.3292653560638428, 0.007415413856506348, -3.799342632293701, -3.214235305786133, -3.2043113708496094, 5.612473011016846, 1.7388765811920166, -5.42422342300415, 2.1400866508483887, 6.019911766052246, -0.20837026834487915, -3.930579423904419, -3.4992833137512207, -4.575653076171875, 1.3543860912322998], [-0.12027333676815033, -3.2145867347717285, -9.607037544250488, -1.0995368957519531, -1.299513578414917, -2.253864288330078, 13.732439041137695, -1.3531861305236816, 0.46838268637657166, -5.6658430099487305, -6.823884963989258, -6.646042823791504, -1.1084966659545898, 1.7838308811187744, 5.279867172241211, 7.513286590576172, 8.186423301696777, 2.228311777114868, 3.7886993885040283, 0.321327269077301, -2.8461527824401855, -8.59334659576416, 1.6898062229156494, 0.5307793021202087, 0.5743202567100525, 1.1258909702301025, -6.400766372680664, -2.8927621841430664, 7.468323230743408, -7.240553379058838, -8.977721214294434, -1.7240080833435059], [-5.058836936950684, -8.171908378601074, -3.0376663208007812, -3.519869089126587, -4.086309432983398, 3.4210147857666016, 7.763364791870117, -1.8653130531311035, 4.930898666381836, 0.42692360281944275, 1.5630886554718018, 0.12919875979423523, 2.7237789630889893, -2.1099236011505127, -4.496432781219482, 4.111313343048096, -0.8889529705047607, -6.760751724243164, 1.7925269603729248, -10.90715503692627, 6.362354278564453, -0.3898604214191437, -5.929492950439453, -7.38921594619751, -1.744027018547058, -1.3648204803466797, -2.206986427307129, 15.236818313598633, -1.5796650648117065, -10.165872573852539, -1.8311463594436646, -3.656076192855835], [7.322146415710449, -4.217263698577881, -2.280794382095337, 4.875919818878174, -4.147683620452881, -12.005632400512695, 5.507347583770752, -6.104182243347168, -2.4196696281433105, -9.586756706237793, -0.18768087029457092, -3.6942431926727295, 5.4290008544921875, 2.88405179977417, 0.6239922046661377, 2.7953457832336426, 3.543139934539795, 3.0635147094726562, 0.04000599682331085, 6.232259273529053, -5.288206577301025, 8.58029842376709, -4.531095027923584, -4.564262390136719, -2.161748170852661, -8.914693832397461, 0.9285605549812317, 2.421330213546753, -2.879742383956909, -2.834216833114624, -0.5614384412765503, 1.8454704284667969]], [[-3.6544032096862793, 0.9120588302612305, -5.036650657653809, -11.021223068237305, 0.03157534822821617, -0.7129702568054199, 7.413181781768799, -0.26776430010795593, -0.30919313430786133, -0.00699799507856369, 8.239121437072754, 3.5626559257507324, 8.1383638381958, -8.69919490814209, -8.213859558105469, 1.230751633644104], [6.547113418579102, -5.339285850524902, -7.6073994636535645, 2.8455560207366943, 5.714352607727051, -1.964278221130371, -3.843019485473633, 3.10599684715271, -4.015365123748779, 8.795745849609375, -0.7064347267150879, 8.740508079528809, 4.926948070526123, 3.7435476779937744, -8.162432670593262, 4.304795742034912], [-0.10804576426744461, -1.7509229183197021, -3.476626396179199, -5.170849323272705, -2.216859817504883, -0.19827783107757568, -10.80540943145752, -9.585918426513672, -6.592902660369873, -1.4317923784255981, 3.335493326187134, -1.57072114944458, 7.273982524871826, 2.473324775695801, -1.0143870115280151, -7.458609580993652], [4.183221817016602, 6.841190338134766, 2.737489700317383, -1.461879849433899, -0.37841692566871643, 1.4691905975341797, -3.414782762527466, -2.310075044631958, -4.9311981201171875, 1.4215002059936523, 4.331778526306152, -11.52055835723877, -8.223609924316406, 0.6874906420707703, 0.32911553978919983, 13.003247261047363], [2.48799204826355, 7.012460231781006, 2.229827404022217, -5.691814422607422, -6.422895431518555, 0.2707187533378601, -15.496216773986816, 1.5762263536453247, -10.258541107177734, 7.312800884246826, -1.0536277294158936, -4.519880771636963, 1.6772576570510864, 8.230703353881836, 3.313671350479126, 0.24331152439117432], [-4.592316150665283, -5.910661697387695, 0.0832645371556282, -7.112476348876953, 4.305391311645508, -1.331203818321228, -16.409337997436523, 5.389361381530762, -3.779944658279419, -4.09419059753418, 3.0041322708129883, 1.243025779724121, -4.266905784606934, 2.256988763809204, -4.18672513961792, -7.690906524658203], [4.835350036621094, 0.4913337528705597, 5.910832405090332, 1.9435468912124634, -6.8203229904174805, -6.324252128601074, -0.604189932346344, 2.5297186374664307, -1.7727128267288208, -4.485435485839844, -5.933722496032715, 2.3033359050750732, -0.6742187142372131, -5.3910088539123535, -4.67957067489624, 10.336098670959473], [5.7666916847229, -0.8682101368904114, 0.4459195137023926, 15.941702842712402, 1.8605451583862305, -6.3254899978637695, 2.802619218826294, -0.46638908982276917, -0.13060811161994934, -6.831339359283447, 0.9697197675704956, 3.0206751823425293, 4.654617786407471, 1.024178385734558, -12.916708946228027, -9.015644073486328]], [[-3.234830141067505, 6.036507606506348, -0.5008319616317749, 5.153280735015869, -2.1395962238311768, 9.459317207336426, -0.9559934139251709, -3.397312879562378], [-8.451507568359375, 2.4806251525878906, 0.5956231951713562, -3.4127304553985596, -9.3493013381958, -0.7807590961456299, -4.529415607452393, 2.737900495529175]]], "brain_biases": [[-0.7281100153923035, -4.717968463897705, 2.613250732421875, -5.0085368156433105, -1.8421119451522827, -10.081659317016602, -0.15368828177452087, 10.425250053405762, 0.8800591230392456, -1.1704530715942383, -0.22991333901882172, -11.113482475280762, -2.1459364891052246, -8.515649795532227, 1.2260525226593018, 7.335512161254883, -5.958600044250488, -1.9399911165237427, -3.6817879676818848, 2.703930139541626, 0.0961797758936882, -9.013489723205566, 9.401083946228027, 9.3135404586792, 3.817060708999634, 1.822628378868103, -7.127015590667725, -3.7889208793640137, 0.10565681010484695, 2.142972230911255, 7.042323112487793, 12.090415954589844], [-3.4693591594696045, 0.896872878074646, 6.81179141998291, -7.875263690948486e-05, 5.751224040985107, 0.7330542802810669, -1.1564863920211792, -4.7775774002075195, 6.921625137329102, 0.9979298114776611, -14.71546745300293, -14.021084785461426, 2.565220832824707, -0.5252239108085632, 8.144506454467773, -5.121766090393066], [4.92539119720459, -1.5399138927459717, 2.6558799743652344, -0.9615107774734497, 2.143193244934082, -3.409691333770752, -2.7508044242858887, 0.5761374831199646], [0.6661698818206787, -0.03622367978096008]], "sensor_retina_count": 18, "sensor_vision_radius": 180.0, "sensor_fov_degrees": 180.0, "sensor_skip": 2, "sensor_see_food": true, "sensor_see_bacteria": false, "sensor_see_predators": true, "locomotion_max_speed": 300.0, "locomotion_max_turn": 3.141592653589793, "energy_death_energy": 0.0, "energy_split_energy": 200.0, "energy_v0_cost": 3.0, "energy_vmax_cost": 6.0, "energy_vmax_ref": 300.0, "energy_energy_cap": 200.0, "energy_loss_idle": 3.0, "energy_loss_move": 6.0, "last_brain_output": [8.495387077331543, -0.6318390369415283], "last_brain_activations": [[-0.6219077110290527, -0.9998404383659363, 0.9893128275871277, -0.9999107718467712, -0.9509974122047424, -1.0, -0.1524895578622818, 1.0, 0.7064489126205444, -0.8244173526763916, -0.2259461134672165, -1.0, -0.9730105996131897, -0.9999998807907104, 0.8414304852485657, 0.9999991655349731, -0.9999866485595703, -0.9595332741737366, -0.9987329840660095, 0.9910775423049927, 0.0958842933177948, -0.9999999403953552, 0.9999999403953552, 0.9999999403953552, 0.9990331530570984, 0.9490998387336731, -0.9999987483024597, -0.9989771842956543, 0.10526539385318756, 0.9728522896766663, 0.9999985098838806, 1.0], [-0.4945177435874939, 1.0, 1.0, -0.07321639358997345, 1.0, 1.0, -1.0, -1.0, 1.0, 0.9990351796150208, 1.0, -1.0, -0.5289080142974854, 0.9999999403953552, -1.0, -1.0], [-0.9999893307685852, -1.0, 1.0, 1.0, 1.0, 1.0, -1.0, 0.6762121319770813], [8.495317459106445, -0.631781816482544]]}, {"type": "bacteria", "x": 1810.1551196434004, "y": 3882.6924922898693, "r": 9.0, "angle": 1.8234166069019353, "vx": -74.9534967165933, "vy": 290.3655866518195, "energy": 110.1103520966966, "age": 88.38375000000006, "brain_sizes": [18, 32, 16, 8, 2], "brain_version": 31484, "brain_weights": [[[-6.955780506134033, 3.955319404602051, 6.406834125518799, 0.1973101943731308, -3.227684259414673, 10.16590404510498, 5.626256465911865, -3.5892467498779297, -0.5612553358078003, 6.702422618865967, -4.091963768005371, -7.411189556121826, 5.784120559692383, -5.0710978507995605, -9.241992950439453, -9.135777473449707, -0.967823326587677, -4.97452974319458], [-2.6114790439605713, 2.1421754360198975, -5.0583953857421875, 11.492621421813965, -14.492076873779297, -2.973632574081421, 2.194016456604004, -0.0356239378452301, -7.5404157638549805, 7.10290002822876, -0.12873439490795135, -5.502962112426758, 0.738189160823822, -1.8369168043136597, -1.8715324401855469, 8.443382263183594, -2.8425207138061523, 7.7371745109558105], [2.973726272583008, -3.361398458480835, 10.971102714538574, -2.0233778953552246, -0.7188392281532288, -8.911174774169922, 7.683565139770508, -0.07866613566875458, -1.4325284957885742, 1.6026148796081543, -0.3337624669075012, -4.226582050323486, 1.8508447408676147, 3.1592490673065186, -10.10669231414795, 1.0155678987503052, -7.857691287994385, -3.2567427158355713], [3.0319406986236572, -8.305824279785156, -7.445483684539795, 10.16306209564209, -4.1117048263549805, 2.9989442825317383, -2.486487865447998, -9.088197708129883, -2.5004594326019287, 4.656837463378906, -5.171668529510498, 6.738859176635742, -0.38025426864624023, -6.817274570465088, -3.5487983226776123, -10.69015884399414, -2.7610013484954834, 0.9877349138259888], [-2.301307201385498, -4.97933292388916, 0.5978346467018127, -9.316033363342285, -17.51763916015625, 0.006134197115898132, 4.45902156829834, -3.664853811264038, -14.58370304107666, -1.3528707027435303, 4.324774265289307, 3.947932720184326, 6.365797519683838, -4.482051849365234, -1.5340677499771118, 8.983384132385254, 8.026881217956543, -6.841745853424072], [13.175300598144531, 3.583616018295288, 9.402687072753906, 8.419568061828613, -6.603843688964844, -3.246960401535034, 8.09034252166748, -6.918030738830566, -6.4495930671691895, 5.070195198059082, -5.508913040161133, 1.4471409320831299, 7.013025283813477, -3.61561918258667, 3.9358763694763184, -8.791642189025879, -2.1718223094940186, -2.2111587524414062], [-4.629304885864258, 11.652193069458008, -5.094552040100098, 10.134549140930176, -9.538475036621094, -4.609676837921143, -3.154430866241455, -0.9159954786300659, 7.15559196472168, 4.236128807067871, 12.255191802978516, -4.4781599044799805, -6.4562602043151855, 1.0285013914108276, 2.865504741668701, -0.399933785200119, -0.5505996942520142, -5.778720855712891], [-5.416608810424805, 8.260395050048828, 6.225984573364258, 13.684968948364258, -3.2376551628112793, 2.5116395950317383, 12.42359447479248, 0.9120961427688599, 4.2613935470581055, 8.359158515930176, -12.882623672485352, 0.9688565731048584, -1.5290133953094482, 1.7559525966644287, 3.4648032188415527, -7.965663433074951, -1.4802230596542358, -0.19457723200321198], [-0.7786754369735718, 0.9480586051940918, -5.291842460632324, 2.432260036468506, 1.070204734802246, 8.080714225769043, 0.479880690574646, -1.0598559379577637, -2.0530829429626465, -2.533310651779175, -0.44927364587783813, 1.589086651802063, 10.243860244750977, 10.8183012008667, -7.990203857421875, 3.574967384338379, 2.8996975421905518, 6.993903636932373], [0.0077928826212882996, -7.368212699890137, 9.458762168884277, 0.722263514995575, 0.17547044157981873, -1.8414334058761597, 1.9374206066131592, 2.8048033714294434, 9.06052017211914, 1.324339509010315, -0.2734544575214386, 4.327109336853027, -0.5031022429466248, -0.9583112597465515, -0.16765782237052917, 8.4153413772583, -0.9966636300086975, 1.3725818395614624], [9.889055252075195, 5.868488788604736, 2.9935805797576904, 2.3286776542663574, 4.731303691864014, 0.7872735857963562, 6.844451427459717, -0.3830748498439789, -0.8279981017112732, -3.3352184295654297, 1.5759679079055786, -6.115767002105713, -1.2672770023345947, -4.174912452697754, -5.119731903076172, 5.576874732971191, 6.598931789398193, 1.6739487648010254], [-4.697934150695801, 2.4292850494384766, 2.8765196800231934, 2.037496566772461, -1.2729161977767944, -1.4790239334106445, -8.996187210083008, -0.626383900642395, 0.4335249066352844, -5.086319446563721, 0.9368971586227417, 7.685389041900635, -0.05890601500868797, -0.9956682324409485, 0.6451252698898315, -3.336247444152832, 5.117832660675049, 3.2925639152526855], [0.23878178000450134, 0.993299126625061, -2.23665452003479, -1.4963234663009644, -5.196940898895264, 0.8037137389183044, -6.039085388183594, -0.5565539598464966, -3.9619483947753906, -0.22402256727218628, -5.943762302398682, 2.928854465484619, 8.446407318115234, -0.01749609410762787, -5.735988140106201, 0.11843594908714294, -0.6436351537704468, -0.9003599286079407], [6.107550144195557, 0.8791322112083435, -5.127815246582031, -10.268043518066406, 0.6931062340736389, 3.302626132965088, -1.3741271495819092, 1.8430266380310059, -6.727531433105469, -8.842890739440918, -4.094568252563477, -5.069517612457275, -6.9111785888671875, -3.5308828353881836, 7.349853515625, 12.383554458618164, 3.220583200454712, -1.9739491939544678], [-3.2721939086914062, -2.875852346420288, 5.806196212768555, 1.9260661602020264, 6.7436041831970215, -0.8969601392745972, -1.2232866287231445, -0.4928281009197235, -1.2595356702804565, -13.02380657196045, 0.7912082672119141, -3.7673745155334473, -2.5865602493286133, 7.80946159362793, 1.8064650297164917, -1.854157567024231, 4.85899019241333, -9.88161849975586], [-12.509949684143066, -5.888227939605713, 2.4037230014801025, 6.164467811584473, 3.156806230545044, 1.6096431016921997, 3.3443074226379395, -4.270534038543701, 6.575638771057129, -5.097202777862549, -4.241452693939209, -4.315690994262695, -6.111886024475098, -3.453840494155884, -16.07754898071289, -11.556509017944336, -0.8033784627914429, -2.459367036819458], [2.985746145248413, 0.34140902757644653, 13.545434951782227, -1.857601284980774, -2.7574546337127686, -0.4744972288608551, 3.7320103645324707, 0.6367199420928955, -6.2118659019470215, -4.120491027832031, 4.666146278381348, -5.052330493927002, -0.9586209654808044, -8.70479679107666, 6.502949237823486, 1.489201545715332, -4.10945463180542, 0.5739845633506775], [6.966991901397705, -8.152549743652344, -2.8334059715270996, -12.743499755859375, -4.595287322998047, -5.7606916427612305, -1.5617390871047974, -1.0419726371765137, -8.391871452331543, 9.054627418518066, -7.342410564422607, 5.192502021789551, 4.861426830291748, -2.5499722957611084, -1.7741260528564453, -13.993651390075684, -7.90045166015625, -5.827498912811279], [12.247997283935547, 9.289022445678711, 2.1893911361694336, -6.687601566314697, 4.608683109283447, -1.0656976699829102, 0.9976763129234314, -4.563957691192627, 1.7485560178756714, -0.3510776162147522, -1.9522206783294678, -11.835630416870117, -3.6209089756011963, -8.35976505279541, -9.426947593688965, -0.6366585493087769, -5.40645170211792, -1.4826483726501465], [-6.461043357849121, 4.454084873199463, -2.4802427291870117, -0.8192840814590454, 4.883222579956055, 6.45963716506958, 8.394392013549805, 3.7776758670806885, 0.37264013290405273, 0.07960362732410431, -16.37089729309082, 10.25898265838623, 5.007687091827393, -2.203213930130005, -0.7815412282943726, 9.245595932006836, -1.676175594329834, 13.695371627807617], [7.6676926612854, 3.2624940872192383, 2.0604939460754395, -0.4014338552951813, -3.0833194255828857, -10.175664901733398, 0.2640077471733093, 0.14119988679885864, 7.465188503265381, -7.368138313293457, -6.66499137878418, 1.8454923629760742, -11.41781234741211, -2.98580265045166, 11.422322273254395, 5.559077262878418, -0.044718384742736816, -8.454559326171875], [6.2392802238464355, 2.496058225631714, -10.648730278015137, 1.2693686485290527, 3.4688720703125, -10.094274520874023, -3.791572332382202, -3.3915903568267822, 2.6840879917144775, 7.242975234985352, 3.843493938446045, 0.02968931943178177, 2.6083245277404785, 1.539838433265686, 2.965677261352539, -1.812590479850769, 1.308058738708496, 0.6956902146339417], [-5.858847618103027, -0.845441460609436, 1.890325903892517, -4.86411190032959, 2.5539510250091553, 13.28262710571289, -7.411228656768799, 4.267925262451172, -1.1457322835922241, 8.193998336791992, -4.339519500732422, -5.478550910949707, 4.468013286590576, 1.5882925987243652, -0.05596579983830452, 0.8796820044517517, 7.223474025726318, -1.3389933109283447], [-2.5743422508239746, -5.653862476348877, 3.223736047744751, 3.187837600708008, -11.37731647491455, -3.614464282989502, -7.893141269683838, 0.8109384179115295, 6.2103447914123535, -0.395519882440567, -4.925668716430664, -0.6734474301338196, 4.939652442932129, 6.323329925537109, 4.759810447692871, -5.109732151031494, -0.634489119052887, 14.985182762145996], [-0.49645382165908813, -3.5639028549194336, -3.6082565784454346, 5.7492218017578125, -10.318214416503906, -1.274412989616394, 2.823387622833252, -2.2857847213745117, 0.5789772272109985, 5.102205753326416, -9.263480186462402, 0.8276039361953735, -2.0687851905822754, 6.3234758377075195, 0.25610631704330444, 0.8513438105583191, 3.3865418434143066, -0.08125266432762146], [-0.18639977276325226, 0.5327324867248535, 0.3202083706855774, -7.084681510925293, 4.496097564697266, 3.9763782024383545, 4.638936519622803, 14.970796585083008, 1.5933831930160522, 2.3437657356262207, -0.7133252024650574, -5.7000651359558105, -0.3144587278366089, 2.6251795291900635, 7.660145282745361, 10.094833374023438, 1.118116855621338, 1.0678671598434448], [3.649301528930664, 6.091610908508301, 0.6060312986373901, -2.420947551727295, -1.1568788290023804, 3.645268440246582, -8.764671325683594, -2.8039283752441406, 1.5122883319854736, -0.6909216642379761, -0.5441866517066956, -5.346100330352783, -11.375011444091797, -5.388708114624023, -1.1861777305603027, -4.702417373657227, -2.0978729724884033, -8.96944522857666], [3.0992767810821533, -0.6779573559761047, 5.12605619430542, -8.087788581848145, 3.7897872924804688, 11.607386589050293, 5.487525939941406, -4.068057537078857, -6.185218811035156, -3.724189519882202, -0.8982231616973877, 5.721639633178711, 0.1008465513586998, 7.762884616851807, -2.975998640060425, -8.433259010314941, -10.195440292358398, -7.627416133880615], [-0.18369963765144348, -3.070194959640503, -1.213401436805725, -1.544618010520935, -0.7191190123558044, 3.519962787628174, 12.004293441772461, -0.050358839333057404, 2.94307279586792, 6.2359395027160645, -2.4449779987335205, -10.687373161315918, 1.4690059423446655, -3.9254069328308105, -5.815454959869385, -4.912240505218506, 10.179999351501465, -2.810340642929077], [2.046020269393921, 3.205113410949707, -8.889372825622559, -4.953379154205322, -1.4391591548919678, 5.704448699951172, 1.2696599960327148, 7.183716297149658, 2.7327301502227783, -7.6920013427734375, 6.0218281745910645, 