{"version": 2, "timestamp": "20250906_213303", "params": {"time_scale": 0.2, "fps": 60.0, "paused": true, "use_spatial": true, "substrate_shape": "rectangular", "world_w": 5000.0, "world_h": 5000.0, "substrate_radius": 5000.0, "max_deaths_per_step": 5, "retina_skip": 2, "retina_vision_mode": "fullbody", "simple_render": false, "reuse_spatial_grid": true, "food_target": 200, "food_min_r": 8.0, "food_max_r": 10.0, "food_replenish_interval": 0.1, "bacteria_count": 100, "bacteria_min_r": 6.0, "bacteria_max_r": 12.0, "bacteria_min_limit": 20, "bacteria_max_limit": 400, "bacteria_initial_energy": 100.0, "bacteria_death_energy": 0.0, "bacteria_split_energy": 200.0, "bacteria_metab_v0_cost": 3.0, "bacteria_metab_vmax_cost": 6.0, "bacteria_energy_cap": 200.0, "bacteria_body_size": 9.0, "bacteria_max_speed": 300.0, "bacteria_max_turn": 3.141592653589793, "bacteria_vision_radius": 180.0, "bacteria_vision_mode": "frontal", "bacteria_retina_count": 18, "bacteria_retina_fov_degrees": 180.0, "bacteria_show_vision": true, "bacteria_retina_see_food": true, "bacteria_retina_see_bacteria": false, "bacteria_retina_see_predators": true, "bacteria_hidden_layers": 3, "bacteria_neurons_layer_1": 32, "bacteria_neurons_layer_2": 16, "bacteria_neurons_layer_3": 8, "bacteria_neurons_layer_4": 20, "bacteria_neurons_layer_5": 0, "bacteria_mutation_rate": 0.1, "bacteria_mutation_strength": 0.1, "bacteria_structural_jitter": 0, "predators_enabled": true, "predator_count": 1, "predator_min_r": 10.0, "predator_max_r": 18.0, "predator_min_limit": 1, "predator_max_limit": 100, "predator_initial_energy": 100.0, "predator_death_energy": 100.0, "predator_split_energy": 400.0, "predator_metab_v0_cost": 10.0, "predator_metab_vmax_cost": 15.0, "predator_energy_cap": 400.0, "predator_body_size": 30.0, "predator_max_speed": 300.0, "predator_max_turn": 3.141592653589793, "predator_vision_radius": 500.0, "predator_vision_mode": "frontal", "predator_retina_count": 18, "predator_retina_fov_degrees": 120.0, "predator_show_vision": false, "predator_retina_see_food": false, "predator_retina_see_bacteria": true, "predator_retina_see_predators": false, "predator_hidden_layers": 3, "predator_neurons_layer_1": 32, "predator_neurons_layer_2": 16, "predator_neurons_layer_3": 8, "predator_neurons_layer_4": 0, "predator_neurons_layer_5": 0, "predator_mutation_rate": 0.1, "predator_mutation_strength": 0.1, "predator_structural_jitter": 0, "agents_inertia": 1.0, "show_selected_details": true, "substrate_bg_color": [18, 7, 53], "food_color": [50, 100, 0], "bacteria_color": [173, 115, 0], "predator_color": [154, 0, 0], "disable_brain_activations": false, "auto_export_substrate": true, "auto_export_interval_minutes": 10.0}, "ui_params": {"time_scale": 0.2, "fps": 60, "paused": true, "use_spatial": true, "retina_skip": 2, "retina_vision_mode": "fullbody", "simple_render": false, "reuse_spatial_grid": true, "agents_inertia": 1.0, "show_selected_details": true, "enable_brain_activations": true, "auto_export_substrate": true, "auto_export_interval_minutes": 10.0, "food_target": 200, "food_min_r": 8.0, "food_max_r": 10.0, "food_replenish_interval": 0.1, "world_w": 5000.0, "world_h": 5000.0, "substrate_shape": "rectangular", "substrate_radius": 5000.0, "bacteria_count": 100, "bacteria_min_limit": 20, "bacteria_max_limit": 400, "bacteria_initial_energy": 100.0, "bacteria_death_energy": 0.0, "bacteria_split_energy": 200.0, "bacteria_metab_v0_cost": 3.0, "bacteria_metab_vmax_cost": 6.0, "bacteria_energy_cap": 200.0, "bacteria_body_size": 9.0, "bacteria_vision_radius": 180.0, "bacteria_retina_count": 18, "bacteria_retina_fov_degrees": 180.0, "bacteria_max_speed": 300.0, "bacteria_max_turn_deg": 180.0, "bacteria_hidden_layers": 3, "bacteria_neurons_layer_1": 32, "bacteria_neurons_layer_2": 16, "bacteria_neurons_layer_3": 8, "bacteria_neurons_layer_4": 20, "bacteria_neurons_layer_5": 0, "bacteria_mutation_rate": 0.1, "bacteria_mutation_strength": 0.1, "bacteria_show_vision": true, "bacteria_retina_see_food": true, "bacteria_retina_see_bacteria": false, "bacteria_retina_see_predators": true, "predators_enabled": true, "predator_count": 1, "predator_min_limit": 1, "predator_max_limit": 100, "predator_initial_energy": 100.0, "predator_death_energy": 100.0, "predator_split_energy": 400.0, "predator_metab_v0_cost": 10.0, "predator_metab_vmax_cost": 15.0, "predator_energy_cap": 400.0, "predator_body_size": 30.0, "predator_vision_radius": 500.0, "predator_retina_count": 18, "predator_retina_fov_degrees": 120.0, "predator_max_speed": 300.0, "predator_max_turn_deg": 180.0, "predator_hidden_layers": 3, "predator_neurons_layer_1": 32, "predator_neurons_layer_2": 16, "predator_neurons_layer_3": 8, "predator_neurons_layer_4": 0, "predator_neurons_layer_5": 0, "predator_mutation_rate": 0.1, "predator_mutation_strength": 0.1, "predator_retina_see_food": false, "predator_retina_see_bacteria": true, "predator_retina_see_predators": false, "predator_show_vision": false, "test_param_1": 1, "test_param_2": 2, "test_param_3": 3.0, "test_param_4": 4, "test_param_5": 5, "test_param_6": 6.0, "test_param_7": 7, "test_param_8": 8, "test_param_9": 9.0, "test_param_10": 10, "test_param_11": 11, "test_param_12": 12.0, "test_param_13": 13, "test_param_14": 14, "test_param_15": 15.0, "test_param_16": 16, "test_param_17": 17, "test_param_18": 18.0, "test_param_19": 19, "test_param_20": 20, "test_param_21": 21.0, "test_param_22": 22, "test_param_23": 23, "test_param_24": 24.0, "test_param_25": 25, "test_param_26": 26, "test_param_27": 27.0, "test_param_28": 28, "test_param_29": 29, "test_param_30": 30.0}, "world": {"width": 5000.0, "height": 5000.0, "shape": "rectangular", "radius": 5000.0}, "camera": {"x": 3177.72872705035, "y": 1858.7613824090615, "zoom": 1.0671895716336541}, "simulation": {"total_simulation_time": 849072.5813995199}, "food": {"count": 200, "target": 200}, "agents": [{"type": "bacteria", "x": 3581.4542919858804, "y": 3002.212842592137, "r": 9.0, "angle": 0.14135304842445862, "vx": 297.0051335192447, "vy": 42.26444755549752, "energy": 86.26782096826074, "age": 93.89793333334218, "brain_sizes": [18, 32, 16, 8, 2], "brain_version": 32056, "brain_weights": [[[-5.82307767868042, 4.134459972381592, 6.157515525817871, -0.4309488832950592, -2.234837770462036, 9.173233985900879, 6.938155174255371, -3.5031144618988037, -0.06810473650693893, 7.379805564880371, -4.7439866065979, -6.750236511230469, 4.642690658569336, -5.994057655334473, -8.378768920898438, -9.462262153625488, -0.8769441843032837, -4.622982501983643], [-2.1683928966522217, 2.3068461418151855, -5.509873390197754, 13.14436149597168, -15.425795555114746, -3.1658568382263184, 1.6567915678024292, 0.5430110096931458, -8.713747024536133, 7.433616638183594, -0.20264288783073425, -4.9896392822265625, 0.38310590386390686, -2.201268196105957, -3.3617327213287354, 8.4226655960083, -2.705893039703369, 7.5998454093933105], [2.4940991401672363, -3.127856492996216, 10.202730178833008, -2.101301431655884, -1.1554394960403442, -9.473039627075195, 8.063557624816895, -0.8428400754928589, -1.4309343099594116, 1.3965392112731934, 0.3670737147331238, -5.341842174530029, 2.0814120769500732, 4.424021244049072, -9.811014175415039, -0.1821298450231552, -7.205303192138672, -3.4849905967712402], [2.0346968173980713, -8.790956497192383, -6.0008087158203125, 10.217667579650879, -5.282828330993652, 2.3255178928375244, -3.065183162689209, -10.084266662597656, -1.5468629598617554, 6.348825454711914, -5.62528133392334, 6.342960834503174, -0.62663733959198, -5.160857677459717, -4.533725261688232, -11.497824668884277, -2.1543402671813965, 1.8895784616470337], [-2.1834256649017334, -5.579798221588135, 1.0878205299377441, -9.583606719970703, -17.936500549316406, -0.919925332069397, 4.389316082000732, -2.971140146255493, -15.176972389221191, -1.2511565685272217, 3.5028326511383057, 4.674916744232178, 6.0414509773254395, -5.031909465789795, -0.8248170018196106, 9.714998245239258, 8.698463439941406, -8.203476905822754], [13.563273429870605, 2.661755084991455, 9.726384162902832, 7.8419880867004395, -6.1539387702941895, -3.5198636054992676, 8.91542911529541, -7.607323169708252, -6.679985046386719, 4.053065776824951, -5.011285305023193, 2.5526742935180664, 6.997073173522949, -4.000749111175537, 3.0569169521331787, -9.164685249328613, -1.6306012868881226, -4.130498886108398], [-4.981728553771973, 12.699877738952637, -5.013077259063721, 8.702672004699707, -10.448719024658203, -2.8261237144470215, -3.6112918853759766, -1.23172926902771, 7.768187522888184, 4.459125518798828, 12.545494079589844, -4.37410831451416, -4.675251007080078, 2.0499720573425293, 2.089754819869995, -0.5935236811637878, -0.8741697072982788, -5.657223224639893], [-4.6287360191345215, 7.508923530578613, 5.776421070098877, 13.634166717529297, -2.0425689220428467, 2.1062285900115967, 11.429014205932617, 1.6429877281188965, 5.172452926635742, 8.3790922164917, -11.964255332946777, 0.8143973350524902, -2.460925579071045, 3.572906732559204, 4.82187032699585, -7.8085479736328125, -1.6911144256591797, -1.3562995195388794], [-1.2208287715911865, -0.16058000922203064, -4.105615139007568, 2.5881266593933105, 0.5445120334625244, 8.942713737487793, -0.5720531344413757, -2.7911441326141357, -1.9431536197662354, -3.3225560188293457, -0.6391615271568298, 0.7052183747291565, 10.293667793273926, 10.22213363647461, -7.384090423583984, 3.524243116378784, 2.7602057456970215, 6.619666576385498], [0.27109792828559875, -8.796438217163086, 10.885686874389648, 1.1883273124694824, 0.5708820819854736, -1.688239336013794, 1.9065736532211304, 2.045949697494507, 9.898161888122559, 1.6371814012527466, 0.45800235867500305, 4.764034748077393, -0.6772202253341675, -0.8060122728347778, 0.7631608843803406, 9.263519287109375, -0.8398632407188416, 1.5157934427261353], [9.895626068115234, 6.761931896209717, 2.9097516536712646, 2.8378939628601074, 5.3829545974731445, 0.5385153889656067, 6.37345027923584, 0.359937846660614, -1.1156337261199951, -3.5335164070129395, 1.1232097148895264, -5.054015636444092, -1.0566660165786743, -3.4984118938446045, -5.819304943084717, 7.820311546325684, 5.900629043579102, 1.9831377267837524], [-3.606416702270508, 0.9821402430534363, 2.6423118114471436, 1.6834949254989624, -1.477431297302246, -1.6347254514694214, -9.601957321166992, -1.7256810665130615, 1.1957149505615234, -5.798879146575928, -0.014168418943881989, 7.069574356079102, 0.14123591780662537, -0.7998824119567871, 0.06546612828969955, -4.482062339782715, 3.4640347957611084, 4.12450647354126], [0.8178326487541199, 0.14131112396717072, -2.737884044647217, -1.226739525794983, -5.463931560516357, 0.0957406535744667, -6.8181538581848145, 0.9070132970809937, -3.8200225830078125, -0.9360917210578918, -4.7463178634643555, 3.3286776542663574, 7.409803867340088, -0.1367642879486084, -5.52815580368042, -0.3161216676235199, -0.1698330044746399, -0.4298822581768036], [8.130544662475586, 2.1998863220214844, -5.569222450256348, -10.207277297973633, 1.0973091125488281, 2.9341037273406982, -1.887600064277649, 2.3255083560943604, -6.786232948303223, -9.761739730834961, -2.7398910522460938, -4.2028937339782715, -7.4297943115234375, -2.5441083908081055, 7.225019454956055, 13.619231224060059, 3.4228932857513428, -1.5102319717407227], [-4.344797611236572, -2.996941089630127, 6.1594061851501465, 3.8520936965942383, 7.5959296226501465, -1.0903704166412354, -1.3189640045166016, 0.10474054515361786, -1.4805339574813843, -13.989686965942383, 1.0488882064819336, -3.0099902153015137, -2.744271755218506, 7.847463607788086, 1.406746745109558, -1.7944486141204834, 4.375983715057373, -10.074197769165039], [-13.428398132324219, -7.270356178283691, 2.7877180576324463, 6.499585151672363, 2.841203212738037, 1.0886738300323486, 2.578395366668701, -5.603847503662109, 7.639535903930664, -5.359312534332275, -4.048590660095215, -3.887291193008423, -6.806433200836182, -3.9861621856689453, -14.759687423706055, -11.931133270263672, 0.1337837278842926, -1.931099772453308], [0.8087284564971924, 0.3877606689929962, 13.26243782043457, -1.1361420154571533, -2.268641710281372, -1.8305611610412598, 3.8625006675720215, -0.4858156740665436, -5.717153072357178, -5.413368225097656, 4.183177947998047, -4.577996730804443, -0.6239007711410522, -9.313081741333008, 5.903148174285889, 1.5012118816375732, -2.801483631134033, -0.06472121179103851], [6.089724540710449, -7.603471755981445, -2.7012336254119873, -12.204026222229004, -4.424081325531006, -5.697742938995361, -3.117342948913574, 0.5689506530761719, -10.387229919433594, 8.866432189941406, -6.877065181732178, 5.3341145515441895, 4.865751266479492, -3.0119731426239014, -1.2760711908340454, -13.557761192321777, -7.637685298919678, -6.669980525970459], [12.322906494140625, 9.091341972351074, 1.3158607482910156, -6.148052215576172, 5.970841407775879, -1.5190509557724, 1.1570488214492798, -3.4298129081726074, 2.5755741596221924, 0.6901714205741882, -1.734307050704956, -12.556146621704102, -2.205303907394409, -8.9839448928833, -9.888334274291992, -1.2139637470245361, -4.604402542114258, -1.024687647819519], [-4.8757429122924805, 4.398525714874268, -2.1653456687927246, -1.1574161052703857, 5.1755571365356445, 6.889130592346191, 8.742342948913574, 4.015045166015625, -0.249712735414505, -0.5173202753067017, -16.71453857421875, 8.881844520568848, 4.8676886558532715, -2.6382694244384766, -0.4919282793998718, 9.571390151977539, -1.6465425491333008, 13.254342079162598], [7.426598072052002, 4.804396629333496, 3.0914571285247803, -1.4939274787902832, -3.4052138328552246, -10.713245391845703, -0.6216312050819397, -0.48026585578918457, 7.820748805999756, -6.486962795257568, -6.237273216247559, 0.861975908279419, -13.080570220947266, -3.0347986221313477, 11.035873413085938, 4.3174357414245605, 0.1387375444173813, -8.66071891784668], [5.779768943786621, 2.732274293899536, -11.241924285888672, 1.318489670753479, 4.735717296600342, -10.44524097442627, -4.815650463104248, -3.0420360565185547, 2.950035810470581, 7.602794647216797, 4.861449241638184, -0.7215250134468079, 2.1097092628479004, 2.6852457523345947, 2.645174026489258, -0.42518487572669983, 0.981489896774292, 0.31361353397369385], [-5.425621032714844, -1.9522353410720825, 2.7854464054107666, -4.879456996917725, 1.1861178874969482, 13.467973709106445, -7.166906356811523, 3.679337739944458, 0.1400308907032013, 9.011430740356445, -3.6163978576660156, -6.190097808837891, 4.673220634460449, 2.2892937660217285, -0.5451209545135498, 0.38439032435417175, 6.6172356605529785, -1.4641128778457642], [-3.4212872982025146, -6.051420211791992, 1.002842903137207, 2.2186989784240723, -9.881226539611816, -3.6715145111083984, -9.081168174743652, -0.06425055861473083, 4.84544038772583, -1.2232190370559692, -4.576359272003174, 0.334987998008728, 4.669457912445068, 5.311051845550537, 4.511625289916992, -6.043392658233643, -0.14613883197307587, 15.300346374511719], [-0.031332045793533325, -3.6253745555877686, -4.115337371826172, 5.701436996459961, -9.921774864196777, -0.6243842840194702, 2.350428581237793, -2.0449037551879883, 1.3434841632843018, 5.42332124710083, -9.89148998260498, -0.07363495230674744, -3.2338526248931885, 6.010377407073975, -1.062021017074585, 0.5516799688339233, 3.006169319152832, -0.7979516983032227], [-0.16414500772953033, 0.29474401473999023, 0.6365339159965515, -7.811345100402832, 4.884997367858887, 3.7453742027282715, 4.756801128387451, 13.418188095092773, 0.43383148312568665, 1.682934284210205, -0.11585000902414322, -5.718710899353027, -0.7187772989273071, 3.761347770690918, 7.1432576179504395, 10.683467864990234, 0.006577052175998688, 1.151010513305664], [3.0288596153259277, 6.119421005249023, 0.074085533618927, -2.6229000091552734, -1.9780601263046265, 4.393021106719971, -10.912127494812012, -1.7392970323562622, 1.509010910987854, -0.9303069114685059, -0.41574954986572266, -4.8410749435424805, -12.781407356262207, -4.620397090911865, -1.3099324703216553, -4.845702648162842, -2.8179023265838623, -10.258108139038086], [2.207695722579956, -0.10903996229171753, 4.274646759033203, -7.456511497497559, 2.8984551429748535, 12.470311164855957, 6.232935428619385, -4.139643669128418, -6.0093536376953125, -3.164299488067627, -1.5459595918655396, 6.214698791503906, 0.05550000071525574, 7.505466461181641, -3.6180238723754883, -8.377006530761719, -9.849061012268066, -7.205338954925537], [-1.0715227127075195, -3.067887306213379, -0.46148091554641724, -1.2599421739578247, -1.1573998928070068, 3.1999802589416504, 12.325716972351074, 0.5981054306030273, 2.5376815795898438, 5.860393047332764, -2.501451015472412, -9.839373588562012, 2.3052687644958496, -3.580195188522339, -5.7092390060424805, -4.342250823974609, 10.080828666687012, -2.205613851547241], [1.5814636945724487, 3.6608479022979736, -9.280838012695312, -4.81144905090332, -2.0257086753845215, 5.725235462188721, 0.8831173181533813, 7.874717712402344, 3.0577518939971924, -6.867061138153076, 6.161897659301758, -2.664318323135376, 0.17518092691898346, 2.743459939956665, 2.321284770965576, 7.343759536743164, 10.788607597351074, -3.6570632457733154], [6.026428699493408, 8.042009353637695, 4.886947154998779, -8.180354118347168, 5.407402038574219, 2.648162841796875, -6.930405616760254, -3.161025047302246, 1.8943774700164795, -0.11409096419811249, 2.683241367340088, -0.5031331777572632, 15.224861145019531, 3.2112209796905518, -1.8228981494903564, 3.1574532985687256, 7.611372947692871, -2.061553716659546], [-3.7064833641052246, -8.613712310791016, -1.6805673837661743, 3.3275716304779053, -6.030430793762207, 1.6943082809448242, -1.8847922086715698, -11.01529312133789, -5.500682830810547, -0.09069150686264038, 4.855662822723389, -0.9254634976387024, -0.7817901968955994, -0.3980843126773834, -0.9776647090911865, -3.6147620677948, 1.0683457851409912, -4.47118616104126]], [[-4.357677459716797, 5.957183837890625, -1.2120325565338135, -2.543259859085083, -9.253110885620117, -12.310683250427246, -5.602025508880615, 8.690874099731445, 1.328898549079895, 14.610398292541504, 8.366585731506348, -2.0693118572235107, 3.844268560409546, 0.45869922637939453, -3.541048765182495, -3.773591995239258, 1.258461594581604, -1.2578413486480713, 1.4420323371887207, -9.565960884094238, -9.805888175964355, 4.624542713165283, -0.010868128389120102, -0.10476654767990112, 3.6758875846862793, 5.114772319793701, 3.7788782119750977, -0.8043285608291626, -1.6855841875076294, -5.329573154449463, 8.218718528747559, 4.5689520835876465], [0.12051689624786377, 0.515799880027771, 4.153622150421143, 1.9287611246109009, -4.291017532348633, 4.979432106018066, -1.0498206615447998, 7.693328857421875, -0.9398825764656067, 3.3878164291381836, 12.018131256103516, -6.14288854598999, -12.116205215454102, -0.3657892644405365, 4.893737316131592, 3.258554458618164, -3.6709015369415283, 4.4807562828063965, 10.306835174560547, 1.8886011838912964, 9.755331993103027, 2.198805332183838, 3.3668103218078613, -6.932651996612549, 0.9143785834312439, -3.2584950923919678, 3.3816397190093994, 3.530656576156616, 1.5637786388397217, 0.9761677980422974, 2.82133150100708, 0.8661467432975769], [8.313194274902344, -8.507192611694336, 2.1226861476898193, 0.8519962430000305, 4.921521186828613, 7.458670616149902, 2.3528287410736084, 10.341327667236328, 7.566420078277588, 10.7967529296875, -3.1716790199279785, -5.076596260070801, -2.256723642349243, -0.9775453209877014, 4.034780025482178, 6.131326198577881, -0.5196041464805603, 0.9215651154518127, 4.985035419464111, 3.644645929336548, -4.824833393096924, 0.9677602648735046, -14.879180908203125, 7.047842502593994, -13.572624206542969, 0.3871614336967468, 4.10715389251709, 0.5144770741462708, -3.552130937576294, 10.853572845458984, 10.07392692565918, 0.21936993300914764], [-19.118602752685547, -7.218782424926758, 0.08980929851531982, 2.2962260246276855, 2.338200330734253, -5.2226948738098145, 4.624128818511963, -5.551868915557861, 1.4391639232635498, 4.366870403289795, -2.8325366973876953, 5.759856224060059, 1.469213843345642, 0.347324937582016, -1.7000706195831299, 7.388582229614258, -0.6951860785484314, 3.3374714851379395, 6.688589096069336, -7.418144226074219, 5.93650484085083, -0.6406198740005493, -2.7570087909698486, -3.196165084838867, 7.879748821258545, 1.4465547800064087, -0.20116885006427765, 0.08540864288806915, 7.320830821990967, 7.553438186645508, -6.059734344482422, 1.2082998752593994], [-2.9609925746917725, -2.0341832637786865, 3.031688690185547, 2.6209421157836914, 4.69982385635376, 2.448232650756836, -4.322709083557129, 9.614855766296387, 3.7801878452301025, -7.565218925476074, -11.097286224365234, 5.3395609855651855, -0.6447066068649292, 4.346012115478516, 2.0485246181488037, 10.689506530761719, -3.4398717880249023, -9.78394889831543, -4.830745220184326, 5.953683853149414, 7.7011260986328125, 1.6821719408035278, 7.742249011993408, 0.9025924205780029, 5.496154308319092, 8.452794075012207, -1.9293886423110962, 0.7761155366897583, -7.18285608291626, -5.82863712310791, 6.763482570648193, -3.611605644226074], [3.6712632179260254, -0.25516119599342346, -3.020724058151245, -7.74576473236084, 11.22712230682373, -0.7758467793464661, -2.5422754287719727, -0.5994981527328491, 6.830996036529541, 1.4252394437789917, 2.1680428981781006, -4.584418296813965, -7.399233341217041, -1.6455631256103516, -1.924689531326294, 9.600177764892578, -12.748771667480469, 6.233915328979492, -1.5310875177383423, 1.0339982509613037, -8.892251014709473, 0.7246259450912476, 1.2112720012664795, 3.9449124336242676, 7.101996898651123, -7.8896307945251465, 2.9458813667297363, 3.371990919113159, -10.548394203186035, 3.3799808025360107, 6.089372158050537, -6.520977020263672], [4.365694999694824, 1.4045283794403076, -0.7274486422538757, 2.5885517597198486, 13.58410358428955, -5.103725433349609, 3.0005042552948, -1.0928677320480347, -2.656071901321411, -1.0114495754241943, 1.285515308380127, 6.162681579589844, 8.261710166931152, -0.7302213311195374, 5.077033042907715, -6.356394290924072, -4.5248541831970215, 2.8890907764434814, -2.8889412879943848, 8.595344543457031, 11.37527084350586, -0.05597294867038727, 1.819533109664917, -4.015606880187988, 0.36831939220428467, -7.284722328186035, -6.0677409172058105, 6.632782936096191, -1.3262962102890015, -10.820109367370605, 2.566664934158325, -0.30919793248176575], [9.294364929199219, -1.7625912427902222, 3.103480815887451, -0.28059515357017517, -0.7751239538192749, -0.006554831750690937, -3.374891757965088, -6.4992289543151855, -0.14623557031154633, -1.820690631866455, -5.162431240081787, -0.6721197366714478, 3.5269598960876465, -14.116765975952148, -2.575209140777588, -1.693827509880066, -4.404819011688232, -0.3986762762069702, 7.84351110458374, -12.056321144104004, -1.6631804704666138, -6.878598213195801, 1.3918046951293945, -7.0338311195373535, -10.630635261535645, -3.547391176223755, 2.6606578826904297, -1.8895914554595947, -6.321610927581787, 7.383926868438721, -0.83713698387146, 2.548110246658325], [5.842772006988525, -9.131328582763672, 1.786685824394226, 5.821866989135742, 9.313813209533691, -7.557993412017822, 7.846908092498779, 7.064539909362793, -3.0523548126220703, -6.092472553253174, 8.086015701293945, -17.838842391967773, 4.152233600616455, -2.2691617012023926, -0.48015323281288147, -3.7579541206359863, -5.902553558349609, 3.827805757522583, 4.3349103927612305, -0.539048969745636, -3.2528064250946045, -11.045040130615234, 3.9335741996765137, 3.198195695877075, 6.0577826499938965, -10.438475608825684, -10.266274452209473, -1.0033435821533203, -6.437893390655518, 9.11742115020752, -2.6771433353424072, 3.1631898880004883], [-0.5112748742103577, 2.8554389476776123, 9.843332290649414, -3.412787914276123, 1.1165803670883179, 1.856744647026062, -6.276882171630859, 2.774749755859375, 0.4182243049144745, 0.6504157185554504, -6.162165641784668, 9.69273853302002, -9.843276023864746, -7.449791431427002, 9.580463409423828, -1.6173291206359863, 8.733290672302246, 0.8190654516220093, 1.600917100906372, 6.7503886222839355, -2.919158458709717, 6.63427734375, -6.035406112670898, -6.450676441192627, -6.366037368774414, -4.52774715423584, -0.10527165979146957, 9.65668773651123, -4.774394512176514, 4.935035228729248, 9.774116516113281, 5.622189521789551], [0.4802343249320984, -1.4212908744812012, 9.770040512084961, 0.346640020608902, 4.46484899520874, -2.6335465908050537, 0.6351439952850342, -6.626963138580322, 1.2874212265014648, -0.424420028924942, -6.662790775299072, -3.074017286300659, 7.0592145919799805, -9.540698051452637, 4.67252779006958, 14.499809265136719, -4.888476848602295, 4.8469462394714355, -4.2271270751953125, 0.7550718188285828, -7.00042724609375, -2.9705467224121094, 0.8249778151512146, -1.1514641046524048, -0.3362904191017151, -4.268228530883789, 5.272003650665283, -0.35773766040802, 4.4818549156188965, -7.6584038734436035, -0.5094698071479797, 6.534681797027588], [-2.686931610107422, -0.6532420516014099, 3.0960609912872314, 3.6872174739837646, 9.272708892822266, -3.9190855026245117, -1.5717434883117676, -2.866424322128296, -6.560094356536865, 3.6336755752563477, -4.77820348739624, 1.757218599319458, -0.993217408657074, 6.983065605163574, -2.9777743816375732, 6.666985988616943, -1.2452661991119385, -0.10433971881866455, -2.3551766872406006, -1.5151785612106323, -1.679653286933899, 3.270667314529419, 1.4840620756149292, -0.058096177875995636, -4.0587687492370605, 4.303436279296875, 2.967224359512329, 7.27139139175415, -12.479877471923828, -8.416694641113281, 10.069303512573242, 8.404304504394531], [-4.823354721069336, -8.088215827941895, -4.604996204376221, 3.507929563522339, -5.758164882659912, 14.67458438873291, 4.383963584899902, 3.0965960025787354, -2.1006460189819336, -5.921294212341309, 6.35304069519043, 0.14129512012004852, -8.344226837158203, 7.7928996086120605, 1.8024588823318481, 4.977304458618164, -0.5576978325843811, -1.7578411102294922, -0.7709928154945374, -3.2387351989746094, -2.1269524097442627, -2.9350881576538086, 4.774147033691406, 1.4740084409713745, -5.9975361824035645, 2.5934665203094482, 6.093242645263672, 0.3013565242290497, -3.163440465927124, -3.639054536819458, -4.387197971343994, 1.8311225175857544], [-1.0374703407287598, -2.4680392742156982, -8.973564147949219, 1.5594310760498047, 0.5372536182403564, -2.219240188598633, 14.134330749511719, -3.0734100341796875, 1.5005031824111938, -7.007638931274414, -8.070728302001953, -6.8483099937438965, -1.9626350402832031, 1.3076211214065552, 5.027609825134277, 7.5295586585998535, 7.692866325378418, 2.3595335483551025, 3.5311684608459473, -0.07056774199008942, -1.7067757844924927, -8.404186248779297, 2.410188913345337, 0.6410098075866699, 0.46017786860466003, 0.6501726508140564, -6.710963249206543, -3.451369285583496, 6.269905090332031, -7.531122207641602, -8.941720962524414, -2.9347379207611084], [-4.7364726066589355, -7.2900896072387695, -2.1431448459625244, -3.581303596496582, -2.666980028152466, 3.809298276901245, 7.159079551696777, -0.8039199113845825, 4.519506454467773, -1.200583577156067, 1.2769731283187866, 0.10218191146850586, 2.4289753437042236, -1.2155646085739136, -4.569159984588623, 3.1045353412628174, -0.48810863494873047, -6.535722732543945, 2.1147611141204834, -11.644978523254395, 6.607785224914551, -0.12558630108833313, -5.90645170211792, -8.712607383728027, -1.018829345703125, -1.7274848222732544, -0.9530806541442871, 15.393013954162598, -2.2326369285583496, -9.341560363769531, -1.3517813682556152, -3.9789295196533203], [9.292288780212402, -5.281578063964844, -2.6957545280456543, 5.999322414398193, -3.9885237216949463, -12.583086967468262, 3.9288899898529053, -7.071818828582764, -3.280897617340088, -9.740588188171387, 0.18339917063713074, -4.3489155769348145, 5.2446370124816895, 4.018639087677002, -0.2075721025466919, 2.5040950775146484, 4.280047416687012, 1.7670165300369263, 1.0774110555648804, 5.875802516937256, -4.3980393409729, 8.385153770446777, -5.80598258972168, -3.20137357711792, -1.0549776554107666, -7.734170913696289, 0.7961297631263733, 2.162046194076538, -1.9323360919952393, -2.8429105281829834, -0.0819786787033081, 2.6555378437042236]], [[-5.711723804473877, 1.32887864112854, -4.39605712890625, -10.751493453979492, 0.5195204615592957, -1.2850885391235352, 5.6418776512146, 0.5075114965438843, 0.5867141485214233, 0.5996838212013245, 9.208629608154297, 3.7422921657562256, 7.530402183532715, -9.213356018066406, -9.014861106872559, 1.6843451261520386], [5.834896087646484, -5.36576509475708, -10.025680541992188, 3.349330186843872, 5.7462077140808105, -0.9601914286613464, -4.12623929977417, 3.1458284854888916, -4.294123649597168, 6.325829029083252, -1.1345514059066772, 8.231884956359863, 5.204470157623291, 3.2894129753112793, -8.867594718933105, 4.325193405151367], [0.1894688457250595, -1.3735110759735107, -3.8745291233062744, -4.856374263763428, -3.1446802616119385, 0.6432979106903076, -11.610369682312012, -10.572813987731934, -5.601147651672363, -2.4219679832458496, 3.8098325729370117, -1.034546136856079, 7.4221296310424805, 1.9269777536392212, -1.2062959671020508, -8.466734886169434], [3.7089266777038574, 5.642908096313477, 3.0756239891052246, -1.5862492322921753, -0.5682501792907715, 1.5546149015426636, -3.2440669536590576, -1.7141057252883911, -4.190417766571045, 1.6515051126480103, 4.2818379402160645, -10.872040748596191, -8.111929893493652, 0.24868863821029663, 0.7370555996894836, 12.878059387207031], [2.8443655967712402, 7.095577716827393, 4.054720401763916, -4.6652913093566895, -6.513481140136719, -0.4839446544647217, -16.051244735717773, 1.7718404531478882, -9.068217277526855, 8.065540313720703, -3.177870988845825, -5.977967262268066, -0.169315904378891, 7.363326072692871, 3.92073917388916, -0.5934846997261047], [-5.231142044067383, -4.825285911560059, 0.6482550501823425, -7.545682430267334, 4.098747253417969, -1.4687758684158325, -16.945404052734375, 6.979078769683838, -3.323768138885498, -4.7003493309021, 1.930908441543579, 0.8445208072662354, -3.76165771484375, 4.1548991203308105, -4.348224639892578, -7.404167652130127], [5.990828990936279, 0.5984212756156921, 5.708003997802734, 1.7675379514694214, -7.089033126831055, -5.735912322998047, 0.06747067719697952, 3.1946005821228027, -2.154191493988037, -5.751852512359619, -5.7285637855529785, 1.921636939048767, -0.8645495176315308, -5.058759689331055, -4.767533779144287, 10.378456115722656], [7.528697490692139, -0.8849862813949585, 0.8115420341491699, 16.722190856933594, 2.1145873069763184, -6.7109270095825195, 2.0957603454589844, -0.3212911784648895, -0.37886497378349304, -6.759062767028809, 1.852551817893982, 3.2741658687591553, 6.828625202178955, 3.5382657051086426, -13.773649215698242, -8.836764335632324]], [[-3.9503347873687744, 4.423988342285156, -0.8085803389549255, 5.46073055267334, -2.0268685817718506, 10.970450401306152, -0.9042202830314636, -2.6107726097106934], [-8.31046199798584, 1.9767812490463257, 0.29752886295318604, -2.9104204177856445, -7.9015655517578125, -0.5325796604156494, -2.8184309005737305, 2.961789846420288]]], "brain_biases": [[-0.5958988070487976, -4.56699275970459, 0.4347079396247864, -3.917940378189087, -2.0249075889587402, -7.978511333465576, 0.4078505337238312, 9.685893058776855, 0.7019495964050293, -0.3352992832660675, -0.7461785674095154, -11.661147117614746, -2.8529324531555176, -8.619954109191895, 1.6824455261230469, 7.226142406463623, -5.644618988037109, -3.468109607696533, -3.2922048568725586, 2.2014241218566895, -0.1001180037856102, -8.714192390441895, 7.950984001159668, 9.59580135345459, 3.5215277671813965, 3.1025161743164062, -8.083653450012207, -3.4497365951538086, 0.5185214281082153, 0.9703919291496277, 6.906540393829346, 13.01950454711914], [-6.5084452629089355, 0.5209133625030518, 7.197771072387695, 0.9357966780662537, 6.384223937988281, -0.5101712942123413, -1.1196666955947876, -4.008840560913086, 7.502112865447998, 0.8344188332557678, -13.976272583007812, -15.393684387207031, 2.7839596271514893, -1.1600972414016724, 6.259671688079834, -4.774247646331787], [4.893969535827637, -0.7200060486793518, 3.7456750869750977, -1.8783907890319824, 1.7447725534439087, -2.7244009971618652, -3.6591155529022217, 0.8758519291877747], [0.17405183613300323, -0.6737791895866394]], "sensor_retina_count": 18, "sensor_vision_radius": 180.0, "sensor_fov_degrees": 180.0, "sensor_skip": 2, "sensor_see_food": true, "sensor_see_bacteria": false, "sensor_see_predators": true, "locomotion_max_speed": 300.0, "locomotion_max_turn": 3.141592653589793, "energy_death_energy": 0.0, "energy_split_energy": 200.0, "energy_v0_cost": 3.0, "energy_vmax_cost": 6.0, "energy_vmax_ref": 300.0, "energy_energy_cap": 200.0, "energy_loss_idle": 3.0, "energy_loss_move": 6.0, "last_brain_output": [11.589591026306152, 0.39313846826553345], "last_brain_activations": [[-0.5341248512268066, -0.9997841715812683, 0.4092482924461365, -0.9992097616195679, -0.9657456874847412, -0.9999997615814209, 0.3866460919380188, 0.9999999403953552, 0.605603814125061, -0.3232743740081787, -0.6328635811805725, -1.0, -0.9933692812919617, -0.9999998807907104, 0.9331781268119812, 0.9999989867210388, -0.9999750256538391, -0.998058021068573, -0.9972403645515442, 0.975811243057251, -0.09978482127189636, -0.9999999403953552, 0.9999997615814209, 0.9999999403953552, 0.998254656791687, 0.9959696531295776, -0.9999997615814209, -0.9979854226112366, 0.47655805945396423, 0.7488764524459839, 0.9999979734420776, 1.0], [0.4002530574798584, 0.9967884421348572, 1.0, 0.9999891519546509, 1.0, 1.0, -1.0, -1.0, 1.0, -0.999920129776001, 1.0, -1.0, 0.09925125539302826, 1.0, -1.0, -1.0], [-1.0, -1.0, 1.0, 0.9999997019767761, 0.9999934434890747, 1.0, -1.0, 1.0], [11.589590072631836, 0.39313822984695435]]}, {"type": "bacteria", "x": 4432.159067565147, "y": 3649.0660551433757, "r": 9.0, "angle": 1.2702732720443894, "vx": 88.80477808845502, "vy": 286.5507287636682, "energy": 9.816402849690851, "age": 83.99793333334253, "brain_sizes": [18, 32, 16, 8, 2], "brain_version": 32059, "brain_weights": [[[-5.910995960235596, 4.134459972381592, 6.157515525817871, -0.35902631282806396, -2.420867681503296, 9.215932846069336, 6.894411087036133, -3.5242013931274414, -0.08598972111940384, 7.379805564880371, -4.907257080078125, -6.641657829284668, 4.435971260070801, -5.837403774261475, -8.378768920898438, -9.462262153625488, -0.8769441843032837, -4.634317874908447], [-2.1683928966522217, 2.3068461418151855, -5.377011299133301, 13.14436149597168, -15.344093322753906, -3.2048394680023193, 1.6567915678024292, 0.5430110096931458, -8.66524887084961, 7.56375789642334, -0.20264288783073425, -4.882087707519531, 0.2834727466106415, -2.201268196105957, -3.255871534347534, 8.241369247436523, -2.705893039703369, 7.5998454093933105], [2.5706875324249268, -3.1543257236480713, 10.202730178833008, -1.9927029609680176, -1.1554394960403442, -9.651156425476074, 7.985046863555908, -0.8428400754928589, -1.5139625072479248, 1.382399082183838, 0.4806131422519684, -5.162992477416992, 2.032108783721924, 4.307797431945801, -9.631063461303711, -0.17402292788028717, -7.205303192138672, -3.4849905967712402], [2.0941243171691895, -8.861406326293945, -6.0008087158203125, 10.217667579650879, -5.388043403625488, 2.3255178928375244, -3.065183162689209, -10.130651473999023, -1.5432484149932861, 6.196774005889893, -5.458352088928223, 6.346006393432617, -0.6677902936935425, -4.9922990798950195, -4.584020614624023, -11.523460388183594, -2.083742380142212, 1.8564664125442505], [-2.038936138153076, -5.579798221588135, 1.2615245580673218, -9.583606719970703, -17.936500549316406, -1.0819495916366577, 4.389316082000732, -3.105194568634033, -15.279523849487305, -1.2511565685272217, 3.5028326511383057, 4.719546794891357, 5.958744049072266, -5.0908637046813965, -0.8248170018196106, 9.623250961303711, 8.698463439941406, -8.200760841369629], [13.558082580566406, 2.661755084991455, 9.726384162902832, 7.663772106170654, -6.201887607574463, -3.5198636054992676, 8.979460716247559, -7.40138578414917, -6.565643787384033, 4.053065776824951, -5.1823954582214355, 2.600191354751587, 6.866124629974365, -4.075951099395752, 3.193809986114502, -9.16176986694336, -1.580823540687561, -4.130498886108398], [-5.007205963134766, 12.411032676696777, -5.053825855255127, 8.702672004699707, -10.448719024658203, -2.917461633682251, -3.6112918853759766, -1.23172926902771, 7.809498310089111, 4.459125518798828, 12.545494079589844, -4.513451099395752, -4.7312164306640625, 2.1099953651428223, 2.089754819869995, -0.7682912349700928, -0.7462698221206665, -5.627126216888428], [-4.6287360191345215, 7.253822326660156, 5.706764221191406, 13.723001480102539, -2.0425689220428467, 2.1697885990142822, 11.429014205932617, 1.6429877281188965, 5.002624034881592, 8.564868927001953, -11.898459434509277, 0.8919811844825745, -2.5440356731414795, 3.572906732559204, 4.8876423835754395, -7.8085479736328125, -1.816999077796936, -1.321224570274353], [-1.2208287715911865, -0.04529913142323494, -4.105956077575684, 2.570788860321045, 0.5445120334625244, 8.972017288208008, -0.580202579498291, -2.7911441326141357, -2.0440428256988525, -3.3225560188293457, -0.5960786938667297, 0.7052183747291565, 10.299247741699219, 10.22213363647461, -7.165346622467041, 3.524243116378784, 2.919076681137085, 6.619666576385498], [0.1617787629365921, -8.896439552307129, 10.844420433044434, 1.1883273124694824, 0.5708820819854736, -1.5440477132797241, 1.9065736532211304, 2.045949697494507, 9.898161888122559, 1.6159641742706299, 0.5604880452156067, 4.864727973937988, -0.6873072385787964, -0.589907705783844, 0.7631608843803406, 9.295845031738281, -1.0840411186218262, 1.5157934427261353], [9.895626068115234, 6.739771842956543, 2.9097516536712646, 2.8378939628601074, 5.675882816314697, 0.5385153889656067, 6.457226276397705, 0.4244651794433594, -0.9189317226409912, -3.5335164070129395, 1.1232097148895264, -4.7552618980407715, -1.1427979469299316, -3.4984118938446045, -5.819304943084717, 7.820311546325684, 5.9876627922058105, 1.8454153537750244], [-3.5289149284362793, 0.9578975439071655, 2.6423118114471436, 1.5226294994354248, -1.4259039163589478, -1.5869300365447998, -9.57996654510498, -1.6352044343948364, 0.998598575592041, -5.798879146575928, 0.1092301458120346, 7.069574356079102, 0.14123591780662537, -0.6965256929397583, 0.1790047138929367, -4.482062339782715, 3.4450557231903076, 4.287954807281494], [0.8186172842979431, 0.0027904040180146694, -2.737884044647217, -1.2549774646759033, -5.463931560516357, 0.0957406535744667, -6.820318698883057, 0.9070132970809937, -3.709324598312378, -1.0523083209991455, -4.905029773712158, 3.3328816890716553, 7.327636241912842, -0.1240573450922966, -5.456234455108643, -0.3161216676235199, -0.22465765476226807, -0.4298822581768036], [7.998743534088135, 2.1998863220214844, -5.650812149047852, -10.307626724243164, 1.2359611988067627, 2.9341037273406982, -2.2056307792663574, 2.260751962661743, -6.674596786499023, -9.677294731140137, -2.9252254962921143, -4.281185626983643, -7.372122287750244, -2.5441083908081055, 7.225019454956055, 13.619231224060059, 3.2750227451324463, -1.5102319717407227], [-4.261898040771484, -2.9940602779388428, 6.176699638366699, 3.8520936965942383, 7.5959296226501465, -1.0903704166412354, -1.1635669469833374, 0.07541336864233017, -1.4867398738861084, -13.977783203125, 1.1277282238006592, -2.738166570663452, -2.744271755218506, 7.847463607788086, 1.5036768913269043, -1.7944486141204834, 4.375983715057373, -10.086796760559082], [-13.381128311157227, -7.270356178283691, 2.7877180576324463, 6.4896087646484375, 2.841203212738037, 1.0886738300323486, 2.6111927032470703, -5.391782283782959, 7.629154205322266, -5.359312534332275, -4.048590660095215, -3.887291193008423, -6.806433200836182, -3.9861621856689453, -14.759687423706055, -11.917861938476562, 0.1337837278842926, -1.9638237953186035], [0.8087284564971924, 0.3877606689929962, 13.26243782043457, -0.8779309988021851, -2.3172972202301025, -1.6521484851837158, 3.8625006675720215, -0.4858156740665436, -5.717153072357178, -5.318060398101807, 4.267418384552002, -4.5794219970703125, -0.6239007711410522, -9.313081741333008, 5.903148174285889, 1.3956871032714844, -2.993256092071533, -0.2673833966255188], [6.242092132568359, -7.603471755981445, -2.5583913326263428, -12.106254577636719, -4.411406993865967, -5.697742938995361, -3.393524169921875, 0.6514027118682861, -10.330124855041504, 8.775988578796387, -6.840795516967773, 5.234749794006348, 4.766382217407227, -2.598001003265381, -1.2760711908340454, -13.603409767150879, -7.679471015930176, -6.978543281555176], [12.245528221130371, 9.406710624694824, 1.3061555624008179, -6.148052215576172, 5.970841407775879, -1.5190509557724, 1.1570488214492798, -3.421816349029541, 2.6448049545288086, 0.6956619024276733, -1.734307050704956, -12.556146621704102, -2.3019912242889404, -8.9839448928833, -9.888334274291992, -1.2139637470245361, -4.754642009735107, -1.024687647819519], [-4.7472381591796875, 4.398525714874268, -2.414440393447876, -1.2412348985671997, 5.1755571365356445, 6.986705780029297, 8.656425476074219, 4.015045166015625, -0.249712735414505, -0.5173202753067017, -16.55286979675293, 9.03884506225586, 4.8676886558532715, -2.667238473892212, -0.4919282793998718, 9.348259925842285, -1.6826742887496948, 12.918878555297852], [7.458277225494385, 4.735266208648682, 3.0914571285247803, -1.5522191524505615, -3.4052138328552246, -10.696185111999512, -0.6119548678398132, -0.653368353843689, 7.918113708496094, -6.486962795257568, -6.410989761352539, 0.861975908279419, -13.129014015197754, -3.0672738552093506, 11.135385513305664, 4.3174357414245605, 0.0831775814294815, -8.66071891784668], [5.779768943786621, 2.5689303874969482, -11.241924285888672, 1.318489670753479, 4.696655750274658, -10.4298734664917, -4.7659454345703125, -3.1615676879882812, 2.9250972270965576, 7.602794647216797, 4.861449241638184, -0.6702488660812378, 2.196615219116211, 2.778576612472534, 2.7515065670013428, -0.4291030466556549, 0.9970619082450867, 0.31361353397369385], [-5.425621032714844, -2.0034332275390625, 2.7854464054107666, -4.9201579093933105, 1.1861178874969482, 13.408199310302734, -7.166906356811523, 3.361423969268799, 0.1400308907032013, 8.972371101379395, -3.6163978576660156, -6.190097808837891, 4.582900047302246, 2.405031681060791, -0.49847251176834106, 0.5387672781944275, 6.6172356605529785, -1.4641128778457642], [-3.47992205619812, -6.311051368713379, 1.0298799276351929, 2.4222939014434814, -9.745635032653809, -3.6715145111083984, -9.081168174743652, -0.015145868062973022, 4.926643371582031, -1.2232190370559692, -4.463146209716797, 0.334987998008728, 4.604990482330322, 5.466423988342285, 4.749692440032959, -6.1844682693481445, -0.08087049424648285, 15.300346374511719], [-0.031332045793533325, -3.6253745555877686, -4.092106342315674, 5.8251824378967285, -9.921774864196777, -0.44333088397979736, 2.350428581237793, -2.0449037551879883, 1.3434841632843018, 5.42332124710083, -9.89148998260498, -0.09857545047998428, -3.346830368041992, 5.954197406768799, -1.027774453163147, 0.5903229117393494, 2.9913623332977295, -0.8054202198982239], [-0.21296238899230957, 0.29474401473999023, 0.752880334854126, -7.742124080657959, 4.811246871948242, 3.7453742027282715, 4.819997310638428, 13.453213691711426, 0.43383148312568665, 1.682934284210205, -0.19776707887649536, -5.645485877990723, -0.7187772989273071, 3.761347770690918, 7.1432576179504395, 10.707927703857422, -0.13079631328582764, 1.2503423690795898], [3.0288596153259277, 6.119421005249023, 0.074085533618927, -2.6229000091552734, -1.9780601263046265, 4.393021106719971, -10.872899055480957, -1.675705909729004, 1.509010910987854, -0.9303069114685059, -0.49914854764938354, -5.128802299499512, -12.686849594116211, -4.762531280517578, -1.3099324703216553, -4.845702648162842, -2.8179023265838623, -10.336774826049805], [2.207695722579956, -0.12762166559696198, 4.2757368087768555, -7.614234447479248, 2.8984551429748535, 12.51727294921875, 6.232935428619385, -4.139643669128418, -5.99462366104126, -3.1459453105926514, -1.5459595918655396, 6.088205337524414, 0.13930076360702515, 7.634247779846191, -3.6180238723754883, -8.377006530761719, -9.962262153625488, -7.205338954925537], [-1.0715227127075195, -3.067887306213379, -0.34297308325767517, -1.289355754852295, -1.293665885925293, 3.1503868103027344, 12.009085655212402, 0.5981054306030273, 2.5376815795898438, 5.850014686584473, -2.334676504135132, -9.776524543762207, 2.3052687644958496, -3.711184024810791, -5.7092390060424805, -4.295088768005371, 10.113591194152832, -2.296405553817749], [1.4729424715042114, 3.7355809211730957, -9.280838012695312, -4.682126998901367, -2.0257086753845215, 5.725235462188721, 0.7801893949508667, 7.874717712402344, 2.9264638423919678, -6.860835075378418, 6.032811164855957, -2.6415748596191406, 0.10639423131942749, 2.7826287746429443, 2.321284770965576, 7.343759536743164, 10.998908996582031, -3.787687301635742], [6.026428699493408, 8.011567115783691, 4.8698835372924805, -8.180354118347168, 5.325008869171143, 2.648162841796875, -6.94857931137085, -3.4444947242736816, 1.8943774700164795, -0.05005183070898056, 2.683241367340088, -0.4051232933998108, 15.224861145019531, 3.1899664402008057, -1.8215060234069824, 2.9577126502990723, 7.611372947692871, -2.061553716659546], [-3.7750658988952637, -8.613712310791016, -1.5413343906402588, 3.271691083908081, -6.030430793762207, 1.6943082809448242, -1.8159023523330688, -10.9443998336792, -5.500682830810547, -0.05741989612579346, 4.788543224334717, -0.9254634976387024, -0.9540137648582458, -0.34723955392837524, -0.9776647090911865, -3.620224952697754, 1.0683457851409912, -4.47118616104126]], [[-4.357677459716797, 6.208172798156738, -1.0509274005889893, -2.7023868560791016, -9.253110885620117, -12.301963806152344, -5.539577484130859, 8.683496475219727, 1.6553354263305664, 14.610398292541504, 8.311436653137207, -1.7999974489212036, 3.768556833267212, 0.23063261806964874, -3.5383293628692627, -4.163628101348877, 1.267450213432312, -1.2578413486480713, 1.4420323371887207, -9.565960884094238, -9.993764877319336, 4.624542713165283, -0.010868128389120102, -0.10476654767990112, 3.6758875846862793, 5.114772319793701, 3.7788782119750977, -0.8382458090782166, -1.6855841875076294, -5.329573154449463, 8.218718528747559, 4.5689520835876465], [0.12051689624786377, 0.6074281334877014, 4.153622150421143, 1.9068143367767334, -4.291017532348633, 5.045825481414795, -1.0498206615447998, 7.693328857421875, -1.0061883926391602, 3.431570053100586, 12.044686317443848, -6.14288854598999, -11.980538368225098, -0.13608217239379883, 4.96976900100708, 3.283698320388794, -3.702634811401367, 4.478577136993408, 10.184078216552734, 1.7566540241241455, 9.755331993103027, 2.15834903717041, 3.3668103218078613, -7.093568801879883, 0.8938480019569397, -3.3018736839294434, 3.2731008529663086, 3.575039863586426, 1.5637786388397217, 1.0473108291625977, 2.674147605895996, 0.8661467432975769], [8.313194274902344, -8.55211067199707, 2.056236743927002, 0.7790736556053162, 5.027266025543213, 7.458670616149902, 2.3823330402374268, 10.335989952087402, 7.555366039276123, 10.7967529296875, -3.1716790199279785, -4.9351677894592285, -2.386221170425415, -1.105721354484558, 4.176987648010254, 6.174990653991699, -0.5196041464805603, 0.8695484399795532, 4.985035419464111, 3.644645929336548, -4.80894136428833, 0.9677602648735046, -14.879180908203125, 6.903183460235596, -13.572624206542969, 0.4173009395599365, 4.10715389251709, 0.636130690574646, -3.552130937576294, 10.7053804397583, 10.123003005981445, 0.26080673933029175], [-19.02764320373535, -7.4423441886901855, 0.04956740885972977, 2.1720058917999268, 2.290750503540039, -5.2226948738098145, 4.624128818511963, -5.551868915557861, 1.4391639232635498, 4.2233052253723145, -2.8325366973876953, 5.525169849395752, 1.5729753971099854, 0.347324937582016, -1.7000706195831299, 7.264585018157959, -0.6951860785484314, 3.42539119720459, 6.742081642150879, -7.418144226074219, 5.93650484085083, -0.6406198740005493, -2.824153423309326, -3.309643507003784, 7.941711902618408, 1.4465547800064087, -0.11931521445512772, -0.013482257723808289, 7.074551105499268, 7.524195671081543, -6.059734344482422, 1.2082998752593994], [-2.9609925746917725, -2.1224703788757324, 2.8995611667633057, 2.669735908508301, 4.550412178039551, 2.448232650756836, -4.322709083557129, 9.614855766296387, 3.931194543838501, -7.549834251403809, -11.159479141235352, 5.3395609855651855, -0.5382174849510193, 4.202346324920654, 1.9963903427124023, 10.689506530761719, -3.246803045272827, -9.916951179504395, -4.5983476638793945, 5.980952739715576, 7.7011260986328125, 1.721055507659912, 7.654937267303467, 1.0288045406341553, 5.496154308319092, 8.377301216125488, -1.9573098421096802, 0.8983320593833923, -7.268574237823486, -5.82863712310791, 6.763482570648193, -3.6648409366607666], [3.622443199157715, -0.12056644260883331, -3.020724058151245, -7.74576473236084, 11.22712230682373, -0.8569015860557556, -2.409534215927124, -0.5994981527328491, 6.77292013168335, 1.4252394437789917, 2.188474178314209, -4.7098612785339355, -7.399233341217041, -1.5950013399124146, -1.924689531326294, 9.600177764892578, -12.852469444274902, 6.233915328979492, -1.363966941833496, 1.0339982509613037, -8.892251014709473, 0.6820635199546814, 1.2112720012664795, 4.002342224121094, 7.1142754554748535, -7.835089206695557, 2.9458813667297363, 3.262826442718506, -10.400972366333008, 3.4668631553649902, 6.089372158050537, -6.520977020263672], [4.631285190582275, 1.4045283794403076, -0.7274486422538757, 2.5885517597198486, 13.717341423034668, -4.962556838989258, 2.8896214962005615, -0.8295137882232666, -2.656071901321411, -1.1269387006759644, 1.2550106048583984, 6.162681579589844, 8.261710166931152, -0.9057526588439941, 5.016162872314453, -6.356394290924072, -4.6308207511901855, 2.8890907764434814, -2.8889412879943848, 8.595344543457031, 11.37527084350586, -0.05597294867038727, 1.7698662281036377, -3.9699301719665527, 0.3851969540119171, -7.374331474304199, -5.932242393493652, 6.44610595703125, -1.2586411237716675, -10.820109367370605, 2.557116985321045, -0.37685415148735046], [9.294364929199219, -1.6155471801757812, 3.036710739135742, -0.25945377349853516, -0.7570403814315796, 0.0038034021854400635, -3.374891757965088, -6.4992289543151855, -0.0567963607609272, -1.820690631866455, -5.162431240081787, -0.6721197366714478, 3.5269598960876465, -14.228853225708008, -2.411461114883423, -1.6686758995056152, -4.407902240753174, -0.3986762762069702, 7.898768424987793, -12.056321144104004, -1.7798693180084229, -6.878598213195801, 1.473656415939331, -7.0338311195373535, -10.630635261535645, -3.4884185791015625, 2.637862205505371, -1.9081494808197021, -6.321610927581787, 7.350442886352539, -0.83713698387146, 2.548110246658325], [5.607497215270996, -9.029858589172363, 1.8994308710098267, 5.809858322143555, 9.369634628295898, -7.557993412017822, 7.7928266525268555, 7.2210869789123535, -3.213496208190918, -6.1628737449646, 8.086015701293945, -18.13199806213379, 4.344282150268555, -2.2691617012023926, -0.8273611664772034, -3.7579541206359863, -5.902553558349609, 3.7612733840942383, 4.3349103927612305, -0.5642082095146179, -3.256343126296997, -11.045040130615234, 3.9335741996765137, 3.198195695877075, 6.1163716316223145, -10.438475608825684, -10.18727970123291, -1.1494495868682861, -6.507104873657227, 9.015665054321289, -2.6771433353424072, 3.321132183074951], [-0.5180313587188721, 2.8554389476776123, 9.843332290649414, -3.462085723876953, 1.0861303806304932, 1.8780800104141235, -6.234940052032471, 2.774749755859375, 0.33476465940475464, 0.6504157185554504, -6.162165641784668, 9.69273853302002, -9.77599811553955, -7.618286609649658, 9.590041160583496, -1.6173291206359863, 8.76708698272705, 1.0952781438827515, 1.600917100906372, 6.735568046569824, -2.919158458709717, 6.7290825843811035, -6.035406112670898, -6.5410284996032715, -6.366037368774414, -4.52774715423584, -0.10527165979146957, 9.889963150024414, -4.9136834144592285, 4.762780666351318, 9.645869255065918, 5.622189521789551], [0.4802343249320984, -1.3389898538589478, 9.770040512084961, 0.20966704189777374, 4.568882465362549, -2.71640944480896, 0.3999200463294983, -6.626963138580322, 1.2434295415878296, -0.424420028924942, -6.662790775299072, -2.8826687335968018, 7.0592145919799805, -9.461579322814941, 4.765483856201172, 14.395252227783203, -4.888476848602295, 4.9486918449401855, -4.2271270751953125, 0.8486125469207764, -6.866865158081055, -2.7625222206115723, 0.6456607580184937, -1.1514641046524048, -0.6100515723228455, -4.2757649421691895, 5.254169464111328, -0.35773766040802, 4.571638107299805, -7.6584038734436035, -0.3668445348739624, 6.534681797027588], [-2.665593385696411, -0.6532420516014099, 3.0960609912872314, 3.7088513374328613, 9.33970832824707, -3.85158634185791, -1.6713790893554688, -2.9542648792266846, -6.61923885345459, 3.7652828693389893, -4.708105087280273, 1.757218599319458, -0.8767218589782715, 7.0653204917907715, -2.980794668197632, 6.87358283996582, -1.3079557418823242, -0.03143412247300148, -2.102046251296997, -1.5151785612106323, -1.395500898361206, 3.268988609313965, 1.4840620756149292, -0.051193296909332275, -4.124526500701904, 4.303436279296875, 2.967224359512329, 7.395654201507568, -12.479877471923828, -8.488106727600098, 10.069303512573242, 8.404304504394531], [-4.9234089851379395, -8.175039291381836, -4.604996204376221, 3.507929563522339, -5.758164882659912, 14.7045259475708, 4.383963584899902, 3.1164886951446533, -2.1006460189819336, -5.921294212341309, 6.35304069519043, 0.06624796986579895, -8.266290664672852, 7.7928996086120605, 1.6620242595672607, 5.021909236907959, -0.5576978325843811, -1.5212514400482178, -0.7709928154945374, -3.486839771270752, -2.147892951965332, -2.9350881576538086, 4.774147033691406, 1.5934252738952637, -5.9975361824035645, 2.615710496902466, 6.302303314208984, 0.252051442861557, -3.287276268005371, -3.5828890800476074, -4.387197971343994, 1.8311225175857544], [-1.0374703407287598, -2.4680392742156982, -8.973564147949219, 1.4842705726623535, 0.6049208641052246, -2.219240188598633, 13.982965469360352, -3.0595149993896484, 1.5005031824111938, -7.007638931274414, -8.187654495239258, -6.696241855621338, -1.935618281364441, 1.3076211214065552, 4.868488311767578, 7.5295586585998535, 7.692866325378418, 2.3396637439727783, 3.5311684608459473, -0.012982890009880066, -1.755105972290039, -8.404186248779297, 2.360069751739502, 0.5140504837036133, 0.397443950176239, 0.6910490989685059, -6.710963249206543, -3.289952039718628, 6.269905090332031, -7.513555526733398, -8.941720962524414, -3.040745258331299], [-4.7364726066589355, -7.2900896072387695, -2.1431448459625244, -3.581303596496582, -2.645930290222168, 3.7152597904205322, 7.030470371246338, -0.8039199113845825, 4.51700496673584, -1.200583577156067, 1.2769731283187866, 0.24315302073955536, 2.33553409576416, -1.3795667886734009, -4.8099236488342285, 3.299846887588501, -0.48810863494873047, -6.535722732543945, 2.143368721008301, -11.585615158081055, 6.607785224914551, -0.16517463326454163, -5.755496501922607, -8.712607383728027, -1.0663933753967285, -1.7364592552185059, -1.0644505023956299, 15.393013954162598, -2.2326369285583496, -9.204818725585938, -1.4240655899047852, -3.9789295196533203], [9.071612358093262, -5.35919189453125, -2.838313102722168, 5.999322414398193, -3.9885237216949463, -12.583086967468262, 3.881239891052246, -7.092247486114502, -3.1951305866241455, -9.740588188171387, 0.35837405920028687, -4.3596343994140625, 5.226269245147705, 3.7884509563446045, -0.2623002231121063, 2.643691062927246, 4.280047416687012, 1.6154776811599731, 1.220577597618103, 6.056346893310547, -4.343783855438232, 8.462323188781738, -5.678361892700195, -3.20137357711792, -1.0549776554107666, -7.8301215171813965, 0.8593640923500061, 2.1409358978271484, -1.7221124172210693, -2.8476648330688477, -0.1282762736082077, 2.6555378437042236]], [[-5.711723804473877, 1.235594391822815, -4.450199127197266, -10.69603443145752, 0.5195204615592957, -1.3453813791275024, 5.6418776512146, 0.5075114965438843, 0.5867141485214233, 0.5996838212013245, 9.126230239868164, 3.5967600345611572, 7.527139663696289, -9.213356018066406, -9.129805564880371, 1.6843451261520386], [5.894908428192139, -5.433399677276611, -10.025680541992188, 3.4280471801757812, 5.745108604431152, -0.9252010583877563, -4.09034538269043, 3.2927298545837402, -4.294123649597168, 6.187243461608887, -1.1345514059066772, 8.36952018737793, 5.204470157623291, 3.2894129753112793, -8.867594718933105, 4.325193405151367], [0.1894688457250595, -1.6042009592056274, -4.023553371429443, -4.720576286315918, -2.9787890911102295, 0.6432979106903076, -11.634834289550781, -10.548154830932617, -5.601147651672363, -2.162916660308838, 3.8098325729370117, -1.1398589611053467, 7.4221296310424805, 2.1385247707366943, -1.2062959671020508, -8.462379455566406], [3.5958199501037598, 5.642908096313477, 3.159917116165161, -1.6605985164642334, -0.5682501792907715, 1.5043103694915771, -3.2440669536590576, -1.7141057252883911, -4.18559455871582, 1.720349907875061, 4.2818379402160645, -10.872040748596191, -8.111929893493652, 0.4971744418144226, 0.6914818286895752, 12.844961166381836], [2.8443655967712402, 7.095577716827393, 3.758445978164673, -4.42804479598999, -6.513481140136719, -0.44829222559928894, -16.09314727783203, 1.7718404531478882, -9.068217277526855, 8.065540313720703, -3.177870988845825, -5.984727382659912, -0.169315904378891, 7.176465034484863, 3.92073917388916, -0.44200173020362854], [-4.976081848144531, -4.721471309661865, 0.7073156833648682, -7.531495571136475, 3.8274996280670166, -1.4687758684158325, -16.730749130249023, 7.1024017333984375, -3.412032127380371, -4.7003493309021, 1.930908441543579, 0.6672260761260986, -3.76165771484375, 4.052626609802246, -4.401223659515381, -7.346896648406982], [5.990828990936279, 0.6557184457778931, 5.708003997802734, 1.965498685836792, -7.28217887878418, -5.673160552978516, 0.5348820090293884, 3.405453681945801, -2.154191493988037, -5.528430461883545, -5.479637622833252, 2.0186822414398193, -0.8130416870117188, -5.058759689331055, -4.8823370933532715, 10.378456115722656], [7.574123859405518, -0.9399551153182983, 0.9314644932746887, 16.722190856933594, 1.8374178409576416, -6.595030307769775, 2.0957603454589844, -0.6058441996574402, -0.37886497378349304, -6.701992034912109, 1.9707905054092407, 3.25679349899292, 6.82507848739624, 3.578805446624756, -13.715780258178711, -8.726202964782715]], [[-3.8806803226470947, 4.459774971008301, -0.8939244747161865, 5.46073055267334, -1.9855889081954956, 11.051714897155762, -0.7130488157272339, -2.6107726097106934], [-8.381189346313477, 1.9767812490463257, 0.26370081305503845, -2.9234426021575928, -8.162670135498047, -0.5325796604156494, -2.7964487075805664, 2.961789846420288]]], "brain_biases": [[-0.49878251552581787, -4.56699275970459, 0.4571649134159088, -3.917940378189087, -1.9737673997879028, -7.825306415557861, 0.4563071131706238, 9.685893058776855, 0.7019495964050293, -0.3352992832660675, -0.8296586871147156, -11.596731185913086, -2.8253326416015625, -8.628119468688965, 1.8220815658569336, 7.226142406463623, -5.510881423950195, -3.468109607696533, -3.2922048568725586, 2.2014241218566895, -0.1001180037856102, -8.714192390441895, 8.083995819091797, 9.604397773742676, 3.7369415760040283, 3.1025161743164062, -8.083653450012207, -3.3755223751068115, 0.34033462405204773, 1.0405296087265015, 6.906540393829346, 13.01950454711914], [-6.5084452629089355, 0.5209133625030518, 7.212067604064941, 0.7290399074554443, 6.384223937988281, -0.5101712942123413, -1.0549547672271729, -4.125801086425781, 7.448787689208984, 0.8344188332557678, -13.976272583007812, -15.393684387207031, 2.5450587272644043, -1.0682185888290405, 6.259671688079834, -4.942840099334717], [4.893969535827637, -0.6047484874725342, 3.7456750869750977, -1.8783907890319824, 1.7447725534439087, -2.6715738773345947, -3.964872121810913, 0.7575937509536743], [0.06525155156850815, -0.6737791895866394]], "sensor_retina_count": 18, "sensor_vision_radius": 180.0, "sensor_fov_degrees": 180.0, "sensor_skip": 2, "sensor_see_food": true, "sensor_see_bacteria": false, "sensor_see_predators": true, "locomotion_max_speed": 300.0, "locomotion_max_turn": 3.141592653589793, "energy_death_energy": 0.0, "energy_split_energy": 200.0, "energy_v0_cost": 3.0, "energy_vmax_cost": 6.0, "energy_vmax_ref": 300.0, "energy_energy_cap": 200.0, "energy_loss_idle": 3.0, "energy_loss_move": 6.0, "last_brain_output": [11.228882789611816, 0.16477876901626587], "last_brain_activations": [[-0.4611591100692749, -0.9997841715812683, 0.4277707040309906, -0.9992097616195679, -0.9621265530586243, -0.9999997019767761, 0.42706963419914246, 0.9999999403953552, 0.605603814125061, -0.3232743740081787, -0.6802927255630493, -1.0, -0.9929943084716797, -0.9999998807907104, 0.9490455389022827, 0.9999989867210388, -0.9999673366546631, -0.998058021068573, -0.9972403645515442, 0.975811243057251, -0.09978482127189636, -0.9999999403953552, 0.9999997615814209, 0.9999999403953552, 0.9988651871681213, 0.9959696531295776, -0.9999997615814209, -0.9976634383201599, 0.32777610421180725, 0.7780971527099609, 0.9999979734420776, 1.0], [-0.5497928857803345, 0.9549281001091003, 1.0, 0.9992497563362122, 1.0, 1.0, -1.0, -1.0, 1.0, -0.9998605847358704, 1.0, -1.0, -0.6610766053199768, 1.0, -1.0, -1.0], [-1.0, -1.0, 1.0, 1.0, 0.9962141513824463, 1.0, -1.0, 1.0], [11.228880882263184, 0.16477900743484497]]}, {"type": "bacteria", "x": 3989.258952725547, "y": 3592.8735444946196, "r": 9.0, "angle": 0.9703524955880388, "vx": 169.5000042828423, "vy": 247.52166112705706, "energy": 11.342046531066112, "age": 83.74793333334254, "brain_sizes": [18, 32, 16, 8, 2], "brain_version": 32058, "brain_weights": [[[-5.77518892288208, 4.119917392730713, 6.21010160446167, -0.4309488832950592, -2.4028775691986084, 9.215932846069336, 7.100485801696777, -3.3946385383605957, -0.26723983883857727, 7.580549240112305, -4.7439866065979, -6.641657829284668, 4.642690658569336, -5.837403774261475, -8.378768920898438, -9.462262153625488, -0.8769441843032837, -4.609308242797852], [-2.1683928966522217, 2.371608018875122, -5.518172264099121, 13.263923645019531, -15.425795555114746, -3.1658568382263184, 1.6567915678024292, 0.5430110096931458, -8.674910545349121, 7.433616638183594, -0.20264288783073425, -4.9896392822265625, 0.2834727466106415, -2.360917806625366, -3.255871534347534, 8.4226655960083, -2.8488357067108154, 7.5998454093933105], [2.4940991401672363, -3.1077184677124023, 10.686851501464844, -2.101301431655884, -1.1554394960403442, -9.402409553527832, 8.063557624816895, -0.8428400754928589, -1.4309343099594116, 1.3965392112731934, 0.3670737147331238, -5.170055389404297, 2.0814120769500732, 4.424021244049072, -9.745110511779785, -0.1821298450231552, -7.205303192138672, -3.4849905967712402], [1.992824673652649, -8.790956497192383, -5.974559783935547, 10.217667579650879, -5.275707721710205, 2.3255178928375244, -3.101529836654663, -9.988851547241211, -1.4466336965560913, 6.348825454711914, -5.590322971343994, 6.342960834503174, -0.6054927110671997, -4.964003562927246, -4.584020614624023, -11.509562492370605, -2.1543402671813965, 1.8564664125442505], [-1.9971251487731934, -5.579798221588135, 1.0878205299377441, -9.639937400817871, -17.936500549316406, -1.1993569135665894, 4.389316082000732, -2.86582350730896, -15.279523849487305, -1.2868634462356567, 3.2664811611175537, 4.674916744232178, 6.0414509773254395, -5.179907321929932, -0.8476119637489319, 9.46175479888916, 8.698463439941406, -8.203476905822754], [13.58303451538086, 2.661755084991455, 9.726384162902832, 7.6829094886779785, -5.856832504272461, -3.5083189010620117, 8.94772720336914, -7.607323169708252, -6.580029487609863, 4.053065776824951, -5.011285305023193, 2.4288792610168457, 6.843496799468994, -4.075951099395752, 3.0961015224456787, -9.366460800170898, -1.6306012868881226, -4.046455383300781], [-4.981728553771973, 12.428288459777832, -5.03737735748291, 8.702672004699707, -10.448719024658203, -2.737520933151245, -3.6112918853759766, -1.23172926902771, 7.768187522888184, 4.459125518798828, 12.545494079589844, -4.335151195526123, -4.692991256713867, 2.2591357231140137, 2.089754819869995, -0.5935236811637878, -0.8741697072982788, -5.657223224639893], [-4.662849426269531, 7.374802112579346, 5.828274250030518, 13.634166717529297, -2.0425689220428467, 2.1649529933929443, 11.429014205932617, 1.6429877281188965, 5.038498878479004, 8.3790922164917, -11.964255332946777, 0.8143973350524902, -2.460925579071045, 3.572906732559204, 4.8876423835754395, -7.9459428787231445, -1.84720778465271, -1.3562995195388794], [-1.274406909942627, -0.04529913142323494, -4.048856258392334, 2.5881266593933105, 0.6173735857009888, 8.731528282165527, -0.5720531344413757, -2.7911441326141357, -2.001298666000366, -3.3225560188293457, -0.726897656917572, 0.8014151453971863, 10.293667793273926, 10.22213363647461, -7.309525966644287, 3.672558069229126, 3.021944046020508, 6.620211124420166], [0.27109792828559875, -8.796438217163086, 10.885686874389648, 1.1883273124694824, 0.5708820819854736, -1.688239336013794, 1.9455491304397583, 2.045949697494507, 9.898161888122559, 1.6371814012527466, 0.43872761726379395, 4.672067165374756, -0.6772202253341675, -0.6936547756195068, 0.7631608843803406, 9.295845031738281, -0.9935268759727478, 1.4275591373443604], [9.851190567016602, 6.686312675476074, 2.9097516536712646, 2.8378939628601074, 5.669577121734619, 0.5385153889656067, 6.37345027923584, 0.4434058368206024, -1.1156337261199951, -3.4810657501220703, 1.1232097148895264, -5.082311153411865, -1.0566660165786743, -3.48996639251709, -5.836669445037842, 7.820311546325684, 5.900629043579102, 1.9831377267837524], [-3.659691095352173, 1.0382784605026245, 2.7493772506713867, 1.6834949254989624, -1.477431297302246, -1.6347254514694214, -9.606998443603516, -1.5547754764556885, 0.998598575592041, -5.823028087615967, -0.014168418943881989, 7.096768379211426, 0.06342476606369019, -0.6440086364746094, 0.2169106900691986, -4.482062339782715, 3.2979958057403564, 4.350621223449707], [0.7835648655891418, 0.0027904040180146694, -2.677321195602417, -1.2194011211395264, -5.463931560516357, 0.2126224786043167, -6.8181538581848145, 0.9070132970809937, -3.8086049556732178, -1.0523083209991455, -4.7463178634643555, 3.3396799564361572, 7.378736972808838, -0.06233299523591995, -5.462100982666016, -0.3161216676235199, -0.1607794463634491, -0.4298822581768036], [8.08690071105957, 2.101750135421753, -5.569222450256348, -10.150300025939941, 1.2359611988067627, 2.9341037273406982, -2.1366312503814697, 2.260751962661743, -6.776730060577393, -9.761739730834961, -2.8490920066833496, -4.1945390701293945, -7.4297943115234375, -2.6476597785949707, 7.138804912567139, 13.677188873291016, 3.296041250228882, -1.5102319717407227], [-4.344797611236572, -2.963752508163452, 6.176699638366699, 3.8520936965942383, 7.5959296226501465, -1.0903704166412354, -1.1635669469833374, -0.1514418125152588, -1.4867398738861084, -13.977783203125, 1.0488882064819336, -2.945401191711426, -2.624372720718384, 8.002507209777832, 1.406746745109558, -1.7944486141204834, 4.375983715057373, -9.965241432189941], [-13.428398132324219, -7.309302806854248, 2.8956069946289062, 6.4896087646484375, 2.841203212738037, 1.0886738300323486, 2.5522258281707764, -5.597230911254883, 7.691571235656738, -5.359312534332275, -3.986981153488159, -3.887291193008423, -6.806433200836182, -3.852217435836792, -14.759687423706055, -11.917861938476562, 0.1337837278842926, -1.7892043590545654], [0.8087284564971924, 0.3877606689929962, 13.26243782043457, -1.0771236419677734, -2.3273119926452637, -1.6521484851837158, 3.8625006675720215, -0.38954564929008484, -5.717153072357178, -5.413368225097656, 4.183177947998047, -4.577996730804443, -0.5259303450584412, -9.159161567687988, 5.903148174285889, 1.5012118816375732, -2.801483631134033, -0.2740996181964874], [5.895091533660889, -7.694701671600342, -2.7012336254119873, -12.087972640991211, -4.664279460906982, -5.697742938995361, -3.3005995750427246, 0.5689506530761719, -10.387229919433594, 8.842324256896973, -6.877065181732178, 5.234749794006348, 4.63664436340332, -2.7777254581451416, -1.2760711908340454, -13.557761192321777, -7.637685298919678, -7.068995475769043], [12.238393783569336, 9.091341972351074, 1.1161105632781982, -6.148052215576172, 5.970841407775879, -1.5627236366271973, 1.1570488214492798, -3.421816349029541, 2.5755741596221924, 0.6395323872566223, -1.732391119003296, -12.567204475402832, -2.205303907394409, -9.07266902923584, -9.888334274291992, -1.3182460069656372, -4.604402542114258, -0.8430235385894775], [-4.776062488555908, 4.398525714874268, -2.438795804977417, -1.1574161052703857, 5.146189212799072, 6.964330196380615, 8.665733337402344, 4.015045166015625, -0.249712735414505, -0.5173202753067017, -16.739675521850586, 8.881844520568848, 4.8676886558532715, -2.6382694244384766, -0.4056222140789032, 9.571390151977539, -1.6465425491333008, 13.01510238647461], [7.282051086425781, 4.875370025634766, 3.0914571285247803, -1.637082815170288, -3.4052138328552246, -10.696185111999512, -0.5561302900314331, -0.2931444048881531, 7.8834052085876465, -6.486962795257568, -6.150146484375, 0.861975908279419, -13.080570220947266, -3.0347986221313477, 11.233603477478027, 4.545821189880371, 0.1387375444173813, -8.710103034973145], [5.779768943786621, 2.732274293899536, -11.241924285888672, 1.318489670753479, 4.953546524047852, -10.44524097442627, -4.663829803466797, -3.0420360565185547, 2.950035810470581, 7.746028900146484, 4.861449241638184, -0.7215250134468079, 2.125838279724121, 2.6852457523345947, 2.6219451427459717, -0.42518487572669983, 0.981489896774292, 0.4094606339931488], [-5.425621032714844, -1.9971121549606323, 2.6883907318115234, -4.9201579093933105, 1.1861178874969482, 13.408199310302734, -7.166906356811523, 3.3089799880981445, -0.03129632771015167, 8.972371101379395, -3.978245496749878, -6.263426303863525, 4.673220634460449, 2.405031681060791, -0.479116290807724, 0.38439032435417175, 6.6172356605529785, -1.4641128778457642], [-3.47992205619812, -6.257688522338867, 1.0580812692642212, 2.2186989784240723, -9.822364807128906, -3.8016176223754883, -9.081168174743652, 0.1946151852607727, 5.127774715423584, -1.5039050579071045, -4.686564922332764, 0.6104052066802979, 4.654511451721191, 5.39862585067749, 4.511625289916992, -6.043392658233643, -0.14613883197307587, 15.250814437866211], [-0.012962838634848595, -3.6253745555877686, -4.048396110534668, 5.8251824378967285, -9.921774864196777, -0.8463501334190369, 2.350428581237793, -2.0449037551879883, 1.3434841632843018, 5.42332124710083, -9.971772193908691, -0.07363495230674744, -3.2338526248931885, 5.984066486358643, -0.9019632339477539, 0.666603684425354, 2.9168050289154053, -0.6574844717979431], [0.07456546276807785, 0.3394164741039276, 0.752880334854126, -7.768200397491455, 4.772875785827637, 3.7453742027282715, 4.759729385375977, 13.418188095092773, 0.43383148312568665, 1.682934284210205, -0.18632447719573975, -5.688176155090332, -0.7187772989273071, 3.719496965408325, 7.1432576179504395, 10.707927703857422, 0.006577052175998688, 1.084814190864563], [2.9247756004333496, 6.119421005249023, 0.074085533618927, -2.6229000091552734, -1.9780601263046265, 4.393021106719971, -10.872899055480957, -1.675705909729004, 1.509010910987854, -0.8411304354667664, -0.38889655470848083, -5.009881496429443, -12.870894432067871, -4.762531280517578, -1.3567320108413696, -5.056779384613037, -2.8179023265838623, -10.156532287597656], [2.207695722579956, -0.24892644584178925, 4.274646759033203, -7.558563709259033, 2.8984551429748535, 12.532594680786133, 6.232935428619385, -4.139643669128418, -5.870351791381836, -3.0872085094451904, -1.6393178701400757, 6.143944263458252, 0.05550000071525574, 7.505466461181641, -3.673691749572754, -8.377006530761719, -9.849061012268066, -7.205338954925537], [-0.7194793224334717, -3.13163685798645, -0.5881250500679016, -1.333954930305481, -1.1385869979858398, 3.1999802589416504, 12.455896377563477, 0.6309500336647034, 2.5376815795898438, 5.860393047332764, -2.53212833404541, -9.776524543762207, 2.3052687644958496, -3.580195188522339, -5.655754089355469, -4.342250823974609, 10.20197582244873, -2.205613851547241], [1.6794631481170654, 3.5177841186523438, -9.280838012695312, -4.81144905090332, -2.0257086753845215, 5.725235462188721, 0.8831173181533813, 7.865755558013916, 3.0577518939971924, -6.867061138153076, 6.020427227020264, -2.4273011684417725, 0.1586851179599762, 2.743459939956665, 2.321284770965576, 7.343759536743164, 10.904207229614258, -3.787687301635742], [6.019559860229492, 7.997265815734863, 4.909322261810303, -7.977757453918457, 5.341320991516113, 2.6856915950775146, -7.036021709442139, -3.161025047302246, 1.8943774700164795, -0.08362100273370743, 2.683241367340088, -0.5591093301773071, 15.187366485595703, 3.1458771228790283, -1.7845035791397095, 3.1030046939849854, 7.619231224060059, -2.061553716659546], [-3.7750658988952637, -8.613712310791016, -1.6222237348556519, 3.392778158187866, -6.030430793762207, 1.7149338722229004, -1.8159023523330688, -11.082486152648926, -5.502384662628174, 0.007828891277313232, 4.855662822723389, -0.9254634976387024, -0.7817901968955994, -0.33489668369293213, -0.9506097435951233, -3.612119674682617, 1.0683457851409912, -4.40587043762207]], [[-4.357677459716797, 6.021876811981201, -1.208195447921753, -2.543259859085083, -9.13577938079834, -12.310683250427246, -5.554234981536865, 8.649971008300781, 1.328898549079895, 14.481783866882324, 8.476438522338867, -1.9417473077774048, 3.844268560409546, 0.45869922637939453, -3.698441982269287, -4.0910725593566895, 1.3165425062179565, -1.2578413486480713, 1.4420323371887207, -9.565960884094238, -9.74586009979248, 4.755176544189453, -0.010868128389120102, -0.0420403927564621, 3.6758875846862793, 5.139215469360352, 3.665182113647461, -0.8043285608291626, -1.6620196104049683, -5.329573154449463, 8.234066009521484, 4.5689520835876465], [0.12051689624786377, 0.4972442090511322, 4.153622150421143, 1.9068143367767334, -4.291017532348633, 4.940692901611328, -1.0498206615447998, 7.5828351974487305, -0.9398825764656067, 3.396225929260254, 12.0388765335083, -6.14288854598999, -12.004327774047852, -0.261204332113266, 4.893737316131592, 3.283698320388794, -3.6709015369415283, 4.478577136993408, 10.12492561340332, 1.8886011838912964, 9.829081535339355, 2.198805332183838, 3.3191046714782715, -7.179030418395996, 0.9143785834312439, -3.266932964324951, 3.3816397190093994, 3.530656576156616, 1.5637786388397217, 0.9761677980422974, 2.82133150100708, 0.8315690755844116], [8.208819389343262, -8.507192611694336, 2.1226861476898193, 0.8519962430000305, 4.921521186828613, 7.676288604736328, 2.358508586883545, 10.335989952087402, 7.566420078277588, 10.7967529296875, -3.1716790199279785, -4.910839080810547, -2.424269437789917, -1.2062638998031616, 4.034780025482178, 6.131326198577881, -0.5196041464805603, 0.8695484399795532, 4.985035419464111, 3.586897134780884, -4.824833393096924, 0.9677602648735046, -14.964932441711426, 7.131487846374512, -13.639121055603027, 0.41408562660217285, 4.111647605895996, 0.5144770741462708, -3.552130937576294, 10.727889060974121, 10.07392692565918, 0.239030122756958], [-19.005346298217773, -7.229752063751221, 0.06982997059822083, 2.1346933841705322, 2.50091290473938, -5.2226948738098145, 4.624128818511963, -5.551868915557861, 1.4391639232635498, 4.178826808929443, -2.8325366973876953, 5.781608581542969, 1.469213843345642, 0.347324937582016, -1.7000706195831299, 7.345848083496094, -0.6951860785484314, 3.258329391479492, 6.682118892669678, -7.418144226074219, 5.725854873657227, -0.34308215975761414, -2.824153423309326, -3.309643507003784, 7.879748821258545, 1.4465547800064087, -0.20116885006427765, 0.28369826078414917, 7.245522499084473, 7.553438186645508, -6.059734344482422, 1.1700445413589478], [-2.9609925746917725, -2.1224703788757324, 2.8995611667633057, 2.6209421157836914, 4.550412178039551, 2.529034376144409, -4.348660945892334, 9.614855766296387, 3.9256608486175537, -7.565218925476074, -11.061327934265137, 5.3395609855651855, -0.5382174849510193, 4.346012115478516, 2.0485246181488037, 10.601066589355469, -3.4398717880249023, -9.916951179504395, -4.830745220184326, 6.080421447753906, 7.727816104888916, 1.721055507659912, 7.673173904418945, 1.2052711248397827, 5.496154308319092, 8.568365097045898, -1.7733747959136963, 0.8983320593833923, -7.199737548828125, -5.82863712310791, 6.986760139465332, -3.611605644226074], [3.622443199157715, -0.07622670382261276, -3.076626777648926, -7.74576473236084, 11.22712230682373, -0.7758467793464661, -2.647627830505371, -0.5532651543617249, 6.753735065460205, 1.4252394437789917, 2.1680428981781006, -4.639212608337402, -7.399233341217041, -1.5437453985214233, -1.924689531326294, 9.600177764892578, -12.852469444274902, 6.233915328979492, -1.5310875177383423, 0.8547342419624329, -8.892251014709473, 0.7246259450912476, 1.276654601097107, 3.9873106479644775, 7.096383094787598, -7.835089206695557, 3.030113697052002, 3.262826442718506, -10.456461906433105, 3.4668631553649902, 6.177618503570557, -6.520977020263672], [4.365694999694824, 1.4045283794403076, -0.7274486422538757, 2.5885517597198486, 13.58410358428955, -4.725131988525391, 3.0005042552948, -1.0928677320480347, -2.647104024887085, -1.0148004293441772, 1.285515308380127, 6.162681579589844, 8.261710166931152, -0.7302213311195374, 5.077033042907715, -6.321297645568848, -4.624910831451416, 2.8890907764434814, -2.8889412879943848, 8.595344543457031, 11.544929504394531, -0.05597294867038727, 1.7698662281036377, -3.912539482116699, 0.36831939220428467, -7.474137306213379, -6.280919075012207, 6.44610595703125, -1.2208983898162842, -10.71535873413086, 2.566664934158325, -0.37685415148735046], [9.294364929199219, -1.7625912427902222, 3.1660656929016113, -0.25945377349853516, -0.7751239538192749, 0.0038034021854400635, -3.437714099884033, -6.539673805236816, -0.34285762906074524, -1.7895914316177368, -5.162431240081787, -0.5277411937713623, 3.772649049758911, -14.116765975952148, -2.411461114883423, -1.693827509880066, -4.404819011688232, -0.322365403175354, 7.914884567260742, -12.056321144104004, -1.800262212753296, -6.878598213195801, 1.3918046951293945, -7.0338311195373535, -10.630635261535645, -3.547391176223755, 2.6606578826904297, -1.9081494808197021, -6.321610927581787, 7.383926868438721, -0.83713698387146, 2.548110246658325], [5.858952522277832, -9.051690101623535, 1.9508575201034546, 5.809858322143555, 9.460103034973145, -7.667254447937012, 7.846908092498779, 7.076295375823975, -3.0523548126220703, -6.092472553253174, 8.182559967041016, -18.052383422851562, 4.432727336883545, -2.2691617012023926, -0.48015323281288147, -3.7579541206359863, -5.864117622375488, 3.7612733840942383, 4.416477680206299, -0.6732038259506226, -3.2528064250946045, -11.045040130615234, 3.9335741996765137, 3.198195695877075, 6.055316925048828, -10.438475608825684, -10.29468059539795, -1.0033435821533203, -6.484285831451416, 8.998456001281738, -2.6771433353424072, 3.1631898880004883], [-0.6478021144866943, 2.8554389476776123, 9.851451873779297, -3.4564754962921143, 1.2466684579849243, 1.8961838483810425, -6.226432800292969, 2.732902765274048, 0.4850673973560333, 0.6504157185554504, -6.225183486938477, 9.73608112335205, -9.843276023864746, -7.413054466247559, 9.580463409423828, -1.5776865482330322, 8.802512168884277, 1.204619288444519, 1.600917100906372, 6.673001289367676, -2.919158458709717, 6.686034679412842, -6.035406112670898, -6.233245372772217, -6.366037368774414, -4.68104887008667, -0.10527165979146957, 9.65668773651123, -4.774394512176514, 4.935035228729248, 9.645869255065918, 5.54325008392334], [0.4802343249320984, -1.232509732246399, 9.787555694580078, 0.26597580313682556, 4.358601093292236, -2.6335465908050537, 0.573976993560791, -6.626963138580322, 1.2434295415878296, -0.424420028924942, -6.597329616546631, -3.0337862968444824, 6.877181053161621, -9.540698051452637, 4.727806091308594, 14.395252227783203, -4.888476848602295, 4.870115280151367, -4.284472942352295, 0.7550718188285828, -7.00042724609375, -2.7625222206115723, 0.7205707430839539, -1.1514641046524048, -0.2608994245529175, -4.268228530883789, 5.164241313934326, -0.35773766040802, 4.508598327636719, -7.564411163330078, -0.5094698071479797, 6.534681797027588], [-2.731231927871704, -0.5639014840126038, 3.0960609912872314, 3.6872174739837646, 9.33970832824707, -3.9190855026245117, -1.5717434883117676, -2.866424322128296, -6.586915969848633, 3.7284622192382812, -5.003180027008057, 1.669015884399414, -0.993217408657074, 7.039076328277588, -2.9777743816375732, 6.937650203704834, -1.4237509965896606, -0.03143412247300148, -2.102046251296997, -1.5151785612106323, -1.3609825372695923, 3.337886333465576, 1.4593045711517334, -0.051193296909332275, -4.0587687492370605, 4.303436279296875, 2.8616652488708496, 7.266632556915283, -12.479877471923828, -8.416694641113281, 10.069303512573242, 8.404304504394531], [-5.018808841705322, -8.007180213928223, -4.604996204376221, 3.507929563522339, -5.758164882659912, 14.68780517578125, 4.313420295715332, 3.1164886951446533, -2.1006460189819336, -5.863722801208496, 6.35304069519043, 0.03827861696481705, -8.216775894165039, 7.7928996086120605, 1.6620242595672607, 5.077877998352051, -0.5576978325843811, -1.8442798852920532, -0.7709928154945374, -3.27119517326355, -2.2054736614227295, -2.842139720916748, 4.774147033691406, 1.5028489828109741, -5.9975361824035645, 2.5934665203094482, 6.093242645263672, 0.3013565242290497, -3.2118093967437744, -3.605238437652588, -4.387197971343994, 1.8656463623046875], [-0.913905143737793, -2.4680392742156982, -8.955310821533203, 1.5594310760498047, 0.5468233823776245, -2.219240188598633, 14.20799446105957, -3.0734100341796875, 1.5005031824111938, -7.007638931274414, -7.985906600952148, -6.784168243408203, -1.9998832941055298, 1.3076211214065552, 4.840895175933838, 7.584538459777832, 7.692866325378418, 2.3595335483551025, 3.6399359703063965, -0.1927185356616974, -1.755105972290039, -8.404186248779297, 2.2163290977478027, 0.5643173456192017, 0.35306474566459656, 0.6910490989685059, -6.710963249206543, -3.462891101837158, 6.362488269805908, -7.363938808441162, -8.89309310913086, -3.017300605773926], [-4.661659240722656, -7.2900896072387695, -2.451188802719116, -3.581303596496582, -2.707038164138794, 3.8765270709991455, 7.03540563583374, -0.8039199113845825, 4.6211113929748535, -1.1986114978790283, 1.2769731283187866, 0.12090502679347992, 2.4461069107055664, -1.3795667886734009, -4.647695064544678, 3.1045353412628174, -0.6333595514297485, -6.706142425537109, 2.1147611141204834, -11.644978523254395, 6.576402187347412, -0.2056349813938141, -5.90645170211792, -8.712607383728027, -1.018829345703125, -1.867738127708435, -0.931424617767334, 15.456871032714844, -2.2326369285583496, -9.204818725585938, -1.4240655899047852, -3.9789295196533203], [9.151527404785156, -5.281578063964844, -2.760801076889038, 5.917026996612549, -3.9885237216949463, -12.540986061096191, 4.077944755554199, -7.071818828582764, -3.280897617340088, -9.822588920593262, 0.18339917063713074, -4.3489155769348145, 5.438427925109863, 3.7884509563446045, -0.2075721025466919, 2.5040950775146484, 4.280047416687012, 1.7670165300369263, 1.0774110555648804, 5.875802516937256, -4.343783855438232, 8.638484954833984, -5.901544570922852, -3.20137357711792, -1.0549776554107666, -7.8301215171813965, 0.7820990681648254, 2.162046194076538, -1.9323360919952393, -3.0336360931396484, -0.0819786787033081, 2.6555378437042236]], [[-5.789535999298096, 1.32887864112854, -4.39605712890625, -10.512154579162598, 0.5195204615592957, -1.2850885391235352, 5.706748962402344, 0.5075114965438843, 0.5226836800575256, 0.6018989086151123, 9.208629608154297, 3.7422921657562256, 7.527139663696289, -9.213356018066406, -9.129805564880371, 1.7503656148910522], [5.876861095428467, -5.36576509475708, -10.025680541992188, 3.349330186843872, 5.779486179351807, -0.821315586566925, -3.9602737426757812, 3.2927298545837402, -4.294123649597168, 6.325829029083252, -1.1345514059066772, 8.337886810302734, 5.204470157623291, 3.564591646194458, -8.764809608459473, 4.139072895050049], [0.1894688457250595, -1.3735110759735107, -4.023553371429443, -4.856374263763428, -3.038804769515991, 0.576047956943512, -11.633927345275879, -10.679040908813477, -5.601147651672363, -2.3546431064605713, 3.8098325729370117, -1.1735304594039917, 7.4221296310424805, 1.9159077405929565, -1.2062959671020508, -8.466734886169434], [3.7712249755859375, 5.708869934082031, 3.204519510269165, -1.5862492322921753, -0.5783975720405579, 1.5546149015426636, -3.2440669536590576, -1.7141057252883911, -4.037528991699219, 1.6515051126480103, 4.2818379402160645, -10.972297668457031, -8.111929893493652, 0.24868863821029663, 0.7370555996894836, 12.878059387207031], [2.8443655967712402, 7.095577716827393, 3.8143551349639893, -4.764376640319824, -6.513481140136719, -0.35165637731552124, -16.051244735717773, 1.6867493391036987, -9.068217277526855, 8.065540313720703, -3.177870988845825, -6.102532386779785, -0.169315904378891, 7.5243072509765625, 3.92073917388916, -0.3292343020439148], [-5.011605739593506, -4.721471309661865, 0.6482550501823425, -7.545682430267334, 4.262391567230225, -1.4687758684158325, -16.94957160949707, 6.979078769683838, -3.750373125076294, -4.6203389167785645, 1.930908441543579, 0.8445208072662354, -3.7829976081848145, 4.2009663581848145, -4.276944637298584, -7.404167652130127], [5.990828990936279, 0.7216389179229736, 5.708003997802734, 1.9092849493026733, -7.089033126831055, -5.641641139984131, -0.15128082036972046, 3.1440093517303467, -2.154191493988037, -5.751852512359619, -5.491802215576172, 1.921636939048767, -0.8645495176315308, -5.058759689331055, -4.8823370933532715, 10.378456115722656], [7.574123859405518, -0.9399551153182983, 0.8399837017059326, 16.722190856933594, 2.1145873069763184, -6.496859550476074, 2.0957603454589844, -0.5129008889198303, -0.14736950397491455, -6.852789402008057, 1.9707905054092407, 3.018995523452759, 6.823993682861328, 3.6069977283477783, -13.773649215698242, -8.726202964782715]], [[-3.866501569747925, 4.423988342285156, -0.7973857522010803, 5.46073055267334, -2.048647165298462, 10.890202522277832, -0.6735063791275024, -2.6107726097106934], [-8.31046199798584, 1.9767812490463257, 0.29752886295318604, -2.9104204177856445, -8.156357765197754, -0.5325796604156494, -2.8184309005737305, 3.043849468231201]]], "brain_biases": [[-0.49878251552581787, -4.56699275970459, 0.4347079396247864, -3.917940378189087, -2.0249075889587402, -7.978511333465576, 0.4078505337238312, 9.685893058776855, 0.7019495964050293, -0.3352992832660675, -0.784020721912384, -11.677999496459961, -2.8735415935516357, -8.619954109191895, 1.8220815658569336, 7.226142406463623, -5.693437576293945, -3.468109607696533, -3.2922048568725586, 2.2014241218566895, -0.1001180037856102, -8.714192390441895, 7.950984001159668, 9.632658958435059, 3.4886512756347656, 3.1025161743164062, -8.083653450012207, -3.3755223751068115, 0.38669058680534363, 0.9318470358848572, 6.856934070587158, 13.204004287719727], [-6.5084452629089355, 0.5209133625030518, 7.07838249206543, 0.8449723720550537, 6.384223937988281, -0.4806273579597473, -1.1196666955947876, -4.122443675994873, 7.502112865447998, 0.7927473187446594, -13.976272583007812, -15.398813247680664, 2.7839596271514893, -1.2483261823654175, 6.259671688079834, -4.942840099334717], [4.92250394821167, -0.900023877620697, 3.7456750869750977, -1.8783907890319824, 1.7447725534439087, -2.7500505447387695, -3.4958248138427734, 0.8758519291877747], [0.06525155156850815, -0.7048798203468323]], "sensor_retina_count": 18, "sensor_vision_radius": 180.0, "sensor_fov_degrees": 180.0, "sensor_skip": 2, "sensor_see_food": true, "sensor_see_bacteria": false, "sensor_see_predators": true, "locomotion_max_speed": 300.0, "locomotion_max_turn": 3.141592653589793, "energy_death_energy": 0.0, "energy_split_energy": 200.0, "energy_v0_cost": 3.0, "energy_vmax_cost": 6.0, "energy_vmax_ref": 300.0, "energy_energy_cap": 200.0, "energy_loss_idle": 3.0, "energy_loss_move": 6.0, "last_brain_output": [11.079742431640625, 0.2076365351676941], "last_brain_activations": [[-0.4611591100692749, -0.9997841715812683, 0.4092482924461365, -0.9992097616195679, -0.9657456874847412, -0.9999997615814209, 0.3866460919380188, 0.9999999403953552, 0.605603814125061, -0.3232743740081787, -0.6550084948539734, -1.0, -0.9936361908912659, -0.9999998807907104, 0.9490455389022827, 0.9999989867210388, -0.9999773502349854, -0.998058021068573, -0.9972403645515442, 0.975811243057251, -0.09978482127189636, -0.9999999403953552, 0.9999997615814209, 0.9999999403953552, 0.9981361031532288, 0.9959696531295776, -0.9999997615814209, -0.9976634383201599, 0.36850371956825256, 0.7314538359642029, 0.9999977946281433, 1.0], [-0.5755324363708496, 0.9853869676589966, 1.0, 0.9950964450836182, 1.0, 1.0, -1.0, -1.0, 1.0, -0.9999364018440247, 1.0, -1.0, -0.0028512401040643454, 1.0, -1.0, -1.0], [-0.9999999403953552, -1.0, 1.0, 0.9999557137489319, 0.9977617263793945, 1.0, -1.0, 1.0], [11.079742431640625, 0.2076367735862732]]}, {"type": "bacteria", "x": 3075.7733891214525, "y": 3930.088725789535, "r": 9.0, "angle": 0.7414441243330829, "vx": 221.24363559423674, "vy": 202.60190556405286, "energy": 53.85031394581591, "age": 82.94793333334259, "brain_sizes": [18, 32, 16, 8, 2], "brain_version": 32060, "brain_weights": [[[-5.784697532653809, 4.134459972381592, 6.157515525817871, -0.47957953810691833, -2.535479784011841, 9.215932846069336, 7.100485801696777, -3.372363567352295, -0.1809861809015274, 7.329864978790283, -4.8656134605407715, -6.641657829284668, 4.642690658569336, -5.837403774261475, -8.574015617370605, -9.462262153625488, -0.8769441843032837, -4.779849052429199], [-2.1683928966522217, 2.3068461418151855, -5.258692264556885, 13.237189292907715, -15.425795555114746, -3.314565896987915, 1.7756372690200806, 0.5430110096931458, -8.674910545349121, 7.433616638183594, -0.20264288783073425, -4.9896392822265625, 0.2834727466106415, -2.391178607940674, -3.255871534347534, 8.346090316772461, -2.7329728603363037, 7.643991470336914], [2.6219849586486816, -3.1543257236480713, 10.440784454345703, -2.2394959926605225, -1.1554394960403442, -9.593819618225098, 8.27674674987793, -0.8397549390792847, -1.5122536420822144, 1.5166480541229248, 0.5718417167663574, -5.170055389404297, 2.0814120769500732, 4.340274810791016, -9.797228813171387, -0.23975932598114014, -7.205303192138672, -3.546372175216675], [2.0346968173980713, -8.93270492553711, -6.266931533813477, 10.168224334716797, -5.265412330627441, 2.109966516494751, -3.065183162689209, -10.135218620300293, -1.5609525442123413, 6.348825454711914, -5.62528133392334, 6.305545806884766, -0.62663733959198, -5.097269535064697, -4.5848894119262695, -11.509562492370605, -2.1543402671813965, 1.7814483642578125], [-1.9313105344772339, -5.579798221588135, 1.0878205299377441, -9.639937400817871, -18.048913955688477, -1.1680171489715576, 4.389316082000732, -2.846071720123291, -15.279523849487305, -1.4389995336532593, 3.4783129692077637, 4.784106731414795, 6.0414509773254395, -5.125288486480713, -0.8248170018196106, 9.655319213867188, 8.737154960632324, -8.203476905822754], [13.553387641906738, 2.6069281101226807, 9.677797317504883, 7.6829094886779785, -6.087622165679932, -3.5938422679901123, 8.913240432739258, -7.607323169708252, -6.850029468536377, 4.053065776824951, -5.011285305023193, 2.4288792610168457, 6.805868148803711, -4.076810836791992, 3.0961015224456787, -9.029186248779297, -1.6306012868881226, -4.158450603485107], [-4.810100078582764, 12.428288459777832, -5.013077259063721, 8.702672004699707, -10.41342830657959, -2.7777228355407715, -3.646817922592163, -0.9091159105300903, 7.768187522888184, 4.257299900054932, 12.589197158813477, -4.335151195526123, -4.675251007080078, 2.0499720573425293, 2.0288679599761963, -0.5935236811637878, -0.9715863466262817, -5.657223224639893], [-4.6287360191345215, 7.374802112579346, 5.828274250030518, 13.634166717529297, -2.0425689220428467, 2.2282981872558594, 11.363934516906738, 1.6429877281188965, 5.0805816650390625, 8.3790922164917, -11.964255332946777, 0.8143973350524902, -2.5420761108398438, 3.6482231616973877, 4.8193182945251465, -7.637594699859619, -1.84720778465271, -1.3684346675872803], [-1.2107187509536743, -0.04529913142323494, -4.0411481857299805, 2.5881266593933105, 0.5966088771820068, 8.914050102233887, -0.4820121228694916, -2.8235790729522705, -1.8040640354156494, -3.3225560188293457, -0.726897656917572, 0.8014151453971863, 10.293667793273926, 10.22213363647461, -7.305080890655518, 3.667940616607666, 3.021944046020508, 6.619666576385498], [0.3431701064109802, -8.796438217163086, 10.885686874389648, 1.1883273124694824, 0.8802439570426941, -1.6972930431365967, 1.9710516929626465, 2.045949697494507, 9.85938835144043, 1.449751853942871, 0.5235258340835571, 4.764034748077393, -0.6772202253341675, -0.6277680993080139, 0.7631608843803406, 9.361595153808594, -1.011717677116394, 1.5157934427261353], [9.895626068115234, 6.593616485595703, 2.9097516536712646, 2.9222638607025146, 5.782275199890137, 0.426424115896225, 6.252134799957275, 0.4434058368206024, -1.1156337261199951, -3.244774341583252, 1.189530611038208, -5.054015636444092, -1.0566660165786743, -3.4984118938446045, -5.819304943084717, 7.820311546325684, 5.900629043579102, 2.081681966781616], [-3.606416702270508, 1.0382784605026245, 2.7324161529541016, 1.6834949254989624, -1.449180245399475, -1.6347254514694214, -9.738738059997559, -1.6352044343948364, 0.8786610960960388, -5.761509895324707, -0.09616667032241821, 7.018679618835449, 0.3356052041053772, -0.6965256929397583, 0.22991392016410828, -4.571795463562012, 3.361599922180176, 4.287954807281494], [0.7450478672981262, 0.0027904040180146694, -2.9674668312072754, -1.2194011211395264, -5.463931560516357, 0.19203567504882812, -6.8181538581848145, 0.9070132970809937, -3.8200225830078125, -1.0523083209991455, -4.7569708824157715, 3.3286776542663574, 7.351515293121338, -0.15313754975795746, -5.587411880493164, -0.25581812858581543, -0.22465765476226807, -0.4298822581768036], [8.260643005371094, 2.292853593826294, -5.666078567504883, -10.054863929748535, 1.2359611988067627, 2.9341037273406982, -2.0579707622528076, 2.260751962661743, -6.8228230476379395, -9.761739730834961, -2.6625587940216064, -4.2028937339782715, -7.443212032318115, -2.4409849643707275, 7.225019454956055, 13.616564750671387, 3.2321691513061523, -1.5102319717407227], [-4.344797611236572, -2.9908273220062256, 6.163820743560791, 3.8520936965942383, 7.676108360290527, -1.0912235975265503, -1.1635669469833374, 0.20061719417572021, -1.4867398738861084, -13.915301322937012, 1.0986154079437256, -3.0134315490722656, -2.565197229385376, 8.098367691040039, 1.406746745109558, -1.7944486141204834, 4.375983715057373, -10.055455207824707], [-13.428398132324219, -7.270356178283691, 2.921488046646118, 6.4896087646484375, 2.841203212738037, 1.0886738300323486, 2.604107141494751, -5.597230911254883, 7.639535903930664, -5.429024696350098, -4.083553791046143, -3.8699355125427246, -6.806433200836182, -3.9861621856689453, -14.884129524230957, -11.856620788574219, 0.07430355250835419, -1.7609461545944214], [0.8087284564971924, 0.3877606689929962, 13.26243782043457, -0.9935609102249146, -2.3895742893218994, -1.6521484851837158, 4.056534767150879, -0.4858156740665436, -5.717153072357178, -5.199636459350586, 4.026444911956787, -4.577996730804443, -0.6291489005088806, -9.313081741333008, 6.003325462341309, 1.5012118816375732, -2.7820093631744385, -0.2740996181964874], [6.082400798797607, -7.677487373352051, -2.907672166824341, -12.177750587463379, -4.532985210418701, -5.559993267059326, -3.3005995750427246, 0.5689506530761719, -10.475146293640137, 9.028115272521973, -7.190911769866943, 5.234749794006348, 4.63664436340332, -2.7988131046295166, -1.2760711908340454, -13.557761192321777, -7.637685298919678, -6.920562267303467], [12.215404510498047, 9.13056468963623, 1.1508510112762451, -6.148052215576172, 5.970841407775879, -1.6572802066802979, 1.1570488214492798, -3.1947479248046875, 2.5755741596221924, 0.6956619024276733, -1.7942779064178467, -12.556146621704102, -2.205303907394409, -9.067239761352539, -9.888334274291992, -1.2139637470245361, -4.6494059562683105, -1.024687647819519], [-4.771646499633789, 4.398525714874268, -2.414440393447876, -1.1574161052703857, 4.95242166519165, 6.986705780029297, 8.58606243133545, 4.015045166015625, 0.09297239780426025, -0.5173202753067017, -16.639738082885742, 8.929757118225098, 4.932795524597168, -2.682389259338379, -0.4919282793998718, 9.55277156829834, -1.6465425491333008, 12.845930099487305], [7.426598072052002, 4.865234851837158, 3.0745224952697754, -1.5522191524505615, -3.46938157081604, -10.696185111999512, -0.5731106996536255, -0.48026585578918457, 7.820748805999756, -6.486962795257568, -6.307605743408203, 0.861975908279419, -13.080570220947266, -3.0347986221313477, 11.253233909606934, 4.075528144836426, 0.1387375444173813, -8.66071891784668], [6.045032024383545, 2.732274293899536, -11.241924285888672, 1.318489670753479, 4.691051959991455, -10.455765724182129, -4.7659454345703125, -3.0420360565185547, 3.089811325073242, 7.746028900146484, 4.861449241638184, -0.7215250134468079, 2.16530442237854, 2.6852457523345947, 2.6606132984161377, -0.388571172952652, 0.9802494049072266, 0.31361353397369385], [-5.425621032714844, -1.9522353410720825, 2.7605268955230713, -4.963551044464111, 1.1861178874969482, 13.631861686706543, -6.988715171813965, 3.3845343589782715, 0.1400308907032013, 8.972371101379395, -3.537806272506714, -6.190097808837891, 4.703110694885254, 2.405031681060791, -0.479116290807724, 0.38439032435417175, 6.800408363342285, -1.6565910577774048], [-3.47992205619812, -6.051420211791992, 1.2335186004638672, 2.2186989784240723, -9.822364807128906, -3.6715145111083984, -9.081168174743652, -0.06425055861473083, 5.0815558433532715, -1.2232190370559692, -4.576359272003174, 0.334987998008728, 4.785347938537598, 5.39862585067749, 4.511625289916992, -6.104215145111084, -0.14613883197307587, 15.250814437866211], [-0.031332045793533325, -3.839522361755371, -4.105337619781494, 6.031253814697266, -9.921774864196777, -0.6243842840194702, 2.351043939590454, -2.0758891105651855, 1.2793738842010498, 5.42332124710083, -9.861936569213867, -0.3907706141471863, -3.2013089656829834, 5.984066486358643, -0.9649237394332886, 0.48405778408050537, 3.094625949859619, -0.7496107816696167], [0.07456546276807785, 0.3394164741039276, 0.8299784064292908, -7.768200397491455, 4.772875785827637, 3.869324207305908, 4.759729385375977, 13.418188095092773, 0.46068471670150757, 1.682934284210205, -0.08549999445676804, -5.8100199699401855, -0.7187772989273071, 3.68692684173584, 7.1014404296875, 10.726094245910645, -0.08750809729099274, 1.0673344135284424], [2.9542665481567383, 6.119421005249023, 0.27104949951171875, -2.6229000091552734, -1.9764775037765503, 3.924197196960449, -10.872899055480957, -1.675705909729004, 1.509010910987854, -0.842280924320221, -0.3059430420398712, -5.092663764953613, -12.781407356262207, -4.805032253265381, -1.1943236589431763, -4.845702648162842, -2.8397297859191895, -10.258108139038086], [2.207695722579956, -0.10903996229171753, 4.274646759033203, -7.545427322387695, 2.8984551429748535, 12.470311164855957, 6.232935428619385, -4.139643669128418, -5.99462366104126, -3.1459453105926514, -1.5459595918655396, 6.214698791503906, 0.05550000071525574, 7.505466461181641, -3.851923704147339, -8.377006530761719, -9.937695503234863, -7.396108627319336], [-1.0715227127075195, -3.0775058269500732, -0.46148091554641724, -1.333954930305481, -1.1573998928070068, 3.1999802589416504, 12.398381233215332, 0.5390514731407166, 2.5376815795898438, 5.92257833480835, -2.4960546493530273, -9.776524543762207, 2.3052687644958496, -3.580195188522339, -5.7092390060424805, -4.342250823974609, 10.122316360473633, -2.205613851547241], [1.5612977743148804, 