{"version": 1, "timestamp": "20250830_151056", "params": {"time_scale": 2.0, "fps": 60.0, "paused": true, "use_spatial": true, "substrate_shape": "rectangular", "world_w": 8000.0, "world_h": 8000.0, "substrate_radius": 400.0, "max_deaths_per_step": 5, "retina_skip": 2, "simple_render": false, "reuse_spatial_grid": true, "food_target": 130, "food_min_r": 8.0, "food_max_r": 10.0, "food_replenish_interval": 0.1, "bacteria_count": 0, "bacteria_min_r": 6.0, "bacteria_max_r": 12.0, "bacteria_min_limit": 1, "bacteria_max_limit": 500, "bacteria_initial_energy": 100.0, "bacteria_energy_loss_idle": 2.0, "bacteria_energy_loss_move": 5.0, "bacteria_death_energy": 0.0, "bacteria_split_energy": 150.0, "bacteria_body_size": 9.0, "bacteria_max_speed": 300.0, "bacteria_max_turn": 3.141592653589793, "bacteria_vision_radius": 300.0, "bacteria_vision_mode": "frontal", "bacteria_retina_count": 24, "bacteria_retina_fov_degrees": 180.0, "bacteria_show_vision": false, "bacteria_retina_see_food": true, "bacteria_retina_see_bacteria": false, "bacteria_retina_see_predators": false, "bacteria_hidden_layers": 3, "bacteria_neurons_layer_1": 32, "bacteria_neurons_layer_2": 16, "bacteria_neurons_layer_3": 8, "bacteria_neurons_layer_4": 20, "bacteria_neurons_layer_5": 0, "bacteria_mutation_rate": 0.1, "bacteria_mutation_strength": 0.1, "bacteria_structural_jitter": 0, "predators_enabled": true, "predator_count": 0, "predator_min_r": 10.0, "predator_max_r": 18.0, "predator_min_limit": 1, "predator_max_limit": 200, "predator_initial_energy": 100.0, "predator_energy_loss_idle": 3.0, "predator_energy_loss_move": 10.0, "predator_death_energy": 0.0, "predator_split_energy": 200.0, "predator_body_size": 14.0, "predator_max_speed": 400.0, "predator_max_turn": 3.141592653589793, "predator_vision_radius": 400.0, "predator_vision_mode": "frontal", "predator_retina_count": 18, "predator_retina_fov_degrees": 120.0, "predator_show_vision": false, "predator_retina_see_food": false, "predator_retina_see_bacteria": true, "predator_retina_see_predators": false, "predator_hidden_layers": 3, "predator_neurons_layer_1": 32, "predator_neurons_layer_2": 16, "predator_neurons_layer_3": 8, "predator_neurons_layer_4": 0, "predator_neurons_layer_5": 0, "predator_mutation_rate": 0.1, "predator_mutation_strength": 0.1, "predator_structural_jitter": 0, "agents_inertia": 1.0, "show_selected_details": true, "auto_export_substrate": true, "auto_export_interval_minutes": 1.0}, "ui_params": {"time_scale": 2.0, "fps": 60, "paused": true, "use_spatial": true, "retina_skip": 2, "simple_render": false, "reuse_spatial_grid": true, "substrate_shape": "rectangular", "food_target": 130, "food_min_r": 8.0, "food_max_r": 10.0, "food_replenish_interval": 0.1, "world_w": 8000.0, "world_h": 8000.0, "substrate_radius": 400.0, "bacteria_count": 0, "bacteria_initial_energy": 100.0, "bacteria_energy_loss_idle": 2.0, "bacteria_energy_loss_move": 5.0, "bacteria_death_energy": 0.0, "bacteria_split_energy": 150.0, "bacteria_body_size": 9.0, "bacteria_show_vision": false, "bacteria_vision_radius": 300.0, "bacteria_retina_count": 24, "bacteria_retina_fov_degrees": 180.0, "bacteria_retina_see_food": true, "bacteria_retina_see_bacteria": false, "bacteria_retina_see_predators": false, "bacteria_max_speed": 300.0, "bacteria_max_turn_deg": 180.0, "bacteria_min_limit": 1, "bacteria_max_limit": 500, "bacteria_hidden_layers": 3, "bacteria_mutation_rate": 0.1, "bacteria_mutation_strength": 0.1, "predators_enabled": true, "predator_count": 0, "predator_initial_energy": 100.0, "predator_energy_loss_idle": 3.0, "predator_energy_loss_move": 10.0, "predator_death_energy": 0.0, "predator_split_energy": 200.0, "predator_body_size": 14.0, "predator_show_vision": false, "predator_vision_radius": 400.0, "predator_retina_count": 18, "predator_retina_fov_degrees": 120.0, "predator_retina_see_food": false, "predator_retina_see_bacteria": true, "predator_retina_see_predators": false, "predator_max_speed": 400.0, "predator_max_turn_deg": 180.0, "predator_min_limit": 1, "predator_max_limit": 200, "predator_hidden_layers": 3, "predator_mutation_rate": 0.1, "predator_mutation_strength": 0.1, "agents_inertia": 1.0, "show_selected_details": true, "auto_export_substrate": true, "auto_export_interval_minutes": 1.0, "bacteria_neurons_layer_1": 32, "bacteria_neurons_layer_2": 16, "bacteria_neurons_layer_3": 8, "bacteria_neurons_layer_4": 20, "bacteria_neurons_layer_5": 0, "predator_neurons_layer_1": 32, "predator_neurons_layer_2": 16, "predator_neurons_layer_3": 8, "predator_neurons_layer_4": 0, "predator_neurons_layer_5": 0}, "world": {"width": 8000.0, "height": 8000.0, "shape": "rectangular", "radius": 400.0}, "camera": {"x": -3683.089201879703, "y": -973.588540114848, "zoom": 0.06934334949441447}, "simulation": {"total_simulation_time": 475.868799999952}, "food": {"count": 129, "target": 130}, "agents": [{"type": "bacteria", "x": 2559.2049189818176, "y": 6157.220523362451, "r": 9.0, "angle": 0.9538247483932367, "vx": 164.65155284286132, "vy": 232.11709403660376, "energy": 67.1324992032818, "age": 66.81666666666416, "brain_sizes": [24, 32, 16, 8, 2], "brain_version": 18, "brain_weights": [[[0.3761212229728699, 0.29517295956611633, 0.15343894064426422, -1.5265476703643799, 0.9440099596977234, 0.5972186326980591, -0.44532373547554016, 0.367729514837265, 1.4937039613723755, -1.6510140895843506, -0.18262764811515808, -0.27204519510269165, -0.8290719389915466, -0.16568692028522491, -0.5305834412574768, -1.3652427196502686, 0.04440515488386154, -0.6657630801200867, 1.5094257593154907, -0.8886620998382568, -1.5768917798995972, 0.7013963460922241, 0.9803925156593323, -0.6922951340675354], [-0.06728798151016235, 0.20984917879104614, -0.17072047293186188, -0.9246972799301147, 0.20712324976921082, -0.6699446439743042, 0.38128235936164856, -0.6738461256027222, 0.4357258677482605, 0.6742037534713745, -1.9552280902862549, -0.4028812646865845, -0.35233789682388306, 1.5206706523895264, 0.509915292263031, -0.8107675313949585, -1.3995146751403809, 1.4551981687545776, 0.18309339880943298, -0.08606937527656555, 0.2886204123497009, -0.4801408052444458, -0.3772471249103546, -1.1240257024765015], [-0.1589902639389038, 0.18567609786987305, -0.07454915344715118, -0.6454113721847534, 1.2841503620147705, -1.351664423942566, -2.2614662647247314, -0.5627607703208923, -0.8551018238067627, 1.5149391889572144, -0.02032686024904251, -0.7827724814414978, 0.05542241781949997, -0.756610631942749, 1.4247615337371826, -0.13670314848423004, -0.897813081741333, -0.658733606338501, 0.4481728672981262, 0.5276151895523071, 0.34044989943504333, 0.24830961227416992, -0.1595437228679657, -0.2948586940765381], [0.7751022577285767, -0.5609065294265747, 0.4156298339366913, 1.8794046640396118, 0.07763568311929703, -0.1968916803598404, 1.4178386926651, 0.5858643054962158, -0.22254644334316254, 0.6506311297416687, -0.25207310914993286, 1.0384515523910522, -0.18248426914215088, -0.22806954383850098, 1.1357930898666382, 0.3723622262477875, 0.8240149617195129, -0.11365163326263428, -0.08607394993305206, -0.7143161296844482, -0.10975772142410278, -0.29904624819755554, -0.30303630232810974, -0.23191851377487183], [-0.32416832447052, 0.49697959423065186, 0.6725873351097107, -0.1490662395954132, -0.07820868492126465, -1.361833095550537, -0.19555486738681793, 0.17615336179733276, 0.7179452180862427, 1.350611925125122, 0.19813857972621918, -0.5082044005393982, 0.255644828081131, -1.1412639617919922, 0.2873495817184448, 0.26986992359161377, -0.49023374915122986, 0.9035705327987671, -1.3689405918121338, -0.5647174119949341, 1.2241908311843872, -0.2954474091529846, -1.109572410583496, -0.5048438310623169], [0.6815427541732788, -0.48570385575294495, 0.3232761025428772, 0.40455108880996704, 0.3281558156013489, -0.21912817656993866, 0.19304388761520386, -0.4439085125923157, -0.08666165173053741, -1.198211669921875, -0.13111159205436707, -0.5170589685440063, -0.24826593697071075, 0.7071978449821472, 0.20095564424991608, -0.45365244150161743, 0.1024463102221489, 0.04864773154258728, -1.0728833675384521, 0.4617614150047302, -0.4566882848739624, 1.168977975845337, 0.3717958629131317, -1.09561288356781], [0.15876610577106476, -0.40052443742752075, -0.49835118651390076, -0.09500054270029068, -0.18760770559310913, 0.22862055897712708, 0.6103709936141968, 0.4071506857872009, -0.004689035937190056, 0.17640060186386108, 1.893991470336914, -0.22375093400478363, 0.038851022720336914, -0.6836242079734802, 0.8094773888587952, 0.6639171242713928, 0.40188929438591003, -1.1915485858917236, 0.14374540746212006, -0.4020932912826538, -0.014478713274002075, 0.6214830875396729, 0.5687742233276367, -0.8167222142219543], [-0.07471079379320145, -0.2371143102645874, -1.415155053138733, 0.9382553100585938, 0.4075440466403961, -1.1539162397384644, -0.39345261454582214, -0.5004008412361145, -0.31956052780151367, -0.013469059020280838, -0.5511167645454407, 1.4037634134292603, 0.0025588274002075195, 0.14665333926677704, 1.1140410900115967, 0.012068398296833038, 0.3273148238658905, 0.7831960320472717, 0.108772411942482, -0.3937125504016876, 1.091322898864746, -1.1247175931930542, -0.9344099164009094, -0.6426099538803101], [0.611996054649353, -0.31199711561203003, 0.35392069816589355, -0.5355798602104187, 0.24619238078594208, -0.8131206035614014, -0.2653582692146301, 0.893599271774292, -0.5285807847976685, -0.4362258315086365, -1.0133473873138428, 0.06942611932754517, 0.3064950406551361, 0.6724256873130798, -1.5624312162399292, -0.45975595712661743, 0.09612657129764557, 1.128334403038025, -0.26576346158981323, -0.5928570628166199, 0.042870618402957916, 0.4988071024417877, 0.9219738841056824, -0.5570926070213318], [-0.43787187337875366, 1.2497351169586182, 0.6486883759498596, 0.5174012184143066, -1.436331868171692, 0.1021842509508133, 0.23090854287147522, -1.7262201309204102, 1.1746141910552979, -0.10174036026000977, -0.5954877734184265, -1.5407344102859497, -0.3771720826625824, 0.6918901205062866, -0.6179366707801819, 1.5359498262405396, -0.039789460599422455, 1.024776577949524, 0.2069205939769745, -2.55665922164917, -0.5794792175292969, -0.10568378120660782, 0.32180193066596985, -0.47919154167175293], [0.0629180520772934, -1.4231902360916138, -0.5759568810462952, 0.6339467167854309, 0.04269377887248993, -0.36054232716560364, 0.11721226572990417, -0.7238783836364746, -0.525801420211792, -0.3896057903766632, 0.9597483277320862, 0.33277150988578796, -0.8100572228431702, -0.9314210414886475, -0.999398410320282, 1.6967151165008545, -1.602792501449585, 0.13233600556850433, 0.48046988248825073, -0.2950355112552643, -0.5730093121528625, 0.4218980371952057, -0.1074032336473465, 1.4804221391677856], [0.22088022530078888, 0.38547247648239136, -1.2733365297317505, 0.7431784272193909, 0.5119129419326782, -0.4133850932121277, 1.2177685499191284, -1.2225345373153687, 0.0845593810081482, -0.6475715637207031, 1.041299819946289, 0.47794827818870544, -0.6650294661521912, 0.6792176365852356, 0.5290153622627258, -0.8826172351837158, -0.30297356843948364, -0.5131577253341675, 1.3667136430740356, 0.2662279009819031, 1.0078338384628296, -0.5386623740196228, -0.6860221028327942, -0.3950245678424835], [1.2951656579971313, 0.4605714678764343, 0.5124917030334473, 1.0484024286270142, 1.527001142501831, -0.38654595613479614, 1.0894219875335693, 0.6595246195793152, 0.06424333900213242, -0.3252450227737427, -1.0053074359893799, 0.1112026572227478, -0.11079564690589905, -0.1714630126953125, -0.5957330465316772, -0.7588907480239868, 0.5075936913490295, 0.028603652492165565, -0.008059633895754814, 0.47351154685020447, 0.41469380259513855, 0.027851076796650887, -0.43868327140808105, -0.707790732383728], [-0.008421435952186584, 1.0599108934402466, 0.893759548664093, 0.9709268808364868, -0.266861230134964, -0.4613502621650696, 0.39966803789138794, 0.01989041268825531, -0.39779824018478394, 0.36993110179901123, -1.234461784362793, 0.7134345769882202, 0.6096205711364746, -0.3293605446815491, 0.23778104782104492, -0.049369893968105316, -0.16437974572181702, 0.8452329039573669, 0.20066572725772858, -0.588024377822876, 0.565581202507019, -0.020409613847732544, 0.9898695349693298, 0.788410484790802], [1.0283236503601074, -0.5840430855751038, -0.8968977928161621, 0.26781517267227173, -0.2709973156452179, -0.6021755933761597, 1.1430771350860596, 0.5783401131629944, 0.637455403804779, 1.0659996271133423, 0.3077091574668884, -0.30031049251556396, -0.17325955629348755, 0.9607427716255188, 1.0312292575836182, 1.1358058452606201, -0.3547824025154114, -0.2840573191642761, -0.8146560788154602, -0.9317697882652283, 0.13990241289138794, 0.013308092951774597, -0.12932148575782776, 0.4128198027610779], [0.3742479681968689, 0.5251063704490662, 0.8851422071456909, -0.1701311469078064, -0.34500226378440857, 0.15746109187602997, 1.774319052696228, -0.3433985114097595, -0.18257710337638855, 1.188624620437622, -0.4496835172176361, 0.4885338544845581, 0.8217899799346924, 0.061738401651382446, 1.4144716262817383, 0.8990768194198608, 0.8374353647232056, -0.13859763741493225, -0.7582604885101318, 0.6918135285377502, -0.38877779245376587, -0.6509596109390259, -0.6569362878799438, 1.1145176887512207], [-0.3213227093219757, -0.4648646116256714, 1.547816276550293, -0.21378184854984283, -1.3430430889129639, -0.845428466796875, -0.2369822859764099, 0.29987719655036926, -0.5149661898612976, -0.45187726616859436, -0.08465695381164551, -0.12526381015777588, 0.2503911256790161, 0.05174585431814194, -0.45817551016807556, -0.318893700838089, 0.872557520866394, -0.8700664043426514, -0.13760782778263092, 0.05825673043727875, -0.9695996642112732, -0.3837776780128479, 1.1164441108703613, 0.5637365579605103], [0.11886337399482727, 0.6237300038337708, 0.034344661980867386, 0.9603067636489868, 0.2183619886636734, -1.4638807773590088, -0.7182639837265015, 0.8158761858940125, -0.3091084361076355, 0.6107082962989807, -0.5927252769470215, 0.12033988535404205, 2.0448150634765625, -0.5689546465873718, -0.20342878997325897, -0.07664443552494049, 0.1033201515674591, 1.5044176578521729, 0.10025982558727264, -1.473637580871582, -0.25987139344215393, 0.13030892610549927, -1.0354043245315552, -0.8609930276870728], [0.06139252707362175, 0.058218106627464294, -0.4654547870159149, 0.13287261128425598, 0.2925087809562683, -1.1247743368148804, -0.9622863531112671, 0.3582260012626648, -1.3798270225524902, -1.3663703203201294, -0.6242223978042603, 0.5896340012550354, -0.6364606022834778, 0.3453443646430969, -0.9385817646980286, -0.14194829761981964, 0.22143509984016418, -0.012970425188541412, 0.5927380323410034, -0.34887969493865967, 0.043991342186927795, 0.4881082773208618, -0.9102492332458496, -1.4374260902404785], [1.3967390060424805, 0.22595441341400146, -1.402773380279541, 0.2846314311027527, 0.73703533411026, 0.26106709241867065, 0.23036706447601318, -0.052280277013778687, -0.05654507875442505, -0.6821377873420715, 1.0692797899246216, -0.25147750973701477, -1.0558513402938843, 0.6182195544242859, -1.4724063873291016, -0.7692275047302246, 0.21774868667125702, -0.28059256076812744, -0.04101163148880005, -0.6106181144714355, -0.16774985194206238, 0.02878994680941105, -0.8890160918235779, 0.08033035695552826], [0.9296890497207642, 0.5589752197265625, -0.6980850100517273, 0.4128570258617401, -0.7369077801704407, 1.2898367643356323, 0.6257112622261047, 1.6564558744430542, -0.3508313000202179, 0.21933698654174805, -0.2544129490852356, -1.0270264148712158, -0.21009771525859833, -0.13198161125183105, -1.1572058200836182, 0.03138241171836853, -0.1140536367893219, 0.18988272547721863, -0.4476643204689026, -0.7567594051361084, -1.3801020383834839, 0.24705463647842407, 0.33727195858955383, 1.2512229681015015], [-0.2966349124908447, 0.7128069996833801, -0.48019737005233765, 0.9543397426605225, 0.20888498425483704, 0.8281271457672119, 1.4178037643432617, -0.11171781271696091, 0.06495869904756546, -0.24722597002983093, -0.02493860572576523, 0.9937083721160889, -0.3804693818092346, -0.40752509236335754, -0.26902228593826294, 0.37502986192703247, -0.7562380433082581, 0.2351529598236084, 0.4161375164985657, 0.36310210824012756, -0.11588762700557709, -0.07840082049369812, -0.8450380563735962, -0.7871522307395935], [0.28064393997192383, 0.39494094252586365, 0.06842751055955887, -0.028247088193893433, -0.5933467149734497, 0.3744126856327057, 0.027253421023488045, -0.15301886200904846, -0.7889426946640015, -0.40644580125808716, 0.9863173961639404, -0.05245102196931839, -0.1619766652584076, 0.013423897325992584, 0.9461318850517273, 1.0428885221481323, 0.4895700216293335, 0.25438663363456726, 0.7344846129417419, 0.9007748365402222, 0.22068263590335846, 0.49690380692481995, -0.2050510197877884, 0.9240683317184448], [-0.28984665870666504, 0.6816099882125854, 0.14423012733459473, -0.4161725640296936, 0.5055701732635498, 0.5605405569076538, 1.0303548574447632, 1.0074119567871094, -0.4665353298187256, -0.730025053024292, -0.2610672116279602, 0.6321394443511963, -1.3158996105194092, -0.22907564043998718, -0.183711975812912, -0.4761187732219696, -0.37128153443336487, -0.7908228635787964, -0.754494845867157, 0.1879810094833374, -1.0975114107131958, 0.9655907154083252, -1.0071300268173218, 0.4760052561759949], [-0.29402726888656616, 0.22246631979942322, -0.9087714552879333, -0.6575029492378235, -0.7430578470230103, -1.0822898149490356, -0.48633289337158203, 0.3550782799720764, -0.15331384539604187, -0.42677533626556396, 0.09230299293994904, 0.5027233362197876, 0.5202146172523499, -0.3730688691139221, -0.11441484093666077, 0.7648810148239136, -0.1256045252084732, -0.722150981426239, 0.6647287011146545, 0.4397214353084564, -1.4124140739440918, -0.029986798763275146, -0.8686787486076355, 0.8935452103614807], [1.3660029172897339, 1.8366169929504395, -0.2623109221458435, -1.2019647359848022, -0.03653208911418915, -0.047904543578624725, -0.6007999181747437, 1.7070233821868896, -0.9639227986335754, -0.15178081393241882, 1.2538365125656128, 0.3617496192455292, 0.7999582886695862, 0.3794099688529968, -0.4134082496166229, -0.13887229561805725, 0.8220881223678589, 0.34352022409439087, -0.3933965861797333, 0.3663061261177063, -0.5597723722457886, 1.7449077367782593, -1.0624425411224365, -0.037366777658462524], [-0.5337791442871094, -1.740753412246704, -0.4733802080154419, -0.9746760725975037, -0.7205211520195007, -0.8893443942070007, -1.0801548957824707, 0.8559583425521851, 0.9758978486061096, -0.40149664878845215, 1.296436071395874, 0.5843448638916016, -0.3516925573348999, 0.5668151378631592, 0.022350706160068512, 0.12893497943878174, 1.0117629766464233, 1.224405288696289, -0.4580027759075165, 0.7748103141784668, -0.3391525149345398, -0.496275395154953, -0.3521243929862976, -1.0292338132858276], [-0.2898547649383545, 0.4866790771484375, -0.41056737303733826, 0.1171204149723053, -0.18482284247875214, 0.19733302295207977, -0.5697647333145142, -1.449446439743042, 0.3465415835380554, -0.0682695060968399, 0.13346602022647858, 0.18476930260658264, -0.15850034356117249, -0.2764434814453125, 1.1028661727905273, -1.0447444915771484, 0.9407230615615845, 0.7640717029571533, 0.15279406309127808, -0.2533051669597626, -0.012017577886581421, -0.3365500867366791, 0.9068211317062378, 1.0715570449829102], [0.42477846145629883, 0.2472626119852066, -0.14855006337165833, 0.5041630864143372, -0.677625298500061, 0.957878053188324, -0.386879563331604, -0.9751644730567932, 0.511374831199646, -0.06412748992443085, -1.2479768991470337, 0.34473586082458496, 0.5201480388641357, -0.43490859866142273, 0.042680829763412476, 0.21442261338233948, -0.3692683279514313, -0.09190939366817474, -0.8428366780281067, -0.5924338698387146, -0.6846640110015869, -2.0135858058929443, -0.38650405406951904, 1.1327391862869263], [-0.09738682955503464, 0.12852126359939575, 0.29814642667770386, 0.2855677008628845, -1.3228858709335327, 0.6052255630493164, -0.7892444133758545, 1.169459342956543, -0.49484527111053467, 1.1780139207839966, -1.1969256401062012, 0.341302752494812, -0.020934894680976868, -0.9147858619689941, 1.3700389862060547, 0.06717143952846527, -0.4245230555534363, -0.3555709719657898, 0.23173905909061432, 0.5993559956550598, 0.17081812024116516, 0.12019068747758865, 0.1111210286617279, 1.528700828552246], [0.017675314098596573, 0.2085069864988327, 0.4685685634613037, -0.1767098307609558, 0.00024117715656757355, -0.13580946624279022, -0.09704512357711792, -0.5955656170845032, -0.7757682204246521, -0.3654112219810486, 0.14372940361499786, -0.34017083048820496, -1.08246648311615, 0.22439730167388916, -1.0838871002197266, 0.2969951331615448, 0.20761770009994507, 1.0074198246002197, -0.05893133208155632, 0.8225525617599487, 0.709923505783081, 1.474276065826416, -0.18599696457386017, -0.2770124673843384], [0.6347797513008118, -0.47199156880378723, -1.2445549964904785, -0.5754023194313049, 0.35255151987075806, 0.5984820127487183, 0.7946213483810425, -0.953791081905365, -1.4670865535736084, -0.4904792308807373, -0.4576359987258911, 0.3843849301338196, -0.0019638240337371826, -0.36786219477653503, 0.10113687813282013, 0.4717898964881897, -0.3909430503845215, -0.663419246673584, 1.1049784421920776, 0.22487573325634003, -0.6157324314117432, -0.023033451288938522, -0.33099421858787537, 1.5153889656066895]], [[0.2554626166820526, 0.1712934672832489, 0.4427584111690521, -0.04056331887841225, -0.2674180865287781, -0.9426066875457764, 0.760298490524292, 0.39707624912261963, -0.5125358700752258, 0.5262466669082642, -0.18593135476112366, -1.6723802089691162, -0.985481858253479, 0.7474035620689392, 0.23852428793907166, 0.12583814561367035, -1.4983842372894287, 0.5465580821037292, 1.5172505378723145, -0.4855737090110779, 0.38553160429000854, 0.44144970178604126, 0.17851927876472473, 0.007527757436037064, 0.8242807388305664, -0.5842496156692505, 0.7215620875358582, -0.16381943225860596, -0.07125693559646606, 0.9774031639099121, 0.2849065065383911, 0.9239670038223267], [0.39958620071411133, -0.09122790396213531, 0.6501206755638123, 0.4974256157875061, -0.8672991991043091, -0.5390701293945312, 0.206695094704628, 0.6098206639289856, -0.9280365705490112, -0.3922675549983978, -1.494112491607666, -1.2461785078048706, 0.5941211581230164, 0.36211100220680237, 0.5550205707550049, -0.599588930606842, -1.099863886833191, 0.48174136877059937, -0.4144337475299835, 0.47128045558929443, -0.4107295274734497, 0.029818512499332428, 0.26818200945854187, -0.066946841776371, 0.12264122813940048, 0.2222851812839508, -0.8057725429534912, 1.0605460405349731, 0.21234828233718872, 0.5006908178329468, -0.044236794114112854, 0.21052104234695435], [-1.1439913511276245, -0.3986079692840576, -0.29182788729667664, -1.4872106313705444, 0.5899134278297424, 0.8251210451126099, 0.5001018643379211, -0.282701700925827, 1.9297518730163574, -0.37472543120384216, -0.24739985167980194, 1.2652525901794434, 0.5107419490814209, 0.4732359051704407, -0.8189615607261658, -0.9641455411911011, -0.07265198230743408, 0.9422810673713684, -0.08918485790491104, 0.0036033615469932556, 1.1594456434249878, 0.34714704751968384, 0.07783494144678116, -0.6792453527450562, 0.8822638392448425, -0.593633770942688, 1.302550196647644, -0.22693029046058655, -0.052657000720500946, -0.6420869827270508, 0.47608432173728943, -0.11897473782300949], [0.8922740817070007, -0.6846864819526672, -0.6304275989532471, -0.013889119029045105, 0.3358077108860016, 0.5851224660873413, -0.9359934329986572, -0.5791140794754028, -0.8980785012245178, -1.0509876012802124, -1.0063869953155518, -1.1298953294754028, -1.8151772022247314, 0.5386009216308594, -0.18056023120880127, -0.22695764899253845, 0.4497048258781433, -0.6799864172935486, 0.4275973439216614, 0.4818328619003296, -0.8493919372558594, 0.6235835552215576, 1.4296647310256958, -1.3692247867584229, 0.48269692063331604, 0.24409912526607513, 0.265988290309906, 1.2304736375808716, 0.24759931862354279, 0.7966426610946655, 1.6747653484344482, 0.8460652828216553], [0.35056331753730774, 0.4543704092502594, -0.4326293468475342, -1.2966619729995728, -0.4201139211654663, 0.13861390948295593, 0.44630852341651917, 0.08544781804084778, 1.2002259492874146, 0.8608188629150391, -0.7752282619476318, 0.12467584013938904, -1.6173791885375977, 0.15896974503993988, -0.11020483821630478, 0.9044405817985535, -0.24399082362651825, -0.14758116006851196, 2.2549054622650146, 0.5172988772392273, -1.5465006828308105, 0.006071463227272034, 0.568572461605072, 0.3261260986328125, 0.406922847032547, 0.048166923224925995, -0.6009521484375, 0.5671277642250061, 1.0766855478286743, -0.7615883350372314, 1.641935110092163, 0.2492581009864807], [-0.011493280529975891, -0.2928412854671478, 0.997355580329895, -1.0232391357421875, -0.6584778428077698, -0.0150994211435318, -0.8982314467430115, -1.1885055303573608, 1.414717435836792, -0.3786894977092743, -0.7199310660362244, -0.32672619819641113, 0.32565850019454956, 0.15017864108085632, 0.3913891315460205, 0.24460867047309875, 0.2222379893064499, 0.670341432094574, -1.000734567642212, 0.8892808556556702, -0.6113139986991882, -0.5470350980758667, -0.12600965797901154, 0.7817803621292114, 0.5559563040733337, 0.5658442378044128, 0.793137788772583, -0.5292424559593201, -0.20578248798847198, -0.17413568496704102, 0.33421680331230164, 0.43875086307525635], [-0.36492523550987244, -0.21898922324180603, 0.28588300943374634, -0.3165900707244873, -0.2476736456155777, 0.5578300952911377, -0.0814175233244896, 0.8623853921890259, -0.17159968614578247, 0.09700196981430054, 0.6307028532028198, -0.7244166135787964, -0.4821260869503021, 0.5648834109306335, -0.19167326390743256, 0.5421479940414429, -0.6622601747512817, 0.5751020312309265, 0.14450740814208984, -0.4265580177307129, -0.7057645320892334, 0.8088232278823853, 1.1615819931030273, 0.4440931975841522, 0.2219635397195816, -0.6349718570709229, -0.09991620481014252, -0.7791808843612671, 0.5052213668823242, -0.5402786731719971, -0.42235514521598816, 0.9769608378410339], [1.6069567203521729, -0.43925929069519043, 1.2251088619232178, 0.03315984457731247, 0.01688934862613678, -0.3819524645805359, -0.394848108291626, 0.23093420267105103, -1.0352286100387573, 0.3205029368400574, -1.0185054540634155, 0.21656697988510132, -0.4734211564064026, 0.21915389597415924, -0.1455341875553131, -0.3773546814918518, -0.04009833186864853, 0.7291109561920166, 0.27247491478919983, -0.15495461225509644, 0.9720359444618225, 0.11291979253292084, -0.15393492579460144, 1.0689784288406372, -0.20717748999595642, 0.6216737627983093, -1.486208200454712, -0.09127650409936905, -0.43309175968170166, -0.5872794985771179, -1.0795451402664185, -0.2340356856584549], [-0.2645066976547241, -1.2122019529342651, 0.2143511176109314, 1.0893064737319946, -0.6450090408325195, 0.08212533593177795, 1.0634617805480957, -1.0864500999450684, 2.6923327445983887, 1.5645085573196411, -1.0326979160308838, -0.6167382597923279, -0.028375133872032166, -0.10149889439344406, -0.95588219165802, 0.2964239716529846, -0.1648835688829422, -0.07563365995883942, -0.6732094287872314, 1.2413709163665771, -0.4194006621837616, 0.8241934776306152, 0.5611790418624878, -0.28368836641311646, -0.3032803535461426, -0.4149157404899597, 0.28878599405288696, -0.7988582849502563, -0.27436506748199463, 0.15182332694530487, 1.0395475625991821, 0.14726631343364716], [-0.27110686898231506, 0.8239654302597046, -0.06575175374746323, 0.0012422353029251099, 0.22405360639095306, -0.31626731157302856, -0.8973891735076904, 0.469349205493927, -0.6681864261627197, 0.12352394312620163, 0.46792691946029663, -0.09965784102678299, 0.4378202557563782, 0.6179906129837036, 0.3780438303947449, -0.11853696405887604, 0.6852607131004333, -0.8678231239318848, -0.6904187798500061, 0.7260289788246155, 0.6423149704933167, 1.009016990661621, -0.49774369597435, -0.7902151942253113, -0.6218056082725525, -0.14383402466773987, -0.4021680951118469, -0.5850510597229004, 0.157644122838974, -0.526106595993042, 0.5525844097137451, -0.637869119644165], [0.15373456478118896, 0.18502312898635864, -0.4122677147388458, 1.1146199703216553, 0.18635766208171844, 0.6121197938919067, 0.831694483757019, -0.180604487657547, 0.41526293754577637, -0.24280911684036255, 0.4524276852607727, 0.3714267313480377, -0.3530545234680176, 0.5885961055755615, 1.2180283069610596, -0.16009491682052612, 0.6234312057495117, 0.7597899436950684, 1.0312105417251587, -0.5576169490814209, -0.3364447355270386, 0.18646900355815887, -1.2300852537155151, -0.1275290995836258, -0.6972323656082153, -1.541507601737976, 0.32357892394065857, 0.6835788488388062, 0.42634594440460205, 1.6051703691482544, -1.6109552383422852, -0.6101383566856384], [-2.0649452209472656, -0.49658939242362976, 1.2116649150848389, -0.5386978387832642, 0.3265429139137268, 0.348838210105896, 0.69987952709198, -1.4899661540985107, 0.03159743547439575, -0.0036669671535491943, -0.3544120192527771, -0.1156829297542572, 0.4388921856880188, 0.21991831064224243, -0.36689355969429016, 0.37879693508148193, -1.1192861795425415, -1.0328874588012695, -0.47299617528915405, -0.34224143624305725, 0.32834529876708984, 0.38687413930892944, 0.9030077457427979, -0.025422021746635437, -0.6469467282295227, -0.3169938325881958, -0.710519015789032, -0.25204288959503174, -0.2333751618862152, -0.4472152590751648, -1.0804046392440796, -0.16047194600105286], [0.430264413356781, 1.3144822120666504, 0.6270611882209778, 0.6862438321113586, 0.5296908617019653, 0.11741772294044495, 0.2106487900018692, 0.11261893808841705, -0.03641553223133087, -0.10196256637573242, -0.3686635494232178, 0.08611439168453217, -0.0030291639268398285, -0.9861347079277039, -0.28387725353240967, -0.1872262954711914, 0.19691558182239532, 0.09370161592960358, 1.5693758726119995, -1.1405516862869263, -0.23766978085041046, -0.7290527820587158, 0.25558730959892273, -0.9266771078109741, 1.0773996114730835, 0.3594144284725189, -0.6059693098068237, 1.4824726581573486, 0.6071168184280396, -0.030619904398918152, -0.5134817361831665, 0.41687390208244324], [-1.2472666501998901, -0.31056615710258484, -0.8799469470977783, -0.6743863821029663, -0.29232609272003174, -0.5420277118682861, 0.3312830328941345, -1.0841251611709595, 0.14376753568649292, 0.6695206165313721, 1.091005802154541, -0.30060577392578125, -0.9574710726737976, 0.42465972900390625, 1.5184967517852783, -2.0753002166748047, 0.18587923049926758, -0.11499220132827759, 0.62166428565979, -0.7726795673370361, 0.011858046054840088, -0.3856948912143707, -0.3795064091682434, 0.06735953688621521, 0.4095667600631714, -1.1376698017120361, -0.23256585001945496, -0.5234230756759644, -0.3160282373428345, -0.42230403423309326, -0.34098827838897705, 1.0915032625198364], [0.11507768929004669, 0.48952430486679077, 0.8025544285774231, -0.051300227642059326, -0.16160766780376434, -0.5275012850761414, 0.20672044157981873, -1.2652233839035034, -0.1895495057106018, -0.6754079461097717, -0.07918520271778107, -0.5508301854133606, -0.7587178349494934, 1.5853928327560425, -0.4186074137687683, 0.11110039055347443, 1.0429034233093262, -0.6647992730140686, 0.4579613208770752, 0.7036226987838745, -0.7599802613258362, -1.709587574005127, 0.5061823129653931, -1.5433435440063477, 0.3259803056716919, 0.33527514338493347, 0.4999326467514038, -0.279860258102417, 0.20455703139305115, -0.7599667906761169, 1.3589684963226318, 0.43668675422668457], [-0.9278751611709595, 0.2592138946056366, 1.3029391765594482, 0.16163396835327148, -0.6651474833488464, 0.3306270241737366, -0.7090606093406677, -0.6516908407211304, -0.9472963809967041, 0.6220965385437012, -0.36618396639823914, -0.47144684195518494, -0.1661970019340515, 0.45440495014190674, 0.6943171620368958, 0.3623594641685486, -0.37874987721443176, -0.04130912572145462, 1.1985206604003906, -0.9484466910362244, -0.3753539025783539, -0.9662200212478638, 1.9696459770202637, 0.16102392971515656, 0.43345269560813904, -0.4152701795101166, -0.29359668493270874, -0.370382696390152, 0.5674477815628052, 0.7642841339111328, -0.5245756506919861, -0.6023512482643127]], [[-0.7066519856452942, -0.06092286854982376, -0.2119184136390686, -0.0406937301158905, -0.01362079381942749, 0.4319000840187073, -0.9546123743057251, -0.08306793868541718, -0.4731464385986328, 0.5038174390792847, -0.03576967865228653, 0.28688815236091614, -0.2776912450790405, 1.4976823329925537, 1.9492267370224, -0.5294802188873291], [-0.8942128419876099, 1.327466607093811, 0.47531890869140625, -0.823101282119751, 0.6679913997650146, -0.11340704560279846, -0.040471360087394714, 0.5316818356513977, 0.8812748789787292, -0.6163330674171448, -0.011543914675712585, -0.9182543754577637, 1.2418466806411743, -0.9263955354690552, 0.7891606688499451, -0.7827703952789307], [0.4545021057128906, 1.0043797492980957, -0.5464638471603394, -0.9265995621681213, 1.130937099456787, -1.3056508302688599, -0.597348690032959, -0.22655661404132843, 1.352707028388977, -0.03256700932979584, 0.12225498259067535, 1.581951379776001, 0.8493689894676208, 0.7642711997032166, 0.16144487261772156, -0.5195955038070679], [-1.3113352060317993, 0.8762420415878296, -0.1255222111940384, -1.2210724353790283, 0.2350630760192871, 0.1119416356086731, 0.8300615549087524, 0.9047964215278625, -0.8009999394416809, -0.16679704189300537, 0.5965126752853394, 0.24556325376033783, -0.06331048905849457, -0.21117006242275238, 0.40619221329689026, 0.9765404462814331], [-0.6281881332397461, -0.27903100848197937, -0.7352799773216248, -0.19262485206127167, -1.5330156087875366, 0.16803935170173645, -0.7424529790878296, 0.5737444162368774, 0.029843946918845177, -0.43029317259788513, 0.21396836638450623, 0.241838276386261, -0.20492114126682281, -0.25470492243766785, -1.165232539176941, -1.1239135265350342], [-1.289392352104187, -1.3647621870040894, 0.6959996223449707, 0.6274971961975098, -1.114691138267517, -0.3541811406612396, -0.6116501688957214, -0.8392331004142761, -0.4656050503253937, -0.9762997627258301, 0.4830399751663208, -0.07133802771568298, 1.1129213571548462, -0.3664691746234894, -0.22453290224075317, -0.4327598512172699], [-1.0763267278671265, 1.4639415740966797, -1.115156888961792, -0.8765024542808533, -2.1889286041259766, -0.4833432137966156, -1.3665364980697632, -0.298414945602417, 1.4499385356903076, -0.26919496059417725, 1.042573094367981, 0.016137100756168365, 0.6440259218215942, -0.10468973219394684, -0.5123884081840515, -0.3780553936958313], [0.4909846782684326, 0.6948349475860596, 0.41361692547798157, 0.6233635544776917, 0.5533921718597412, 0.771399974822998, -0.2543705999851227, 0.478615939617157, -0.16274550557136536, -0.276926726102829, 1.2087994813919067, 0.4110638201236725, 0.6617618799209595, -0.01140265166759491, -0.14867199957370758, -0.5669305324554443]], [[1.326583981513977, -1.1986684799194336, -0.2649886906147003, 0.9111148715019226, 0.206581711769104, -0.16762426495552063, 1.588963270187378, 0.4703150987625122], [0.3752051293849945, 0.14666129648685455, 0.3610313832759857, -0.691933810710907, -1.5904123783111572, 0.33201149106025696, 0.34579208493232727, 0.16878989338874817]]], "brain_biases": [[0.7037829160690308, -0.2791285514831543, 0.6577972769737244, 1.035933017730713, 0.7725522518157959, -1.1680693626403809, 0.4769967198371887, -1.4779624938964844, -0.2602160573005676, -0.09894099831581116, -0.4710874557495117, 0.49438175559043884, 0.721281886100769, 0.4663219153881073, 0.16984280943870544, 0.6400561928749084, -0.4026501178741455, 0.45536184310913086, -0.5211213231086731, 0.3508071005344391, 0.7910173535346985, -0.30385321378707886, 0.5889414548873901, -1.031612515449524, 0.8734442591667175, -0.5128685235977173, 0.21061670780181885, -0.6226776242256165, 0.40491583943367004, -0.6447238922119141, -0.22430813312530518, 0.29302000999450684], [-0.3628588616847992, 0.18855197727680206, -0.5223899483680725, 0.8285196423530579, 0.45756804943084717, -0.23275090754032135, -0.3329162895679474, 0.20061475038528442, -0.10702435672283173, 1.150321364402771, 1.1267297267913818, -0.8334535956382751, 0.2777863144874573, 0.8164970874786377, 0.08632735162973404, 0.3613322377204895], [0.3937798738479614, -0.09177903085947037, 1.0449289083480835, 0.14923521876335144, 0.7847791910171509, 0.5651221871376038, -0.09335963428020477, -0.8443080186843872], [0.5607138276100159, 0.18135389685630798]], "sensor_retina_count": 24, "sensor_vision_radius": 300.0, "sensor_fov_degrees": 180.0, "sensor_skip": 2, "sensor_see_food": true, "sensor_see_bacteria": false, "sensor_see_predators": false, "locomotion_max_speed": 300.0, "locomotion_max_turn": 3.141592653589793, "energy_loss_idle": 2.0, "energy_loss_move": 5.0, "energy_death_energy": 0.0, "energy_split_energy": 150.0, "last_brain_output": [2.9156737327575684, 0.47377321124076843], "last_brain_activations": []}, {"type": "bacteria", "x": 1429.4670564225187, "y": 7507.036346137916, "r": 9.0, "angle": -2.315206892374644, "vx": -193.39307095143792, "vy": -209.933731431278, "energy": 11.737862149870729, "age": 61.91666666666443, "brain_sizes": [24, 32, 16, 8, 2], "brain_version": 19, "brain_weights": [[[0.3761212229728699, 0.29517295956611633, 0.15343894064426422, -1.5265476703643799, 0.9440099596977234, 0.5972186326980591, -0.5236935019493103, 0.367729514837265, 1.4937039613723755, -1.6510140895843506, -0.18262764811515808, -0.27204519510269165, -0.8290719389915466, -0.16568692028522491, -0.5305834412574768, -1.3652427196502686, 0.04440515488386154, -0.6657630801200867, 1.5094257593154907, -0.8886620998382568, -1.5768917798995972, 0.7013963460922241, 0.9803925156593323, -0.6922951340675354], [-0.06728798151016235, 0.20984917879104614, -0.07339625060558319, -0.9246972799301147, 0.25324296951293945, -0.6111637949943542, 0.38128235936164856, -0.6738461256027222, 0.4357258677482605, 0.6742037534713745, -1.9552280902862549, -0.4028812646865845, -0.35233789682388306, 1.5206706523895264, 0.509915292263031, -0.8309887647628784, -1.3995146751403809, 1.5528024435043335, 0.18309339880943298, -0.08606937527656555, 0.2886204123497009, -0.4801408052444458, -0.3772471249103546, -1.1240257024765015], [-0.1589902639389038, 0.27308282256126404, -0.07454915344715118, -0.6454113721847534, 1.2841503620147705, -1.351664423942566, -2.2614662647247314, -0.5627607703208923, -0.8551018238067627, 1.5149391889572144, -0.02032686024904251, -0.7827724814414978, 0.05542241781949997, -0.8227803707122803, 1.4247615337371826, -0.13670314848423004, -0.897813081741333, -0.658733606338501, 0.4481728672981262, 0.55277419090271, 0.34044989943504333, 0.24830961227416992, -0.1595437228679657, -0.2948586940765381], [0.7751022577285767, -0.5609065294265747, 0.4156298339366913, 1.8794046640396118, 0.07763568311929703, -0.1968916803598404, 1.4178386926651, 0.5858643054962158, -0.22254644334316254, 0.6506311297416687, -0.25207310914993286, 1.0384515523910522, -0.18248426914215088, -0.22806954383850098, 1.1357930898666382, 0.3723622262477875, 0.8240149617195129, -0.11365163326263428, -0.08607394993305206, -0.7143161296844482, -0.10975772142410278, -0.29904624819755554, -0.43257176876068115, -0.23191851377487183], [-0.32416832447052, 0.49697959423065186, 0.6725873351097107, -0.21726541221141815, -0.07820868492126465, -1.361833095550537, -0.19555486738681793, 0.17615336179733276, 0.7179452180862427, 1.350611925125122, 0.19813857972621918, -0.5082044005393982, 0.255644828081131, -1.1412639617919922, 0.2873495817184448, 0.26986992359161377, -0.49023374915122986, 0.9035705327987671, -1.336536169052124, -0.5647174119949341, 1.2241908311843872, -0.2954474091529846, -1.109572410583496, -0.5048438310623169], [0.6815427541732788, -0.48570385575294495, 0.3232761025428772, 0.40455108880996704, 0.3281558156013489, -0.21912817656993866, 0.19304388761520386, -0.4439085125923157, -0.08666165173053741, -1.198211669921875, -0.13111159205436707, -0.5170589685440063, -0.24826593697071075, 0.7071978449821472, 0.20095564424991608, -0.45365244150161743, 0.1024463102221489, 0.04864773154258728, -1.0728833675384521, 0.4617614150047302, -0.4566882848739624, 1.168977975845337, 0.3717958629131317, -1.09561288356781], [0.15876610577106476, -0.40052443742752075, -0.49835118651390076, -0.09500054270029068, -0.18760770559310913, 0.22862055897712708, 0.6103709936141968, 0.4071506857872009, -0.004689035937190056, 0.17640060186386108, 1.9108312129974365, -0.22375093400478363, 0.038851022720336914, -0.6836242079734802, 0.8094773888587952, 0.6639171242713928, 0.40188929438591003, -1.1915485858917236, -0.0271100252866745, -0.4020932912826538, -0.014478713274002075, 0.6214830875396729, 0.5687742233276367, -0.8167222142219543], [-0.07471079379320145, -0.2371143102645874, -1.415155053138733, 0.9382553100585938, 0.4075440466403961, -1.1539162397384644, -0.39345261454582214, -0.5004008412361145, -0.31956052780151367, -0.03198399394750595, -0.5511167645454407, 1.4037634134292603, 0.0025588274002075195, 0.14665333926677704, 1.0849316120147705, 0.03999725729227066, 0.3273148238658905, 0.8721910119056702, 0.108772411942482, -0.3937125504016876, 1.091322898864746, -1.1247175931930542, -0.9344099164009094, -0.6426099538803101], [0.611996054649353, -0.31199711561203003, 0.35392069816589355, -0.5355798602104187, 0.24619238078594208, -0.8131206035614014, -0.2653582692146301, 0.893599271774292, -0.5285807847976685, -0.4362258315086365, -1.0133473873138428, 0.06942611932754517, 0.2540433406829834, 0.6724256873130798, -1.5624312162399292, -0.45975595712661743, 0.09612657129764557, 1.128334403038025, -0.1331096887588501, -0.5928570628166199, 0.042870618402957916, 0.4988071024417877, 0.9219738841056824, -0.5570926070213318], [-0.43787187337875366, 1.354039192199707, 0.6486883759498596, 0.5174012184143066, -1.436331868171692, 0.1021842509508133, 0.23090854287147522, -1.6870828866958618, 1.1746141910552979, -0.10174036026000977, -0.5954877734184265, -1.5407344102859497, -0.3771720826625824, 0.6918901205062866, -0.6179366707801819, 1.5359498262405396, 0.019992727786302567, 1.024776577949524, 0.2069205939769745, -2.55665922164917, -0.5794792175292969, -0.10568378120660782, 0.32180193066596985, -0.47919154167175293], [0.0629180520772934, -1.4231902360916138, -0.6898251175880432, 0.7327216267585754, 0.04269377887248993, -0.36054232716560364, 0.11721226572990417, -0.7238783836364746, -0.525801420211792, -0.3896057903766632, 0.9597483277320862, 0.33277150988578796, -0.8100572228431702, -0.9314210414886475, -0.999398410320282, 1.6967151165008545, -1.602792501449585, 0.13233600556850433, 0.48046988248825073, -0.0009634196758270264, -0.5730093121528625, 0.4218980371952057, -0.1074032336473465, 1.4804221391677856], [0.22088022530078888, 0.38547247648239136, -1.3293706178665161, 0.7431784272193909, 0.5119129419326782, -0.4133850932121277, 1.2177685499191284, -1.2225345373153687, 0.0845593810081482, -0.6475715637207031, 1.041299819946289, 0.47794827818870544, -0.6650294661521912, 0.6792176365852356, 0.5290153622627258, -0.8826172351837158, -0.30297356843948364, -0.5131577253341675, 1.3667136430740356, 0.2662279009819031, 1.0078338384628296, -0.5386623740196228, -0.624978244304657, -0.3950245678424835], [1.2951656579971313, 0.4605714678764343, 0.5124917030334473, 1.0484024286270142, 1.527001142501831, -0.38654595613479614, 1.0894219875335693, 0.6595246195793152, 0.06424333900213242, -0.3252450227737427, -1.0053074359893799, 0.1112026572227478, -0.11079564690589905, -0.1714630126953125, -0.5957330465316772, -0.7588907480239868, 0.5075936913490295, 0.028603652492165565, -0.008059633895754814, 0.47351154685020447, 0.41469380259513855, 0.027851076796650887, -0.43868327140808105, -0.707790732383728], [-0.008421435952186584, 1.0626585483551025, 0.893759548664093, 0.9709268808364868, -0.266861230134964, -0.4613502621650696, 0.39966803789138794, 0.01989041268825531, -0.4449377655982971, 0.37209224700927734, -1.234461784362793, 0.7134345769882202, 0.6096205711364746, -0.3293605446815491, 0.23778104782104492, -0.049369893968105316, -0.16437974572181702, 0.8452329039573669, 0.20066572725772858, -0.588024377822876, 0.565581202507019, -0.020409613847732544, 0.9898695349693298, 0.788410484790802], [1.0283236503601074, -0.5840430855751038, -0.8968977928161621, 0.26781517267227173, -0.2709973156452179, -0.6021755933761597, 1.1430771350860596, 0.5783401131629944, 0.637455403804779, 1.3051866292953491, 0.3077091574668884, -0.30031049251556396, -0.17325955629348755, 0.9607427716255188, 1.0312292575836182, 1.1358058452606201, -0.3547824025154114, -0.2840573191642761, -0.8146560788154602, -0.9317697882652283, 0.13990241289138794, 0.013308092951774597, -0.12932148575782776, 0.4128198027610779], [0.3742479681968689, 0.5251063704490662, 0.8851422071456909, -0.14742779731750488, -0.3034912645816803, 0.15746109187602997, 1.774319052696228, -0.3433985114097595, -0.18257710337638855, 1.188624620437622, -0.4496835172176361, 0.4885338544845581, 0.8217899799346924, 0.11961303651332855, 1.4144716262817383, 0.8990768194198608, 0.8374353647232056, -0.13859763741493225, -0.7582604885101318, 0.6918135285377502, -0.38877779245376587, -0.6509596109390259, -0.6569362878799438, 1.1145176887512207], [-0.3213227093219757, -0.4648646116256714, 1.547816276550293, -0.21378184854984283, -1.3430430889129639, -0.845428466796875, -0.2369822859764099, 0.29987719655036926, -0.5149661898612976, -0.45187726616859436, -0.08465695381164551, -0.12526381015777588, 0.2503911256790161, 0.09067298471927643, -0.45817551016807556, -0.31341901421546936, 0.872557520866394, -0.8700664043426514, -0.13760782778263092, 0.05825673043727875, -0.9623561501502991, -0.3837776780128479, 1.1164441108703613, 0.5637365579605103], [0.11886337399482727, 0.6237300038337708, 0.034344661980867386, 0.9603067636489868, 0.2183619886636734, -1.4638807773590088, -0.7182639837265015, 0.8158761858940125, -0.3091084361076355, 0.6107082962989807, -0.5927252769470215, 0.10707226395606995, 2.0448150634765625, -0.5689546465873718, -0.20342878997325897, -0.07664443552494049, 0.1033201515674591, 1.5044176578521729, 0.10025982558727264, -1.473637580871582, -0.25987139344215393, 0.13030892610549927, -0.9912533760070801, -0.8609930276870728], [0.06139252707362175, 0.058218106627464294, -0.4677007496356964, 0.08021681010723114, 0.2925087809562683, -1.1247743368148804, -0.9622863531112671, 0.3582260012626648, -1.2642614841461182, -1.3663703203201294, -0.6242223978042603, 0.5896340012550354, -0.6364606022834778, 0.43462637066841125, -0.9385817646980286, -0.14194829761981964, 0.22143509984016418, -0.012970425188541412, 0.5927380323410034, -0.34887969493865967, 0.043991342186927795, 0.4881082773208618, -0.9102492332458496, -1.4374260902404785], [1.3967390060424805, 0.22595441341400146, -1.402773380279541, 0.2846314311027527, 0.73703533411026, 0.26106709241867065, 0.23036706447601318, -0.052280277013778687, -0.05654507875442505, -0.6821377873420715, 1.0692797899246216, -0.25147750973701477, -1.0558513402938843, 0.5827175378799438, -1.4724063873291016, -0.7692275047302246, 0.21774868667125702, -0.45536303520202637, -0.04101163148880005, -0.6106181144714355, -0.16774985194206238, 0.02878994680941105, -0.8890160918235779, 0.08033035695552826], [0.9296890497207642, 0.5589752197265625, -0.6980850100517273, 0.4128570258617401, -0.7369077801704407, 1.2898367643356323, 0.6257112622261047, 1.6564558744430542, -0.3508313000202179, 0.3407846987247467, -0.2544129490852356, -1.0270264148712158, -0.21009771525859833, -0.13198161125183105, -1.1572058200836182, 0.03138241171836853, -0.1140536367893219, 0.18988272547721863, -0.4476643204689026, -0.7567594051361084, -1.3801020383834839, 0.24705463647842407, 0.33727195858955383, 1.2512229681015015], [-0.2966349124908447, 0.7128069996833801, -0.6038491129875183, 0.9543397426605225, 0.20483756065368652, 0.8281271457672119, 1.4178037643432617, -0.11171781271696091, -0.06275015324354172, -0.24722597002983093, -0.02493860572576523, 0.9937083721160889, -0.3804693818092346, -0.31683671474456787, -0.26902228593826294, 0.37502986192703247, -0.7562380433082581, 0.2351529598236084, 0.4161375164985657, 0.36310210824012756, -0.11588762700557709, -0.07840082049369812, -0.8450380563735962, -0.7871522307395935], [0.28064393997192383, 0.39494094252586365, 0.06842751055955887, -0.028247088193893433, -0.5933467149734497, 0.3744126856327057, 0.027253421023488045, -0.15301886200904846, -0.7889426946640015, -0.40644580125808716, 0.9863173961639404, -0.05245102196931839, -0.1619766652584076, 0.013423897325992584, 0.9461318850517273, 1.0428885221481323, 0.4895700216293335, 0.25438663363456726, 0.7344846129417419, 0.9007748365402222, 0.22068263590335846, 0.49690380692481995, -0.2050510197877884, 0.9240683317184448], [-0.28984665870666504, 0.6816099882125854, 0.14423012733459473, -0.4161725640296936, 0.5055701732635498, 0.5605405569076538, 1.0303548574447632, 1.0074119567871094, -0.36230790615081787, -0.730025053024292, -0.2610672116279602, 0.6321394443511963, -1.3158996105194092, -0.22907564043998718, -0.183711975812912, -0.4761187732219696, -0.37128153443336487, -0.7908228635787964, -0.754494845867157, 0.1879810094833374, -1.0975114107131958, 0.9655907154083252, -1.0071300268173218, 0.4760052561759949], [-0.29402726888656616, 0.22246631979942322, -0.9087714552879333, -0.6575029492378235, -0.7430578470230103, -1.0822898149490356, -0.48633289337158203, 0.3550782799720764, -0.15331384539604187, -0.42677533626556396, 0.09230299293994904, 0.5027233362197876, 0.5202146172523499, -0.3730688691139221, -0.11441484093666077, 0.7648810148239136, -0.1256045252084732, -0.722150981426239, 0.6647287011146545, 0.4397214353084564, -1.4124140739440918, -0.029986798763275146, -0.8686787486076355, 0.8935452103614807], [1.3660029172897339, 1.8366169929504395, -0.2848091721534729, -1.2019647359848022, -0.03653208911418915, 0.038098037242889404, -0.6007999181747437, 1.7070233821868896, -0.9639227986335754, -0.15178081393241882, 1.2538365125656128, 0.3617496192455292, 0.7999582886695862, 0.3794099688529968, -0.4134082496166229, -0.13887229561805725, 0.8220881223678589, 0.34352022409439087, -0.3933965861797333, 0.3663061261177063, -0.5597723722457886, 1.7449077367782593, -1.0624425411224365, -0.037366777658462524], [-0.5337791442871094, -1.740753412246704, -0.4733802080154419, -0.9746760725975037, -0.7205211520195007, -0.8893443942070007, -1.0801548957824707, 0.8559583425521851, 0.9758978486061096, -0.40149664878845215, 1.296436071395874, 0.5843448638916016, -0.3516925573348999, 0.5668151378631592, 0.022350706160068512, 0.12893497943878174, 1.0117629766464233, 1.224405288696289, -0.4060709476470947, 0.7748103141784668, -0.3170361816883087, -0.496275395154953, -0.3521243929862976, -1.0292338132858276], [-0.2898547649383545, 0.4866790771484375, -0.41056737303733826, 0.1171204149723053, -0.18482284247875214, 0.19733302295207977, -0.5697647333145142, -1.449446439743042, 0.3465415835380554, -0.0682695060968399, 0.13346602022647858, 0.18476930260658264, -0.15850034356117249, -0.2764434814453125, 1.1028661727905273, -1.0447444915771484, 0.9407230615615845, 0.7640717029571533, 0.15279406309127808, -0.2533051669597626, -0.012017577886581421, -0.3365500867366791, 0.9068211317062378, 1.0715570449829102], [0.42477846145629883, 0.2975653409957886, -0.14855006337165833, 0.5041630864143372, -0.642265260219574, 0.8376407623291016, -0.386879563331604, -0.9751644730567932, 0.511374831199646, -0.06412748992443085, -1.2479768991470337, 0.34473586082458496, 0.5201480388641357, -0.43490859866142273, 0.042680829763412476, 0.21442261338233948, -0.3692683279514313, -0.09190939366817474, -0.8428366780281067, -0.5924338698387146, -0.6846640110015869, -2.0135858058929443, -0.38650405406951904, 1.1962696313858032], [-0.09738682955503464, 0.12852126359939575, 0.29814642667770386, 0.29642990231513977, -1.3228858709335327, 0.6052255630493164, -0.7892444133758545, 1.169459342956543, -0.49484527111053467, 1.1780139207839966, -1.1969256401062012, 0.341302752494812, -0.020934894680976868, -0.9147858619689941, 1.3700389862060547, 0.06717143952846527, -0.4245230555534363, -0.3555709719657898, 0.23173905909061432, 0.5993559956550598, 0.17081812024116516, 0.12019068747758865, 0.1111210286617279, 1.528700828552246], [0.017675314098596573, 0.2085069864988327, 0.4685685634613037, -0.33477312326431274, 0.00024117715656757355, -0.13580946624279022, -0.09704512357711792, -0.5955656170845032, -0.8106043934822083, -0.3654112219810486, 0.14372940361499786, -0.34017083048820496, -1.08246648311615, 0.22439730167388916, -1.0838871002197266, 0.2969951331615448, 0.2963569164276123, 1.0074198246002197, -0.05893133208155632, 0.8225525617599487, 0.709923505783081, 1.474276065826416, -0.18599696457386017, -0.2770124673843384], [0.6347797513008118, -0.47199156880378723, -1.2445549964904785, -0.5754023194313049, 0.35255151987075806, 0.5984820127487183, 0.7946213483810425, -0.953791081905365, -1.4670865535736084, -0.4904792308807373, -0.39936375617980957, 0.3843849301338196, -0.0019638240337371826, -0.36786219477653503, 0.10113687813282013, 0.4717898964881897, -0.3909430503845215, -0.663419246673584, 1.1049784421920776, 0.22487573325634003, -0.6157324314117432, -0.023033451288938522, -0.33099421858787537, 1.5153889656066895]], [[0.06488221883773804, 0.1712934672832489, 0.3697730004787445, -0.04056331887841225, -0.2674180865287781, -0.9426066875457764, 0.760298490524292, 0.39707624912261963, -0.5125358700752258, 0.5262466669082642, -0.18593135476112366, -1.6723802089691162, -0.985481858253479, 0.7474035620689392, 0.23852428793907166, 0.12583814561367035, -1.4983842372894287, 0.5460277199745178, 1.5172505378723145, -0.4855737090110779, 0.38553160429000854, 0.44144970178604126, 0.17851927876472473, 0.007527757436037064, 0.8242807388305664, -0.5842496156692505, 0.7215620875358582, -0.16381943225860596, -0.07125693559646606, 0.9774031639099121, 0.2343442738056183, 0.9239670038223267], [0.39958620071411133, -0.09122790396213531, 0.6501206755638123, 0.4974256157875061, -0.8672991991043091, -0.5390701293945312, 0.206695094704628, 0.6098206639289856, -0.9280365705490112, -0.3922675549983978, -1.474547266960144, -1.2461785078048706, 0.5941211581230164, 0.36211100220680237, 0.5550205707550049, -0.599588930606842, -1.099863886833191, 0.48174136877059937, -0.4144337475299835, 0.47128045558929443, -0.4107295274734497, 0.029818512499332428, 0.26818200945854187, -0.066946841776371, 0.12264122813940048, 0.2222851812839508, -0.8057725429534912, 1.0605460405349731, 0.0351669043302536, 0.5006908178329468, -0.044236794114112854, 0.19071893393993378], [-1.1439913511276245, -0.3986079692840576, -0.29182788729667664, -1.4872106313705444, 0.5899134278297424, 0.8251210451126099, 0.5001018643379211, -0.282701700925827, 1.9297518730163574, -0.37472543120384216, -0.24739985167980194, 1.1139196157455444, 0.5107419490814209, 0.4732359051704407, -0.8189615607261658, -0.9641455411911011, -0.07265198230743408, 0.9422810673713684, -0.08918485790491104, 0.055963609367609024, 1.1594456434249878, 0.34714704751968384, 0.07783494144678116, -0.6056537628173828, 0.8822638392448425, -0.593633770942688, 1.302550196647644, -0.2849855422973633, -0.052657000720500946, -0.6420869827270508, 0.47608432173728943, -0.11897473782300949], [0.8922740817070007, -0.6846864819526672, -0.6304275989532471, -0.013889119029045105, 0.3358077108860016, 0.5851224660873413, -0.9359934329986572, -0.5791140794754028, -0.8980785012245178, -1.0509876012802124, -1.0063869953155518, -1.1298953294754028, -1.8151772022247314, 0.5386009216308594, -0.18056023120880127, -0.22695764899253845, 0.4497048258781433, -0.6799864172935486, 0.4275973439216614, 0.4818328619003296, -0.9257968664169312, 0.6235835552215576, 1.4296647310256958, -1.3928626775741577, 0.48269692063331604, 0.24409912526607513, 0.265988290309906, 1.2304736375808716, 0.24759931862354279, 0.7966426610946655, 1.6747653484344482, 0.8460652828216553], [0.35056331753730774, 0.4543704092502594, -0.4326293468475342, -1.2966619729995728, -0.4201139211654663, 0.13861390948295593, 0.44630852341651917, 0.08544781804084778, 1.2002259492874146, 0.8608188629150391, -0.7752282619476318, 0.12467584013938904, -1.6173791885375977, 0.15896974503993988, -0.11020483821630478, 0.9044405817985535, -0.24399082362651825, -0.14758116006851196, 2.2549054622650146, 0.5172988772392273, -1.5465006828308105, 0.006071463227272034, 0.568572461605072, 0.3261260986328125, 0.406922847032547, 0.048166923224925995, -0.6009521484375, 0.5671277642250061, 1.0327324867248535, -0.7615883350372314, 1.641935110092163, 0.2492581009864807], [-0.011493280529975891, -0.2928412854671478, 0.997355580329895, -1.0232391357421875, -0.6584778428077698, -0.0150994211435318, -0.8982314467430115, -1.1885055303573608, 1.414717435836792, -0.3786894977092743, -0.7199310660362244, -0.32672619819641113, 0.32565850019454956, 0.15017864108085632, 0.3913891315460205, 0.24460867047309875, 0.17145203053951263, 0.670341432094574, -1.000734567642212, 0.8892808556556702, -0.6113139986991882, -0.5271085500717163, -0.12600965797901154, 0.7817803621292114, 0.5559563040733337, 0.5658442378044128, 0.793137788772583, -0.5292424559593201, -0.20578248798847198, -0.17413568496704102, 0.33421680331230164, 0.4271823465824127], [-0.36492523550987244, -0.21898922324180603, 0.28588300943374634, -0.3165900707244873, -0.18639573454856873, 0.5578300952911377, -0.0814175233244896, 0.8623853921890259, -0.17159968614578247, 0.09700196981430054, 0.6307028532028198, -0.8068351745605469, -0.4821260869503021, 0.5648834109306335, -0.19167326390743256, 0.5421479940414429, -0.6622601747512817, 0.6513513922691345, 0.32595327496528625, -0.4265580177307129, -0.7057645320892334, 0.8088232278823853, 1.1615819931030273, 0.4440931975841522, 0.2219635397195816, -0.6349718570709229, -0.09991620481014252, -0.7791808843612671, 0.5052213668823242, -0.5402786731719971, -0.42668119072914124, 0.9769608378410339], [1.6069567203521729, -0.43925929069519043, 1.2251088619232178, 0.03315984457731247, 0.01688934862613678, -0.3819524645805359, -0.394848108291626, 0.23093420267105103, -1.0352286100387573, 0.3205029368400574, -1.0185054540634155, 0.21656697988510132, -0.4734211564064026, 0.21915389597415924, -0.1455341875553131, -0.3773546814918518, -0.04009833186864853, 0.7291109561920166, 0.27247491478919983, -0.15495461225509644, 0.9720359444618225, 0.11291979253292084, -0.15393492579460144, 1.0689784288406372, -0.20717748999595642, 0.556136965751648, -1.486208200454712, -0.09127650409936905, -0.43309175968170166, -0.5872794985771179, -1.0795451402664185, -0.2340356856584549], [-0.2645066976547241, -1.2122019529342651, 0.2143511176109314, 1.2486827373504639, -0.6450090408325195, 0.08212533593177795, 1.0634617805480957, -1.0864500999450684, 2.6923327445983887, 1.5645085573196411, -1.0326979160308838, -0.6699021458625793, -0.028375133872032166, -0.10149889439344406, -0.95588219165802, 0.2964239716529846, -0.1648835688829422, -0.07563365995883942, -0.6732094287872314, 1.2413709163665771, -0.4194006621837616, 0.8241934776306152, 0.5611790418624878, -0.28587573766708374, -0.3032803535461426, -0.5293130874633789, 0.28878599405288696, -0.7988582849502563, -0.27436506748199463, 0.15182332694530487, 1.0395475625991821, 0.14726631343364716], [-0.20795594155788422, 0.8239654302597046, -0.06575175374746323, 0.0012422353029251099, 0.22405360639095306, -0.31626731157302856, -0.8973891735076904, 0.3021760582923889, -0.6681864261627197, 0.12352394312620163, 0.46792691946029663, -0.09965784102678299, 0.4378202557563782, 0.7202721238136292, 0.3780438303947449, -0.11853696405887604, 0.6852607131004333, -0.8061360120773315, -0.6904187798500061, 0.7260289788246155, 0.6423149704933167, 1.009016990661621, -0.49774369597435, -0.7902151942253113, -0.6271277070045471, -0.14383402466773987, -0.4021680951118469, -0.5850510597229004, 0.157644122838974, -0.526106595993042, 0.5525844097137451, -0.7408773303031921], [0.15373456478118896, 0.18502312898635864, -0.4122677147388458, 1.1146199703216553, 0.18635766208171844, 0.6121197938919067, 0.831694483757019, -0.180604487657547, 0.41526293754577637, -0.24280911684036255, 0.4524276852607727, 0.3714267313480377, -0.3530545234680176, 0.5885961055755615, 1.2180283069610596, -0.16009491682052612, 0.6234312057495117, 0.7597899436950684, 1.0312105417251587, -0.5576169490814209, -0.3364447355270386, 0.18646900355815887, -1.2300852537155151, -0.1275290995836258, -0.6972323656082153, -1.541507601737976, 0.32357892394065857, 0.6835788488388062, 0.42634594440460205, 1.6051703691482544, -1.6109552383422852, -0.6101383566856384], [-2.0649452209472656, -0.49658939242362976, 1.329941987991333, -0.5276042222976685, 0.339225172996521, 0.348838210105896, 0.69987952709198, -1.4899661540985107, 0.03159743547439575, -0.0036669671535491943, -0.3544120192527771, -0.1156829297542572, 0.4388921856880188, 0.21991831064224243, -0.36689355969429016, 0.37879693508148193, -1.1192861795425415, -1.1317722797393799, -0.47299617528915405, -0.34224143624305725, 0.280781626701355, 0.38687413930892944, 0.9030077457427979, -0.025422021746635437, -0.6469467282295227, -0.3169938325881958, -0.710519015789032, -0.25204288959503174, -0.21250146627426147, -0.4472152590751648, -1.0804046392440796, -0.16047194600105286], [0.430264413356781, 1.3144822120666504, 0.6270611882209778, 0.6862438321113586, 0.5296908617019653, 0.0473935604095459, 0.2106487900018692, 0.11261893808841705, -0.03641553223133087, -0.10196256637573242, -0.3686635494232178, 0.08611439168453217, -0.0030291639268398285, -0.9861347079277039, -0.28387725353240967, -0.1872262954711914, 0.19691558182239532, 0.17286816239356995, 1.5693758726119995, -1.1405516862869263, -0.23766978085041046, -0.7290527820587158, 0.25558730959892273, -0.9266771078109741, 1.0773996114730835, 0.3594144284725189, -0.6059693098068237, 1.4824726581573486, 0.6071168184280396, -0.030619904398918152, -0.5134817361831665, 0.41687390208244324], [-1.2472666501998901, -0.31056615710258484, -0.8799469470977783, -0.6743863821029663, -0.29232609272003174, -0.5420277118682861, 0.3312830328941345, -1.0841251611709595, 0.33048924803733826, 0.6528255939483643, 1.091005802154541, -0.1657075732946396, -0.9574710726737976, 0.3695909082889557, 1.5184967517852783, -2.0753002166748047, 0.14994001388549805, -0.11499220132827759, 0.62166428565979, -0.7682676315307617, 0.011858046054840088, -0.3856948912143707, -0.3795064091682434, 0.06735953688621521, 0.4095667600631714, -1.1376698017120361, -0.23256585001945496, -0.5234230756759644, -0.3160282373428345, -0.42230403423309326, -0.34098827838897705, 1.0915032625198364], [0.11507768929004669, 0.48952430486679077, 0.8025544285774231, -0.051300227642059326, -0.16160766780376434, -0.5275012850761414, 0.20672044157981873, -1.2652233839035034, -0.1895495057106018, -0.6754079461097717, -0.07918520271778107, -0.42888501286506653, -0.7587178349494934, 1.5853928327560425, -0.4186074137687683, 0.11110039055347443, 1.0429034233093262, -0.4904170036315918, 0.4579613208770752, 0.7036226987838745, -0.7599802613258362, -1.709587574005127, 0.4992268979549408, -1.5433435440063477, 0.3259803056716919, 0.33527514338493347, 0.4999326467514038, -0.279860258102417, 0.20455703139305115, -0.7599667906761169, 1.3589684963226318, 0.43668675422668457], [-0.9278751611709595, 0.2592138946056366, 1.3029391765594482, 0.16163396835327148, -0.6651474833488464, 0.3306270241737366, -0.77082759141922, -0.6516908407211304, -0.9472963809967041, 0.6220965385437012, -0.36618396639823914, -0.47144684195518494, -0.1661970019340515, 0.45440495014190674, 0.6943171620368958, 0.3623594641685486, -0.37874987721443176, -0.04130912572145462, 1.1985206604003906, -0.9484466910362244, -0.3688049018383026, -0.9662200212478638, 1.9696459770202637, 0.1313801407814026, 0.43345269560813904, -0.4152701795101166, -0.29359668493270874, -0.370382696390152, 0.5674477815628052, 0.7642841339111328, -0.5245756506919861, -0.6023512482643127]], [[-0.7066519856452942, -0.06092286854982376, -0.2119184136390686, -0.06328867375850677, -0.01362079381942749, 0.4319000840187073, -0.9546123743057251, -0.08306793868541718, -0.4731464385986328, 0.5038174390792847, -0.03576967865228653, 0.28688815236091614, -0.2776912450790405, 1.4976823329925537, 1.9492267370224, -0.5294802188873291], [-0.8942128419876099, 1.327466607093811, 0.47531890869140625, -0.823101282119751, 0.6679913997650146, -0.11340704560279846, -0.040471360087394714, 0.5316818356513977, 0.8812748789787292, -0.6163330674171448, -0.011543914675712585, -0.9182543754577637, 1.2418466806411743, -0.9263955354690552, 0.7891606688499451, -0.7827703952789307], [0.4545021057128906, 1.0043797492980957, -0.5464638471603394, -0.9265995621681213, 1.130937099456787, -1.3056508302688599, -0.597348690032959, -0.22655661404132843, 1.352707028388977, -0.03256700932979584, 0.14472949504852295, 1.581951379776001, 0.8493689894676208, 0.6356165409088135, 0.21708862483501434, -0.5195955038070679], [-1.3113352060317993, 0.8762420415878296, -0.1255222111940384, -1.2210724353790283, 0.2350630760192871, 0.1119416356086731, 0.8300615549087524, 0.9047964215278625, -0.8009999394416809, -0.16679704189300537, 0.5965126752853394, 0.24556325376033783, -0.06331048905849457, -0.21117006242275238, 0.40619221329689026, 0.9765404462814331], [-0.6281881332397461, -0.27903100848197937, -0.7352799773216248, -0.19262485206127167, -1.5330156087875366, 0.16803935170173645, -0.7424529790878296, 0.5737444162368774, 0.029843946918845177, -0.43029317259788513, 0.21396836638450623, 0.241838276386261, -0.1731141060590744, -0.25470492243766785, -1.165232539176941, -1.1239135265350342], [-1.289392352104187, -1.3647621870040894, 0.6959996223449707, 0.6274971961975098, -1.114691138267517, -0.37931007146835327, -0.6116501688957214, -0.8392331004142761, -0.4656050503253937, -0.9762997627258301, 0.4830399751663208, -0.07133802771568298, 1.1129213571548462, -0.3664691746234894, -0.22453290224075317, -0.4327598512172699], [-1.0763267278671265, 1.4324783086776733, -1.115156888961792, -0.8765024542808533, -2.1889286041259766, -0.4833432137966156, -1.2879297733306885, -0.298414945602417, 1.4499385356903076, -0.26919496059417725, 1.042573094367981, 0.016137100756168365, 0.6440259218215942, -0.10468973219394684, -0.5123884081840515, -0.3780553936958313], [0.4909846782684326, 0.6948349475860596, 0.41361692547798157, 0.6233635544776917, 0.5533921718597412, 0.771399974822998, -0.2543705999851227, 0.478615939617157, -0.16274550557136536, -0.276926726102829, 1.2087994813919067, 0.4110638201236725, 0.6617618799209595, -0.01140265166759491, -0.14867199957370758, -0.5669305324554443]], [[1.326583981513977, -1.1986684799194336, -0.2649886906147003, 0.9111148715019226, 0.206581711769104, -0.16762426495552063, 1.588963270187378, 0.4703150987625122], [0.3752051293849945, 0.14666129648685455, 0.403611421585083, -0.6080795526504517, -1.5904123783111572, 0.33201149106025696, 0.34579208493232727, 0.16878989338874817]]], "brain_biases": [[0.7258638143539429, -0.2791285514831543, 0.6577972769737244, 1.035933017730713, 0.7725522518157959, -1.2510879039764404, 0.4769967198371887, -1.4779624938964844, -0.2602160573005676, -0.09894099831581116, -0.4710874557495117, 0.49438175559043884, 0.8288778066635132, 0.4663219153881073, 0.16984280943870544, 0.6400561928749084, -0.4026501178741455, 0.45536184310913086, -0.5211213231086731, 0.3508071005344391, 0.8096845746040344, -0.30385321378707886, 0.6319364905357361, -1.031612515449524, 0.8734442591667175, -0.5128685235977173, 0.21061670780181885, -0.6066329479217529, 0.40491583943367004, -0.6447238922119141, -0.22430813312530518, 0.29302000999450684], [-0.3628588616847992, 0.18855197727680206, -0.5223899483680725, 0.8285196423530579, 0.45756804943084717, -0.23275090754032135, -0.3329162895679474, 0.20061475038528442, -0.10702435672283173, 1.150321364402771, 1.1267297267913818, -0.9826109409332275, 0.2777863144874573, 0.8164970874786377, 0.08632735162973404, 0.3613322377204895], [0.3937798738479614, 0.09568416327238083, 1.0449289083480835, 0.14923521876335144, 0.7847791910171509, 0.5651221871376038, 0.021005816757678986, -0.7784992456436157], [0.5607138276100159, 0.18135389685630798]], "sensor_retina_count": 24, "sensor_vision_radius": 300.0, "sensor_fov_degrees": 180.0, "sensor_skip": 2, "sensor_see_food": true, "sensor_see_bacteria": false, "sensor_see_predators": false, "locomotion_max_speed": 300.0, "locomotion_max_turn": 3.141592653589793, "energy_loss_idle": 2.0, "energy_loss_move": 5.0, "energy_death_energy": 0.0, "energy_split_energy": 150.0, "last_brain_output": [2.975381851196289, 0.33901095390319824], "last_brain_activations": []}, {"type": "bacteria", "x": 3158.517008094093, "y": 4122.650854740342, "r": 9.0, "angle": 2.5930115000595966, "vx": -243.66127663962789, "vy": 148.91473946845645, "energy": 57.502259683770006, "age": 61.33333333333113, "brain_sizes": [24, 32, 16, 8, 2], "brain_version": 19, "brain_weights": [[[0.3761212229728699, 0.30051934719085693, 0.15343894064426422, -1.5265476703643799, 0.8592755794525146, 0.5972186326980591, -0.44532373547554016, 0.367729514837265, 1.4937039613723755, -1.6659164428710938, -0.18262764811515808, -0.27204519510269165, -0.8290719389915466, -0.16568692028522491, -0.8217369318008423, -1.3652427196502686, 0.04440515488386154, -0.5919700264930725, 1.569780707359314, -0.8886620998382568, -1.5768917798995972, 0.7304707169532776, 0.9597542881965637, -0.6922951340675354], [-0.06728798151016235, 0.20984917879104614, -0.17072047293186188, -0.9246972799301147, 0.20712324976921082, -0.7620471119880676, 0.35177695751190186, -0.8092983961105347, 0.4357258677482605, 0.6742037534713745, -1.8459762334823608, -0.4028812646865845, -0.35233789682388306, 1.5206706523895264, 0.509915292263031, -1.0283186435699463, -1.3995146751403809, 1.4551981687545776, 0.18309339880943298, -0.08606937527656555, 0.2886204123497009, -0.4801408052444458, -0.3772471249103546, -1.0167169570922852], [-0.11234498769044876, 0.18567609786987305, -0.07454915344715118, -0.6454113721847534, 1.2841503620147705, -1.351664423942566, -2.2614662647247314, -0.5627607703208923, -0.794761598110199, 1.5149391889572144, -0.02032686024904251, -0.7827724814414978, 0.05542241781949997, -0.756610631942749, 1.4247615337371826, -0.13670314848423004, -0.897813081741333, -0.658733606338501, 0.4481728672981262, 0.5276151895523071, 0.34044989943504333, 0.23294754326343536, -0.1595437228679657, -0.3838447332382202], [0.7751022577285767, -0.6157320737838745, 0.4126524031162262, 1.8794046640396118, 0.08682258427143097, -0.1968916803598404, 1.379449486732483, 0.5858643054962158, -0.22254644334316254, 0.5389677882194519, -0.25207310914993286, 1.0384515523910522, -0.175917387008667, -0.22806954383850098, 1.1357930898666382, 0.3723622262477875, 0.8240149617195129, -0.14543236792087555, -0.10111522674560547, -0.7143161296844482, -0.10975772142410278, -0.29904624819755554, -0.30303630232810974, -0.05749307572841644], [-0.32416832447052, 0.49697959423065186, 0.6725873351097107, -0.1490662395954132, -0.07820868492126465, -1.361833095550537, -0.19555486738681793, 0.17615336179733276, 0.7179452180862427, 1.350611925125122, 0.2812363803386688, -0.6897978186607361, 0.255644828081131, -1.2327876091003418, 0.2873495817184448, 0.26986992359161377, -0.49023374915122986, 1.2035239934921265, -1.3689405918121338, -0.6254552006721497, 1.0636813640594482, -0.2781932055950165, -1.109572410583496, -0.5048438310623169], [0.7790879011154175, -0.48570385575294495, 0.3232761025428772, 0.3546958267688751, 0.3281558156013489, -0.21912817656993866, 0.19304388761520386, -0.4439085125923157, 0.08870434761047363, -1.198211669921875, -0.13111159205436707, -0.47877007722854614, -0.24826593697071075, 0.7071978449821472, 0.20095564424991608, -0.45365244150161743, 0.1024463102221489, 0.04864773154258728, -1.0728833675384521, 0.4617614150047302, -0.4923182725906372, 1.168977975845337, 0.3717958629131317, -1.09561288356781], [0.15876610577106476, -0.40052443742752075, -0.49835118651390076, -0.09500054270029068, -0.18760770559310913, 0.22862055897712708, 0.641895592212677, 0.4071506857872009, -0.004689035937190056, 0.17640060186386108, 1.893991470336914, -0.22375093400478363, 0.038851022720336914, -0.6836242079734802, 0.7635369300842285, 0.6377613544464111, 0.40188929438591003, -1.1915485858917236, 0.14374540746212006, -0.4020932912826538, -0.1240265816450119, 0.6214830875396729, 0.5687742233276367, -0.8167222142219543], [-0.07471079379320145, -0.2371143102645874, -1.293839454650879, 0.9382553100585938, 0.6157290935516357, -1.1539162397384644, -0.39345261454582214, -0.5004008412361145, -0.31956052780151367, -0.013469059020280838, -0.5511167645454407, 1.4037634134292603, -0.20902743935585022, 0.34309640526771545, 1.1140410900115967, 0.012068398296833038, 0.3273148238658905, 0.7831960320472717, 0.108772411942482, -0.37127771973609924, 1.091322898864746, -1.2048799991607666, -0.9344099164009094, -0.5535193085670471], [0.611996054649353, -0.31199711561203003, 0.35392069816589355, -0.5355798602104187, 0.24619238078594208, -0.8131206035614014, -0.09439957141876221, 0.893599271774292, -0.48072609305381775, -0.23201078176498413, -1.1277556419372559, 0.06942611932754517, 0.33253681659698486, 0.6724256873130798, -1.6404187679290771, -0.48842495679855347, 0.09612657129764557, 1.123507022857666, -0.42615073919296265, -0.6276850700378418, 0.042870618402957916, 0.3347766101360321, 0.9219738841056824, -0.5570926070213318], [-0.43787187337875366, 1.2497351169586182, 0.692054808139801, 0.5174012184143066, -1.401402473449707, 0.1021842509508133, 0.23090854287147522, -1.7262201309204102, 1.1746141910552979, -0.10174036026000977, -0.679620087146759, -1.4699472188949585, -0.3771720826625824, 0.6918901205062866, -0.6179366707801819, 1.5359498262405396, -0.0732751339673996, 1.024776577949524, 0.2069205939769745, -2.5510547161102295, -0.5794792175292969, -0.10568378120660782, 0.32180193066596985, -0.47919154167175293], [0.0629180520772934, -1.3761759996414185, -0.5789077877998352, 0.6636063456535339, 0.04269377887248993, -0.4729191064834595, 0.11721226572990417, -0.7238783836364746, -0.525801420211792, -0.3286145329475403, 0.6736387610435486, 0.33277150988578796, -0.8100572228431702, -0.9314210414886475, -1.1173875331878662, 1.7504138946533203, -1.602792501449585, 0.13233600556850433, 0.48046988248825073, -0.2950355112552643, -0.5730093121528625, 0.4218980371952057, -0.1074032336473465, 1.489806056022644], [0.22088022530078888, 0.38547247648239136, -1.2733365297317505, 0.6189613342285156, 0.5119129419326782, -0.4133850932121277, 1.2177685499191284, -1.2225345373153687, 0.0845593810081482, -0.6475715637207031, 1.041299819946289, 0.47794827818870544, -0.6650294661521912, 0.6792176365852356, 0.5290153622627258, -0.8826172351837158, -0.19767911732196808, -0.5131577253341675, 1.3667136430740356, 0.03983592987060547, 1.0078338384628296, -0.5386623740196228, -0.6860221028327942, -0.3950245678424835], [1.3570448160171509, 0.4605714678764343, 0.5958168506622314, 1.0484024286270142, 1.527001142501831, -0.38654595613479614, 1.114618182182312, 0.6595246195793152, 0.06424333900213242, -0.3252450227737427, -0.9750103950500488, 0.1661023646593094, 0.036470770835876465, -0.22648844122886658, -0.5957330465316772, -0.7588907480239868, 0.5075936913490295, 0.028603652492165565, -0.008059633895754814, 0.47351154685020447, 0.41469380259513855, 0.09788179397583008, -0.40095293521881104, -0.707790732383728], [0.012455284595489502, 1.1264913082122803, 0.893759548664093, 0.9709268808364868, -0.266861230134964, -0.4613502621650696, 0.29928159713745117, 0.01989041268825531, -0.3990476429462433, 0.36993110179901123, -1.234461784362793, 0.7134345769882202, 0.45879411697387695, -0.3293605446815491, 0.23778104782104492, 0.03268766403198242, -0.16437974572181702, 0.8452329039573669, 0.24370887875556946, -0.588024377822876, 0.565581202507019, -0.020409613847732544, 1.1065911054611206, 0.788410484790802], [1.0283236503601074, -0.5840430855751038, -0.9903590083122253, 0.26781517267227173, -0.2709973156452179, -0.6021755933761597, 1.1430771350860596, 0.5783401131629944, 0.6491817831993103, 1.0659996271133423, 0.3077091574668884, -0.30031049251556396, -0.17325955629348755, 0.9897655248641968, 1.034131407737732, 1.0197832584381104, -0.3547824025154114, -0.2840573191642761, -0.8146560788154602, -0.9317697882652283, 0.30012041330337524, 0.013308092951774597, -0.12932148575782776, 0.4128198027610779], [0.3742479681968689, 0.47276294231414795, 0.8851422071456909, -0.1701311469078064, -0.34500226378440857, 0.15746109187602997, 1.8959451913833618, -0.3433985114097595, -0.26991355419158936, 1.188624620437622, -0.4496835172176361, 0.4885338544845581, 0.8761863708496094, 0.061738401651382446, 1.4040330648422241, 0.8990768194198608, 0.8374353647232056, -0.13859763741493225, -0.7582604885101318, 0.6918135285377502, -0.38877779245376587, -0.6509596109390259, -0.6569362878799438, 1.1145176887512207], [-0.49509477615356445, -0.5201678276062012, 1.547816276550293, -0.21378184854984283, -1.3471726179122925, -0.845428466796875, -0.2369822859764099, 0.29987719655036926, -0.5149661898612976, -0.45187726616859436, -0.2260344922542572, -0.12526381015777588, 0.33809608221054077, -0.07169278711080551, -0.5599512457847595, -0.318893700838089, 0.872557520866394, -0.8700664043426514, -0.178320050239563, 0.05825673043727875, -0.9695996642112732, -0.3837776780128479, 1.1164441108703613, 0.5723254680633545], [0.11886337399482727, 0.5916575193405151, 0.034344661980867386, 0.9603067636489868, 0.2183619886636734, -1.5133545398712158, -0.7182639837265015, 0.8626341223716736, -0.3091084361076355, 0.6107082962989807, -0.5676393508911133, 0.12033988535404205, 2.0448150634765625, -0.5689546465873718, -0.20342878997325897, -0.07664443552494049, 0.1033201515674591, 1.5044176578521729, 0.10025982558727264, -1.473637580871582, -0.25987139344215393, 0.13030892610549927, -1.0354043245315552, -0.8807227611541748], [-0.041797418147325516, -0.1099923700094223, -0.4654547870159149, 0.13287261128425598, 0.2925087809562683, -1.1247743368148804, -0.9622863531112671, 0.3582260012626648, -1.5150755643844604, -1.4601123332977295, -0.6242223978042603, 0.7341978549957275, -0.6364606022834778, 0.3453443646430969, -0.9385817646980286, -0.1682121902704239, 0.24903063476085663, -0.18809568881988525, 0.502252459526062, -0.34887969493865967, 0.043991342186927795, 0.4900504946708679, -0.9102492332458496, -1.4374260902404785], [1.3902794122695923, 0.22595441341400146, -1.402773380279541, 0.2846314311027527, 0.8042933940887451, 0.26106709241867065, 0.21166150271892548, -0.10561313480138779, 0.2437330186367035, -0.6821377873420715, 1.0692797899246216, -0.3464503586292267, -1.0558513402938843, 0.5859470367431641, -1.4724063873291016, -0.7692275047302246, 0.21774868667125702, -0.28059256076812744, -0.04101163148880005, -0.6106181144714355, -0.16774985194206238, -0.011582078412175179, -0.8890160918235779, 0.08033035695552826], [0.8922005891799927, 0.5589752197265625, -0.6980850100517273, 0.4128570258617401, -0.7369077801704407, 1.2898367643356323, 0.6257112622261047, 1.6564558744430542, -0.2641104757785797, 0.21933698654174805, -0.31728947162628174, -1.0270264148712158, -0.2071463167667389, -0.13198161125183105, -1.1572058200836182, 0.03138241171836853, -0.1140536367893219, 0.12411478161811829, -0.4476643204689026, -0.7567594051361084, -1.2171348333358765, 0.24705463647842407, 0.33727195858955383, 1.2512229681015015], [-0.2966349124908447, 0.7128069996833801, -0.48019737005233765, 1.0673456192016602, 0.20888498425483704, 0.8281271457672119, 1.4178037643432617, -0.11171781271696091, 0.1353374421596527, -0.24722597002983093, -0.1267523169517517, 0.9713606238365173, -0.3804693818092346, -0.40752509236335754, -0.26902228593826294, 0.37502986192703247, -0.7562380433082581, 0.2351529598236084, 0.4161375164985657, 0.5630526542663574, -0.11588762700557709, -0.1637386679649353, -0.8450380563735962, -0.7871522307395935], [0.2951587736606598, 0.39494094252586365, 0.0355604849755764, -0.028247088193893433, -0.5933467149734497, 0.3744126856327057, 0.027253421023488045, -0.15301886200904846, -0.7889426946640015, -0.40644580125808716, 1.0169193744659424, -0.05245102196931839, -0.1619766652584076, -0.0741884782910347, 0.9461318850517273, 1.0428885221481323, 0.4895700216293335, 0.25438663363456726, 0.7344846129417419, 0.9007748365402222, 0.22068263590335846, 0.49690380692481995, -0.2050510197877884, 0.9240683317184448], [-0.28984665870666504, 0.6816099882125854, 0.14423012733459473, -0.4161725640296936, 0.5055701732635498, 0.666479229927063, 1.0303548574447632, 1.1031415462493896, -0.4665353298187256, -0.730025053024292, -0.2610672116279602, 0.6321394443511963, -1.3158996105194092, -0.22907564043998718, -0.183711975812912, -0.3894762396812439, -0.37128153443336487, -0.6663168668746948, -0.7813636064529419, 0.1879810094833374, -1.0975114107131958, 0.9655907154083252, -0.9296475052833557, 0.4760052561759949], [-0.29402726888656616, 0.22246631979942322, -0.9087714552879333, -0.6575029492378235, -0.651694655418396, -1.0822898149490356, -0.48633289337158203, 0.3550782799720764, -0.15331384539604187, -0.42677533626556396, 0.09230299293994904, 0.5027233362197876, 0.6806855201721191, -0.3730688691139221, -0.11441484093666077, 0.7938327193260193, -0.1256045252084732, -0.7432870864868164, 0.6647287011146545, 0.4397214353084564, -1.4124140739440918, -0.029986798763275146, -0.8686787486076355, 0.8935452103614807], [1.3660029172897339, 1.8366169929504395, -0.2623109221458435, -1.3143584728240967, -0.07246933877468109, -0.033536024391651154, -0.6007999181747437, 1.7070233821868896, -0.9216229319572449, -0.17573796212673187, 1.2538365125656128, 0.3617496192455292, 0.7999582886695862, 0.3794099688529968, -0.4134082496166229, 0.0031840987503528595, 0.8220881223678589, 0.34352022409439087, -0.3933965861797333, 0.3663061261177063, -0.5597723722457886, 1.7449077367782593, -1.0624425411224365, -0.037366777658462524], [-0.5840134620666504, -1.4792943000793457, -0.4733802080154419, -0.9132594466209412, -0.6464512348175049, -0.9357742667198181, -0.8652767539024353, 0.8559583425521851, 0.9758978486061096, -0.40149664878845215, 1.2761600017547607, 0.5843448638916016, -0.3516925573348999, 0.5668151378631592, 0.04121837764978409, 0.12893497943878174, 1.073484182357788, 1.2398028373718262, -0.5831231474876404, 0.7748103141784668, -0.3391525149345398, -0.496275395154953, -0.3521243929862976, -0.8905185461044312], [-0.30984261631965637, 0.4866790771484375, -0.41056737303733826, 0.19678819179534912, -0.18482284247875214, 0.22433438897132874, -0.6856857538223267, -1.449446439743042, 0.28846311569213867, -0.034924618899822235, 0.13346602022647858, 0.18476930260658264, -0.15850034356117249, -0.2764434814453125, 1.1028661727905273, -1.0447444915771484, 0.9828254580497742, 0.7155795097351074, 0.15279406309127808, -0.16922366619110107, 0.08246852457523346, -0.3365500867366791, 0.7240750193595886, 1.0715570449829102], [0.42477846145629883, 0.2472626119852066, -0.14855006337165833, 0.5041630864143372, -0.7431101202964783, 1.1936640739440918, -0.263919860124588, -0.9751644730567932, 0.37084659934043884, -0.03336366266012192, -1.1587865352630615, 0.34473586082458496, 0.5201480388641357, -0.3495314419269562, 0.026612846180796623, 0.21442261338233948, -0.5633753538131714, -0.09190939366817474, -0.8420541286468506, -0.5924338698387146, -0.6846640110015869, -1.7943062782287598, -0.38650405406951904, 1.1327391862869263], [0.06872818619012833, 0.03527194261550903, 0.29814642667770386, 0.2855677008628845, -1.3639435768127441, 0.6052255630493164, -0.7892444133758545, 1.169459342956543, -0.49484527111053467, 1.1780139207839966, -1.1969256401062012, 0.341302752494812, -0.020934894680976868, -0.9147858619689941, 1.4071555137634277, 0.06717143952846527, -0.4245230555534363, -0.3555709719657898, 0.23173905909061432, 0.5018270611763, 0.17081812024116516, 0.09569428116083145, 0.1111210286617279, 1.528700828552246], [0.017675314098596573, 0.2085069864988327, 0.4685685634613037, -0.1767098307609558, 0.00024117715656757355, -0.13580946624279022, -0.09704512357711792, -0.5955656170845032, -0.7757682204246521, -0.3654112219810486, 0.14372940361499786, -0.3052259683609009, -1.08246648311615, -0.04823422431945801, -0.9337421655654907, 0.2969951331615448, 0.20761770009994507, 0.9793253540992737, -0.05893133208155632, 0.8225525617599487, 0.709923505783081, 1.469396710395813, -0.18599696457386017, -0.2770124673843384], [0.5916051864624023, -0.47199156880378723, -1.2445549964904785, -0.5754023194313049, 0.35255151987075806, 0.6233446598052979, 0.7946213483810425, -0.953791081905365, -1.4697422981262207, -0.4904792308807373, -0.4576359987258911, 0.3843849301338196, -0.0019638240337371826, -0.36786219477653503, 0.10113687813282013, 0.4717898964881897, -0.3374340534210205, -0.690471887588501, 1.1049784421920776, 0.14251986145973206, -0.7010980844497681, -0.023033451288938522, -0.43977227807044983, 1.5153889656066895]], [[0.2554626166820526, 0.1712934672832489, 0.4427584111690521, -0.05999249964952469, -0.2674180865287781, -0.9426066875457764, 0.760298490524292, 0.39707624912261963, -0.5125358700752258, 0.5262466669082642, -0.31086868047714233, -1.6723802089691162, -0.9515457153320312, 0.7408223152160645, 0.2655298709869385, 0.12583814561367035, -1.4096733331680298, 0.5465580821037292, 1.5172505378723145, -0.4855737090110779, 0.6225841045379639, 0.44144970178604126, 0.17851927876472473, 0.007527757436037064, 0.8242807388305664, -0.5842496156692505, 0.5513671040534973, -0.16381943225860596, -0.07125693559646606, 0.9774031639099121, 0.272783100605011, 0.7670074701309204], [0.24532285332679749, -0.09122790396213531, 0.6501206755638123, 0.4974256157875061, -0.8672991991043091, -0.5390701293945312, 0.206695094704628, 0.6004671454429626, -1.1358364820480347, -0.3922675549983978, -1.494112491607666, -1.2461785078048706, 0.5941211581230164, 0.36211100220680237, 0.5550205707550049, -0.5898794531822205, -1.099863886833191, 0.48174136877059937, -0.4144337475299835, 0.3694283366203308, -0.4107295274734497, -0.07029277831315994, 0.26818200945854187, -0.066946841776371, 0.12264122813940048, 0.2222851812839508, -0.8057725429534912, 1.0605460405349731, 0.20507954061031342, 0.3993862569332123, -0.044236794114112854, 0.21052104234695435], [-1.1439913511276245, -0.3986079692840576, -0.18216592073440552, -1.4872106313705444, 0.5899134278297424, 0.8251210451126099, 0.490294486284256, -0.3106343150138855, 1.9297518730163574, -0.37472543120384216, -0.24739985167980194, 1.2652525901794434, 0.6856778860092163, 0.4732359051704407, -0.8189615607261658, -0.7245708107948303, -0.03937942534685135, 0.9422810673713684, -0.08918485790491104, 0.0036033615469932556, 1.1594456434249878, 0.34714704751968384, 0.16341742873191833, -0.6792453527450562, 0.9142761826515198, -0.593633770942688, 1.302550196647644, -0.22693029046058655, -0.052657000720500946, -0.6420869827270508, 0.47608432173728943, -0.11897473782300949], [0.8922740817070007, -0.6846864819526672, -0.6304275989532471, -0.013889119029045105, 0.3358077108860016, 0.5851224660873413, -0.9359934329986572, -0.5791140794754028, -0.8980785012245178, -1.0509876012802124, -1.0063869953155518, -1.1298953294754028, -1.8151772022247314, 0.5386009216308594, -0.18056023120880127, -0.22695764899253845, 0.4497048258781433, -0.6799864172935486, 0.4275973439216614, 0.4818328619003296, -0.8493919372558594, 0.6235835552215576, 1.4296647310256958, -1.3692247867584229, 0.5550272464752197, 0.2701481580734253, 0.265988290309906, 1.2304736375808716, 0.24759931862354279, 0.6255806088447571, 1.6747653484344482, 0.8460652828216553], [0.3307103216648102, 0.724615752696991, -0.4326293468475342, -1.2966619729995728, -0.35239535570144653, 0.13861390948295593, 0.6993066072463989, 0.08544781804084778, 1.2028708457946777, 0.7246559262275696, -0.7752282619476318, 0.12467584013938904, -1.6173791885375977, 0.15896974503993988, -0.11020483821630478, 0.9044405817985535, -0.24399082362651825, -0.1165698766708374, 2.2549054622650146, 0.5172988772392273, -1.5465006828308105, 0.006071463227272034, 0.568572461605072, 0.3261260986328125, 0.31735193729400635, 0.048166923224925995, -0.6009521484375, 0.5671277642250061, 0.9656121730804443, -0.7027292251586914, 1.5635802745819092, 0.21139448881149292], [-0.011493280529975891, -0.2928412854671478, 0.997355580329895, -1.0584648847579956, -0.5863960385322571, -0.03354623168706894, -0.8982314467430115, -1.1885055303573608, 1.414717435836792, -0.3786894977092743, -0.8162803053855896, -0.32672619819641113, 0.32565850019454956, 0.15017864108085632, 0.4203088581562042, 0.24460867047309875, 0.21152012050151825, 0.670341432094574, -1.000734567642212, 0.830729603767395, -0.6082672476768494, -0.6033413410186768, -0.12600965797901154, 0.6638473868370056, 0.5276409983634949, 0.5436797738075256, 0.793137788772583, -0.5620748400688171, -0.20578248798847198, -0.17413568496704102, 0.33421680331230164, 0.43875086307525635], [-0.36492523550987244, -0.21898922324180603, 0.28588300943374634, -0.33814114332199097, -0.2567315995693207, 0.5578300952911377, -0.0814175233244896, 0.7633039951324463, -0.17159968614578247, 0.09700196981430054, 0.6307028532028198, -0.7244166135787964, -0.4821260869503021, 0.3906084895133972, -0.19167326390743256, 0.5421479940414429, -0.6333864331245422, 0.5751020312309265, 0.14450740814208984, -0.4265580177307129, -0.7057645320892334, 0.8088232278823853, 1.1615819931030273, 0.4353962540626526, 0.25708597898483276, -0.6349718570709229, -0.04259782284498215, -0.6776401400566101, 0.4792618453502655, -0.5402786731719971, -0.5078514814376831, 0.9769608378410339], [1.6069567203521729, -0.43925929069519043, 1.2251088619232178, -0.03687337040901184, 0.01688934862613678, -0.3819524645805359, -0.13126929104328156, 0.3403181731700897, -1.0352286100387573, 0.3205029368400574, -1.0185054540634155, 0.21656697988510132, -0.4734211564064026, 0.21915389597415924, -0.1455341875553131, -0.3773546814918518, -0.16785626113414764, 0.7291109561920166, 0.27247491478919983, -0.15495461225509644, 0.9720359444618225, 0.009972430765628815, -0.15393492579460144, 1.1476315259933472, -0.20717748999595642, 0.6216737627983093, -1.486208200454712, 0.08545997738838196, -0.43309175968170166, -0.5872794985771179, -1.0795451402664185, -0.321480393409729], [-0.2645066976547241, -1.2122019529342651, 0.2143511176109314, 1.0893064737319946, -0.6450090408325195, 0.08212533593177795, 1.0634617805480957, -1.0864500999450684, 2.6923327445983887, 1.5645085573196411, -1.0326979160308838, -0.6167382597923279, -0.028375133872032166, -0.09744343906641006, -0.9819854497909546, 0.2964239716529846, -0.1734921932220459, -0.07563365995883942, -0.6732094287872314, 1.2413709163665771, -0.4194006621837616, 0.8241934776306152, 0.5611790418624878, -0.2001645714044571, -0.3032803535461426, -0.4149157404899597, 0.43312209844589233, -0.7988582849502563, -0.27436506748199463, 0.15182332694530487, 1.0395475625991821, 0.14726631343364716], [-0.27110686898231506, 0.8239654302597046, -0.06575175374746323, 0.23742905259132385, 0.3615717887878418, -0.31626731157302856, -0.6859474182128906, 0.31766214966773987, -0.6065202355384827, 0.2771352529525757, 0.46792691946029663, -0.09965784102678299, 0.4378202557563782, 0.6179906129837036, 0.3780438303947449, 0.07999815046787262, 0.6852607131004333, -0.8678231239318848, -0.9313036799430847, 0.7260289788246155, 0.6614971160888672, 1.009016990661621, -0.49774369597435, -0.7902151942253113, -0.6218056082725525, -0.1925395280122757, -0.4021680951118469, -0.5430629253387451, 0.157644122838974, -0.526106595993042, 0.7005116939544678, -0.5998715758323669], [0.15373456478118896, 0.18502312898635864, -0.4122677147388458, 1.1146199703216553, 0.18635766208171844, 0.6121197938919067, 0.831694483757019, -0.15554313361644745, 0.4748547077178955, -0.24280911684036255, 0.4524276852607727, 0.3714267313480377, -0.3530545234680176, 0.6024073958396912, 1.2180283069610596, -0.16009491682052612, 0.6234312057495117, 0.8183372020721436, 0.8975136280059814, -0.5576169490814209, -0.29550543427467346, 0.18646900355815887, -1.2308903932571411, -0.1275290995836258, -0.6795798540115356, -1.541507601737976, 0.23930659890174866, 0.6835788488388062, 0.42634594440460205, 1.3855444192886353, -1.6109552383422852, -0.6750263571739197], [-2.0649452209472656, -0.49658939242362976, 1.2116649150848389, -0.5386978387832642, 0.2401486337184906, 0.348838210105896, 0.69987952709198, -1.4899661540985107, 0.03159743547439575, -0.0036669671535491943, -0.3544120192527771, -0.1156829297542572, 0.4388921856880188, 0.21991831064224243, -0.36689355969429016, 0.37879693508148193, -1.1192861795425415, -1.0328874588012695, -0.47299617528915405, -0.34224143624305725, 0.4170835018157959, 0.38687413930892944, 0.9030077457427979, -0.025422021746635437, -0.6611268520355225, -0.3169938325881958, -0.710519015789032, -0.25204288959503174, -0.2333751618862152, -0.4472152590751648, -1.0804046392440796, -0.16047194600105286], [0.430264413356781, 1.3144822120666504, 0.5985257029533386, 0.6862438321113586, 0.5296908617019653, 0.16968874633312225, 0.2106487900018692, 0.11261893808841705, -0.03641553223133087, -0.2126239836215973, -0.7440102100372314, 0.2264646738767624, -0.03301267325878143, -0.9861347079277039, -0.27134525775909424, -0.1872262954711914, 0.19691558182239532, 0.09370161592960358, 1.5532068014144897, -1.1405516862869263, -0.20677754282951355, -0.6066076755523682, 0.25558730959892273, -0.9266771078109741, 1.0773996114730835, 0.3594144284725189, -0.7647782564163208, 1.4316117763519287, 0.6071168184280396, -0.030619904398918152, -0.5134817361831665, 0.41687390208244324], [-1.2445106506347656, -0.31056615710258484, -0.8799469470977783, -0.6743863821029663, -0.29232609272003174, -0.5420277118682861, 0.3312830328941345, -1.0324710607528687, 0.14376753568649292, 0.6695206165313721, 1.091005802154541, -0.30060577392578125, -0.9574710726737976, 0.5255770683288574, 1.5184967517852783, -2.0753002166748047, 0.18587923049926758, -0.11499220132827759, 0.62166428565979, -0.7726795673370361, -0.14910602569580078, -0.16753248870372772, -0.3795064091682434, 0.06735953688621521, 0.4095667600631714, -1.082586646080017, -0.23405173420906067, -0.5234230756759644, -0.3543117940425873, -0.42230403423309326, -0.34098827838897705, 1.0915032625198364], [-0.09608504176139832, 0.48952430486679077, 0.8025544285774231, -0.051300227642059326, -0.18653254210948944, -0.5275012850761414, 0.20672044157981873, -1.2652233839035034, -0.26841747760772705, -0.8841093182563782, -0.07918520271778107, -0.5508301854133606, -0.7587178349494934, 1.5853928327560425, -0.4186074137687683, 0.11110039055347443, 1.0429034233093262, -0.6647992730140686, 0.4579613208770752, 0.7036226987838745, -0.7599802613258362, -1.6947381496429443, 0.4826952815055847, -1.5433435440063477, 0.1541297435760498, 0.33527514338493347, 0.4999326467514038, -0.279860258102417, 0.20455703139305115, -0.7599667906761169, 1.3589684963226318, 0.43668675422668457], [-1.0507968664169312, 0.3475914001464844, 1.3029391765594482, 0.30254995822906494, -0.6651474833488464, 0.4251140356063843, -0.7090606093406677, -0.6516908407211304, -0.9472963809967041, 0.7276865243911743, -0.35178059339523315, -0.47144684195518494, -0.1661970019340515, 0.4881333112716675, 0.49542397260665894, 0.3623594641685486, -0.37874987721443176, -0.04130912572145462, 1.1985206604003906, -0.9484466910362244, -0.3753539025783539, -0.8057857155799866, 1.9696459770202637, 0.16102392971515656, 0.43345269560813904, -0.4152701795101166, -0.29359668493270874, -0.370382696390152, 0.5674477815628052, 0.7642841339111328, -0.5245756506919861, -0.6023512482643127]], [[-0.7868579626083374, -0.08666162192821503, -0.2119184136390686, -0.0406937301158905, -0.01362079381942749, 0.4319000840187073, -0.9546123743057251, -0.08306793868541718, -0.4731464385986328, 0.5038174390792847, -0.03576967865228653, 0.28688815236091614, -0.3378804624080658, 1.6413800716400146, 1.9492267370224, -0.5294802188873291], [-0.8942128419876099, 1.327466607093811, 0.47531890869140625, -0.8656654953956604, 0.6679913997650146, -0.11340704560279846, -0.10291540622711182, 0.5316818356513977, 0.8812748789787292, -0.6163330674171448, -0.011543914675712585, -0.8580349683761597, 1.2418466806411743, -0.9263955354690552, 0.7891606688499451, -0.7827703952789307], [0.4545021057128906, 1.0043797492980957, -0.5464638471603394, -0.9265995621681213, 1.130937099456787, -1.5365546941757202, -0.5004709362983704, -0.22655661404132843, 1.4470796585083008, -0.03256700932979584, 0.12225498259067535, 1.577404499053955, 0.8715961575508118, 0.7642711997032166, 0.16144487261772156, -0.5195955038070679], [-1.3113352060317993, 0.8705722689628601, -0.1255222111940384, -1.2210724353790283, 0.21170967817306519, -0.008911356329917908, 0.8300615549087524, 0.9047964215278625, -0.8009999394416809, -0.16679704189300537, 0.5965126752853394, 0.42919719219207764, -0.06331048905849457, -0.30301380157470703, 0.40619221329689026, 0.9189410209655762], [-0.6281881332397461, -0.27903100848197937, -0.7352799773216248, -0.19262485206127167, -1.5330156087875366, 0.16803935170173645, -0.7424529790878296, 0.4852427840232849, 0.13206882774829865, -0.3840867877006531, 0.11053862422704697, 0.241838276386261, -0.20492114126682281, -0.25470492243766785, -1.2846132516860962, -1.1239135265350342], [-1.289392352104187, -1.3647621870040894, 0.8403811454772949, 0.6274971961975098, -1.114691138267517, -0.4828868508338928, -0.6116501688957214, -0.8392331004142761, -0.29499146342277527, -0.9762997627258301, 0.4830399751663208, 0.03929109871387482, 1.1044037342071533, -0.3664691746234894, -0.2305610477924347, -0.4327598512172699], [-1.0763267278671265, 1.4639415740966797, -1.115156888961792, -0.8765024542808533, -2.1889286041259766, -0.4833432137966156, -1.3665364980697632, -0.298414945602417, 1.4499385356903076, -0.26919496059417725, 1.042573094367981, 0.016137100756168365, 0.6440259218215942, -0.10468973219394684, -0.5123884081840515, -0.3780553936958313], [0.4909846782684326, 0.6948349475860596, 0.41361692547798157, 0.9040079116821289, 0.5533921718597412, 0.771399974822998, -0.2543705999851227, 0.478615939617157, -0.16274550557136536, -0.22552835941314697, 1.2087994813919067, 0.4110638201236725, 0.48599547147750854, 0.09913633018732071, -0.14867199957370758, -0.5669305324554443]], [[1.326583981513977, -1.1986684799194336, -0.2649886906147003, 0.9111148715019226, 0.20508509874343872, -0.16762426495552063, 1.588963270187378, 0.4703150987625122], [0.32922500371932983, 0.14666129648685455, 0.3610313832759857, -0.691933810710907, -1.5904123783111572, 0.33201149106025696, 0.4129111170768738, 0.16948619484901428]]], "brain_biases": [[0.7137951254844666, -0.2791285514831543, 0.6577972769737244, 0.9737958908081055, 0.7725522518157959, -1.1680693626403809, 0.43616169691085815, -1.4779624938964844, -0.2602160573005676, 0.251150906085968, -0.7117658853530884, 0.49438175559043884, 0.721281886100769, 0.403766393661499, 0.1985550820827484, 0.5546758770942688, -0.4026501178741455, 0.45536184310913086, -0.633277952671051, 0.5213450193405151, 0.7910173535346985, -0.2848965525627136, 0.5889414548873901, -1.031612515449524, 0.8180809020996094, -0.5128685235977173, 0.08516336977481842, -0.6433316469192505, 0.40491583943367004, -0.6447238922119141, -0.3864661455154419, 0.29302000999450684], [-0.5960279703140259, 0.18855197727680206, -0.3782872259616852, 0.8285196423530579, 0.45756804943084717, -0.06025254726409912, -0.3544039726257324, 0.2925410866737366, -0.12166935205459595, 1.150321364402771, 1.1267297267913818, -0.8334535956382751, 0.3576517701148987, 0.7414270639419556, 0.08632735162973404, 0.3613322377204895], [0.3937798738479614, -0.09177903085947037, 1.1583746671676636, 0.14923521876335144, 0.7847791910171509, 0.572964072227478, -0.09335963428020477, -0.7319799065589905], [0.5133638381958008, -0.05803416669368744]], "sensor_retina_count": 24, "sensor_vision_radius": 300.0, "sensor_fov_degrees": 180.0, "sensor_skip": 2, "sensor_see_food": true, "sensor_see_bacteria": false, "sensor_see_predators": false, "locomotion_max_speed": 300.0, "locomotion_max_turn": 3.141592653589793, "energy_loss_idle": 2.0, "energy_loss_move": 5.0, "energy_death_energy": 0.0, "energy_split_energy": 150.0, "last_brain_output": [2.9846925735473633, -0.07335090637207031], "last_brain_activations": []}, {"type": "bacteria", 